
\data\
ngram 1=2756
ngram 2=6812

\1-grams:
-8.587652	</s>	0
-8.587652	<s>	0
-8.587652	a	0
-8.587652	abajo	0
-8.587652	abandonada	0
-8.587652	abandonado	0
-8.587652	abarcan	0
-8.587652	abastecimiento	0
-8.587652	abatir	0
-8.587652	abierta	0
-8.587652	abiertas	0
-8.587652	abierto	0
-8.587652	abra	0
-8.587652	abrigamos	0
-8.587652	abril	0
-8.587652	abrió	0
-8.587652	abstracto	0
-8.587652	abundan	0
-8.587652	aburrida	0
-8.587652	acaba	0
-8.587652	acaben	0
-8.587652	acaso	0
-8.587652	acatamiento	0
-8.587652	acceder	0
-8.587652	acceso	0
-8.587652	accidente	0
-8.587652	acciones	0
-8.587652	acción	0
-8.587652	acelerar	0
-8.587652	acento	0
-8.587652	aceptable	0
-8.587652	aceptar	0
-8.587652	aceptarla	0
-8.587652	acepto	0
-8.587652	aceptó	0
-8.587652	aclara	0
-8.587652	aclararlo	0
-8.587652	acomete	0
-8.587652	acontecimiento	0
-8.587652	acopla	0
-8.587652	acordaron	0
-8.587652	acordó	0
-8.587652	acortarán	0
-8.587652	acosta	0
-8.587652	actitud	0
-8.587652	actividad	0
-8.587652	actividades	0
-8.587652	activo	0
-8.587652	activos	0
-8.587652	acto	0
-8.587652	actor	0
-8.587652	actuaciones	0
-8.587652	actual	0
-8.587652	actualidad	0
-8.587652	actualizan	0
-8.587652	actualizar	0
-8.587652	actualmente	0
-8.587652	actuando	0
-8.587652	actuar	0
-8.587652	actuaré	0
-8.587652	acude	0
-8.587652	acuerdan	0
-8.587652	acuerdo	0
-8.587652	acusaciones	0
-8.587652	acusados	0
-8.587652	adelante	0
-8.587652	adelanto	0
-8.587652	además	0
-8.587652	adicionales	0
-8.587652	adiós	0
-8.587652	adjudica	0
-8.587652	adjudicada	0
-8.587652	adjunta	0
-8.587652	adjuntan	0
-8.587652	adjunto	0
-8.587652	admite	0
-8.587652	adoptado	0
-8.587652	adoptará	0
-8.587652	adoptarán	0
-8.587652	aducía	0
-8.587652	advirtió	0
-8.587652	aeropuerto	0
-8.587652	aeropuertos	0
-8.587652	afectados	0
-8.587652	afiliación	0
-8.587652	afirma	0
-8.587652	afirmativo	0
-8.587652	afirmó	0
-8.587652	agencia	0
-8.587652	agente	0
-8.587652	agradecemos	0
-8.587652	agradeceremos	0
-8.587652	agradecerle	0
-8.587652	agradezco	0
-8.587652	agrava	0
-8.587652	agravó	0
-8.587652	agregó	0
-8.587652	agresión	0
-8.587652	agrupación	0
-8.587652	agrícola	0
-8.587652	agua	0
-8.587652	aguarda	0
-8.587652	aguarme	0
-8.587652	aguas	0
-8.587652	ahondar	0
-8.587652	ahora	0
-8.587652	ahorra	0
-8.587652	ahí	0
-8.587652	aislamiento	0
-8.587652	ajustará	0
-8.587652	al	0
-8.587652	albacora	0
-8.587652	aldeas	0
-8.587652	alegatos	0
-8.587652	alemania	0
-8.587652	alemán	0
-8.587652	alfonsín	0
-8.587652	algo	0
-8.587652	alguna	0
-8.587652	algunas	0
-8.587652	alguno	0
-8.587652	algunos	0
-8.587652	alimentaria	0
-8.587652	alla	0
-8.587652	allen	0
-8.587652	allá	0
-8.587652	allí	0
-8.587652	alrededor	0
-8.587652	alta	0
-8.587652	altibajos	0
-8.587652	alto	0
-8.587652	alvaro	0
-8.587652	alza	0
-8.587652	amable	0
-8.587652	amazónico	0
-8.587652	ambas	0
-8.587652	ambos	0
-8.587652	amplia	0
-8.587652	ampliado	0
-8.587652	ampliamente	0
-8.587652	ampliar	0
-8.587652	ampliarse	0
-8.587652	amplio	0
-8.587652	amplitud	0
-8.587652	américa	0
-8.587652	analfabetos	0
-8.587652	analista	0
-8.587652	analizado	0
-8.587652	analogía	0
-8.587652	anexo	0
-8.587652	anexos	0
-8.587652	anonadado	0
-8.587652	anonimato	0
-8.587652	ante	0
-8.587652	antemano	0
-8.587652	antenas	0
-8.587652	anterior	0
-8.587652	anticipado	0
-8.587652	anticipó	0
-8.587652	antología	0
-8.587652	anual	0
-8.587652	anunciado	0
-8.587652	anunciados	0
-8.587652	anunciar	0
-8.587652	análisis	0
-8.587652	apagones	0
-8.587652	aparecen	0
-8.587652	aparentemente	0
-8.587652	apelables	0
-8.587652	apelación	0
-8.587652	apelado	0
-8.587652	apertura	0
-8.587652	aplicación	0
-8.587652	aplicar	0
-8.587652	aportaciones	0
-8.587652	apoyo	0
-8.587652	apremio	0
-8.587652	aprobación	0
-8.587652	aprobado	0
-8.587652	aprobar	0
-8.587652	aprobaron	0
-8.587652	aprobó	0
-8.587652	aproximadas	0
-8.587652	aprueba	0
-8.587652	apuntarán	0
-8.587652	aquella	0
-8.587652	aragón	0
-8.587652	arbitraje	0
-8.587652	aremisos	0
-8.587652	argentina	0
-8.587652	argentino	0
-8.587652	arias	0
-8.587652	aristide	0
-8.587652	arma	0
-8.587652	armamento	0
-8.587652	armas	0
-8.587652	arrecian	0
-8.587652	arreglo	0
-8.587652	arrestado	0
-8.587652	arroz	0
-8.587652	arte	0
-8.587652	artistas	0
-8.587652	artículo	0
-8.587652	artículos	0
-8.587652	asalariados	0
-8.587652	asamblea	0
-8.587652	ascenso	0
-8.587652	asegurado	0
-8.587652	asesinar	0
-8.587652	aseveró	0
-8.587652	asignación	0
-8.587652	asimismo	0
-8.587652	asisten	0
-8.587652	asistencia	0
-8.587652	asociado	0
-8.587652	asombro	0
-8.587652	aspecto	0
-8.587652	aspectos	0
-8.587652	aspin	0
-8.587652	assad	0
-8.587652	astronautas	0
-8.587652	asumiría	0
-8.587652	asunto	0
-8.587652	asuntos	0
-8.587652	así	0
-8.587652	atacar	0
-8.587652	ataque	0
-8.587652	ataúd	0
-8.587652	atención	0
-8.587652	atender	0
-8.587652	atentado	0
-8.587652	aterrizó	0
-8.587652	atlanta	0
-8.587652	atraer	0
-8.587652	atraviesan	0
-8.587652	atribuírlo	0
-8.587652	atrás	0
-8.587652	atuendo	0
-8.587652	audaz	0
-8.587652	audiencias	0
-8.587652	aumenta	0
-8.587652	aumentado	0
-8.587652	aumentaron	0
-8.587652	aumentos	0
-8.587652	aumentó	0
-8.587652	ausencia	0
-8.587652	australiano	0
-8.587652	autobús	0
-8.587652	autoevaluaciones	0
-8.587652	automóvil	0
-8.587652	automóviles	0
-8.587652	autor	0
-8.587652	autoridades	0
-8.587652	avance	0
-8.587652	avancen	0
-8.587652	avances	0
-8.587652	avanza	0
-8.587652	avanzado	0
-8.587652	avaro	0
-8.587652	avendaño	0
-8.587652	avisaremos	0
-8.587652	avión	0
-8.587652	ayer	0
-8.587652	ayuda	0
-8.587652	ayudará	0
-8.587652	aérea	0
-8.587652	aéreos	0
-8.587652	añadió	0
-8.587652	año	0
-8.587652	años	0
-8.587652	aún	0
-8.587652	baja	0
-8.587652	bajaron	0
-8.587652	baje	0
-8.587652	bajo	0
-8.587652	bajos	0
-8.587652	balladur	0
-8.587652	bancario	0
-8.587652	banco	0
-8.587652	bancolombia	0
-8.587652	bancos	0
-8.587652	basa	0
-8.587652	basado	0
-8.587652	base	0
-8.587652	bastante	0
-8.587652	basándose	0
-8.587652	batalla	0
-8.587652	batallones	0
-8.587652	baviera	0
-8.587652	beca	0
-8.587652	bena	0
-8.587652	bendiga	0
-8.587652	benítez	0
-8.587652	berlín	0
-8.587652	bernardin	0
-8.587652	bernardo	0
-8.587652	bielorrusia	0
-8.587652	bien	0
-8.587652	bienvenida	0
-8.587652	blancos	0
-8.587652	blum	0
-8.587652	bogotá	0
-8.587652	bola	0
-8.587652	bomba	0
-8.587652	bondes	0
-8.587652	bonn	0
-8.587652	bonos	0
-8.587652	boquete	0
-8.587652	borrador	0
-8.587652	borrados	0
-8.587652	bosnia	0
-8.587652	bosques	0
-8.587652	brasil	0
-8.587652	brasileño	0
-8.587652	breve	0
-8.587652	brevemente	0
-8.587652	bruselas	0
-8.587652	buceador	0
-8.587652	buen	0
-8.587652	bueno	0
-8.587652	busca	0
-8.587652	buscamos	0
-8.587652	buscar	0
-8.587652	básicos	0
-8.587652	bósforo	0
-8.587652	cabe	0
-8.587652	cabo	0
-8.587652	cabría	0
-8.587652	cachemira	0
-8.587652	cada	0
-8.587652	cadena	0
-8.587652	caer	0
-8.587652	cafetería	0
-8.587652	caja	0
-8.587652	caldera	0
-8.587652	calefacción	0
-8.587652	calidad	0
-8.587652	camacho	0
-8.587652	cambiado	0
-8.587652	cambio	0
-8.587652	cambios	0
-8.587652	cambió	0
-8.587652	campamento	0
-8.587652	campaña	0
-8.587652	campeones	0
-8.587652	campo	0
-8.587652	canalizó	0
-8.587652	canciller	0
-8.587652	cancillería	0
-8.587652	candidato	0
-8.587652	candidatos	0
-8.587652	cantante	0
-8.587652	cantidad	0
-8.587652	capacidad	0
-8.587652	capaz	0
-8.587652	capital	0
-8.587652	captura	0
-8.587652	capítulo	0
-8.587652	cara	0
-8.587652	caracas	0
-8.587652	caravana	0
-8.587652	carbón	0
-8.587652	cardona	0
-8.587652	carece	0
-8.587652	carga	0
-8.587652	cargo	0
-8.587652	carlos	0
-8.587652	carnaval	0
-8.587652	caro	0
-8.587652	carrera	0
-8.587652	carta	0
-8.587652	cartas	0
-8.587652	carteles	0
-8.587652	casa	0
-8.587652	casas	0
-8.587652	casi	0
-8.587652	casino	0
-8.587652	caso	0
-8.587652	casos	0
-8.587652	casó	0
-8.587652	catedral	0
-8.587652	catorce	0
-8.587652	católica	0
-8.587652	causa	0
-8.587652	causas	0
-8.587652	causó	0
-8.587652	cavallo	0
-8.587652	cayeron	0
-8.587652	cañoneos	0
-8.587652	ceda	0
-8.587652	cedería	0
-8.587652	celebración	0
-8.587652	cenizas	0
-8.587652	central	0
-8.587652	centro	0
-8.587652	centroamérica	0
-8.587652	cerca	0
-8.587652	cero	0
-8.587652	cerrados	0
-8.587652	cerrar	0
-8.587652	cerraron	0
-8.587652	cerrará	0
-8.587652	cerveza	0
-8.587652	cesación	0
-8.587652	cesar	0
-8.587652	cese	0
-8.587652	cetáceos	0
-8.587652	chiapas	0
-8.587652	chile	0
-8.587652	chileno	0
-8.587652	china	0
-8.587652	chocó	0
-8.587652	choferes	0
-8.587652	choques	0
-8.587652	ciega	0
-8.587652	cielo	0
-8.587652	ciento	0
-8.587652	científicos	0
-8.587652	ciernen	0
-8.587652	cierra	0
-8.587652	cierre	0
-8.587652	cierto	0
-8.587652	cifra	0
-8.587652	cifras	0
-8.587652	cinco	0
-8.587652	ciudad	0
-8.587652	civiles	0
-8.587652	civilizados	0
-8.587652	claro	0
-8.587652	clase	0
-8.587652	clasificación	0
-8.587652	claudio	0
-8.587652	clausura	0
-8.587652	clausuran	0
-8.587652	claves	0
-8.587652	climáticos	0
-8.587652	clinton	0
-8.587652	coalición	0
-8.587652	coherencia	0
-8.587652	colaboración	0
-8.587652	colaborar	0
-8.587652	coleman	0
-8.587652	colombia	0
-8.587652	colombo	0
-8.587652	colonos	0
-8.587652	columna	0
-8.587652	combates	0
-8.587652	combatir	0
-8.587652	combustible	0
-8.587652	comedia	0
-8.587652	comentado	0
-8.587652	comentar	0
-8.587652	comentario	0
-8.587652	comentarios	0
-8.587652	comentó	0
-8.587652	comenzar	0
-8.587652	comenzará	0
-8.587652	comenzarán	0
-8.587652	comerciales	0
-8.587652	comercializó	0
-8.587652	comercio	0
-8.587652	comienza	0
-8.587652	comienzo	0
-8.587652	comisionista	0
-8.587652	comisión	0
-8.587652	comité	0
-8.587652	comités	0
-8.587652	como	0
-8.587652	compara	0
-8.587652	comparte	0
-8.587652	comparten	0
-8.587652	compartieron	0
-8.587652	comparó	0
-8.587652	compasión	0
-8.587652	compatible	0
-8.587652	compañía	0
-8.587652	compensatorias	0
-8.587652	competitiva	0
-8.587652	complace	0
-8.587652	complaciente	0
-8.587652	complejo	0
-8.587652	complejos	0
-8.587652	completa	0
-8.587652	completan	0
-8.587652	completo	0
-8.587652	completos	0
-8.587652	completó	0
-8.587652	complicadas	0
-8.587652	composición	0
-8.587652	compras	0
-8.587652	comprende	0
-8.587652	comprendemos	0
-8.587652	comprender	0
-8.587652	comprenderse	0
-8.587652	comprenderá	0
-8.587652	comprendió	0
-8.587652	comprensión	0
-8.587652	comprometido	0
-8.587652	compromiso	0
-8.587652	común	0
-8.587652	con	0
-8.587652	concebido	0
-8.587652	concepto	0
-8.587652	conciencia	0
-8.587652	conclusiones	0
-8.587652	conclusión	0
-8.587652	concluye	0
-8.587652	concluídas	0
-8.587652	concluído	0
-8.587652	concreta	0
-8.587652	concretos	0
-8.587652	concuerda	0
-8.587652	concéntrese	0
-8.587652	condena	0
-8.587652	condenatorio	0
-8.587652	condiciones	0
-8.587652	condición	0
-8.587652	conductor	0
-8.587652	condujo	0
-8.587652	conexión	0
-8.587652	conferencia	0
-8.587652	confianza	0
-8.587652	confidenciales	0
-8.587652	confirmado	0
-8.587652	conflictos	0
-8.587652	conforme	0
-8.587652	confuso	0
-8.587652	congelarían	0
-8.587652	congreso	0
-8.587652	conoce	0
-8.587652	conocen	0
-8.587652	conocer	0
-8.587652	conocerla	0
-8.587652	conocida	0
-8.587652	conocido	0
-8.587652	conocimiento	0
-8.587652	consecuencia	0
-8.587652	consecutivos	0
-8.587652	conseguir	0
-8.587652	consejo	0
-8.587652	consenso	0
-8.587652	conservación	0
-8.587652	considera	0
-8.587652	considerablemente	0
-8.587652	consideración	0
-8.587652	consideró	0
-8.587652	consignaciones	0
-8.587652	consiguiente	0
-8.587652	consta	0
-8.587652	constante	0
-8.587652	constantemente	0
-8.587652	constituirán	0
-8.587652	constituye	0
-8.587652	construcciones	0
-8.587652	construir	0
-8.587652	consulta	0
-8.587652	consumado	0
-8.587652	consumo	0
-8.587652	contactado	0
-8.587652	contacto	0
-8.587652	contaduría	0
-8.587652	contemplaba	0
-8.587652	contenido	0
-8.587652	conteo	0
-8.587652	contestaron	0
-8.587652	contextos	0
-8.587652	continuaban	0
-8.587652	continuación	0
-8.587652	continuado	0
-8.587652	continuar	0
-8.587652	continuaran	0
-8.587652	continuaremos	0
-8.587652	continuarán	0
-8.587652	continúa	0
-8.587652	continúe	0
-8.587652	continúen	0
-8.587652	contra	0
-8.587652	contradicciones	0
-8.587652	contrario	0
-8.587652	control	0
-8.587652	controlado	0
-8.587652	convencidos	0
-8.587652	convención	0
-8.587652	conveniente	0
-8.587652	conversaciones	0
-8.587652	cooperación	0
-8.587652	coordinación	0
-8.587652	copa	0
-8.587652	copia	0
-8.587652	copiar	0
-8.587652	copias	0
-8.587652	cordinar	0
-8.587652	correa	0
-8.587652	correcta	0
-8.587652	correctas	0
-8.587652	correcto	0
-8.587652	corregirse	0
-8.587652	correr	0
-8.587652	correspondientes	0
-8.587652	correspondía	0
-8.587652	corro	0
-8.587652	corros	0
-8.587652	corrupción	0
-8.587652	cortar	0
-8.587652	corte	0
-8.587652	cortes	0
-8.587652	corto	0
-8.587652	cosa	0
-8.587652	cosas	0
-8.587652	costa	0
-8.587652	costo	0
-8.587652	costosas	0
-8.587652	cotización	0
-8.587652	cotizó	0
-8.587652	creado	0
-8.587652	crean	0
-8.587652	creciente	0
-8.587652	crecimiento	0
-8.587652	cree	0
-8.587652	creen	0
-8.587652	creo	0
-8.587652	creíamos	0
-8.587652	creó	0
-8.587652	crisis	0
-8.587652	cristal	0
-8.587652	criterios	0
-8.587652	critica	0
-8.587652	criticará	0
-8.587652	crucial	0
-8.587652	crudo	0
-8.587652	cruzada	0
-8.587652	crédito	0
-8.587652	críticas	0
-8.587652	críticos	0
-8.587652	cuadro	0
-8.587652	cuadros	0
-8.587652	cual	0
-8.587652	cualquier	0
-8.587652	cuando	0
-8.587652	cuanto	0
-8.587652	cuantos	0
-8.587652	cuarenta	0
-8.587652	cuarta	0
-8.587652	cuatro	0
-8.587652	cuba	0
-8.587652	cubierta	0
-8.587652	cuenta	0
-8.587652	cuentas	0
-8.587652	cuesta	0
-8.587652	cuestionario	0
-8.587652	cuestiones	0
-8.587652	cuestión	0
-8.587652	cuidadosamente	0
-8.587652	cuidadosos	0
-8.587652	cuidan	0
-8.587652	culpable	0
-8.587652	culpables	0
-8.587652	cultura	0
-8.587652	cumplen	0
-8.587652	cumplimiento	0
-8.587652	cumplir	0
-8.587652	cumplirán	0
-8.587652	curso	0
-8.587652	cursos	0
-8.587652	cuál	0
-8.587652	cuáles	0
-8.587652	cuándo	0
-8.587652	cuánta	0
-8.587652	cámara	0
-8.587652	césar	0
-8.587652	cólera	0
-8.587652	cómo	0
-8.587652	daba	0
-8.587652	dadi	0
-8.587652	dado	0
-8.587652	dan	0
-8.587652	dar	0
-8.587652	dañados	0
-8.587652	daños	0
-8.587652	de	0
-8.587652	debajo	0
-8.587652	debamos	0
-8.587652	debate	0
-8.587652	debatir	0
-8.587652	debatió	0
-8.587652	debe	0
-8.587652	debemos	0
-8.587652	deben	0
-8.587652	deber	0
-8.587652	deberá	0
-8.587652	debería	0
-8.587652	deberían	0
-8.587652	debido	0
-8.587652	debieran	0
-8.587652	debió	0
-8.587652	debo	0
-8.587652	debían	0
-8.587652	decenal	0
-8.587652	decepcionar	0
-8.587652	decida	0
-8.587652	decide	0
-8.587652	decidir	0
-8.587652	decidirá	0
-8.587652	decidió	0
-8.587652	decir	0
-8.587652	decisiones	0
-8.587652	decisión	0
-8.587652	declara	0
-8.587652	declaraciones	0
-8.587652	declaración	0
-8.587652	declaró	0
-8.587652	declinó	0
-8.587652	decreto	0
-8.587652	defenderemos	0
-8.587652	defenderse	0
-8.587652	defendió	0
-8.587652	defensa	0
-8.587652	definiciones	0
-8.587652	definición	0
-8.587652	definitivamente	0
-8.587652	definitoria	0
-8.587652	defraudar	0
-8.587652	degeneren	0
-8.587652	dejaba	0
-8.587652	dejar	0
-8.587652	dejará	0
-8.587652	dejó	0
-8.587652	del	0
-8.587652	delegaciones	0
-8.587652	delegación	0
-8.587652	delegados	0
-8.587652	demanda	0
-8.587652	demandado	0
-8.587652	demandante	0
-8.587652	demasiado	0
-8.587652	democracia	0
-8.587652	democráticamente	0
-8.587652	demora	0
-8.587652	demás	0
-8.587652	denunciarlo	0
-8.587652	departamento	0
-8.587652	departamentos	0
-8.587652	depende	0
-8.587652	deportiva	0
-8.587652	deprimido	0
-8.587652	depósitos	0
-8.587652	derecha	0
-8.587652	derecho	0
-8.587652	derechos	0
-8.587652	derrame	0
-8.587652	derrocamiento	0
-8.587652	desacuerdo	0
-8.587652	desalentadora	0
-8.587652	desarmados	0
-8.587652	desarmar	0
-8.587652	desarrollando	0
-8.587652	desarrollar	0
-8.587652	desarrollo	0
-8.587652	descarrilar	0
-8.587652	descartado	0
-8.587652	descartar	0
-8.587652	desconoce	0
-8.587652	describen	0
-8.587652	describir	0
-8.587652	describió	0
-8.587652	describía	0
-8.587652	descubrir	0
-8.587652	desde	0
-8.587652	desea	0
-8.587652	desempeña	0
-8.587652	deseo	0
-8.587652	desfigurada	0
-8.587652	desgarramiento	0
-8.587652	desglosarse	0
-8.587652	desgraciadamente	0
-8.587652	designar	0
-8.587652	desmantelar	0
-8.587652	desparición	0
-8.587652	desplazarán	0
-8.587652	despojado	0
-8.587652	después	0
-8.587652	destacó	0
-8.587652	destino	0
-8.587652	destruídos	0
-8.587652	desée	0
-8.587652	detalle	0
-8.587652	detalles	0
-8.587652	detenciones	0
-8.587652	detenido	0
-8.587652	determinación	0
-8.587652	determinado	0
-8.587652	determinan	0
-8.587652	determinarse	0
-8.587652	determinará	0
-8.587652	detrimento	0
-8.587652	detuvo	0
-8.587652	deuda	0
-8.587652	diario	0
-8.587652	diarrea	0
-8.587652	dice	0
-8.587652	dicen	0
-8.587652	dichas	0
-8.587652	dicho	0
-8.587652	dichos	0
-8.587652	dieciséis	0
-8.587652	diez	0
-8.587652	diezmada	0
-8.587652	diferencias	0
-8.587652	diferentes	0
-8.587652	diferido	0
-8.587652	dificultades	0
-8.587652	difícil	0
-8.587652	difíciles	0
-8.587652	dije	0
-8.587652	dijeron	0
-8.587652	dijo	0
-8.587652	dinero	0
-8.587652	dio	0
-8.587652	dios	0
-8.587652	diplomática	0
-8.587652	diplomático	0
-8.587652	diplomáticos	0
-8.587652	diputado	0
-8.587652	dirección	0
-8.587652	director	0
-8.587652	directorio	0
-8.587652	directrices	0
-8.587652	dirige	0
-8.587652	dirigentes	0
-8.587652	dirigió	0
-8.587652	dirigía	0
-8.587652	disculpen	0
-8.587652	discutir	0
-8.587652	discutiremos	0
-8.587652	discutirlo	0
-8.587652	discutiéndolo	0
-8.587652	diseño	0
-8.587652	disminución	0
-8.587652	disparos	0
-8.587652	dispensado	0
-8.587652	dispone	0
-8.587652	disponible	0
-8.587652	disposición	0
-8.587652	dispuestos	0
-8.587652	disputa	0
-8.587652	dista	0
-8.587652	distinguido	0
-8.587652	distintos	0
-8.587652	distraído	0
-8.587652	distribuirá	0
-8.587652	disturbios	0
-8.587652	divergencias	0
-8.587652	diversidad	0
-8.587652	diversión	0
-8.587652	diversos	0
-8.587652	divida	0
-8.587652	divididas	0
-8.587652	dividido	0
-8.587652	división	0
-8.587652	divulgado	0
-8.587652	divulgara	0
-8.587652	diálogo	0
-8.587652	doce	0
-8.587652	doctrina	0
-8.587652	documento	0
-8.587652	dolorosa	0
-8.587652	dominar	0
-8.587652	dominaron	0
-8.587652	domingo	0
-8.587652	domingos	0
-8.587652	dominicano	0
-8.587652	donde	0
-8.587652	dos	0
-8.587652	dosis	0
-8.587652	doy	0
-8.587652	drogas	0
-8.587652	duda	0
-8.587652	dudamos	0
-8.587652	duración	0
-8.587652	durante	0
-8.587652	duraron	0
-8.587652	durarán	0
-8.587652	dá	0
-8.587652	dándose	0
-8.587652	dé	0
-8.587652	débil	0
-8.587652	día	0
-8.587652	días	0
-8.587652	dólar	0
-8.587652	dólares	0
-8.587652	dónde	0
-8.587652	e	0
-8.587652	echó	0
-8.587652	economía	0
-8.587652	económica	0
-8.587652	económicamente	0
-8.587652	económico	0
-8.587652	económicos	0
-8.587652	edad	0
-8.587652	edición	0
-8.587652	edificio	0
-8.587652	edmundo	0
-8.587652	educación	0
-8.587652	educadores	0
-8.587652	efectivamente	0
-8.587652	efectos	0
-8.587652	efectuará	0
-8.587652	efectuó	0
-8.587652	ejecución	0
-8.587652	ejecutan	0
-8.587652	ejército	0
-8.587652	ejércitos	0
-8.587652	el	0
-8.587652	elecciones	0
-8.587652	elección	0
-8.587652	electores	0
-8.587652	electos	0
-8.587652	elegir	0
-8.587652	elemento	0
-8.587652	elgueta	0
-8.587652	eligen	0
-8.587652	elijen	0
-8.587652	ella	0
-8.587652	ellas	0
-8.587652	ello	0
-8.587652	ellos	0
-8.587652	eléctrica	0
-8.587652	eléctricos	0
-8.587652	elías	0
-8.587652	embargo	0
-8.587652	emigrar	0
-8.587652	emiten	0
-8.587652	emotivo	0
-8.587652	empates	0
-8.587652	empezado	0
-8.587652	empleadores	0
-8.587652	empleará	0
-8.587652	empresa	0
-8.587652	empresarios	0
-8.587652	empresas	0
-8.587652	empuja	0
-8.587652	en	0
-8.587652	encarado	0
-8.587652	encomendada	0
-8.587652	encontraban	0
-8.587652	encontrar	0
-8.587652	encontrarse	0
-8.587652	encuentra	0
-8.587652	encuentran	0
-8.587652	encuentro	0
-8.587652	encuesta	0
-8.587652	energía	0
-8.587652	enero	0
-8.587652	enfatizó	0
-8.587652	enfoque	0
-8.587652	enfrenta	0
-8.587652	enmienda	0
-8.587652	enmiendas	0
-8.587652	enseñanza	0
-8.587652	ensucian	0
-8.587652	entel	0
-8.587652	entender	0
-8.587652	entendimiento	0
-8.587652	entonces	0
-8.587652	entre	0
-8.587652	entrega	0
-8.587652	entregar	0
-8.587652	entregó	0
-8.587652	entren	0
-8.587652	entrenador	0
-8.587652	envases	0
-8.587652	envíamos	0
-8.587652	envío	0
-8.587652	epicentro	0
-8.587652	epidemia	0
-8.587652	equipo	0
-8.587652	equipos	0
-8.587652	era	0
-8.587652	eramos	0
-8.587652	error	0
-8.587652	es	0
-8.587652	esa	0
-8.587652	esas	0
-8.587652	esbozan	0
-8.587652	escalas	0
-8.587652	escapa	0
-8.587652	escapar	0
-8.587652	escasez	0
-8.587652	escaso	0
-8.587652	escasos	0
-8.587652	escogieron	0
-8.587652	escojo	0
-8.587652	escritor	0
-8.587652	escritora	0
-8.587652	escuché	0
-8.587652	escépticos	0
-8.587652	ese	0
-8.587652	esencial	0
-8.587652	esfera	0
-8.587652	esfuerzos	0
-8.587652	eso	0
-8.587652	esos	0
-8.587652	espacial	0
-8.587652	espaldarazo	0
-8.587652	españa	0
-8.587652	español	0
-8.587652	especial	0
-8.587652	especialistas	0
-8.587652	especie	0
-8.587652	especificó	0
-8.587652	espectáculo	0
-8.587652	especulación	0
-8.587652	especuló	0
-8.587652	específicos	0
-8.587652	espera	0
-8.587652	esperaba	0
-8.587652	esperamos	0
-8.587652	esperan	0
-8.587652	esperanza	0
-8.587652	esperanzado	0
-8.587652	esperar	0
-8.587652	esperarse	0
-8.587652	espero	0
-8.587652	esposa	0
-8.587652	espuma	0
-8.587652	esta	0
-8.587652	estaba	0
-8.587652	estaban	0
-8.587652	establece	0
-8.587652	establecieron	0
-8.587652	establezca	0
-8.587652	estación	0
-8.587652	estadio	0
-8.587652	estado	0
-8.587652	estados	0
-8.587652	estadounidense	0
-8.587652	estallado	0
-8.587652	estallaron	0
-8.587652	estamos	0
-8.587652	estar	0
-8.587652	estará	0
-8.587652	estarán	0
-8.587652	estas	0
-8.587652	estatal	0
-8.587652	este	0
-8.587652	estero	0
-8.587652	estimadas	0
-8.587652	esto	0
-8.587652	estonia	0
-8.587652	estos	0
-8.587652	estrecho	0
-8.587652	estrellarse	0
-8.587652	estructura	0
-8.587652	estructuras	0
-8.587652	estudia	0
-8.587652	estudian	0
-8.587652	estudio	0
-8.587652	estudios	0
-8.587652	estuvo	0
-8.587652	está	0
-8.587652	están	0
-8.587652	esté	0
-8.587652	eurodólares	0
-8.587652	europa	0
-8.587652	europeo	0
-8.587652	evaluaciones	0
-8.587652	evidente	0
-8.587652	evidentemente	0
-8.587652	evitado	0
-8.587652	evitarse	0
-8.587652	evitó	0
-8.587652	evoluciona	0
-8.587652	ex	0
-8.587652	exacerba	0
-8.587652	exacerbar	0
-8.587652	examen	0
-8.587652	examinadas	0
-8.587652	examinan	0
-8.587652	examinar	0
-8.587652	examinarse	0
-8.587652	excelsior	0
-8.587652	excepción	0
-8.587652	exceso	0
-8.587652	excluyó	0
-8.587652	exhiben	0
-8.587652	exige	0
-8.587652	exigen	0
-8.587652	exigió	0
-8.587652	existe	0
-8.587652	existían	0
-8.587652	exitosa	0
-8.587652	expectativas	0
-8.587652	experiencia	0
-8.587652	explica	0
-8.587652	explicar	0
-8.587652	explicó	0
-8.587652	explosión	0
-8.587652	expresado	0
-8.587652	expresados	0
-8.587652	expresión	0
-8.587652	expresó	0
-8.587652	exterior	0
-8.587652	extirpar	0
-8.587652	extradición	0
-8.587652	extranjeros	0
-8.587652	extremadamente	0
-8.587652	fabrica	0
-8.587652	fachada	0
-8.587652	facilidades	0
-8.587652	factor	0
-8.587652	factores	0
-8.587652	fallecido	0
-8.587652	fallo	0
-8.587652	falta	0
-8.587652	fama	0
-8.587652	familia	0
-8.587652	familiares	0
-8.587652	farias	0
-8.587652	favor	0
-8.587652	favorables	0
-8.587652	favorece	0
-8.587652	favorecido	0
-8.587652	favoritos	0
-8.587652	febrero	0
-8.587652	fecha	0
-8.587652	fecsa	0
-8.587652	federal	0
-8.587652	fenosa	0
-8.587652	fenómeno	0
-8.587652	fernando	0
-8.587652	fernández	0
-8.587652	festival	0
-8.587652	festivo	0
-8.587652	figura	0
-8.587652	fijan	0
-8.587652	filipinas	0
-8.587652	filme	0
-8.587652	filosófico	0
-8.587652	fin	0
-8.587652	final	0
-8.587652	finalidad	0
-8.587652	financiera	0
-8.587652	financieras	0
-8.587652	finanzas	0
-8.587652	fines	0
-8.587652	finlandia	0
-8.587652	firmado	0
-8.587652	firmantes	0
-8.587652	firmaremos	0
-8.587652	firmeza	0
-8.587652	flagrante	0
-8.587652	flor	0
-8.587652	flujo	0
-8.587652	fondo	0
-8.587652	fondos	0
-8.587652	forma	0
-8.587652	formación	0
-8.587652	forman	0
-8.587652	formato	0
-8.587652	formularon	0
-8.587652	forzosamente	0
-8.587652	fracasa	0
-8.587652	fracasado	0
-8.587652	francas	0
-8.587652	francfort	0
-8.587652	francia	0
-8.587652	francés	0
-8.587652	franja	0
-8.587652	frecuencia	0
-8.587652	frecuente	0
-8.587652	frenado	0
-8.587652	frente	0
-8.587652	frío	0
-8.587652	fue	0
-8.587652	fuego	0
-8.587652	fuente	0
-8.587652	fuera	0
-8.587652	fueran	0
-8.587652	fueron	0
-8.587652	fuerte	0
-8.587652	fuertemente	0
-8.587652	fuertes	0
-8.587652	fuerza	0
-8.587652	fuerzas	0
-8.587652	fugitivo	0
-8.587652	fumaba	0
-8.587652	funcionario	0
-8.587652	funcionarios	0
-8.587652	funciones	0
-8.587652	futuro	0
-8.587652	fábrica	0
-8.587652	físico	0
-8.587652	fórmula	0
-8.587652	galardona	0
-8.587652	galería	0
-8.587652	galina	0
-8.587652	gama	0
-8.587652	gana	0
-8.587652	ganado	0
-8.587652	ganando	0
-8.587652	ganar	0
-8.587652	gane	0
-8.587652	garcía	0
-8.587652	gas	0
-8.587652	gastos	0
-8.587652	general	0
-8.587652	generales	0
-8.587652	generar	0
-8.587652	gente	0
-8.587652	georgia	0
-8.587652	germán	0
-8.587652	gestos	0
-8.587652	gigantes	0
-8.587652	ginebra	0
-8.587652	global	0
-8.587652	gobernar	0
-8.587652	gobierna	0
-8.587652	gobierno	0
-8.587652	gobiernos	0
-8.587652	goles	0
-8.587652	golfo	0
-8.587652	golpeados	0
-8.587652	golpizas	0
-8.587652	golán	0
-8.587652	gonzález	0
-8.587652	goycochea	0
-8.587652	gracias	0
-8.587652	graciela	0
-8.587652	gran	0
-8.587652	grato	0
-8.587652	grecia	0
-8.587652	grito	0
-8.587652	grupo	0
-8.587652	grupos	0
-8.587652	guayaquil	0
-8.587652	gubernamental	0
-8.587652	guerra	0
-8.587652	guerrillero	0
-8.587652	guerrilleros	0
-8.587652	gusta	0
-8.587652	gusto	0
-8.587652	ha	0
-8.587652	habanos	0
-8.587652	haber	0
-8.587652	habido	0
-8.587652	habitual	0
-8.587652	habla	0
-8.587652	hablando	0
-8.587652	hablar	0
-8.587652	habló	0
-8.587652	habrá	0
-8.587652	habría	0
-8.587652	había	0
-8.587652	hace	0
-8.587652	hacen	0
-8.587652	hacer	0
-8.587652	hacerlo	0
-8.587652	hacia	0
-8.587652	haciendo	0
-8.587652	hagan	0
-8.587652	hago	0
-8.587652	han	0
-8.587652	hará	0
-8.587652	harán	0
-8.587652	hasta	0
-8.587652	hay	0
-8.587652	haya	0
-8.587652	he	0
-8.587652	hecho	0
-8.587652	hechos	0
-8.587652	hemos	0
-8.587652	henríquez	0
-8.587652	herida	0
-8.587652	heridas	0
-8.587652	heridos	0
-8.587652	hice	0
-8.587652	hicimos	0
-8.587652	hidroeléctrica	0
-8.587652	hija	0
-8.587652	hijas	0
-8.587652	hijo	0
-8.587652	hijos	0
-8.587652	historia	0
-8.587652	histórico	0
-8.587652	hizo	0
-8.587652	hogar	0
-8.587652	hombre	0
-8.587652	homero	0
-8.587652	homicidio	0
-8.587652	honduras	0
-8.587652	honor	0
-8.587652	hora	0
-8.587652	horacio	0
-8.587652	horarios	0
-8.587652	horas	0
-8.587652	horno	0
-8.587652	hornos	0
-8.587652	horrible	0
-8.587652	horriblemente	0
-8.587652	hospital	0
-8.587652	hoy	0
-8.587652	hubiera	0
-8.587652	hubieran	0
-8.587652	hubo	0
-8.587652	huelga	0
-8.587652	humanidad	0
-8.587652	humanos	0
-8.587652	humildemente	0
-8.587652	huída	0
-8.587652	iberdrola	0
-8.587652	idea	0
-8.587652	ideas	0
-8.587652	identidad	0
-8.587652	identifican	0
-8.587652	ido	0
-8.587652	idénticos	0
-8.587652	ignoraba	0
-8.587652	ignorado	0
-8.587652	igual	0
-8.587652	igualdad	0
-8.587652	igualmente	0
-8.587652	ilaria	0
-8.587652	ilusiones	0
-8.587652	imagen	0
-8.587652	imaginación	0
-8.587652	imitado	0
-8.587652	impidió	0
-8.587652	implantara	0
-8.587652	importa	0
-8.587652	importaba	0
-8.587652	importancia	0
-8.587652	importante	0
-8.587652	importantes	0
-8.587652	impositivas	0
-8.587652	improvisados	0
-8.587652	impuestos	0
-8.587652	impulsar	0
-8.587652	impuso	0
-8.587652	inaceptable	0
-8.587652	inaplicable	0
-8.587652	incautaron	0
-8.587652	incendio	0
-8.587652	incentivo	0
-8.587652	incentivos	0
-8.587652	inciertas	0
-8.587652	incluso	0
-8.587652	incluye	0
-8.587652	incursiones	0
-8.587652	indebido	0
-8.587652	independencia	0
-8.587652	independientemente	0
-8.587652	indica	0
-8.587652	indican	0
-8.587652	indicios	0
-8.587652	indicó	0
-8.587652	indios	0
-8.587652	indique	0
-8.587652	indispensable	0
-8.587652	inductivo	0
-8.587652	industria	0
-8.587652	industrializados	0
-8.587652	inevitable	0
-8.587652	inflación	0
-8.587652	influencia	0
-8.587652	información	0
-8.587652	informado	0
-8.587652	informados	0
-8.587652	informe	0
-8.587652	informes	0
-8.587652	informó	0
-8.587652	inglaterra	0
-8.587652	inglés	0
-8.587652	inicia	0
-8.587652	inician	0
-8.587652	iniciativa	0
-8.587652	iniciativas	0
-8.587652	inmediato	0
-8.587652	inmediatos	0
-8.587652	inquieto	0
-8.587652	inscriben	0
-8.587652	insiste	0
-8.587652	insistió	0
-8.587652	inspectores	0
-8.587652	insta	0
-8.587652	instalaciones	0
-8.587652	instalan	0
-8.587652	institucionaliza	0
-8.587652	integra	0
-8.587652	intelectual	0
-8.587652	intención	0
-8.587652	intensas	0
-8.587652	intentaran	0
-8.587652	intento	0
-8.587652	interbancaria	0
-8.587652	interesados	0
-8.587652	interior	0
-8.587652	interna	0
-8.587652	internacional	0
-8.587652	internacionales	0
-8.587652	intervencion	0
-8.587652	interventor	0
-8.587652	interés	0
-8.587652	intolerable	0
-8.587652	inutilizables	0
-8.587652	inventado	0
-8.587652	inversiones	0
-8.587652	inversionistas	0
-8.587652	investigaciones	0
-8.587652	investigación	0
-8.587652	invierno	0
-8.587652	ir	0
-8.587652	irreal	0
-8.587652	irregular	0
-8.587652	irrelevante	0
-8.587652	irá	0
-8.587652	irán	0
-8.587652	iría	0
-8.587652	israel	0
-8.587652	israelíes	0
-8.587652	italia	0
-8.587652	itinerario	0
-8.587652	jaime	0
-8.587652	janeiro	0
-8.587652	japoneses	0
-8.587652	japonés	0
-8.587652	japón	0
-8.587652	jerusalén	0
-8.587652	jerárquicas	0
-8.587652	jesús	0
-8.587652	juan	0
-8.587652	jubilaciones	0
-8.587652	juega	0
-8.587652	juego	0
-8.587652	jueves	0
-8.587652	jugado	0
-8.587652	jugar	0
-8.587652	jugará	0
-8.587652	juicio	0
-8.587652	juicios	0
-8.587652	julio	0
-8.587652	junio	0
-8.587652	junta	0
-8.587652	jurado	0
-8.587652	jurista	0
-8.587652	justa	0
-8.587652	justicia	0
-8.587652	justifica	0
-8.587652	justificación	0
-8.587652	justificadas	0
-8.587652	juventud	0
-8.587652	la	0
-8.587652	labor	0
-8.587652	lacalle	0
-8.587652	ladra	0
-8.587652	lamenta	0
-8.587652	lamentaba	0
-8.587652	lamentablemente	0
-8.587652	lamentó	0
-8.587652	lanzarse	0
-8.587652	largo	0
-8.587652	las	0
-8.587652	latina	0
-8.587652	le	0
-8.587652	leer	0
-8.587652	legal	0
-8.587652	legalizar	0
-8.587652	lejos	0
-8.587652	lengua	0
-8.587652	lento	0
-8.587652	lentos	0
-8.587652	les	0
-8.587652	lesionadas	0
-8.587652	lesionados	0
-8.587652	lesiones	0
-8.587652	lesión	0
-8.587652	levantando	0
-8.587652	leve	0
-8.587652	ley	0
-8.587652	liberal	0
-8.587652	liberarían	0
-8.587652	libertad	0
-8.587652	libre	0
-8.587652	lienzo	0
-8.587652	liga	0
-8.587652	ligera	0
-8.587652	ligeramente	0
-8.587652	limitado	0
-8.587652	limitados	0
-8.587652	limitan	0
-8.587652	linares	0
-8.587652	liquidar	0
-8.587652	lista	0
-8.587652	listas	0
-8.587652	llamarse	0
-8.587652	llameante	0
-8.587652	llamó	0
-8.587652	llega	0
-8.587652	llegado	0
-8.587652	llegar	0
-8.587652	llegue	0
-8.587652	llegó	0
-8.587652	lleras	0
-8.587652	llevaría	0
-8.587652	llevé	0
-8.587652	llevó	0
-8.587652	lo	0
-8.587652	local	0
-8.587652	locales	0
-8.587652	localizó	0
-8.587652	logrado	0
-8.587652	lograr	0
-8.587652	logros	0
-8.587652	logísticamente	0
-8.587652	londres	0
-8.587652	los	0
-8.587652	lucha	0
-8.587652	luego	0
-8.587652	lugar	0
-8.587652	lugares	0
-8.587652	lunes	0
-8.587652	líder	0
-8.587652	líderes	0
-8.587652	límite	0
-8.587652	línea	0
-8.587652	lógicamente	0
-8.587652	madrazo	0
-8.587652	madrid	0
-8.587652	madurez	0
-8.587652	maestra	0
-8.587652	magnitud	0
-8.587652	mal	0
-8.587652	mala	0
-8.587652	malas	0
-8.587652	malo	0
-8.587652	manada	0
-8.587652	mandato	0
-8.587652	mandela	0
-8.587652	manera	0
-8.587652	manifestar	0
-8.587652	maniobra	0
-8.587652	maniobras	0
-8.587652	mantendrán	0
-8.587652	mantener	0
-8.587652	manteniendo	0
-8.587652	mantenimiento	0
-8.587652	mantiene	0
-8.587652	mantuvieron	0
-8.587652	mantuvo	0
-8.587652	mapuche	0
-8.587652	mar	0
-8.587652	marcador	0
-8.587652	marchaba	0
-8.587652	marco	0
-8.587652	marcos	0
-8.587652	marfil	0
-8.587652	margen	0
-8.587652	marismas	0
-8.587652	martes	0
-8.587652	marzo	0
-8.587652	masiva	0
-8.587652	matar	0
-8.587652	materia	0
-8.587652	material	0
-8.587652	materialize	0
-8.587652	mayo	0
-8.587652	mayor	0
-8.587652	mayores	0
-8.587652	mayormente	0
-8.587652	mayoría	0
-8.587652	mañana	0
-8.587652	me	0
-8.587652	mecanismos	0
-8.587652	media	0
-8.587652	medianoche	0
-8.587652	mediante	0
-8.587652	medicina	0
-8.587652	medida	0
-8.587652	medidas	0
-8.587652	medio	0
-8.587652	mediocampo	0
-8.587652	medios	0
-8.587652	mejor	0
-8.587652	mejorado	0
-8.587652	mejoramiento	0
-8.587652	mejoran	0
-8.587652	mejorar	0
-8.587652	mejores	0
-8.587652	memorando	0
-8.587652	menciona	0
-8.587652	mencionado	0
-8.587652	mencionar	0
-8.587652	menem	0
-8.587652	menores	0
-8.587652	menos	0
-8.587652	mensuales	0
-8.587652	menudo	0
-8.587652	mera	0
-8.587652	mercado	0
-8.587652	mercados	0
-8.587652	mercosur	0
-8.587652	mercouri	0
-8.587652	mesa	0
-8.587652	meses	0
-8.587652	meta	0
-8.587652	mi	0
-8.587652	miedo	0
-8.587652	miembro	0
-8.587652	miembros	0
-8.587652	mientras	0
-8.587652	migrantes	0
-8.587652	miguel	0
-8.587652	miguelito	0
-8.587652	mil	0
-8.587652	militar	0
-8.587652	militares	0
-8.587652	millonario	0
-8.587652	millones	0
-8.587652	milán	0
-8.587652	mina	0
-8.587652	mineros	0
-8.587652	ministerial	0
-8.587652	ministerio	0
-8.587652	ministro	0
-8.587652	ministros	0
-8.587652	minucioso	0
-8.587652	minuto	0
-8.587652	mir	0
-8.587652	mis	0
-8.587652	misericordia	0
-8.587652	misma	0
-8.587652	mismas	0
-8.587652	mismo	0
-8.587652	mitad	0
-8.587652	miércoles	0
-8.587652	moción	0
-8.587652	modelo	0
-8.587652	modelos	0
-8.587652	moderado	0
-8.587652	modernos	0
-8.587652	modestos	0
-8.587652	modificó	0
-8.587652	molesta	0
-8.587652	momento	0
-8.587652	momentos	0
-8.587652	monarquía	0
-8.587652	monografías	0
-8.587652	monopolio	0
-8.587652	monselas	0
-8.587652	montenegro	0
-8.587652	morirá	0
-8.587652	moscú	0
-8.587652	mostró	0
-8.587652	motivo	0
-8.587652	moverlo	0
-8.587652	mucha	0
-8.587652	muchacha	0
-8.587652	muchas	0
-8.587652	mucho	0
-8.587652	muchos	0
-8.587652	muere	0
-8.587652	mueren	0
-8.587652	muerte	0
-8.587652	muerto	0
-8.587652	muertos	0
-8.587652	muestra	0
-8.587652	muestras	0
-8.587652	mujer	0
-8.587652	mujeres	0
-8.587652	multas	0
-8.587652	mundiales	0
-8.587652	mundo	0
-8.587652	murieron	0
-8.587652	murió	0
-8.587652	murmura	0
-8.587652	musulmanes	0
-8.587652	muy	0
-8.587652	más	0
-8.587652	mástil	0
-8.587652	médica	0
-8.587652	médicos	0
-8.587652	méxico	0
-8.587652	mí	0
-8.587652	mínimo	0
-8.587652	múltiples	0
-8.587652	música	0
-8.587652	nacido	0
-8.587652	nacional	0
-8.587652	nacionalidades	0
-8.587652	naciones	0
-8.587652	nación	0
-8.587652	nada	0
-8.587652	nadie	0
-8.587652	naturales	0
-8.587652	nave	0
-8.587652	naves	0
-8.587652	necesaria	0
-8.587652	necesario	0
-8.587652	necesidad	0
-8.587652	necesidades	0
-8.587652	necesitamos	0
-8.587652	necesitan	0
-8.587652	necesitarían	0
-8.587652	negaron	0
-8.587652	negativamente	0
-8.587652	negativo	0
-8.587652	negociaciones	0
-8.587652	negociando	0
-8.587652	negocio	0
-8.587652	negocios	0
-8.587652	negra	0
-8.587652	negó	0
-8.587652	neta	0
-8.587652	ni	0
-8.587652	niega	0
-8.587652	niegan	0
-8.587652	ninguna	0
-8.587652	ninguno	0
-8.587652	ningún	0
-8.587652	nivel	0
-8.587652	niveles	0
-8.587652	niño	0
-8.587652	niños	0
-8.587652	no	0
-8.587652	noche	0
-8.587652	nombrado	0
-8.587652	nombraron	0
-8.587652	nombre	0
-8.587652	nominal	0
-8.587652	norcoreanas	0
-8.587652	normal	0
-8.587652	normalidad	0
-8.587652	normas	0
-8.587652	norte	0
-8.587652	norteamericano	0
-8.587652	nos	0
-8.587652	nosotros	0
-8.587652	nota	0
-8.587652	notable	0
-8.587652	notas	0
-8.587652	noticia	0
-8.587652	noticias	0
-8.587652	novecientos	0
-8.587652	novedad	0
-8.587652	novedades	0
-8.587652	noviembre	0
-8.587652	nuclear	0
-8.587652	nucleares	0
-8.587652	nueces	0
-8.587652	nuestra	0
-8.587652	nuestras	0
-8.587652	nuestro	0
-8.587652	nuestros	0
-8.587652	nueva	0
-8.587652	nuevamente	0
-8.587652	nuevas	0
-8.587652	nueve	0
-8.587652	nuevo	0
-8.587652	nuevos	0
-8.587652	numerosas	0
-8.587652	numerosos	0
-8.587652	nunca	0
-8.587652	o	0
-8.587652	objetivo	0
-8.587652	objetivos	0
-8.587652	objeto	0
-8.587652	obra	0
-8.587652	obras	0
-8.587652	observaciones	0
-8.587652	obstante	0
-8.587652	ocasiones	0
-8.587652	ocasión	0
-8.587652	occidental	0
-8.587652	occidente	0
-8.587652	ocho	0
-8.587652	ocupa	0
-8.587652	ocupaban	0
-8.587652	ocupados	0
-8.587652	ocurre	0
-8.587652	ocurrir	0
-8.587652	ocurrirá	0
-8.587652	oeste	0
-8.587652	ofendido	0
-8.587652	oferta	0
-8.587652	oficial	0
-8.587652	oficiales	0
-8.587652	oficina	0
-8.587652	ofrece	0
-8.587652	ofrecer	0
-8.587652	ofrecimiento	0
-8.587652	ofreció	0
-8.587652	olvidar	0
-8.587652	omar	0
-8.587652	omisión	0
-8.587652	onza	0
-8.587652	opciones	0
-8.587652	opción	0
-8.587652	operaciones	0
-8.587652	operación	0
-8.587652	operar	0
-8.587652	opinan	0
-8.587652	opiniones	0
-8.587652	opinión	0
-8.587652	opinó	0
-8.587652	oposición	0
-8.587652	opositores	0
-8.587652	optativo	0
-8.587652	optimista	0
-8.587652	optimistas	0
-8.587652	opuesta	0
-8.587652	orador	0
-8.587652	oradores	0
-8.587652	orcas	0
-8.587652	orden	0
-8.587652	ordinaria	0
-8.587652	organismo	0
-8.587652	organismos	0
-8.587652	organizar	0
-8.587652	orientado	0
-8.587652	oriental	0
-8.587652	oro	0
-8.587652	oscar	0
-8.587652	otra	0
-8.587652	otras	0
-8.587652	otro	0
-8.587652	otros	0
-8.587652	pacificadores	0
-8.587652	pacto	0
-8.587652	padre	0
-8.587652	pagado	0
-8.587652	pagan	0
-8.587652	pagar	0
-8.587652	pago	0
-8.587652	palabra	0
-8.587652	palabras	0
-8.587652	palacio	0
-8.587652	palacios	0
-8.587652	palencia	0
-8.587652	palti	0
-8.587652	pan	0
-8.587652	papa	0
-8.587652	papel	0
-8.587652	papeles	0
-8.587652	par	0
-8.587652	para	0
-8.587652	paradero	0
-8.587652	paraliza	0
-8.587652	parciales	0
-8.587652	parcialmente	0
-8.587652	parece	0
-8.587652	parecer	0
-8.587652	parlamento	0
-8.587652	parra	0
-8.587652	parte	0
-8.587652	partes	0
-8.587652	participó	0
-8.587652	particular	0
-8.587652	partidaria	0
-8.587652	partidario	0
-8.587652	partidas	0
-8.587652	partido	0
-8.587652	partidos	0
-8.587652	parís	0
-8.587652	pasa	0
-8.587652	pasado	0
-8.587652	pasajeros	0
-8.587652	pasar	0
-8.587652	paso	0
-8.587652	pasos	0
-8.587652	passarella	0
-8.587652	pasó	0
-8.587652	patrullada	0
-8.587652	paulo	0
-8.587652	paz	0
-8.587652	país	0
-8.587652	países	0
-8.587652	peleara	0
-8.587652	peligros	0
-8.587652	peligroso	0
-8.587652	pelota	0
-8.587652	película	0
-8.587652	pendientes	0
-8.587652	pensaba	0
-8.587652	pensado	0
-8.587652	pensar	0
-8.587652	pensiones	0
-8.587652	peor	0
-8.587652	pequeña	0
-8.587652	pequeño	0
-8.587652	pequeños	0
-8.587652	percibe	0
-8.587652	perdemos	0
-8.587652	perder	0
-8.587652	perdido	0
-8.587652	perdía	0
-8.587652	peres	0
-8.587652	perfecta	0
-8.587652	perfectamemnte	0
-8.587652	pericial	0
-8.587652	periodistas	0
-8.587652	periódicos	0
-8.587652	perlas	0
-8.587652	permitan	0
-8.587652	permitido	0
-8.587652	permitirse	0
-8.587652	permitirá	0
-8.587652	pero	0
-8.587652	perro	0
-8.587652	persigue	0
-8.587652	persona	0
-8.587652	personal	0
-8.587652	personas	0
-8.587652	perspicacia	0
-8.587652	pertenecían	0
-8.587652	pertinente	0
-8.587652	perturbación	0
-8.587652	peruano	0
-8.587652	peruanos	0
-8.587652	período	0
-8.587652	períodos	0
-8.587652	perú	0
-8.587652	pesa	0
-8.587652	pesca	0
-8.587652	pese	0
-8.587652	peseta	0
-8.587652	petición	0
-8.587652	petrolera	0
-8.587652	petrolero	0
-8.587652	petróleo	0
-8.587652	piano	0
-8.587652	pido	0
-8.587652	pie	0
-8.587652	piensa	0
-8.587652	pienso	0
-8.587652	piezas	0
-8.587652	pilotos	0
-8.587652	plan	0
-8.587652	planas	0
-8.587652	planeaba	0
-8.587652	planeta	0
-8.587652	planos	0
-8.587652	plantas	0
-8.587652	plantearon	0
-8.587652	plantearse	0
-8.587652	plata	0
-8.587652	plaza	0
-8.587652	plazo	0
-8.587652	pleno	0
-8.587652	plácido	0
-8.587652	población	0
-8.587652	poco	0
-8.587652	pocos	0
-8.587652	podamos	0
-8.587652	podemos	0
-8.587652	poder	0
-8.587652	poderes	0
-8.587652	poderoso	0
-8.587652	podrá	0
-8.587652	podrán	0
-8.587652	podría	0
-8.587652	podríamos	0
-8.587652	podían	0
-8.587652	polariza	0
-8.587652	polemiza	0
-8.587652	policial	0
-8.587652	policía	0
-8.587652	política	0
-8.587652	político	0
-8.587652	políticos	0
-8.587652	pondría	0
-8.587652	poner	0
-8.587652	ponernos	0
-8.587652	popular	0
-8.587652	por	0
-8.587652	porque	0
-8.587652	porqué	0
-8.587652	portero	0
-8.587652	posibilidades	0
-8.587652	posible	0
-8.587652	posiciones	0
-8.587652	posición	0
-8.587652	positivas	0
-8.587652	positivo	0
-8.587652	posterioridad	0
-8.587652	posteriormente	0
-8.587652	potestad	0
-8.587652	practique	0
-8.587652	precaución	0
-8.587652	precedente	0
-8.587652	precio	0
-8.587652	precios	0
-8.587652	preciso	0
-8.587652	precisos	0
-8.587652	preguntas	0
-8.587652	preguntó	0
-8.587652	premio	0
-8.587652	prensa	0
-8.587652	preocupación	0
-8.587652	preocupado	0
-8.587652	preocupantes	0
-8.587652	preparado	0
-8.587652	preparan	0
-8.587652	presencia	0
-8.587652	presenta	0
-8.587652	presentación	0
-8.587652	presentaron	0
-8.587652	presente	0
-8.587652	presentó	0
-8.587652	presidencial	0
-8.587652	presidenciales	0
-8.587652	presidente	0
-8.587652	presión	0
-8.587652	presos	0
-8.587652	prestó	0
-8.587652	presupuesto	0
-8.587652	pretendemos	0
-8.587652	preveo	0
-8.587652	primer	0
-8.587652	primera	0
-8.587652	primeras	0
-8.587652	primero	0
-8.587652	principal	0
-8.587652	principalmente	0
-8.587652	principio	0
-8.587652	principios	0
-8.587652	prioridad	0
-8.587652	privada	0
-8.587652	privatizaciones	0
-8.587652	probable	0
-8.587652	probablemente	0
-8.587652	problema	0
-8.587652	problemas	0
-8.587652	problemáticos	0
-8.587652	proceda	0
-8.587652	procedente	0
-8.587652	procedimiento	0
-8.587652	procedió	0
-8.587652	proceso	0
-8.587652	procesos	0
-8.587652	proclama	0
-8.587652	procupación	0
-8.587652	producción	0
-8.587652	producido	0
-8.587652	produciría	0
-8.587652	producto	0
-8.587652	productos	0
-8.587652	produzcan	0
-8.587652	programa	0
-8.587652	programado	0
-8.587652	programas	0
-8.587652	progresan	0
-8.587652	progreso	0
-8.587652	prohibe	0
-8.587652	prometido	0
-8.587652	promoverá	0
-8.587652	pronta	0
-8.587652	pronto	0
-8.587652	propaganda	0
-8.587652	propia	0
-8.587652	propio	0
-8.587652	proporciona	0
-8.587652	proporcionó	0
-8.587652	propuesta	0
-8.587652	propuestas	0
-8.587652	propuesto	0
-8.587652	propuestos	0
-8.587652	propuso	0
-8.587652	propósito	0
-8.587652	prorroga	0
-8.587652	proscribir	0
-8.587652	prostitución	0
-8.587652	proteger	0
-8.587652	protocolo	0
-8.587652	protocolos	0
-8.587652	provincia	0
-8.587652	provisional	0
-8.587652	provocaría	0
-8.587652	proyectaba	0
-8.587652	proyecto	0
-8.587652	proyectos	0
-8.587652	prudente	0
-8.587652	pruebas	0
-8.587652	práctica	0
-8.587652	prácticamente	0
-8.587652	próxima	0
-8.587652	próximamente	0
-8.587652	próximo	0
-8.587652	próximos	0
-8.587652	publicación	0
-8.587652	publicado	0
-8.587652	publicarían	0
-8.587652	pudo	0
-8.587652	pueblo	0
-8.587652	pueda	0
-8.587652	puede	0
-8.587652	pueden	0
-8.587652	puedo	0
-8.587652	puerta	0
-8.587652	puertorriqueñas	0
-8.587652	pues	0
-8.587652	puesto	0
-8.587652	pulpo	0
-8.587652	punto	0
-8.587652	página	0
-8.587652	pánico	0
-8.587652	párrafo	0
-8.587652	pérdida	0
-8.587652	pérsico	0
-8.587652	pública	0
-8.587652	públicas	0
-8.587652	público	0
-8.587652	públicos	0
-8.587652	que	0
-8.587652	queda	0
-8.587652	quedado	0
-8.587652	quedar	0
-8.587652	quedaron	0
-8.587652	quedarse	0
-8.587652	quedó	0
-8.587652	queremos	0
-8.587652	quería	0
-8.587652	queríamos	0
-8.587652	querían	0
-8.587652	quien	0
-8.587652	quienes	0
-8.587652	quieran	0
-8.587652	quiere	0
-8.587652	quieren	0
-8.587652	quiero	0
-8.587652	quinta	0
-8.587652	quise	0
-8.587652	quisiera	0
-8.587652	quiso	0
-8.587652	quito	0
-8.587652	quitó	0
-8.587652	quizo	0
-8.587652	quién	0
-8.587652	qué	0
-8.587652	quédense	0
-8.587652	racionamiento	0
-8.587652	racismo	0
-8.587652	radical	0
-8.587652	radio	0
-8.587652	ramos	0
-8.587652	rara	0
-8.587652	razon	0
-8.587652	razones	0
-8.587652	razón	0
-8.587652	raíz	0
-8.587652	reaccionar	0
-8.587652	reacción	0
-8.587652	realista	0
-8.587652	realiza	0
-8.587652	realizada	0
-8.587652	realizado	0
-8.587652	realizan	0
-8.587652	realizar	0
-8.587652	realizó	0
-8.587652	realmente	0
-8.587652	reanudada	0
-8.587652	reanudemos	0
-8.587652	rebeldes	0
-8.587652	recae	0
-8.587652	recalcan	0
-8.587652	rechazada	0
-8.587652	rechazado	0
-8.587652	rechazaron	0
-8.587652	reciben	0
-8.587652	recibido	0
-8.587652	recibir	0
-8.587652	recibió	0
-8.587652	recién	0
-8.587652	reclamaba	0
-8.587652	reclamaron	0
-8.587652	reclutarlas	0
-8.587652	recogió	0
-8.587652	recomendación	0
-8.587652	reconstrucción	0
-8.587652	recorren	0
-8.587652	recrudece	0
-8.587652	recuperado	0
-8.587652	recurrió	0
-8.587652	recurso	0
-8.587652	recursos	0
-8.587652	red	0
-8.587652	redacción	0
-8.587652	reduccion	0
-8.587652	reduce	0
-8.587652	reducida	0
-8.587652	reducido	0
-8.587652	reducir	0
-8.587652	reelegidos	0
-8.587652	referencia	0
-8.587652	referidas	0
-8.587652	referirme	0
-8.587652	referirán	0
-8.587652	referían	0
-8.587652	refiere	0
-8.587652	refinerías	0
-8.587652	refirió	0
-8.587652	reforma	0
-8.587652	reformas	0
-8.587652	refugiados	0
-8.587652	regir	0
-8.587652	registra	0
-8.587652	registrada	0
-8.587652	registro	0
-8.587652	registrándose	0
-8.587652	región	0
-8.587652	regla	0
-8.587652	reglamentaciones	0
-8.587652	regresar	0
-8.587652	regreso	0
-8.587652	regresó	0
-8.587652	regular	0
-8.587652	rehabilitar	0
-8.587652	rehusado	0
-8.587652	rehusó	0
-8.587652	reinar	0
-8.587652	reitera	0
-8.587652	relaciones	0
-8.587652	relación	0
-8.587652	relativamente	0
-8.587652	relativas	0
-8.587652	relator	0
-8.587652	relató	0
-8.587652	relevancia	0
-8.587652	religiosa	0
-8.587652	remedios	0
-8.587652	remitida	0
-8.587652	remuneración	0
-8.587652	rendimos	0
-8.587652	renovarse	0
-8.587652	renuncia	0
-8.587652	reordenados	0
-8.587652	reparaciones	0
-8.587652	repercutió	0
-8.587652	repetir	0
-8.587652	repetirse	0
-8.587652	reportó	0
-8.587652	represalias	0
-8.587652	representante	0
-8.587652	representantes	0
-8.587652	representar	0
-8.587652	reprogramación	0
-8.587652	repuesto	0
-8.587652	requerido	0
-8.587652	requerirán	0
-8.587652	requiere	0
-8.587652	requirimientos	0
-8.587652	resa	0
-8.587652	reserva	0
-8.587652	reservado	0
-8.587652	reservas	0
-8.587652	reses	0
-8.587652	resistencia	0
-8.587652	resolución	0
-8.587652	resolver	0
-8.587652	respalden	0
-8.587652	respaldo	0
-8.587652	respectivo	0
-8.587652	respecto	0
-8.587652	respetando	0
-8.587652	respetar	0
-8.587652	respiro	0
-8.587652	responder	0
-8.587652	responderemos	0
-8.587652	respondió	0
-8.587652	responsabilizado	0
-8.587652	respuesta	0
-8.587652	restableció	0
-8.587652	restantes	0
-8.587652	restaurados	0
-8.587652	resto	0
-8.587652	restos	0
-8.587652	restricción	0
-8.587652	resueltos	0
-8.587652	resulta	0
-8.587652	resultado	0
-8.587652	resultados	0
-8.587652	resultaron	0
-8.587652	retenían	0
-8.587652	retirada	0
-8.587652	retirado	0
-8.587652	retirar	0
-8.587652	retirarse	0
-8.587652	reuniones	0
-8.587652	reunir	0
-8.587652	reunirán	0
-8.587652	reunión	0
-8.587652	reuní	0
-8.587652	revelado	0
-8.587652	revelados	0
-8.587652	revelar	0
-8.587652	reveses	0
-8.587652	revisando	0
-8.587652	revisarse	0
-8.587652	revisó	0
-8.587652	revuelo	0
-8.587652	rey	0
-8.587652	reyes	0
-8.587652	reúne	0
-8.587652	riendo	0
-8.587652	riesgo	0
-8.587652	rio	0
-8.587652	ritmo	0
-8.587652	riñón	0
-8.587652	robando	0
-8.587652	rojo	0
-8.587652	rompieron	0
-8.587652	ronda	0
-8.587652	ruanda	0
-8.587652	rubro	0
-8.587652	rumbo	0
-8.587652	rumores	0
-8.587652	rusa	0
-8.587652	rusia	0
-8.587652	rusos	0
-8.587652	ruta	0
-8.587652	rutinariamente	0
-8.587652	rápidamente	0
-8.587652	régimen	0
-8.587652	río	0
-8.587652	ríos	0
-8.587652	sabe	0
-8.587652	sabemos	0
-8.587652	saber	0
-8.587652	sabotaje	0
-8.587652	sabía	0
-8.587652	sabían	0
-8.587652	sacado	0
-8.587652	sal	0
-8.587652	sala	0
-8.587652	salario	0
-8.587652	saldar	0
-8.587652	saliente	0
-8.587652	salieron	0
-8.587652	salir	0
-8.587652	salud	0
-8.587652	salva	0
-8.587652	salvador	0
-8.587652	salvar	0
-8.587652	salvo	0
-8.587652	sana	0
-8.587652	sanciones	0
-8.587652	sangre	0
-8.587652	santiago	0
-8.587652	saqueadas	0
-8.587652	sarajevo	0
-8.587652	satisfactoria	0
-8.587652	satisfactorio	0
-8.587652	saínz	0
-8.587652	se	0
-8.587652	sea	0
-8.587652	secciones	0
-8.587652	sección	0
-8.587652	secretaria	0
-8.587652	secretario	0
-8.587652	sector	0
-8.587652	sectores	0
-8.587652	seguir	0
-8.587652	seguirá	0
-8.587652	segunda	0
-8.587652	segundo	0
-8.587652	seguridad	0
-8.587652	seguro	0
-8.587652	seguía	0
-8.587652	según	0
-8.587652	seis	0
-8.587652	sela	0
-8.587652	seleccionó	0
-8.587652	semana	0
-8.587652	semanales	0
-8.587652	senado	0
-8.587652	sencilla	0
-8.587652	sencillísima	0
-8.587652	sensato	0
-8.587652	sentencias	0
-8.587652	sentir	0
-8.587652	separación	0
-8.587652	separado	0
-8.587652	separatista	0
-8.587652	septiembre	0
-8.587652	ser	0
-8.587652	serbia	0
-8.587652	serie	0
-8.587652	seriedad	0
-8.587652	serio	0
-8.587652	servicio	0
-8.587652	servicios	0
-8.587652	será	0
-8.587652	serán	0
-8.587652	sería	0
-8.587652	sesiones	0
-8.587652	sesión	0
-8.587652	setenta	0
-8.587652	severos	0
-8.587652	sevilla	0
-8.587652	sexual	0
-8.587652	señalo	0
-8.587652	señaló	0
-8.587652	señor	0
-8.587652	señora	0
-8.587652	si	0
-8.587652	sido	0
-8.587652	siempre	0
-8.587652	siendo	0
-8.587652	siente	0
-8.587652	siento	0
-8.587652	siete	0
-8.587652	significa	0
-8.587652	significar	0
-8.587652	significativamente	0
-8.587652	significativas	0
-8.587652	sigue	0
-8.587652	siguen	0
-8.587652	siguiente	0
-8.587652	siguieron	0
-8.587652	siguió	0
-8.587652	silla	0
-8.587652	silvio	0
-8.587652	similar	0
-8.587652	similares	0
-8.587652	simple	0
-8.587652	sin	0
-8.587652	sindicales	0
-8.587652	sino	0
-8.587652	sintieron	0
-8.587652	sintió	0
-8.587652	sinónimo	0
-8.587652	siquiera	0
-8.587652	siria	0
-8.587652	sistema	0
-8.587652	situación	0
-8.587652	situada	0
-8.587652	soares	0
-8.587652	soberanía	0
-8.587652	sobre	0
-8.587652	sobrevaluados	0
-8.587652	social	0
-8.587652	solamente	0
-8.587652	solares	0
-8.587652	soldado	0
-8.587652	soldados	0
-8.587652	solicita	0
-8.587652	solicitadas	0
-8.587652	solicitado	0
-8.587652	solicitud	0
-8.587652	solicitó	0
-8.587652	solucionar	0
-8.587652	solución	0
-8.587652	sometido	0
-8.587652	somos	0
-8.587652	son	0
-8.587652	sorprende	0
-8.587652	sorprendido	0
-8.587652	sostuvo	0
-8.587652	soy	0
-8.587652	su	0
-8.587652	subasta	0
-8.587652	subastan	0
-8.587652	subcontrata	0
-8.587652	sube	0
-8.587652	subieron	0
-8.587652	subprograma	0
-8.587652	subsiguiente	0
-8.587652	subtema	0
-8.587652	sucede	0
-8.587652	suceden	0
-8.587652	suceder	0
-8.587652	sucederá	0
-8.587652	sucedió	0
-8.587652	sucesión	0
-8.587652	sudamericanos	0
-8.587652	sudáfrica	0
-8.587652	suecia	0
-8.587652	sueldos	0
-8.587652	suelen	0
-8.587652	suficiente	0
-8.587652	sugerida	0
-8.587652	sugerirse	0
-8.587652	sugirió	0
-8.587652	suma	0
-8.587652	sumamente	0
-8.587652	sumario	0
-8.587652	suministro	0
-8.587652	suministros	0
-8.587652	supervisan	0
-8.587652	supimos	0
-8.587652	suprema	0
-8.587652	suprimir	0
-8.587652	supuestamente	0
-8.587652	supuesto	0
-8.587652	sus	0
-8.587652	sustanciales	0
-8.587652	sábados	0
-8.587652	sé	0
-8.587652	sí	0
-8.587652	sólo	0
-8.587652	sónica	0
-8.587652	tailandés	0
-8.587652	tajante	0
-8.587652	tal	0
-8.587652	talavera	0
-8.587652	tales	0
-8.587652	también	0
-8.587652	tampoco	0
-8.587652	tan	0
-8.587652	tangible	0
-8.587652	tanto	0
-8.587652	tarde	0
-8.587652	tarea	0
-8.587652	tarifas	0
-8.587652	tasa	0
-8.587652	tasas	0
-8.587652	te	0
-8.587652	teatro	0
-8.587652	tecnicismos	0
-8.587652	teconología	0
-8.587652	tegucigalpa	0
-8.587652	televisión	0
-8.587652	telmex	0
-8.587652	tema	0
-8.587652	temas	0
-8.587652	teme	0
-8.587652	temer	0
-8.587652	temor	0
-8.587652	templos	0
-8.587652	temporada	0
-8.587652	tendencia	0
-8.587652	tendrán	0
-8.587652	tendríamos	0
-8.587652	tenemos	0
-8.587652	tener	0
-8.587652	tenerse	0
-8.587652	tenido	0
-8.587652	tensa	0
-8.587652	tenía	0
-8.587652	teníamos	0
-8.587652	tenían	0
-8.587652	teoría	0
-8.587652	tercer	0
-8.587652	tercera	0
-8.587652	tercios	0
-8.587652	terreno	0
-8.587652	terrible	0
-8.587652	territorios	0
-8.587652	terror	0
-8.587652	tesobonos	0
-8.587652	testigo	0
-8.587652	testigos	0
-8.587652	texto	0
-8.587652	textos	0
-8.587652	tiburones	0
-8.587652	tiempo	0
-8.587652	tiempos	0
-8.587652	tiene	0
-8.587652	tienen	0
-8.587652	tierras	0
-8.587652	tipo	0
-8.587652	tipos	0
-8.587652	tirar	0
-8.587652	tiroteo	0
-8.587652	toda	0
-8.587652	todas	0
-8.587652	todavía	0
-8.587652	todo	0
-8.587652	todos	0
-8.587652	toma	0
-8.587652	tomaba	0
-8.587652	tomar	0
-8.587652	tomará	0
-8.587652	tomaría	0
-8.587652	tomarían	0
-8.587652	tomáramos	0
-8.587652	tomó	0
-8.587652	tono	0
-8.587652	toque	0
-8.587652	tormenta	0
-8.587652	torta	0
-8.587652	total	0
-8.587652	totalidad	0
-8.587652	totalmente	0
-8.587652	toyota	0
-8.587652	trabajadores	0
-8.587652	trabajan	0
-8.587652	trabajar	0
-8.587652	trabajo	0
-8.587652	trabajó	0
-8.587652	tragedias	0
-8.587652	tramos	0
-8.587652	tranquilo	0
-8.587652	transitorio	0
-8.587652	transitorios	0
-8.587652	transporte	0
-8.587652	tras	0
-8.587652	trascendental	0
-8.587652	trata	0
-8.587652	trataban	0
-8.587652	tratado	0
-8.587652	tratan	0
-8.587652	trataremos	0
-8.587652	trece	0
-8.587652	treinta	0
-8.587652	tres	0
-8.587652	tribunal	0
-8.587652	tribunales	0
-8.587652	trimestre	0
-8.587652	triple	0
-8.587652	tripulantes	0
-8.587652	triste	0
-8.587652	triunfa	0
-8.587652	tropas	0
-8.587652	trozos	0
-8.587652	turcos	0
-8.587652	tuvieron	0
-8.587652	tuvimos	0
-8.587652	tuvo	0
-8.587652	técnica	0
-8.587652	técnicos	0
-8.587652	término	0
-8.587652	términos	0
-8.587652	título	0
-8.587652	ubicado	0
-8.587652	ultimo	0
-8.587652	un	0
-8.587652	una	0
-8.587652	unidad	0
-8.587652	unidas	0
-8.587652	unidos	0
-8.587652	uniforme	0
-8.587652	uno	0
-8.587652	unos	0
-8.587652	unánime	0
-8.587652	urge	0
-8.587652	urgente	0
-8.587652	uri	0
-8.587652	uruguay	0
-8.587652	usen	0
-8.587652	uso	0
-8.587652	ustedes	0
-8.587652	utilizar	0
-8.587652	va	0
-8.587652	vacuna	0
-8.587652	valiente	0
-8.587652	valiosa	0
-8.587652	valle	0
-8.587652	valores	0
-8.587652	van	0
-8.587652	vaqueros	0
-8.587652	variada	0
-8.587652	variado	0
-8.587652	variados	0
-8.587652	variantes	0
-8.587652	varias	0
-8.587652	varios	0
-8.587652	varían	0
-8.587652	vasto	0
-8.587652	vaticano	0
-8.587652	vaya	0
-8.587652	veces	0
-8.587652	veintisiete	0
-8.587652	velásquez	0
-8.587652	vemos	0
-8.587652	venados	0
-8.587652	vence	0
-8.587652	vender	0
-8.587652	vendido	0
-8.587652	vendían	0
-8.587652	venezolana	0
-8.587652	venezolano	0
-8.587652	venezolanos	0
-8.587652	venezuela	0
-8.587652	venganzas	0
-8.587652	vengarse	0
-8.587652	venideros	0
-8.587652	venta	0
-8.587652	ventaja	0
-8.587652	ventanas	0
-8.587652	ventura	0
-8.587652	veo	0
-8.587652	ver	0
-8.587652	verdad	0
-8.587652	veremos	0
-8.587652	vergüenza	0
-8.587652	verificación	0
-8.587652	vez	0
-8.587652	viajar	0
-8.587652	viajará	0
-8.587652	viaje	0
-8.587652	viajo	0
-8.587652	vicepresidentes	0
-8.587652	victoria	0
-8.587652	vida	0
-8.587652	vieja	0
-8.587652	viejos	0
-8.587652	vienen	0
-8.587652	viernes	0
-8.587652	vincular	0
-8.587652	vino	0
-8.587652	violencia	0
-8.587652	virus	0
-8.587652	visas	0
-8.587652	visita	0
-8.587652	visión	0
-8.587652	visto	0
-8.587652	vive	0
-8.587652	vivimos	0
-8.587652	vladimir	0
-8.587652	vocero	0
-8.587652	volcar	0
-8.587652	volumen	0
-8.587652	voluntad	0
-8.587652	volver	0
-8.587652	volverán	0
-8.587652	volvió	0
-8.587652	volátil	0
-8.587652	votación	0
-8.587652	votantes	0
-8.587652	votar	0
-8.587652	votaron	0
-8.587652	voto	0
-8.587652	votos	0
-8.587652	voy	0
-8.587652	véanse	0
-8.587652	véase	0
-8.587652	vía	0
-8.587652	víctimas	0
-8.587652	y	0
-8.587652	ya	0
-8.587652	yo	0
-8.587652	yodización	0
-8.587652	yugoslavia	0
-8.587652	yáñez	0
-8.587652	zona	0
-8.587652	zonas	0
-8.587652	zulema	0
-8.587652	zulú	0
-8.587652	árbitro	0
-8.587652	él	0
-8.587652	énfasis	0
-8.587652	época	0
-8.587652	ése	0
-8.587652	ésta	0
-8.587652	éxito	0
-8.587652	éxitos	0
-8.587652	índice	0
-8.587652	óptimo	0
-8.587652	órdenes	0
-8.587652	órgano	0
-8.587652	última	0
-8.587652	último	0
-8.587652	últimos	0
-8.587652	única	0
-8.587652	únicamente	0
-8.587652	único	0
-8.587652	útiles	0

\2-grams:
-8.975690	</s> <s>
-8.727201	<s> a
-8.634888	<s> abrigamos
-8.866502	<s> acaso
-8.587652	<s> acepto
-8.580856	<s> aclara
-8.587652	<s> acortarán
-8.461615	<s> actor
-8.036632	<s> actualmente
-8.531200	<s> actuaré
-7.722209	<s> además
-8.612957	<s> adjunto
-8.587652	<s> admite
-8.149967	<s> agradecemos
-8.042833	<s> agradezco
-8.320321	<s> agregó
-8.292956	<s> ahora
-7.840945	<s> al
-9.342561	<s> algunas
-7.866207	<s> algunos
-8.619152	<s> alvaro
-8.573845	<s> ambas
-8.700688	<s> ambos
-8.739867	<s> anexos
-8.926608	<s> aparentemente
-8.474980	<s> aragón
-8.818556	<s> arias
-8.450694	<s> aristide
-8.684828	<s> asimismo
-8.614785	<s> aspin
-9.075048	<s> astronautas
-7.256446	<s> así
-8.633573	<s> aumenta
-8.742617	<s> avisaremos
-8.942022	<s> avión
-8.864257	<s> añadió
-8.242246	<s> aún
-8.587652	<s> basándose
-8.587652	<s> bernardin
-8.587652	<s> bonn
-7.825063	<s> brasil
-7.924805	<s> cada
-8.519380	<s> caldera
-8.976115	<s> carlos
-8.587652	<s> cavallo
-8.710000	<s> cerrará
-8.550676	<s> cesar
-8.272698	<s> clausura
-9.346533	<s> clausuran
-9.080070	<s> clinton
-8.824990	<s> como
-8.587652	<s> completan
-8.738502	<s> comprendemos
-8.706928	<s> con
-8.737231	<s> continuaremos
-8.220936	<s> continúa
-8.426063	<s> convención
-8.645947	<s> corte
-7.743867	<s> creo
-8.587652	<s> críticos
-8.653120	<s> cuando
-8.294694	<s> cuatro
-8.389944	<s> cuáles
-8.230306	<s> cómo
-8.018269	<s> de
-8.295315	<s> debe
-8.066270	<s> debemos
-8.248139	<s> deberá
-8.571009	<s> debo
-7.960845	<s> decidió
-7.551240	<s> desarrollo
-7.908811	<s> desde
-8.449064	<s> deseo
-8.587652	<s> desgraciadamente
-8.377092	<s> destacó
-9.172192	<s> dice
-8.212579	<s> dichos
-8.930594	<s> dije
-8.139194	<s> dijo
-8.646322	<s> dios
-8.587652	<s> discutiremos
-8.670672	<s> dos
-8.795469	<s> doy
-8.189924	<s> durante
-8.587652	<s> económicamente
-7.028465	<s> el
-8.570623	<s> elecciones
-7.964087	<s> ello
-8.383082	<s> ellos
-8.362170	<s> emotivo
-7.842128	<s> en
-8.198018	<s> envíamos
-8.444722	<s> era
-7.873172	<s> es
-8.357365	<s> esa
-8.690831	<s> esas
-8.811110	<s> escojo
-8.384327	<s> escritor
-8.592036	<s> escuché
-8.684711	<s> ese
-7.888478	<s> eso
-8.561895	<s> esos
-8.014972	<s> esperamos
-8.381932	<s> esperar
-8.264775	<s> espero
-7.650444	<s> esta
-8.826818	<s> estaban
-8.485898	<s> estamos
-8.333670	<s> estas
-8.721387	<s> este
-9.068889	<s> esto
-9.016492	<s> estonia
-7.986906	<s> estos
-8.580614	<s> está
-8.742377	<s> evidentemente
-8.169213	<s> ex
-8.687263	<s> exhiben
-8.429598	<s> favor
-8.271699	<s> fecsa
-8.381607	<s> figura
-7.950788	<s> fijan
-8.574472	<s> filipinas
-9.138906	<s> finlandia
-8.791279	<s> fracasa
-8.351138	<s> francia
-8.371326	<s> frente
-8.133907	<s> fue
-8.426407	<s> fuertes
-7.716960	<s> germán
-8.171759	<s> gobierno
-7.960948	<s> gonzález
-8.226045	<s> gracias
-8.427244	<s> graciela
-8.501181	<s> ha
-7.621726	<s> hacer
-8.259731	<s> haciendo
-8.288711	<s> hasta
-7.731677	<s> hay
-7.997575	<s> he
-8.674058	<s> hemos
-9.104260	<s> hoy
-8.548218	<s> hubo
-9.200336	<s> huelga
-8.480987	<s> iberdrola
-8.317767	<s> igual
-9.042153	<s> ilaria
-8.419634	<s> indican
-8.112888	<s> indicó
-8.587652	<s> indique
-8.494925	<s> inician
-8.587652	<s> inversionistas
-8.717695	<s> italia
-8.587652	<s> jaime
-9.059600	<s> japón
-8.415102	<s> justicia
-7.250111	<s> la
-9.190462	<s> lacalle
-8.587652	<s> lamentablemente
-8.037715	<s> las
-8.630503	<s> le
-8.723157	<s> les
-8.674123	<s> llameante
-7.771041	<s> llega
-8.897267	<s> llegó
-8.587652	<s> llevé
-7.989765	<s> lo
-7.880631	<s> los
-8.457639	<s> luego
-8.587652	<s> lógicamente
-8.817725	<s> madrazo
-8.587652	<s> mandela
-8.526198	<s> marchaba
-7.617496	<s> me
-8.433272	<s> media
-8.587652	<s> mercouri
-8.740935	<s> mi
-8.622797	<s> mientras
-8.438646	<s> miguel
-8.587652	<s> milán
-8.410631	<s> mineros
-8.168229	<s> ministro
-8.373912	<s> ministros
-8.772727	<s> monselas
-8.587652	<s> morirá
-8.768154	<s> mucho
-8.230904	<s> muchos
-8.419199	<s> muere
-8.317652	<s> mueren
-8.633780	<s> muy
-8.382948	<s> más
-8.504333	<s> méxico
-8.357733	<s> nadie
-8.762383	<s> nave
-8.129683	<s> necesitamos
-8.759301	<s> ni
-8.849856	<s> ninguna
-8.511023	<s> ninguno
-7.985952	<s> ningún
-7.171104	<s> no
-8.915498	<s> nombraron
-8.246771	<s> nos
-8.065773	<s> nosotros
-8.075720	<s> nuestro
-8.276556	<s> nuestros
-9.106698	<s> nuevamente
-7.638760	<s> nunca
-8.271197	<s> occidente
-8.223189	<s> ocho
-8.231430	<s> operaciones
-8.375821	<s> otras
-8.515559	<s> otros
-8.587652	<s> palacios
-8.438349	<s> para
-8.254910	<s> parece
-8.751511	<s> parra
-8.587652	<s> passarella
-8.467540	<s> pequeño
-8.412390	<s> peres
-8.788178	<s> permitirá
-7.786923	<s> pero
-8.494811	<s> pese
-8.284986	<s> peseta
-8.119719	<s> planeaba
-8.587652	<s> plantearon
-8.671630	<s> podríamos
-7.621645	<s> por
-8.493729	<s> preguntó
-8.759611	<s> prensa
-9.177394	<s> preparan
-8.254646	<s> presidente
-8.868112	<s> provocaría
-8.322286	<s> pueden
-8.124728	<s> puedo
-8.308107	<s> que
-9.285536	<s> quería
-8.381483	<s> queríamos
-8.763727	<s> quienes
-7.947067	<s> quiere
-8.652913	<s> qué
-8.811255	<s> quédense
-9.005794	<s> realiza
-8.587652	<s> reanudada
-8.517414	<s> reciben
-8.587652	<s> recrudece
-8.587652	<s> reitera
-8.303444	<s> renuncia
-7.968456	<s> resa
-8.587652	<s> responderemos
-9.252507	<s> retirada
-8.100371	<s> rey
-8.308870	<s> rusia
-8.587652	<s> ríos
-9.242916	<s> salieron
-9.324633	<s> sarajevo
-8.386171	<s> saínz
-7.798499	<s> se
-8.610393	<s> según
-8.587652	<s> sela
-7.933171	<s> senado
-8.918031	<s> será
-8.826292	<s> sería
-7.940343	<s> si
-8.505383	<s> siento
-8.290227	<s> siete
-8.343896	<s> sigue
-8.587652	<s> silvio
-7.853448	<s> sin
-8.024983	<s> siria
-8.234119	<s> sobre
-8.267599	<s> son
-8.624814	<s> soy
-7.328706	<s> su
-8.977310	<s> sube
-8.029966	<s> sus
-8.785136	<s> sé
-8.775109	<s> sólo
-7.877254	<s> tal
-8.133861	<s> también
-8.903280	<s> tampoco
-8.634610	<s> tenemos
-8.448527	<s> todas
-7.991647	<s> todavía
-8.255780	<s> todo
-8.639170	<s> todos
-8.587652	<s> toyota
-8.523056	<s> trataremos
-8.368311	<s> treinta
-8.265700	<s> tres
-8.554615	<s> tuvimos
-8.291491	<s> un
-7.702709	<s> una
-8.480822	<s> unos
-8.880229	<s> urge
-8.422535	<s> uruguay
-8.715162	<s> valores
-8.467175	<s> van
-8.923910	<s> varios
-8.583785	<s> velásquez
-8.854615	<s> venezolanos
-8.609208	<s> venezuela
-8.944033	<s> véanse
-8.638889	<s> véase
-7.999787	<s> y
-8.078047	<s> ya
-8.188331	<s> yo
-8.128233	<s> yugoslavia
-8.614674	a actuar
-8.435755	a algunos
-8.535573	a alta
-8.452122	a aprobar
-8.635757	a atlanta
-8.933303	a cambio
-8.805121	a cargo
-8.518969	a chile
-8.505280	a cielo
-8.241110	a cifras
-9.029415	a cinco
-8.758942	a colaborar
-8.587652	a coleman
-8.496391	a combatir
-8.142036	a consulta
-8.154892	a continuación
-8.604728	a continuar
-8.714473	a debatir
-8.861321	a decir
-8.448370	a defraudar
-8.350883	a discutir
-8.533522	a elegir
-8.324016	a ello
-8.877694	a esa
-8.572987	a esas
-8.443477	a ese
-8.760275	a esos
-8.672325	a estar
-8.671438	a estas
-8.146531	a este
-8.815211	a esto
-8.316338	a estos
-8.221391	a europa
-8.868556	a examinar
-8.110586	a explicar
-8.662586	a fines
-8.391329	a firmeza
-8.587652	a goycochea
-8.976658	a gusto
-8.341436	a hablar
-8.281115	a hacer
-8.486233	a ir
-8.677521	a japón
-8.587652	a jerusalén
-8.587652	a juan
-8.773618	a juicio
-8.126672	a la
-8.593745	a largo
-8.564668	a las
-8.175352	a los
-8.971200	a marcos
-8.375449	a mejorar
-8.664303	a menudo
-8.625128	a mi
-8.549487	a méxico
-8.645237	a nadie
-8.292011	a otra
-8.777626	a otro
-8.867389	a otros
-8.580747	a partidos
-8.884663	a países
-8.517690	a personas
-8.433269	a que
-8.756630	a quedar
-8.530128	a recibir
-8.637982	a reformas
-8.633345	a regir
-8.790109	a regresar
-8.289968	a reservas
-8.751148	a respetar
-8.587652	a retirarse
-8.587652	a reunir
-8.847707	a rusia
-8.505496	a santiago
-8.524670	a sentir
-8.140224	a ser
-8.740524	a serbia
-7.866824	a su
-8.502639	a sus
-8.547349	a tasa
-8.587652	a tegucigalpa
-8.446491	a temas
-8.307844	a tener
-8.324144	a todos
-8.678596	a trabajar
-8.333965	a un
-8.059452	a una
-8.269384	a votación
-8.558990	a votar
-8.434048	a ya
-8.587652	abajo con
-8.587652	abandonada </s>
-8.899924	abandonado la
-8.587652	abarcan muy
-8.148426	abastecimiento el
-7.890769	abatir estructuras
-7.939382	abierta </s>
-8.917481	abiertas y
-8.408712	abierto a
-8.146175	abierto del
-8.587652	abra está
-8.784575	abrigamos la
-8.583450	abril </s>
-8.282085	abrió un
-8.587652	abstracto sino
-8.587652	abundan los
-8.587652	aburrida señaló
-8.375137	acaba de
-8.587652	acaben los
-8.334583	acaso haya
-8.814084	acaso no
-8.587652	acatamiento sea
-8.393346	acceder a
-8.281836	acceso a
-8.653636	accidente </s>
-8.233232	acciones cayeron
-8.680195	acciones de
-8.830157	acciones subieron
-8.646184	acción se
-8.535782	acción son
-8.387707	acelerar el
-8.587652	acento francés
-8.087703	aceptable </s>
-8.380139	aceptar un
-8.475075	aceptarla </s>
-8.587652	acepto humildemente
-9.139403	aceptó esa
-7.743119	aceptó la
-8.236597	aclara que
-8.133380	aclararlo todo
-8.587652	acomete campaña
-8.420675	acontecimiento a
-8.587652	acopla a
-8.514975	acordaron continuar
-8.011321	acordó que
-8.587652	acortarán duración
-8.587652	acosta </s>
-8.478071	actitud de
-8.154726	actitud dijo
-8.350210	actividad </s>
-8.768694	actividad volátil
-7.771102	actividades en
-8.446504	actividades se
-8.587652	activo diferido
-8.587652	activos desde
-9.511948	acto la
-8.420074	actor de
-8.996090	actor más
-8.587652	actuaciones de
-8.123166	actual </s>
-8.537718	actual acuerdo
-8.587652	actual composición
-8.685376	actual dista
-8.511583	actual es
-8.765971	actualidad hay
-8.642627	actualizan constantemente
-7.870173	actualizar cada
-8.814612	actualmente la
-8.619812	actualmente objeto
-8.494051	actuando así
-8.529076	actuar </s>
-8.500910	actuaré conforme
-8.587652	acude a
-8.917896	acuerdan impulsar
-8.420965	acuerdo </s>
-8.146907	acuerdo como
-8.432010	acuerdo con
-8.680647	acuerdo de
-8.541626	acuerdo donde
-9.287751	acuerdo no
-8.443195	acuerdo que
-8.840525	acuerdo sobre
-8.220463	acusaciones </s>
-8.587652	acusados prestó
-8.539824	adelante </s>
-8.498876	adelante dijo
-8.494996	adelanto </s>
-8.076037	además por
-8.561375	adicionales </s>
-8.302170	adiós del
-8.587652	adjudica un
-8.527447	adjudicada a
-9.115746	adjunta copia
-8.549338	adjunta una
-8.587652	adjuntan los
-8.426770	adjunto copias
-8.587652	admite un
-9.098859	adoptado algunas
-8.589455	adoptará sus
-8.498835	adoptarán por
-8.421280	aducía </s>
-8.587652	advirtió </s>
-8.370428	aeropuerto </s>
-8.587652	aeropuertos fueron
-8.587652	afectados </s>
-8.585588	afiliación a
-8.971993	afirma benítez
-8.679223	afirma que
-8.768560	afirmativo tendríamos
-8.567863	afirmó </s>
-8.587652	afirmó tajante
-8.621554	agencia dijo
-8.513538	agente </s>
-8.001452	agradecemos por
-7.908085	agradecemos su
-8.677912	agradeceremos su
-8.502623	agradecerle a
-8.398318	agradezco de
-8.357181	agradezco su
-8.351040	agrava esta
-8.668354	agravó las
-8.217691	agregó </s>
-8.587652	agregó acosta
-7.868563	agregó por
-8.043100	agregó que
-8.772324	agresión contra
-8.587652	agrupación </s>
-8.372967	agrícola francés
-8.651803	agua agrava
-8.473349	aguarda regreso
-8.587652	aguarme el
-7.899707	aguas no
-8.587652	ahondar el
-8.706018	ahora </s>
-8.587652	ahora ahorra
-8.118211	ahora bien
-8.304736	ahora dijo
-8.823698	ahora en
-8.587652	ahora enfrenta
-8.397394	ahora es
-8.855868	ahora la
-8.609959	ahora los
-8.402147	ahora no
-8.574743	ahora que
-8.581985	ahora sobre
-8.501279	ahora solamente
-8.548670	ahora tenemos
-8.587652	ahorra </s>
-8.016707	ahí que
-8.961335	aislamiento fue
-8.587652	ajustará pues
-8.502928	al cierre
-8.864719	al contenido
-8.941742	al cuadro
-8.863915	al distinguido
-8.528142	al día
-8.587652	al estrellarse
-8.086683	al exterior
-8.587652	al festivo
-9.039670	al fuego
-8.622299	al gobierno
-8.336505	al grupo
-8.339749	al hospital
-8.414491	al marcador
-8.146970	al marco
-8.357732	al menos
-7.978110	al mercado
-8.660257	al mismo
-8.523775	al parecer
-8.207471	al país
-8.286660	al problema
-8.710794	al párrafo
-8.380056	al recibir
-8.228133	al salir
-8.548148	al secretario
-8.867680	al sector
-8.377656	al siguiente
-8.077352	al tratado
-8.388614	al uso
-8.859379	al ver
-8.170674	albacora han
-8.401370	aldeas </s>
-8.587652	alegatos de
-8.309606	alemania </s>
-8.701257	alemán gana
-8.533692	alfonsín </s>
-7.531482	algo así
-8.370185	algo más
-8.522281	algo puede
-8.587652	algo tangible
-8.635632	alguna para
-8.537922	alguna razón
-8.366791	algunas condiciones
-8.487250	algunas cosas
-8.415909	algunas de
-9.250166	algunas diferencias
-8.244911	algunas medidas
-8.306826	algunas otras
-8.288036	alguno </s>
-8.808174	alguno de
-8.587652	algunos críticos
-8.587652	algunos especialistas
-8.771040	algunos esto
-8.411219	algunos países
-8.587652	algunos vendían
-8.516430	alimentaria continúa
-8.176999	alla del
-8.587652	allen al
-8.557407	allá de
-8.496108	allí cuando
-8.587652	alrededor de
-8.691901	alta mar
-8.357006	altibajos y
-8.795835	alto costo
-8.185590	alto organismo
-8.428305	alvaro lo
-8.339438	alza en
-8.819162	amable cooperación
-8.387830	amazónico </s>
-8.141970	ambas naves
-8.889056	ambas partes
-9.089400	ambas propuestas
-8.380184	ambos efectos
-8.597746	ambos equipos
-8.185069	ambos países
-8.587652	ambos reclamaron
-8.333222	amplia </s>
-8.109153	amplia gama
-8.639708	ampliado también
-8.587652	ampliamente imitado
-8.776320	ampliar esa
-8.318390	ampliarse en
-8.749897	ampliarse o
-8.313398	amplio </s>
-8.605844	amplitud de
-8.825188	américa latina
-8.478932	analfabetos del
-8.355170	analista </s>
-8.788345	analizado cuidadosamente
-8.587652	analogía ayudará
-8.181259	anexo diez
-8.316175	anexo figura
-8.810874	anexo tres
-8.422626	anexos al
-8.587652	anonadado </s>
-8.087564	anonimato </s>
-7.850687	ante el
-8.276723	ante la
-8.846857	ante una
-8.379095	antemano su
-8.699158	antenas solares
-8.412327	anterior </s>
-8.955549	anticipado su
-8.681322	anticipó qué
-8.587652	antología de
-8.452582	anual del
-8.408710	anunciado aún
-8.285299	anunciados </s>
-8.566521	anunciar medidas
-8.662359	análisis </s>
-8.921983	apagones eléctricos
-8.587652	aparecen las
-8.587004	aparentemente mantiene
-8.725815	apelables ante
-8.320101	apelación </s>
-8.587652	apelado </s>
-8.820129	apertura del
-8.385997	aplicación de
-8.587652	aplicar la
-8.587652	aportaciones adicionales
-8.438293	apoyo </s>
-8.860069	apoyo alguno
-8.416294	apoyo del
-8.398459	apoyo para
-8.527975	apoyo y
-8.587652	apremio expresado
-8.490835	aprobación </s>
-8.587652	aprobado por
-8.989431	aprobar reformas
-8.171800	aprobaron en
-8.307325	aprobó el
-8.304858	aprobó presupuesto
-8.382066	aproximadas de
-8.504051	aprueba pacto
-8.587652	apuntarán a
-8.587652	aquella época
-8.381033	aragón dijo
-8.382698	arbitraje </s>
-8.557852	aremisos a
-8.587652	argentina discutiéndolo
-8.055994	argentina que
-8.391470	argentino </s>
-8.849774	argentino polemiza
-8.811040	arias dice
-8.028377	arias se
-8.635989	aristide ha
-8.352743	arma </s>
-8.346499	arma sónica
-8.682078	armamento será
-8.299014	armas agregó
-8.288637	armas nucleares
-8.603024	arrecian críticas
-8.168600	arreglo no
-8.587652	arrestado hasta
-8.594085	arroz norteamericano
-8.587652	arroz tailandés
-8.536837	arte y
-8.201600	artistas están
-8.409653	artículo catorce
-8.464336	artículo con
-9.010955	artículo doce
-8.807496	artículo segundo
-8.645711	artículo también
-8.587652	artículos de
-8.486419	asalariados han
-8.426648	asamblea </s>
-8.442739	asamblea general
-8.790948	asamblea ordinaria
-8.587652	ascenso el
-8.645638	asegurado </s>
-8.587652	asesinar y
-8.045826	aseveró </s>
-9.347904	asignación puede
-8.274014	asimismo lamentó
-8.802052	asimismo se
-8.587652	asisten a
-8.375602	asistencia y
-8.587652	asociado </s>
-8.587652	asombro en
-8.128433	aspecto del
-8.495243	aspectos </s>
-8.513090	aspin dijo
-8.821270	assad vaya
-8.323778	astronautas instalan
-8.099409	asumiría ministerio
-7.880234	asunto en
-8.728296	asunto serio
-8.723775	asuntos mundiales
-8.387335	asuntos no
-8.504531	así cuáles
-9.147147	así explicó
-8.880750	así hasta
-8.544982	así las
-8.391522	así que
-8.648895	atacar a
-9.009979	ataque causó
-8.468662	ataúd </s>
-8.172983	atención </s>
-8.267993	atención de
-8.542487	atención médica
-9.028860	atender esa
-8.259790	atentado </s>
-8.713862	aterrizó con
-8.821959	aterrizó sin
-8.855809	atlanta dos
-8.727661	atraer aremisos
-8.421096	atraviesan un
-8.083805	atribuírlo a
-8.217891	atrás </s>
-8.802889	atuendo </s>
-8.367382	audaz </s>
-8.553145	audiencias sobre
-8.317454	aumenta cifra
-8.320077	aumenta la
-8.693740	aumentado la
-8.278337	aumentaron </s>
-8.587652	aumentos no
-8.631240	aumentó las
-8.770244	ausencia </s>
-8.150427	ausencia de
-8.640820	australiano </s>
-8.325360	autobús </s>
-7.226883	autoevaluaciones no
-8.287771	automóvil de
-8.587652	automóviles nuevos
-7.895606	autor afirma
-8.511180	autoridades de
-7.870925	autoridades no
-8.693358	avance del
-8.029765	avance este
-8.587652	avancen </s>
-8.508308	avances </s>
-8.673400	avanza cada
-8.173346	avanzado en
-8.708685	avaro y
-8.587652	avendaño </s>
-8.241520	avisaremos en
-8.563699	avión de
-8.969208	avión español
-8.586213	avión hará
-8.577430	avión norteamericano
-8.587652	avión procedente
-8.020197	ayer en
-8.500997	ayuda a
-8.715819	ayuda y
-8.693162	ayudará a
-8.125804	aérea de
-7.852524	aéreos en
-8.258113	añadió </s>
-8.621219	añadió que
-8.587652	añadió ventura
-8.292795	año </s>
-7.966045	año el
-8.804416	año en
-8.462518	años </s>
-8.239676	años después
-9.028830	años es
-8.741538	años esta
-8.587652	años venideros
-8.333986	aún añadió
-9.091412	aún del
-8.545335	aún detenciones
-8.359850	aún en
-8.193613	aún más
-8.265406	aún no
-7.919236	baja </s>
-8.652575	baja a
-7.964194	bajaron más
-8.955778	baje expresó
-8.386127	bajo condición
-8.331965	bajo dijo
-7.937747	bajo la
-8.565676	bajo presión
-8.391994	bajos </s>
-8.351781	balladur </s>
-8.431581	bancario </s>
-8.782605	banco central
-9.242331	banco europeo
-8.432270	banco ha
-8.587652	bancolombia </s>
-8.814682	bancos estarán
-8.077311	basa el
-7.928411	basa en
-8.022445	basado en
-8.407752	base intelectual
-7.882295	base se
-8.715769	bastante amplia
-8.361939	bastante corto
-8.530063	bastante preocupantes
-8.587652	basándose en
-8.908177	batalla </s>
-8.880734	batallones en
-8.587652	baviera </s>
-8.382524	beca fue
-8.587652	bena soares
-8.698420	bendiga miguel
-8.863466	benítez </s>
-8.398590	berlín y
-8.587652	bernardin no
-8.587652	bernardo </s>
-8.303363	bielorrusia busca
-8.253445	bien </s>
-8.507942	bien como
-8.592820	bien conocida
-8.374665	bien desde
-8.699668	bien existe
-8.513950	bien informados
-8.370141	bien la
-8.463715	bien puede
-9.136280	bien ubicado
-8.555579	bienvenida </s>
-8.498842	blancos nos
-8.587652	blum y
-8.660178	bogotá </s>
-8.803900	bogotá y
-8.933036	bola de
-8.284019	bomba </s>
-8.587652	bondes se
-8.587652	bonn está
-8.355607	bonos </s>
-8.479378	boquete en
-8.331295	borrador </s>
-8.587652	borrados </s>
-8.394846	bosnia </s>
-8.587652	bosques </s>
-8.775533	brasil </s>
-8.546000	brasil acuerdan
-8.444727	brasil aguarda
-8.648613	brasileño completó
-8.309780	brasileño declara
-8.426127	breve respiro
-8.201236	brevemente al
-8.414001	brevemente ante
-8.587652	bruselas </s>
-8.789803	buceador </s>
-8.685252	buen buceador
-8.412812	buen momento
-8.390040	bueno </s>
-8.357127	bueno para
-8.315687	busca a
-8.587652	busca proteger
-8.587652	buscamos la
-9.397932	buscar la
-8.587652	básicos </s>
-8.251525	bósforo </s>
-8.665489	cabe duda
-8.239662	cabo </s>
-8.351331	cabría decir
-8.587652	cachemira luego
-8.900151	cada cuatro
-8.101580	cada día
-8.331011	cada encuentro
-8.847164	cada organismo
-8.562822	cada producto
-8.426916	cada trimestre
-8.374593	cada uno
-8.284233	cada vez
-8.282944	cadena de
-8.318270	caer en
-8.587652	cafetería cierra
-8.246074	caja </s>
-8.409551	caldera es
-8.587652	caldera escogieron
-8.603411	caldera presentó
-8.173062	calefacción </s>
-8.643883	calidad cuesta
-8.303522	calidad de
-7.471421	camacho en
-8.722120	cambiado </s>
-8.057728	cambiado en
-8.701210	cambiado totalmente
-8.579874	cambio de
-8.258048	cambios al
-8.530663	cambios de
-8.587652	cambios gane
-8.149450	cambios se
-8.907456	cambios serán
-8.699189	cambió varias
-8.298733	campamento </s>
-8.529367	campamento controlado
-8.754144	campaña política
-8.595932	campeones ganando
-8.126078	campo los
-8.762539	campo moderado
-8.359094	campo y
-8.444488	canalizó a
-8.620106	canciller francés
-8.356838	canciller peruano
-8.587652	cancillería uri
-8.062148	candidato en
-8.619495	candidato para
-8.509077	candidatos podían
-7.922139	cantante se
-8.464458	cantidad de
-8.668210	capacidad de
-8.587652	capaz de
-8.254673	capital mínimo
-8.587652	captura </s>
-8.150033	capítulo tres
-8.587652	cara </s>
-8.622745	caracas bogotá
-8.989123	caravana pasa
-8.322478	carbón </s>
-8.618636	carbón a
-8.704596	cardona </s>
-8.399192	carece de
-8.578486	carga de
-8.538179	carga están
-8.587652	cargo aportaciones
-8.123897	cargo de
-8.587652	carlos elgueta
-8.544197	carlos lleras
-8.164657	carnaval </s>
-8.587652	caro </s>
-7.920911	carrera </s>
-8.817002	carrera por
-8.444525	carta de
-8.770119	carta describía
-8.531914	cartas para
-8.327692	carteles </s>
-8.597745	casa mis
-8.406076	casas </s>
-8.474962	casi cinco
-8.587652	casi perfecta
-8.276492	casi total
-8.284538	casino </s>
-8.436131	caso </s>
-8.371326	caso afirmativo
-8.080263	caso agregó
-8.620308	caso de
-7.862372	caso más
-8.157419	caso no
-8.122561	caso se
-8.445170	caso también
-8.441510	casos hemos
-8.508106	casos más
-8.589458	casos problemáticos
-8.794126	casos se
-8.269547	casó con
-8.587652	catedral está
-8.250345	catorce </s>
-8.738520	católica </s>
-8.440949	causa </s>
-8.525148	causa de
-8.323121	causa del
-8.355122	causas del
-8.547596	causas naturales
-8.587652	causó asombro
-8.483392	causó cierto
-8.450984	causó pánico
-8.587652	cavallo dice
-8.293410	cayeron en
-8.470942	cañoneos y
-8.741224	ceda </s>
-8.138021	cedería golán
-8.175428	celebración por
-8.135406	cenizas </s>
-8.340199	central </s>
-8.410845	centro de
-8.587652	centroamérica </s>
-8.485110	cerca de
-8.197383	cerca del
-8.685375	cero indica
-8.285416	cero por
-8.587652	cerrados por
-8.061284	cerrar siempre
-8.587652	cerraron este
-8.024580	cerrará operaciones
-8.610926	cerveza todo
-8.587652	cesación del
-8.587652	cesar acude
-8.587652	cese al
-8.587652	cetáceos más
-8.258648	chiapas </s>
-8.376966	chiapas declaró
-8.597253	chile </s>
-8.874166	chileno </s>
-8.965471	chileno saliente
-8.883018	chileno vender
-8.211901	china </s>
-8.534583	chocó cerca
-8.325464	choferes </s>
-9.112174	choques continuaran
-9.004699	choques tuvieron
-8.092462	ciega y
-8.785628	cielo abierto
-8.086235	ciento </s>
-8.612004	ciento dijo
-8.873966	ciento en
-8.244795	científicos han
-8.587652	científicos tratan
-8.587652	ciernen sobre
-8.828650	cierra los
-8.416879	cierre de
-8.360137	cierre en
-8.297692	cierto </s>
-8.118338	cierto revuelo
-8.717367	cifra de
-8.528505	cifra que
-9.128642	cifras aproximadas
-8.574404	cifras hacen
-8.620862	cifras sin
-8.589465	cifras son
-8.191694	cinco años
-9.367938	cinco dólares
-9.009410	cinco meses
-8.461753	ciudad de
-8.241405	ciudad del
-8.432218	civiles o
-8.354233	civilizados </s>
-8.539424	claro </s>
-8.572641	claro espaldarazo
-8.997750	clase el
-8.184459	clasificación de
-8.587652	claudio </s>
-8.431713	clausura del
-8.617562	clausuran locales
-8.156977	claves en
-8.587652	climáticos de
-8.571693	clinton a
-8.587652	clinton compara
-8.180552	clinton también
-8.495875	coalición de
-8.434390	coherencia </s>
-8.078587	colaboración debe
-8.478517	colaborar </s>
-8.587652	coleman </s>
-8.595713	colombia militares
-8.587652	colombo venezolano
-8.587652	colonos deben
-8.587652	colonos entren
-8.587652	colonos tomarían
-8.587652	columna aparecen
-9.115358	combates aéreos
-7.922147	combatir </s>
-8.587652	combustible nuclear
-8.587652	comedia la
-8.587652	comentado en
-8.607558	comentar </s>
-8.166965	comentario de
-8.621266	comentarios </s>
-8.553414	comentarios de
-8.588430	comentarios del
-8.587652	comentó bernardo
-8.239829	comentó en
-7.969990	comenzar </s>
-8.964065	comenzar a
-8.131690	comenzará el
-8.341517	comenzarán a
-8.460837	comerciales </s>
-8.141515	comercializó </s>
-8.231155	comercio </s>
-8.587652	comercio colombo
-8.254012	comienza hoy
-8.766492	comienzo del
-8.270864	comisionista </s>
-8.172537	comisión </s>
-8.637328	comisión consideró
-8.464941	comisión decidió
-8.587652	comisión determinará
-8.681519	comisión se
-8.776889	comisión serán
-8.613003	comisión tal
-8.009574	comité </s>
-8.543295	comité adoptará
-8.372615	comité decidió
-8.828474	comité especial
-8.299926	comité se
-8.419643	comité tenía
-7.894203	comités han
-9.013021	como candidato
-8.143308	como causa
-8.332307	como lo
-7.727001	como no
-8.587652	como quieran
-8.352166	como sensato
-8.390893	como un
-8.216052	como una
-8.307601	como ésta
-8.594630	como último
-8.587652	compara a
-9.108931	comparte esa
-8.127638	comparten la
-8.865216	compartieron esa
-8.021152	comparó con
-8.694450	compasión </s>
-8.248780	compatible </s>
-8.587652	compañía recurrió
-8.389313	compensatorias </s>
-8.452644	competitiva </s>
-8.089071	complace saber
-8.466667	complaciente </s>
-8.189131	complejo y
-8.587652	complejos </s>
-8.275879	completa normalidad
-8.587652	completan acuerdo
-8.402754	completo </s>
-8.350662	completo pero
-8.495844	completos de
-8.670476	completó reforma
-8.227902	complicadas en
-8.587652	composición de
-9.013472	compras compensatorias
-8.564760	comprende nuestra
-8.288033	comprendemos que
-8.587652	comprender su
-8.587652	comprenderse que
-8.587652	comprenderá el
-8.269180	comprendió lo
-8.097391	comprensión </s>
-8.827320	comprometido a
-8.058582	compromiso </s>
-9.186007	común tres
-8.507179	con actividad
-8.450002	con argentina
-8.648552	con china
-8.524503	con dificultades
-8.712495	con el
-8.192220	con ellos
-8.539708	con esa
-8.298491	con este
-8.574821	con esto
-8.251911	con galina
-8.792473	con grecia
-8.657657	con hechos
-8.980507	con la
-8.278823	con las
-8.466268	con los
-8.587652	con manada
-8.714169	con mi
-8.587652	con modestos
-8.473064	con mucha
-8.561231	con ninguna
-8.490988	con nosotros
-8.786362	con posterioridad
-8.551908	con pérdida
-8.587652	con seriedad
-8.526025	con su
-8.666110	con todo
-8.585194	con todos
-8.175829	con un
-8.499072	concebido el
-8.587652	concepto abstracto
-8.930327	concepto amplio
-8.560791	concepto de
-8.283766	conciencia agregó
-8.121373	conclusiones del
-8.946880	conclusión es
-8.521373	conclusión opuesta
-8.466505	concluye la
-8.185748	concluídas </s>
-7.796710	concluído así
-8.362104	concreta </s>
-8.156903	concreta para
-8.425641	concretos </s>
-8.160991	concretos que
-8.587652	concuerda con
-8.334777	concéntrese en
-8.624818	condena en
-8.587652	condenatorio no
-8.341929	condiciones </s>
-8.587175	condiciones favorables
-8.786737	condición de
-8.419532	conductor de
-8.587652	condujo supuestamente
-8.607747	conexión </s>
-8.287736	conferencia de
-7.371179	conferencia el
-8.764073	conferencia para
-8.678353	confianza en
-8.587652	confidenciales </s>
-8.587652	confirmado independientemente
-8.231044	conflictos se
-8.606376	conforme a
-8.587652	confuso e
-8.587652	congelarían los
-8.243737	congreso </s>
-8.785945	conoce a
-8.587652	conocen las
-8.055405	conocer sus
-8.536011	conocerla </s>
-8.465109	conocida </s>
-8.227221	conocido de
-8.154153	conocimiento del
-7.694632	consecuencia decidió
-8.351676	consecuencia no
-8.587652	consecutivos </s>
-8.587652	conseguir la
-8.260473	consejo </s>
-8.696705	consejo procedió
-8.587652	consejo tomará
-8.484612	consenso </s>
-8.053698	consenso internacional
-8.587652	conservación de
-8.523545	considera posible
-8.592180	considerablemente de
-8.345080	consideración de
-8.276795	consideró que
-8.587652	consignaciones adicionales
-8.297975	consiguiente esa
-8.076695	consiguiente les
-8.218238	consta de
-8.416193	constante </s>
-8.666216	constante dijo
-8.556522	constantemente </s>
-8.320146	constituirán la
-8.277518	constituye un
-8.317585	construcciones </s>
-8.587652	construir sobre
-8.158928	consulta </s>
-8.570229	consulta política
-8.477501	consumado de
-8.587652	consumo </s>
-8.587652	contactado para
-8.658558	contacto tan
-8.457348	contaduría </s>
-8.587652	contemplaba una
-8.649434	contenido de
-8.194110	conteo de
-8.587652	contestaron a
-8.404647	contextos </s>
-8.863223	continuaban pendientes
-8.771123	continuación </s>
-8.512279	continuación defendió
-8.818905	continuación quisiera
-8.587652	continuado </s>
-8.643079	continuar con
-8.866646	continuar el
-8.799129	continuar esta
-8.751165	continuar y
-8.095699	continuaran hoy
-8.465811	continuaremos actuando
-8.961815	continuarán negociando
-8.182344	continúa </s>
-8.781141	continúa diezmada
-8.961939	continúa en
-9.055176	continúa investigación
-8.421362	continúa siendo
-8.643557	continúe </s>
-8.337078	continúen las
-8.626045	contra aldeas
-8.476683	contra de
-8.570088	contra homero
-8.762875	contra los
-8.587652	contradicciones entre
-9.266534	contrario existe
-8.352194	control </s>
-8.427603	control de
-7.884526	controlado por
-8.620527	convencidos de
-8.587652	convención radical
-8.862177	conveniente recibir
-8.040504	conversaciones </s>
-8.505827	conversaciones abiertas
-8.416820	conversaciones de
-8.085402	cooperación </s>
-8.601718	cooperación económica
-7.822228	cooperación en
-8.477786	cooperación técnica
-8.269022	cooperación y
-8.587652	coordinación </s>
-8.410157	copa </s>
-8.355647	copia del
-8.451723	copiar </s>
-8.423709	copias de
-8.587652	cordinar el
-8.453858	correa </s>
-8.606290	correa asumiría
-8.482233	correcta </s>
-8.563891	correcta dijo
-8.587652	correctas </s>
-8.238164	correcto </s>
-7.920726	corregirse en
-8.321546	correr este
-8.252320	correspondientes al
-8.772504	correspondientes son
-7.954826	correspondía al
-8.308328	corro </s>
-8.587652	corros </s>
-8.330544	corrupción </s>
-7.852423	corrupción en
-8.154092	corrupción nadie
-9.231355	cortar la
-8.089839	corte decidirá
-8.587652	corte prohibe
-8.454576	corte suprema
-8.587652	cortes como
-8.520000	corto expresó
-8.103842	cosa </s>
-8.657695	cosas complicadas
-8.720744	cosas positivas
-8.948894	cosas y
-8.389326	costa de
-8.617805	costo social
-8.485768	costosas </s>
-8.539728	cotización </s>
-8.587652	cotizó en
-8.587652	creado una
-8.147639	crean venganzas
-8.269055	creciente tendencia
-8.623706	crecimiento de
-8.291924	crecimiento económico
-8.621265	cree que
-8.267734	creen que
-8.087997	creo que
-8.587652	creíamos que
-8.466244	creó pues
-8.019293	crisis </s>
-8.263686	crisis y
-8.356293	cristal para
-9.015334	criterios concretos
-8.574976	critica la
-8.360952	criticará al
-8.194971	crucial </s>
-8.104087	crudo </s>
-8.587652	cruzada de
-8.587652	crédito </s>
-8.274566	críticas contra
-8.587652	críticos galardona
-8.587652	críticos opinan
-8.114644	cuadro en
-8.485539	cuadro ha
-8.484370	cuadro ocho
-7.948289	cuadro seis
-8.501253	cuadros se
-8.444878	cual será
-8.670245	cualquier caso
-8.467774	cualquier encuesta
-8.587652	cuando blum
-8.438314	cuando quieren
-8.499517	cuando se
-8.116969	cuando uno
-8.632500	cuanto reanudemos
-8.380855	cuantos civiles
-8.587652	cuarenta horas
-8.587652	cuarta vez
-8.209960	cuatro años
-8.448262	cuatro grupos
-8.397768	cuatro personas
-8.173236	cuatro por
-8.500703	cuatro se
-8.548897	cuba tras
-8.317585	cubierta de
-8.303145	cuenta </s>
-7.591039	cuenta el
-8.706735	cuentas ni
-8.587652	cuesta cara
-8.334984	cuestionario </s>
-8.658273	cuestiones </s>
-7.853945	cuestiones se
-8.761467	cuestión </s>
-8.123203	cuestión de
-8.410669	cuestión es
-8.247885	cuestión fue
-7.691238	cuestión no
-8.550001	cuestión que
-8.288110	cuestión va
-7.690119	cuidadosamente su
-8.215569	cuidadosos </s>
-8.501142	cuidan de
-8.240351	culpable pero
-8.211255	culpables de
-9.075614	cultura del
-8.359859	cumplen </s>
-8.951182	cumplimiento significa
-8.862376	cumplir dicho
-8.710934	cumplirán períodos
-8.414557	curso otras
-8.273338	cursos de
-9.105337	cuál era
-8.564423	cuáles son
-8.415577	cuándo se
-8.587652	cuánta gente
-8.191784	cámara de
-8.598688	césar farias
-8.189579	cólera en
-7.976995	cómo se
-8.451165	daba lugar
-8.108411	dadi </s>
-8.060476	dado demasiado
-8.556067	dan detalles
-8.787326	dar a
-8.336220	dar pasos
-8.129635	dañados han
-8.453251	daños o
-8.364506	de acción
-8.151101	de acuerdo
-8.100201	de agua
-8.708821	de aguas
-8.518865	de américa
-8.783834	de anonimato
-8.091457	de antemano
-8.381234	de apagones
-8.670144	de aprobación
-8.120882	de atención
-8.838493	de atuendo
-8.154435	de autobús
-8.587652	de automóviles
-8.587652	de bancolombia
-8.587652	de bena
-8.352228	de bielorrusia
-8.621626	de bogotá
-8.587652	de bosques
-8.587652	de cachemira
-8.361497	de cada
-9.064138	de caldera
-8.587652	de captura
-8.422310	de carbón
-8.132390	de carga
-9.010333	de casos
-8.219087	de causas
-8.268727	de chiapas
-8.217853	de chile
-9.196745	de clinton
-8.537245	de colaboración
-8.331244	de colombia
-8.587652	de combustible
-8.383306	de comenzar
-8.588906	de compras
-8.020819	de confianza
-8.877090	de contaduría
-8.702308	de copiar
-8.806189	de correa
-8.685705	de corrupción
-8.673048	de costa
-8.756180	de crecimiento
-8.840069	de cristal
-8.587652	de crédito
-8.866113	de cuadro
-8.587652	de cuarenta
-8.305461	de cursos
-8.730268	de cólera
-8.034209	de daños
-8.587652	de defenderse
-8.587652	de definición
-8.587652	de depósitos
-8.717376	de derecha
-9.073810	de derechos
-8.235483	de desarrollar
-8.319435	de desmantelar
-8.473597	de dichas
-8.768470	de dicho
-8.222817	de dificultades
-8.370741	de dos
-8.861207	de duda
-8.712399	de dólares
-8.711872	de dónde
-7.825582	de edad
-8.303641	de ellas
-8.587373	de ello
-8.925406	de ellos
-8.587652	de elías
-8.530455	de enero
-8.394579	de enseñanza
-8.535192	de entel
-8.596216	de error
-9.273750	de esa
-8.209788	de esas
-8.587652	de escapar
-8.406368	de ese
-7.993652	de esos
-8.338616	de españa
-8.110236	de espera
-8.587652	de espuma
-8.543755	de esta
-7.891829	de estado
-9.030881	de estar
-8.440351	de estas
-8.551547	de este
-8.967751	de estos
-8.364531	de examen
-9.101306	de excelsior
-8.969209	de expresión
-8.649205	de extirpar
-8.353330	de extradición
-8.351146	de febrero
-8.762707	de financiera
-8.428909	de fines
-8.730936	de fondo
-8.356656	de frío
-9.146776	de fugitivo
-9.210605	de funciones
-8.357656	de georgia
-9.098428	de gobierno
-8.566458	de guerra
-7.794316	de hacer
-8.400772	de hacerlo
-8.724843	de hecho
-8.658297	de honduras
-7.986432	de hoy
-9.153752	de imagen
-8.417767	de importancia
-9.329936	de impuestos
-9.592590	de inmediato
-8.158374	de intención
-8.587652	de intensas
-8.587652	de intervencion
-8.596478	de interés
-8.377102	de israel
-8.587652	de janeiro
-8.587652	de jesús
-8.502074	de jubilaciones
-8.316231	de julio
-8.497021	de justificación
-8.717538	de la
-8.455430	de las
-8.242907	de leer
-8.587652	de lesiones
-8.858728	de llegar
-8.162427	de lo
-8.765309	de los
-8.414259	de madrid
-8.733205	de madurez
-8.754095	de magnitud
-8.747688	de manifestar
-8.249422	de mantenimiento
-8.666357	de marfil
-8.587652	de mayo
-8.969239	de mañana
-8.448381	de menores
-8.216136	de mi
-8.890060	de migrantes
-8.587652	de millonario
-8.690560	de momento
-8.547833	de monarquía
-8.417647	de moscú
-8.861089	de muerto
-8.544648	de muertos
-8.611835	de mí
-8.587652	de música
-8.724324	de negocios
-8.099976	de ninguna
-8.886725	de no
-8.548584	de nueve
-7.917897	de palencia
-8.419516	de papel
-8.580553	de paz
-8.014013	de pensiones
-8.440820	de perlas
-8.008461	de personal
-8.214248	de período
-8.499806	de pie
-8.587652	de piezas
-8.587652	de poderes
-8.766279	de por
-8.639908	de prensa
-8.826163	de preocupación
-8.096128	de primera
-8.600414	de privatizaciones
-8.899830	de problemas
-8.165928	de programas
-8.184536	de pronto
-8.285289	de página
-8.504513	de que
-8.962468	de queda
-8.587652	de racionamiento
-8.529125	de realizar
-8.587652	de reconstrucción
-8.093443	de recursos
-8.346785	de redacción
-8.653764	de reformas
-8.587652	de relator
-8.733366	de representantes
-8.820276	de reserva
-8.587652	de reses
-8.477944	de resolver
-8.029832	de respuesta
-8.639968	de rusia
-8.587652	de río
-9.026326	de salud
-7.995729	de sanciones
-8.436096	de santiago
-9.369160	de semana
-8.708946	de ser
-8.659901	de servicio
-7.835680	de sesiones
-8.587652	de sevilla
-8.531538	de siempre
-8.499105	de siete
-8.377316	de sistema
-8.314447	de su
-8.533921	de sumario
-8.139831	de sus
-8.567620	de sí
-8.407084	de tales
-9.257656	de tarde
-9.044269	de tasas
-8.214903	de teatro
-8.327416	de telmex
-8.587652	de tiroteo
-8.236242	de toda
-8.587652	de torta
-8.758620	de trabajo
-8.769572	de tragedias
-8.316932	de transporte
-8.441920	de treinta
-7.853577	de tres
-8.171523	de un
-8.648563	de una
-8.998263	de uno
-8.235298	de vida
-8.587652	de visión
-8.819436	de votos
-8.355277	de víctimas
-8.587652	de zulema
-8.587652	de énfasis
-8.587652	de éxito
-8.350467	debajo de
-8.563429	debamos ponernos
-8.046981	debate sobre
-8.446377	debatir con
-8.861527	debatió la
-8.346913	debe ampliarse
-8.587652	debe comprenderse
-8.577397	debe corregirse
-8.797956	debe encontrarse
-8.698944	debe examinarse
-8.027514	debe haber
-8.587652	debe plantearse
-8.098146	debe por
-7.954219	debe ser
-8.434034	debe tener
-8.587652	debemos desarmar
-8.589197	debemos llegar
-8.587652	debemos reaccionar
-9.040728	debemos seguir
-9.000207	deben comenzar
-8.270364	deben ser
-8.783948	deber dar
-9.022859	deberá evitarse
-8.316174	debería haber
-8.049686	deberían actualizar
-8.587652	deberían desglosarse
-8.587652	deberían tenerse
-8.354877	debido al
-8.587652	debieran ser
-9.031302	debió haber
-9.028399	debo agradecerle
-8.381700	debían reclutarlas
-8.587652	decenal de
-8.456745	decepcionar a
-8.172574	decida otra
-7.934152	decide no
-8.587652	decide sucesión
-8.179987	decidir </s>
-7.956211	decidirá </s>
-8.585443	decidirá quien
-8.260208	decidirá quién
-8.904216	decidió acceder
-8.991234	decidió descartar
-8.167789	decidió entonces
-8.648978	decidió mantener
-8.713359	decir del
-8.587652	decir gobernar
-8.826789	decir sí
-8.629972	decir verdad
-8.046272	decisiones por
-8.239928	decisiones se
-8.335680	decisión </s>
-8.761645	decisión agravó
-8.560699	decisión concreta
-8.503198	decisión no
-8.545321	decisión que
-8.510879	declara guerra
-8.700466	declaraciones en
-8.783845	declaración </s>
-8.048347	declaración anterior
-8.369734	declaración por
-8.417687	declaró </s>
-8.456980	declaró culpable
-8.587652	declinó comentar
-8.454812	decreto respectivo
-8.450186	defenderemos con
-8.587652	defenderse sostuvo
-8.254988	defendió a
-8.405100	defendió fuertemente
-8.207231	defensa propia
-8.586513	definiciones correspondientes
-8.587652	definición </s>
-8.966841	definitivamente abierto
-7.922963	definitivamente expresó
-8.700895	definitoria comentó
-8.551475	defraudar </s>
-8.516288	degeneren </s>
-8.587652	dejaba caer
-7.418993	dejar el
-7.596119	dejar la
-8.414845	dejará el
-8.270215	dejó ciega
-8.192975	del accidente
-8.309593	del acuerdo
-8.596998	del alto
-8.798791	del arbitraje
-8.388201	del arreglo
-8.657322	del artículo
-8.753094	del ataque
-8.893922	del atentado
-8.371280	del bósforo
-9.036155	del cabo
-8.668209	del campo
-8.473044	del carbón
-8.533748	del casino
-8.423755	del cero
-8.619160	del comercio
-8.448839	del comité
-9.039012	del control
-8.587652	del demandado
-8.246608	del desarrollo
-8.587652	del entendimiento
-8.415190	del equipo
-8.603756	del estero
-8.643889	del examen
-8.488694	del fin
-8.404530	del final
-9.061962	del fuego
-8.615777	del grupo
-8.587652	del horno
-8.398756	del informe
-8.865551	del interior
-8.202066	del juego
-8.662313	del mundo
-8.259457	del niño
-8.693109	del palacio
-8.542184	del parlamento
-8.283962	del país
-8.065742	del personal
-8.645714	del período
-8.216102	del plan
-8.413795	del presidente
-8.451323	del problema
-8.239023	del programa
-8.400886	del proyecto
-8.138865	del pueblo
-8.578993	del sistema
-8.544994	del tema
-8.444882	del tres
-8.614575	del tribunal
-8.195569	del uno
-8.327108	del viernes
-8.209459	delegaciones no
-8.536515	delegación es
-9.072897	delegación mantiene
-8.624059	delegación ofrece
-8.766479	delegados decir
-8.587652	demanda interna
-8.587652	demandado esta
-8.690278	demandante </s>
-8.762938	demasiado señaló
-8.642854	demasiado vieja
-8.275785	democracia y
-8.587652	democráticamente </s>
-8.550870	demora continúe
-8.398396	demora intolerable
-9.000505	demás hagan
-8.816550	demás tripulantes
-8.587652	denunciarlo </s>
-8.434049	departamento en
-8.257859	departamentos no
-8.108366	depende de
-8.427444	deportiva de
-8.861417	deprimido </s>
-8.587652	depósitos en
-8.608888	derecha triunfa
-8.534826	derecho a
-8.609411	derecho dijo
-8.663092	derecho internacional
-8.204492	derechos humanos
-8.485627	derrame petrolero
-8.587652	derrocamiento </s>
-8.436692	desacuerdo </s>
-8.536754	desacuerdo con
-8.079554	desalentadora </s>
-8.335517	desarmados enfatizó
-8.587652	desarmar a
-8.587652	desarrollando armas
-8.538533	desarrollar una
-8.323168	desarrollo </s>
-8.885176	desarrollo ahora
-8.382038	desarrollo social
-8.592625	desarrollo y
-8.798541	descarrilar el
-8.395411	descartado el
-7.923917	descartar esta
-8.639168	desconoce el
-8.412774	describen dichos
-8.399364	describen más
-7.852968	describir como
-9.080002	describió el
-8.698144	describía la
-8.587652	descubrir el
-8.363031	desde abril
-7.991545	desde entonces
-8.229641	desde luego
-8.092240	desde su
-8.532756	desea dominar
-8.701568	desea saber
-8.315774	desempeña una
-8.263291	deseo a
-8.587652	deseo referirme
-8.348318	desfigurada </s>
-7.906642	desgarramiento por
-8.587652	desglosarse </s>
-8.587652	desgraciadamente en
-8.587652	designar un
-8.392772	desmantelar los
-8.587652	desparición de
-8.369535	desplazarán batallones
-8.527543	despojado de
-8.299583	después </s>
-8.576260	después de
-8.081159	después en
-7.884415	después que
-8.675877	destacó </s>
-8.412242	destacó sin
-8.261388	destino de
-8.598622	destruídos </s>
-8.710238	desée continuar
-8.543194	detalle de
-8.336889	detalles </s>
-8.796603	detalles durante
-8.271883	detalles sobre
-8.153033	detenciones en
-8.437925	detenido </s>
-8.065411	detenido en
-8.587652	determinación de
-8.367386	determinado para
-8.484502	determinan por
-8.246082	determinarse de
-8.587652	determinará el
-8.502960	detrimento de
-8.769001	detuvo brevemente
-8.187929	deuda </s>
-8.171986	deuda no
-9.058238	diario habla
-8.587652	diarrea </s>
-8.423296	dice el
-8.707205	dice la
-7.967453	dice que
-8.164660	dicen que
-8.754333	dichas cartas
-8.631823	dicho </s>
-7.954080	dicho compromiso
-8.530181	dicho sistema
-8.238622	dichos cambios
-8.462250	dichos factores
-8.587652	dieciséis se
-8.587652	dieciséis zonas
-8.414878	diez </s>
-8.271235	diezmada </s>
-8.271768	diferencias </s>
-8.855412	diferencias comerciales
-8.666277	diferencias de
-8.638182	diferentes </s>
-8.782184	diferentes pruebas
-8.587652	diferido </s>
-8.045829	dificultades </s>
-8.390190	difícil </s>
-8.202633	difícil de
-8.719345	difícil la
-8.587652	difícil operar
-8.560773	difícil ser
-8.295968	difícil ver
-8.039539	difíciles y
-8.402525	dije que
-8.218836	dijeron a
-8.466045	dijo </s>
-8.325695	dijo a
-8.587652	dijo allen
-7.840508	dijo camacho
-8.633659	dijo con
-8.387162	dijo corro
-8.458578	dijo cuantos
-8.032050	dijo dadi
-8.127932	dijo después
-8.587652	dijo edmundo
-8.120413	dijo el
-8.527567	dijo fernández
-8.832575	dijo henríquez
-8.587652	dijo horacio
-8.377177	dijo marcos
-7.512667	dijo no
-8.578518	dijo porque
-8.300838	dijo posteriormente
