
\data\
ngram 1=2756
ngram 2=6812

\1-grams:
-10.482437	</s>	0
-10.547618	<s>	0
-10.532613	a	0
-10.682799	abajo	0
-10.652697	abandonada	0
-10.569445	abandonado	0
-10.673846	abarcan	0
-10.637985	abastecimiento	0
-10.897184	abatir	0
-10.586216	abierta	0
-10.641740	abiertas	0
-10.536102	abierto	0
-10.690432	abra	0
-10.897184	abrigamos	0
-10.526907	abril	0
-10.634231	abrió	0
-10.615067	abstracto	0
-10.676826	abundan	0
-10.659128	aburrida	0
-10.705669	acaba	0
-10.897184	acaben	0
-10.672287	acaso	0
-10.897184	acatamiento	0
-10.700655	acceder	0
-10.636292	acceso	0
-10.679963	accidente	0
-10.580384	acciones	0
-10.547725	acción	0
-10.678534	acelerar	0
-10.619582	acento	0
-10.582248	aceptable	0
-10.583951	aceptar	0
-10.693026	aceptarla	0
-10.897184	acepto	0
-10.667324	aceptó	0
-10.656833	aclara	0
-10.897184	aclararlo	0
-10.897184	acomete	0
-10.675126	acontecimiento	0
-10.897184	acopla	0
-10.678484	acordaron	0
-10.670650	acordó	0
-10.897184	acortarán	0
-10.897184	acosta	0
-10.606214	actitud	0
-10.599150	actividad	0
-10.552007	actividades	0
-10.647767	activo	0
-10.648871	activos	0
-10.511256	acto	0
-10.581961	actor	0
-10.647587	actuaciones	0
-10.558694	actual	0
-10.575529	actualidad	0
-10.641860	actualizan	0
-10.657851	actualizar	0
-10.651970	actualmente	0
-10.689412	actuando	0
-10.604873	actuar	0
-10.897184	actuaré	0
-10.674903	acude	0
-10.685008	acuerdan	0
-10.592190	acuerdo	0
-10.651168	acusaciones	0
-10.690495	acusados	0
-10.601443	adelante	0
-10.652942	adelanto	0
-10.577734	además	0
-10.708031	adicionales	0
-10.691754	adiós	0
-10.645672	adjudica	0
-10.897184	adjudicada	0
-10.652072	adjunta	0
-10.897184	adjuntan	0
-10.662855	adjunto	0
-10.655421	admite	0
-10.627277	adoptado	0
-10.675259	adoptará	0
-10.897184	adoptarán	0
-10.897184	aducía	0
-10.662814	advirtió	0
-10.594700	aeropuerto	0
-10.688745	aeropuertos	0
-10.666140	afectados	0
-10.665079	afiliación	0
-10.704103	afirma	0
-10.637657	afirmativo	0
-10.652629	afirmó	0
-10.621807	agencia	0
-10.542030	agente	0
-10.673014	agradecemos	0
-10.897184	agradeceremos	0
-10.897184	agradecerle	0
-10.626944	agradezco	0
-10.649778	agrava	0
-10.697498	agravó	0
-10.658970	agregó	0
-10.662833	agresión	0
-10.563628	agrupación	0
-10.577569	agrícola	0
-10.539645	agua	0
-10.897184	aguarda	0
-10.897184	aguarme	0
-10.536186	aguas	0
-10.897184	ahondar	0
-10.555053	ahora	0
-10.682808	ahorra	0
-10.654302	ahí	0
-10.683164	aislamiento	0
-10.897184	ajustará	0
-10.564097	al	0
-10.897184	albacora	0
-10.635892	aldeas	0
-10.897184	alegatos	0
-10.692942	alemania	0
-10.549239	alemán	0
-10.897184	alfonsín	0
-10.599554	algo	0
-10.551922	alguna	0
-10.593622	algunas	0
-10.611754	alguno	0
-10.492225	algunos	0
-10.642689	alimentaria	0
-10.677173	alla	0
-10.897184	allen	0
-10.633815	allá	0
-10.603481	allí	0
-10.553194	alrededor	0
-10.554957	alta	0
-10.660865	altibajos	0
-10.571479	alto	0
-10.670705	alvaro	0
-10.660335	alza	0
-10.716449	amable	0
-10.676079	amazónico	0
-10.602971	ambas	0
-10.557532	ambos	0
-10.676577	amplia	0
-10.639485	ampliado	0
-10.680274	ampliamente	0
-10.687114	ampliar	0
-10.629418	ampliarse	0
-10.602774	amplio	0
-10.676193	amplitud	0
-10.897184	américa	0
-10.661441	analfabetos	0
-10.574707	analista	0
-10.689042	analizado	0
-10.637070	analogía	0
-10.677562	anexo	0
-10.642590	anexos	0
-10.897184	anonadado	0
-10.667262	anonimato	0
-10.630598	ante	0
-10.728209	antemano	0
-10.667086	antenas	0
-10.625585	anterior	0
-10.709306	anticipado	0
-10.677929	anticipó	0
-10.671722	antología	0
-10.655231	anual	0
-10.665193	anunciado	0
-10.691512	anunciados	0
-10.629604	anunciar	0
-10.575120	análisis	0
-10.671103	apagones	0
-10.598667	aparecen	0
-10.613459	aparentemente	0
-10.897184	apelables	0
-10.659636	apelación	0
-10.897184	apelado	0
-10.668558	apertura	0
-10.653023	aplicación	0
-10.642791	aplicar	0
-10.681891	aportaciones	0
-10.574027	apoyo	0
-10.897184	apremio	0
-10.673175	aprobación	0
-10.630924	aprobado	0
-10.673258	aprobar	0
-10.662130	aprobaron	0
-10.583740	aprobó	0
-10.679712	aproximadas	0
-10.689916	aprueba	0
-10.897184	apuntarán	0
-10.639015	aquella	0
-10.897184	aragón	0
-10.656606	arbitraje	0
-10.897184	aremisos	0
-10.554612	argentina	0
-10.511314	argentino	0
-10.697568	arias	0
-10.667540	aristide	0
-10.678219	arma	0
-10.641196	armamento	0
-10.587686	armas	0
-10.897184	arrecian	0
-10.644808	arreglo	0
-10.650012	arrestado	0
-10.615908	arroz	0
-10.626430	arte	0
-10.540565	artistas	0
-10.612875	artículo	0
-10.596485	artículos	0
-10.897184	asalariados	0
-10.638841	asamblea	0
-10.664971	ascenso	0
-10.654955	asegurado	0
-10.670057	asesinar	0
-10.897184	aseveró	0
-10.685495	asignación	0
-10.614336	asimismo	0
-10.714183	asisten	0
-10.627017	asistencia	0
-10.552406	asociado	0
-10.678735	asombro	0
-10.590694	aspecto	0
-10.535950	aspectos	0
-10.897184	aspin	0
-10.897184	assad	0
-10.693185	astronautas	0
-10.897184	asumiría	0
-10.600254	asunto	0
-10.581438	asuntos	0
-10.558481	así	0
-10.664351	atacar	0
-10.656433	ataque	0
-10.614267	ataúd	0
-10.666347	atención	0
-10.602777	atender	0
-10.659895	atentado	0
-10.682096	aterrizó	0
-10.897184	atlanta	0
-10.668964	atraer	0
-10.671266	atraviesan	0
-10.897184	atribuírlo	0
-10.643635	atrás	0
-10.653831	atuendo	0
-10.683268	audaz	0
-10.697361	audiencias	0
-10.634781	aumenta	0
-10.693890	aumentado	0
-10.647560	aumentaron	0
-10.663357	aumentos	0
-10.677190	aumentó	0
-10.558688	ausencia	0
-10.661021	australiano	0
-10.670632	autobús	0
-10.897184	autoevaluaciones	0
-10.687175	automóvil	0
-10.648993	automóviles	0
-10.557728	autor	0
-10.674866	autoridades	0
-10.668067	avance	0
-10.897184	avancen	0
-10.648718	avances	0
-10.657831	avanza	0
-10.600222	avanzado	0
-10.658029	avaro	0
-10.897184	avendaño	0
-10.897184	avisaremos	0
-10.654009	avión	0
-10.651921	ayer	0
-10.513450	ayuda	0
-10.639816	ayudará	0
-10.675800	aérea	0
-10.685802	aéreos	0
-10.641544	añadió	0
-10.634146	año	0
-10.529247	años	0
-10.588073	aún	0
-10.586214	baja	0
-10.676932	bajaron	0
-10.649782	baje	0
-10.542766	bajo	0
-10.609406	bajos	0
-10.672001	balladur	0
-10.662546	bancario	0
-10.527553	banco	0
-10.897184	bancolombia	0
-10.576566	bancos	0
-10.498571	basa	0
-10.646852	basado	0
-10.585733	base	0
-10.632437	bastante	0
-10.563394	basándose	0
-10.613053	batalla	0
-10.643015	batallones	0
-10.897184	baviera	0
-10.662724	beca	0
-10.897184	bena	0
-10.897184	bendiga	0
-10.651119	benítez	0
-10.897184	berlín	0
-10.897184	bernardin	0
-10.897184	bernardo	0
-10.897184	bielorrusia	0
-10.555773	bien	0
-10.672309	bienvenida	0
-10.694668	blancos	0
-10.897184	blum	0
-10.897184	bogotá	0
-10.652234	bola	0
-10.598443	bomba	0
-10.897184	bondes	0
-10.897184	bonn	0
-10.657561	bonos	0
-10.897184	boquete	0
-10.710262	borrador	0
-10.897184	borrados	0
-10.670913	bosnia	0
-10.590635	bosques	0
-10.616898	brasil	0
-10.644630	brasileño	0
-10.570651	breve	0
-10.702374	brevemente	0
-10.897184	bruselas	0
-10.897184	buceador	0
-10.662060	buen	0
-10.649971	bueno	0
-10.582824	busca	0
-10.679425	buscamos	0
-10.645841	buscar	0
-10.649000	básicos	0
-10.897184	bósforo	0
-10.585461	cabe	0
-10.590162	cabo	0
-10.645199	cabría	0
-10.897184	cachemira	0
-10.563899	cada	0
-10.629519	cadena	0
-10.640038	caer	0
-10.660235	cafetería	0
-10.684736	caja	0
-10.672646	caldera	0
-10.681547	calefacción	0
-10.574571	calidad	0
-10.897184	camacho	0
-10.700656	cambiado	0
-10.505784	cambio	0
-10.561280	cambios	0
-10.654782	cambió	0
-10.698797	campamento	0
-10.601006	campaña	0
-10.691059	campeones	0
-10.549644	campo	0
-10.897184	canalizó	0
-10.651224	canciller	0
-10.605583	cancillería	0
-10.659183	candidato	0
-10.646111	candidatos	0
-10.541445	cantante	0
-10.569967	cantidad	0
-10.593307	capacidad	0
-10.646690	capaz	0
-10.605904	capital	0
-10.613060	captura	0
-10.652983	capítulo	0
-10.687648	cara	0
-10.683435	caracas	0
-10.682290	caravana	0
-10.573664	carbón	0
-10.897184	cardona	0
-10.684934	carece	0
-10.591259	carga	0
-10.536464	cargo	0
-10.680026	carlos	0
-10.643072	carnaval	0
-10.669626	caro	0
-10.626959	carrera	0
-10.666698	carta	0
-10.587415	cartas	0
-10.707680	carteles	0
-10.602505	casa	0
-10.705547	casas	0
-10.585501	casi	0
-10.734113	casino	0
-10.562771	caso	0
-10.561997	casos	0
-10.618073	casó	0
-10.705662	catedral	0
-10.653453	catorce	0
-10.592564	católica	0
-10.550921	causa	0
-10.717582	causas	0
-10.636908	causó	0
-10.897184	cavallo	0
-10.625115	cayeron	0
-10.897184	cañoneos	0
-10.897184	ceda	0
-10.673598	cedería	0
-10.513997	celebración	0
-10.663808	cenizas	0
-10.569154	central	0
-10.594882	centro	0
-10.897184	centroamérica	0
-10.575753	cerca	0
-10.608708	cero	0
-10.675152	cerrados	0
-10.636845	cerrar	0
-10.670827	cerraron	0
-10.658125	cerrará	0
-10.642629	cerveza	0
-10.897184	cesación	0
-10.641863	cesar	0
-10.677484	cese	0
-10.621098	cetáceos	0
-10.657753	chiapas	0
-10.618734	chile	0
-10.607850	chileno	0
-10.682852	china	0
-10.657891	chocó	0
-10.897184	choferes	0
-10.688011	choques	0
-10.647448	ciega	0
-10.674129	cielo	0
-10.544950	ciento	0
-10.655701	científicos	0
-10.897184	ciernen	0
-10.660147	cierra	0
-10.675822	cierre	0
-10.574933	cierto	0
-10.691568	cifra	0
-10.698294	cifras	0
-10.578161	cinco	0
-10.594735	ciudad	0
-10.678310	civiles	0
-10.682620	civilizados	0
-10.499905	claro	0
-10.639902	clase	0
-10.528694	clasificación	0
-10.897184	claudio	0
-10.678847	clausura	0
-10.897184	clausuran	0
-10.627598	claves	0
-10.579274	climáticos	0
-10.659743	clinton	0
-10.618726	coalición	0
-10.670085	coherencia	0
-10.683663	colaboración	0
-10.735318	colaborar	0
-10.897184	coleman	0
-10.717134	colombia	0
-10.897184	colombo	0
-10.627267	colonos	0
-10.576080	columna	0
-10.657050	combates	0
-10.675931	combatir	0
-10.694088	combustible	0
-10.698483	comedia	0
-10.656796	comentado	0
-10.689777	comentar	0
-10.634672	comentario	0
-10.680644	comentarios	0
-10.677825	comentó	0
-10.671164	comenzar	0
-10.691766	comenzará	0
-10.660715	comenzarán	0
-10.640134	comerciales	0
-10.699633	comercializó	0
-10.667196	comercio	0
-10.636236	comienza	0
-10.645225	comienzo	0
-10.897184	comisionista	0
-10.618205	comisión	0
-10.693497	comité	0
-10.656350	comités	0
-10.523911	como	0
-10.658079	compara	0
-10.649270	comparte	0
-10.584256	comparten	0
-10.679651	compartieron	0
-10.687595	comparó	0
-10.709391	compasión	0
-10.668427	compatible	0
-10.637836	compañía	0
-10.897184	compensatorias	0
-10.662975	competitiva	0
-10.654011	complace	0
-10.897184	complaciente	0
-10.657402	complejo	0
-10.630009	complejos	0
-10.572325	completa	0
-10.670286	completan	0
-10.623458	completo	0
-10.673849	completos	0
-10.630272	completó	0
-10.682520	complicadas	0
-10.624870	composición	0
-10.656661	compras	0
-10.639223	comprende	0
-10.669722	comprendemos	0
-10.667554	comprender	0
-10.684948	comprenderse	0
-10.897184	comprenderá	0
-10.668265	comprendió	0
-10.652456	comprensión	0
-10.685353	comprometido	0
-10.683176	compromiso	0
-10.480160	común	0
-10.497131	con	0
-10.664078	concebido	0
-10.545879	concepto	0
-10.671303	conciencia	0
-10.638881	conclusiones	0
-10.629294	conclusión	0
-10.694714	concluye	0
-10.897184	concluídas	0
-10.690032	concluído	0
-10.667871	concreta	0
-10.644308	concretos	0
-10.683185	concuerda	0
-10.897184	concéntrese	0
-10.651231	condena	0
-10.897184	condenatorio	0
-10.600288	condiciones	0
-10.670436	condición	0
-10.639360	conductor	0
-10.656920	condujo	0
-10.604946	conexión	0
-10.582541	conferencia	0
-10.665874	confianza	0
-10.897184	confidenciales	0
-10.692482	confirmado	0
-10.589083	conflictos	0
-10.671627	conforme	0
-10.611513	confuso	0
-10.897184	congelarían	0
-10.674726	congreso	0
-10.529423	conoce	0
-10.673053	conocen	0
-10.546718	conocer	0
-10.897184	conocerla	0
-10.528400	conocida	0
-10.587557	conocido	0
-10.567746	conocimiento	0
-10.606552	consecuencia	0
-10.672075	consecutivos	0
-10.614409	conseguir	0
-10.674746	consejo	0
-10.599431	consenso	0
-10.641287	conservación	0
-10.497556	considera	0
-10.625899	considerablemente	0
-10.699233	consideración	0
-10.677961	consideró	0
-10.897184	consignaciones	0
-10.666800	consiguiente	0
-10.608602	consta	0
-10.660445	constante	0
-10.676777	constantemente	0
-10.698344	constituirán	0
-10.607996	constituye	0
-10.695189	construcciones	0
-10.645221	construir	0
-10.661125	consulta	0
-10.897184	consumado	0
-10.577539	consumo	0
-10.897184	contactado	0
-10.489938	contacto	0
-10.897184	contaduría	0
-10.684926	contemplaba	0
-10.577816	contenido	0
-10.592958	conteo	0
-10.897184	contestaron	0
-10.669580	contextos	0
-10.704169	continuaban	0
-10.643658	continuación	0
-10.681472	continuado	0
-10.693112	continuar	0
-10.897184	continuaran	0
-10.897184	continuaremos	0
-10.897184	continuarán	0
-10.548716	continúa	0
-10.671871	continúe	0
-10.678535	continúen	0
-10.579305	contra	0
-10.689312	contradicciones	0
-10.602169	contrario	0
-10.608004	control	0
-10.630386	controlado	0
-10.661283	convencidos	0
-10.705288	convención	0
-10.601884	conveniente	0
-10.684798	conversaciones	0
-10.695499	cooperación	0
-10.645180	coordinación	0
-10.614713	copa	0
-10.624362	copia	0
-10.645694	copiar	0
-10.658663	copias	0
-10.897184	cordinar	0
-10.678215	correa	0
-10.639510	correcta	0
-10.669881	correctas	0
-10.574855	correcto	0
-10.658725	corregirse	0
-10.644752	correr	0
-10.655069	correspondientes	0
-10.685234	correspondía	0
-10.666454	corro	0
-10.897184	corros	0
-10.681159	corrupción	0
-10.651986	cortar	0
-10.626058	corte	0
-10.637532	cortes	0
-10.562656	corto	0
-10.644055	cosa	0
-10.590058	cosas	0
-10.576047	costa	0
-10.653049	costo	0
-10.645578	costosas	0
-10.655405	cotización	0
-10.897184	cotizó	0
-10.651125	creado	0
-10.587345	crean	0
-10.598480	creciente	0
-10.582890	crecimiento	0
-10.654304	cree	0
-10.641327	creen	0
-10.720181	creo	0
-10.897184	creíamos	0
-10.665108	creó	0
-10.580761	crisis	0
-10.691113	cristal	0
-10.576530	criterios	0
-10.651612	critica	0
-10.897184	criticará	0
-10.669208	crucial	0
-10.665858	crudo	0
-10.666142	cruzada	0
-10.646677	crédito	0
-10.643543	críticas	0
-10.651229	críticos	0
-10.703818	cuadro	0
-10.623121	cuadros	0
-10.470865	cual	0
-10.589869	cualquier	0
-10.536942	cuando	0
-10.585069	cuanto	0
-10.598033	cuantos	0
-10.688715	cuarenta	0
-10.585377	cuarta	0
-10.575364	cuatro	0
-10.709080	cuba	0
-10.629293	cubierta	0
-10.524675	cuenta	0
-10.609839	cuentas	0
-10.677904	cuesta	0
-10.669516	cuestionario	0
-10.685847	cuestiones	0
-10.627510	cuestión	0
-10.679480	cuidadosamente	0
-10.699507	cuidadosos	0
-10.897184	cuidan	0
-10.658239	culpable	0
-10.667838	culpables	0
-10.615567	cultura	0
-10.571396	cumplen	0
-10.568703	cumplimiento	0
-10.693727	cumplir	0
-10.649542	cumplirán	0
-10.563395	curso	0
-10.648204	cursos	0
-10.586145	cuál	0
-10.657062	cuáles	0
-10.549547	cuándo	0
-10.897184	cuánta	0
-10.563666	cámara	0
-10.678522	césar	0
-10.649130	cólera	0
-10.606529	cómo	0
-10.616551	daba	0
-10.897184	dadi	0
-10.552661	dado	0
-10.571367	dan	0
-10.619941	dar	0
-10.678922	dañados	0
-10.619396	daños	0
-10.448385	de	0
-10.590864	debajo	0
-10.897184	debamos	0
-10.619905	debate	0
-10.687428	debatir	0
-10.683171	debatió	0
-10.524139	debe	0
-10.677124	debemos	0
-10.605059	deben	0
-10.676476	deber	0
-10.670931	deberá	0
-10.642677	debería	0
-10.582913	deberían	0
-10.551906	debido	0
-10.897184	debieran	0
-10.633046	debió	0
-10.632295	debo	0
-10.621835	debían	0
-10.897184	decenal	0
-10.897184	decepcionar	0
-10.674557	decida	0
-10.560349	decide	0
-10.604369	decidir	0
-10.663192	decidirá	0
-10.549301	decidió	0
-10.584517	decir	0
-10.653841	decisiones	0
-10.689620	decisión	0
-10.658123	declara	0
-10.662725	declaraciones	0
-10.540348	declaración	0
-10.666045	declaró	0
-10.897184	declinó	0
-10.651930	decreto	0
-10.897184	defenderemos	0
-10.682149	defenderse	0
-10.672318	defendió	0
-10.594530	defensa	0
-10.670164	definiciones	0
-10.661180	definición	0
-10.653420	definitivamente	0
-10.661697	definitoria	0
-10.897184	defraudar	0
-10.897184	degeneren	0
-10.622130	dejaba	0
-10.623845	dejar	0
-10.693393	dejará	0
-10.619900	dejó	0
-10.500381	del	0
-10.676609	delegaciones	0
-10.685470	delegación	0
-10.656699	delegados	0
-10.575988	demanda	0
-10.625947	demandado	0
-10.698998	demandante	0
-10.649106	demasiado	0
-10.652739	democracia	0
-10.661879	democráticamente	0
-10.645684	demora	0
-10.581234	demás	0
-10.897184	denunciarlo	0
-10.638951	departamento	0
-10.697865	departamentos	0
-10.624601	depende	0
-10.612399	deportiva	0
-10.594604	deprimido	0
-10.551342	depósitos	0
-10.644249	derecha	0
-10.593326	derecho	0
-10.590364	derechos	0
-10.686522	derrame	0
-10.668858	derrocamiento	0
-10.589811	desacuerdo	0
-10.897184	desalentadora	0
-10.680159	desarmados	0
-10.897184	desarmar	0
-10.575210	desarrollando	0
-10.563624	desarrollar	0
-10.528745	desarrollo	0
-10.897184	descarrilar	0
-10.624151	descartado	0
-10.625804	descartar	0
-10.677478	desconoce	0
-10.671013	describen	0
-10.611904	describir	0
-10.639030	describió	0
-10.641183	describía	0
-10.701848	descubrir	0
-10.554327	desde	0
-10.600348	desea	0
-10.610005	desempeña	0
-10.654590	deseo	0
-10.897184	desfigurada	0
-10.897184	desgarramiento	0
-10.897184	desglosarse	0
-10.897184	desgraciadamente	0
-10.671292	designar	0
-10.689025	desmantelar	0
-10.897184	desparición	0
-10.683848	desplazarán	0
-10.660040	despojado	0
-10.546239	después	0
-10.565516	destacó	0
-10.564751	destino	0
-10.897184	destruídos	0
-10.897184	desée	0
-10.598335	detalle	0
-10.654122	detalles	0
-10.671107	detenciones	0
-10.657084	detenido	0
-10.658247	determinación	0
-10.673541	determinado	0
-10.602971	determinan	0
-10.670014	determinarse	0
-10.694054	determinará	0
-10.664859	detrimento	0
-10.675687	detuvo	0
-10.677135	deuda	0
-10.660389	diario	0
-10.685518	diarrea	0
-10.586735	dice	0
-10.703510	dicen	0
-10.678586	dichas	0
-10.561251	dicho	0
-10.601455	dichos	0
-10.684035	dieciséis	0
-10.641970	diez	0
-10.897184	diezmada	0
-10.606415	diferencias	0
-10.552198	diferentes	0
-10.679721	diferido	0
-10.655165	dificultades	0
-10.661062	difícil	0
-10.658518	difíciles	0
-10.646119	dije	0
-10.680130	dijeron	0
-10.576133	dijo	0
-10.691609	dinero	0
-10.596698	dio	0
-10.659602	dios	0
-10.642043	diplomática	0
-10.590848	diplomático	0
-10.643712	diplomáticos	0
-10.706722	diputado	0
-10.609538	dirección	0
-10.564487	director	0
-10.633406	directorio	0
-10.677047	directrices	0
-10.661443	dirige	0
-10.655570	dirigentes	0
-10.648436	dirigió	0
-10.673166	dirigía	0
-10.897184	disculpen	0
-10.589743	discutir	0
-10.897184	discutiremos	0
-10.705152	discutirlo	0
-10.897184	discutiéndolo	0
-10.646093	diseño	0
-10.691449	disminución	0
-10.679930	disparos	0
-10.897184	dispensado	0
-10.649788	dispone	0
-10.569984	disponible	0
-10.629038	disposición	0
-10.589919	dispuestos	0
-10.669176	disputa	0
-10.628775	dista	0
-10.651639	distinguido	0
-10.560806	distintos	0
-10.897184	distraído	0
-10.665711	distribuirá	0
-10.655141	disturbios	0
-10.681900	divergencias	0
-10.582607	diversidad	0
-10.668116	diversión	0
-10.600537	diversos	0
-10.662909	divida	0
-10.669221	divididas	0
-10.600421	dividido	0
-10.608492	división	0
-10.701173	divulgado	0
-10.897184	divulgara	0
-10.595095	diálogo	0
-10.575760	doce	0
-10.672314	doctrina	0
-10.632158	documento	0
-10.897184	dolorosa	0
-10.680933	dominar	0
-10.666994	dominaron	0
-10.608428	domingo	0
-10.682680	domingos	0
-10.668893	dominicano	0
-10.532290	donde	0
-10.547651	dos	0
-10.683621	dosis	0
-10.700828	doy	0
-10.658725	drogas	0
-10.604012	duda	0
-10.897184	dudamos	0
-10.595490	duración	0
-10.606558	durante	0
-10.668130	duraron	0
-10.688035	durarán	0
-10.897184	dá	0
-10.664862	dándose	0
-10.657754	dé	0
-10.676630	débil	0
-10.592384	día	0
-10.489863	días	0
-10.692047	dólar	0
-10.644902	dólares	0
-10.638588	dónde	0
-10.551115	e	0
-10.664405	echó	0
-10.587880	economía	0
-10.612825	económica	0
-10.685333	económicamente	0
-10.568727	económico	0
-10.681931	económicos	0
-10.549946	edad	0
-10.574212	edición	0
-10.573304	edificio	0
-10.897184	edmundo	0
-10.638377	educación	0
-10.648829	educadores	0
-10.685943	efectivamente	0
-10.628371	efectos	0
-10.683698	efectuará	0
-10.671765	efectuó	0
-10.599081	ejecución	0
-10.696732	ejecutan	0
-10.521715	ejército	0
-10.675673	ejércitos	0
-10.301118	el	0
-10.678204	elecciones	0
-10.619869	elección	0
-10.689989	electores	0
-10.673876	electos	0
-10.687857	elegir	0
-10.525082	elemento	0
-10.897184	elgueta	0
-10.674306	eligen	0
-10.897184	elijen	0
-10.531336	ella	0
-10.628646	ellas	0
-10.579664	ello	0
-10.540929	ellos	0
-10.595943	eléctrica	0
-10.647191	eléctricos	0
-10.897184	elías	0
-10.548636	embargo	0
-10.677087	emigrar	0
-10.662464	emiten	0
-10.678229	emotivo	0
-10.897184	empates	0
-10.631085	empezado	0
-10.674674	empleadores	0
-10.897184	empleará	0
-10.639348	empresa	0
-10.655904	empresarios	0
-10.542305	empresas	0
-10.685887	empuja	0
-10.531233	en	0
-10.897184	encarado	0
-10.681433	encomendada	0
-10.709171	encontraban	0
-10.629365	encontrar	0
-10.624045	encontrarse	0
-10.563529	encuentra	0
-10.622895	encuentran	0
-10.604773	encuentro	0
-10.656457	encuesta	0
-10.546121	energía	0
-10.580937	enero	0
-10.672126	enfatizó	0
-10.593553	enfoque	0
-10.641578	enfrenta	0
-10.666980	enmienda	0
-10.680214	enmiendas	0
-10.629805	enseñanza	0
-10.897184	ensucian	0
-10.897184	entel	0
-10.636711	entender	0
-10.663198	entendimiento	0
-10.580087	entonces	0
-10.512113	entre	0
-10.573935	entrega	0
-10.670539	entregar	0
-10.646946	entregó	0
-10.657570	entren	0
-10.678957	entrenador	0
-10.652069	envases	0
-10.897184	envíamos	0
-10.648447	envío	0
-10.660811	epicentro	0
-10.688750	epidemia	0
-10.564651	equipo	0
-10.625941	equipos	0
-10.587641	era	0
-10.897184	eramos	0
-10.607756	error	0
-10.517923	es	0
-10.639450	esa	0
-10.660555	esas	0
-10.897184	esbozan	0
-10.599756	escalas	0
-10.703532	escapa	0
-10.675217	escapar	0
-10.595410	escasez	0
-10.683296	escaso	0
-10.650820	escasos	0
-10.677794	escogieron	0
-10.897184	escojo	0
-10.590625	escritor	0
-10.655407	escritora	0
-10.677561	escuché	0
-10.678346	escépticos	0
-10.603355	ese	0
-10.631408	esencial	0
-10.693371	esfera	0
-10.564240	esfuerzos	0
-10.587683	eso	0
-10.699149	esos	0
-10.592611	espacial	0
-10.682039	espaldarazo	0
-10.659757	españa	0
-10.569726	español	0
-10.551788	especial	0
-10.656727	especialistas	0
-10.594932	especie	0
-10.677796	especificó	0
-10.609558	espectáculo	0
-10.694828	especulación	0
-10.688486	especuló	0
-10.656988	específicos	0
-10.629557	espera	0
-10.683292	esperaba	0
-10.654484	esperamos	0
-10.663977	esperan	0
-10.659101	esperanza	0
-10.897184	esperanzado	0
-10.644188	esperar	0
-10.665998	esperarse	0
-10.648657	espero	0
-10.630028	esposa	0
-10.693922	espuma	0
-10.586996	esta	0
-10.580531	estaba	0
-10.605192	estaban	0
-10.555737	establece	0
-10.587681	establecieron	0
-10.670805	establezca	0
-10.604428	estación	0
-10.618695	estadio	0
-10.515115	estado	0
-10.621326	estados	0
-10.510981	estadounidense	0
-10.897184	estallado	0
-10.669487	estallaron	0
-10.672300	estamos	0
-10.583454	estar	0
-10.612561	estará	0
-10.681280	estarán	0
-10.600356	estas	0
-10.576943	estatal	0
-10.537217	este	0
-10.897184	estero	0
-10.631703	estimadas	0
-10.551301	esto	0
-10.660200	estonia	0
-10.485721	estos	0
-10.624291	estrecho	0
-10.656539	estrellarse	0
-10.539316	estructura	0
-10.606358	estructuras	0
-10.542923	estudia	0
-10.646295	estudian	0
-10.640981	estudio	0
-10.523140	estudios	0
-10.645613	estuvo	0
-10.568344	está	0
-10.533723	están	0
-10.685500	esté	0
-10.897184	eurodólares	0
-10.657834	europa	0
-10.648476	europeo	0
-10.613894	evaluaciones	0
-10.598034	evidente	0
-10.672703	evidentemente	0
-10.667542	evitado	0
-10.674274	evitarse	0
-10.661324	evitó	0
-10.660005	evoluciona	0
-10.516994	ex	0
-10.897184	exacerba	0
-10.897184	exacerbar	0
-10.660765	examen	0
-10.695858	examinadas	0
-10.691574	examinan	0
-10.534925	examinar	0
-10.897184	examinarse	0
-10.897184	excelsior	0
-10.680970	excepción	0
-10.705091	exceso	0
-10.664621	excluyó	0
-10.680110	exhiben	0
-10.619384	exige	0
-10.642220	exigen	0
-10.656712	exigió	0
-10.540973	existe	0
-10.604885	existían	0
-10.686775	exitosa	0
-10.671676	expectativas	0
-10.698840	experiencia	0
-10.638677	explica	0
-10.643870	explicar	0
-10.701281	explicó	0
-10.606863	explosión	0
-10.637018	expresado	0
-10.600596	expresados	0
-10.637306	expresión	0
-10.656556	expresó	0
-10.648778	exterior	0
-10.897184	extirpar	0
-10.703195	extradición	0
-10.635935	extranjeros	0
-10.643290	extremadamente	0
-10.656424	fabrica	0
-10.689775	fachada	0
-10.655888	facilidades	0
-10.686218	factor	0
-10.583048	factores	0
-10.580014	fallecido	0
-10.668687	fallo	0
-10.635687	falta	0
-10.631595	fama	0
-10.591906	familia	0
-10.554338	familiares	0
-10.897184	farias	0
-10.548013	favor	0
-10.600993	favorables	0
-10.659552	favorece	0
-10.673345	favorecido	0
-10.677003	favoritos	0
-10.518014	febrero	0
-10.531659	fecha	0
-10.897184	fecsa	0
-10.576047	federal	0
-10.897184	fenosa	0
-10.558893	fenómeno	0
-10.897184	fernando	0
-10.897184	fernández	0
-10.697818	festival	0
-10.677415	festivo	0
-10.589715	figura	0
-10.676424	fijan	0
-10.682842	filipinas	0
-10.639172	filme	0
-10.629482	filosófico	0
-10.586261	fin	0
-10.518669	final	0
-10.657068	finalidad	0
-10.681231	financiera	0
-10.686892	financieras	0
-10.671019	finanzas	0
-10.632092	fines	0
-10.897184	finlandia	0
-10.649739	firmado	0
-10.671026	firmantes	0
-10.897184	firmaremos	0
-10.714654	firmeza	0
-10.897184	flagrante	0
-10.688800	flor	0
-10.583101	flujo	0
-10.617276	fondo	0
-10.666981	fondos	0
-10.517756	forma	0
-10.553871	formación	0
-10.636391	forman	0
-10.584429	formato	0
-10.676598	formularon	0
-10.679180	forzosamente	0
-10.653787	fracasa	0
-10.679089	fracasado	0
-10.668975	francas	0
-10.703619	francfort	0
-10.897184	francia	0
-10.565292	francés	0
-10.673850	franja	0
-10.693149	frecuencia	0
-10.549254	frecuente	0
-10.682215	frenado	0
-10.610095	frente	0
-10.638985	frío	0
-10.511353	fue	0
-10.711901	fuego	0
-10.614735	fuente	0
-10.544208	fuera	0
-10.638115	fueran	0
-10.575855	fueron	0
-10.633020	fuerte	0
-10.623420	fuertemente	0
-10.645585	fuertes	0
-10.559564	fuerza	0
-10.533998	fuerzas	0
-10.697350	fugitivo	0
-10.897184	fumaba	0
-10.657572	funcionario	0
-10.653032	funcionarios	0
-10.629530	funciones	0
-10.621658	futuro	0
-10.606151	fábrica	0
-10.599727	físico	0
-10.600978	fórmula	0
-10.897184	galardona	0
-10.694721	galería	0
-10.897184	galina	0
-10.703082	gama	0
-10.596951	gana	0
-10.651132	ganado	0
-10.639230	ganando	0
-10.571283	ganar	0
-10.897184	gane	0
-10.897184	garcía	0
-10.619476	gas	0
-10.667538	gastos	0
-10.581312	general	0
-10.549496	generales	0
-10.564227	generar	0
-10.594271	gente	0
-10.897184	georgia	0
-10.897184	germán	0
-10.701190	gestos	0
-10.658605	gigantes	0
-10.663277	ginebra	0
-10.563494	global	0
-10.669583	gobernar	0
-10.692994	gobierna	0
-10.614470	gobierno	0
-10.626022	gobiernos	0
-10.656567	goles	0
-10.578908	golfo	0
-10.897184	golpeados	0
-10.897184	golpizas	0
-10.897184	golán	0
-10.897184	gonzález	0
-10.897184	goycochea	0
-10.552629	gracias	0
-10.631840	graciela	0
-10.544845	gran	0
-10.707435	grato	0
-10.897184	grecia	0
-10.646359	grito	0
-10.581829	grupo	0
-10.536436	grupos	0
-10.897184	guayaquil	0
-10.629755	gubernamental	0
-10.554383	guerra	0
-10.644986	guerrillero	0
-10.655975	guerrilleros	0
-10.661370	gusta	0
-10.635570	gusto	0
-10.500677	ha	0
-10.897184	habanos	0
-10.491968	haber	0
-10.644623	habido	0
-10.590591	habitual	0
-10.587163	habla	0
-10.609015	hablando	0
-10.684607	hablar	0
-10.640903	habló	0
-10.639400	habrá	0
-10.572734	habría	0
-10.525208	había	0
-10.543461	hace	0
-10.572128	hacen	0
-10.560334	hacer	0
-10.598288	hacerlo	0
-10.535023	hacia	0
-10.510315	haciendo	0
-10.667837	hagan	0
-10.653339	hago	0
-10.537324	han	0
-10.670159	hará	0
-10.646564	harán	0
-10.521598	hasta	0
-10.573848	hay	0
-10.579281	haya	0
-10.553042	he	0
-10.521858	hecho	0
-10.588698	hechos	0
-10.680949	hemos	0
-10.897184	henríquez	0
-10.693066	herida	0
-10.685354	heridas	0
-10.666618	heridos	0
-10.660746	hice	0
-10.664089	hicimos	0
-10.642589	hidroeléctrica	0
-10.576700	hija	0
-10.704356	hijas	0
-10.537350	hijo	0
-10.615384	hijos	0
-10.590196	historia	0
-10.638803	histórico	0
-10.527197	hizo	0
-10.555121	hogar	0
-10.578036	hombre	0
-10.897184	homero	0
-10.671179	homicidio	0
-10.633459	honduras	0
-10.642738	honor	0
-10.704198	hora	0
-10.897184	horacio	0
-10.680430	horarios	0
-10.588521	horas	0
-10.581576	horno	0
-10.698309	hornos	0
-10.570808	horrible	0
-10.897184	horriblemente	0
-10.669316	hospital	0
-10.601370	hoy	0
-10.565809	hubiera	0
-10.647016	hubieran	0
-10.547752	hubo	0
-10.685341	huelga	0
-10.639582	humanidad	0
-10.584986	humanos	0
-10.897184	humildemente	0
-10.897184	huída	0
-10.897184	iberdrola	0
-10.569694	idea	0
-10.567530	ideas	0
-10.645366	identidad	0
-10.730392	identifican	0
-10.594902	ido	0
-10.676015	idénticos	0
-10.897184	ignoraba	0
-10.668633	ignorado	0
-10.573346	igual	0
-10.645218	igualdad	0
-10.653970	igualmente	0
-10.897184	ilaria	0
-10.659644	ilusiones	0
-10.640005	imagen	0
-10.644025	imaginación	0
-10.639058	imitado	0
-10.691982	impidió	0
-10.897184	implantara	0
-10.694137	importa	0
-10.686346	importaba	0
-10.592783	importancia	0
-10.561789	importante	0
-10.568149	importantes	0
-10.897184	impositivas	0
-10.636845	improvisados	0
-10.618937	impuestos	0
-10.721954	impulsar	0
-10.647686	impuso	0
-10.688938	inaceptable	0
-10.897184	inaplicable	0
-10.897184	incautaron	0
-10.659188	incendio	0
-10.699957	incentivo	0
-10.663836	incentivos	0
-10.675733	inciertas	0
-10.576099	incluso	0
-10.526375	incluye	0
-10.669242	incursiones	0
-10.693322	indebido	0
-10.544217	independencia	0
-10.676283	independientemente	0
-10.584896	indica	0
-10.640450	indican	0
-10.700409	indicios	0
-10.651829	indicó	0
-10.678861	indios	0
-10.655764	indique	0
-10.622575	indispensable	0
-10.626001	inductivo	0
-10.525599	industria	0
-10.655475	industrializados	0
-10.679826	inevitable	0
-10.598146	inflación	0
-10.557635	influencia	0
-10.566103	información	0
-10.646214	informado	0
-10.656537	informados	0
-10.615524	informe	0
-10.593013	informes	0
-10.683755	informó	0
-10.897184	inglaterra	0
-10.527569	inglés	0
-10.637426	inicia	0
-10.674814	inician	0
-10.681101	iniciativa	0
-10.702360	iniciativas	0
-10.536107	inmediato	0
-10.678608	inmediatos	0
-10.897184	inquieto	0
-10.676223	inscriben	0
-10.690685	insiste	0
-10.580201	insistió	0
-10.647149	inspectores	0
-10.620975	insta	0
-10.661204	instalaciones	0
-10.682627	instalan	0
-10.897184	institucionaliza	0
-10.645653	integra	0
-10.661405	intelectual	0
-10.654989	intención	0
-10.664497	intensas	0
-10.897184	intentaran	0
-10.686127	intento	0
-10.897184	interbancaria	0
-10.656543	interesados	0
-10.508588	interior	0
-10.709487	interna	0
-10.629259	internacional	0
-10.587333	internacionales	0
-10.897184	intervencion	0
-10.897184	interventor	0
-10.597139	interés	0
-10.637344	intolerable	0
-10.897184	inutilizables	0
-10.657246	inventado	0
-10.622871	inversiones	0
-10.661471	inversionistas	0
-10.582778	investigaciones	0
-10.504208	investigación	0
-10.637308	invierno	0
-10.619165	ir	0
-10.897184	irreal	0
-10.625308	irregular	0
-10.657853	irrelevante	0
-10.661407	irá	0
-10.689168	irán	0
-10.664568	iría	0
-10.680850	israel	0
-10.648746	israelíes	0
-10.698483	italia	0
-10.693810	itinerario	0
-10.897184	jaime	0
-10.897184	janeiro	0
-10.619695	japoneses	0
-10.651867	japonés	0
-10.658867	japón	0
-10.897184	jerusalén	0
-10.643984	jerárquicas	0
-10.897184	jesús	0
-10.655650	juan	0
-10.897184	jubilaciones	0
-10.693183	juega	0
-10.586348	juego	0
-10.671371	jueves	0
-10.674063	jugado	0
-10.527005	jugar	0
-10.740130	jugará	0
-10.677837	juicio	0
-10.707232	juicios	0
-10.537247	julio	0
-10.548711	junio	0
-10.675803	junta	0
-10.637780	jurado	0
-10.685975	jurista	0
-10.660672	justa	0
-10.709801	justicia	0
-10.685123	justifica	0
-10.653372	justificación	0
-10.897184	justificadas	0
-10.666535	juventud	0
-10.400732	la	0
-10.643028	labor	0
-10.897184	lacalle	0
-10.897184	ladra	0
-10.726136	lamenta	0
-10.897184	lamentaba	0
-10.897184	lamentablemente	0
-10.897184	lamentó	0
-10.681401	lanzarse	0
-10.548439	largo	0
-10.524244	las	0
-10.680451	latina	0
-10.532654	le	0
-10.590343	leer	0
-10.674967	legal	0
-10.691655	legalizar	0
-10.590706	lejos	0
-10.538118	lengua	0
-10.622945	lento	0
-10.659363	lentos	0
-10.537117	les	0
-10.897184	lesionadas	0
-10.696359	lesionados	0
-10.685649	lesiones	0
-10.669641	lesión	0
-10.644094	levantando	0
-10.579531	leve	0
-10.513210	ley	0
-10.676893	liberal	0
-10.897184	liberarían	0
-10.594373	libertad	0
-10.559269	libre	0
-10.680545	lienzo	0
-10.555064	liga	0
-10.626252	ligera	0
-10.668625	ligeramente	0
-10.598103	limitado	0
-10.658056	limitados	0
-10.648849	limitan	0
-10.897184	linares	0
-10.613717	liquidar	0
-10.612539	lista	0
-10.634947	listas	0
-10.692684	llamarse	0
-10.897184	llameante	0
-10.626571	llamó	0
-10.604816	llega	0
-10.633388	llegado	0
-10.523642	llegar	0
-10.673557	llegue	0
-10.543562	llegó	0
-10.897184	lleras	0
-10.651228	llevaría	0
-10.897184	llevé	0
-10.595560	llevó	0
-10.524900	lo	0
-10.582292	local	0
-10.595405	locales	0
-10.660647	localizó	0
-10.627696	logrado	0
-10.571898	lograr	0
-10.623197	logros	0
-10.897184	logísticamente	0
-10.897184	londres	0
-10.502645	los	0
-10.611340	lucha	0
-10.606003	luego	0
-10.520806	lugar	0
-10.642955	lugares	0
-10.689024	lunes	0
-10.659921	líder	0
-10.667356	líderes	0
-10.576364	límite	0
-10.559778	línea	0
-10.653564	lógicamente	0
-10.897184	madrazo	0
-10.671982	madrid	0
-10.677104	madurez	0
-10.657893	maestra	0
-10.684750	magnitud	0
-10.565405	mal	0
-10.640770	mala	0
-10.690891	malas	0
-10.686602	malo	0
-10.642499	manada	0
-10.536824	mandato	0
-10.897184	mandela	0
-10.552813	manera	0
-10.706684	manifestar	0
-10.625769	maniobra	0
-10.669014	maniobras	0
-10.691858	mantendrán	0
-10.636725	mantener	0
-10.603901	manteniendo	0
-10.640681	mantenimiento	0
-10.588387	mantiene	0
-10.714591	mantuvieron	0
-10.610199	mantuvo	0
-10.681599	mapuche	0
-10.537922	mar	0
-10.663708	marcador	0
-10.897184	marchaba	0
-10.562482	marco	0
-10.634665	marcos	0
-10.668053	marfil	0
-10.663894	margen	0
-10.700981	marismas	0
-10.674358	martes	0
-10.480215	marzo	0
-10.641854	masiva	0
-10.637014	matar	0
-10.606359	materia	0
-10.604400	material	0
-10.897184	materialize	0
-10.557375	mayo	0
-10.561084	mayor	0
-10.542276	mayores	0
-10.690452	mayormente	0
-10.588628	mayoría	0
-10.679246	mañana	0
-10.671795	me	0
-10.649720	mecanismos	0
-10.512352	media	0
-10.684270	medianoche	0
-10.588417	mediante	0
-10.648961	medicina	0
-10.653419	medida	0
-10.662892	medidas	0
-10.509454	medio	0
-10.897184	mediocampo	0
-10.615631	medios	0
-10.566002	mejor	0
-10.662053	mejorado	0
-10.659145	mejoramiento	0
-10.630374	mejoran	0
-10.576926	mejorar	0
-10.595312	mejores	0
-10.897184	memorando	0
-10.643205	menciona	0
-10.615520	mencionado	0
-10.588009	mencionar	0
-10.593559	menem	0
-10.626630	menores	0
-10.597182	menos	0
-10.671548	mensuales	0
-10.653961	menudo	0
-10.701945	mera	0
-10.580277	mercado	0
-10.624206	mercados	0
-10.897184	mercosur	0
-10.897184	mercouri	0
-10.652911	mesa	0
-10.523005	meses	0
-10.683680	meta	0
-10.607403	mi	0
-10.677285	miedo	0
-10.583620	miembro	0
-10.607986	miembros	0
-10.541988	mientras	0
-10.683642	migrantes	0
-10.647676	miguel	0
-10.897184	miguelito	0
-10.582251	mil	0
-10.644980	militar	0
-10.602982	militares	0
-10.682211	millonario	0
-10.547462	millones	0
-10.897184	milán	0
-10.631407	mina	0
-10.688582	mineros	0
-10.690270	ministerial	0
-10.647036	ministerio	0
-10.583389	ministro	0
-10.619610	ministros	0
-10.897184	minucioso	0
-10.677379	minuto	0
-10.897184	mir	0
-10.679376	mis	0
-10.634604	misericordia	0
-10.590580	misma	0
-10.580141	mismas	0
-10.633638	mismo	0
-10.512192	mitad	0
-10.710027	miércoles	0
-10.666325	moción	0
-10.515307	modelo	0
-10.648044	modelos	0
-10.661401	moderado	0
-10.634325	modernos	0
-10.711988	modestos	0
-10.640703	modificó	0
-10.667452	molesta	0
-10.555114	momento	0
-10.539310	momentos	0
-10.646986	monarquía	0
-10.897184	monografías	0
-10.657598	monopolio	0
-10.897184	monselas	0
-10.897184	montenegro	0
-10.614100	morirá	0
-10.682109	moscú	0
-10.545732	mostró	0
-10.579107	motivo	0
-10.897184	moverlo	0
-10.646549	mucha	0
-10.641593	muchacha	0
-10.581725	muchas	0
-10.534522	mucho	0
-10.542491	muchos	0
-10.678024	muere	0
-10.669698	mueren	0
-10.584284	muerte	0
-10.660628	muerto	0
-10.631016	muertos	0
-10.611259	muestra	0
-10.640291	muestras	0
-10.621395	mujer	0
-10.523564	mujeres	0
-10.681319	multas	0
-10.659306	mundiales	0
-10.545125	mundo	0
-10.691685	murieron	0
-10.627131	murió	0
-10.897184	murmura	0
-10.636690	musulmanes	0
-10.537344	muy	0
-10.504598	más	0
-10.633011	mástil	0
-10.693852	médica	0
-10.635100	médicos	0
-10.660505	méxico	0
-10.630158	mí	0
-10.624034	mínimo	0
-10.544195	múltiples	0
-10.611142	música	0
-10.611464	nacido	0
-10.625386	nacional	0
-10.645670	nacionalidades	0
-10.593791	naciones	0
-10.645476	nación	0
-10.604165	nada	0
-10.610496	nadie	0
-10.636436	naturales	0
-10.664920	nave	0
-10.676959	naves	0
-10.589965	necesaria	0
-10.576122	necesario	0
-10.598368	necesidad	0
-10.691805	necesidades	0
-10.671421	necesitamos	0
-10.612019	necesitan	0
-10.674978	necesitarían	0
-10.701959	negaron	0
-10.565482	negativamente	0
-10.580336	negativo	0
-10.666840	negociaciones	0
-10.643794	negociando	0
-10.624259	negocio	0
-10.675498	negocios	0
-10.652809	negra	0
-10.630384	negó	0
-10.682162	neta	0
-10.618480	ni	0
-10.700779	niega	0
-10.676575	niegan	0
-10.607263	ninguna	0
-10.587155	ninguno	0
-10.660233	ningún	0
-10.584859	nivel	0
-10.488982	niveles	0
-10.691095	niño	0
-10.659564	niños	0
-10.516897	no	0
-10.651114	noche	0
-10.595046	nombrado	0
-10.675749	nombraron	0
-10.550224	nombre	0
-10.666351	nominal	0
-10.897184	norcoreanas	0
-10.616610	normal	0
-10.662838	normalidad	0
-10.505169	normas	0
-10.646891	norte	0
-10.668588	norteamericano	0
-10.626048	nos	0
-10.688420	nosotros	0
-10.708419	nota	0
-10.668532	notable	0
-10.599333	notas	0
-10.634552	noticia	0
-10.621898	noticias	0
-10.897184	novecientos	0
-10.724845	novedad	0
-10.678861	novedades	0
-10.647066	noviembre	0
-10.634211	nuclear	0
-10.588812	nucleares	0
-10.678285	nueces	0
-10.685041	nuestra	0
-10.599828	nuestras	0
-10.634021	nuestro	0
-10.622249	nuestros	0
-10.554683	nueva	0
-10.654365	nuevamente	0
-10.632524	nuevas	0
-10.583109	nueve	0
-10.539742	nuevo	0
-10.564087	nuevos	0
-10.585153	numerosas	0
-10.628592	numerosos	0
-10.587010	nunca	0
-10.531715	o	0
-10.588720	objetivo	0
-10.546408	objetivos	0
-10.579096	objeto	0
-10.573729	obra	0
-10.553398	obras	0
-10.666318	observaciones	0
-10.612081	obstante	0
-10.578319	ocasiones	0
-10.557613	ocasión	0
-10.550661	occidental	0
-10.674409	occidente	0
-10.550787	ocho	0
-10.500953	ocupa	0
-10.655546	ocupaban	0
-10.693554	ocupados	0
-10.627021	ocurre	0
-10.629369	ocurrir	0
-10.677155	ocurrirá	0
-10.611273	oeste	0
-10.897184	ofendido	0
-10.676933	oferta	0
-10.545062	oficial	0
-10.637166	oficiales	0
-10.649049	oficina	0
-10.613970	ofrece	0
-10.621953	ofrecer	0
-10.666263	ofrecimiento	0
-10.598484	ofreció	0
-10.606814	olvidar	0
-10.897184	omar	0
-10.680309	omisión	0
-10.652294	onza	0
-10.672616	opciones	0
-10.708195	opción	0
-10.497432	operaciones	0
-10.599847	operación	0
-10.654663	operar	0
-10.652237	opinan	0
-10.652977	opiniones	0
-10.716328	opinión	0
-10.667915	opinó	0
-10.683913	oposición	0
-10.660542	opositores	0
-10.897184	optativo	0
-10.672326	optimista	0
-10.634451	optimistas	0
-10.684976	opuesta	0
-10.680830	orador	0
-10.661914	oradores	0
-10.897184	orcas	0
-10.522192	orden	0
-10.680427	ordinaria	0
-10.634232	organismo	0
-10.577627	organismos	0
-10.687102	organizar	0
-10.667668	orientado	0
-10.629154	oriental	0
-10.537890	oro	0
-10.897184	oscar	0
-10.602650	otra	0
-10.558702	otras	0
-10.618940	otro	0
-10.492736	otros	0
-10.897184	pacificadores	0
-10.643022	pacto	0
-10.584364	padre	0
-10.657954	pagado	0
-10.675198	pagan	0
-10.611479	pagar	0
-10.649368	pago	0
-10.559344	palabra	0
-10.525142	palabras	0
-10.681764	palacio	0
-10.629086	palacios	0
-10.897184	palencia	0
-10.897184	palti	0
-10.647159	pan	0
-10.627250	papa	0
-10.591530	papel	0
-10.609661	papeles	0
-10.680224	par	0
-10.604969	para	0
-10.636839	paradero	0
-10.897184	paraliza	0
-10.653080	parciales	0
-10.567036	parcialmente	0
-10.605961	parece	0
-10.667759	parecer	0
-10.699913	parlamento	0
-10.897184	parra	0
-10.513186	parte	0
-10.657770	partes	0
-10.684859	participó	0
-10.534442	particular	0
-10.675955	partidaria	0
-10.691988	partidario	0
-10.627344	partidas	0
-10.653314	partido	0
-10.671889	partidos	0
-10.671009	parís	0
-10.696192	pasa	0
-10.619766	pasado	0
-10.667866	pasajeros	0
-10.664209	pasar	0
-10.577620	paso	0
-10.659857	pasos	0
-10.897184	passarella	0
-10.568192	pasó	0
-10.897184	patrullada	0
-10.897184	paulo	0
-10.604440	paz	0
-10.637730	país	0
-10.538823	países	0
-10.897184	peleara	0
-10.664026	peligros	0
-10.583751	peligroso	0
-10.666193	pelota	0
-10.627477	película	0
-10.672087	pendientes	0
-10.692676	pensaba	0
-10.692089	pensado	0
-10.633510	pensar	0
-10.696906	pensiones	0
-10.659314	peor	0
-10.639174	pequeña	0
-10.512450	pequeño	0
-10.554914	pequeños	0
-10.637996	percibe	0
-10.897184	perdemos	0
-10.560430	perder	0
-10.706014	perdido	0
-10.688560	perdía	0
-10.697603	peres	0
-10.695788	perfecta	0
-10.669637	perfectamemnte	0
-10.897184	pericial	0
-10.629032	periodistas	0
-10.688834	periódicos	0
-10.671476	perlas	0
-10.641606	permitan	0
-10.696806	permitido	0
-10.672252	permitirse	0
-10.668661	permitirá	0
-10.486388	pero	0
-10.653909	perro	0
-10.638126	persigue	0
-10.569747	persona	0
-10.643548	personal	0
-10.588238	personas	0
-10.897184	perspicacia	0
-10.680913	pertenecían	0
-10.708261	pertinente	0
-10.650863	perturbación	0
-10.545231	peruano	0
-10.707734	peruanos	0
-10.566443	período	0
-10.709989	períodos	0
-10.670225	perú	0
-10.657091	pesa	0
-10.683145	pesca	0
-10.657738	pese	0
-10.677521	peseta	0
-10.610784	petición	0
-10.513213	petrolera	0
-10.676653	petrolero	0
-10.571814	petróleo	0
-10.669206	piano	0
-10.897184	pido	0
-10.587411	pie	0
-10.686784	piensa	0
-10.651714	pienso	0
-10.597104	piezas	0
-10.636267	pilotos	0
-10.595970	plan	0
-10.664459	planas	0
-10.633083	planeaba	0
-10.601532	planeta	0
-10.688714	planos	0
-10.574019	plantas	0
-10.666456	plantearon	0
-10.659472	plantearse	0
-10.555473	plata	0
-10.621126	plaza	0
-10.676566	plazo	0
-10.660750	pleno	0
-10.897184	plácido	0
-10.476023	población	0
-10.582474	poco	0
-10.616056	pocos	0
-10.668780	podamos	0
-10.594133	podemos	0
-10.575397	poder	0
-10.687187	poderes	0
-10.679984	poderoso	0
-10.701147	podrá	0
-10.676300	podrán	0
-10.564775	podría	0
-10.647984	podríamos	0
-10.590145	podían	0
-10.897184	polariza	0
-10.897184	polemiza	0
-10.677362	policial	0
-10.527034	policía	0
-10.645763	política	0
-10.552731	político	0
-10.611497	políticos	0
-10.660507	pondría	0
-10.592653	poner	0
-10.897184	ponernos	0
-10.561162	popular	0
-10.615097	por	0
-10.570490	porque	0
-10.679331	porqué	0
-10.661185	portero	0
-10.661186	posibilidades	0
-10.606491	posible	0
-10.575425	posiciones	0
-10.649202	posición	0
-10.637471	positivas	0
-10.622758	positivo	0
-10.647365	posterioridad	0
-10.608037	posteriormente	0
-10.659477	potestad	0
-10.687969	practique	0
-10.642397	precaución	0
-10.660910	precedente	0
-10.656386	precio	0
-10.644092	precios	0
-10.624475	preciso	0
-10.659640	precisos	0
-10.647069	preguntas	0
-10.714579	preguntó	0
-10.613279	premio	0
-10.675436	prensa	0
-10.702394	preocupación	0
-10.681805	preocupado	0
-10.897184	preocupantes	0
-10.635506	preparado	0
-10.658737	preparan	0
-10.548399	presencia	0
-10.579274	presenta	0
-10.684227	presentación	0
-10.646686	presentaron	0
-10.568402	presente	0
-10.697856	presentó	0
-10.678489	presidencial	0
-10.633001	presidenciales	0
-10.519338	presidente	0
-10.539456	presión	0
-10.659895	presos	0
-10.587773	prestó	0
-10.669902	presupuesto	0
-10.897184	pretendemos	0
-10.897184	preveo	0
-10.584885	primer	0
-10.477740	primera	0
-10.580850	primeras	0
-10.608392	primero	0
-10.531446	principal	0
-10.556062	principalmente	0
-10.595222	principio	0
-10.589930	principios	0
-10.704112	prioridad	0
-10.668371	privada	0
-10.659615	privatizaciones	0
-10.608949	probable	0
-10.643136	probablemente	0
-10.647429	problema	0
-10.564527	problemas	0
-10.649039	problemáticos	0
-10.897184	proceda	0
-10.662532	procedente	0
-10.621474	procedimiento	0
-10.676069	procedió	0
-10.657118	proceso	0
-10.573207	procesos	0
-10.711568	proclama	0
-10.897184	procupación	0
-10.565692	producción	0
-10.663623	producido	0
-10.668920	produciría	0
-10.657821	producto	0
-10.572691	productos	0
-10.673150	produzcan	0
-10.609133	programa	0
-10.713620	programado	0
-10.619870	programas	0
-10.641145	progresan	0
-10.636820	progreso	0
-10.897184	prohibe	0
-10.671619	prometido	0
-10.897184	promoverá	0
-10.661055	pronta	0
-10.609918	pronto	0
-10.643415	propaganda	0
-10.651108	propia	0
-10.536781	propio	0
-10.655765	proporciona	0
-10.708707	proporcionó	0
-10.607592	propuesta	0
-10.699870	propuestas	0
-10.605649	propuesto	0
-10.673939	propuestos	0
-10.635222	propuso	0
-10.680758	propósito	0
-10.897184	prorroga	0
-10.897184	proscribir	0
-10.667171	prostitución	0
-10.605794	proteger	0
-10.638792	protocolo	0
-10.669685	protocolos	0
-10.624550	provincia	0
-10.651522	provisional	0
-10.627297	provocaría	0
-10.644702	proyectaba	0
-10.576952	proyecto	0
-10.647529	proyectos	0
-10.679744	prudente	0
-10.512856	pruebas	0
-10.608720	práctica	0
-10.634247	prácticamente	0
-10.671081	próxima	0
-10.711563	próximamente	0
-10.618266	próximo	0
-10.664527	próximos	0
-10.579166	publicación	0
-10.601132	publicado	0
-10.897184	publicarían	0
-10.605134	pudo	0
-10.653528	pueblo	0
-10.544858	pueda	0
-10.567575	puede	0
-10.519203	pueden	0
-10.664182	puedo	0
-10.598651	puerta	0
-10.897184	puertorriqueñas	0
-10.562928	pues	0
-10.569692	puesto	0
-10.713932	pulpo	0
-10.598011	punto	0
-10.639227	página	0
-10.542024	pánico	0
-10.582903	párrafo	0
-10.593134	pérdida	0
-10.645397	pérsico	0
-10.529812	pública	0
-10.566777	públicas	0
-10.538017	público	0
-10.612850	públicos	0
-10.433362	que	0
-10.678042	queda	0
-10.636710	quedado	0
-10.651642	quedar	0
-10.647296	quedaron	0
-10.634517	quedarse	0
-10.642584	quedó	0
-10.663883	queremos	0
-10.667142	quería	0
-10.641358	queríamos	0
-10.652595	querían	0
-10.550038	quien	0
-10.582542	quienes	0
-10.681076	quieran	0
-10.577004	quiere	0
-10.642528	quieren	0
-10.683293	quiero	0
-10.593435	quinta	0
-10.897184	quise	0
-10.667154	quisiera	0
-10.688083	quiso	0
-10.897184	quito	0
-10.676396	quitó	0
-10.897184	quizo	0
-10.682948	quién	0
-10.618080	qué	0
-10.897184	quédense	0
-10.897184	racionamiento	0
-10.684411	racismo	0
-10.675982	radical	0
-10.628837	radio	0
-10.673047	ramos	0
-10.665819	rara	0
-10.897184	razon	0
-10.684531	razones	0
-10.618640	razón	0
-10.613435	raíz	0
-10.649978	reaccionar	0
-10.621508	reacción	0
-10.589573	realista	0
-10.602399	realiza	0
-10.642378	realizada	0
-10.607780	realizado	0
-10.619057	realizan	0
-10.585565	realizar	0
-10.677561	realizó	0
-10.634582	realmente	0
-10.897184	reanudada	0
-10.897184	reanudemos	0
-10.677466	rebeldes	0
-10.658197	recae	0
-10.897184	recalcan	0
-10.638498	rechazada	0
-10.688437	rechazado	0
-10.691334	rechazaron	0
-10.540809	reciben	0
-10.633230	recibido	0
-10.489875	recibir	0
-10.608558	recibió	0
-10.602914	recién	0
-10.612566	reclamaba	0
-10.637934	reclamaron	0
-10.897184	reclutarlas	0
-10.641174	recogió	0
-10.665965	recomendación	0
-10.661015	reconstrucción	0
-10.686790	recorren	0
-10.897184	recrudece	0
-10.654793	recuperado	0
-10.683753	recurrió	0
-10.665624	recurso	0
-10.656948	recursos	0
-10.562496	red	0
-10.703570	redacción	0
-10.897184	reduccion	0
-10.685119	reduce	0
-10.567723	reducida	0
-10.685333	reducido	0
-10.575869	reducir	0
-10.897184	reelegidos	0
-10.607641	referencia	0
-10.685178	referidas	0
-10.897184	referirme	0
-10.897184	referirán	0
-10.670782	referían	0
-10.577146	refiere	0
-10.670365	refinerías	0
-10.564489	refirió	0
-10.688182	reforma	0
-10.650830	reformas	0
-10.619324	refugiados	0
-10.694403	regir	0
-10.658015	registra	0
-10.503861	registrada	0
-10.589483	registro	0
-10.622927	registrándose	0
-10.628714	región	0
-10.596069	regla	0
-10.656309	reglamentaciones	0
-10.696412	regresar	0
-10.667824	regreso	0
-10.723010	regresó	0
-10.709892	regular	0
-10.897184	rehabilitar	0
-10.653155	rehusado	0
-10.668527	rehusó	0
-10.646124	reinar	0
-10.658345	reitera	0
-10.579737	relaciones	0
-10.610692	relación	0
-10.627522	relativamente	0
-10.659632	relativas	0
-10.688896	relator	0
-10.658566	relató	0
-10.700380	relevancia	0
-10.576518	religiosa	0
-10.665544	remedios	0
-10.897184	remitida	0
-10.649846	remuneración	0
-10.897184	rendimos	0
-10.897184	renovarse	0
-10.649249	renuncia	0
-10.897184	reordenados	0
-10.652797	reparaciones	0
-10.668536	repercutió	0
-10.701182	repetir	0
-10.642628	repetirse	0
-10.608314	reportó	0
-10.690265	represalias	0
-10.677541	representante	0
-10.698323	representantes	0
-10.615138	representar	0
-10.897184	reprogramación	0
-10.659712	repuesto	0
-10.629386	requerido	0
-10.678433	requerirán	0
-10.574381	requiere	0
-10.897184	requirimientos	0
-10.897184	resa	0
-10.627459	reserva	0
-10.670036	reservado	0
-10.660530	reservas	0
-10.689470	reses	0
-10.497737	resistencia	0
-10.598072	resolución	0
-10.582566	resolver	0
-10.897184	respalden	0
-10.676291	respaldo	0
-10.634906	respectivo	0
-10.560880	respecto	0
-10.678066	respetando	0
-10.670734	respetar	0
-10.689629	respiro	0
-10.630617	responder	0
-10.897184	responderemos	0
-10.683956	respondió	0
-10.897184	responsabilizado	0
-10.532475	respuesta	0
-10.665238	restableció	0
-10.580120	restantes	0
-10.674643	restaurados	0
-10.529421	resto	0
-10.629183	restos	0
-10.676805	restricción	0
-10.667064	resueltos	0
-10.668690	resulta	0
-10.621199	resultado	0
-10.642210	resultados	0
-10.648324	resultaron	0
-10.897184	retenían	0
-10.649898	retirada	0
-10.657681	retirado	0
-10.713960	retirar	0
-10.670799	retirarse	0
-10.656260	reuniones	0
-10.659424	reunir	0
-10.897184	reunirán	0
-10.620168	reunión	0
-10.897184	reuní	0
-10.671090	revelado	0
-10.646399	revelados	0
-10.660414	revelar	0
-10.897184	reveses	0
-10.705928	revisando	0
-10.897184	revisarse	0
-10.663159	revisó	0
-10.897184	revuelo	0
-10.570963	rey	0
-10.677739	reyes	0
-10.686977	reúne	0
-10.897184	riendo	0
-10.644511	riesgo	0
-10.658866	rio	0
-10.591004	ritmo	0
-10.674157	riñón	0
-10.897184	robando	0
-10.637588	rojo	0
-10.687937	rompieron	0
-10.662820	ronda	0
-10.897184	ruanda	0
-10.644755	rubro	0
-10.703547	rumbo	0
-10.660771	rumores	0
-10.612736	rusa	0
-10.670194	rusia	0
-10.598401	rusos	0
-10.643193	ruta	0
-10.897184	rutinariamente	0
-10.595417	rápidamente	0
-10.651761	régimen	0
-10.634996	río	0
-10.578008	ríos	0
-10.563542	sabe	0
-10.676884	sabemos	0
-10.592610	saber	0
-10.688075	sabotaje	0
-10.652255	sabía	0
-10.638847	sabían	0
-10.659603	sacado	0
-10.699064	sal	0
-10.545765	sala	0
-10.627925	salario	0
-10.897184	saldar	0
-10.678839	saliente	0
-10.641436	salieron	0
-10.586605	salir	0
-10.571212	salud	0
-10.654518	salva	0
-10.693543	salvador	0
-10.634619	salvar	0
-10.595747	salvo	0
-10.638666	sana	0
-10.645865	sanciones	0
-10.567938	sangre	0
-10.651971	santiago	0
-10.615255	saqueadas	0
-10.704179	sarajevo	0
-10.682590	satisfactoria	0
-10.662212	satisfactorio	0
-10.897184	saínz	0
-10.456342	se	0
-10.560638	sea	0
-10.563293	secciones	0
-10.658436	sección	0
-10.674082	secretaria	0
-10.621133	secretario	0
-10.549002	sector	0
-10.682421	sectores	0
-10.624808	seguir	0
-10.665019	seguirá	0
-10.580785	segunda	0
-10.542536	segundo	0
-10.639643	seguridad	0
-10.646379	seguro	0
-10.608170	seguía	0
-10.590611	según	0
-10.637891	seis	0
-10.897184	sela	0
-10.718502	seleccionó	0
-10.667812	semana	0
-10.897184	semanales	0
-10.678791	senado	0
-10.610363	sencilla	0
-10.897184	sencillísima	0
-10.897184	sensato	0
-10.691167	sentencias	0
-10.698968	sentir	0
-10.673925	separación	0
-10.586606	separado	0
-10.660927	separatista	0
-10.582330	septiembre	0
-10.544614	ser	0
-10.697636	serbia	0
-10.519778	serie	0
-10.666502	seriedad	0
-10.703799	serio	0
-10.524331	servicio	0
-10.555749	servicios	0
-10.663011	será	0
-10.652364	serán	0
-10.563022	sería	0
-10.652912	sesiones	0
-10.649479	sesión	0
-10.636495	setenta	0
-10.675732	severos	0
-10.897184	sevilla	0
-10.622637	sexual	0
-10.897184	señalo	0
-10.654963	señaló	0
-10.595320	señor	0
-10.622735	señora	0
-10.513367	si	0
-10.575395	sido	0
-10.555809	siempre	0
-10.573997	siendo	0
-10.688076	siente	0
-10.670954	siento	0
-10.630241	siete	0
-10.602880	significa	0
-10.612767	significar	0
-10.683799	significativamente	0
-10.689243	significativas	0
-10.676688	sigue	0
-10.613975	siguen	0
-10.564445	siguiente	0
-10.665266	siguieron	0
-10.562948	siguió	0
-10.636320	silla	0
-10.897184	silvio	0
-10.607151	similar	0
-10.546576	similares	0
-10.622763	simple	0
-10.597748	sin	0
-10.659757	sindicales	0
-10.536344	sino	0
-10.659101	sintieron	0
-10.646336	sintió	0
-10.647383	sinónimo	0
-10.575625	siquiera	0
-10.666404	siria	0
-10.525727	sistema	0
-10.595406	situación	0
-10.591198	situada	0
-10.897184	soares	0
-10.576550	soberanía	0
-10.529312	sobre	0
-10.897184	sobrevaluados	0
-10.559959	social	0
-10.533418	solamente	0
-10.648729	solares	0
-10.649858	soldado	0
-10.635407	soldados	0
-10.681280	solicita	0
-10.897184	solicitadas	0
-10.678642	solicitado	0
-10.680100	solicitud	0
-10.642560	solicitó	0
-10.693754	solucionar	0
-10.486082	solución	0
-10.665438	sometido	0
-10.644173	somos	0
-10.523859	son	0
-10.693405	sorprende	0
-10.663919	sorprendido	0
-10.691922	sostuvo	0
-10.659826	soy	0
-10.507490	su	0
-10.665547	subasta	0
-10.897184	subastan	0
-10.897184	subcontrata	0
-10.681374	sube	0
-10.616751	subieron	0
-10.897184	subprograma	0
-10.650226	subsiguiente	0
-10.897184	subtema	0
-10.586846	sucede	0
-10.666281	suceden	0
-10.685963	suceder	0
-10.675386	sucederá	0
-10.656853	sucedió	0
-10.652531	sucesión	0
-10.662453	sudamericanos	0
-10.897184	sudáfrica	0
-10.897184	suecia	0
-10.897184	sueldos	0
-10.668095	suelen	0
-10.696138	suficiente	0
-10.708784	sugerida	0
-10.897184	sugerirse	0
-10.646103	sugirió	0
-10.613919	suma	0
-10.647640	sumamente	0
-10.642279	sumario	0
-10.666662	suministro	0
-10.671401	suministros	0
-10.897184	supervisan	0
-10.897184	supimos	0
-10.682419	suprema	0
-10.678613	suprimir	0
-10.610037	supuestamente	0
-10.613169	supuesto	0
-10.581110	sus	0
-10.603831	sustanciales	0
-10.691809	sábados	0
-10.685047	sé	0
-10.540481	sí	0
-10.665512	sólo	0
-10.897184	sónica	0
-10.674619	tailandés	0
-10.648095	tajante	0
-10.547708	tal	0
-10.897184	talavera	0
-10.518483	tales	0
-10.607002	también	0
-10.640044	tampoco	0
-10.618326	tan	0
-10.677668	tangible	0
-10.577414	tanto	0
-10.584302	tarde	0
-10.645730	tarea	0
-10.661628	tarifas	0
-10.565718	tasa	0
-10.614049	tasas	0
-10.649019	te	0
-10.572542	teatro	0
-10.897184	tecnicismos	0
-10.897184	teconología	0
-10.897184	tegucigalpa	0
-10.627305	televisión	0
-10.684943	telmex	0
-10.618955	tema	0
-10.630508	temas	0
-10.670228	teme	0
-10.659534	temer	0
-10.640155	temor	0
-10.627110	templos	0
-10.633039	temporada	0
-10.554309	tendencia	0
-10.670467	tendrán	0
-10.677652	tendríamos	0
-10.642193	tenemos	0
-10.555288	tener	0
-10.662556	tenerse	0
-10.556618	tenido	0
-10.665310	tensa	0
-10.523911	tenía	0
-10.708374	teníamos	0
-10.602366	tenían	0
-10.501792	teoría	0
-10.575610	tercer	0
-10.622488	tercera	0
-10.676947	tercios	0
-10.649175	terreno	0
-10.668502	terrible	0
-10.628227	territorios	0
-10.697562	terror	0
-10.897184	tesobonos	0
-10.553972	testigo	0
-10.661392	testigos	0
-10.567868	texto	0
-10.597436	textos	0
-10.521714	tiburones	0
-10.539441	tiempo	0
-10.557533	tiempos	0
-10.542596	tiene	0
-10.494243	tienen	0
-10.570564	tierras	0
-10.589995	tipo	0
-10.563471	tipos	0
-10.656539	tirar	0
-10.671472	tiroteo	0
-10.553665	toda	0
-10.507814	todas	0
-10.553503	todavía	0
-10.565432	todo	0
-10.549509	todos	0
-10.591940	toma	0
-10.670142	tomaba	0
-10.674808	tomar	0
-10.687042	tomará	0
-10.677991	tomaría	0
-10.897184	tomarían	0
-10.897184	tomáramos	0
-10.539279	tomó	0
-10.641394	tono	0
-10.554011	toque	0
-10.642820	tormenta	0
-10.681493	torta	0
-10.586473	total	0
-10.643823	totalidad	0
-10.613098	totalmente	0
-10.897184	toyota	0
-10.649759	trabajadores	0
-10.661411	trabajan	0
-10.599514	trabajar	0
-10.577649	trabajo	0
-10.681288	trabajó	0
-10.663781	tragedias	0
-10.692070	tramos	0
-10.660713	tranquilo	0
-10.696541	transitorio	0
-10.703706	transitorios	0
-10.594454	transporte	0
-10.520535	tras	0
-10.628173	trascendental	0
-10.619658	trata	0
-10.652922	trataban	0
-10.636683	tratado	0
-10.636244	tratan	0
-10.897184	trataremos	0
-10.695564	trece	0
-10.659430	treinta	0
-10.603170	tres	0
-10.655098	tribunal	0
-10.680292	tribunales	0
-10.669453	trimestre	0
-10.646115	triple	0
-10.575212	tripulantes	0
-10.678005	triste	0
-10.660816	triunfa	0
-10.590352	tropas	0
-10.660947	trozos	0
-10.696665	turcos	0
-10.668596	tuvieron	0
-10.897184	tuvimos	0
-10.542923	tuvo	0
-10.539170	técnica	0
-10.664570	técnicos	0
-10.588821	término	0
-10.525581	términos	0
-10.595169	título	0
-10.557283	ubicado	0
-10.897184	ultimo	0
-10.429908	un	0
-10.521089	una	0
-10.596303	unidad	0
-10.729609	unidas	0
-10.690055	unidos	0
-10.628385	uniforme	0
-10.550283	uno	0
-10.557050	unos	0
-10.650807	unánime	0
-10.697915	urge	0
-10.607665	urgente	0
-10.897184	uri	0
-10.682130	uruguay	0
-10.696362	usen	0
-10.586462	uso	0
-10.635131	ustedes	0
-10.563536	utilizar	0
-10.607752	va	0
-10.638678	vacuna	0
-10.682139	valiente	0
-10.654799	valiosa	0
-10.551826	valle	0
-10.600872	valores	0
-10.626225	van	0
-10.689692	vaqueros	0
-10.621740	variada	0
-10.582066	variado	0
-10.655561	variados	0
-10.585078	variantes	0
-10.517243	varias	0
-10.602001	varios	0
-10.641605	varían	0
-10.687765	vasto	0
-10.897184	vaticano	0
-10.575435	vaya	0
-10.498689	veces	0
-10.653044	veintisiete	0
-10.897184	velásquez	0
-10.678371	vemos	0
-10.661337	venados	0
-10.668161	vence	0
-10.592794	vender	0
-10.641455	vendido	0
-10.672984	vendían	0
-10.668489	venezolana	0
-10.560517	venezolano	0
-10.677087	venezolanos	0
-10.664967	venezuela	0
-10.897184	venganzas	0
-10.672826	vengarse	0
-10.661147	venideros	0
-10.620876	venta	0
-10.597018	ventaja	0
-10.629060	ventanas	0
-10.897184	ventura	0
-10.674653	veo	0
-10.506902	ver	0
-10.641477	verdad	0
-10.654805	veremos	0
-10.658746	vergüenza	0
-10.679982	verificación	0
-10.542795	vez	0
-10.672150	viajar	0
-10.897184	viajará	0
-10.660398	viaje	0
-10.897184	viajo	0
-10.682025	vicepresidentes	0
-10.659491	victoria	0
-10.554756	vida	0
-10.654560	vieja	0
-10.635933	viejos	0
-10.613564	vienen	0
-10.674754	viernes	0
-10.694099	vincular	0
-10.621432	vino	0
-10.678096	violencia	0
-10.680695	virus	0
-10.897184	visas	0
-10.619719	visita	0
-10.533366	visión	0
-10.574788	visto	0
-10.643733	vive	0
-10.677791	vivimos	0
-10.897184	vladimir	0
-10.675955	vocero	0
-10.697140	volcar	0
-10.604482	volumen	0
-10.583854	voluntad	0
-10.715655	volver	0
-10.680018	volverán	0
-10.592606	volvió	0
-10.610935	volátil	0
-10.672702	votación	0
-10.657274	votantes	0
-10.679415	votar	0
-10.671996	votaron	0
-10.703513	voto	0
-10.632677	votos	0
-10.707682	voy	0
-10.704690	véanse	0
-10.619991	véase	0
-10.647039	vía	0
-10.655173	víctimas	0
-10.431663	y	0
-10.566714	ya	0
-10.625774	yo	0
-10.897184	yodización	0
-10.685512	yugoslavia	0
-10.897184	yáñez	0
-10.578672	zona	0
-10.484648	zonas	0
-10.897184	zulema	0
-10.684681	zulú	0
-10.677427	árbitro	0
-10.572025	él	0
-10.653346	énfasis	0
-10.529828	época	0
-10.897184	ése	0
-10.648285	ésta	0
-10.571468	éxito	0
-10.652327	éxitos	0
-10.649251	índice	0
-10.620521	óptimo	0
-10.556855	órdenes	0
-10.601950	órgano	0
-10.556972	última	0
-10.569883	último	0
-10.618210	últimos	0
-10.538581	única	0
-10.572975	únicamente	0
-10.625692	único	0
-10.596363	útiles	0

\2-grams:
-9.123001	</s> <s>
-10.455436	<s> a
-10.897184	<s> abrigamos
-10.933469	<s> acaso
-10.897184	<s> acepto
-11.735667	<s> aclara
-10.897184	<s> acortarán
-11.379035	<s> actor
-10.189187	<s> actualmente
-10.897184	<s> actuaré
-10.717465	<s> además
-11.157272	<s> adjunto
-11.221975	<s> admite
-11.470243	<s> agradecemos
-11.299448	<s> agradezco
-11.077410	<s> agregó
-10.452563	<s> ahora
-11.372342	<s> al
-9.635239	<s> algunas
-11.411247	<s> algunos
-10.586858	<s> alvaro
-11.094181	<s> ambas
-11.463589	<s> ambos
-11.416434	<s> anexos
-10.617684	<s> aparentemente
-10.897184	<s> aragón
-10.888265	<s> arias
-11.778671	<s> aristide
-10.285701	<s> asimismo
-10.897184	<s> aspin
-10.478594	<s> astronautas
-11.512781	<s> así
-11.010319	<s> aumenta
-10.897184	<s> avisaremos
-10.927148	<s> avión
-10.309962	<s> añadió
-10.704234	<s> aún
-10.092376	<s> basándose
-10.897184	<s> bernardin
-10.897184	<s> bonn
-11.223580	<s> brasil
-9.790376	<s> cada
-11.652119	<s> caldera
-11.335913	<s> carlos
-10.897184	<s> cavallo
-11.746695	<s> cerrará
-11.119530	<s> cesar
-11.920770	<s> clausura
-10.897184	<s> clausuran
-10.080257	<s> clinton
-10.791196	<s> como
-11.489380	<s> completan
-10.517097	<s> comprendemos
-11.043673	<s> con
-10.897184	<s> continuaremos
-11.090365	<s> continúa
-11.117289	<s> convención
-10.259604	<s> corte
-11.982660	<s> creo
-10.726125	<s> críticos
-10.825190	<s> cuando
-10.623112	<s> cuatro
-12.043585	<s> cuáles
-10.581784	<s> cómo
-11.814083	<s> de
-11.026834	<s> debe
-11.451991	<s> debemos
-11.284883	<s> deberá
-10.389727	<s> debo
-11.410042	<s> decidió
-10.331027	<s> desarrollo
-11.910215	<s> desde
-10.597466	<s> deseo
-10.897184	<s> desgraciadamente
-10.822813	<s> destacó
-10.898073	<s> dice
-11.155646	<s> dichos
-11.309361	<s> dije
-11.570960	<s> dijo
-11.292171	<s> dios
-10.897184	<s> discutiremos
-10.121541	<s> dos
-10.145589	<s> doy
-10.750106	<s> durante
-11.329868	<s> económicamente
-10.098399	<s> el
-10.930789	<s> elecciones
-11.045906	<s> ello
-10.508198	<s> ellos
-12.217654	<s> emotivo
-10.936240	<s> en
-10.897184	<s> envíamos
-10.329710	<s> era
-10.992294	<s> es
-9.323834	<s> esa
-10.179146	<s> esas
-10.897184	<s> escojo
-9.791548	<s> escritor
-11.323661	<s> escuché
-10.700850	<s> ese
-10.186897	<s> eso
-10.191491	<s> esos
-11.141959	<s> esperamos
-11.484763	<s> esperar
-10.290129	<s> espero
-10.755414	<s> esta
-10.461875	<s> estaban
-11.101950	<s> estamos
-11.304960	<s> estas
-10.774330	<s> este
-10.681143	<s> esto
-10.848874	<s> estonia
-11.129757	<s> estos
-10.468644	<s> está
-10.453567	<s> evidentemente
-10.681334	<s> ex
-11.186972	<s> exhiben
-9.632659	<s> favor
-10.897184	<s> fecsa
-11.377127	<s> figura
-11.197501	<s> fijan
-10.577792	<s> filipinas
-10.897184	<s> finlandia
-10.423660	<s> fracasa
-10.897184	<s> francia
-10.629087	<s> frente
-10.705343	<s> fue
-10.275844	<s> fuertes
-10.897184	<s> germán
-10.798913	<s> gobierno
-10.897184	<s> gonzález
-10.531795	<s> gracias
-10.464800	<s> graciela
-11.525231	<s> ha
-11.999879	<s> hacer
-9.695310	<s> haciendo
-9.921138	<s> hasta
-10.276809	<s> hay
-10.296180	<s> he
-10.635300	<s> hemos
-10.702909	<s> hoy
-10.668476	<s> hubo
-10.931187	<s> huelga
-10.897184	<s> iberdrola
-10.359234	<s> igual
-10.897184	<s> ilaria
-10.843222	<s> indican
-11.453810	<s> indicó
-10.803552	<s> indique
-11.549176	<s> inician
-11.639487	<s> inversionistas
-10.454759	<s> italia
-10.897184	<s> jaime
-10.928386	<s> japón
-11.563027	<s> justicia
-10.281966	<s> la
-10.897184	<s> lacalle
-10.897184	<s> lamentablemente
-10.346837	<s> las
-11.158950	<s> le
-11.084817	<s> les
-10.897184	<s> llameante
-10.545475	<s> llega
-11.598758	<s> llegó
-10.897184	<s> llevé
-11.219070	<s> lo
-10.630889	<s> los
-11.100182	<s> luego
-11.517267	<s> lógicamente
-10.897184	<s> madrazo
-10.897184	<s> mandela
-10.897184	<s> marchaba
-10.417616	<s> me
-9.988154	<s> media
-10.897184	<s> mercouri
-10.530381	<s> mi
-11.285366	<s> mientras
-11.914383	<s> miguel
-10.897184	<s> milán
-10.953167	<s> mineros
-11.034894	<s> ministro
-9.865204	<s> ministros
-10.897184	<s> monselas
-11.274679	<s> morirá
-10.322068	<s> mucho
-11.005399	<s> muchos
-10.844927	<s> muere
-10.981260	<s> mueren
-11.232114	<s> muy
-11.106716	<s> más
-10.400557	<s> méxico
-10.514655	<s> nadie
-11.669049	<s> nave
-11.489574	<s> necesitamos
-11.376509	<s> ni
-10.151731	<s> ninguna
-10.435256	<s> ninguno
-10.685297	<s> ningún
-10.861034	<s> no
-11.195043	<s> nombraron
-10.223300	<s> nos
-10.480739	<s> nosotros
-10.730763	<s> nuestro
-10.162365	<s> nuestros
-10.892310	<s> nuevamente
-11.928000	<s> nunca
-11.625725	<s> occidente
-10.560206	<s> ocho
-10.853392	<s> operaciones
-9.064728	<s> otras
-10.120500	<s> otros
-10.343446	<s> palacios
-10.677867	<s> para
-10.997731	<s> parece
-10.897184	<s> parra
-10.897184	<s> passarella
-9.914933	<s> pequeño
-11.608415	<s> peres
-10.542103	<s> permitirá
-10.462047	<s> pero
-10.569695	<s> pese
-10.838158	<s> peseta
-10.730732	<s> planeaba
-11.574793	<s> plantearon
-11.304511	<s> podríamos
-11.079555	<s> por
-11.042932	<s> preguntó
-11.081530	<s> prensa
-11.492890	<s> preparan
-10.669705	<s> presidente
-11.654728	<s> provocaría
-11.268469	<s> pueden
-11.490231	<s> puedo
-10.769157	<s> que
-10.927914	<s> quería
-11.001287	<s> queríamos
-10.819626	<s> quienes
-10.941828	<s> quiere
-11.546778	<s> qué
-10.897184	<s> quédense
-11.300694	<s> realiza
-10.897184	<s> reanudada
-11.728703	<s> reciben
-10.897184	<s> recrudece
-9.789921	<s> reitera
-11.028752	<s> renuncia
-10.897184	<s> resa
-10.897184	<s> responderemos
-10.145773	<s> retirada
-9.586720	<s> rey
-11.218856	<s> rusia
-10.742685	<s> ríos
-11.135699	<s> salieron
-12.156854	<s> sarajevo
-10.897184	<s> saínz
-11.399813	<s> se
-10.286118	<s> según
-10.897184	<s> sela
-10.980111	<s> senado
-11.097733	<s> será
-11.091752	<s> sería
-11.008933	<s> si
-10.934745	<s> siento
-10.598006	<s> siete
-10.667959	<s> sigue
-10.897184	<s> silvio
-10.682938	<s> sin
-11.194213	<s> siria
-11.845967	<s> sobre
-10.701460	<s> son
-10.319808	<s> soy
-10.207611	<s> su
-11.808430	<s> sube
-11.793264	<s> sus
-11.062591	<s> sé
-11.194889	<s> sólo
-10.136022	<s> tal
-10.606186	<s> también
-10.608709	<s> tampoco
-11.385450	<s> tenemos
-11.354135	<s> todas
-10.807641	<s> todavía
-11.241044	<s> todo
-11.113749	<s> todos
-10.897184	<s> toyota
-10.897184	<s> trataremos
-11.328097	<s> treinta
-9.807553	<s> tres
-10.897184	<s> tuvimos
-10.212837	<s> un
-11.521881	<s> una
-9.388578	<s> unos
-11.221242	<s> urge
-11.323920	<s> uruguay
-10.673135	<s> valores
-9.915423	<s> van
-10.934238	<s> varios
-10.897184	<s> velásquez
-10.804146	<s> venezolanos
-10.389699	<s> venezuela
-10.569959	<s> véanse
-10.908850	<s> véase
-10.945240	<s> y
-10.205564	<s> ya
-11.131824	<s> yo
-11.467760	<s> yugoslavia
-10.360909	a actuar
-10.758598	a algunos
-10.636134	a alta
-11.227848	a aprobar
-10.897184	a atlanta
-11.174257	a cambio
-10.588243	a cargo
-11.439576	a chile
-10.590261	a cielo
-10.961722	a cifras
-10.185304	a cinco
-10.769107	a colaborar
-10.897184	a coleman
-10.936539	a combatir
-11.172509	a consulta
-11.530085	a continuación
-10.761149	a continuar
-11.153622	a debatir
-10.674672	a decir
-10.897184	a defraudar
-11.735655	a discutir
-10.414353	a elegir
-10.431140	a ello
-9.639449	a esa
-10.417638	a esas
-10.339238	a ese
-11.014031	a esos
-10.298250	a estar
-10.324795	a estas
-9.411701	a este
-10.692604	a esto
-10.564722	a estos
-11.250530	a europa
-10.459051	a examinar
-10.658310	a explicar
-10.990054	a fines
-10.719073	a firmeza
-10.897184	a goycochea
-10.057946	a gusto
-10.627251	a hablar
-9.905365	a hacer
-11.344269	a ir
-11.634747	a japón
-10.897184	a jerusalén
-10.856244	a juan
-10.063650	a juicio
-9.257923	a la
-10.769247	a largo
-10.014709	a las
-10.265314	a los
-10.543598	a marcos
-10.508401	a mejorar
-9.769997	a menudo
-10.645629	a mi
-10.906139	a méxico
-10.665511	a nadie
-9.986275	a otra
-10.576388	a otro
-10.017866	a otros
-10.578266	a partidos
-9.707308	a países
-10.470112	a personas
-10.414689	a que
-11.353674	a quedar
-8.128714	a recibir
-10.643131	a reformas
-12.023605	a regir
-11.324846	a regresar
-10.784395	a reservas
-10.824782	a respetar
-10.598232	a retirarse
-11.401248	a reunir
-11.026680	a rusia
-11.202261	a santiago
-10.812031	a sentir
-9.988070	a ser
-10.842846	a serbia
-9.289263	a su
-9.314898	a sus
-10.543406	a tasa
-10.897184	a tegucigalpa
-10.012379	a temas
-10.667058	a tener
-9.514402	a todos
-10.415738	a trabajar
-8.762936	a un
-10.068439	a una
-10.698469	a votación
-11.045840	a votar
-9.740870	a ya
-10.757885	abajo con
-12.158127	abandonada </s>
-10.543325	abandonado la
-10.758739	abarcan muy
-10.441629	abastecimiento el
-10.897184	abatir estructuras
-11.639230	abierta </s>
-11.364886	abiertas y
-10.529099	abierto a
-12.068175	abierto del
-9.773534	abra está
-10.897184	abrigamos la
-12.607698	abril </s>
-11.777087	abrió un
-11.328924	abstracto sino
-11.348014	abundan los
-11.231793	aburrida señaló
-10.974325	acaba de
-10.897184	acaben los
-9.960296	acaso haya
-10.293489	acaso no
-10.897184	acatamiento sea
-9.796946	acceder a
-9.958679	acceso a
-11.273634	accidente </s>
-11.500811	acciones cayeron
-11.775817	acciones de
-9.921365	acciones subieron
-11.268941	acción se
-10.970882	acción son
-10.223138	acelerar el
-13.141227	acento francés
-11.200892	aceptable </s>
-11.526958	aceptar un
-10.615579	aceptarla </s>
-10.897184	acepto humildemente
-11.676824	aceptó esa
-12.014398	aceptó la
-9.971142	aclara que
-10.897184	aclararlo todo
-10.897184	acomete campaña
-12.022027	acontecimiento a
-10.897184	acopla a
-11.452707	acordaron continuar
-11.228668	acordó que
-10.897184	acortarán duración
-10.897184	acosta </s>
-10.351985	actitud de
-11.034378	actitud dijo
-10.651121	actividad </s>
-10.966922	actividad volátil
-10.865010	actividades en
-10.086388	actividades se
-10.964318	activo diferido
-10.625155	activos desde
-11.072680	acto la
-10.633014	actor de
-10.928295	actor más
-10.526566	actuaciones de
-11.460102	actual </s>
-9.388194	actual acuerdo
-11.088668	actual composición
-11.071118	actual dista
-9.946723	actual es
-9.961313	actualidad hay
-11.035787	actualizan constantemente
-10.950633	actualizar cada
-10.180702	actualmente la
-11.551720	actualmente objeto
-12.132843	actuando así
-12.063869	actuar </s>
-10.897184	actuaré conforme
-11.209801	acude a
-10.737146	acuerdan impulsar
-10.550514	acuerdo </s>
-10.019817	acuerdo como
-10.401935	acuerdo con
-10.524455	acuerdo de
-10.254999	acuerdo donde
-10.527977	acuerdo no
-9.787044	acuerdo que
-10.526932	acuerdo sobre
-11.909477	acusaciones </s>
-9.857957	acusados prestó
-11.178735	adelante </s>
-10.700717	adelante dijo
-10.130929	adelanto </s>
-10.598516	además por
-11.072761	adicionales </s>
-11.562037	adiós del
-11.064090	adjudica un
-10.897184	adjudicada a
-10.257925	adjunta copia
-10.990174	adjunta una
-10.897184	adjuntan los
-10.689077	adjunto copias
-10.228838	admite un
-11.563446	adoptado algunas
-9.985415	adoptará sus
-10.897184	adoptarán por
-10.897184	aducía </s>
-10.751642	advirtió </s>
-11.100222	aeropuerto </s>
-10.391640	aeropuertos fueron
-10.192143	afectados </s>
-10.442904	afiliación a
-10.934571	afirma benítez
-11.576751	afirma que
-10.878104	afirmativo tendríamos
-10.669486	afirmó </s>
-11.281989	afirmó tajante
-11.626094	agencia dijo
-9.872560	agente </s>
-10.212632	agradecemos por
-10.252584	agradecemos su
-10.897184	agradeceremos su
-10.897184	agradecerle a
-10.307012	agradezco de
-10.814090	agradezco su
-11.454592	agrava esta
-12.339818	agravó las
-11.788239	agregó </s>
-10.897184	agregó acosta
-10.177385	agregó por
-10.367805	agregó que
-11.142748	agresión contra
-10.848340	agrupación </s>
-10.973639	agrícola francés
-10.537505	agua agrava
-10.897184	aguarda regreso
-10.897184	aguarme el
-11.530295	aguas no
-10.897184	ahondar el
-10.300100	ahora </s>
-11.807672	ahora ahorra
-9.763598	ahora bien
-11.147735	ahora dijo
-10.712539	ahora en
-10.352794	ahora enfrenta
-10.507941	ahora es
-9.344161	ahora la
-10.115508	ahora los
-11.111512	ahora no
-10.459958	ahora que
-11.125875	ahora sobre
-11.126836	ahora solamente
-10.849821	ahora tenemos
-11.941237	ahorra </s>
-11.766048	ahí que
-11.284542	aislamiento fue
-10.897184	ajustará pues
-10.159256	al cierre
-10.721055	al contenido
-10.635622	al cuadro
-11.336161	al distinguido
-9.829518	al día
-11.569925	al estrellarse
-10.280749	al exterior
-10.215298	al festivo
-10.269886	al fuego
-10.429443	al gobierno
-10.624411	al grupo
-10.843246	al hospital
-10.097178	al marcador
-10.709877	al marco
-10.148269	al menos
-10.777804	al mercado
-10.973840	al mismo
-10.982810	al parecer
-10.471780	al país
-10.622791	al problema
-11.163598	al párrafo
-9.866119	al recibir
-10.735106	al salir
-10.649798	al secretario
-9.748347	al sector
-10.676398	al siguiente
-10.696998	al tratado
-10.956528	al uso
-11.152763	al ver
-10.897184	albacora han
-11.231165	aldeas </s>
-10.897184	alegatos de
-10.156494	alemania </s>
-11.122780	alemán gana
-10.897184	alfonsín </s>
-11.192698	algo así
-10.939855	algo más
-12.286663	algo puede
-10.783801	algo tangible
-10.874363	alguna para
-10.263270	alguna razón
-10.855105	algunas condiciones
-10.963739	algunas cosas
-11.362483	algunas de
-10.957553	algunas diferencias
-11.274723	algunas medidas
-10.300997	algunas otras
-10.684645	alguno </s>
-10.468544	alguno de
-10.302362	algunos críticos
-11.222604	algunos especialistas
-10.113261	algunos esto
-10.374745	algunos países
-11.027343	algunos vendían
-10.699105	alimentaria continúa
-11.182529	alla del
-10.897184	allen al
-11.252557	allá de
-10.932549	allí cuando
-11.689319	alrededor de
-10.711702	alta mar
-11.094376	altibajos y
-11.087043	alto costo
-11.399136	alto organismo
-10.768536	alvaro lo
-10.672994	alza en
-10.821687	amable cooperación
-11.207242	amazónico </s>
-11.326852	ambas naves
-11.388061	ambas partes
-11.650640	ambas propuestas
-11.529484	ambos efectos
-11.208683	ambos equipos
-9.335829	ambos países
-11.413763	ambos reclamaron
-10.563343	amplia </s>
-12.309022	amplia gama
-11.147349	ampliado también
-10.971601	ampliamente imitado
-11.463735	ampliar esa
-9.814032	ampliarse en
-11.106602	ampliarse o
-12.050428	amplio </s>
-10.484758	amplitud de
-10.897184	américa latina
-10.999075	analfabetos del
-11.549159	analista </s>
-11.399712	analizado cuidadosamente
-10.702965	analogía ayudará
-10.521648	anexo diez
-10.649127	anexo figura
-10.825825	anexo tres
-11.560029	anexos al
-10.897184	anonadado </s>
-9.723642	anonimato </s>
-11.069480	ante el
-12.061214	ante la
-11.351068	ante una
-11.723619	antemano su
-10.432786	antenas solares
-11.960483	anterior </s>
-10.666432	anticipado su
-11.556711	anticipó qué
-10.598344	antología de
-11.399887	anual del
-11.173087	anunciado aún
-11.269853	anunciados </s>
-11.427011	anunciar medidas
-9.941046	análisis </s>
-10.938211	apagones eléctricos
-9.850357	aparecen las
-11.252583	aparentemente mantiene
-10.897184	apelables ante
-10.163000	apelación </s>
-10.897184	apelado </s>
-11.631957	apertura del
-10.106536	aplicación de
-11.406919	aplicar la
-11.286875	aportaciones adicionales
-11.217418	apoyo </s>
-9.820610	apoyo alguno
-11.668223	apoyo del
-11.324449	apoyo para
-10.421411	apoyo y
-10.897184	apremio expresado
-11.944297	aprobación </s>
-10.962669	aprobado por
-11.210932	aprobar reformas
-9.655457	aprobaron en
-11.594456	aprobó el
-11.186644	aprobó presupuesto
-10.784337	aproximadas de
-11.182528	aprueba pacto
-10.897184	apuntarán a
-12.451695	aquella época
-10.897184	aragón dijo
-12.473637	arbitraje </s>
-10.897184	aremisos a
-10.897184	argentina discutiéndolo
-10.710082	argentina que
-10.588735	argentino </s>
-10.897184	argentino polemiza
-10.541761	arias dice
-10.319409	arias se
-11.343926	aristide ha
-11.088820	arma </s>
-10.897184	arma sónica
-12.436395	armamento será
-11.603585	armas agregó
-11.080935	armas nucleares
-10.897184	arrecian críticas
-10.276344	arreglo no
-11.598498	arrestado hasta
-11.269007	arroz norteamericano
-10.612517	arroz tailandés
-11.099734	arte y
-10.743197	artistas están
-10.524541	artículo catorce
-10.916504	artículo con
-11.227315	artículo doce
-10.380862	artículo segundo
-11.857912	artículo también
-11.318977	artículos de
-10.897184	asalariados han
-11.048949	asamblea </s>
-9.610727	asamblea general
-11.086726	asamblea ordinaria
-11.122248	ascenso el
-11.552139	asegurado </s>
-10.205543	asesinar y
-10.897184	aseveró </s>
-12.828648	asignación puede
-10.897184	asimismo lamentó
-9.937477	asimismo se
-11.420611	asisten a
-11.232207	asistencia y
-11.379249	asociado </s>
-11.358030	asombro en
-10.153942	aspecto del
-11.970985	aspectos </s>
-10.897184	aspin dijo
-10.897184	assad vaya
-11.746748	astronautas instalan
-10.897184	asumiría ministerio
-10.710467	asunto en
-11.191504	asunto serio
-9.769257	asuntos mundiales
-10.825949	asuntos no
-11.054496	así cuáles
-11.345373	así explicó
-11.637598	así hasta
-10.378643	así las
-11.662462	así que
-10.345450	atacar a
-11.159396	ataque causó
-10.863392	ataúd </s>
-10.566295	atención </s>
-10.618323	atención de
-11.070765	atención médica
-10.837782	atender esa
-10.924547	atentado </s>
-12.018698	aterrizó con
-11.666558	aterrizó sin
-10.897184	atlanta dos
-10.897184	atraer aremisos
-11.979434	atraviesan un
-10.897184	atribuírlo a
-10.274357	atrás </s>
-10.408862	atuendo </s>
-11.317642	audaz </s>
-10.505532	audiencias sobre
-10.856204	aumenta cifra
-10.694613	aumenta la
-10.964799	aumentado la
-10.576033	aumentaron </s>
-12.317732	aumentos no
-11.977741	aumentó las
-11.473917	ausencia </s>
-11.412024	ausencia de
-11.848187	australiano </s>
-10.502790	autobús </s>
-10.897184	autoevaluaciones no
-10.599535	automóvil de
-11.268572	automóviles nuevos
-10.960785	autor afirma
-11.527411	autoridades de
-10.381900	autoridades no
-12.085646	avance del
-10.276936	avance este
-10.897184	avancen </s>
-11.372677	avances </s>
-10.688424	avanza cada
-11.940552	avanzado en
-11.940513	avaro y
-10.897184	avendaño </s>
-10.897184	avisaremos en
-12.327596	avión de
-12.271132	avión español
-10.914207	avión hará
-11.088464	avión norteamericano
-11.831702	avión procedente
-10.389901	ayer en
-9.403064	ayuda a
-10.638209	ayuda y
-11.479397	ayudará a
-11.008210	aérea de
-11.012519	aéreos en
-10.091531	añadió </s>
-10.947985	añadió que
-10.897184	añadió ventura
-11.720156	año </s>
-10.800136	año el
-11.005686	año en
-11.651292	años </s>
-9.451911	años después
-10.277040	años es
-10.710020	años esta
-12.066531	años venideros
-11.432364	aún añadió
-10.285191	aún del
-11.757998	aún detenciones
-10.839936	aún en
-10.712130	aún más
-10.234557	aún no
-10.443037	baja </s>
-10.912670	baja a
-10.842670	bajaron más
-10.695960	baje expresó
-10.866352	bajo condición
-11.093764	bajo dijo
-10.642220	bajo la
-10.985856	bajo presión
-10.879403	bajos </s>
-11.571603	balladur </s>
-9.995932	bancario </s>
-9.760571	banco central
-10.608335	banco europeo
-10.051578	banco ha
-10.897184	bancolombia </s>
-10.646436	bancos estarán
-9.818306	basa el
-10.632480	basa en
-9.182632	basado en
-11.545896	base intelectual
-11.886599	base se
-11.279852	bastante amplia
-11.286897	bastante corto
-10.897184	bastante preocupantes
-10.267595	basándose en
-12.305752	batalla </s>
-11.253832	batallones en
-10.897184	baviera </s>
-12.386533	beca fue
-10.897184	bena soares
-10.897184	bendiga miguel
-11.694258	benítez </s>
-10.897184	berlín y
-10.897184	bernardin no
-10.897184	bernardo </s>
-10.897184	bielorrusia busca
-10.246314	bien </s>
-9.942453	bien como
-8.867871	bien conocida
-10.452868	bien desde
-10.804747	bien existe
-10.632679	bien informados
-10.621796	bien la
-11.720622	bien puede
-10.523593	bien ubicado
-11.381396	bienvenida </s>
-11.004612	blancos nos
-10.897184	blum y
-10.897184	bogotá </s>
-10.897184	bogotá y
-11.691371	bola de
-11.381070	bomba </s>
-10.897184	bondes se
-10.897184	bonn está
-10.610250	bonos </s>
-10.897184	boquete en
-11.183912	borrador </s>
-10.897184	borrados </s>
-10.123344	bosnia </s>
-10.897123	bosques </s>
-10.394958	brasil </s>
-10.657708	brasil acuerdan
-10.897184	brasil aguarda
-10.551086	brasileño completó
-10.157365	brasileño declara
-10.487642	breve respiro
-10.534120	brevemente al
-10.692377	brevemente ante
-10.897184	bruselas </s>
-10.897184	buceador </s>
-10.897184	buen buceador
-10.449230	buen momento
-10.931520	bueno </s>
-10.832197	bueno para
-11.023053	busca a
-11.466865	busca proteger
-11.508583	buscamos la
-11.097425	buscar la
-9.508652	básicos </s>
-10.897184	bósforo </s>
-10.416714	cabe duda
-11.637710	cabo </s>
-11.397533	cabría decir
-10.897184	cachemira luego
-11.146639	cada cuatro
-12.611307	cada día
-10.651114	cada encuentro
-11.487800	cada organismo
-11.336067	cada producto
-10.759188	cada trimestre
-11.363616	cada uno
-10.823425	cada vez
-11.706966	cadena de
-11.747276	caer en
-10.969771	cafetería cierra
-11.109725	caja </s>
-10.627837	caldera es
-11.698318	caldera escogieron
-11.117730	caldera presentó
-10.479234	calefacción </s>
-10.859537	calidad cuesta
-9.499516	calidad de
-10.897184	camacho en
-11.908398	cambiado </s>
-12.361691	cambiado en
-11.385838	cambiado totalmente
-11.080120	cambio de
-11.432987	cambios al
-10.558472	cambios de
-10.897184	cambios gane
-10.981333	cambios se
-11.250268	cambios serán
-11.332267	cambió varias
-11.081817	campamento </s>
-10.927367	campamento controlado
-10.725717	campaña política
-10.854465	campeones ganando
-11.660834	campo los
-11.583814	campo moderado
-11.706306	campo y
-10.897184	canalizó a
-11.683837	canciller francés
-11.162171	canciller peruano
-10.897184	cancillería uri
-10.706417	candidato en
-11.130698	candidato para
-11.054353	candidatos podían
-10.405026	cantante se
-10.272189	cantidad de
-10.087344	capacidad de
-10.933417	capaz de
-11.757421	capital mínimo
-9.941182	captura </s>
-10.643896	capítulo tres
-10.550640	cara </s>
-10.897184	caracas bogotá
-11.162472	caravana pasa
-10.582071	carbón </s>
-10.899293	carbón a
-10.897184	cardona </s>
-10.833182	carece de
-10.484122	carga de
-11.331037	carga están
-10.593777	cargo aportaciones
-10.189939	cargo de
-10.897184	carlos elgueta
-10.897184	carlos lleras
-11.457703	carnaval </s>
-10.895158	caro </s>
-10.566136	carrera </s>
-10.584151	carrera por
-11.815166	carta de
-10.956164	carta describía
-11.411578	cartas para
-9.196994	carteles </s>
-11.273868	casa mis
-10.661889	casas </s>
-10.740235	casi cinco
-11.147368	casi perfecta
-10.338447	casi total
-11.363280	casino </s>
-11.534140	caso </s>
-10.611916	caso afirmativo
-10.904271	caso agregó
-11.208303	caso de
-11.530715	caso más
-10.892769	caso no
-10.742117	caso se
-10.895164	caso también
-11.191147	casos hemos
-10.818996	casos más
-11.207222	casos problemáticos
-10.647852	casos se
-10.842734	casó con
-11.078611	catedral está
-10.119389	catorce </s>
-10.749572	católica </s>
-11.276935	causa </s>
-11.775547	causa de
-10.878881	causa del
-11.049301	causas del
-10.520812	causas naturales
-11.635723	causó asombro
-11.799639	causó cierto
-11.649419	causó pánico
-10.897184	cavallo dice
-10.874008	cayeron en
-10.897184	cañoneos y
-10.897184	ceda </s>
-10.897184	cedería golán
-11.535631	celebración por
-11.625873	cenizas </s>
-11.530779	central </s>
-12.507283	centro de
-10.897184	centroamérica </s>
-12.060843	cerca de
-11.151674	cerca del
-11.165356	cero indica
-11.891939	cero por
-10.801252	cerrados por
-11.539640	cerrar siempre
-12.620234	cerraron este
-11.790003	cerrará operaciones
-10.932718	cerveza todo
-10.897184	cesación del
-11.659807	cesar acude
-10.016542	cese al
-9.644175	cetáceos más
-11.218649	chiapas </s>
-10.613405	chiapas declaró
-11.593655	chile </s>
-11.362886	chileno </s>
-10.444353	chileno saliente
-10.281231	chileno vender
-9.494601	china </s>
-10.002106	chocó cerca
-10.897184	choferes </s>
-10.897184	choques continuaran
-11.392396	choques tuvieron
-11.356826	ciega y
-11.362062	cielo abierto
-12.883955	ciento </s>
-11.711443	ciento dijo
-11.965151	ciento en
-11.247671	científicos han
-9.954641	científicos tratan
-10.897184	ciernen sobre
-13.111575	cierra los
-9.950385	cierre de
-9.601902	cierre en
-11.077018	cierto </s>
-10.897184	cierto revuelo
-12.280488	cifra de
-12.298290	cifra que
-10.863454	cifras aproximadas
-10.222063	cifras hacen
-10.283373	cifras sin
-11.261953	cifras son
-11.096486	cinco años
-10.324197	cinco dólares
-10.090985	cinco meses
-9.228664	ciudad de
-9.709025	ciudad del
-10.428353	civiles o
-11.934008	civilizados </s>
-10.264995	claro </s>
-10.609159	claro espaldarazo
-11.618005	clase el
-9.983268	clasificación de
-10.897184	claudio </s>
-9.908959	clausura del
-10.897184	clausuran locales
-10.545168	claves en
-10.707141	climáticos de
-11.065212	clinton a
-10.489489	clinton compara
-10.429341	clinton también
-13.125291	coalición de
-11.219028	coherencia </s>
-9.851181	colaboración debe
-11.650745	colaborar </s>
-10.897184	coleman </s>
-11.011395	colombia militares
-10.897184	colombo venezolano
-10.622289	colonos deben
-11.284416	colonos entren
-10.897184	colonos tomarían
-10.449301	columna aparecen
-11.512450	combates aéreos
-11.536903	combatir </s>
-10.979933	combustible nuclear
-9.913706	comedia la
-10.881048	comentado en
-11.026855	comentar </s>
-10.086857	comentario de
-10.355201	comentarios </s>
-10.188202	comentarios de
-10.182780	comentarios del
-10.897184	comentó bernardo
-11.363232	comentó en
-9.709658	comenzar </s>
-11.104561	comenzar a
-11.317767	comenzará el
-10.592182	comenzarán a
-11.829995	comerciales </s>
-10.918804	comercializó </s>
-11.585095	comercio </s>
-10.897184	comercio colombo
-10.640637	comienza hoy
-10.475884	comienzo del
-10.897184	comisionista </s>
-9.989162	comisión </s>
-11.366398	comisión consideró
-10.433813	comisión decidió
-10.990923	comisión determinará
-11.627687	comisión se
-10.477715	comisión serán
-10.828815	comisión tal
-12.342751	comité </s>
-10.534844	comité adoptará
-12.125259	comité decidió
-11.670232	comité especial
-11.341929	comité se
-11.555410	comité tenía
-11.530479	comités han
-11.160466	como candidato
-10.527240	como causa
-9.852102	como lo
-10.119813	como no
-11.449062	como quieran
-10.897184	como sensato
-8.606660	como un
-10.422677	como una
-10.728733	como ésta
-9.669155	como último
-10.346264	compara a
-11.838455	comparte esa
-11.578585	comparten la
-10.526204	compartieron esa
-10.111357	comparó con
-11.411612	compasión </s>
-9.403013	compatible </s>
-10.410892	compañía recurrió
-10.897184	compensatorias </s>
-11.444079	competitiva </s>
-11.732409	complace saber
-10.897184	complaciente </s>
-11.756845	complejo y
-9.712375	complejos </s>
-10.613855	completa normalidad
-11.147674	completan acuerdo
-11.445611	completo </s>
-11.944877	completo pero
-12.342123	completos de
-11.855737	completó reforma
-12.512589	complicadas en
-10.718563	composición de
-10.897184	compras compensatorias
-11.175241	comprende nuestra
-10.199317	comprendemos que
-10.784254	comprender su
-10.991126	comprenderse que
-10.897184	comprenderá el
-11.599390	comprendió lo
-9.701511	comprensión </s>
-10.034109	comprometido a
-10.171153	compromiso </s>
-9.911427	común tres
-10.893653	con actividad
-10.878609	con argentina
-11.041590	con china
-11.550237	con dificultades
-9.876749	con el
-10.893193	con ellos
-10.645530	con esa
-10.333285	con este
-10.365973	con esto
-10.897184	con galina
-10.897184	con grecia
-11.077366	con hechos
-10.145623	con la
-10.546714	con las
-10.537322	con los
-10.612162	con manada
-11.019495	con mi
-11.646312	con modestos
-10.503167	con mucha
-10.714833	con ninguna
-11.287824	con nosotros
-11.770294	con posterioridad
-10.872828	con pérdida
-11.095029	con seriedad
-10.232324	con su
-11.167831	con todo
-10.022441	con todos
-10.558220	con un
-11.474590	concebido el
-10.449262	concepto abstracto
-11.240766	concepto amplio
-10.306851	concepto de
-10.074350	conciencia agregó
-11.109999	conclusiones del
-12.002965	conclusión es
-10.231580	conclusión opuesta
-10.312909	concluye la
-10.897184	concluídas </s>
-10.286788	concluído así
-11.322725	concreta </s>
-10.886989	concreta para
-11.624671	concretos </s>
-11.468039	concretos que
-12.080130	concuerda con
-10.897184	concéntrese en
-11.126442	condena en
-10.897184	condenatorio no
-10.694297	condiciones </s>
-10.407029	condiciones favorables
-9.535637	condición de
-10.691043	conductor de
-11.276796	condujo supuestamente
-11.081821	conexión </s>
-10.887152	conferencia de
-10.846602	conferencia el
-10.626746	conferencia para
-10.393452	confianza en
-10.897184	confidenciales </s>
-11.641917	confirmado independientemente
-10.294714	conflictos se
-11.657719	conforme a
-10.629249	confuso e
-10.897184	congelarían los
-10.773558	congreso </s>
-9.477466	conoce a
-10.872592	conocen las
-10.086823	conocer sus
-10.897184	conocerla </s>
-11.488765	conocida </s>
-10.785077	conocido de
-11.131522	conocimiento del
-10.430578	consecuencia decidió
-10.099253	consecuencia no
-11.507183	consecutivos </s>
-11.437358	conseguir la
-10.984550	consejo </s>
-11.441727	consejo procedió
-10.679094	consejo tomará
-11.126560	consenso </s>
-11.476149	consenso internacional
-11.522717	conservación de
-10.463019	considera posible
-10.187703	considerablemente de
-9.868855	consideración de
-10.248160	consideró que
-10.897184	consignaciones adicionales
-11.810867	consiguiente esa
-10.424431	consiguiente les
-9.826628	consta de
-11.166681	constante </s>
-10.804250	constante dijo
-10.858010	constantemente </s>
-11.468577	constituirán la
-13.114482	constituye un
-11.042985	construcciones </s>
-10.680112	construir sobre
-11.285172	consulta </s>
-10.678483	consulta política
-10.897184	consumado de
-11.031651	consumo </s>
-10.897184	contactado para
-10.689680	contacto tan
-10.897184	contaduría </s>
-10.481873	contemplaba una
-11.992582	contenido de
-11.017261	conteo de
-10.897184	contestaron a
-12.360914	contextos </s>
-11.184002	continuaban pendientes
-11.055068	continuación </s>
-10.558062	continuación defendió
-11.396772	continuación quisiera
-10.833212	continuado </s>
-11.445055	continuar con
-10.154692	continuar el
-10.547937	continuar esta
-11.508330	continuar y
-10.897184	continuaran hoy
-10.897184	continuaremos actuando
-10.897184	continuarán negociando
-11.108458	continúa </s>
-10.897184	continúa diezmada
-10.861982	continúa en
-10.732208	continúa investigación
-10.581356	continúa siendo
-11.042832	continúe </s>
-11.532387	continúen las
-11.528913	contra aldeas
-10.779159	contra de
-10.897184	contra homero
-10.870024	contra los
-11.361670	contradicciones entre
-10.830693	contrario existe
-10.959843	control </s>
-11.371237	control de
-11.413663	controlado por
-10.984980	convencidos de
-10.792161	convención radical
-11.537392	conveniente recibir
-11.176423	conversaciones </s>
-11.164782	conversaciones abiertas
-11.229573	conversaciones de
-10.847758	cooperación </s>
-10.903765	cooperación económica
-10.655880	cooperación en
-11.903437	cooperación técnica
-10.877314	cooperación y
-10.643668	coordinación </s>
-9.686145	copa </s>
-10.344960	copia del
-11.802439	copiar </s>
-10.789176	copias de
-10.897184	cordinar el
-10.959656	correa </s>
-10.897184	correa asumiría
-10.509362	correcta </s>
-10.885393	correcta dijo
-10.963192	correctas </s>
-10.969749	correcto </s>
-11.373854	corregirse en
-9.821188	correr este
-12.241422	correspondientes al
-11.690204	correspondientes son
-11.246607	correspondía al
-11.048096	corro </s>
-10.897184	corros </s>
-11.771814	corrupción </s>
-9.852748	corrupción en
-11.016212	corrupción nadie
-10.129726	cortar la
-11.304175	corte decidirá
-10.897184	corte prohibe
-11.329472	corte suprema
-10.170183	cortes como
-11.409166	corto expresó
-11.622658	cosa </s>
-12.068870	cosas complicadas
-10.587879	cosas positivas
-11.072998	cosas y
-10.600545	costa de
-10.638863	costo social
-11.366298	costosas </s>
-10.157128	cotización </s>
-10.897184	cotizó en
-10.167429	creado una
-10.897184	crean venganzas
-11.021419	creciente tendencia
-11.614606	crecimiento de
-11.031010	crecimiento económico
-10.930813	cree que
-10.454401	creen que
-10.308619	creo que
-10.897184	creíamos que
-12.253042	creó pues
-10.152316	crisis </s>
-10.842913	crisis y
-10.542443	cristal para
-11.138764	criterios concretos
-11.936430	critica la
-10.897184	criticará al
-9.935026	crucial </s>
-9.288887	crudo </s>
-10.174283	cruzada de
-8.857430	crédito </s>
-10.918519	críticas contra
-10.897184	críticos galardona
-10.795211	críticos opinan
-11.582980	cuadro en
-11.905407	cuadro ha
-11.444458	cuadro ocho
-11.767772	cuadro seis
-11.559441	cuadros se
-11.072519	cual será
-10.511186	cualquier caso
-10.778889	cualquier encuesta
-10.897184	cuando blum
-11.117145	cuando quieren
-11.443998	cuando se
-10.738140	cuando uno
-10.897184	cuanto reanudemos
-10.687927	cuantos civiles
-11.037733	cuarenta horas
-10.935468	cuarta vez
-10.979658	cuatro años
-10.250768	cuatro grupos
-11.465583	cuatro personas
-11.348036	cuatro por
-10.506862	cuatro se
-9.847566	cuba tras
-10.456733	cubierta de
-11.633287	cuenta </s>
-11.237690	cuenta el
-10.980121	cuentas ni
-11.463430	cuesta cara
-9.907767	cuestionario </s>
-11.193196	cuestiones </s>
-10.265403	cuestiones se
-10.776175	cuestión </s>
-10.920318	cuestión de
-10.781342	cuestión es
-12.229921	cuestión fue
-12.092131	cuestión no
-11.278660	cuestión que
-11.571400	cuestión va
-10.919213	cuidadosamente su
-10.780609	cuidadosos </s>
-10.897184	cuidan de
-12.166033	culpable pero
-10.632415	culpables de
-10.098311	cultura del
-12.075211	cumplen </s>
-10.158017	cumplimiento significa
-10.697226	cumplir dicho
-11.233186	cumplirán períodos
-11.442557	curso otras
-11.034004	cursos de
-10.845233	cuál era
-11.638318	cuáles son
-11.677850	cuándo se
-10.897184	cuánta gente
-9.237724	cámara de
-10.897184	césar farias
-10.519284	cólera en
-11.296422	cómo se
-12.227281	daba lugar
-10.897184	dadi </s>
-11.228304	dado demasiado
-10.621071	dan detalles
-10.747048	dar a
-11.276230	dar pasos
-11.082411	dañados han
-10.484516	daños o
-8.807161	de acción
-8.675027	de acuerdo
-8.097435	de agua
-9.453730	de aguas
-10.897184	de américa
-11.656436	de anonimato
-11.833243	de antemano
-12.010476	de apagones
-12.083805	de aprobación
-10.763309	de atención
-11.723392	de atuendo
-11.471857	de autobús
-12.171335	de automóviles
-10.897184	de bancolombia
-10.897184	de bena
-10.897184	de bielorrusia
-10.897184	de bogotá
-9.570765	de bosques
-10.897184	de cachemira
-8.865442	de cada
-11.205013	de caldera
-9.405975	de captura
-9.939878	de carbón
-9.889568	de carga
-8.105730	de casos
-10.808613	de causas
-11.351729	de chiapas
-11.366081	de chile
-11.462019	de clinton
-10.042845	de colaboración
-10.598450	de colombia
-11.338610	de combustible
-10.941706	de comenzar
-11.306513	de compras
-12.062841	de confianza
-10.897184	de contaduría
-11.789707	de copiar
-11.896660	de correa
-11.630342	de corrupción
-9.133295	de costa
-8.392879	de crecimiento
-11.069170	de cristal
-9.697484	de crédito
-10.570698	de cuadro
-10.607093	de cuarenta
-11.588470	de cursos
-9.511230	de cólera
-10.528733	de daños
-11.610555	de defenderse
-11.638759	de definición
-9.120535	de depósitos
-10.065290	de derecha
-9.605730	de derechos
-8.837618	de desarrollar
-11.921536	de desmantelar
-11.937654	de dichas
-8.970314	de dicho
-9.789184	de dificultades
-8.062931	de dos
-9.723025	de duda
-8.926621	de dólares
-11.822025	de dónde
-8.330892	de edad
-9.927038	de ellas
-8.823216	de ello
-9.223350	de ellos
-10.897184	de elías
-9.083672	de enero
-9.604233	de enseñanza
-10.897184	de entel
-9.314498	de error
-9.172976	de esa
-9.711131	de esas
-12.013704	de escapar
-9.734654	de ese
-11.305335	de esos
-11.571129	de españa
-10.666866	de espera
-11.953305	de espuma
-9.574121	de esta
-8.558976	de estado
-8.779809	de estar
-9.153354	de estas
-8.830404	de este
-9.426987	de estos
-11.608660	de examen
-10.897184	de excelsior
-9.105795	de expresión
-10.897184	de extirpar
-11.916138	de extradición
-8.133348	de febrero
-11.864219	de financiera
-9.545308	de fines
-9.927373	de fondo
-9.660036	de frío
-12.467590	de fugitivo
-10.258655	de funciones
-10.897184	de georgia
-10.047752	de gobierno
-9.831168	de guerra
-9.171878	de hacer
-10.123745	de hacerlo
-9.355820	de hecho
-11.673901	de honduras
-9.633668	de hoy
-9.257312	de imagen
-10.187178	de importancia
-9.785138	de impuestos
-9.245255	de inmediato
-11.559607	de intención
-11.830791	de intensas
-10.897184	de intervencion
-9.894076	de interés
-10.967122	de israel
-10.897184	de janeiro
-10.897184	de jesús
-10.897184	de jubilaciones
-7.929928	de julio
-10.397796	de justificación
-5.426319	de la
-7.162931	de las
-10.218386	de leer
-11.315615	de lesiones
-8.281826	de llegar
-8.438552	de lo
-7.289061	de los
-11.980995	de madrid
-12.014859	de madurez
-10.255274	de magnitud
-11.504323	de manifestar
-9.618052	de mantenimiento
-11.909297	de marfil
-9.369643	de mayo
-12.531469	de mañana
-10.205838	de menores
-8.695665	de mi
-11.460004	de migrantes
-11.909671	de millonario
-9.604966	de momento
-10.704679	de monarquía
-11.130941	de moscú
-11.383727	de muerto
-10.272572	de muertos
-11.573125	de mí
-8.701969	de música
-11.848883	de negocios
-9.542519	de ninguna
-9.160484	de no
-9.053099	de nueve
-10.897184	de palencia
-10.299695	de papel
-8.227894	de paz
-12.221998	de pensiones
-11.650175	de perlas
-10.360230	de personal
-8.675521	de período
-8.856035	de pie
-9.973969	de piezas
-10.350183	de poderes
-9.281014	de por
-11.409594	de prensa
-11.515577	de preocupación
-8.809136	de primera
-11.990926	de privatizaciones
-8.497712	de problemas
-10.258584	de programas
-10.513239	de pronto
-10.491931	de página
-7.685289	de que
-10.524046	de queda
-10.897184	de racionamiento
-8.651921	de realizar
-11.073528	de reconstrucción
-11.439606	de recursos
-11.351109	de redacción
-10.918571	de reformas
-11.554226	de relator
-11.220477	de representantes
-9.255457	de reserva
-11.503302	de reses
-9.460627	de resolver
-9.603913	de respuesta
-11.621444	de rusia
-9.526263	de río
-9.674376	de salud
-11.967548	de sanciones
-11.729029	de santiago
-11.778986	de semana
-7.815689	de ser
-8.239127	de servicio
-11.854471	de sesiones
-10.897184	de sevilla
-9.253006	de siempre
-8.717834	de siete
-7.877996	de sistema
-8.285071	de su
-11.203770	de sumario
-9.444489	de sus
-8.701618	de sí
-8.460733	de tales
-9.626355	de tarde
-10.150635	de tasas
-9.065607	de teatro
-11.868326	de telmex
-11.580803	de tiroteo
-9.162187	de toda
-11.679294	de torta
-9.546844	de trabajo
-10.709453	de tragedias
-8.647012	de transporte
-10.300112	de treinta
-9.380453	de tres
-6.602829	de un
-8.373553	de una
-8.697195	de uno
-9.326680	de vida
-7.959548	de visión
-9.944595	de votos
-9.750601	de víctimas
-10.897184	de zulema
-9.560421	de énfasis
-8.525741	de éxito
-11.111778	debajo de
-10.897184	debamos ponernos
-11.088401	debate sobre
-10.853537	debatir con
-12.127773	debatió la
-11.220802	debe ampliarse
-11.755344	debe comprenderse
-11.384479	debe corregirse
-10.352595	debe encontrarse
-10.897184	debe examinarse
-11.401073	debe haber
-11.512859	debe plantearse
-10.015733	debe por
-10.807959	debe ser
-10.150889	debe tener
-10.897184	debemos desarmar
-11.569733	debemos llegar
-10.724132	debemos reaccionar
-10.823629	debemos seguir
-10.927610	deben comenzar
-11.241481	deben ser
-11.383574	deber dar
-11.022909	deberá evitarse
-11.936392	debería haber
-11.230288	deberían actualizar
-10.897184	deberían desglosarse
-10.981678	deberían tenerse
-10.950212	debido al
-10.897184	debieran ser
-10.408182	debió haber
-10.897184	debo agradecerle
-10.897184	debían reclutarlas
-10.897184	decenal de
-10.897184	decepcionar a
-10.582013	decida otra
-11.861327	decide no
-10.459759	decide sucesión
-11.266476	decidir </s>
-10.490152	decidirá </s>
-10.318564	decidirá quien
-11.316814	decidirá quién
-11.191536	decidió acceder
-12.273674	decidió descartar
-10.753328	decidió entonces
-11.233797	decidió mantener
-11.439472	decir del
-11.217327	decir gobernar
-10.480694	decir sí
-10.629433	decir verdad
-11.586965	decisiones por
-10.781497	decisiones se
-11.706397	decisión </s>
-11.266621	decisión agravó
-11.407193	decisión concreta
-10.765973	decisión no
-12.468178	decisión que
-11.076666	declara guerra
-10.965253	declaraciones en
-11.295297	declaración </s>
-11.275560	declaración anterior
-11.228151	declaración por
-9.938714	declaró </s>
-10.933089	declaró culpable
-10.897184	declinó comentar
-10.597656	decreto respectivo
-10.897184	defenderemos con
-11.426105	defenderse sostuvo
-9.970504	defendió a
-10.064137	defendió fuertemente
-10.862675	defensa propia
-11.806286	definiciones correspondientes
-10.382974	definición </s>
-10.237358	definitivamente abierto
-10.811674	definitivamente expresó
-10.856794	definitoria comentó
-10.897184	defraudar </s>
-10.897184	degeneren </s>
-9.407320	dejaba caer
-10.206619	dejar el
-9.777487	dejar la
-10.711967	dejará el
-11.442399	dejó ciega
-10.968505	del accidente
-11.314824	del acuerdo
-10.715096	del alto
-11.065918	del arbitraje
-11.755791	del arreglo
-10.533174	del artículo
-10.850702	del ataque
-11.105079	del atentado
-10.897184	del bósforo
-11.023360	del cabo
-11.649187	del campo
-10.676254	del carbón
-10.954326	del casino
