
\data\
ngram 1=2756
ngram 2=9321

\1-grams:
-0.8740571	</s>
-99	<s>	-0.9216215
-1.677958	a	-0.7538962
-7.205723	abajo
-7.205723	abandonada
-4.458275	abandonado	-0.3205827
-7.205723	abarcan
-4.157245	abastecimiento	-0.6181528
-4.458275	abatir	-0.3379494
-3.856215	abierta	-0.5727828
-4.458275	abiertas	-0.3332064
-3.981154	abierto	-0.4411009
-7.205723	abra
-4.458275	abrigamos	-0.3205827
-3.680124	abril	-0.5628805
-3.680124	abrió	-0.3772879
-7.205723	abstracto
-7.205723	abundan
-7.205723	aburrida
-3.981154	acaba	-0.794244
-7.205723	acaben
-3.981154	acaso	-0.5019604
-7.205723	acatamiento
-4.458275	acceder	-0.328751
-4.157245	acceso	-0.3284112
-3.504033	accidente	-0.9165378
-3.254155	acciones	-0.4458068
-3.680124	acción	-0.3880844
-4.458275	acelerar	-0.3219339
-7.205723	acento
-3.856215	aceptable	-0.5727828
-3.981154	aceptar	-0.8096546
-4.458275	aceptarla	-0.2756619
-7.205723	acepto
-4.157245	aceptó	-0.6216127
-4.458275	aclara	-0.3280555
-4.458275	aclararlo	-0.3373139
-7.205723	acomete
-4.458275	acontecimiento	-0.328751
-7.205723	acopla
-3.981154	acordaron	-0.5110063
-4.157245	acordó	-0.3280555
-7.205723	acortarán
-7.205723	acosta
-3.981154	actitud	-0.2371477
-3.759305	actividad	-0.3979751
-3.416883	actividades	-0.4757628
-4.458275	activo	-0.2756619
-7.205723	activos
-3.416883	acto	-0.6074624
-3.856215	actor	-0.8777219
-7.205723	actuaciones
-3.379094	actual	-0.4462034
-3.981154	actualidad	-0.7527831
-4.458275	actualizan	-0.3379343
-4.458275	actualizar	-0.3375107
-3.504033	actualmente	-0.4566466
-4.458275	actuando	-0.3373139
-3.981154	actuar	-0.5127385
-4.458275	actuaré	-0.3379494
-7.205723	acude
-4.458275	acuerdan	-0.3379494
-2.845491	acuerdo	-0.6878327
-3.856215	acusaciones	-0.8777219
-4.458275	acusados	-0.2756619
-3.680124	adelante	-0.5722896
-4.458275	adelanto	-0.2756619
-3.379094	además	-0.4813474
-3.981154	adicionales	-0.4372748
-4.458275	adiós	-0.3340921
-7.205723	adjudica
-4.458275	adjudicada	-0.328751
-3.555185	adjunta	-0.5532447
-7.205723	adjuntan
-3.759305	adjunto	-0.4372928
-7.205723	admite
-4.157245	adoptado
-4.458275	adoptará	-0.3373139
-4.157245	adoptarán	-0.6348779
-4.458275	aducía	-0.2756619
-7.205723	advirtió
-3.981154	aeropuerto	-0.4503024
-7.205723	aeropuertos
-7.205723	afectados
-4.157245	afiliación	-0.629781
-3.856215	afirma	-0.629039
-4.157245	afirmativo	-0.3287356
-3.254155	afirmó	-0.8466004
-4.458275	agencia	-0.2756619
-3.856215	agente	-0.8777219
-3.759305	agradecemos	-0.7107428
-4.157245	agradeceremos	-0.3254025
-4.458275	agradecerle	-0.328751
-3.856215	agradezco	-0.6154319
-4.157245	agrava	-0.3188957
-4.458275	agravó	-0.3205827
-2.544461	agregó	-1.866264
-4.458275	agresión	-0.3376772
-7.205723	agrupación
-4.157245	agrícola	-0.6388887
-3.981154	agua	-0.4517183
-4.458275	aguarda	-0.3378738
-7.205723	aguarme
-4.458275	aguas	-0.3262265
-7.205723	ahondar
-2.638731	ahora	-0.4067207
-7.205723	ahorra
-3.680124	ahí	-0.4423945
-4.157245	aislamiento	-0.6370702
-7.205723	ajustará
-2.290958	al	-0.6198015
-4.458275	albacora	-0.336723
-4.458275	aldeas	-0.2756619
-7.205723	alegatos
-3.555185	alemania	-0.4049597
-3.759305	alemán	-0.6733401
-4.458275	alfonsín	-0.3332064
-3.136056	algo	-0.6608412
-3.555185	alguna	-0.3928359
-3.613177	algunas	-0.3956373
-4.458275	alguno	-0.3171228
-3.060335	algunos	-0.4772704
-4.458275	alimentaria	-0.3378435
-4.458275	alla	-0.3340921
-7.205723	allen
-3.680124	allá	-0.7137602
-3.613177	allí	-0.6286187
-7.205723	alrededor
-3.504033	alta	-0.5590718
-3.856215	altibajos	-0.8777219
-3.504033	alto	-0.5047156
-3.981154	alvaro	-0.5076438
-3.613177	alza	-0.33274
-3.981154	amable	-0.5137836
-4.458275	amazónico	-0.2756619
-3.416883	ambas	-0.6386164
-3.282184	ambos	-0.4907447
-3.613177	amplia	-0.5124426
-3.856215	ampliado	-0.4386697
-4.458275	ampliamente	-0.3370261
-4.458275	ampliar	-0.3367079
-3.981154	ampliarse	-0.5009332
-3.613177	amplio	-0.8152571
-4.458275	amplitud	-0.3171228
-4.157245	américa	-0.3377831
-4.458275	analfabetos	-0.3340921
-4.458275	analista	-0.2756619
-4.458275	analizado	-0.3379191
-7.205723	analogía
-3.759305	anexo	-0.3351128
-3.856215	anexos	-0.2682346
-7.205723	anonadado
-4.458275	anonimato	-0.2756619
-3.227826	ante	-0.6773663
-3.759305	antemano	-1.034341
-3.981154	antenas	-0.5122226
-4.157245	anterior	-0.5766919
-3.981154	anticipado	-0.4487588
-4.458275	anticipó	-0.337435
-7.205723	antología
-4.458275	anual	-0.3340921
-4.458275	anunciado	-0.3372534
-4.458275	anunciados	-0.2756619
-4.458275	anunciar	-0.3377679
-4.157245	análisis	-0.5766919
-4.157245	apagones	-0.6389643
-7.205723	aparecen
-4.458275	aparentemente	-0.3378889
-4.458275	apelables	-0.3377074
-3.981154	apelación	-0.2605515
-7.205723	apelado
-3.981154	apertura	-0.2711891
-3.759305	aplicación	-0.5346035
-7.205723	aplicar
-7.205723	aportaciones
-3.379094	apoyo	-0.3728486
-7.205723	apremio
-3.613177	aprobación	-0.5136448
-7.205723	aprobado
-4.458275	aprobar	-0.3353715
-4.458275	aprobaron	-0.3254492
-3.282184	aprobó	-0.5683316
-4.458275	aproximadas	-0.3171228
-4.458275	aprueba	-0.3378435
-7.205723	apuntarán
-7.205723	aquella
-4.458275	aragón	-0.3345799
-4.458275	arbitraje	-0.2756619
-4.458275	aremisos	-0.328751
-3.759305	argentina	-0.5039147
-3.981154	argentino	-0.5015249
-3.981154	arias	-0.5030472
-3.856215	aristide	-0.616293
-3.981154	arma	-0.4517357
-4.458275	armamento	-0.3374048
-3.344332	armas	-1.001546
-4.458275	arrecian	-0.3378738
-3.759305	arreglo	-0.4128733
-7.205723	arrestado
-3.856215	arroz	-0.4517183
-4.458275	arte	-0.3332064
-4.458275	artistas	-0.3374653
-3.504033	artículo	-0.4773319
-7.205723	artículos
-4.458275	asalariados	-0.336723
-3.254155	asamblea	-0.6699651
-7.205723	ascenso
-4.157245	asegurado	-0.5766919
-7.205723	asesinar
-4.157245	aseveró	-0.5766919
-4.157245	asignación	-0.6382985
-4.157245	asimismo	-0.320567
-7.205723	asisten
-3.613177	asistencia	-0.550785
-7.205723	asociado
-7.205723	asombro
-3.759305	aspecto	-0.4516834
-4.157245	aspectos	-0.5766919
-4.157245	aspin	-0.6272565
-4.458275	assad	-0.2756619
-4.157245	astronautas	-0.3340769
-4.458275	asumiría	-0.3379191
-3.416883	asunto	-0.5779848
-3.981154	asuntos	-0.3261333
-2.824807	así	-0.5710714
-4.458275	atacar	-0.3369655
-3.555185	ataque	-0.6978977
-4.458275	ataúd	-0.2756619
-3.379094	atención	-0.4538199
-4.458275	atender	-0.3367079
-4.157245	atentado	-0.2515143
-3.856215	aterrizó	-0.4470294
-4.458275	atlanta	-0.3366017
-4.458275	atraer	-0.3379494
-4.458275	atraviesan	-0.3325334
-4.458275	atribuírlo	-0.328751
-3.981154	atrás	-0.4316271
-4.157245	atuendo	-0.5766919
-4.458275	audaz	-0.2756619
-4.458275	audiencias	-0.3370261
-4.157245	aumenta	-0.6364015
-3.981154	aumentado	-0.4836398
-3.981154	aumentaron	-0.4441838
-7.205723	aumentos
-3.680124	aumentó	-0.4129147
-4.458275	ausencia	-0.2756619
-4.458275	australiano	-0.2756619
-4.458275	autobús	-0.2756619
-4.458275	autoevaluaciones	-0.3262265
-4.458275	automóvil
-7.205723	automóviles
-3.759305	autor	-0.576622
-3.680124	autoridades	-0.5381777
-3.680124	avance	-0.449461
-7.205723	avancen
-4.458275	avances	-0.2756619
-3.981154	avanza	-0.508839
-4.157245	avanzado	-0.3248419
-4.458275	avaro	-0.3332064
-7.205723	avendaño
-4.458275	avisaremos	-0.3254492
-3.680124	avión	-0.4346325
-3.458275	ayer	-0.5277956
-3.203003	ayuda	-0.5952712
-4.458275	ayudará	-0.328751
-4.157245	aérea	-0.3171228
-3.981154	aéreos	-0.8025704
-3.344332	añadió	-1.077117
-3.060335	año	-0.4612782
-2.926796	años	-0.7882923
-2.786177	aún	-0.790275
-3.759305	baja	-0.3452767
-3.613177	bajaron	-0.564658
-4.458275	baje	-0.3377982
-3.458275	bajo	-0.3237784
-3.981154	bajos	-0.7527831
-3.856215	balladur	-0.6246079
-4.157245	bancario	-0.5766919
-3.254155	banco	-0.5613182
-7.205723	bancolombia
-3.555185	bancos	-0.5415967
-3.981154	basa	-0.4850321
-4.458275	basado	-0.3254492
-3.504033	base	-0.6552817
-3.856215	bastante	-0.335949
-7.205723	basándose
-3.680124	batalla	-0.4316271
-4.458275	batallones	-0.3254492
-7.205723	baviera
-4.458275	beca	-0.3360402
-7.205723	bena
-4.458275	bendiga	-0.328751
-3.981154	benítez	-0.4517183
-4.157245	berlín	-0.5766919
-7.205723	bernardin
-7.205723	bernardo
-4.458275	bielorrusia	-0.337904
-3.136056	bien	-0.4798734
-4.458275	bienvenida	-0.2756619
-4.157245	blancos	-0.5766919
-7.205723	blum
-4.157245	bogotá	-0.2701652
-4.157245	bola	-0.6181528
-4.458275	bomba	-0.2756619
-7.205723	bondes
-7.205723	bonn
-3.981154	bonos	-0.2756619
-4.458275	boquete	-0.3254492
-4.157245	borrador	-0.2515143
-7.205723	borrados
-3.555185	bosnia	-0.8776695
-7.205723	bosques
-3.254155	brasil	-0.5174225
-3.981154	brasileño	-0.3379192
-3.613177	breve	-0.485156
-3.981154	brevemente	-0.5134355
-7.205723	bruselas
-4.458275	buceador	-0.2756619
-3.759305	buen	-0.4342542
-3.981154	bueno	-0.3321198
-3.856215	busca	-0.4517706
-7.205723	buscamos
-3.856215	buscar	-0.3205827
-7.205723	básicos
-4.458275	bósforo	-0.2756619
-3.680124	cabe	-0.3376469
-3.613177	cabo	-0.551587
-3.981154	cabría	-0.3377377
-7.205723	cachemira
-2.981154	cada	-0.5870907
-4.157245	cadena	-0.3171228
-3.856215	caer	-0.4447497
-7.205723	cafetería
-3.981154	caja	-0.4276055
-3.458275	caldera	-0.4562303
-4.458275	calefacción	-0.2756619
-4.458275	calidad	-0.3171228
-4.157245	camacho	-0.6264792
-3.680124	cambiado	-0.7383047
-3.379094	cambio	-0.5654418
-3.282184	cambios	-0.3305335
-4.157245	cambió	-0.6387828
-4.157245	campamento	-0.2756445
-4.157245	campaña	-0.2726676
-4.157245	campeones	-0.638934
-3.856215	campo	-0.3050768
-4.458275	canalizó	-0.328751
-3.458275	canciller	-0.3482766
-3.981154	cancillería
-3.856215	candidato	-0.3227018
-3.680124	candidatos	-0.4488817
-3.613177	cantante	-0.4657024
-3.759305	cantidad	-0.7131711
-4.157245	capacidad	-0.3171228
-7.205723	capaz
-3.504033	capital	-0.6075904
-7.205723	captura
-3.981154	capítulo	-0.335706
-7.205723	cara
-3.981154	caracas	-0.5139953
-4.458275	caravana	-0.3379343
-3.981154	carbón	-0.7527831
-4.458275	cardona	-0.2756619
-4.157245	carece	-0.6181528
-4.458275	carga	-0.3374653
-3.856215	cargo	-0.6013186
-3.981154	carlos	-0.5139349
-4.157245	carnaval	-0.2689441
-7.205723	caro
-3.856215	carrera	-0.4542299
-3.555185	carta	-0.5525258
-3.856215	cartas	-0.4374692
-4.458275	carteles	-0.2756619
-3.504033	casa	-0.6153574
-4.157245	casas	-0.3340158
-3.504033	casi	-0.473146
-4.458275	casino	-0.2756619
-2.914207	caso	-0.4925405
-3.379094	casos	-0.5269157
-4.157245	casó	-0.636736
-7.205723	catedral
-3.555185	catorce	-0.4271809
-4.458275	católica	-0.3360402
-3.282184	causa	-0.9457542
-3.555185	causas	-0.6970696
-3.680124	causó	-0.6386467
-7.205723	cavallo
-3.981154	cayeron	-0.5005746
-4.157245	cañoneos	-0.6342365
-4.458275	ceda	-0.2756619
-4.458275	cedería	-0.3379494
-3.981154	celebración	-0.5060297
-4.458275	cenizas	-0.2756619
-3.416883	central	-0.6885079
-3.759305	centro	-0.794244
-7.205723	centroamérica
-3.504033	cerca	-0.9662716
-4.157245	cero	-0.3376469
-7.205723	cerrados
-4.458275	cerrar	-0.3378284
-7.205723	cerraron
-4.458275	cerrará	-0.3379191
-4.458275	cerveza	-0.3373139
-7.205723	cesación
-4.458275	cesar	-0.3345799
-7.205723	cese
-7.205723	cetáceos
-3.759305	chiapas	-0.6612653
-3.254155	chile	-0.6387707
-4.458275	chileno	-0.3379494
-3.555185	china	-0.6271477
-4.157245	chocó	-0.6388584
-4.458275	choferes	-0.2756619
-3.759305	choques	-0.4948851
-4.458275	ciega	-0.3332064
-4.458275	cielo	-0.2756619
-3.504033	ciento	-0.7133145
-4.458275	científicos	-0.336723
-7.205723	ciernen
-4.157245	cierra	-0.6373738
-3.680124	cierre	-0.468633
-3.680124	cierto	-0.3579491
-3.680124	cifra	-0.6364015
-3.458275	cifras	-0.4793051
-3.458275	cinco	-0.5045642
-3.344332	ciudad	-0.4839673
-3.856215	civiles	-0.5760108
-4.458275	civilizados	-0.2756619
-3.458275	claro	-0.5630427
-4.458275	clase	-0.3377982
-4.157245	clasificación	-0.6181528
-7.205723	claudio
-3.981154	clausura	-0.8112133
-4.458275	clausuran	-0.3379343
-4.458275	claves	-0.3254492
-7.205723	climáticos
-3.096547	clinton	-0.734572
-4.458275	coalición	-0.3171228
-4.458275	coherencia	-0.2756619
-3.981154	colaboración	-0.5120252
-4.458275	colaborar	-0.2756619
-7.205723	coleman
-3.416883	colombia	-0.813012
-7.205723	colombo
-7.205723	colonos
-4.458275	columna
-3.856215	combates	-0.5766395
-3.981154	combatir	-0.4316271
-7.205723	combustible
-7.205723	comedia
-7.205723	comentado
-4.458275	comentar	-0.3205827
-4.157245	comentario	-0.3373594
-3.416883	comentarios	-0.6860796
-3.344332	comentó	-0.5288295
-3.856215	comenzar	-0.5565658
-4.157245	comenzará	-0.3123701
-4.157245	comenzarán	-0.629781
-4.458275	comerciales	-0.3376772
-4.458275	comercializó	-0.2756619
-3.759305	comercio	-0.4706055
-4.157245	comienza	-0.3199213
-3.856215	comienzo	-0.572219
-4.458275	comisionista	-0.2756619
-2.995877	comisión	-0.5914403
-2.867211	comité	-0.6919899
-3.981154	comités	-0.5127537
-2.6322	como	-0.4570231
-7.205723	compara
-4.458275	comparte	-0.3367079
-4.157245	comparten	-0.6216127
-4.458275	compartieron	-0.3367079
-4.458275	comparó	-0.335706
-4.458275	compasión	-0.2756619
-4.458275	compatible	-0.2756619
-4.157245	compañía	-0.6389189
-4.458275	compensatorias	-0.2756619
-4.458275	competitiva	-0.2756619
-3.981154	complace	-0.5040076
-4.458275	complaciente	-0.2756619
-4.157245	complejo	-0.2701652
-7.205723	complejos
-3.504033	completa	-0.4954606
-7.205723	completan
-3.680124	completo	-0.750649
-4.458275	completos	-0.3171228
-4.458275	completó	-0.3378738
-4.458275	complicadas	-0.3254492
-7.205723	composición
-3.981154	compras	-0.3379494
-4.157245	comprende	-0.3216515
-4.157245	comprendemos	-0.6290855
-7.205723	comprender
-7.205723	comprenderse
-7.205723	comprenderá
-4.458275	comprendió	-0.3349607
-4.458275	comprensión	-0.2756619
-4.458275	comprometido	-0.328751
-3.981154	compromiso	-0.7527831
-3.555185	común	-0.8774775
-2.285089	con	-0.6901178
-4.458275	concebido	-0.3219339
-3.856215	concepto	-0.3763238
-4.458275	conciencia	-0.336723
-4.458275	conclusiones	-0.3280555
-3.981154	conclusión	-0.4517357
-3.981154	concluye	-0.3038847
-4.458275	concluídas	-0.2756619
-3.759305	concluído	-0.7191988
-4.157245	concreta	-0.2726676
-3.856215	concretos	-0.565234
-7.205723	concuerda
-4.458275	concéntrese	-0.3254492
-3.856215	condena	-0.4800741
-7.205723	condenatorio
-3.504033	condiciones	-0.3896925
-3.856215	condición	-0.436988
-4.157245	conductor	-0.3130591
-7.205723	condujo
-4.458275	conexión	-0.2756619
-3.344332	conferencia	-0.3527381
-3.856215	confianza	-0.3857431
-7.205723	confidenciales
-3.856215	confirmado	-0.3772455
-4.157245	conflictos	-0.315263
-4.458275	conforme	-0.328751
-7.205723	confuso
-7.205723	congelarían
-3.312147	congreso	-0.9277296
-3.680124	conoce	-0.4853068
-7.205723	conocen
-3.981154	conocer	-0.5068452
-4.458275	conocerla	-0.2756619
-3.981154	conocida	-0.7527831
-4.458275	conocido	-0.2756619
-3.981154	conocimiento	-0.3378889
-3.504033	consecuencia	-0.5459077
-7.205723	consecutivos
-7.205723	conseguir
-3.096547	consejo	-0.5792214
-3.282184	consenso	-1.150426
-7.205723	conservación
-4.458275	considera	-0.3370261
-4.458275	considerablemente	-0.3171228
-3.856215	consideración	-0.3917508
-4.157245	consideró	-0.6290855
-7.205723	consignaciones
-3.613177	consiguiente	-0.5187773
-3.856215	consta	-0.9191828
-3.981154	constante	-0.7527831
-4.157245	constantemente	-0.5766919
-4.157245	constituirán	-0.6216127
-3.759305	constituye	-0.5391777
-4.458275	construcciones	-0.2756619
-7.205723	construir
-3.680124	consulta	-0.6380106
-4.458275	consumado	-0.3171228
-7.205723	consumo
-7.205723	contactado
-3.856215	contacto	-0.37625
-4.458275	contaduría	-0.2756619
-7.205723	contemplaba
-4.458275	contenido	-0.3171228
-4.458275	conteo	-0.3171228
-7.205723	contestaron
-4.458275	contextos	-0.2756619
-3.981154	continuaban	-0.5098782
-3.312147	continuación	-0.7860782
-7.205723	continuado
-3.981154	continuar	-0.3293374
-4.458275	continuaran	-0.3373291
-4.458275	continuaremos	-0.3379494
-4.458275	continuarán	-0.337904
-3.555185	continúa	-0.4161341
-4.458275	continúe	-0.2756619
-4.458275	continúen	-0.3338327
-3.179522	contra	-0.6009392
-7.205723	contradicciones
-3.504033	contrario	-0.3921282
-3.981154	control	-0.4503199
-4.458275	controlado	-0.3338479
-4.458275	convencidos	-0.3171228
-3.759305	convención	-0.4711992
-3.759305	conveniente	-0.3279937
-3.504033	conversaciones	-0.6774645
-3.680124	cooperación	-0.5765347
-7.205723	coordinación
-3.981154	copa	-0.4462565
-3.759305	copia	-1.016093
-4.458275	copiar	-0.2756619
-4.458275	copias	-0.3171228
-7.205723	cordinar
-4.458275	correa	-0.3379494
-4.458275	correcta	-0.3345799
-7.205723	correctas
-4.157245	correcto	-0.5766919
-4.458275	corregirse	-0.3254492
-3.981154	correr	-0.449952
-4.458275	correspondientes	-0.3357364
-4.458275	correspondía	-0.3357364
-4.157245	corro	-0.5766919
-7.205723	corros
-3.856215	corrupción	-0.2601719
-4.458275	cortar	-0.3205827
-3.613177	corte	-0.5513157
-7.205723	cortes
-3.759305	corto	-0.4970043
-3.416883	cosa	-0.7010751
-3.458275	cosas	-0.2950301
-3.856215	costa	-0.3171228
-3.856215	costo	-0.3634002
-4.458275	costosas	-0.2756619
-4.458275	cotización	-0.2756619
-7.205723	cotizó
-7.205723	creado
-4.157245	crean	-0.6389643
-4.458275	creciente	-0.3378587
-3.680124	crecimiento	-0.5755036
-3.856215	cree	-0.9301155
-4.458275	creen	-0.3280555
-3.282184	creo	-1.504147
-7.205723	creíamos
-4.458275	creó	-0.3377377
-3.981154	crisis	-0.5766919
-4.157245	cristal	-0.6364015
-3.981154	criterios	-0.5033262
-4.458275	critica	-0.3205827
-4.458275	criticará	-0.3357364
-4.458275	crucial	-0.2756619
-3.856215	crudo	-0.8777219
-7.205723	cruzada
-7.205723	crédito
-3.680124	críticas	-0.422521
-7.205723	críticos
-3.856215	cuadro	-0.3144179
-4.458275	cuadros	-0.3272969
-4.458275	cual	-0.3321505
-3.379094	cualquier	-0.5576612
-3.227826	cuando	-0.5048165
-3.856215	cuanto	-0.4601429
-4.458275	cuantos	-0.337904
-7.205723	cuarenta
-7.205723	cuarta
-3.043302	cuatro	-0.4955026
-3.555185	cuba	-0.5573146
-4.458275	cubierta	-0.3338479
-3.379094	cuenta	-0.443699
-4.157245	cuentas	-0.2611835
-4.157245	cuesta
-4.458275	cuestionario	-0.2756619
-3.680124	cuestiones	-0.5693887
-3.011117	cuestión	-0.7042142
-3.981154	cuidadosamente	-0.4487588
-4.458275	cuidadosos	-0.2756619
-4.458275	cuidan	-0.3171228
-4.458275	culpable	-0.3361161
-4.157245	culpables	-0.2515143
-4.458275	cultura	-0.3340921
-4.458275	cumplen	-0.2756619
-4.458275	cumplimiento	-0.3378435
-3.981154	cumplir	-0.4515786
-4.458275	cumplirán	-0.337904
-4.458275	curso
-4.157245	cursos	-0.6181528
-3.613177	cuál	-0.4562472
-3.856215	cuáles	-0.9388133
-3.856215	cuándo	-0.6256848
-7.205723	cuánta
-3.981154	cámara	-0.3171228
-4.458275	césar	-0.3379494
-4.157245	cólera	-0.5766919
-3.555185	cómo	-0.4512429
-3.981154	daba	-0.4963591
-4.458275	dadi	-0.2756619
-3.856215	dado	-0.6389643
-4.458275	dan	-0.3219339
-3.680124	dar	-0.4866937
-4.157245	dañados	-0.637753
-3.254155	daños	-0.5896916
-1.32923	de	-0.699441
-4.458275	debajo	-0.3171228
-4.458275	debamos	-0.3379494
-3.203003	debate	-0.6514972
-4.458275	debatir	-0.335706
-4.458275	debatió	-0.3205827
-2.742272	debe	-0.7843872
-3.179522	debemos	-0.5542444
-3.379094	deben	-0.637662
-3.856215	deber	-0.3993249
-3.981154	deberá	-0.6389643
-3.504033	debería	-0.4613887
-4.157245	deberían	-0.3379494
-3.856215	debido	-0.6367055
-7.205723	debieran
-4.157245	debió	-0.6378592
-3.759305	debo	-0.3379494
-4.157245	debían	-0.336814
-7.205723	decenal
-4.458275	decepcionar	-0.328751
-4.458275	decida	-0.337662
-4.458275	decide	-0.3262265
-3.680124	decidir	-0.6193092
-4.157245	decidirá	-0.2756096
-3.759305	decidió	-0.434451
-3.344332	decir	-0.4479184
-3.379094	decisiones	-0.7480751
-3.458275	decisión	-0.5002783
-4.157245	declara	-0.3374351
-3.555185	declaraciones	-0.4122271
-3.416883	declaración	-0.6994324
-3.136056	declaró	-0.7502122
-7.205723	declinó
-3.759305	decreto	-0.4005483
-4.458275	defenderemos	-0.335706
-7.205723	defenderse
-3.981154	defendió	-0.3379191
-4.157245	defensa	-0.6181528
-4.458275	definiciones	-0.3379494
-7.205723	definición
-3.981154	definitivamente	-0.5085787
-4.458275	definitoria	-0.3377679
-4.458275	defraudar	-0.2756619
-4.458275	degeneren	-0.2756619
-7.205723	dejaba
-3.555185	dejar	-0.394715
-4.458275	dejará	-0.3219339
-3.759305	dejó	-0.4427272
-2.051735	del	-0.681437
-3.759305	delegaciones	-0.502178
-3.458275	delegación	-0.5014159
-4.458275	delegados	-0.3377679
-3.504033	demanda	-0.4595827
-7.205723	demandado
-4.157245	demandante	-0.2611835
-3.504033	demasiado	-0.5057832
-3.555185	democracia	-0.3757745
-7.205723	democráticamente
-3.981154	demora	-0.3377981
-3.856215	demás	-0.3378435
-7.205723	denunciarlo
-4.458275	departamento	-0.3254492
-4.458275	departamentos	-0.3262265
-3.680124	depende	-0.6139449
-4.458275	deportiva	-0.3171228
-4.458275	deprimido	-0.2756619
-7.205723	depósitos
-4.458275	derecha	-0.3379494
-3.136056	derecho	-0.9056011
-3.416883	derechos	-1.057343
-4.157245	derrame	-0.3170752
-7.205723	derrocamiento
-4.157245	desacuerdo	-0.273054
-4.458275	desalentadora	-0.2756619
-4.458275	desarmados	-0.2756619
-7.205723	desarmar
-7.205723	desarrollando
-4.157245	desarrollar	-0.6388433
-3.227826	desarrollo	-0.8012728
-4.458275	descarrilar	-0.3219339
-4.458275	descartado	-0.3219339
-4.458275	descartar	-0.3363438
-3.981154	desconoce	-0.493753
-4.458275	describen	-0.3379343
-3.981154	describir	-0.507214
-4.157245	describió	-0.6229639
-4.458275	describía	-0.3205827
-7.205723	descubrir
-3.136056	desde	-0.8486493
-3.254155	desea	-0.6243734
-4.157245	desempeña	-0.6350153
-4.458275	deseo	-0.328751
-4.458275	desfigurada	-0.2756619
-4.458275	desgarramiento	-0.3338479
-7.205723	desglosarse
-7.205723	desgraciadamente
-7.205723	designar
-4.458275	desmantelar	-0.3314144
-7.205723	desparición
-3.981154	desplazarán	-0.5139349
-4.157245	despojado	-0.6181528
-3.157245	después	-0.6257589
-3.981154	destacó	-0.4505999
-4.458275	destino	-0.3171228
-4.458275	destruídos	-0.2756619
-4.157245	desée
-4.458275	detalle	-0.3171228
-3.254155	detalles	-0.7176501
-4.157245	detenciones	-0.3144658
-3.555185	detenido	-0.6869176
-7.205723	determinación
-4.157245	determinado	-0.3254025
-4.458275	determinan	-0.3338479
-4.458275	determinarse	-0.3171228
-7.205723	determinará
-4.458275	detrimento	-0.3171228
-4.458275	detuvo	-0.3379191
-3.458275	deuda	-0.3944203
-3.759305	diario	-0.2616884
-7.205723	diarrea
-3.115853	dice	-0.7472073
-3.856215	dicen	-0.4389894
-3.981154	dichas	-0.3377226
-3.458275	dicho	-0.3126788
-4.157245	dichos	-0.3379494
-7.205723	dieciséis
-3.416883	diez	-0.5755386
-4.458275	diezmada	-0.2756619
-3.759305	diferencias	-0.4647739
-3.613177	diferentes	-0.8052514
-7.205723	diferido
-3.379094	dificultades	-0.7930087
-3.115853	difícil	-0.4346882
-4.458275	difíciles	-0.3332064
-4.157245	dije	-0.6290855
-3.856215	dijeron	-0.622383
-2.10997	dijo	-0.8257483
-3.203003	dinero	-1.00175
-3.379094	dio	-0.58483
-3.680124	dios	-0.4462761
-4.458275	diplomática	-0.2756619
-3.613177	diplomático	-0.6735845
-4.157245	diplomáticos	-0.3379343
-4.458275	diputado
-4.157245	dirección	-0.3321352
-3.981154	director	-0.8112133
-4.157245	directorio	-0.3130591
-3.856215	directrices	-0.6223516
-4.458275	dirige	-0.3379191
-4.458275	dirigentes
-7.205723	dirigió
-4.157245	dirigía	-0.3347323
-7.205723	disculpen
-3.856215	discutir	-0.5094506
-7.205723	discutiremos
-3.981154	discutirlo	-0.4513866
-7.205723	discutiéndolo
-4.458275	diseño	-0.3321505
-4.157245	disminución	-0.3039829
-4.157245	disparos	-0.5766919
-7.205723	dispensado
-4.157245	dispone	-0.6181528
-4.157245	disponible	-0.6364015
-4.157245	disposición	-0.33368
-3.856215	dispuestos	-0.930811
-4.458275	disputa	-0.337541
-4.157245	dista	-0.3165038
-4.157245	distinguido
-4.458275	distintos	-0.2756619
-7.205723	distraído
-4.458275	distribuirá	-0.3379343
-7.205723	disturbios
-7.205723	divergencias
-4.458275	diversidad	-0.3254492
-3.981154	diversión	-0.7527831
-3.759305	diversos	-0.434345
-4.157245	divida	-0.5766919
-4.458275	divididas	-0.2756619
-4.458275	dividido	-0.3254492
-7.205723	división
-7.205723	divulgado
-4.157245	divulgara	-0.6364015
-4.157245	diálogo	-0.3379191
-3.680124	doce	-0.4498994
-7.205723	doctrina
-3.856215	documento	-0.2601719
-4.458275	dolorosa	-0.2756619
-4.157245	dominar	-0.6229639
-7.205723	dominaron
-3.759305	domingo	-0.4819845
-7.205723	domingos
-4.458275	dominicano	-0.3377377
-4.157245	donde	-0.3368292
-2.504033	dos	-0.4696202
-7.205723	dosis
-3.680124	doy	-0.6131274
-7.205723	drogas
-3.555185	duda	-0.6011207
-4.458275	dudamos	-0.3280555
-4.458275	duración	-0.3340921
-3.416883	durante	-0.5223023
-7.205723	duraron
-4.458275	durarán	-0.3325334
-7.205723	dá
-7.205723	dándose
-4.458275	dé	-0.3339853
-4.458275	débil	-0.335706
-3.179522	día	-0.3385467
-3.203003	días	-0.7073762
-3.344332	dólar	-0.4270517
-3.344332	dólares	-0.8773028
-3.458275	dónde	-0.67903
-3.504033	e	-0.5135414
-4.458275	echó	-0.3379191
-3.555185	economía	-0.3947733
-4.157245	económica	-0.6387374
-7.205723	económicamente
-3.680124	económico	-0.436462
-4.157245	económicos	-0.6342365
-4.157245	edad	-0.6264792
-3.981154	edición	-0.5033107
-3.613177	edificio	-0.468633
-7.205723	edmundo
-3.759305	educación	-0.4511944
-7.205723	educadores
-7.205723	efectivamente
-3.981154	efectos	-0.2756619
-3.981154	efectuará	-0.500247
-4.458275	efectuó	-0.3339853
-3.856215	ejecución	-0.5746102
-7.205723	ejecutan
-3.282184	ejército	-0.6722784
-4.458275	ejércitos	-0.3262265
-1.440824	el	-0.7748668
-3.458275	elecciones	-0.6141772
-3.613177	elección	-0.5118226
-7.205723	electores
-4.458275	electos	-0.2756619
-3.981154	elegir	-0.8149345
-4.157245	elemento	-0.3379343
-7.205723	elgueta
-4.157245	eligen	-0.6384196
-4.157245	elijen	-0.6389643
-3.555185	ella	-0.5268062
-3.416883	ellas	-0.4463095
-2.786177	ello	-0.6486289
-2.981154	ellos	-0.4561141
-7.205723	eléctrica
-4.157245	eléctricos	-0.5766919
-7.205723	elías
-2.795517	embargo	-0.421019
-4.458275	emigrar	-0.3332064
-4.458275	emiten	-0.3379494
-3.981154	emotivo	-0.3379494
-7.205723	empates
-3.856215	empezado	-0.6134
-4.458275	empleadores	-0.3262265
-7.205723	empleará
-3.504033	empresa	-0.254236
-3.680124	empresarios	-0.4973885
-3.981154	empresas	-0.337662
-7.205723	empuja
-1.546585	en	-0.8044077
-4.458275	encarado	-0.2756619
-4.458275	encomendada	-0.3357364
-4.458275	encontraban	-0.3254492
-3.759305	encontrar	-0.4406475
-3.856215	encontrarse	-0.6264325
-3.680124	encuentra	-0.3250755
-3.981154	encuentran	-0.3378435
-3.856215	encuentro	-0.2754001
-4.458275	encuesta	-0.2756619
-7.205723	energía
-3.680124	enero	-0.9746319
-4.157245	enfatizó	-0.5766919
-3.504033	enfoque	-0.3852102
-7.205723	enfrenta
-4.157245	enmienda	-0.5766919
-3.856215	enmiendas	-0.3856167
-4.157245	enseñanza	-0.2756445
-7.205723	ensucian
-4.458275	entel	-0.337904
-4.157245	entender	-0.3186271
-7.205723	entendimiento
-3.227826	entonces	-0.4885896
-3.312147	entre	-0.4671277
-4.157245	entrega	-0.6351221
-4.157245	entregar	-0.6229639
-3.613177	entregó	-0.5340776
-7.205723	entren
-7.205723	entrenador
-7.205723	envases
-4.458275	envíamos	-0.3219339
-3.680124	envío	-0.6068238
-4.458275	epicentro	-0.2756619
-7.205723	epidemia
-3.613177	equipo	-0.4666871
-3.856215	equipos	-0.2976755
-3.026911	era	-0.4115297
-4.458275	eramos	-0.3378284
-3.555185	error	-0.2301699
-1.876212	es	-0.8524623
-2.539197	esa	-0.5949327
-2.824807	esas	-0.5178305
-7.205723	esbozan
-4.157245	escalas	-0.3254181
-4.458275	escapa	-0.328751
-7.205723	escapar
-4.157245	escasez	-0.6181528
-7.205723	escaso
-4.458275	escasos	-0.3378284
-7.205723	escogieron
-4.157245	escojo	-0.6216127
-4.458275	escritor	-0.3379191
-7.205723	escritora
-3.981154	escuché	-0.3212117
-4.458275	escépticos	-0.2756619
-2.687423	ese	-0.4524041
-3.759305	esencial	-0.5014938
-3.759305	esfera	-0.6600246
-3.981154	esfuerzos	-0.6216127
-2.835026	eso	-0.4264882
-3.096547	esos	-0.5739171
-4.157245	espacial	-0.5766919
-4.157245	espaldarazo	-0.6181528
-3.856215	españa	-0.6341141
-3.981154	español	-0.5117365
-3.981154	especial	-0.5013849
-7.205723	especialistas
-4.157245	especie	-0.2650096
-4.157245	especificó	-0.638465
-7.205723	espectáculo
-4.458275	especulación	-0.3378738
-7.205723	especuló
-4.458275	específicos	-0.2756619
-3.282184	espera	-0.8826649
-3.981154	esperaba	-0.2599187
-3.759305	esperamos	-0.4222814
-4.458275	esperan	-0.3353715
-3.504033	esperanza	-0.9047267
-7.205723	esperanzado
-3.555185	esperar	-0.6894735
-4.458275	esperarse	-0.2756619
-3.416883	espero	-0.879407
-3.856215	esposa	-0.3935105
-7.205723	espuma
-2.428891	esta	-0.6183778
-3.282184	estaba	-0.5798495
-3.379094	estaban	-0.437405
-4.157245	establece	-0.3325334
-7.205723	establecieron
-4.458275	establezca	-0.3376015
-7.205723	estación
-4.458275	estadio	-0.2756619
-3.026911	estado	-0.5904411
-3.312147	estados	-0.7933548
-3.759305	estadounidense	-0.451439
-4.458275	estallado	-0.2756619
-4.157245	estallaron	-0.638934
-2.901973	estamos	-0.5970633
-3.416883	estar	-0.4984171
-3.680124	estará	-0.3376469
-3.759305	estarán	-0.5014782
-3.179522	estas	-0.4635496
-4.458275	estatal	-0.2756619
-2.445438	este	-0.7318072
-4.458275	estero	-0.2756619
-7.205723	estimadas
-2.54979	esto	-0.5563738
-4.458275	estonia	-0.3379494
-2.953125	estos	-0.5380443
-3.981154	estrecho	-0.2711185
-7.205723	estrellarse
-3.981154	estructura	-0.7527831
-4.458275	estructuras	-0.3379494
-3.981154	estudia	-0.7527831
-4.157245	estudian	-0.6356099
-3.680124	estudio	-0.319464
-4.458275	estudios	-0.3353715
-3.555185	estuvo	-0.6206833
-2.539197	está	-0.6094816
-2.939761	están	-0.5062504
-3.981154	esté
-7.205723	eurodólares
-3.282184	europa	-0.7473571
-4.458275	europeo	-0.2756619
-7.205723	evaluaciones
-3.981154	evidente	-0.8051767
-4.157245	evidentemente	-0.320567
-7.205723	evitado
-4.157245	evitarse	-0.6216127
-7.205723	evitó
-4.458275	evoluciona	-0.3379343
-3.416883	ex	-0.4622678
-7.205723	exacerba
-7.205723	exacerbar
-3.344332	examen	-0.648425
-7.205723	examinadas
-4.458275	examinan
-4.157245	examinar	-0.3215415
-4.458275	examinarse	-0.3205827
-4.458275	excelsior	-0.2756619
-3.981154	excepción	-0.3353715
-4.458275	exceso	-0.3379494
-7.205723	excluyó
-4.458275	exhiben	-0.3379343
-3.555185	exige	-0.6843534
-4.458275	exigen	-0.3376923
-4.157245	exigió	-0.6290855
-3.458275	existe	-0.3419375
-4.157245	existían	-0.3375562
-4.458275	exitosa	-0.3378435
-4.157245	expectativas	-0.2515143
-3.613177	experiencia	-0.4021173
-4.157245	explica	-0.2571049
-4.157245	explicar	-0.6389492
-3.555185	explicó	-0.801173
-3.759305	explosión	-0.3578769
-7.205723	expresado
-7.205723	expresados
-4.458275	expresión	-0.3379191
-3.416883	expresó	-0.6895165
-3.759305	exterior	-0.6591235
-4.458275	extirpar	-0.3219339
-4.157245	extradición	-0.6351221
-4.458275	extranjeros	-0.2756619
-4.458275	extremadamente	-0.3376469
-7.205723	fabrica
-7.205723	fachada
-4.458275	facilidades	-0.3254492
-3.856215	factor	-0.4412518
-4.458275	factores	-0.2756619
-4.157245	fallecido	-0.6348779
-4.157245	fallo	-0.2711891
-3.344332	falta	-0.828117
-4.458275	fama	-0.3376167
-4.157245	familia	-0.5766919
-7.205723	familiares
-4.458275	farias	-0.2756619
-3.759305	favor	-0.5525442
-4.458275	favorables	-0.2756619
-4.458275	favorece	-0.3357364
-7.205723	favorecido
-7.205723	favoritos
-3.613177	febrero	-0.6268628
-3.115853	fecha	-0.6085316
-4.458275	fecsa	-0.3379494
-3.856215	federal	-0.3149921
-4.458275	fenosa	-0.3378587
-3.981154	fenómeno	-0.4402953
-7.205723	fernando
-4.157245	fernández	-0.5766919
-4.458275	festival	-0.2756619
-7.205723	festivo
-3.613177	figura	-0.5573123
-4.458275	fijan	-0.3219339
-3.981154	filipinas	-0.3224669
-4.157245	filme	-0.6370702
-4.458275	filosófico	-0.2756619
-3.555185	fin	-0.6662136
-3.613177	final	-0.4323758
-4.157245	finalidad	-0.5766919
-3.981154	financiera	-0.2514035
-4.157245	financieras	-0.5766919
-3.981154	finanzas	-0.7527831
-3.856215	fines	-0.4419663
-4.458275	finlandia	-0.3377074
-4.458275	firmado	-0.3338479
-4.157245	firmantes	-0.6370702
-4.458275	firmaremos	-0.3377074
-3.856215	firmeza	-0.5766919
-4.458275	flagrante	-0.3379494
-4.458275	flor	-0.3361161
-4.157245	flujo	-0.638934
-3.555185	fondo	-0.6211404
-3.759305	fondos	-0.794244
-3.078064	forma	-0.6023044
-3.856215	formación	-0.3762684
-4.458275	forman	-0.3374805
-3.981154	formato	-0.4931824
-4.458275	formularon	-0.3378435
-7.205723	forzosamente
-4.157245	fracasa	-0.6385407
-7.205723	fracasado
-4.458275	francas	-0.2756619
-3.856215	francfort	-0.5711951
-4.458275	francia	-0.3379494
-3.613177	francés	-0.4480553
-7.205723	franja
-7.205723	frecuencia
-4.458275	frecuente	-0.2756619
-7.205723	frenado
-3.613177	frente	-0.8705431
-3.856215	frío	-0.6385709
-2.354471	fue	-0.5038532
-4.458275	fuego	-0.3360402
-3.856215	fuente	-0.4419029
-3.555185	fuera	-0.9151191
-4.157245	fueran
-2.845491	fueron	-0.4581757
-3.613177	fuerte	-0.4922295
-3.981154	fuertemente	-0.4920546
-3.981154	fuertes	-0.5138289
-3.379094	fuerza	-0.5334613
-3.416883	fuerzas	-0.5493037
-4.458275	fugitivo	-0.3379343
-4.458275	fumaba	-0.3379494
-3.981154	funcionario	-0.3271884
-3.759305	funcionarios	-0.6181528
-4.157245	funciones	-0.5766919
-3.504033	futuro	-0.603623
-3.856215	fábrica	-0.6181528
-3.981154	físico	-0.4372748
-7.205723	fórmula
-7.205723	galardona
-4.458275	galería	-0.3171228
-4.157245	galina	-0.636736
-3.981154	gama	-0.4276055
-3.856215	gana	-0.6388281
-7.205723	ganado
-3.856215	ganando	-0.6229952
-3.981154	ganar	-0.5124806
-7.205723	gane
-7.205723	garcía
-3.759305	gas	-0.2402449
-3.759305	gastos	-0.4918902
-2.966913	general	-0.5956479
-4.157245	generales	-0.2755048
-4.458275	generar
-3.416883	gente	-0.3000248
-4.458275	georgia	-0.3360402
-4.458275	germán	-0.3379494
-4.458275	gestos	-0.3219339
-7.205723	gigantes
-3.981154	ginebra	-0.7527831
-3.856215	global	-0.6131594
-7.205723	gobernar
-7.205723	gobierna
-2.795517	gobierno	-0.4701544
-3.981154	gobiernos	-0.7527831
-7.205723	goles
-3.856215	golfo	-0.939964
-4.458275	golpeados	-0.3359339
-4.458275	golpizas	-0.3262265
-4.458275	golán	-0.328751
-4.458275	gonzález	-0.3345799
-7.205723	goycochea
-3.856215	gracias	-0.3254492
-3.981154	graciela	-0.4516659
-2.981154	gran	-0.5792452
-4.458275	grato	-0.337904
-4.458275	grecia	-0.2756619
-7.205723	grito
-3.096547	grupo	-0.5773448
-3.981154	grupos	-0.2711891
-4.157245	guayaquil	-0.3339395
-4.458275	gubernamental	-0.2756619
-3.203003	guerra	-0.5050223
-7.205723	guerrillero
-7.205723	guerrilleros
-3.856215	gusta	-0.6229481
-4.157245	gusto	-0.6348779
-2.227826	ha	-0.7991747
-4.458275	habanos	-0.3375561
-3.254155	haber	-0.4183349
-3.504033	habido	-0.4298106
-7.205723	habitual
-4.458275	habla
-3.759305	hablando	-0.533914
-3.458275	hablar	-0.6104394
-4.157245	habló	-0.3285966
-3.504033	habrá	-0.4058114
-3.458275	habría	-0.7210019
-2.914207	había	-0.4411768
-3.011117	hace	-0.562165
-3.555185	hacen	-0.5201629
-2.805063	hacer	-0.6540205
-3.254155	hacerlo	-0.7450728
-3.759305	hacia	-0.4143658
-3.555185	haciendo	-0.4430913
-3.981154	hagan	-0.3345952
-7.205723	hago
-2.544461	han	-0.6962231
-3.613177	hará	-0.4635045
-4.157245	harán	-0.3235467
-2.953125	hasta	-0.8502465
-2.33117	hay	-0.6611169
-3.096547	haya	-0.4993408
-3.026911	he	-0.4749479
-3.011117	hecho	-0.3454231
-3.680124	hechos	-0.5582077
-3.026911	hemos	-0.6642789
-4.458275	henríquez	-0.2756619
-4.458275	herida	-0.3360402
-3.555185	heridas	-0.5403841
-3.504033	heridos	-0.6025885
-3.759305	hice	-0.6383591
-3.759305	hicimos	-0.53534
-7.205723	hidroeléctrica
-3.680124	hija	-0.421568
-4.157245	hijas	-0.5766919
-4.157245	hijo	-0.2754176
-3.981154	hijos	-0.3291368
-3.856215	historia	-0.576622
-4.157245	histórico	-0.5766919
-3.136056	hizo	-0.4177539
-3.759305	hogar	-0.6263546
-3.282184	hombre	-0.5326123
-4.458275	homero	-0.2756619
-4.458275	homicidio	-0.2756619
-3.504033	honduras	-0.6251545
-4.157245	honor	-0.6264792
-3.856215	hora	-0.5525442
-7.205723	horacio
-7.205723	horarios
-3.856215	horas	-0.5763427
-7.205723	horno
-4.157245	hornos	-0.6389643
-3.981154	horrible	-0.5093894
-4.458275	horriblemente	-0.3379494
-3.504033	hospital	-0.4942755
-2.835026	hoy	-0.4721349
-3.458275	hubiera	-0.5134354
-4.458275	hubieran	-0.3379343
-2.890074	hubo	-0.5638483
-3.981154	huelga	-0.6181528
-3.981154	humanidad	-0.5127537
-3.504033	humanos	-0.7285617
-7.205723	humildemente
-7.205723	huída
-4.458275	iberdrola	-0.3332064
-3.759305	idea	-0.4062063
-4.157245	ideas	-0.6342365
-3.856215	identidad	-0.5525442
-7.205723	identifican
-3.981154	ido	-0.3379494
-4.458275	idénticos	-0.2756619
-4.458275	ignoraba	-0.3254492
-4.458275	ignorado	-0.3338479
-3.981154	igual	-0.5135717
-7.205723	igualdad
-3.981154	igualmente	-0.5047342
-4.458275	ilaria	-0.3375561
-4.157245	ilusiones	-0.2730891
-4.458275	imagen	-0.3171228
-7.205723	imaginación
-7.205723	imitado
-3.981154	impidió	-0.4947183
-7.205723	implantara
-4.157245	importa	-0.6377227
-4.458275	importaba	-0.2756619
-3.613177	importancia	-0.5660216
-3.078064	importante	-0.6375104
-3.613177	importantes	-0.8052514
-7.205723	impositivas
-4.157245	improvisados	-0.5766919
-3.504033	impuestos	-0.6121012
-4.458275	impulsar	-0.337904
-3.981154	impuso	-0.4953344
-7.205723	inaceptable
-7.205723	inaplicable
-4.458275	incautaron	-0.3314144
-3.981154	incendio	-0.4372748
-4.458275	incentivo	-0.2756619
-4.458275	incentivos	-0.3353715
-7.205723	inciertas
-3.613177	incluso	-0.5736382
-3.680124	incluye	-0.6047838
-4.458275	incursiones	-0.3376772
-7.205723	indebido
-4.458275	independencia	-0.3171228
-7.205723	independientemente
-3.613177	indica	-0.6126778
-3.680124	indican	-0.3731251
-4.157245	indicios	-0.6181528
-3.282184	indicó	-0.7390618
-4.157245	indios	-0.6379804
-7.205723	indique
-7.205723	indispensable
-4.458275	inductivo	-0.2756619
-3.680124	industria	-0.4891504
-4.458275	industrializados	-0.3374653
-7.205723	inevitable
-3.555185	inflación	-0.5456641
-4.157245	influencia	-0.3369807
-3.026911	información	-0.6814102
-4.157245	informado	-0.6290855
-4.458275	informados	-0.3332064
-3.115853	informe	-0.4730917
-3.312147	informes	-0.4755657
-3.157245	informó	-0.9062389
-4.458275	inglaterra	-0.2756619
-3.981154	inglés	-0.7527831
-3.856215	inicia	-0.3170117
-4.458275	inician	-0.3379191
-3.504033	iniciativa	-0.4232857
-7.205723	iniciativas
-3.379094	inmediato	-0.5032901
-4.157245	inmediatos	-0.2515143
-7.205723	inquieto
-7.205723	inscriben
-4.458275	insiste	-0.3254492
-7.205723	insistió
-4.458275	inspectores	-0.3379494
-4.157245	insta	-0.629781
-4.458275	instalaciones	-0.3171228
-4.458275	instalan	-0.3378587
-7.205723	institucionaliza
-4.458275	integra	-0.3219339
-4.157245	intelectual	-0.5766919
-3.856215	intención	-0.3864649
-7.205723	intensas
-7.205723	intentaran
-3.759305	intento	-1.016093
-7.205723	interbancaria
-3.856215	interesados	-0.9275092
-3.981154	interior	-0.4276055
-7.205723	interna
-3.227826	internacional	-0.7527214
-4.157245	internacionales	-0.5766919
-7.205723	intervencion
-4.458275	interventor	-0.3254492
-3.504033	interés	-0.6132036
-4.458275	intolerable	-0.3321505
-4.458275	inutilizables	-0.2756619
-4.458275	inventado	-0.3325334
-7.205723	inversiones
-7.205723	inversionistas
-3.856215	investigaciones	-0.4372748
-3.759305	investigación	-0.4685024
-4.458275	invierno	-0.2756619
-3.981154	ir	-0.629781
-7.205723	irreal
-4.157245	irregular	-0.3231245
-4.458275	irrelevante	-0.3345799
-4.458275	irá	-0.328751
-4.157245	irán	-0.6387526
-7.205723	iría
-3.555185	israel	-0.4927203
-4.458275	israelíes	-0.2756619
-3.981154	italia	-0.2686958
-7.205723	itinerario
-7.205723	jaime
-7.205723	janeiro
-4.458275	japoneses	-0.3377225
-3.759305	japonés	-0.4829962
-3.555185	japón	-0.3874193
-7.205723	jerusalén
-4.458275	jerárquicas	-0.3374653
-7.205723	jesús
-7.205723	juan
-4.458275	jubilaciones	-0.2756619
-3.613177	juega	-0.7227819
-3.416883	juego	-0.797772
-3.759305	jueves	-0.6733401
-4.458275	jugado	-0.3254492
-3.613177	jugar	-0.50283
-4.458275	jugará	-0.3219339
-4.157245	juicio	-0.2756619
-4.458275	juicios	-0.3370261
-3.981154	julio	-0.4411009
-3.981154	junio	-0.4478441
-3.680124	junta	-0.4930025
-3.759305	jurado	-0.6701329
-4.458275	jurista	-0.3171228
-4.157245	justa	-0.638934
-3.680124	justicia	-0.6721686
-4.157245	justifica	-0.3345647
-3.981154	justificación	-0.4996535
-4.458275	justificadas	-0.2756619
-3.555185	juventud	-0.4570709
-1.406351	la	-0.8070362
-3.458275	labor	-0.5721661
-4.458275	lacalle	-0.3379343
-4.458275	ladra	-0.3205827
-4.458275	lamenta	-0.335706
-7.205723	lamentaba
-7.205723	lamentablemente
-4.458275	lamentó	-0.3205827
-4.458275	lanzarse	-0.3377377
-3.759305	largo	-0.7147772
-2.023706	las	-0.7363303
-4.458275	latina	-0.3378435
-2.824807	le	-0.5911886
-4.157245	leer	-0.3200631
-7.205723	legal
-4.458275	legalizar	-0.3205827
-4.458275	lejos	-0.3254492
-7.205723	lengua
-3.981154	lento	-0.4462565
-4.157245	lentos	-0.5766919
-3.254155	les	-0.4338907
-4.157245	lesionadas	-0.5766919
-3.856215	lesionados	-0.5711951
-7.205723	lesiones
-4.458275	lesión	-0.3262265
-4.458275	levantando	-0.3219339
-3.981154	leve	-0.3151036
-3.555185	ley	-0.5755736
-7.205723	liberal
-7.205723	liberarían
-3.613177	libertad	-0.496944
-3.981154	libre	-0.2581236
-7.205723	lienzo
-3.981154	liga	-0.5127537
-7.205723	ligera
-3.759305	ligeramente	-0.4772383
-7.205723	limitado
-4.157245	limitados	-0.5766919
-7.205723	limitan
-7.205723	linares
-4.157245	liquidar	-0.6388131
-3.555185	lista	-0.5525258
-4.157245	listas	-0.305924
-4.458275	llamarse	-0.3379494
-4.458275	llameante	-0.3379343
-7.205723	llamó
-3.613177	llega	-0.4545513
-3.504033	llegado	-0.7710316
-3.282184	llegar	-1.201536
-3.981154	llegue	-0.8058722
-3.555185	llegó	-0.928535
-4.458275	lleras	-0.3171228
-4.458275	llevaría	-0.328751
-7.205723	llevé
-7.205723	llevó
-2.16161	lo	-0.865537
-4.157245	local	-0.6388282
-4.157245	locales	-0.3047995
-4.458275	localizó	-0.3219339
-4.157245	logrado	-0.3321352
-4.157245	lograr	-0.6335634
-3.981154	logros	-0.5010734
-4.458275	logísticamente	-0.3377528
-4.157245	londres	-0.5766919
-1.824807	los	-0.711922
-3.613177	lucha	-0.4970392
-3.416883	luego	-0.524997
-3.157245	lugar	-0.6739581
-7.205723	lugares
-3.458275	lunes	-0.7392059
-3.680124	líder	-0.2515143
-3.759305	líderes	-0.3171228
-4.458275	límite	-0.3171228
-4.157245	línea	-0.3170911
-7.205723	lógicamente
-4.458275	madrazo	-0.3262265
-3.759305	madrid	-0.4462565
-4.458275	madurez	-0.3345799
-4.458275	maestra	-0.3332064
-3.856215	magnitud	-0.7527831
-3.759305	mal	-0.5444723
-3.981154	mala	-0.7527831
-4.458275	malas	-0.3378284
-7.205723	malo
-7.205723	manada
-3.555185	mandato	-0.3997403
-7.205723	mandela
-3.680124	manera	-0.4295097
-4.458275	manifestar	-0.3371625
-4.157245	maniobra	-0.5766919
-4.157245	maniobras	-0.31698
-4.458275	mantendrán	-0.2756619
-3.504033	mantener	-0.6690561
-4.458275	manteniendo	-0.3353715
-4.157245	mantenimiento	-0.6181528
-3.759305	mantiene	-0.3977589
-4.458275	mantuvieron	-0.3379494
-3.856215	mantuvo	-0.6242326
-4.458275	mapuche	-0.2756619
-4.458275	mar	-0.2756619
-4.458275	marcador	-0.3373442
-4.458275	marchaba	-0.3254492
-3.856215	marco	-0.4930872
-4.458275	marcos	-0.2756619
-4.458275	marfil	-0.2756619
-4.157245	margen	-0.3170435
-4.458275	marismas	-0.3262265
-3.680124	martes	-0.7392059
-3.680124	marzo	-0.477348
-7.205723	masiva
-4.157245	matar	-0.629781
-3.613177	materia	-0.8429363
-4.157245	material	-0.6290855
-7.205723	materialize
-7.205723	mayo
-3.115853	mayor	-0.6791425
-4.157245	mayores	-0.3377982
-7.205723	mayormente
-3.379094	mayoría	-1.358516
-3.344332	mañana	-0.659926
-2.750705	me	-0.591429
-7.205723	mecanismos
-3.759305	media	-0.7148724
-4.157245	medianoche	-0.2711891
-3.759305	mediante	-0.4910196
-4.458275	medicina	-0.2756619
-3.458275	medida	-0.5517872
-3.344332	medidas	-0.3854063
-3.759305	medio	-0.7109991
-7.205723	mediocampo
-3.680124	medios	-0.3761577
-3.179522	mejor	-0.4400533
-4.157245	mejorado	-0.5766919
-4.458275	mejoramiento	-0.3379191
-3.981154	mejoran	-0.3176301
-3.759305	mejorar	-0.4085097
-3.504033	mejores	-0.5135565
-4.458275	memorando	-0.3361617
-4.157245	menciona	-0.6383591
-4.458275	mencionado	-0.2756619
-4.157245	mencionar	-0.6379955
-3.458275	menem	-0.3752152
-4.157245	menores	-0.5766919
-3.179522	menos	-0.6153042
-4.157245	mensuales	-0.5766919
-3.981154	menudo	-0.4939431
-4.157245	mera	-0.638934
-2.901973	mercado	-0.548364
-4.157245	mercados	-0.275627
-7.205723	mercosur
-7.205723	mercouri
-3.856215	mesa	-0.8777219
-3.254155	meses	-1.175775
-7.205723	meta
-2.733999	mi	-0.5556173
-3.856215	miedo	-0.5766919
-4.157245	miembro	-0.6351221
-3.416883	miembros	-0.8157672
-3.981154	mientras	-0.4976642
-4.458275	migrantes	-0.2756619
-3.555185	miguel	-0.5764475
-7.205723	miguelito
-3.981154	mil	-0.5138289
-3.458275	militar	-0.681468
-3.856215	militares	-0.4276055
-7.205723	millonario
-3.312147	millones	-1.160918
-7.205723	milán
-7.205723	mina
-4.458275	mineros	-0.3379494
-4.458275	ministerial	-0.2756619
-3.981154	ministerio	-0.5101528
-3.254155	ministro	-0.6612244
-4.458275	ministros	-0.2756619
-4.458275	minucioso	-0.3379191
-7.205723	minuto
-7.205723	mir
-3.856215	mis	-0.3364652
-4.458275	misericordia	-0.3262265
-3.613177	misma	-0.6433768
-3.759305	mismas	-0.3379494
-2.914207	mismo	-0.4590098
-4.458275	mitad	-0.2756619
-3.981154	miércoles	-0.3121134
-3.680124	moción	-0.6006916
-4.157245	modelo	-0.3074513
-4.458275	modelos	-0.3171228
-3.856215	moderado	-0.6331805
-4.458275	modernos	-0.3262265
-7.205723	modestos
-7.205723	modificó
-7.205723	molesta
-3.011117	momento	-0.3779539
-4.157245	momentos
-4.458275	monarquía	-0.2756619
-7.205723	monografías
-7.205723	monopolio
-4.458275	monselas	-0.3378435
-4.458275	montenegro	-0.2756619
-7.205723	morirá
-3.680124	moscú	-0.3968852
-3.981154	mostró	-0.5086094
-3.504033	motivo	-0.6028473
-4.458275	moverlo	-0.3377982
-3.680124	mucha	-0.4327072
-4.458275	muchacha	-0.3379494
-3.504033	muchas	-0.5387812
-2.867211	mucho	-0.5626781
-2.981154	muchos	-0.4986933
-3.856215	muere	-0.6241857
-4.458275	mueren
-3.981154	muerte	-0.4505824
-4.458275	muerto	-0.2756619
-3.981154	muertos	-0.5766919
-4.157245	muestra	-0.3244834
-4.157245	muestras	-0.6371765
-3.613177	mujer	-0.4188659
-3.379094	mujeres	-0.7017332
-7.205723	multas
-4.157245	mundiales	-0.5766919
-3.282184	mundo	-0.5024124
-3.504033	murieron	-0.6280945
-3.680124	murió	-0.5498238
-4.458275	murmura	-0.2756619
-7.205723	musulmanes
-2.665884	muy	-0.4442513
-2.379094	más	-0.5249224
-4.458275	mástil	-0.3369655
-3.981154	médica	-0.7527831
-3.759305	médicos	-0.8777219
-3.504033	méxico	-0.5562915
-3.458275	mí	-0.4901011
-3.458275	mínimo	-0.7877811
-4.458275	múltiples	-0.3367533
-7.205723	música
-7.205723	nacido
-4.157245	nacional	-0.2515143
-4.458275	nacionalidades	-0.2756619
-3.458275	naciones	-0.9744923
-3.981154	nación	-0.5017116
-3.043302	nada	-0.515575
-3.060335	nadie	-0.4932438
-3.759305	naturales	-0.9746319
-3.981154	nave	-0.5033572
-4.458275	naves	-0.3272969
-4.157245	necesaria	-0.6181528
-3.613177	necesario	-0.4513865
-3.856215	necesidad	-0.6181052
-7.205723	necesidades
-3.759305	necesitamos	-0.5530022
-3.613177	necesitan	-0.415379
-7.205723	necesitarían
-3.759305	negaron	-0.447938
-4.458275	negativamente	-0.3254492
-3.856215	negativo	-0.5765522
-3.613177	negociaciones	-0.6735845
-3.856215	negociando	-0.5740839
-4.458275	negocio	-0.2756619
-3.613177	negocios	-0.6396768
-7.205723	negra
-3.555185	negó	-0.4253757
-3.981154	neta	-0.8124927
-3.096547	ni	-0.5138049
-3.555185	niega	-0.7257634
-4.157245	niegan	-0.6290855
-3.078064	ninguna	-0.4618686
-3.680124	ninguno	-1.095274
-3.227826	ningún	-0.4154188
-3.613177	nivel	-0.4733446
-3.856215	niveles	-0.3764345
-3.981154	niño	-0.4276055
-3.379094	niños	-0.6949781
-1.574046	no	-0.8335063
-3.416883	noche	-0.4590156
-7.205723	nombrado
-4.458275	nombraron	-0.3379494
-3.981154	nombre	-0.3231557
-4.458275	nominal	-0.3361617
-4.458275	norcoreanas	-0.3379494
-3.759305	normal	-0.6696929
-4.458275	normalidad	-0.2756619
-4.157245	normas
-3.759305	norte	-0.3475378
-4.157245	norteamericano	-0.2755921
-2.878492	nos	-0.4422042
-3.227826	nosotros	-0.7378535
-3.504033	nota	-0.3128829
-3.981154	notable	-0.4517183
-7.205723	notas
-4.157245	noticia	-0.5766919
-4.157245	noticias	-0.3331453
-4.458275	novecientos	-0.3379494
-4.458275	novedad	-0.3254492
-4.458275	novedades	-0.3272969
-4.157245	noviembre	-0.2717529
-4.157245	nuclear	-0.5766919
-4.458275	nucleares	-0.2756619
-7.205723	nueces
-3.203003	nuestra	-0.5335026
-3.856215	nuestras	-0.5138289
-3.078064	nuestro	-0.5840271
-3.856215	nuestros	-0.3378586
-3.613177	nueva	-0.3369049
-3.759305	nuevamente	-0.4963224
-3.613177	nuevas	-0.337662
-3.680124	nueve	-0.5088542
-2.878492	nuevo	-0.4518948
-3.458275	nuevos	-0.4789959
-7.205723	numerosas
-4.458275	numerosos	-0.3379343
-3.179522	nunca	-0.5193377
-2.867211	o	-0.5246853
-3.416883	objetivo	-0.4101562
-3.981154	objetivos	-0.4276055
-3.504033	objeto	-0.7898921
-4.458275	obra	-0.3171228
-4.458275	obras	-0.3171228
-3.856215	observaciones	-0.5660395
-3.458275	obstante	-0.4036234
-4.458275	ocasiones	-0.2756619
-7.205723	ocasión
-7.205723	occidental
-4.458275	occidente	-0.3377377
-3.344332	ocho	-0.480134
-3.981154	ocupa	-0.4763799
-7.205723	ocupaban
-4.458275	ocupados	-0.3254492
-4.157245	ocurre	-0.324951
-4.458275	ocurrir	-0.2756619
-4.458275	ocurrirá	-0.335706
-7.205723	oeste
-7.205723	ofendido
-3.856215	oferta	-0.6181528
-3.504033	oficial	-0.5776768
-3.680124	oficiales	-0.4883811
-3.312147	oficina	-0.6279084
-3.981154	ofrece	-0.3167102
-4.458275	ofrecer	-0.3325334
-4.458275	ofrecimiento	-0.2756619
-4.458275	ofreció	-0.3369504
-4.458275	olvidar	-0.3353715
-4.458275	omar	-0.3379494
-4.157245	omisión	-0.2752429
-7.205723	onza
-3.981154	opciones	-0.4462565
-3.680124	opción	-0.4140353
-3.981154	operaciones	-0.4943546
-3.856215	operación	-0.3378889
-7.205723	operar
-7.205723	opinan
-3.680124	opiniones	-0.5524151
-3.379094	opinión	-0.6051245
-4.458275	opinó	-0.3280555
-3.981154	oposición	-0.4513866
-4.157245	opositores	-0.628327
-7.205723	optativo
-3.856215	optimista	-0.5711951
-3.680124	optimistas	-0.4385898
-4.458275	opuesta	-0.2756619
-3.981154	orador	-0.6181528
-7.205723	oradores
-7.205723	orcas
-3.981154	orden	-0.794244
-4.458275	ordinaria	-0.3272969
-4.458275	organismo	-0.3272969
-4.458275	organismos
-4.157245	organizar	-0.3325181
-7.205723	orientado
-3.856215	oriental	-0.5643551
-3.458275	oro	-0.5035276
-4.458275	oscar	-0.328751
-3.157245	otra	-0.5139104
-3.096547	otras	-0.5472824
-2.981154	otro	-0.5464019
-2.725881	otros	-0.5957268
-4.458275	pacificadores	-0.3379494
-3.504033	pacto	-0.7379076
-3.416883	padre	-0.4710034
-4.157245	pagado	-0.3212117
-7.205723	pagan
-4.157245	pagar	-0.3296766
-3.856215	pago	-0.6181528
-3.458275	palabra	-0.5369747
-3.613177	palabras	-0.5762904
-3.981154	palacio	-0.4372748
-7.205723	palacios
-4.157245	palencia	-0.5766919
-7.205723	palti
-4.157245	pan	-0.628327
-7.205723	papa
-3.856215	papel	-0.5076591
-4.157245	papeles	-0.6386315
-7.205723	par
-2.225279	para	-0.7859464
-4.458275	paradero	-0.3171228
-7.205723	paraliza
-4.458275	parciales	-0.2756619
-7.205723	parcialmente
-3.203003	parece	-0.6271644
-3.759305	parecer	-0.4396917
-3.613177	parlamento	-0.2506832
-4.458275	parra	-0.3379343
-2.953125	parte	-0.7076167
-3.179522	partes	-0.6475869
-4.157245	participó	-0.6264792
-3.856215	particular	-0.3893219
-7.205723	partidaria
-4.458275	partidario	-0.3373745
-7.205723	partidas
-3.504033	partido	-0.8196426
-3.856215	partidos	-0.3169959
-3.856215	parís	-0.5711951
-4.157245	pasa	-0.2756619
-3.203003	pasado	-0.595251
-3.856215	pasajeros	-0.6330119
-3.555185	pasar	-0.5589901
-3.981154	paso	-0.4931348
-4.157245	pasos	-0.3244834
-7.205723	passarella
-3.555185	pasó	-0.5610753
-7.205723	patrullada
-4.157245	paulo	-0.2756445
-2.856215	paz	-0.6741635
-3.136056	país	-0.4340474
-2.939761	países	-0.5753864
-7.205723	peleara
-7.205723	peligros
-4.458275	peligroso	-0.3379494
-4.157245	pelota	-0.6377379
-4.458275	película	-0.3205827
-3.981154	pendientes	-0.2512743
-4.458275	pensaba	-0.2756619
-3.856215	pensado	-0.6261211
-7.205723	pensar
-3.981154	pensiones	-0.7527831
-3.759305	peor	-0.5554066
-3.759305	pequeña	-0.3331606
-4.157245	pequeño	-0.6364015
-7.205723	pequeños
-4.458275	percibe	-0.3339853
-4.458275	perdemos	-0.3205827
-4.157245	perder	-0.3374805
-3.759305	perdido	-0.5534319
-7.205723	perdía
-3.856215	peres	-0.6342365
-7.205723	perfecta
-3.981154	perfectamemnte	-0.8120819
-4.458275	pericial	-0.3171228
-3.504033	periodistas	-0.6281668
-7.205723	periódicos
-4.458275	perlas	-0.2756619
-7.205723	permitan
-4.458275	permitido	-0.3378587
-4.458275	permitirse	-0.3379343
-4.458275	permitirá	-0.3280555
-2.371915	pero	-0.6271032
-4.458275	perro	-0.3379494
-7.205723	persigue
-3.344332	persona	-0.6007535
-3.344332	personal	-0.3692084
-3.096547	personas	-0.5702595
-4.458275	perspicacia	-0.2756619
-7.205723	pertenecían
-4.458275	pertinente	-0.3332064
-4.157245	perturbación	-0.6351221
-4.458275	peruano	-0.3254492
-4.458275	peruanos	-0.2756619
-3.504033	período	-0.9191669
-3.856215	períodos	-0.9191828
-3.312147	perú	-0.5406876
-7.205723	pesa
-4.458275	pesca	-0.3171228
-3.759305	pese	-1.027721
-3.555185	peseta	-0.6332264
-3.856215	petición	-0.5765871
-4.458275	petrolera	-0.3254492
-3.981154	petrolero	-0.3254492
-3.759305	petróleo	-0.9746319
-7.205723	piano
-7.205723	pido
-4.458275	pie	-0.2756619
-3.856215	piensa	-0.6126778
-3.680124	pienso	-0.8003083
-7.205723	piezas
-3.981154	pilotos	-0.3378889
-3.379094	plan	-0.7400498
-7.205723	planas
-4.458275	planeaba	-0.3379191
-4.458275	planeta	-0.2756619
-7.205723	planos
-4.458275	plantas	-0.2756619
-7.205723	plantearon
-7.205723	plantearse
-7.205723	plata
-7.205723	plaza
-3.203003	plazo	-0.779548
-3.856215	pleno	-0.4626159
-7.205723	plácido
-4.157245	población	-0.6342365
-3.282184	poco	-0.5130683
-3.613177	pocos	-0.538289
-4.157245	podamos	-0.6387677
-3.203003	podemos	-0.5692113
-3.613177	poder	-0.8182615
-7.205723	poderes
-4.458275	poderoso	-0.3379494
-3.981154	podrá	-0.3372836
-3.856215	podrán
-3.011117	podría	-0.7120833
-3.981154	podríamos	-0.5137987
-4.458275	podían	-0.3378435
-4.157245	polariza	-0.6216127
-4.458275	polemiza	-0.335706
-4.458275	policial	-0.336723
-2.939761	policía	-0.6088923
-3.157245	política	-0.5554284
-3.458275	político	-1.12076
-3.555185	políticos	-0.5608763
-4.458275	pondría	-0.328751
-4.458275	poner	-0.3254492
-4.458275	ponernos	-0.328751
-3.856215	popular	-0.4001292
-2.025306	por	-0.8632638
-3.416883	porque	-0.6692419
-4.157245	porqué	-0.5766919
-7.205723	portero
-4.157245	posibilidades	-0.2515143
-3.282184	posible	-0.5632767
-3.379094	posiciones	-0.7521195
-3.416883	posición	-0.3711001
-4.458275	positivas	-0.2756619
-4.157245	positivo	-0.6331805
-4.458275	posterioridad	-0.2756619
-3.759305	posteriormente	-0.4975386
-4.458275	potestad	-0.3379494
-7.205723	practique
-7.205723	precaución
-7.205723	precedente
-3.555185	precio	-0.5466938
-3.078064	precios	-0.6842467
-3.504033	preciso	-0.5133295
-4.458275	precisos	-0.2756619
-4.157245	preguntas	-0.636736
-3.555185	preguntó	-0.6953911
-3.981154	premio	-0.6351221
-3.179522	prensa	-0.8131888
-3.759305	preocupación	-0.494112
-3.759305	preocupado	-0.4402953
-4.458275	preocupantes	-0.2756619
-4.458275	preparado	-0.3353715
-4.157245	preparan	-0.6389492
-3.981154	presencia	-0.5012758
-3.613177	presenta	-0.4708608
-3.759305	presentación	-0.468633
-4.157245	presentaron	-0.6388584
-3.458275	presente	-0.3663678
-4.157245	presentó	-0.3371928
-3.759305	presidencial	-0.6591235
-3.981154	presidenciales	-0.4372748
-2.878492	presidente	-0.5768785
-3.856215	presión	-0.3970436
-7.205723	presos
-7.205723	prestó
-4.157245	presupuesto	-0.3369655
-7.205723	pretendemos
-4.458275	preveo	-0.3376015
-3.254155	primer	-0.7833501
-3.379094	primera	-0.6688666
-7.205723	primeras
-3.981154	primero	-0.3261644
-3.613177	principal	-0.6383893
-3.981154	principalmente	-0.5006214
-3.555185	principio	-0.5482057
-4.157245	principios	-0.2611835
-4.157245	prioridad	-0.6264792
-3.680124	privada	-0.4049221
-3.981154	privatizaciones	-0.4516485
-3.680124	probable	-0.8051149
-4.458275	probablemente	-0.3272969
-3.060335	problema	-0.7413594
-3.312147	problemas	-0.6505354
-4.458275	problemáticos	-0.2756619
-7.205723	proceda
-7.205723	procedente
-3.759305	procedimiento	-0.5468153
-3.981154	procedió	-0.8058722
-3.157245	proceso	-0.5327803
-3.981154	procesos	-0.5091602
-4.458275	proclama	-0.3379494
-4.458275	procupación	-0.2756619
-3.613177	producción	-0.3235529
-3.458275	producido	-0.6243735
-7.205723	produciría
-4.157245	producto	-0.5766919
-4.157245	productos
-4.458275	produzcan	-0.3377377
-3.136056	programa	-0.6347252
-7.205723	programado
-3.379094	programas	-0.4908655
-3.981154	progresan	-0.7527831
-3.680124	progreso	-0.4359918
-7.205723	prohibe
-7.205723	prometido
-7.205723	promoverá
-3.613177	pronta	-0.8769227
-3.759305	pronto	-0.3697181
-7.205723	propaganda
-3.981154	propia	-0.3374199
-3.680124	propio	-0.500481
-3.856215	proporciona	-0.6334867
-4.157245	proporcionó	-0.3186903
-3.282184	propuesta	-0.7041212
-3.759305	propuestas	-0.4838974
-3.856215	propuesto	-0.576622
-4.458275	propuestos	-0.3379191
-7.205723	propuso
-3.856215	propósito	-0.5525442
-4.458275	prorroga	-0.2756619
-7.205723	proscribir
-3.981154	prostitución	-0.7527831
-7.205723	proteger
-7.205723	protocolo
-4.157245	protocolos	-0.2756096
-4.458275	provincia	-0.3340921
-7.205723	provisional
-4.458275	provocaría	-0.3205827
-4.458275	proyectaba	-0.3379191
-3.379094	proyecto	-0.4965201
-3.458275	proyectos	-0.4540101
-7.205723	prudente
-4.458275	pruebas	-0.3254492
-4.157245	práctica	-0.2755572
-4.458275	prácticamente	-0.3379494
-4.157245	próxima	-0.6386164
-4.157245	próximamente	-0.5766919
-4.157245	próximo	-0.2754874
-3.759305	próximos	-1.036662
-4.458275	publicación	-0.3254492
-3.981154	publicado	-0.5015094
-7.205723	publicarían
-3.680124	pudo	-0.4615859
-3.157245	pueblo	-0.6517888
-3.613177	pueda	-0.5782878
-2.795517	puede	-0.5816026
-3.203003	pueden	-0.4623284
-3.379094	puedo	-0.5594049
-3.680124	puerta	-0.4925615
-7.205723	puertorriqueñas
-3.282184	pues	-0.4377001
-3.759305	puesto	-0.5384637
-4.458275	pulpo	-0.2756619
-3.312147	punto	-0.397037
-4.157245	página	-0.6388584
-4.458275	pánico	-0.3254492
-3.157245	párrafo	-0.4441483
-3.555185	pérdida	-0.4541929
-3.856215	pérsico	-0.5744699
-4.458275	pública	-0.3379343
-4.157245	públicas	-0.2756619
-3.759305	público	-0.6715203
-7.205723	públicos
-1.6467	que	-0.6265829
-3.157245	queda	-0.7460577
-3.981154	quedado	-0.5130113
-4.458275	quedar	-0.3373139
-4.458275	quedaron	-0.3254492
-7.205723	quedarse
-3.416883	quedó	-0.6264169
-3.613177	queremos	-0.4736728
-3.680124	quería	-0.4992626
-4.157245	queríamos	-0.6388131
-3.981154	querían	-0.5039611
-3.981154	quien	-0.3349607
-3.856215	quienes	-0.3272969
-7.205723	quieran
-3.981154	quiere	-0.3339089
-3.680124	quieren	-0.5138592
-3.680124	quiero	-0.3197479
-7.205723	quinta
-4.458275	quise	-0.3379494
-3.981154	quisiera	-0.4402953
-4.458275	quiso	-0.3372836
-4.157245	quito	-0.5766919
-4.458275	quitó	-0.3379494
-7.205723	quizo
-3.856215	quién	-0.638041
-2.914207	qué	-0.5297011
-4.458275	quédense	-0.335706
-7.205723	racionamiento
-7.205723	racismo
-7.205723	radical
-3.981154	radio	-0.501836
-3.759305	ramos	-0.5764126
-3.759305	rara	-0.4925085
-4.458275	razon	-0.3378435
-3.344332	razones	-0.4267746
-3.680124	razón	-0.3224638
-4.458275	raíz	-0.3379191
-7.205723	reaccionar
-3.555185	reacción	-0.4904382
-4.458275	realista	-0.2756619
-4.157245	realiza	-0.6216127
-4.458275	realizada	-0.3254492
-3.981154	realizado	-0.2708539
-7.205723	realizan
-4.157245	realizar	-0.313763
-3.981154	realizó	-0.4836398
-3.680124	realmente	-0.502209
-7.205723	reanudada
-4.458275	reanudemos	-0.3205827
-3.504033	rebeldes	-0.5710361
-7.205723	recae
-4.458275	recalcan	-0.3338327
-4.157245	rechazada	-0.2709069
-3.981154	rechazado	-0.3367381
-7.205723	rechazaron
-4.458275	reciben	-0.3379494
-3.312147	recibido	-0.7965379
-3.856215	recibir	-0.3312148
-3.555185	recibió	-0.6104394
-7.205723	recién
-4.458275	reclamaba	-0.3377982
-7.205723	reclamaron
-4.458275	reclutarlas	-0.2756619
-7.205723	recogió
-3.504033	recomendación	-0.7809733
-7.205723	reconstrucción
-4.458275	recorren	-0.3373291
-7.205723	recrudece
-4.157245	recuperado	-0.6216127
-7.205723	recurrió
-4.458275	recurso	-0.3361161
-3.458275	recursos	-0.4973885
-3.981154	red	-0.4820153
-4.157245	redacción	-0.2756445
-4.458275	reduccion	-0.3171228
-4.458275	reduce	-0.3353715
-3.981154	reducida	-0.4411009
-3.981154	reducido	-0.5071833
-4.157245	reducir	-0.6324444
-7.205723	reelegidos
-3.759305	referencia	-0.4841854
-7.205723	referidas
-7.205723	referirme
-7.205723	referirán
-7.205723	referían
-3.981154	refiere	-0.8058722
-7.205723	refinerías
-7.205723	refirió
-3.680124	reforma	-0.3374804
-4.458275	reformas	-0.2756619
-4.157245	refugiados	-0.6387223
-4.458275	regir
-4.458275	registra
-7.205723	registrada
-3.981154	registro	-0.4381759
-4.458275	registrándose	-0.2756619
-3.504033	región	-0.6082481
-4.458275	regla	-0.2756619
-4.458275	reglamentaciones	-0.2756619
-4.458275	regresar	-0.3374805
-3.680124	regreso	-0.4638
-3.759305	regresó	-0.3136191
-4.458275	regular	-0.2756619
-7.205723	rehabilitar
-4.157245	rehusado
-4.458275	rehusó	-0.3379494
-7.205723	reinar
-7.205723	reitera
-3.856215	relaciones	-0.7527831
-3.856215	relación	-0.4529479
-3.680124	relativamente	-0.5136927
-7.205723	relativas
-7.205723	relator
-4.458275	relató
-4.458275	relevancia	-0.328751
-4.458275	religiosa	-0.2756619
-7.205723	remedios
-4.458275	remitida	-0.3357364
-4.458275	remuneración	-0.3321505
-4.458275	rendimos	-0.3377074
-4.157245	renovarse	-0.5766919
-3.379094	renuncia	-0.5599705
-7.205723	reordenados
-4.458275	reparaciones	-0.3377377
-4.458275	repercutió	-0.3379494
-3.856215	repetir	-0.4526384
-4.157245	repetirse	-0.5766919
-4.458275	reportó	-0.3205827
-7.205723	represalias
-3.555185	representante	-0.6808437
-3.680124	representantes	-0.5109149
-3.981154	representar	-0.5007774
-4.458275	reprogramación	-0.3171228
-4.458275	repuesto	-0.3361465
-7.205723	requerido
-7.205723	requerirán
-3.759305	requiere	-0.5523105
-7.205723	requirimientos
-4.157245	resa	-0.637753
-3.856215	reserva	-0.4931506
-7.205723	reservado
-3.555185	reservas	-0.5535393
-7.205723	reses
-7.205723	resistencia
-3.504033	resolución	-0.9263015
-4.157245	resolver	-0.6377379
-7.205723	respalden
-4.157245	respaldo	-0.5766919
-4.458275	respectivo	-0.3374048
-3.060335	respecto	-0.7609313
-7.205723	respetando
-3.981154	respetar	-0.5129962
-4.458275	respiro	-0.2756619
-4.157245	responder	-0.2755747
-7.205723	responderemos
-3.759305	respondió	-0.520932
-4.458275	responsabilizado	-0.3372534
-3.096547	respuesta	-0.6154727
-7.205723	restableció
-3.981154	restantes	-0.2748409
-4.157245	restaurados	-0.5766919
-3.458275	resto	-0.5228655
-3.981154	restos	-0.4514914
-7.205723	restricción
-4.458275	resueltos	-0.3345799
-4.458275	resulta	-0.3376318
-3.613177	resultado	-0.7130437
-3.115853	resultados	-0.576839
-3.759305	resultaron	-0.3354475
-4.458275	retenían	-0.328751
-3.555185	retirada	-0.6178671
-4.157245	retirado	-0.2751032
-4.458275	retirar	-0.3325334
-7.205723	retirarse
-4.458275	reuniones	-0.2756619
-7.205723	reunir
-4.157245	reunirán	-0.3252469
-3.060335	reunión	-0.6591054
-4.458275	reuní	-0.335706
-4.458275	revelado	-0.2756619
-4.458275	revelados	-0.2756619
-4.458275	revelar	-0.3349607
-7.205723	reveses
-4.458275	revisando	-0.3376772
-4.458275	revisarse	-0.3370261
-4.157245	revisó	-0.6216127
-4.458275	revuelo	-0.3254492
-3.856215	rey	-0.4492973
-7.205723	reyes
-3.555185	reúne	-0.5305329
-4.458275	riendo	-0.3376469
-3.680124	riesgo	-0.4174413
-4.157245	rio	-0.6389643
-4.157245	ritmo	-0.6181528
-7.205723	riñón
-7.205723	robando
-4.458275	rojo	-0.2756619
-7.205723	rompieron
-4.458275	ronda	-0.3360402
-7.205723	ruanda
-4.458275	rubro
-3.981154	rumbo	-0.328751
-7.205723	rumores
-3.856215	rusa	-0.638692
-3.344332	rusia	-0.5822698
-4.458275	rusos	-0.3378738
-4.157245	ruta	-0.2755747
-7.205723	rutinariamente
-3.981154	rápidamente	-0.4890383
-4.157245	régimen	-0.2754001
-7.205723	río
-7.205723	ríos
-3.312147	sabe	-0.6202099
-3.504033	sabemos	-0.6764943
-3.504033	saber	-0.5288684
-4.458275	sabotaje	-0.2756619
-3.981154	sabía	-0.4828121
-4.458275	sabían	-0.3280555
-3.981154	sacado	-0.5008864
-7.205723	sal
-3.981154	sala	-0.4276055
-4.458275	salario	-0.3378133
-7.205723	saldar
-4.458275	saliente	-0.2756619
-4.458275	salieron	-0.3369504
-3.379094	salir	-0.5654222
-3.555185	salud	-0.5466751
-7.205723	salva
-3.856215	salvador	-0.8777219
-7.205723	salvar
-4.157245	salvo	-0.3279009
-7.205723	sana
-3.555185	sanciones	-0.3398954
-7.205723	sangre
-3.856215	santiago	-0.3773744
-4.157245	saqueadas	-0.6348779
-3.981154	sarajevo	-0.2742636
-4.458275	satisfactoria	-0.2756619
-3.981154	satisfactorio	-0.4402953
-4.157245	saínz	-0.628327
-1.615042	se	-0.7716343
-3.254155	sea	-0.5406851
-4.157245	secciones	-0.5766919
-3.981154	sección	-0.5033727
-4.458275	secretaria	-0.3171228
-3.613177	secretario	-0.8606989
-3.759305	sector	-0.5737151
-3.680124	sectores	-0.4374911
-3.504033	seguir	-0.4003912
-4.458275	seguirá	-0.3378435
-3.680124	segunda	-0.4622678
-3.555185	segundo	-0.575836
-3.555185	seguridad	-0.5478142
-3.856215	seguro	-0.3723194
-4.157245	seguía	-0.6264792
-3.458275	según	-0.5997824
-3.157245	seis	-0.4370669
-7.205723	sela
-4.458275	seleccionó	-0.2756619
-3.613177	semana	-0.4894083
-7.205723	semanales
-3.856215	senado	-0.3991323
-4.458275	sencilla	-0.2756619
-7.205723	sencillísima
-4.458275	sensato	-0.2756619
-4.458275	sentencias	-0.3367533
-4.458275	sentir	-0.3205827
-7.205723	separación
-3.981154	separado	-0.7527831
-4.157245	separatista	-0.638934
-4.157245	septiembre	-0.2717529
-2.583214	ser	-0.512409
-4.458275	serbia	-0.3332064
-4.458275	serie	-0.328751
-7.205723	seriedad
-4.157245	serio	-0.3365562
-4.458275	servicio	-0.3378133
-3.759305	servicios	-0.5230598
-2.890074	será	-0.5778273
-3.282184	serán	-0.4626915
-3.011117	sería	-0.6588206
-3.344332	sesiones	-0.7089932
-3.379094	sesión	-0.6156334
-4.458275	setenta	-0.3332064
-4.458275	severos	-0.3377528
-7.205723	sevilla
-7.205723	sexual
-7.205723	señalo
-2.939761	señaló	-0.8613507
-4.458275	señor	-0.3378889
-7.205723	señora
-2.533996	si	-0.7154132
-2.710087	sido	-0.5898913
-3.504033	siempre	-0.4141496
-3.227826	siendo	-0.504626
-4.458275	siente	-0.3379494
-4.157245	siento	-0.6387072
-3.282184	siete	-0.7279339
-3.555185	significa	-0.7355556
-4.458275	significar	-0.2756619
-7.205723	significativamente
-7.205723	significativas
-3.203003	sigue	-0.6696949
-3.680124	siguen	-0.6262145
-3.504033	siguiente	-0.6144112
-7.205723	siguieron
-3.981154	siguió	-0.3379343
-7.205723	silla
-7.205723	silvio
-3.680124	similar	-0.4371123
-3.981154	similares	-0.5766919
-7.205723	simple
-2.638731	sin	-1.172627
-7.205723	sindicales
-3.613177	sino	-0.4944178
-7.205723	sintieron
-3.680124	sintió	-0.638934
-4.458275	sinónimo	-0.3171228
-4.157245	siquiera	-0.6385861
-3.555185	siria	-0.5763428
-3.856215	sistema	-0.2384615
-2.835026	situación	-0.6255223
-7.205723	situada
-7.205723	soares
-4.458275	soberanía	-0.2756619
-2.665884	sobre	-0.7276149
-7.205723	sobrevaluados
-4.458275	social	-0.3321505
-3.504033	solamente	-0.4792122
-4.157245	solares	-0.2633252
-7.205723	soldado
-3.981154	soldados	-0.3331758
-3.981154	solicita	-0.4454782
-7.205723	solicitadas
-4.458275	solicitado	-0.2756619
-3.555185	solicitud	-0.8535743
-7.205723	solicitó
-4.458275	solucionar	-0.3370716
-3.282184	solución	-0.4884109
-4.458275	sometido	-0.328751
-3.759305	somos	-0.5321935
-2.555185	son	-0.5553126
-7.205723	sorprende
-7.205723	sorprendido
-3.759305	sostuvo	-0.7527831
-3.254155	soy	-0.670477
-2.225279	su	-0.5659868
-3.856215	subasta	-0.9191828
-7.205723	subastan
-7.205723	subcontrata
-3.981154	sube	-0.3378889
-4.458275	subieron	-0.3254492
-7.205723	subprograma
-7.205723	subsiguiente
-4.458275	subtema	-0.3378738
-3.981154	sucede	-0.6359907
-4.458275	suceden	-0.3377982
-3.759305	suceder	-0.4758831
-3.981154	sucederá	-0.7527831
-3.856215	sucedió	-0.4524216
-7.205723	sucesión
-4.458275	sudamericanos	-0.336723
-4.157245	sudáfrica	-0.3379494
-4.157245	suecia	-0.5766919
-4.458275	sueldos	-0.3272969
-4.157245	suelen	-0.6388282
-3.759305	suficiente	-0.4491803
-4.458275	sugerida	-0.3338479
-4.458275	sugerirse	-0.3378133
-4.458275	sugirió	-0.3205827
-7.205723	suma
-3.856215	sumamente	-0.3378436
-3.981154	sumario	-0.7527831
-7.205723	suministro
-7.205723	suministros
-7.205723	supervisan
-4.458275	supimos	-0.3361465
-3.981154	suprema	-0.2611835
-4.157245	suprimir	-0.3038847
-7.205723	supuestamente
-3.613177	supuesto	-0.6657187
-2.824807	sus	-0.5370613
-4.458275	sustanciales	-0.2756619
-7.205723	sábados
-4.157245	sé	-0.3231871
-3.416883	sí	-0.4645469
-3.011117	sólo	-0.6531247
-4.458275	sónica	-0.2756619
-7.205723	tailandés
-7.205723	tajante
-3.179522	tal	-0.6360668
-7.205723	talavera
-3.458275	tales	-0.5019759
-2.382728	también	-0.4733806
-3.282184	tampoco	-0.6884335
-3.416883	tan	-0.5135263
-7.205723	tangible
-3.060335	tanto	-0.4947271
-3.458275	tarde	-0.682381
-3.282184	tarea	-0.5261323
-3.981154	tarifas	-0.5022867
-3.856215	tasa	-0.3763607
-4.458275	tasas	-0.3171228
-7.205723	te
-4.157245	teatro	-0.3340921
-4.458275	tecnicismos	-0.2756619
-7.205723	teconología
-7.205723	tegucigalpa
-4.157245	televisión	-0.2756445
-3.981154	telmex	-0.261003
-3.078064	tema	-0.5226086
-3.416883	temas	-0.4682822
-4.458275	teme	-0.3375107
-7.205723	temer
-7.205723	temor
-4.157245	templos	-0.6389643
-3.981154	temporada	-0.326211
-3.613177	tendencia	-0.4502167
-3.856215	tendrán	-0.6112942
-4.458275	tendríamos	-0.3378284
-3.096547	tenemos	-0.5930454
-3.282184	tener	-0.6419114
-7.205723	tenerse
-3.504033	tenido	-0.5617442
-4.458275	tensa	-0.2756619
-3.203003	tenía	-0.5871629
-3.981154	teníamos	-0.5084562
-3.504033	tenían	-0.6962024
-7.205723	teoría
-3.680124	tercer	-0.4619952
-3.981154	tercera	-0.3379494
-4.458275	tercios	-0.3171228
-3.458275	terreno	-0.6462695
-3.981154	terrible	-0.4478441
-3.981154	territorios	-0.4515961
-4.458275	terror	-0.2756619
-7.205723	tesobonos
-3.504033	testigo	-0.5096003
-3.856215	testigos	-0.2749459
-3.458275	texto	-0.5369174
-7.205723	textos
-4.157245	tiburones	-0.6356099
-2.926796	tiempo	-0.5147945
-4.157245	tiempos	-0.3345647
-2.814822	tiene	-0.546553
-3.157245	tienen	-0.4856136
-3.613177	tierras	-0.526632
-3.504033	tipo	-0.9047269
-3.613177	tipos	-0.7286355
-4.458275	tirar	-0.3219339
-7.205723	tiroteo
-3.416883	toda	-0.6619813
-3.179522	todas	-0.8089958
-3.078064	todavía	-0.9092436
-2.824807	todo	-0.512242
-2.742272	todos	-1.050588
-3.680124	toma	-0.3159156
-4.458275	tomaba	-0.3325334
-3.981154	tomar	-0.3337869
-7.205723	tomará
-7.205723	tomaría
-7.205723	tomarían
-7.205723	tomáramos
-4.458275	tomó
-4.157245	tono	-0.275627
-4.458275	toque	-0.3171228
-4.458275	tormenta	-0.3171228
-7.205723	torta
-3.203003	total	-0.765968
-3.856215	totalidad	-0.5760108
-3.613177	totalmente	-0.6271322
-7.205723	toyota
-4.458275	trabajadores	-0.3262265
-4.458275	trabajan	-0.3254492
-3.981154	trabajar	-0.5070143
-3.555185	trabajo	-0.4612431
-7.205723	trabajó
-4.458275	tragedias	-0.3254492
-4.458275	tramos	-0.3373442
-3.981154	tranquilo	-0.4514739
-7.205723	transitorio
-7.205723	transitorios
-3.759305	transporte	-0.4927203
-3.759305	tras	-0.5019915
-4.458275	trascendental	-0.2756619
-3.282184	trata	-0.8855828
-7.205723	trataban
-3.613177	tratado	-0.5244561
-7.205723	tratan
-4.458275	trataremos	-0.3171228
-3.759305	trece	-0.538146
-3.981154	treinta	-0.5028611
-3.060335	tres	-0.4806786
-3.379094	tribunal	-0.5342798
-3.981154	tribunales	-0.2756619
-4.458275	trimestre	-0.2756619
-7.205723	triple
-3.856215	tripulantes	-0.4471706
-7.205723	triste
-4.458275	triunfa	-0.3254492
-3.856215	tropas	-0.5766919
-7.205723	trozos
-4.458275	turcos	-0.2756619
-4.458275	tuvieron
-4.458275	tuvimos	-0.3339853
-3.981154	tuvo	-0.3322271
-3.613177	técnica	-0.5023954
-3.856215	técnicos	-0.5719191
-3.856215	término	-0.5766919
-3.856215	términos	-0.6140891
-3.759305	título	-0.3877969
-4.458275	ubicado	-0.336723
-7.205723	ultimo
-1.905607	un	-0.6523019
-2.039974	una	-0.6414619
-3.981154	unidad	-0.316726
-3.555185	unidas	-0.5766046
-3.504033	unidos	-0.6380712
-3.981154	uniforme	-0.7527831
-2.953125	uno	-0.5601378
-3.416883	unos	-0.5910339
-3.981154	unánime	-0.7527831
-4.458275	urge	-0.3378889
-3.981154	urgente	-0.4402953
-7.205723	uri
-3.981154	uruguay	-0.4372748
-7.205723	usen
-3.680124	uso	-0.7109991
-3.981154	ustedes	-0.4316271
-4.458275	utilizar	-0.328751
-3.136056	va	-0.9842738
-4.157245	vacuna
-4.458275	valiente	-0.3280555
-7.205723	valiosa
-7.205723	valle
-3.981154	valores	-0.3367533
-3.981154	van	-0.8058722
-7.205723	vaqueros
-4.458275	variada	-0.2756619
-4.458275	variado	-0.3379343
-4.157245	variados	-0.2701652
-4.157245	variantes	-0.2756445
-3.312147	varias	-0.5927681
-3.282184	varios	-0.5588582
-4.458275	varían	-0.3379494
-4.458275	vasto	-0.3345799
-4.458275	vaticano	-0.3379494
-4.458275	vaya	-0.328751
-3.504033	veces	-0.4887243
-4.458275	veintisiete	-0.3377528
-4.458275	velásquez	-0.3262265
-3.981154	vemos	-0.5076131
-7.205723	venados
-7.205723	vence
-3.613177	vender	-0.4503199
-7.205723	vendido
-7.205723	vendían
-7.205723	venezolana
-4.458275	venezolano	-0.3379494
-4.458275	venezolanos	-0.3379494
-3.555185	venezuela	-0.5704169
-4.157245	venganzas	-0.5766919
-7.205723	vengarse
-7.205723	venideros
-3.856215	venta	-0.3128029
-4.458275	ventaja	-0.2756619
-7.205723	ventanas
-7.205723	ventura
-3.759305	veo	-0.3320585
-3.416883	ver	-0.5444567
-3.379094	verdad	-0.5324191
-3.981154	veremos	-0.3366927
-3.981154	vergüenza	-0.5136474
-4.458275	verificación	-0.2756619
-3.096547	vez	-0.5550745
-3.981154	viajar	-0.5025663
-4.157245	viajará	-0.629781
-4.458275	viaje	-0.328751
-4.458275	viajo	-0.3219339
-7.205723	vicepresidentes
-3.680124	victoria	-0.4235092
-3.096547	vida	-0.8936736
-3.856215	vieja	-0.4000069
-4.458275	viejos	-0.3379343
-3.981154	vienen	-0.4411009
-3.555185	viernes	-0.7015085
-7.205723	vincular
-3.981154	vino	-0.328751
-3.759305	violencia	-0.6668841
-3.759305	virus	-0.3653043
-4.458275	visas	-0.3379494
-3.613177	visita	-0.6434292
-7.205723	visión
-3.680124	visto	-0.4102117
-3.981154	vive	-0.8149799
-4.458275	vivimos	-0.3373291
-7.205723	vladimir
-3.680124	vocero	-1.053813
-7.205723	volcar
-3.504033	volumen	-0.3903121
-3.856215	voluntad	-0.4367472
-3.856215	volver	-0.6275049
-4.157245	volverán	-0.629781
-3.856215	volvió	-0.6271322
-4.458275	volátil	-0.2756619
-3.555185	votación	-0.4148568
-4.157245	votantes	-0.6382228
-3.981154	votar	-0.5089919
-7.205723	votaron
-3.613177	voto	-0.4740211
-3.680124	votos	-0.5718839
-3.759305	voy	-0.8058722
-4.458275	véanse	-0.3338327
-4.458275	véase	-0.3254492
-3.856215	vía	-0.3170435
-3.227826	víctimas	-0.7449118
-1.962731	y	-0.4392974
-2.953125	ya	-0.4642225
-2.966913	yo	-0.5933898
-7.205723	yodización
-3.981154	yugoslavia	-0.4487764
-7.205723	yáñez
-3.458275	zona	-0.6449294
-3.981154	zonas	-0.4276055
-7.205723	zulema
-4.458275	zulú	-0.3379494
-4.458275	árbitro	-0.3374956
-3.227826	él	-0.5918496
-7.205723	énfasis
-4.157245	época	-0.5766919
-7.205723	ése
-3.856215	ésta	-0.9342105
-7.205723	éxito
-4.458275	éxitos	-0.2756619
-4.458275	índice	-0.3171228
-7.205723	óptimo
-3.981154	órdenes	-0.4511944
-4.157245	órgano	-0.2756619
-3.613177	última	-0.3160588
-3.555185	último	-0.3982033
-3.458275	últimos	-0.6372221
-3.856215	única	-0.4625554
-4.157245	únicamente	-0.5766919
-3.856215	único	-0.5765697
-4.157245	útiles	-0.5766919

\2-grams:
-2.098723	<s> a
-3.805691	<s> abrigamos
-3.133735	<s> acaso
-3.805691	<s> aclara
-3.350963	<s> actividades
-2.723071	<s> actualmente
-3.805691	<s> actuaré
-3.805691	<s> acuerdo
-2.476465	<s> además
-3.133735	<s> adjunto
-3.350963	<s> agradecemos
-3.805691	<s> agradeceremos
-2.607203	<s> agregó
-2.114786	<s> ahora
-3.805691	<s> ahí
-2.476465	<s> al
-2.79513	<s> alemania
-3.350963	<s> alemán
-3.133735	<s> algunas
-2.476465	<s> algunos
-3.805691	<s> allí
-3.133735	<s> alvaro
-2.607203	<s> ambas
-2.515827	<s> ambos
-3.805691	<s> américa
-3.805691	<s> anexos
-3.350963	<s> ante
-3.805691	<s> aparentemente
-3.805691	<s> aragón
-3.350963	<s> argentina
-3.805691	<s> arias
-3.350963	<s> aristide
-3.805691	<s> asimismo
-3.350963	<s> aspin
-3.805691	<s> astronautas
-2.347227	<s> así
-3.805691	<s> aumentó
-3.805691	<s> automóvil
-3.805691	<s> avisaremos
-3.805691	<s> avión
-3.805691	<s> ayer
-3.805691	<s> ayudará
-2.989602	<s> añadió
-2.407056	<s> aún
-3.350963	<s> balladur
-3.350963	<s> benítez
-2.661284	<s> brasil
-3.350963	<s> cabe
-3.350963	<s> cabría
-2.88157	<s> cada
-2.723071	<s> caldera
-3.133735	<s> canciller
-3.350963	<s> cancillería
-3.350963	<s> cantante
-3.805691	<s> carlos
-3.350963	<s> cerca
-3.805691	<s> cerrará
-3.805691	<s> cesar
-2.989602	<s> chile
-2.989602	<s> china
-3.133735	<s> clausura
-3.805691	<s> clausuran
-2.476465	<s> clinton
-2.79513	<s> colombia
-3.805691	<s> comienza
-3.350963	<s> comisión
-3.350963	<s> comité
-2.989602	<s> como
-3.805691	<s> completa
-3.350963	<s> comprendemos
-2.515827	<s> con
-3.805691	<s> concluye
-3.350963	<s> conferencia
-3.350963	<s> consulta
-3.805691	<s> continuaremos
-3.133735	<s> continúa
-3.350963	<s> corte
-2.989602	<s> creo
-3.805691	<s> cualquier
-3.805691	<s> cuando
-3.805691	<s> cuatro
-3.350963	<s> cuba
-3.133735	<s> cómo
-2.247758	<s> de
-2.661284	<s> debe
-2.607203	<s> debemos
-3.805691	<s> deben
-3.350963	<s> deberá
-3.805691	<s> debo
-3.350963	<s> decidió
-3.350963	<s> desarrollo
-2.607203	<s> desde
-3.805691	<s> desea
-3.805691	<s> deseo
-3.350963	<s> desplazarán
-3.350963	<s> después
-3.805691	<s> destacó
-3.350963	<s> dice
-3.805691	<s> dicen
-3.133735	<s> dicho
-2.607203	<s> dijo
-3.805691	<s> doce
-2.661284	<s> dos
-2.88157	<s> doy
-2.989602	<s> durante
-3.805691	<s> días
-0.9253431	<s> el
-3.805691	<s> elecciones
-3.133735	<s> ella
-2.320144	<s> ello
-2.723071	<s> ellos
-3.133735	<s> emotivo
-3.350963	<s> empresa
-3.805691	<s> empresas
-1.491266	<s> en
-3.350963	<s> entonces
-3.350963	<s> entre
-3.805691	<s> envíamos
-3.350963	<s> era
-1.519414	<s> es
-2.083234	<s> esa
-2.440375	<s> esas
-3.350963	<s> escojo
-3.805691	<s> escritor
-3.133735	<s> escuché
-2.476465	<s> ese
-2.320144	<s> eso
-2.79513	<s> esos
-3.350963	<s> españa
-3.805691	<s> espera
-2.88157	<s> esperamos
-2.515827	<s> espero
-2.083234	<s> esta
-2.989602	<s> estaba
-3.133735	<s> estaban
-3.350963	<s> estados
-2.270572	<s> estamos
-3.805691	<s> estarán
-2.661284	<s> estas
-2.068278	<s> este
-2.000367	<s> esto
-3.805691	<s> estonia
-2.347227	<s> estos
-2.989602	<s> está
-3.805691	<s> están
-3.805691	<s> evidentemente
-3.805691	<s> ex
-3.805691	<s> exhiben
-3.350963	<s> existe
-3.805691	<s> existían
-3.350963	<s> explosión
-3.805691	<s> favor
-3.805691	<s> fecha
-3.805691	<s> fecsa
-3.805691	<s> fijan
-3.350963	<s> filipinas
-3.805691	<s> finlandia
-3.805691	<s> francia
-3.133735	<s> frente
-2.226083	<s> fue
-2.88157	<s> fueron
-2.989602	<s> fuerte
-3.350963	<s> fuertes
-3.805691	<s> fuerza
-3.350963	<s> funcionarios
-3.805691	<s> general
-3.805691	<s> germán
-2.723071	<s> gobierno
-3.805691	<s> gonzález
-3.805691	<s> gracias
-3.805691	<s> graciela
-3.805691	<s> gran
-3.805691	<s> grupo
-3.805691	<s> guerra
-2.79513	<s> ha
-3.805691	<s> habla
-3.805691	<s> habló
-3.805691	<s> habrá
-2.88157	<s> habría
-2.989602	<s> había
-2.79513	<s> hace
-3.805691	<s> hacer
-3.805691	<s> haciendo
-2.88157	<s> han
-2.347227	<s> hasta
-1.964196	<s> hay
-2.559116	<s> he
-2.440375	<s> hemos
-3.805691	<s> heridos
-3.805691	<s> hija
-3.350963	<s> honduras
-2.88157	<s> hoy
-2.723071	<s> hubo
-3.805691	<s> igual
-3.805691	<s> ilaria
-2.989602	<s> incluso
-3.350963	<s> incluye
-3.805691	<s> indican
-3.350963	<s> indicó
-3.805691	<s> industria
-3.805691	<s> inician
-3.805691	<s> israel
-3.805691	<s> italia
-3.805691	<s> japón
-1.010373	<s> la
-3.805691	<s> lacalle
-1.611633	<s> las
-2.320144	<s> le
-3.805691	<s> les
-3.805691	<s> llameante
-3.350963	<s> llega
-1.964196	<s> lo
-3.805691	<s> lograr
-1.450419	<s> los
-2.88157	<s> luego
-3.133735	<s> líder
-3.805691	<s> madrazo
-3.805691	<s> marchaba
-2.407056	<s> me
-3.805691	<s> mejoran
-3.133735	<s> menem
-2.723071	<s> mi
-3.350963	<s> mientras
-2.989602	<s> miguel
-3.805691	<s> militares
-3.350963	<s> millones
-3.805691	<s> mineros
-3.350963	<s> ministro
-3.350963	<s> momentos
-3.805691	<s> monselas
-3.805691	<s> muchas
-3.350963	<s> mucho
-2.559116	<s> muchos
-3.805691	<s> muy
-2.88157	<s> más
-3.805691	<s> médicos
-2.989602	<s> nada
-2.440375	<s> nadie
-3.133735	<s> necesitamos
-3.133735	<s> ni
-3.350963	<s> niegan
-3.350963	<s> ninguna
-2.79513	<s> ninguno
-2.989602	<s> ningún
-1.09694	<s> no
-3.805691	<s> nombraron
-2.476465	<s> nos
-2.723071	<s> nosotros
-2.607203	<s> nuestra
-3.133735	<s> nuestro
-3.350963	<s> nuestros
-3.350963	<s> nuevamente
-3.350963	<s> nuevo
-2.88157	<s> nunca
-3.350963	<s> o
-3.805691	<s> occidente
-2.989602	<s> ocho
-3.350963	<s> opositores
-3.805691	<s> otra
-2.88157	<s> otras
-2.79513	<s> otro
-2.515827	<s> otros
-2.407056	<s> para
-3.133735	<s> parlamento
-3.805691	<s> parra
-3.350963	<s> partidos
-2.989602	<s> peres
-1.567698	<s> pero
-3.350963	<s> perú
-3.133735	<s> pese
-2.88157	<s> peseta
-3.133735	<s> pienso
-3.805691	<s> planeaba
-3.805691	<s> poco
-3.350963	<s> podemos
-3.805691	<s> podrá
-3.805691	<s> podrán
-3.805691	<s> podría
-3.805691	<s> podríamos
-3.805691	<s> policía
-1.763885	<s> por
-3.805691	<s> porque
-3.350963	<s> posteriormente
-3.350963	<s> precio
-3.350963	<s> precios
-3.805691	<s> preguntó
-3.805691	<s> prensa
-2.88157	<s> presidente
-3.805691	<s> primero
-3.805691	<s> provocaría
-3.133735	<s> puede
-3.133735	<s> pueden
-3.805691	<s> puedo
-2.88157	<s> que
-3.805691	<s> queda
-3.350963	<s> queremos
-3.350963	<s> queríamos
-3.805691	<s> quisiera
-2.476465	<s> qué
-3.805691	<s> quédense
-3.805691	<s> realmente
-3.805691	<s> rebeldes
-3.805691	<s> reciben
-3.350963	<s> renuncia
-3.350963	<s> resa
-3.133735	<s> respecto
-3.350963	<s> respondió
-3.805691	<s> rey
-3.805691	<s> rusia
-2.989602	<s> sabemos
-3.805691	<s> sarajevo
-3.350963	<s> saínz
-1.341306	<s> se
-3.350963	<s> sea
-2.661284	<s> según
-3.805691	<s> senado
-3.350963	<s> separatista
-3.805691	<s> ser
-3.805691	<s> será
-3.350963	<s> serán
-2.476465	<s> sería
-2.013126	<s> si
-3.350963	<s> siempre
-3.805691	<s> siete
-1.930807	<s> sin
-2.723071	<s> siria
-3.133735	<s> sobre
-2.989602	<s> somos
-2.88157	<s> son
-2.723071	<s> soy
-2.226083	<s> su
-3.805691	<s> sube
-2.607203	<s> sus
-3.805691	<s> sé
-3.350963	<s> sí
-2.989602	<s> sólo
-2.661284	<s> tal
-1.835058	<s> también
-2.661284	<s> tampoco
-3.805691	<s> telmex
-3.133735	<s> tendrán
-2.723071	<s> tenemos
-3.805691	<s> tercer
-3.350963	<s> testigos
-3.133735	<s> tiene
-3.805691	<s> tienen
-2.989602	<s> toda
-2.607203	<s> todas
-2.440375	<s> todavía
-2.376112	<s> todo
-2.607203	<s> todos
-3.805691	<s> trataremos
-3.805691	<s> treinta
-3.805691	<s> tres
-3.805691	<s> tuvimos
-3.805691	<s> título
-2.166879	<s> un
-2.440375	<s> una
-2.989602	<s> uno
-3.805691	<s> unos
-3.805691	<s> va
-3.350963	<s> varias
-2.989602	<s> varios
-3.805691	<s> velásquez
-3.133735	<s> vemos
-3.133735	<s> venezuela
-3.805691	<s> veo
-3.350963	<s> vienen
-3.805691	<s> visita
-3.805691	<s> volvió
-3.805691	<s> véanse
-3.805691	<s> véase
-2.320144	<s> y
-2.989602	<s> ya
-2.476465	<s> yo
-3.805691	<s> yugoslavia
-2.503345	a aceptar
-2.958073	a actuar
-2.958073	a alemania
-2.503345	a asamblea
-2.958073	a atlanta
-2.503345	a brasil
-2.503345	a buen
-2.958073	a buscar
-1.875453	a cabo
-2.958073	a cada
-2.958073	a cadena
-2.503345	a caer
-2.503345	a cambio
-2.958073	a cambios
-2.958073	a casi
-2.958073	a catorce
-2.958073	a causa
-2.286117	a chile
-2.958073	a colaborar
-2.958073	a combatir
-2.958073	a comentar
-2.503345	a conocer
-2.958073	a consulta
-1.559438	a continuación
-2.286117	a costa
-2.503345	a cualquier
-2.503345	a cuatro
-2.958073	a culpables
-2.958073	a dar
-2.958073	a de
-2.958073	a debatir
-2.503345	a decidir
-2.958073	a decir
-2.958073	a defraudar
-2.503345	a dejar
-2.503345	a diez
-2.503345	a dificultades
-2.503345	a discutir
-2.503345	a discutirlo
-2.033952	a dos
-2.286117	a elegir
-2.958073	a ello
-2.958073	a empresarios
-2.503345	a encontrar
-2.033952	a esa
-2.503345	a esas
-1.875453	a ese
-2.286117	a eso
-2.286117	a esos
-2.503345	a español
-2.033952	a esta
-2.286117	a estar
-2.503345	a estas
-1.668209	a este
-2.286117	a esto
-2.141984	a europa
-2.141984	a ex
-2.958073	a examinar
-2.503345	a fin
-2.958073	a fines
-2.958073	a funcionarios
-2.503345	a gobierno
-2.958073	a gran
-2.503345	a hablar
-2.286117	a hacer
-2.503345	a ir
-2.958073	a israel
-2.958073	a junio
-0.7390607	a la
-2.141984	a largo
-1.947512	a las
-2.503345	a lo
-1.165509	a los
-2.958073	a maniobras
-2.141984	a media
-2.286117	a menudo
-1.628847	a mi
-2.286117	a moscú
-2.958073	a mucha
-2.503345	a más
-2.286117	a méxico
-2.503345	a mí
-2.286117	a nadie
-2.503345	a nivel
-2.958073	a no
-2.141984	a nosotros
-2.503345	a nuestra
-2.286117	a nuestro
-2.503345	a nueve
-2.958073	a ocurrir
-2.958073	a otra
-2.958073	a otro
-1.813666	a otros
-2.503345	a palabras
-2.958073	a partidos
-2.958073	a paso
-2.958073	a personas
-2.958073	a policía
-2.503345	a político
-2.503345	a preguntas
-2.958073	a prensa
-2.958073	a programa
-1.875453	a que
-2.958073	a quedar
-2.958073	a quien
-2.958073	a quito
-2.958073	a reformas
-2.958073	a regir
-2.503345	a repetirse
-2.503345	a reservas
-2.286117	a respetar
-2.141984	a rusia
-2.958073	a salir
-2.958073	a salvo
-2.958073	a santiago
-2.286117	a seguir
-2.958073	a sentir
-1.875453	a ser
-2.958073	a serbia
-1.528494	a su
-2.958073	a suceder
-2.503345	a suecia
-2.958073	a sí
-2.503345	a tal
-2.286117	a tales
-2.141984	a tener
-2.503345	a territorios
-2.503345	a todas
-1.628847	a todos
-2.286117	a trabajar
-2.503345	a tribunal
-1.338113	a un
-1.947512	a una
-2.958073	a uno
-2.503345	a vender
-2.503345	a viajar
-2.503345	a votación
-2.958073	a votar
-0.2669919	abandonado la
-0.1132937	abastecimiento de
-0.2669919	abatir estructuras
-0.4143237	abierta </s>
-0.4143237	abierta dijo
-0.2669919	abiertas y
-0.289385	abierto </s>
-0.7441131	abierto a
-0.2669919	abrigamos la
-0.590415	abril </s>
-0.590415	abril agregó
-0.590415	abril se
-0.590415	abrió a
-1.045143	abrió irregular
-1.045143	abrió la
-1.045143	abrió los
-1.045143	abrió un
-0.07215685	acaba de
-0.289385	acaso haya
-0.7441131	acaso no
-0.2669919	acceder a
-0.5680218	acceso a
-0.5680218	acceso mayor
-0.138614	accidente </s>
-0.7665063	accidente se
-0.450903	acciones bajaron
-1.266992	acciones cayeron
-1.266992	acciones de
-1.266992	acciones en
-1.266992	acciones se
-1.266992	acciones son
-1.266992	acciones subieron
-0.4143237	acción </s>
-0.8690519	acción militar
-0.8690519	acción se
-0.2669919	acelerar el
-0.4143237	aceptable </s>
-0.4143237	aceptable dijo
-0.07215685	aceptar un
-0.2669919	aceptarla </s>
-0.1132937	aceptó la
-0.2669919	aclara que
-0.2669919	aclararlo todo
-0.2669919	acontecimiento a
-0.7441131	acordaron continuar
-0.289385	acordaron lo
-0.2669919	acordó que
-0.7441131	actitud </s>
-0.7441131	actitud de
-0.7441131	actitud no
-0.4143237	actividad </s>
-0.8690519	actividad con
-0.8690519	actividad volátil
-0.5492781	actividades </s>
-0.7665063	actividades de
-1.221234	actividades en
-1.221234	actividades fueron
-0.7665063	actividades no
-0.2669919	activo </s>
-0.5492781	acto </s>
-1.221234	acto la
-0.5492781	acto político
-0.7665063	acto único
-0.05296296	actor </s>
-0.891445	actual </s>
-1.346173	actual acuerdo
-0.891445	actual debate
-1.346173	actual debería
-0.891445	actual dijo
-1.346173	actual dista
-1.346173	actual posición
-0.891445	actual proyecto
-0.07215685	actualidad </s>
-0.2669919	actualizan constantemente
-0.2669919	actualizar cada
-0.7665063	actualmente el
-1.221234	actualmente en
-1.221234	actualmente hay
-0.7665063	actualmente la
-0.7665063	actualmente los
-1.221234	actualmente objeto
-0.2669919	actuando así
-0.289385	actuar ahora
-0.7441131	actuar declaró
-0.2669919	actuaré conforme
-0.2669919	acuerdan impulsar
-0.3937153	acuerdo </s>
-1.368566	acuerdo aceptable
-1.823294	acuerdo como
-1.151338	acuerdo con
-1.007205	acuerdo de
-1.368566	acuerdo dijo
-1.823294	acuerdo entre
-1.368566	acuerdo final
-1.368566	acuerdo no
-1.368566	acuerdo para
-1.823294	acuerdo que
-1.823294	acuerdo sobre
-0.05296296	acusaciones </s>
-0.2669919	acusados </s>
-0.590415	adelante </s>
-0.590415	adelante dijo
-0.590415	adelante sólo
-0.2669919	adelanto </s>
-0.8536564	además ahora
-1.308385	además al
-0.4922957	además de
-1.308385	además deberían
-1.308385	además no
-1.308385	además por
-1.308385	además se
-0.289385	adicionales </s>
-0.7441131	adicionales en
-0.2669919	adiós del
-0.2669919	adjudicada a
-0.7153537	adjunta </s>
-1.170082	adjunta copia
-1.170082	adjunta el
-0.3539929	adjunta una
-0.4143237	adjunto a
-0.8690519	adjunto copias
-0.8690519	adjunto el
-0.2669919	adoptará sus
-0.1132937	adoptarán por
-0.2669919	aducía </s>
-0.7441131	aeropuerto </s>
-0.289385	aeropuerto está
-0.1132937	afiliación a
-0.8690519	afirma benítez
-0.1970956	afirma que
-0.5680218	afirmativo a
-0.5680218	afirmativo tendríamos
-0.2245368	afirmó </s>
-0.7991556	afirmó el
-1.016384	afirmó que
-1.471112	afirmó uno
-0.2669919	agencia </s>
-0.05296296	agente </s>
-0.149873	agradecemos de
-0.9659619	agradecemos por
-0.5680218	agradeceremos que
-0.5680218	agradeceremos su
-0.2669919	agradecerle a
-0.8690519	agradezco de
-0.1970956	agradezco su
-0.5680218	agrava esta
-0.5680218	agrava la
-0.2669919	agravó la
-0.0800022	agregó </s>
-0.804766	agregó que
-0.2669919	agresión contra
-0.1132937	agrícola francés
-0.289385	agua </s>
-0.7441131	agua agrava
-0.2669919	aguarda regreso
-0.2669919	aguas no
-1.206778	ahora </s>
-2.022867	ahora al
-1.568139	ahora aún
-1.35091	ahora bien
-1.568139	ahora cuál
-2.022867	ahora de
-1.568139	ahora decidir
-1.568139	ahora dijo
-2.022867	ahora el
-1.568139	ahora en
-1.206778	ahora es
-2.022867	ahora esta
-2.022867	ahora estamos
-2.022867	ahora están
-2.022867	ahora ha
-2.022867	ahora hacia
-2.022867	ahora hemos
-1.568139	ahora la
-1.568139	ahora las
-2.022867	ahora muchos
-0.9402463	ahora no
-1.568139	ahora o
-1.568139	ahora podemos
-2.022867	ahora puede
-2.022867	ahora que
-1.568139	ahora solamente
-1.568139	ahora soy
-1.35091	ahora tenemos
-1.568139	ahora un
-0.8690519	ahí en
-0.8690519	ahí es
-0.4143237	ahí fue
-0.1132937	aislamiento fue
-1.876722	al alza
-2.33145	al anexo
-2.33145	al arbitraje
-2.33145	al artículo
-1.515361	al ataque
-2.33145	al banco
-2.33145	al caer
-1.659494	al cierre
-1.407329	al comité
-1.876722	al congreso
-1.876722	al consejo
-1.876722	al consenso
-2.33145	al cuadro
-1.876722	al decir
-1.515361	al derecho
-2.33145	al edificio
-1.876722	al ejército
-2.33145	al envío
-2.33145	al ex
-1.515361	al exterior
-1.876722	al final
-1.659494	al gobierno
-1.876722	al gran
-1.876722	al grupo
-1.876722	al hospital
-1.876722	al jurado
-2.33145	al leer
-1.876722	al llegar
-2.33145	al marcador
-2.33145	al marco
-1.659494	al menos
-2.33145	al mercado
-2.33145	al ministro
-1.515361	al mismo
-2.33145	al muerto
-2.33145	al otro
-1.407329	al parecer
-1.876722	al país
-2.33145	al perú
-1.876722	al poder
-2.33145	al político
-2.33145	al presente
-1.876722	al principio
-2.33145	al problema
-1.876722	al pueblo
-2.33145	al párrafo
-1.876722	al público
-1.876722	al representante
-1.132961	al respecto
-1.876722	al resultado
-2.33145	al salir
-1.876722	al secretario
-1.876722	al seis
-2.33145	al senado
-2.33145	al señor
-1.876722	al siguiente
-2.33145	al tratado
-2.33145	al voto
-1.876722	al último
-0.2669919	albacora han
-0.2669919	aldeas </s>
-1.11209	alemania </s>
-1.11209	alemania a
-0.6573618	alemania dice
-1.11209	alemania negó
-0.6573618	alemania y
-0.2940056	alemán </s>
-0.5112337	alemán trata
-0.2669919	alfonsín y
-1.016384	algo como
-0.7991556	algo de
-1.016384	algo muy
-1.016384	algo más
-1.016384	algo puede
-0.7991556	algo que
-1.016384	algo rara
-1.170082	alguna </s>
-1.170082	alguna dijo
-0.7153537	alguna esperanza
-1.170082	alguna para
-0.7153537	alguna parte
-1.170082	alguna razón
-0.590415	algunas actividades
-1.045143	algunas condiciones
-1.045143	algunas cosas
-1.045143	algunas de
-1.045143	algunas dificultades
-0.2669919	alguno de
-1.042713	algunos </s>
-1.042713	algunos choques
-0.8254845	algunos de
-1.497441	algunos eso
-1.497441	algunos esto
-1.042713	algunos papeles
-1.497441	algunos países
-1.042713	algunos representantes
-1.042713	algunos son
-1.497441	algunos testigos
-0.2669919	alimentaria continúa
-0.2669919	alla del
-0.5112337	allá agregó
-0.2940056	allá de
-0.1879691	allí </s>
-1.11209	allí con
-1.11209	allí se
-0.9659619	alta mar
-0.5112337	alta tasa
-0.5112337	alta tiene
-0.05296296	altibajos </s>
-0.7665063	alto </s>
-0.7665063	alto de
-0.7665063	alto ese
-1.221234	alto organismo
-0.7665063	alto todos
-0.289385	alvaro dijo
-0.7441131	alvaro lo
-0.9659619	alza </s>
-0.9659619	alza contra
-0.9659619	alza de
-0.5112337	alza en
-0.7441131	amable atención
-0.289385	amable cooperación
-0.2669919	amazónico </s>
-0.7153537	ambas cartas
-1.170082	ambas naves
-0.3539929	ambas partes
-1.170082	ambas reuniones
-1.266992	ambos efectos
-1.266992	ambos equipos
-1.266992	ambos negaron
-1.266992	ambos países
-0.8122637	ambos sectores
-0.8122637	ambos son
-0.8122637	ambos tenían
-0.6573618	amplia </s>
-0.6573618	amplia gama
-0.6573618	amplia paz
-1.11209	amplia y
-0.8690519	ampliado la
-0.4143237	ampliado también
-0.8690519	ampliado y
-0.2669919	ampliamente sobre
-0.2669919	ampliar esa
-0.7441131	ampliarse en
-0.289385	ampliarse o
-0.1015284	amplio </s>
-1.11209	amplio del
-0.2669919	amplitud de
-0.5680218	américa central
-0.5680218	américa latina
-0.2669919	analfabetos del
-0.2669919	analista </s>
-0.2669919	analizado cuidadosamente
-0.8690519	anexo adjunto
-0.8690519	anexo al
-0.8690519	anexo diez
-0.8690519	anexo tres
-0.8690519	anexos </s>
-0.8690519	anexos al
-0.8690519	anexos del
-0.8690519	anexos seis
-0.2669919	anonimato </s>
-1.042713	ante el
-0.6813519	ante la
-1.042713	ante sus
-1.042713	ante sí
-0.8254845	ante todo
-1.042713	ante un
-1.042713	ante una
-0.04184103	antemano su
-0.7441131	antenas solares
-0.289385	antenas también
-0.1132937	anterior </s>
-0.289385	anticipado </s>
-0.7441131	anticipado su
-0.2669919	anticipó qué
-0.2669919	anual del
-0.2669919	anunciado aún
-0.2669919	anunciados </s>
-0.2669919	anunciar medidas
-0.1132937	análisis </s>
-0.1132937	apagones eléctricos
-0.2669919	aparentemente mantiene
-0.2669919	apelables ante
-0.7441131	apelación </s>
-0.7441131	apelación en
-0.7441131	apelación había
-0.5680218	apertura </s>
-0.5680218	apertura del
-0.5112337	aplicación contra
-0.9659619	aplicación de
-0.5112337	aplicación del
-1.266992	apoyo </s>
-0.8122637	apoyo a
-1.266992	apoyo comentó
-1.266992	apoyo completo
-0.8122637	apoyo de
-0.8122637	apoyo en
-1.266992	apoyo y
-0.6573618	aprobación </s>
-0.6573618	aprobación del
-1.11209	aprobación general
-0.6573618	aprobación necesaria
-0.2669919	aprobar su
-0.2669919	aprobaron en
-0.5189623	aprobó el
-1.443083	aprobó esta
-0.988355	aprobó este
-0.988355	aprobó la
-1.443083	aprobó las
-0.988355	aprobó ninguna
-1.443083	aprobó presupuesto
-1.443083	aprobó proyectos
-0.2669919	aproximadas de
-0.2669919	aprueba ley
-0.2669919	aragón dijo
-0.2669919	arbitraje </s>
-0.2669919	aremisos a
-0.289385	argentina espera
-0.7441131	argentina que
-0.289385	argentino en
-0.7441131	argentino polemiza
-0.7441131	arias dice
-0.289385	arias se
-0.4143237	aristide no
-0.4143237	aristide se
-0.289385	arma </s>
-0.7441131	arma sónica
-0.2669919	armamento será
-0.06180951	armas </s>
-1.308385	armas en
-0.2669919	arrecian críticas
-0.9659619	arreglo a
-0.5112337	arreglo amplio
-0.9659619	arreglo así
-0.9659619	arreglo no
-0.289385	arroz </s>
-0.7441131	arroz norteamericano
-0.2669919	arte y
-0.2669919	artistas están
-1.170082	artículo </s>
-0.4981256	artículo catorce
-1.170082	artículo segundo
-1.170082	artículo también
-0.7153537	artículo trece
-0.2669919	asalariados han
-1.016384	asamblea </s>
-1.471112	asamblea del
-0.2726232	asamblea general
-1.471112	asamblea no
-1.471112	asamblea ordinaria
-1.016384	asamblea se
-0.1132937	asegurado </s>
-0.1132937	aseveró </s>
-0.1132937	asignación puede
-0.5680218	asimismo la
-0.5680218	asimismo lamentó
-0.5112337	asistencia por
-0.9659619	asistencia técnica
-0.5112337	asistencia y
-0.289385	aspecto </s>
-0.7441131	aspecto negativo
-0.1132937	aspectos </s>
-0.1132937	aspin no
-0.2669919	assad </s>
-0.5680218	astronautas del
-0.5680218	astronautas instalan
-0.2669919	asumiría ministerio
-0.4922957	asunto </s>
-1.308385	asunto al
-0.4922957	asunto de
-1.308385	asunto requiere
-1.308385	asunto se
-0.7441131	asuntos civiles
-0.7441131	asuntos mundiales
-0.7441131	asuntos no
-0.8362139	así </s>
-1.846775	así con
-1.392047	así cuáles
-1.174819	así el
-1.846775	así es
-1.392047	así figura
-1.846775	así hasta
-1.846775	así las
-1.392047	así lo
-1.846775	así mi
-0.9226546	así pues
-0.9226546	así que
-1.846775	así quedó
-1.846775	así sea
-1.174819	así sería
-1.846775	así sigue
-1.392047	así ya
-0.2669919	atacar ahora
-0.3539929	ataque </s>
-0.7153537	ataque al
-0.7153537	ataque sin
-0.2669919	ataúd </s>
-1.346173	atención </s>
-0.891445	atención a
-1.346173	atención de
-0.891445	atención del
-0.891445	atención este
-0.6742169	atención médica
-1.346173	atención se
-0.2669919	atender esa
-0.5680218	atentado </s>
-0.5680218	atentado de
-0.8690519	aterrizó con
-0.4143237	aterrizó en
-0.8690519	aterrizó sin
-0.2669919	atlanta dos
-0.2669919	atraer aremisos
-0.2669919	atraviesan un
-0.2669919	atribuírlo a
-0.7441131	atrás </s>
-0.289385	atrás la
-0.1132937	atuendo </s>
-0.2669919	audaz </s>
-0.2669919	audiencias sobre
-0.1132937	aumenta su
-0.7441131	aumentado en
-0.289385	aumentado la
-0.7441131	aumentaron </s>
-0.289385	aumentaron los
-0.590415	aumentó </s>
-1.045143	aumentó el
-0.590415	aumentó en
-1.045143	aumentó las
-0.2669919	ausencia </s>
-0.2669919	australiano </s>
-0.2669919	autobús </s>
-0.2669919	autoevaluaciones no
-0.4143237	autor </s>
-0.4143237	autor afirma
-1.045143	autoridades </s>
-0.590415	autoridades de
-0.3731869	autoridades no
-0.590415	avance </s>
-1.045143	avance este
-1.045143	avance importante
-0.590415	avance moderado
-0.2669919	avances </s>
-0.7441131	avanza cada
-0.289385	avanza y
-0.5680218	avanzado en
-0.5680218	avanzado mucho
-0.2669919	avaro y
-0.2669919	avisaremos en
-0.5112337	avión aterrizó
-0.9659619	avión español
-0.9659619	avión hará
-0.9659619	avión norteamericano
-0.450903	ayer </s>
-1.266992	ayer a
-0.8122637	ayer dijo
-0.8122637	ayer la
-1.266992	ayer se
-0.57332	ayuda </s>
-0.8254845	ayuda a
-0.8254845	ayuda al
-1.042713	ayuda de
-1.497441	ayuda en
-1.042713	ayuda por
-1.497441	ayuda y
-0.2669919	ayudará a
-0.2669919	aérea de
-0.07215685	aéreos en
-0.1824466	añadió </s>
-0.5648463	añadió que
-0.8311142	año </s>
-1.647203	año después
-1.647203	año el
-0.9752468	año en
-1.192475	año era
-1.192475	año ha
-1.647203	año hará
-1.647203	año internacional
-1.647203	año negativo
-1.192475	año nos
-1.647203	año nuevo
-1.192475	año pasado
-1.192475	año también
-1.647203	año y
-0.1982178	años </s>
-1.126515	años cuando
-1.343743	años de
-1.343743	años después
-1.798471	años dijo
-1.798471	años es
-1.798471	años esta
-1.798471	años que
-1.798471	años se
-0.7864315	aún </s>
-1.869052	aún así
-1.869052	aún añadió
-1.869052	aún del
-1.869052	aún detenciones
-1.869052	aún en
-1.414324	aún estamos
-1.197096	aún los
-0.8584903	aún más
-1.869052	aún ni
-0.4105876	aún no
-0.5112337	baja </s>
-0.9659619	baja en
-0.9659619	baja leve
-0.9659619	baja se
-0.6573618	bajaron en
-1.11209	bajaron más
-0.6573618	bajaron nueve
-0.6573618	bajaron también
-0.2669919	baje expresó
-0.6573618	bajo </s>
-1.11209	bajo condición
-1.11209	bajo control
-1.11209	bajo dijo
-1.11209	bajo en
-1.11209	bajo palabra
-0.07215685	bajos </s>
-0.4143237	balladur ha
-0.4143237	balladur no
-0.1132937	bancario </s>
-1.443083	banco </s>
-0.6269943	banco central
-0.988355	banco de
-0.988355	banco ha
-1.443083	banco nación
-0.7711269	banco no
-0.988355	banco para
-0.2940056	bancos ha
-0.9659619	bancos se
-0.9659619	bancos y
-0.7441131	basa el
-0.289385	basa en
-0.2669919	basado en
-0.5492781	base de
-0.7665063	base intelectual
-0.5492781	base para
-1.221234	base se
-0.8690519	bastante amplia
-0.8690519	bastante corto
-0.8690519	bastante más
-0.8690519	bastante preocupantes
-0.289385	batalla </s>
-0.7441131	batalla la
-0.2669919	batallones en
-0.2669919	beca fue
-0.2669919	bendiga a
-0.7441131	benítez </s>
-0.289385	benítez insta
-0.1132937	berlín </s>
-0.2669919	bielorrusia busca
-0.8254845	bien </s>
-1.042713	bien cabe
-1.042713	bien como
-1.497441	bien conocida
-1.497441	bien desde
-0.6813519	bien dijo
-1.497441	bien existe
-1.497441	bien informados
-1.497441	bien la
-1.497441	bien ubicado
-0.2669919	bienvenida </s>
-0.1132937	blancos </s>
-0.5680218	bogotá </s>
-0.5680218	bogotá y
-0.1132937	bola de
-0.2669919	bomba </s>
-0.2669919	bonos </s>
-0.2669919	boquete en
-0.5680218	borrador </s>
-0.5680218	borrador de
