
\data\
ngram 1=2756
ngram 2=6812

\1-grams:
-1.71661e-05	</s>	0
-0.0735149	<s>	0
-0.0130692	a	0
-8.58765	abajo	0
-8.58765	abandonada	0
-7.21216	abandonado	0
-8.58765	abarcan	0
-7.51176	abastecimiento	0
-4.99802	abatir	0
-4.04561	abierta	0
-4.25272	abiertas	0
-3.03319	abierto	0
-8.58765	abra	0
-7.5921	abrigamos	0
-6.56757	abril	0
-3.32227	abrió	0
-8.58765	abstracto	0
-8.58765	abundan	0
-8.58765	aburrida	0
-4.35477	acaba	0
-8.58765	acaben	0
-6.27637	acaso	0
-8.58765	acatamiento	0
-5.59586	acceder	0
-5.53554	acceso	0
-7.15777	accidente	0
-1.76477	acciones	0
-4.02073	acción	0
-4.64128	acelerar	0
-8.58765	acento	0
-4.44351	aceptable	0
-6.87274	aceptar	0
-5.50837	aceptarla	0
-8.58765	acepto	0
-4.46662	aceptó	0
-7.61053	aclara	0
-3.3	aclararlo	0
-8.58765	acomete	0
-7.42973	acontecimiento	0
-8.58765	acopla	0
-3.87325	acordaron	0
-4.31035	acordó	0
-8.58765	acortarán	0
-8.58765	acosta	0
-6.26494	actitud	0
-2.73898	actividad	0
-3.02219	actividades	0
-6.55053	activo	0
-8.58765	activos	0
-3.99225	acto	0
-7.05674	actor	0
-8.58765	actuaciones	0
-1.57254	actual	0
-8.03032	actualidad	0
-4.56259	actualizan	0
-3.61428	actualizar	0
-3.39616	actualmente	0
-3.1982	actuando	0
-4.89298	actuar	0
-3.58471	actuaré	0
-8.58765	acude	0
-1.93734	acuerdan	0
-1.68703	acuerdo	0
-6.13464	acusaciones	0
-7.66351	acusados	0
-3.39356	adelante	0
-7.78153	adelanto	0
-4.13617	además	0
-3.40842	adicionales	0
-5.08306	adiós	0
-8.58765	adjudica	0
-7.31415	adjudicada	0
-3.59202	adjunta	0
-8.58765	adjuntan	0
-3.49132	adjunto	0
-8.58765	admite	0
-3.74129	adoptado	0
-5.1405	adoptará	0
-7.15273	adoptarán	0
-7.6929	aducía	0
-8.58765	advirtió	0
-7.02481	aeropuerto	0
-8.58765	aeropuertos	0
-8.58765	afectados	0
-7.14653	afiliación	0
-2.36486	afirma	0
-3.30946	afirmativo	0
-0.719247	afirmó	0
-7.99172	agencia	0
-7.73983	agente	0
-6.01065	agradecemos	0
-6.38581	agradeceremos	0
-5.51757	agradecerle	0
-6.35027	agradezco	0
-4.96713	agrava	0
-4.00554	agravó	0
-0.291544	agregó	0
-2.11626	agresión	0
-8.58765	agrupación	0
-2.89567	agrícola	0
-5.24604	agua	0
-2.74682	aguarda	0
-8.58765	aguarme	0
-7.5659	aguas	0
-8.58765	ahondar	0
-0.635941	ahora	0
-8.58765	ahorra	0
-3.54954	ahí	0
-6.89677	aislamiento	0
-8.58765	ajustará	0
-0.0313387	al	0
-6.38108	albacora	0
-6.40635	aldeas	0
-8.58765	alegatos	0
-3.95745	alemania	0
-3.9706	alemán	0
-4.77034	alfonsín	0
-0.722534	algo	0
-0.927667	alguna	0
-1.94263	algunas	0
-7.64052	alguno	0
-1.13713	algunos	0
-4.33541	alimentaria	0
-6.73729	alla	0
-8.58765	allen	0
-2.72592	allá	0
-4.2102	allí	0
-8.58765	alrededor	0
-2.40286	alta	0
-3.72147	altibajos	0
-2.81112	alto	0
-6.94721	alvaro	0
-4.92808	alza	0
-3.30196	amable	0
-5.31165	amazónico	0
-2.07691	ambas	0
-0.85843	ambos	0
-1.79993	amplia	0
-6.22394	ampliado	0
-3.69863	ampliamente	0
-6.48877	ampliar	0
-5.14041	ampliarse	0
-3.0713	amplio	0
-7.87527	amplitud	0
-4.16673	américa	0
-7.06948	analfabetos	0
-7.83509	analista	0
-4.04017	analizado	0
-8.58765	analogía	0
-3.38033	anexo	0
-4.88099	anexos	0
-8.58765	anonadado	0
-8.09547	anonimato	0
-0.412658	ante	0
-6.88949	antemano	0
-3.98313	antenas	0
-5.33313	anterior	0
-5.32462	anticipado	0
-6.21811	anticipó	0
-8.58765	antología	0
-5.39894	anual	0
-6.2813	anunciado	0
-6.83769	anunciados	0
-4.95596	anunciar	0
-7.82399	análisis	0
-3.55616	apagones	0
-8.58765	aparecen	0
-4.08894	aparentemente	0
-5.01448	apelables	0
-6.59866	apelación	0
-8.58765	apelado	0
-5.52163	apertura	0
-5.69073	aplicación	0
-8.58765	aplicar	0
-8.58765	aportaciones	0
-1.9566	apoyo	0
-8.58765	apremio	0
-5.31901	aprobación	0
-8.58765	aprobado	0
-6.13107	aprobar	0
-7.41189	aprobaron	0
-1.71691	aprobó	0
-6.00097	aproximadas	0
-2.43337	aprueba	0
-8.58765	apuntarán	0
-8.58765	aquella	0
-7.45662	aragón	0
-7.49818	arbitraje	0
-3.74133	aremisos	0
-3.05924	argentina	0
-2.91862	argentino	0
-5.82133	arias	0
-7.2351	aristide	0
-5.23565	arma	0
-6.6589	armamento	0
-3.26386	armas	0
-2.85045	arrecian	0
-3.55814	arreglo	0
-8.58765	arrestado	0
-4.44458	arroz	0
-6.77539	arte	0
-6.08419	artistas	0
-2.76025	artículo	0
-8.58765	artículos	0
-5.9957	asalariados	0
-3.51836	asamblea	0
-8.58765	ascenso	0
-7.06015	asegurado	0
-8.58765	asesinar	0
-5.08187	aseveró	0
-4.11269	asignación	0
-3.39801	asimismo	0
-8.58765	asisten	0
-1.44592	asistencia	0
-8.58765	asociado	0
-8.58765	asombro	0
-4.61773	aspecto	0
-6.82271	aspectos	0
-7.56422	aspin	0
-7.70408	assad	0
-4.81102	astronautas	0
-3.04866	asumiría	0
-4.7587	asunto	0
-2.68278	asuntos	0
-1.62231	así	0
-6.13371	atacar	0
-6.33882	ataque	0
-7.51131	ataúd	0
-3.13913	atención	0
-6.52067	atender	0
-7.79942	atentado	0
-2.16769	aterrizó	0
-6.69825	atlanta	0
-4.10876	atraer	0
-3.92849	atraviesan	0
-6.21639	atribuírlo	0
-3.49493	atrás	0
-8.11307	atuendo	0
-7.74746	audaz	0
-5.67139	audiencias	0
-4.50812	aumenta	0
-5.90203	aumentado	0
-6.62879	aumentaron	0
-8.58765	aumentos	0
-3.77913	aumentó	0
-7.83475	ausencia	0
-8.01824	australiano	0
-8.08685	autobús	0
-5.61404	autoevaluaciones	0
-3.37865	automóvil	0
-8.58765	automóviles	0
-4.7417	autor	0
-6.27709	autoridades	0
-3.77418	avance	0
-8.58765	avancen	0
-4.84184	avances	0
-3.55399	avanza	0
-5.67265	avanzado	0
-3.12894	avaro	0
-8.58765	avendaño	0
-7.48555	avisaremos	0
-1.76495	avión	0
-3.85569	ayer	0
-2.8012	ayuda	0
-7.41677	ayudará	0
-3.10436	aérea	0
-4.55335	aéreos	0
-2.35817	añadió	0
-1.99561	año	0
-2.22994	años	0
-1.33858	aún	0
-5.24337	baja	0
-1.76583	bajaron	0
-5.36256	baje	0
-0.465276	bajo	0
-5.64421	bajos	0
-6.48594	balladur	0
-5.96422	bancario	0
-4.11655	banco	0
-8.58765	bancolombia	0
-2.70809	bancos	0
-7.46627	basa	0
-7.23351	basado	0
-4.86039	base	0
-1.82325	bastante	0
-8.58765	basándose	0
-3.89201	batalla	0
-4.23429	batallones	0
-8.58765	baviera	0
-4.4283	beca	0
-8.58765	bena	0
-4.68449	bendiga	0
-4.12748	benítez	0
-7.87472	berlín	0
-8.58765	bernardin	0
-8.58765	bernardo	0
-4.85146	bielorrusia	0
-1.14126	bien	0
-7.99584	bienvenida	0
-7.04127	blancos	0
-8.58765	blum	0
-5.77582	bogotá	0
-7.24119	bola	0
-6.50162	bomba	0
-8.58765	bondes	0
-8.58765	bonn	0
-5.44449	bonos	0
-7.15102	boquete	0
-7.98169	borrador	0
-8.58765	borrados	0
-6.03575	bosnia	0
-8.58765	bosques	0
-2.72562	brasil	0
-0.966306	brasileño	0
-4.43488	breve	0
-0.604188	brevemente	0
-8.58765	bruselas	0
-5.83647	buceador	0
-2.05166	buen	0
-2.87521	bueno	0
-2.25086	busca	0
-8.58765	buscamos	0
-2.94574	buscar	0
-8.58765	básicos	0
-7.8036	bósforo	0
-2.21666	cabe	0
-3.97156	cabo	0
-3.8716	cabría	0
-8.58765	cachemira	0
-0.66085	cada	0
-5.80135	cadena	0
-3.34756	caer	0
-8.58765	cafetería	0
-7.37985	caja	0
-1.69568	caldera	0
-6.81544	calefacción	0
-7.88436	calidad	0
-7.11624	camacho	0
-6.1024	cambiado	0
-4.35001	cambio	0
-1.68529	cambios	0
-5.69505	cambió	0
-4.85681	campamento	0
-7.23011	campaña	0
-3.71131	campeones	0
-5.98827	campo	0
-7.51521	canalizó	0
-2.59249	canciller	0
-4.42997	cancillería	0
-3.54621	candidato	0
-2.12451	candidatos	0
-5.78564	cantante	0
-5.5779	cantidad	0
-4.57802	capacidad	0
-8.58765	capaz	0
-3.95827	capital	0
-8.58765	captura	0
-4.47397	capítulo	0
-8.58765	cara	0
-3.22683	caracas	0
-5.16234	caravana	0
-7.85586	carbón	0
-5.35066	cardona	0
-5.6651	carece	0
-6.31115	carga	0
-5.50179	cargo	0
-2.97634	carlos	0
-7.45602	carnaval	0
-8.58765	caro	0
-4.10132	carrera	0
-3.27851	carta	0
-4.0244	cartas	0
-7.67	carteles	0
-5.06138	casa	0
-5.11692	casas	0
-1.1867	casi	0
-7.79248	casino	0
-1.97196	caso	0
-3.53142	casos	0
-6.5524	casó	0
-8.58765	catedral	0
-2.30869	catorce	0
-4.61799	católica	0
-5.4115	causa	0
-4.19878	causas	0
-2.38337	causó	0
-8.58765	cavallo	0
-4.95231	cayeron	0
-4.8118	cañoneos	0
-4.66522	ceda	0
-1.85841	cedería	0
-4.97214	celebración	0
-7.1454	cenizas	0
-2.65179	central	0
-4.94066	centro	0
-8.58765	centroamérica	0
-3.65612	cerca	0
-2.39465	cero	0
-8.58765	cerrados	0
-3.57365	cerrar	0
-8.58765	cerraron	0
-4.86324	cerrará	0
-5.02645	cerveza	0
-8.58765	cesación	0
-7.38074	cesar	0
-8.58765	cese	0
-8.58765	cetáceos	0
-4.26975	chiapas	0
-2.7835	chile	0
-3.07157	chileno	0
-2.20274	china	0
-0.968011	chocó	0
-7.67139	choferes	0
-3.82101	choques	0
-5.25315	ciega	0
-7.99701	cielo	0
-7.3165	ciento	0
-4.23719	científicos	0
-8.58765	ciernen	0
-6.88412	cierra	0
-6.04771	cierre	0
-1.44452	cierto	0
-2.31942	cifra	0
-1.42681	cifras	0
-1.38473	cinco	0
-4.64529	ciudad	0
-4.00256	civiles	0
-6.76089	civilizados	0
-3.30677	claro	0
-5.60153	clase	0
-7.90704	clasificación	0
-8.58765	claudio	0
-7.15314	clausura	0
-4.29954	clausuran	0
-4.23336	claves	0
-8.58765	climáticos	0
-2.02662	clinton	0
-7.87531	coalición	0
-7.99507	coherencia	0
-6.3233	colaboración	0
-7.97556	colaborar	0
-8.58765	coleman	0
-4.46172	colombia	0
-8.58765	colombo	0
-8.58765	colonos	0
-3.56329	columna	0
-3.90385	combates	0
-7.18536	combatir	0
-8.58765	combustible	0
-8.58765	comedia	0
-8.58765	comentado	0
-7.49728	comentar	0
-4.54438	comentario	0
-2.87582	comentarios	0
-1.76793	comentó	0
-8.03692	comenzar	0
-3.77784	comenzará	0
-7.49552	comenzarán	0
-3.76046	comerciales	0
-7.83693	comercializó	0
-6.44925	comercio	0
-6.2546	comienza	0
-6.25537	comienzo	0
-8.02502	comisionista	0
-2.23089	comisión	0
-2.06197	comité	0
-3.08893	comités	0
-0.402972	como	0
-8.58765	compara	0
-5.34406	comparte	0
-3.76568	comparten	0
-6.79927	compartieron	0
-6.64779	comparó	0
-7.0421	compasión	0
-7.34372	compatible	0
-5.48662	compañía	0
-5.08569	compensatorias	0
-6.11753	competitiva	0
-4.56295	complace	0
-7.03886	complaciente	0
-7.19724	complejo	0
-8.58765	complejos	0
-3.53145	completa	0
-8.58765	completan	0
-4.49076	completo	0
-6.05795	completos	0
-3.91979	completó	0
-5.26725	complicadas	0
-8.58765	composición	0
-4.07528	compras	0
-4.91611	comprende	0
-7.60654	comprendemos	0
-8.58765	comprender	0
-8.58765	comprenderse	0
-8.58765	comprenderá	0
-4.64371	comprendió	0
-8.10286	comprensión	0
-7.15621	comprometido	0
-5.2836	compromiso	0
-1.71216	común	0
-0.225786	con	0
-7.38681	concebido	0
-6.02377	concepto	0
-5.49472	conciencia	0
-7.0566	conclusiones	0
-4.8969	conclusión	0
-3.4753	concluye	0
-6.81336	concluídas	0
-3.58922	concluído	0
-4.68034	concreta	0
-4.044	concretos	0
-8.58765	concuerda	0
-6.29241	concéntrese	0
-3.01551	condena	0
-8.58765	condenatorio	0
-2.84365	condiciones	0
-5.05933	condición	0
-7.35493	conductor	0
-8.58765	condujo	0
-7.99755	conexión	0
-3.46381	conferencia	0
-3.45511	confianza	0
-8.58765	confidenciales	0
-5.87338	confirmado	0
-6.0892	conflictos	0
-4.65992	conforme	0
-8.58765	confuso	0
-8.58765	congelarían	0
-5.88276	congreso	0
-4.96748	conoce	0
-8.58765	conocen	0
-5.00338	conocer	0
-7.79968	conocerla	0
-6.1691	conocida	0
-6.11799	conocido	0
-4.34484	conocimiento	0
-4.437	consecuencia	0
-8.58765	consecutivos	0
-8.58765	conseguir	0
-2.77	consejo	0
-5.79547	consenso	0
-8.58765	conservación	0
-6.23624	considera	0
-4.9159	considerablemente	0
-4.48128	consideración	0
-5.76598	consideró	0
-8.58765	consignaciones	0
-5.13183	consiguiente	0
-2.62525	consta	0
-3.5265	constante	0
-3.1898	constantemente	0
-4.76853	constituirán	0
-3.00543	constituye	0
-7.57616	construcciones	0
-8.58765	construir	0
-3.172	consulta	0
-6.15488	consumado	0
-8.58765	consumo	0
-8.58765	contactado	0
-2.72184	contacto	0
-8.05046	contaduría	0
-8.58765	contemplaba	0
-7.79917	contenido	0
-7.45099	conteo	0
-8.58765	contestaron	0
-6.12246	contextos	0
-1.91071	continuaban	0
-4.35682	continuación	0
-8.58765	continuado	0
-2.44477	continuar	0
-2.9066	continuaran	0
-3.03667	continuaremos	0
-4.62282	continuarán	0
-1.58016	continúa	0
-5.82132	continúe	0
-7.10192	continúen	0
-0.691274	contra	0
-8.58765	contradicciones	0
-2.87374	contrario	0
-6.048	control	0
-3.66899	controlado	0
-5.46015	convencidos	0
-5.82955	convención	0
-2.04995	conveniente	0
-4.35721	conversaciones	0
-4.01559	cooperación	0
-8.58765	coordinación	0
-7.59685	copa	0
-4.86071	copia	0
-8.04478	copiar	0
-5.08257	copias	0
-8.58765	cordinar	0
-0.133878	correa	0
-4.05961	correcta	0
-8.58765	correctas	0
-4.17194	correcto	0
-6.07148	corregirse	0
-3.92692	correr	0
-4.33195	correspondientes	0
-4.37088	correspondía	0
-7.66906	corro	0
-8.58765	corros	0
-4.58475	corrupción	0
-7.50712	cortar	0
-3.71688	corte	0
-8.58765	cortes	0
-3.23494	corto	0
-2.55797	cosa	0
-1.58895	cosas	0
-4.82165	costa	0
-7.57758	costo	0
-7.73282	costosas	0
-7.51629	cotización	0
-8.58765	cotizó	0
-8.58765	creado	0
-4.29483	crean	0
-4.6657	creciente	0
-5.76125	crecimiento	0
-7.1264	cree	0
-5.54962	creen	0
-6.80688	creo	0
-8.58765	creíamos	0
-6.16052	creó	0
-5.46041	crisis	0
-7.5694	cristal	0
-4.24637	criterios	0
-2.41793	critica	0
-5.00349	criticará	0
-4.9207	crucial	0
-7.82296	crudo	0
-8.58765	cruzada	0
-8.58765	crédito	0
-4.28824	críticas	0
-8.58765	críticos	0
-4.90673	cuadro	0
-7.34009	cuadros	0
-4.87529	cual	0
-1.23119	cualquier	0
-0.877234	cuando	0
-2.39343	cuanto	0
-5.18315	cuantos	0
-8.58765	cuarenta	0
-8.58765	cuarta	0
-1.1155	cuatro	0
-4.2246	cuba	0
-4.01546	cubierta	0
-4.21364	cuenta	0
-5.81471	cuentas	0
-2.74474	cuesta	0
-8.02146	cuestionario	0
-3.75013	cuestiones	0
-3.94275	cuestión	0
-3.07192	cuidadosamente	0
-7.16478	cuidadosos	0
-5.71118	cuidan	0
-5.05783	culpable	0
-7.64283	culpables	0
-7.25114	cultura	0
-7.86056	cumplen	0
-4.53185	cumplimiento	0
-3.53968	cumplir	0
-4.3811	cumplirán	0
-4.46196	curso	0
-7.39566	cursos	0
-2.53325	cuál	0
-4.54873	cuáles	0
-4.25157	cuándo	0
-8.58765	cuánta	0
-5.41274	cámara	0
-2.14156	césar	0
-7.84838	cólera	0
-2.41597	cómo	0
-3.75148	daba	0
-7.71022	dadi	0
-1.25626	dado	0
-6.62804	dan	0
-1.65901	dar	0
-2.90314	dañados	0
-0.787329	daños	0
-0.0269375	de	0
-7.22811	debajo	0
-3.18507	debamos	0
-4.04154	debate	0
-6.97503	debatir	0
-7.641	debatió	0
-0.358331	debe	0
-0.88146	debemos	0
-1.44783	deben	0
-4.76944	deber	0
-2.62664	deberá	0
-0.832273	debería	0
-1.37128	deberían	0
-3.82898	debido	0
-8.58765	debieran	0
-4.12541	debió	0
-1.90139	debo	0
-3.20341	debían	0
-8.58765	decenal	0
-6.15782	decepcionar	0
-5.57419	decida	0
-3.99594	decide	0
-5.17618	decidir	0
-3.4409	decidirá	0
-1.74939	decidió	0
-2.01723	decir	0
-2.86744	decisiones	0
-2.20795	decisión	0
-0.714458	declara	0
-1.43743	declaraciones	0
-4.28686	declaración	0
-1.90267	declaró	0
-8.58765	declinó	0
-3.92966	decreto	0
-5.41811	defenderemos	0
-8.58765	defenderse	0
-1.94252	defendió	0
-7.86748	defensa	0
-3.30272	definiciones	0
-8.58765	definición	0
-4.74666	definitivamente	0
-4.47165	definitoria	0
-7.96352	defraudar	0
-7.69288	degeneren	0
-8.58765	dejaba	0
-3.50126	dejar	0
-3.84955	dejará	0
-2.60738	dejó	0
-0.234202	del	0
-2.38087	delegaciones	0
-1.98403	delegación	0
-5.48115	delegados	0
-2.7729	demanda	0
-8.58765	demandado	0
-7.89421	demandante	0
-1.18313	demasiado	0
-5.30334	democracia	0
-8.58765	democráticamente	0
-1.98012	demora	0
-2.74353	demás	0
-8.58765	denunciarlo	0
-7.6813	departamento	0
-7.18475	departamentos	0
-3.24485	depende	0
-4.65444	deportiva	0
-7.72395	deprimido	0
-8.58765	depósitos	0
-4.19468	derecha	0
-2.41765	derecho	0
-2.56359	derechos	0
-3.00634	derrame	0
-8.58765	derrocamiento	0
-6.30365	desacuerdo	0
-7.41802	desalentadora	0
-4.46822	desarmados	0
-8.58765	desarmar	0
-8.58765	desarrollando	0
-4.59529	desarrollar	0
-3.15841	desarrollo	0
-6.22655	descarrilar	0
-7.00109	descartado	0
-5.00739	descartar	0
-7.03433	desconoce	0
-4.29552	describen	0
-6.04968	describir	0
-4.04643	describió	0
-5.13697	describía	0
-8.58765	descubrir	0
-0.460444	desde	0
-1.02171	desea	0
-5.07394	desempeña	0
-7.40648	deseo	0
-4.67803	desfigurada	0
-2.90951	desgarramiento	0
-8.58765	desglosarse	0
-8.58765	desgraciadamente	0
-8.58765	designar	0
-7.31364	desmantelar	0
-8.58765	desparición	0
-4.16279	desplazarán	0
-7.28628	despojado	0
-1.69995	después	0
-4.62467	destacó	0
-7.83406	destino	0
-6.91381	destruídos	0
-4.5736	desée	0
-7.80818	detalle	0
-2.86032	detalles	0
-5.75595	detenciones	0
-3.8832	detenido	0
-8.58765	determinación	0
-4.44277	determinado	0
-7.15076	determinan	0
-5.22298	determinarse	0
-8.58765	determinará	0
-7.77659	detrimento	0
-5.59483	detuvo	0
-3.82309	deuda	0
-4.39928	diario	0
-8.58765	diarrea	0
-1.02235	dice	0
-3.71059	dicen	0
-1.15477	dichas	0
-2.08585	dicho	0
-2.98334	dichos	0
-8.58765	dieciséis	0
-2.02568	diez	0
-6.08356	diezmada	0
-4.9692	diferencias	0
-3.24262	diferentes	0
-8.58765	diferido	0
-2.68309	dificultades	0
-1.8522	difícil	0
-5.98348	difíciles	0
-5.50966	dije	0
-2.54492	dijeron	0
-0.795715	dijo	0
-3.97856	dinero	0
-1.82296	dio	0
-4.34853	dios	0
-4.5462	diplomática	0
-5.01187	diplomático	0
-2.67599	diplomáticos	0
-3.8303	diputado	0
-4.46447	dirección	0
-6.71301	director	0
-7.70731	directorio	0
-5.42086	directrices	0
-4.81665	dirige	0
-2.82134	dirigentes	0
-8.58765	dirigió	0
-6.47146	dirigía	0
-8.58765	disculpen	0
-4.21126	discutir	0
-8.58765	discutiremos	0
-4.97791	discutirlo	0
-8.58765	discutiéndolo	0
-6.02471	diseño	0
-5.38429	disminución	0
-8.11787	disparos	0
-8.58765	dispensado	0
-7.68414	dispone	0
-5.19328	disponible	0
-5.9563	disposición	0
-6.07216	dispuestos	0
-5.99514	disputa	0
-3.14722	dista	0
-5.27601	distinguido	0
-7.23756	distintos	0
-8.58765	distraído	0
-5.4607	distribuirá	0
-8.58765	disturbios	0
-8.58765	divergencias	0
-5.8956	diversidad	0
-8.07046	diversión	0
-1.1307	diversos	0
-7.84455	divida	0
-6.74284	divididas	0
-6.66908	dividido	0
-8.58765	división	0
-8.58765	divulgado	0
-6.95745	divulgara	0
-3.04934	diálogo	0
-3.35457	doce	0
-8.58765	doctrina	0
-3.49212	documento	0
-7.19171	dolorosa	0
-5.81799	dominar	0
-8.58765	dominaron	0
-7.14618	domingo	0
-8.58765	domingos	0
-2.7241	dominicano	0
-2.79121	donde	0
-0.237334	dos	0
-8.58765	dosis	0
-6.45323	doy	0
-8.58765	drogas	0
-2.11713	duda	0
-7.23847	dudamos	0
-7.47881	duración	0
-1.54528	durante	0
-8.58765	duraron	0
-4.70484	durarán	0
-8.58765	dá	0
-8.58765	dándose	0
-7.07754	dé	0
-4.19573	débil	0
-2.2875	día	0
-1.88085	días	0
-4.0752	dólar	0
-3.21447	dólares	0
-1.57045	dónde	0
-0.240937	e	0
-4.64369	echó	0
-4.38535	economía	0
-2.96019	económica	0
-8.58765	económicamente	0
-2.28003	económico	0
-4.58737	económicos	0
-7.85673	edad	0
-4.02933	edición	0
-4.62292	edificio	0
-8.58765	edmundo	0
-5.18528	educación	0
-8.58765	educadores	0
-8.58765	efectivamente	0
-3.56645	efectos	0
-6.50367	efectuará	0
-5.21131	efectuó	0
-5.90955	ejecución	0
-8.58765	ejecutan	0
-3.99011	ejército	0
-4.67223	ejércitos	0
-0.0282364	el	0
-1.86375	elecciones	0
-2.98218	elección	0
-8.58765	electores	0
-6.85889	electos	0
-5.22474	elegir	0
-3.06057	elemento	0
-8.58765	elgueta	0
-2.88905	eligen	0
-3.76448	elijen	0
-4.06533	ella	0
-2.45448	ellas	0
-1.64921	ello	0
-1.78731	ellos	0
-8.58765	eléctrica	0
-4.92326	eléctricos	0
-8.58765	elías	0
-1.85856	embargo	0
-6.83994	emigrar	0
-3.75589	emiten	0
-3.07663	emotivo	0
-8.58765	empates	0
-5.91232	empezado	0
-5.98684	empleadores	0
-8.58765	empleará	0
-3.34057	empresa	0
-3.72284	empresarios	0
-2.75391	empresas	0
-8.58765	empuja	0
-0.250841	en	0
-7.02353	encarado	0
-4.62844	encomendada	0
-7.38914	encontraban	0
-4.11875	encontrar	0
-2.48263	encontrarse	0
-2.5925	encuentra	0
-3.52291	encuentran	0
-4.0177	encuentro	0
-7.95982	encuesta	0
-8.58765	energía	0
-6.06436	enero	0
-6.56859	enfatizó	0
-2.54244	enfoque	0
-8.58765	enfrenta	0
-6.31287	enmienda	0
-2.93346	enmiendas	0
-5.11591	enseñanza	0
-8.58765	ensucian	0
-5.43022	entel	0
-4.45067	entender	0
-8.58765	entendimiento	0
-1.78796	entonces	0
-0.393472	entre	0
-7.48985	entrega	0
-4.70563	entregar	0
-6.45129	entregó	0
-8.58765	entren	0
-8.58765	entrenador	0
-8.58765	envases	0
-7.62945	envíamos	0
-4.69877	envío	0
-8.02084	epicentro	0
-8.58765	epidemia	0
-6.59247	equipo	0
-3.8069	equipos	0
-1.02936	era	0
-5.17423	eramos	0
-4.46471	error	0
-1.05853	es	0
-0.419845	esa	0
-0.14843	esas	0
-8.58765	esbozan	0
-4.48078	escalas	0
-7.3016	escapa	0
-8.58765	escapar	0
-5.83927	escasez	0
-8.58765	escaso	0
-4.37365	escasos	0
-8.58765	escogieron	0
-7.54289	escojo	0
-5.01024	escritor	0
-8.58765	escritora	0
-5.14633	escuché	0
-4.8578	escépticos	0
-0.819578	ese	0
-5.07236	esencial	0
-6.5783	esfera	0
-3.62887	esfuerzos	0
-1.66466	eso	0
-0.417586	esos	0
-5.13565	espacial	0
-4.76566	espaldarazo	0
-5.67704	españa	0
-4.47234	español	0
-5.96265	especial	0
-8.58765	especialistas	0
-7.04033	especie	0
-6.21129	especificó	0
-8.58765	espectáculo	0
-5.16677	especulación	0
-8.58765	especuló	0
-5.29645	específicos	0
-4.4145	espera	0
-5.93875	esperaba	0
-4.27147	esperamos	0
-6.9825	esperan	0
-6.1164	esperanza	0
-8.58765	esperanzado	0
-3.25858	esperar	0
-6.98363	esperarse	0
-5.55273	espero	0
-6.41076	esposa	0
-8.58765	espuma	0
-0.873442	esta	0
-0.943353	estaba	0
-1.86267	estaban	0
-4.26713	establece	0
-8.58765	establecieron	0
-6.0648	establezca	0
-8.58765	estación	0
-8.00746	estadio	0
-2.32184	estado	0
-2.76886	estados	0
-1.34583	estadounidense	0
-6.29657	estallado	0
-2.80532	estallaron	0
-0.481394	estamos	0
-1.89927	estar	0
-1.40276	estará	0
-2.11206	estarán	0
-0.923274	estas	0
-5.02874	estatal	0
-0.924481	este	0
-7.80897	estero	0
-8.58765	estimadas	0
-1.86435	esto	0
-3.86064	estonia	0
-0.533861	estos	0
-3.4791	estrecho	0
-8.58765	estrellarse	0
-7.1516	estructura	0
-0.118216	estructuras	0
-7.00879	estudia	0
-6.88096	estudian	0
-5.1736	estudio	0
-6.38213	estudios	0
-2.42145	estuvo	0
-0.497227	está	0
-0.611589	están	0
-2.8572	esté	0
-8.58765	eurodólares	0
-3.44559	europa	0
-4.91429	europeo	0
-8.58765	evaluaciones	0
-6.73148	evidente	0
-4.12881	evidentemente	0
-8.58765	evitado	0
-4.53128	evitarse	0
-8.58765	evitó	0
-3.78081	evoluciona	0
-1.14229	ex	0
-8.58765	exacerba	0
-8.58765	exacerbar	0
-3.6433	examen	0
-8.58765	examinadas	0
-4.94204	examinan	0
-5.82001	examinar	0
-6.27966	examinarse	0
-8.11335	excelsior	0
-2.70982	excepción	0
-4.71595	exceso	0
-8.58765	excluyó	0
-3.7105	exhiben	0
-1.8376	exige	0
-2.38547	exigen	0
-4.63022	exigió	0
-2.07688	existe	0
-4.25018	existían	0
-3.81014	exitosa	0
-6.22322	expectativas	0
-3.66651	experiencia	0
-5.41921	explica	0
-4.32698	explicar	0
-2.06156	explicó	0
-4.44062	explosión	0
-8.58765	expresado	0
-8.58765	expresados	0
-4.50364	expresión	0
-1.91345	expresó	0
-7.44041	exterior	0
-7.81916	extirpar	0
-7.45416	extradición	0
-5.55365	extranjeros	0
-3.76109	extremadamente	0
-8.58765	fabrica	0
-8.58765	fachada	0
-6.90387	facilidades	0
-4.1754	factor	0
-5.02053	factores	0
-6.60169	fallecido	0
-5.96811	fallo	0
-3.29474	falta	0
-4.49359	fama	0
-7.50841	familia	0
-8.58765	familiares	0
-4.94666	farias	0
-5.09321	favor	0
-5.66485	favorables	0
-6.06703	favorece	0
-8.58765	favorecido	0
-8.58765	favoritos	0
-7.26471	febrero	0
-3.01399	fecha	0
-4.29817	fecsa	0
-2.36124	federal	0
-5.06111	fenosa	0
-6.19083	fenómeno	0
-8.58765	fernando	0
-7.6732	fernández	0
-8.02681	festival	0
-8.58765	festivo	0
-1.91415	figura	0
-7.633	fijan	0
-5.91709	filipinas	0
-6.84624	filme	0
-7.03532	filosófico	0
-4.56978	fin	0
-3.55002	final	0
-7.05677	finalidad	0
-4.23831	financiera	0
-4.91943	financieras	0
-7.57158	finanzas	0
-3.30193	fines	0
-5.68696	finlandia	0
-6.90238	firmado	0
-6.25352	firmantes	0
-6.11609	firmaremos	0
-5.16015	firmeza	0
-3.17182	flagrante	0
-6.52669	flor	0
-5.21083	flujo	0
-4.73423	fondo	0
-3.64733	fondos	0
-1.62416	forma	0
-4.24625	formación	0
-5.69115	forman	0
-5.33936	formato	0
-5.72477	formularon	0
-8.58765	forzosamente	0
-4.58778	fracasa	0
-8.58765	fracasado	0
-7.19245	francas	0
-7.53786	francfort	0
-4.35907	francia	0
-2.16381	francés	0
-8.58765	franja	0
-8.58765	frecuencia	0
-6.27514	frecuente	0
-8.58765	frenado	0
-3.17994	frente	0
-3.29369	frío	0
-0.411578	fue	0
-6.97466	fuego	0
-4.46458	fuente	0
-2.83753	fuera	0
-4.88231	fueran	0
-0.148885	fueron	0
-2.0432	fuerte	0
-3.55498	fuertemente	0
-3.7736	fuertes	0
-3.44904	fuerza	0
-2.0452	fuerzas	0
-4.36498	fugitivo	0
-4.17875	fumaba	0
-4.56215	funcionario	0
-3.87705	funcionarios	0
-8.09814	funciones	0
-4.17635	futuro	0
-6.08814	fábrica	0
-5.67694	físico	0
-8.58765	fórmula	0
-8.58765	galardona	0
-7.87098	galería	0
-6.2901	galina	0
-5.41897	gama	0
-0.791385	gana	0
-8.58765	ganado	0
-3.70584	ganando	0
-3.72203	ganar	0
-8.58765	gane	0
-8.58765	garcía	0
-5.74159	gas	0
-4.38575	gastos	0
-0.950218	general	0
-3.81417	generales	0
-3.3391	generar	0
-1.91339	gente	0
-7.24841	georgia	0
-4.41651	germán	0
-5.51427	gestos	0
-8.58765	gigantes	0
-7.84917	ginebra	0
-3.32045	global	0
-8.58765	gobernar	0
-8.58765	gobierna	0
-1.25608	gobierno	0
-7.03586	gobiernos	0
-8.58765	goles	0
-4.99191	golfo	0
-6.35643	golpeados	0
-5.81137	golpizas	0
-4.50268	golán	0
-7.44908	gonzález	0
-8.58765	goycochea	0
-3.79005	gracias	0
-5.75217	graciela	0
-0.478749	gran	0
-3.69552	grato	0
-7.87926	grecia	0
-8.58765	grito	0
-2.13093	grupo	0
-3.57447	grupos	0
-5.91278	guayaquil	0
-5.08741	gubernamental	0
-2.25071	guerra	0
-8.58765	guerrillero	0
-8.58765	guerrilleros	0
-3.51297	gusta	0
-7.06595	gusto	0
-0.0716934	ha	0
-2.18725	habanos	0
-0.572352	haber	0
-1.38719	habido	0
-8.58765	habitual	0
-3.55731	habla	0
-5.1295	hablando	0
-2.53427	hablar	0
-3.88764	habló	0
-1.75445	habrá	0
-2.61971	habría	0
-0.83158	había	0
-0.895457	hace	0
-2.9864	hacen	0
-0.974675	hacer	0
-2.31226	hacerlo	0
-2.52137	hacia	0
-1.81502	haciendo	0
-2.91472	hagan	0
-8.58765	hago	0
-0.0706921	han	0
-2.73125	hará	0
-5.31824	harán	0
-1.38812	hasta	0
-0.935873	hay	0
-0.555568	haya	0
-0.423898	he	0
-1.07887	hecho	0
-3.60624	hechos	0
-0.569355	hemos	0
-7.72547	henríquez	0
-6.9998	herida	0
-3.81545	heridas	0
-3.15683	heridos	0
-2.84065	hice	0
-5.93473	hicimos	0
-8.58765	hidroeléctrica	0
-4.81648	hija	0
-7.1273	hijas	0
-4.28186	hijo	0
-4.73291	hijos	0
-3.0881	historia	0
-5.59804	histórico	0
-1.24447	hizo	0
-3.63653	hogar	0
-2.67477	hombre	0
-6.40528	homero	0
-8.00077	homicidio	0
-5.38564	honduras	0
-7.83576	honor	0
-7.50865	hora	0
-8.58765	horacio	0
-8.58765	horarios	0
-4.76573	horas	0
-8.58765	horno	0
-3.71313	hornos	0
-4.04878	horrible	0
-3.61486	horriblemente	0
-3.42726	hospital	0
-0.896277	hoy	0
-1.36326	hubiera	0
-3.61131	hubieran	0
-0.552178	hubo	0
-4.14394	huelga	0
-4.96793	humanidad	0
-4.45931	humanos	0
-8.58765	humildemente	0
-8.58765	huída	0
-2.87936	iberdrola	0
-4.90005	idea	0
-4.50289	ideas	0
-7.55066	identidad	0
-8.58765	identifican	0
-3.85556	ido	0
-4.42144	idénticos	0
-7.44811	ignoraba	0
-6.40283	ignorado	0
-3.21581	igual	0
-8.58765	igualdad	0
-1.89848	igualmente	0
-5.49818	ilaria	0
-4.92549	ilusiones	0
-5.14491	imagen	0
-8.58765	imaginación	0
-8.58765	imitado	0
-7.16367	impidió	0
-8.58765	implantara	0
-6.51401	importa	0
-7.689	importaba	0
-3.67951	importancia	0
-1.61011	importante	0
-2.97437	importantes	0
-8.58765	impositivas	0
-4.75804	improvisados	0
-4.5737	impuestos	0
-1.70544	impulsar	0
-7.17562	impuso	0
-8.58765	inaceptable	0
-8.58765	inaplicable	0
-4.79659	incautaron	0
-5.80889	incendio	0
-4.46448	incentivo	0
-6.69635	incentivos	0
-8.58765	inciertas	0
-2.70652	incluso	0
-4.03329	incluye	0
-5.16937	incursiones	0
-8.58765	indebido	0
-3.60023	independencia	0
-8.58765	independientemente	0
-3.05212	indica	0
-6.18447	indican	0
-6.32536	indicios	0
-1.90155	indicó	0
-5.26475	indios	0
-8.58765	indique	0
-8.58765	indispensable	0
-5.56579	inductivo	0
-3.65521	industria	0
-5.20617	industrializados	0
-8.58765	inevitable	0
-6.81579	inflación	0
-3.70747	influencia	0
-0.695877	información	0
-7.04282	informado	0
-6.01886	informados	0
-2.2471	informe	0
-2.55912	informes	0
-3.19208	informó	0
-7.84377	inglaterra	0
-4.90616	inglés	0
-2.65472	inicia	0
-4.52823	inician	0
-3.32199	iniciativa	0
-8.58765	iniciativas	0
-5.49978	inmediato	0
-5.03591	inmediatos	0
-8.58765	inquieto	0
-8.58765	inscriben	0
-5.8225	insiste	0
-8.58765	insistió	0
-1.05829	inspectores	0
-4.56377	insta	0
-5.64946	instalaciones	0
-1.93052	instalan	0
-8.58765	institucionaliza	0
-4.45788	integra	0
-4.24949	intelectual	0
-5.78772	intención	0
-8.58765	intensas	0
-8.58765	intentaran	0
-5.26408	intento	0
-8.58765	interbancaria	0
-4.39368	interesados	0
-7.81032	interior	0
-8.58765	interna	0
-1.45178	internacional	0
-5.05694	internacionales	0
-8.58765	intervencion	0
-4.26125	interventor	0
-2.98074	interés	0
-5.16793	intolerable	0
-5.61897	inutilizables	0
-6.47193	inventado	0
-8.58765	inversiones	0
-8.58765	inversionistas	0
-3.59254	investigaciones	0
-5.65303	investigación	0
-7.05709	invierno	0
-4.96875	ir	0
-8.58765	irreal	0
-5.10711	irregular	0
-6.88848	irrelevante	0
-5.20847	irá	0
-5.7396	irán	0
-8.58765	iría	0
-3.68806	israel	0
-4.96893	israelíes	0
-4.55571	italia	0
-8.58765	itinerario	0
-8.58765	jaime	0
-8.58765	janeiro	0
-5.8741	japoneses	0
-2.91845	japonés	0
-3.11167	japón	0
-8.58765	jerusalén	0
-4.39092	jerárquicas	0
-8.58765	jesús	0
-8.58765	juan	0
-8.09671	jubilaciones	0
-2.85186	juega	0
-2.45112	juego	0
-5.79552	jueves	0
-6.36139	jugado	0
-2.07022	jugar	0
-7.55955	jugará	0
-5.41792	juicio	0
-2.99547	juicios	0
-7.90521	julio	0
-6.73779	junio	0
-3.97645	junta	0
-7.03212	jurado	0
-7.48878	jurista	0
-4.5908	justa	0
-2.78415	justicia	0
-4.02389	justifica	0
-6.7868	justificación	0
-7.73089	justificadas	0
-5.24202	juventud	0
-0.018528	la	0
-3.56764	labor	0
-5.68068	lacalle	0
-4.32495	ladra	0
-3.11177	lamenta	0
-8.58765	lamentaba	0
-8.58765	lamentablemente	0
-4.13496	lamentó	0
-3.7359	lanzarse	0
-4.70908	largo	0
-0.028266	las	0
-3.35409	latina	0
-0.484912	le	0
-6.63499	leer	0
-8.58765	legal	0
-7.22627	legalizar	0
-6.51371	lejos	0
-8.58765	lengua	0
-4.1911	lento	0
-5.90268	lentos	0
-0.582192	les	0
-6.40724	lesionadas	0
-4.29782	lesionados	0
-8.58765	lesiones	0
-7.25006	lesión	0
-6.70872	levantando	0
-3.86869	leve	0
-3.56932	ley	0
-8.58765	liberal	0
-8.58765	liberarían	0
-5.22254	libertad	0
-4.25335	libre	0
-8.58765	lienzo	0
-6.01636	liga	0
-8.58765	ligera	0
-3.21548	ligeramente	0
-8.58765	limitado	0
-5.59778	limitados	0
-8.58765	limitan	0
-8.58765	linares	0
-5.31743	liquidar	0
-4.97495	lista	0
-6.41625	listas	0
-2.09804	llamarse	0
-4.75713	llameante	0
-8.58765	llamó	0
-1.96092	llega	0
-5.26194	llegado	0
-2.94643	llegar	0
-5.68493	llegue	0
-2.50275	llegó	0
-5.94475	lleras	0
-5.67064	llevaría	0
-8.58765	llevé	0
-8.58765	llevó	0
-0.456859	lo	0
-1.87335	local	0
-4.46902	locales	0
-7.54988	localizó	0
-6.11386	logrado	0
-5.0813	lograr	0
-4.9038	logros	0
-2.69102	logísticamente	0
-7.70875	londres	0
-0.0516615	los	0
-2.40204	lucha	0
-2.75092	luego	0
-2.3718	lugar	0
-8.58765	lugares	0
-4.07783	lunes	0
-4.46297	líder	0
-3.11142	líderes	0
-7.23626	límite	0
-4.28388	línea	0
-8.58765	lógicamente	0
-7.58378	madrazo	0
-2.07313	madrid	0
-7.53414	madurez	0
-6.73506	maestra	0
-5.44901	magnitud	0
-2.81204	mal	0
-5.15236	mala	0
-5.22763	malas	0
-8.58765	malo	0
-8.58765	manada	0
-4.97431	mandato	0
-8.58765	mandela	0
-3.00406	manera	0
-6.65982	manifestar	0
-8.01013	maniobra	0
-4.595	maniobras	0
-7.82299	mantendrán	0
-1.87505	mantener	0
-5.16652	manteniendo	0
-7.43306	mantenimiento	0
-3.76308	mantiene	0
-4.05363	mantuvieron	0
-4.92026	mantuvo	0
-5.81221	mapuche	0
-5.78029	mar	0
-6.34263	marcador	0
-7.52231	marchaba	0
-5.04715	marco	0
-7.74811	marcos	0
-8.1041	marfil	0
-3.36129	margen	0
-7.16031	marismas	0
-6.45397	martes	0
-5.97411	marzo	0
-8.58765	masiva	0
-4.72582	matar	0
-7.79749	materia	0
-7.38118	material	0
-8.58765	materialize	0
-8.58765	mayo	0
-1.38096	mayor	0
-3.636	mayores	0
-8.58765	mayormente	0
-6.10722	mayoría	0
-3.24197	mañana	0
-0.670566	me	0
-8.58765	mecanismos	0
-3.29249	media	0
-7.24142	medianoche	0
-2.1992	mediante	0
-7.97937	medicina	0
-4.25939	medida	0
-1.36941	medidas	0
-7.59932	medio	0
-8.58765	mediocampo	0
-2.44978	medios	0
-1.66173	mejor	0
-7.63161	mejorado	0
-4.91403	mejoramiento	0
-3.68745	mejoran	0
-3.05943	mejorar	0
-1.48855	mejores	0
-7.13459	memorando	0
-2.53821	menciona	0
-5.02789	mencionado	0
-3.95663	mencionar	0
-3.10063	menem	0
-4.56674	menores	0
-1.25636	menos	0
-4.04944	mensuales	0
-7.46875	menudo	0
-4.97252	mera	0
-2.16671	mercado	0
-5.80038	mercados	0
-8.58765	mercosur	0
-8.58765	mercouri	0
-7.97647	mesa	0
-2.61043	meses	0
-8.58765	meta	0
-0.969987	mi	0
-4.4191	miedo	0
-6.53165	miembro	0
-2.66201	miembros	0
-5.75657	mientras	0
-8.09346	migrantes	0
-2.95691	miguel	0
-8.58765	miguelito	0
-2.80285	mil	0
-1.02899	militar	0
-3.60617	militares	0
-8.58765	millonario	0
-3.96183	millones	0
-8.58765	milán	0
-8.58765	mina	0
-3.47524	mineros	0
-5.96164	ministerial	0
-3.43471	ministerio	0
-3.84948	ministro	0
-7.62135	ministros	0
-3.80535	minucioso	0
-8.58765	minuto	0
-8.58765	mir	0
-1.58286	mis	0
-7.27175	misericordia	0
-2.65272	misma	0
-2.39102	mismas	0
-1.477	mismo	0
-5.5833	mitad	0
-5.49106	miércoles	0
-5.44067	moción	0
-6.51174	modelo	0
-7.35003	modelos	0
-2.01344	moderado	0
-4.69128	modernos	0
-8.58765	modestos	0
-8.58765	modificó	0
-8.58765	molesta	0
-2.79884	momento	0
-5.85578	momentos	0
-8.10149	monarquía	0
-8.58765	monografías	0
-8.58765	monopolio	0
-6.04741	monselas	0
-7.72704	montenegro	0
-8.58765	morirá	0
-3.76939	moscú	0
-3.24744	mostró	0
-2.83404	motivo	0
-5.25516	moverlo	0
-1.74102	mucha	0
-3.64561	muchacha	0
-1.51051	muchas	0
-0.286914	mucho	0
-1.06419	muchos	0
-3.96822	muere	0
-0.452689	mueren	0
-7.23983	muerte	0
-7.57606	muerto	0
-3.84051	muertos	0
-4.92536	muestra	0
-3.60961	muestras	0
-3.09614	mujer	0
-3.87939	mujeres	0
-8.58765	multas	0
-3.61869	mundiales	0
-3.32672	mundo	0
-2.02786	murieron	0
-2.78333	murió	0
-6.44959	murmura	0
-8.58765	musulmanes	0
-0.741146	muy	0
-0.636284	más	0
-6.32696	mástil	0
-5.0087	médica	0
-4.12378	médicos	0
-4.885	méxico	0
-4.11842	mí	0
-2.97153	mínimo	0
-4.2374	múltiples	0
-8.58765	música	0
-8.58765	nacido	0
-6.14244	nacional	0
-7.07947	nacionalidades	0
-3.15752	naciones	0
-5.2961	nación	0
-0.727639	nada	0
-1.4747	nadie	0
-3.73506	naturales	0
-5.38983	nave	0
-5.64099	naves	0
-5.25356	necesaria	0
-1.91349	necesario	0
-4.57559	necesidad	0
-8.58765	necesidades	0
-5.19741	necesitamos	0
-2.59634	necesitan	0
-8.58765	necesitarían	0
-3.65143	negaron	0
-3.76863	negativamente	0
-2.83297	negativo	0
-4.24374	negociaciones	0
-2.54811	negociando	0
-8.09034	negocio	0
-5.26346	negocios	0
-8.58765	negra	0
-1.39198	negó	0
-3.21911	neta	0
-0.129339	ni	0
-1.37618	niega	0
-7.65361	niegan	0
-0.793485	ninguna	0
-7.52246	ninguno	0
-0.551024	ningún	0
-3.62582	nivel	0
-5.95594	niveles	0
-7.65918	niño	0
-3.45401	niños	0
-0.165085	no	0
-3.52484	noche	0
-8.58765	nombrado	0
-3.89307	nombraron	0
-4.00128	nombre	0
-4.02445	nominal	0
-1.60878	norcoreanas	0
-2.49717	normal	0
-5.0842	normalidad	0
-3.51177	normas	0
-4.82071	norte	0
-3.42258	norteamericano	0
-0.822564	nos	0
-3.4056	nosotros	0
-2.45777	nota	0
-3.66834	notable	0
-8.58765	notas	0
-6.58274	noticia	0
-4.59911	noticias	0
-1.26621	novecientos	0
-6.28046	novedad	0
-6.78361	novedades	0
-7.63385	noviembre	0
-5.65436	nuclear	0
-5.16584	nucleares	0
-8.58765	nueces	0
-1.15311	nuestra	0
-2.97181	nuestras	0
-0.639067	nuestro	0
-3.13097	nuestros	0
-0.738811	nueva	0
-3.36562	nuevamente	0
-1.48416	nuevas	0
-2.73668	nueve	0
-1.76995	nuevo	0
-1.92152	nuevos	0
-8.58765	numerosas	0
-3.61832	numerosos	0
-1.66468	nunca	0
-0.108741	o	0
-4.00008	objetivo	0
-6.65665	objetivos	0
-3.82272	objeto	0
-7.00301	obra	0
-7.40106	obras	0
-5.81703	observaciones	0
-3.43584	obstante	0
-7.14091	ocasiones	0
-8.58765	ocasión	0
-8.58765	occidental	0
-5.43751	occidente	0
-1.75315	ocho	0
-5.03756	ocupa	0
-8.58765	ocupaban	0
-6.4476	ocupados	0
-4.80706	ocurre	0
-7.94588	ocurrir	0
-5.46386	ocurrirá	0
-8.58765	oeste	0
-8.58765	ofendido	0
-4.83697	oferta	0
-2.73213	oficial	0
-2.73661	oficiales	0
-4.17872	oficina	0
-3.01041	ofrece	0
-6.58764	ofrecer	0
-7.7793	ofrecimiento	0
-6.38664	ofreció	0
-4.88349	olvidar	0
-0.428733	omar	0
-5.5164	omisión	0
-8.58765	onza	0
-5.35706	opciones	0
-1.70205	opción	0
-3.57036	operaciones	0
-2.70538	operación	0
-8.58765	operar	0
-8.58765	opinan	0
-2.75383	opiniones	0
-3.88529	opinión	0
-7.24801	opinó	0
-6.23623	oposición	0
-7.42865	opositores	0
-8.58765	optativo	0
-3.3877	optimista	0
-2.97011	optimistas	0
-4.06764	opuesta	0
-4.08362	orador	0
-8.58765	oradores	0
-8.58765	orcas	0
-7.22754	orden	0
-5.41132	ordinaria	0
-4.80384	organismo	0
-4.26356	organismos	0
-3.69768	organizar	0
-8.58765	orientado	0
-4.48164	oriental	0
-4.57494	oro	0
-7.65576	oscar	0
-1.46178	otra	0
-0.900529	otras	0
-1.05647	otro	0
-0.44159	otros	0
-2.9696	pacificadores	0
-5.71556	pacto	0
-2.69937	padre	0
-3.98039	pagado	0
-8.58765	pagan	0
-4.8732	pagar	0
-5.46366	pago	0
-4.66423	palabra	0
-2.8971	palabras	0
-7.61453	palacio	0
-8.58765	palacios	0
-8.14531	palencia	0
-8.58765	palti	0
-7.54829	pan	0
-8.58765	papa	0
-3.68823	papel	0
-2.98058	papeles	0
-8.58765	par	0
-0.275501	para	0
-7.8184	paradero	0
-8.58765	paraliza	0
-6.25767	parciales	0
-8.58765	parcialmente	0
-2.14708	parece	0
-4.52269	parecer	0
-3.08136	parlamento	0
-4.03494	parra	0
-1.14039	parte	0
-1.64786	partes	0
-7.3866	participó	0
-6.66519	particular	0
-8.58765	partidaria	0
-3.56526	partidario	0
-8.58765	partidas	0
-3.72171	partido	0
-4.60373	partidos	0
-7.56811	parís	0
-3.07753	pasa	0
-1.54771	pasado	0
-4.7516	pasajeros	0
-2.47364	pasar	0
-4.28617	paso	0
-4.12104	pasos	0
-8.58765	passarella	0
-2.81605	pasó	0
-8.58765	patrullada	0
-3.59164	paulo	0
-2.6855	paz	0
-3.09582	país	0
-0.946101	países	0
-8.58765	peleara	0
-8.58765	peligros	0
-3.61395	peligroso	0
-6.69765	pelota	0
-5.42986	película	0
-3.25612	pendientes	0
-7.71514	pensaba	0
-5.02525	pensado	0
-8.58765	pensar	0
-8.036	pensiones	0
-4.24747	peor	0
-2.94611	pequeña	0
-5.22203	pequeño	0
-8.58765	pequeños	0
-7.08931	percibe	0
-6.50939	perdemos	0
-1.96162	perder	0
-4.2592	perdido	0
-8.58765	perdía	0
-5.2713	peres	0
-8.58765	perfecta	0
-4.71913	perfectamemnte	0
-5.27909	pericial	0
-4.29469	periodistas	0
-8.58765	periódicos	0
-8.0646	perlas	0
-8.58765	permitan	0
-4.97425	permitido	0
-2.68927	permitirse	0
-7.24712	permitirá	0
-1.43689	pero	0
-4.69019	perro	0
-8.58765	persigue	0
-2.56764	persona	0
-2.80435	personal	0
-1.34954	personas	0
-7.71482	perspicacia	0
-8.58765	pertenecían	0
-5.73705	pertinente	0
-7.49851	perturbación	0
-5.40834	peruano	0
-7.20806	peruanos	0
-4.6946	período	0
-3.95454	períodos	0
-3.33086	perú	0
-8.58765	pesa	0
-4.74587	pesca	0
-5.14989	pese	0
-3.63517	peseta	0
-4.68562	petición	0
-4.93102	petrolera	0
-2.63023	petrolero	0
-7.79794	petróleo	0
-8.58765	piano	0
-8.58765	pido	0
-8.11571	pie	0
-5.94278	piensa	0
-5.27201	pienso	0
-8.58765	piezas	0
-4.04237	pilotos	0
-3.48676	plan	0
-8.58765	planas	0
-4.3557	planeaba	0
-8.01639	planeta	0
-8.58765	planos	0
-6.47226	plantas	0
-8.58765	plantearon	0
-8.58765	plantearse	0
-8.58765	plata	0
-8.58765	plaza	0
-2.27324	plazo	0
-1.67237	pleno	0
-8.58765	plácido	0
-7.41444	población	0
-2.48727	poco	0
-1.20419	pocos	0
-5.0053	podamos	0
-1.31898	podemos	0
-6.4681	poder	0
-8.58765	poderes	0
-3.98513	poderoso	0
-4.07811	podrá	0
-1.94666	podrán	0
-0.537847	podría	0
-2.74239	podríamos	0
-1.69767	podían	0
-7.62724	polariza	0
-4.18489	polemiza	0
-3.63501	policial	0
-2.3133	policía	0
-1.40725	política	0
-1.92147	político	0
-1.75182	políticos	0
-6.65204	pondría	0
-4.73451	poner	0
-4.03843	ponernos	0
-2.38081	popular	0
-0.299696	por	0
-2.66888	porque	0
-3.92927	porqué	0
-8.58765	portero	0
-6.21518	posibilidades	0
-1.0833	posible	0
-2.29907	posiciones	0
-3.06005	posición	0
-5.89452	positivas	0
-6.46529	positivo	0
-7.31291	posterioridad	0
-3.72691	posteriormente	0
-3.99995	potestad	0
-8.58765	practique	0
-8.58765	precaución	0
-8.58765	precedente	0
-5.08807	precio	0
-1.74961	precios	0
-2.34154	preciso	0
-7.05161	precisos	0
-6.89836	preguntas	0
-4.95732	preguntó	0
-4.83318	premio	0
-4.82862	prensa	0
-5.43136	preocupación	0
-2.34642	preocupado	0
-5.49922	preocupantes	0
-5.47975	preparado	0
-4.97166	preparan	0
-4.26852	presencia	0
-2.72136	presenta	0
-6.0568	presentación	0
-4.04989	presentaron	0
-2.28212	presente	0
-3.10107	presentó	0
-3.13712	presidencial	0
-3.59553	presidenciales	0
-1.55093	presidente	0
-4.7658	presión	0
-8.58765	presos	0
-8.58765	prestó	0
-3.54034	presupuesto	0
-8.58765	pretendemos	0
-6.17724	preveo	0
-1.0658	primer	0
-2.19074	primera	0
-8.58765	primeras	0
-4.26816	primero	0
-3.44854	principal	0
-4.14514	principalmente	0
-5.23862	principio	0
-7.66035	principios	0
-5.65868	prioridad	0
-2.91785	privada	0
-5.58839	privatizaciones	0
-5.52181	probable	0
-7.55127	probablemente	0
-3.00829	problema	0
-1.7888	problemas	0
-5.47206	problemáticos	0
-8.58765	proceda	0
-8.58765	procedente	0
-3.57054	procedimiento	0
-5.97146	procedió	0
-2.76724	proceso	0
-5.83562	procesos	0
-0.173073	proclama	0
-7.13974	procupación	0
-3.66225	producción	0
-2.47099	producido	0
-8.58765	produciría	0
-7.80523	producto	0
-2.97476	productos	0
-6.09129	produzcan	0
-2.43271	programa	0
-8.58765	programado	0
-2.81968	programas	0
-4.62524	progresan	0
-3.88246	progreso	0
-8.58765	prohibe	0
-8.58765	prometido	0
-8.58765	promoverá	0
-4.53387	pronta	0
-2.89695	pronto	0
-8.58765	propaganda	0
-2.17672	propia	0
-3.23851	propio	0
-1.79764	proporciona	0
-6.97517	proporcionó	0
-4.35642	propuesta	0
-3.59548	propuestas	0
-2.18292	propuesto	0
-2.60523	propuestos	0
-8.58765	propuso	0
-7.81396	propósito	0
-7.6242	prorroga	0
-8.58765	proscribir	0
-7.92907	prostitución	0
-8.58765	proteger	0
-8.58765	protocolo	0
-4.78618	protocolos	0
-7.2754	provincia	0
-8.58765	provisional	0
-7.61941	provocaría	0
-3.64361	proyectaba	0
-4.14778	proyecto	0
-3.01812	proyectos	0
-8.58765	prudente	0
-6.87419	pruebas	0
-4.79133	práctica	0
-4.19663	prácticamente	0
-5.78586	próxima	0
-4.01987	próximamente	0
-3.9883	próximo	0
-5.21836	próximos	0
-5.81043	publicación	0
-3.99891	publicado	0
-8.58765	publicarían	0
-2.62172	pudo	0
-2.34228	pueblo	0
-2.57701	pueda	0
-0.478947	puede	0
-0.168085	pueden	0
-1.76939	puedo	0
-4.72516	puerta	0
-8.58765	puertorriqueñas	0
-1.08571	pues	0
-4.62596	puesto	0
-7.81383	pulpo	0
-2.29844	punto	0
-4.71012	página	0
-5.91778	pánico	0
-1.94664	párrafo	0
-3.98455	pérdida	0
-4.57206	pérsico	0
-4.49712	pública	0
-2.0409	públicas	0
-4.70244	público	0
-8.58765	públicos	0
-0.246115	que	0
-1.14333	queda	0
-3.21075	quedado	0
-5.47692	quedar	0
-6.48349	quedaron	0
-8.58765	quedarse	0
-1.17791	quedó	0
-1.86909	queremos	0
-3.53995	quería	0
-5.55153	queríamos	0
-4.52594	querían	0
-2.53091	quien	0
-3.50595	quienes	0
-8.58765	quieran	0
-3.06807	quiere	0
-1.37393	quieren	0
-2.01337	quiero	0
-8.58765	quinta	0
-4.60575	quise	0
-6.20685	quisiera	0
-5.84668	quiso	0
-7.676	quito	0
-2.66209	quitó	0
-8.58765	quizo	0
-3.04046	quién	0
-1.35172	qué	0
-7.12398	quédense	0
-8.58765	racionamiento	0
-8.58765	racismo	0
-8.58765	radical	0
-7.04587	radio	0
-3.71773	ramos	0
-3.51991	rara	0
-4.56467	razon	0
-2.65206	razones	0
-3.95719	razón	0
-5.11262	raíz	0
-8.58765	reaccionar	0
-4.28802	reacción	0
-6.31562	realista	0
-7.56255	realiza	0
-7.23537	realizada	0
-2.3131	realizado	0
-8.58765	realizan	0
-6.1061	realizar	0
-7.50083	realizó	0
-2.56709	realmente	0
-8.58765	reanudada	0
-5.27715	reanudemos	0
-2.26771	rebeldes	0
-8.58765	recae	0
-7.15637	recalcan	0
-6.07263	rechazada	0
-4.01425	rechazado	0
-8.58765	rechazaron	0
-4.95084	reciben	0
-2.99099	recibido	0
-1.76088	recibir	0
-2.36286	recibió	0
-8.58765	recién	0
-1.81368	reclamaba	0
-8.58765	reclamaron	0
-5.39929	reclutarlas	0
-8.58765	recogió	0
-4.86674	recomendación	0
-8.58765	reconstrucción	0
-3.59067	recorren	0
-8.58765	recrudece	0
-7.12123	recuperado	0
-8.58765	recurrió	0
-3.68154	recurso	0
-1.68662	recursos	0
-7.6517	red	0
-5.49978	redacción	0
-7.88086	reduccion	0
-6.88094	reduce	0
-5.3691	reducida	0
-4.54947	reducido	0
-4.71528	reducir	0
-8.58765	reelegidos	0
-4.39976	referencia	0
-8.58765	referidas	0
-8.58765	referirme	0
-8.58765	referirán	0
-8.58765	referían	0
-7.43933	refiere	0
-8.58765	refinerías	0
-8.58765	refirió	0
-1.30978	reforma	0
-7.94532	reformas	0
-5.73409	refugiados	0
-5.46273	regir	0
-0.0639362	registra	0
-8.58765	registrada	0
-5.83239	registro	0
-5.62443	registrándose	0
-5.69202	región	0
-7.11214	regla	0
-7.74469	reglamentaciones	0
-6.34117	regresar	0
-4.47789	regreso	0
-2.43331	regresó	0
-5.3126	regular	0
-8.58765	rehabilitar	0
-3.52584	rehusado	0
-2.90265	rehusó	0
-8.58765	reinar	0
-8.58765	reitera	0
-3.46097	relaciones	0
-5.80346	relación	0
-1.11537	relativamente	0
-8.58765	relativas	0
-8.58765	relator	0
-2.61371	relató	0
-3.84705	relevancia	0
-4.01283	religiosa	0
-8.58765	remedios	0
-6.77384	remitida	0
-7.13067	remuneración	0
-4.94297	rendimos	0
-4.76905	renovarse	0
-4.45222	renuncia	0
-8.58765	reordenados	0
-6.32681	reparaciones	0
-3.02542	repercutió	0
-3.88541	repetir	0
-7.92835	repetirse	0
-5.1083	reportó	0
-8.58765	represalias	0
-4.64373	representante	0
-2.22227	representantes	0
-4.17867	representar	0
-7.84006	reprogramación	0
-5.33327	repuesto	0
-8.58765	requerido	0
-8.58765	requerirán	0
-2.19325	requiere	0
-8.58765	requirimientos	0
-6.51767	resa	0
-3.62133	reserva	0
-8.58765	reservado	0
-4.30972	reservas	0
-8.58765	reses	0
-8.58765	resistencia	0
-5.46081	resolución	0
-6.32408	resolver	0
-8.58765	respalden	0
-7.57337	respaldo	0
-3.57962	respectivo	0
-3.36293	respecto	0
-8.58765	respetando	0
-4.69914	respetar	0
-5.53942	respiro	0
-3.22304	responder	0
-8.58765	responderemos	0
-5.07965	respondió	0
-6.32419	responsabilizado	0
-2.45541	respuesta	0
-8.58765	restableció	0
-3.75326	restantes	0
-6.68087	restaurados	0
-7.09689	resto	0
-6.12279	restos	0
-8.58765	restricción	0
-6.65319	resueltos	0
-3.50626	resulta	0
-3.8127	resultado	0
-1.42299	resultados	0
-0.76412	resultaron	0
-6.91943	retenían	0
-2.27634	retirada	0
-5.83015	retirado	0
-3.61768	retirar	0
-8.58765	retirarse	0
-5.98191	reuniones	0
-8.58765	reunir	0
-5.49356	reunirán	0
-1.80635	reunión	0
-6.51892	reuní	0
-7.37005	revelado	0
-6.89768	revelados	0
-5.93846	revelar	0
-8.58765	reveses	0
-4.93949	revisando	0
-4.93222	revisarse	0
-7.6668	revisó	0
-5.67915	revuelo	0
-4.49448	rey	0
-8.58765	reyes	0
-4.67454	reúne	0
-3.0863	riendo	0
-5.15706	riesgo	0
-4.56975	rio	0
-7.45415	ritmo	0
-8.58765	riñón	0
-8.58765	robando	0
-7.73304	rojo	0
-8.58765	rompieron	0
-4.70328	ronda	0
-8.58765	ruanda	0
-4.18567	rubro	0
-4.23389	rumbo	0
-8.58765	rumores	0
-2.76167	rusa	0
-4.11656	rusia	0
-2.40055	rusos	0
-5.93558	ruta	0
-8.58765	rutinariamente	0
-4.27722	rápidamente	0
-4.16654	régimen	0
-8.58765	río	0
-8.58765	ríos	0
-1.43301	sabe	0
-4.1307	sabemos	0
-1.49581	saber	0
-8.03596	sabotaje	0
-7.18824	sabía	0
-5.56523	sabían	0
-6.6232	sacado	0
-8.58765	sal	0
-6.78496	sala	0
-3.98803	salario	0
-8.58765	saldar	0
-4.61598	saliente	0
-6.64014	salieron	0
-1.70904	salir	0
-5.1814	salud	0
-8.58765	salva	0
-6.14114	salvador	0
-8.58765	salvar	0
-3.81603	salvo	0
-8.58765	sana	0
-2.31527	sanciones	0
-8.58765	sangre	0
-7.58084	santiago	0
-6.24618	saqueadas	0
-5.1042	sarajevo	0
-7.0463	satisfactoria	0
-6.76813	satisfactorio	0
-7.47213	saínz	0
-0.0404263	se	0
-1.95214	sea	0
-5.79542	secciones	0
-4.09005	sección	0
-7.87371	secretaria	0
-5.13307	secretario	0
-4.54916	sector	0
-4.41189	sectores	0
-1.63336	seguir	0
-4.13576	seguirá	0
-3.00837	segunda	0
-3.36429	segundo	0
-3.55324	seguridad	0
-3.73452	seguro	0
-4.7947	seguía	0
-3.96619	según	0
-1.06986	seis	0
-8.58765	sela	0
-6.86493	seleccionó	0
-4.38391	semana	0
-8.58765	semanales	0
-5.27233	senado	0
-5.86018	sencilla	0
-8.58765	sencillísima	0
-7.11653	sensato	0
-7.09829	sentencias	0
-7.446	sentir	0
-8.58765	separación	0
-6.17291	separado	0
-5.97347	separatista	0
-7.20871	septiembre	0
-0.233006	ser	0
-7.01623	serbia	0
-7.4739	serie	0
-8.58765	seriedad	0
-3.54585	serio	0
-5.48905	servicio	0
-4.06623	servicios	0
-0.446867	será	0
-0.095439	serán	0
-0.961908	sería	0
-3.71045	sesiones	0
-2.52729	sesión	0
-3.58236	setenta	0
-4.33116	severos	0
-8.58765	sevilla	0
-8.58765	sexual	0
-8.58765	señalo	0
-0.520708	señaló	0
-4.3565	señor	0
-8.58765	señora	0
-1.22887	si	0
-0.234648	sido	0
-2.15445	siempre	0
-0.330628	siendo	0
-3.58826	siente	0
-5.03022	siento	0
-2.947	siete	0
-4.39196	significa	0
-3.99066	significar	0
-8.58765	significativamente	0
-8.58765	significativas	0
-1.51148	sigue	0
-1.35095	siguen	0
-4.33748	siguiente	0
-8.58765	siguieron	0
-1.5809	siguió	0
-8.58765	silla	0
-8.58765	silvio	0
-1.70055	similar	0
-2.0609	similares	0
-8.58765	simple	0
-0.224681	sin	0
-8.58765	sindicales	0
-1.28227	sino	0
-8.58765	sintieron	0
-2.88631	sintió	0
-7.36432	sinónimo	0
-5.39864	siquiera	0
-4.21995	siria	0
-4.98178	sistema	0
-3.07438	situación	0
-8.58765	situada	0
-8.58765	soares	0
-6.43847	soberanía	0
-0.640062	sobre	0
-8.58765	sobrevaluados	0
-4.52711	social	0
-2.01796	solamente	0
-3.53769	solares	0
-8.58765	soldado	0
-4.20277	soldados	0
-6.93904	solicita	0
-8.58765	solicitadas	0
-7.65382	solicitado	0
-6.11342	solicitud	0
-8.58765	solicitó	0
-5.63716	solucionar	0
-3.23161	solución	0
-5.55098	sometido	0
-5.42509	somos	0
-0.308689	son	0
-8.58765	sorprende	0
-8.58765	sorprendido	0
-2.28965	sostuvo	0
-2.18674	soy	0
-0.154725	su	0
-6.11817	subasta	0
-8.58765	subastan	0
-8.58765	subcontrata	0
-1.70998	sube	0
-5.27482	subieron	0
-8.58765	subprograma	0
-8.58765	subsiguiente	0
-5.48762	subtema	0
-4.24326	sucede	0
-6.21016	suceden	0
-4.46976	suceder	0
-6.42712	sucederá	0
-5.17038	sucedió	0
-8.58765	sucesión	0
-4.83243	sudamericanos	0
-2.96084	sudáfrica	0
-7.96253	suecia	0
-7.38497	sueldos	0
-3.8772	suelen	0
-3.40812	suficiente	0
-6.01728	sugerida	0
-4.76178	sugerirse	0
-5.36607	sugirió	0
-8.58765	suma	0
-1.58461	sumamente	0
-5.20381	sumario	0
-8.58765	suministro	0
-8.58765	suministros	0
-8.58765	supervisan	0
-6.20616	supimos	0
-2.86954	suprema	0
-7.32631	suprimir	0
-8.58765	supuestamente	0
-6.20713	supuesto	0
-0.177213	sus	0
-7.73754	sustanciales	0
-8.58765	sábados	0
-7.54882	sé	0
-1.94562	sí	0
-1.01386	sólo	0
-4.35701	sónica	0
-8.58765	tailandés	0
-8.58765	tajante	0
-0.824244	tal	0
-8.58765	talavera	0
-1.57676	tales	0
-0.745429	también	0
-1.80825	tampoco	0
-0.792267	tan	0
-8.58765	tangible	0
-1.8896	tanto	0
-4.26383	tarde	0
-4.05995	tarea	0
-4.65512	tarifas	0
-4.88886	tasa	0
-7.41831	tasas	0
-8.58765	te	0
-5.71083	teatro	0
-7.71843	tecnicismos	0
-8.58765	teconología	0
-8.58765	tegucigalpa	0
-3.99756	televisión	0
-7.2505	telmex	0
-3.13061	tema	0
-2.63366	temas	0
-4.62453	teme	0
-8.58765	temer	0
-8.58765	temor	0
-3.50484	templos	0
-4.01314	temporada	0
-2.90732	tendencia	0
-4.69599	tendrán	0
-2.13745	tendríamos	0
-1.75354	tenemos	0
-2.41753	tener	0
-8.58765	tenerse	0
-3.18458	tenido	0
-7.15215	tensa	0
-1.16806	tenía	0
-4.44164	teníamos	0
-1.51574	tenían	0
-8.58765	teoría	0
-2.97106	tercer	0
-2.69369	tercera	0
-6.79905	tercios	0
-4.47542	terreno	0
-5.94553	terrible	0
-5.22198	territorios	0
-8.00277	terror	0
-8.58765	tesobonos	0
-4.52879	testigo	0
-3.67906	testigos	0
-5.04982	texto	0
-8.58765	textos	0
-6.70395	tiburones	0
-1.08739	tiempo	0
-2.76103	tiempos	0
-0.650056	tiene	0
-0.368093	tienen	0
-2.701	tierras	0
-5.34291	tipo	0
-3.85366	tipos	0
-5.68868	tirar	0
-8.58765	tiroteo	0
-1.91903	toda	0
-2.08209	todas	0
-1.58963	todavía	0
-1.85321	todo	0
-1.67757	todos	0
-2.51955	toma	0
-5.11634	tomaba	0
-2.51518	tomar	0
-8.58765	tomará	0
-8.58765	tomaría	0
-8.58765	tomarían	0
-8.58765	tomáramos	0
-1.39096	tomó	0
-3.48546	tono	0
-7.80999	toque	0
-7.33725	tormenta	0
-8.58765	torta	0
-2.02429	total	0
-6.41436	totalidad	0
-1.81203	totalmente	0
-8.58765	toyota	0
-7.12587	trabajadores	0
-6.33825	trabajan	0
-6.54228	trabajar	0
-4.48483	trabajo	0
-8.58765	trabajó	0
-7.79421	tragedias	0
-5.7204	tramos	0
-4.35948	tranquilo	0
-8.58765	transitorio	0
-8.58765	transitorios	0
-5.56831	transporte	0
-2.35248	tras	0
-5.35916	trascendental	0
-3.65761	trata	0
-8.58765	trataban	0
-3.92501	tratado	0
-8.58765	tratan	0
-7.71505	trataremos	0
-1.9041	trece	0
-5.22969	treinta	0
-0.610149	tres	0
-3.11004	tribunal	0
-2.83432	tribunales	0
-6.53862	trimestre	0
-8.58765	triple	0
-1.73753	tripulantes	0
-8.58765	triste	0
-3.57796	triunfa	0
-5.10721	tropas	0
-8.58765	trozos	0
-7.61117	turcos	0
-3.84827	tuvieron	0
-7.13421	tuvimos	0
-1.9967	tuvo	0
-2.23975	técnica	0
-5.2472	técnicos	0
-4.43188	término	0
-7.09028	términos	0
-5.11061	título	0
-5.82334	ubicado	0
-8.58765	ultimo	0
-0.12225	un	0
-0.152345	una	0
-4.84803	unidad	0
-2.15658	unidas	0
-1.15754	unidos	0
-5.29082	uniforme	0
-1.8048	uno	0
-0.787571	unos	0
-7.13984	unánime	0
-2.13338	urge	0
-3.73346	urgente	0
-8.58765	uri	0
-5.48997	uruguay	0
-8.58765	usen	0
-4.02007	uso	0
-5.86746	ustedes	0
-6.16055	utilizar	0
-2.22593	va	0
-2.43943	vacuna	0
-4.0944	valiente	0
-8.58765	valiosa	0
-8.58765	valle	0
-2.97597	valores	0
-4.6207	van	0
-8.58765	vaqueros	0
-7.20838	variada	0
-4.56696	variado	0
-5.30611	variados	0
-4.39355	variantes	0
-0.195627	varias	0
-1.25626	varios	0
-3.73613	varían	0
-5.02414	vasto	0
-4.86824	vaticano	0
-5.96702	vaya	0
-2.2137	veces	0
-4.24713	veintisiete	0
-7.61726	velásquez	0
-5.79015	vemos	0
-8.58765	venados	0
-8.58765	vence	0
-2.9295	vender	0
-8.58765	vendido	0
-8.58765	vendían	0
-8.58765	venezolana	0
-5.28689	venezolano	0
-1.5917	venezolanos	0
-4.09626	venezuela	0
-4.85389	venganzas	0
-8.58765	vengarse	0
-8.58765	venideros	0
-5.37151	venta	0
-7.49447	ventaja	0
-8.58765	ventanas	0
-8.58765	ventura	0
-3.45709	veo	0
-2.52779	ver	0
-4.44645	verdad	0
-4.5215	veremos	0
-4.18475	vergüenza	0
-8.01991	verificación	0
-1.17375	vez	0
-6.812	viajar	0
-2.44226	viajará	0
-7.43984	viaje	0
-6.43655	viajo	0
-8.58765	vicepresidentes	0
-4.68908	victoria	0
-3.38265	vida	0
-2.77829	vieja	0
-4.24217	viejos	0
-5.88702	vienen	0
-5.14276	viernes	0
-8.58765	vincular	0
-3.17728	vino	0
-7.45236	violencia	0
-5.12002	virus	0
-0.585181	visas	0
-2.27059	visita	0
-8.58765	visión	0
-2.35784	visto	0
-3.72733	vive	0
-5.9896	vivimos	0
-8.58765	vladimir	0
-7.93263	vocero	0
-8.58765	volcar	0
-3.50686	volumen	0
-3.05073	voluntad	0
-3.31556	volver	0
-7.30627	volverán	0
-3.71287	volvió	0
-5.48414	volátil	0
-4.55048	votación	0
-5.97315	votantes	0
-4.69143	votar	0
-8.58765	votaron	0
-5.1832	voto	0
-4.72338	votos	0
-4.57403	voy	0
-7.29042	véanse	0
-7.50371	véase	0
-2.18326	vía	0
-3.26783	víctimas	0
-0.126205	y	0
-0.760742	ya	0
-0.755326	yo	0
-8.58765	yodización	0
-7.04849	yugoslavia	0
-8.58765	yáñez	0
-5.91525	zona	0
-6.90456	zonas	0
-8.58765	zulema	0
-1.3347	zulú	0
-6.05839	árbitro	0
-2.2181	él	0
-8.58765	énfasis	0
-7.02225	época	0
-8.58765	ése	0
-5.27017	ésta	0
-8.58765	éxito	0
-7.66477	éxitos	0
-7.82462	índice	0
-8.58765	óptimo	0
-5.84275	órdenes	0
-3.3887	órgano	0
-2.69754	última	0
-2.59614	último	0
-1.98553	últimos	0
-2.87811	única	0
-5.65773	únicamente	0
-3.60119	único	0
-4.40726	útiles	0

\2-grams:
-9.45201	</s> <s>
-4.93672	<s> a
-8.30342	<s> abrigamos
-7.19557	<s> acaso
-8.58765	<s> acepto
-8.28874	<s> aclara
-8.58765	<s> acortarán
-14.0709	<s> actor
-6.35955	<s> actualmente
-8.319	<s> actuaré
-5.82081	<s> además
-7.15516	<s> adjunto
-8.58765	<s> admite
-7.60565	<s> agradecemos
-18.9767	<s> agradezco
-6.09479	<s> agregó
-4.97347	<s> ahora
-5.77426	<s> al
-7.16649	<s> algunas
-5.75685	<s> algunos
-7.1504	<s> alvaro
-6.03054	<s> ambas
-5.85293	<s> ambos
-8.27492	<s> anexos
-8.34856	<s> aparentemente
-8.27813	<s> aragón
-8.30715	<s> arias
-7.59024	<s> aristide
-8.29453	<s> asimismo
-7.58353	<s> aspin
-8.37411	<s> astronautas
-5.53476	<s> así
-16.3668	<s> aumenta
-8.29827	<s> avisaremos
-8.19635	<s> avión
-6.91705	<s> añadió
-5.59396	<s> aún
-8.58765	<s> basándose
-8.58765	<s> bernardin
-8.58765	<s> bonn
-6.18304	<s> brasil
-6.60439	<s> cada
-6.30992	<s> caldera
-8.33362	<s> carlos
-8.58765	<s> cavallo
-8.24723	<s> cerrará
-8.28309	<s> cesar
-7.19047	<s> clausura
-8.22653	<s> clausuran
-5.81344	<s> clinton
-6.93322	<s> como
-8.58765	<s> completan
-7.58676	<s> comprendemos
-5.84785	<s> con
-8.28006	<s> continuaremos
-7.23089	<s> continúa
-12.6018	<s> convención
-7.59629	<s> corte
-6.88771	<s> creo
-8.58765	<s> críticos
-8.50982	<s> cuando
-8.95938	<s> cuatro
-15.0939	<s> cuáles
-7.18361	<s> cómo
-5.5673	<s> de
-6.16963	<s> debe
-6.06984	<s> debemos
-7.60215	<s> deberá
-8.27728	<s> debo
-7.54458	<s> decidió
-7.84187	<s> desarrollo
-6.06861	<s> desde
-8.29558	<s> deseo
-8.58765	<s> desgraciadamente
-8.36225	<s> destacó
-7.64532	<s> dice
-13.6387	<s> dichos
-13.0849	<s> dije
-6.05307	<s> dijo
-13.8323	<s> dios
-8.58765	<s> discutiremos
-6.17322	<s> dos
-6.64949	<s> doy
-6.89289	<s> durante
-8.58765	<s> económicamente
-2.17609	<s> el
-8.48452	<s> elecciones
-5.47476	<s> ello
-6.39023	<s> ellos
-7.21403	<s> emotivo
-3.54871	<s> en
-8.31523	<s> envíamos
-7.79663	<s> era
-3.56215	<s> es
-4.91232	<s> esa
-5.69236	<s> esas
-7.64293	<s> escojo
-8.28445	<s> escritor
-7.15586	<s> escuché
-5.78725	<s> ese
-5.46139	<s> eso
-6.52118	<s> esos
-6.69868	<s> esperamos
-12.9418	<s> esperar
-5.90281	<s> espero
-4.82031	<s> esta
-7.15271	<s> estaban
-5.34346	<s> estamos
-6.21544	<s> estas
-4.84899	<s> este
-4.72102	<s> esto
-8.31183	<s> estonia
-5.45453	<s> estos
-6.61687	<s> está
-8.36389	<s> evidentemente
-8.27826	<s> ex
-8.2625	<s> exhiben
-8.41089	<s> favor
-8.29694	<s> fecsa
-13.3271	<s> figura
-8.3014	<s> fijan
-7.57985	<s> filipinas
-8.2757	<s> finlandia
-14.016	<s> fracasa
-8.26713	<s> francia
-7.20995	<s> frente
-5.25073	<s> fue
-7.5617	<s> fuertes
-8.3105	<s> germán
-6.38654	<s> gobierno
-8.32117	<s> gonzález
-8.30145	<s> gracias
-8.3054	<s> graciela
-6.44965	<s> ha
-8.62359	<s> hacer
-8.34665	<s> haciendo
-5.50442	<s> hasta
-4.60974	<s> hay
-5.96636	<s> he
-5.69525	<s> hemos
-6.64778	<s> hoy
-6.38577	<s> hubo
-16.5556	<s> huelga
-16.259	<s> iberdrola
-8.33593	<s> igual
-8.30735	<s> ilaria
-8.30845	<s> indican
-7.69925	<s> indicó
-8.58765	<s> indique
-8.313	<s> inician
-8.58765	<s> inversionistas
-8.29481	<s> italia
-8.58765	<s> jaime
-8.3034	<s> japón
-14.1814	<s> justicia
-2.39565	<s> la
-8.28563	<s> lacalle
-8.58765	<s> lamentablemente
-3.83056	<s> las
-5.40923	<s> le
-8.33546	<s> les
-8.32643	<s> llameante
-7.64018	<s> llega
-10.9488	<s> llegó
-8.58765	<s> llevé
-4.64175	<s> lo
-3.44592	<s> los
-6.68655	<s> luego
-8.58765	<s> lógicamente
-8.31056	<s> madrazo
-8.58765	<s> mandela
-8.27809	<s> marchaba
-5.67844	<s> me
-14.014	<s> media
-8.58765	<s> mercouri
-6.47082	<s> mi
-7.57033	<s> mientras
-6.96236	<s> miguel
-8.58765	<s> milán
-8.28069	<s> mineros
-7.64969	<s> ministro
-14.9192	<s> ministros
-8.28307	<s> monselas
-8.58765	<s> morirá
-7.5244	<s> mucho
-5.95953	<s> muchos
-14.4286	<s> muere
-19.5628	<s> mueren
-11.349	<s> muy
-6.90913	<s> más
-14.0845	<s> méxico
-5.7018	<s> nadie
-14.4263	<s> nave
-7.22324	<s> necesitamos
-7.2289	<s> ni
-7.43486	<s> ninguna
-6.50509	<s> ninguno
-6.88294	<s> ningún
-2.59683	<s> no
-8.27771	<s> nombraron
-5.79258	<s> nos
-6.3284	<s> nosotros
-7.20944	<s> nuestro
-7.62822	<s> nuestros
-7.6938	<s> nuevamente
-6.70478	<s> nunca
-8.27987	<s> occidente
-6.89773	<s> ocho
-11.9911	<s> operaciones
-6.71467	<s> otras
-5.85619	<s> otros
-8.58765	<s> palacios
-5.56422	<s> para
-10.5793	<s> parece
-8.2678	<s> parra
-8.58765	<s> passarella
-15.9897	<s> pequeño
-6.90424	<s> peres
-14.1363	<s> permitirá
-3.70925	<s> pero
-7.16314	<s> pese
-6.67409	<s> peseta
-8.48006	<s> planeaba
-8.58765	<s> plantearon
-8.28662	<s> podríamos
-4.15091	<s> por
-8.27865	<s> preguntó
-8.28653	<s> prensa
-14.1428	<s> preparan
-6.78727	<s> presidente
-8.26686	<s> provocaría
-7.19155	<s> pueden
-8.15803	<s> puedo
-6.80529	<s> que
-12.3541	<s> quería
-7.59185	<s> queríamos
-12.9589	<s> quienes
-13.2375	<s> quiere
-5.74156	<s> qué
-8.27867	<s> quédense
-13.849	<s> realiza
-8.58765	<s> reanudada
-8.29025	<s> reciben
-8.58765	<s> recrudece
-8.58765	<s> reitera
-7.61982	<s> renuncia
-7.5912	<s> resa
-8.58765	<s> responderemos
-11.95	<s> retirada
-8.29664	<s> rey
-8.12663	<s> rusia
-8.58765	<s> ríos
-13.6281	<s> salieron
-8.30867	<s> sarajevo
-7.58576	<s> saínz
-3.22621	<s> se
-6.27368	<s> según
-8.58765	<s> sela
-8.26863	<s> senado
-9.31546	<s> será
-5.78565	<s> sería
-4.75484	<s> si
-12.6498	<s> siento
-8.20488	<s> siete
-11.8001	<s> sigue
-8.58765	<s> silvio
-4.55874	<s> sin
-6.31699	<s> siria
-7.39903	<s> sobre
-6.63984	<s> son
-6.42411	<s> soy
-5.18665	<s> su
-8.29764	<s> sube
-6.11614	<s> sus
-8.27895	<s> sé
-6.96234	<s> sólo
-6.23311	<s> tal
-4.29875	<s> también
-6.26532	<s> tampoco
-6.29278	<s> tenemos
-6.11277	<s> todas
-5.74078	<s> todavía
-5.51756	<s> todo
-6.07281	<s> todos
-8.58765	<s> toyota
-8.27148	<s> trataremos
-8.30517	<s> treinta
-8.04249	<s> tres
-8.27274	<s> tuvimos
-5.04245	<s> un
-5.74661	<s> una
-8.28598	<s> unos
-15.8557	<s> urge
-16.7245	<s> uruguay
-14.9773	<s> valores
-12.826	<s> van
-6.87285	<s> varios
-8.34667	<s> velásquez
-13.5935	<s> venezolanos
-7.18468	<s> venezuela
-8.27915	<s> véanse
-8.28433	<s> véase
-5.4924	<s> y
-7.17161	<s> ya
-5.82805	<s> yo
-8.3092	<s> yugoslavia
-7.09295	a actuar
-13.206	a algunos
-10.1163	a alta
-17.256	a aprobar
-7.28035	a atlanta
-6.42787	a cambio
-18.6854	a cargo
-5.69232	a chile
-13.9777	a cielo
-10.9361	a cifras
-7.07422	a cinco
-7.12422	a colaborar
-8.58765	a coleman
-7.12033	a combatir
-7.24199	a consulta
-4.43112	a continuación
-16.1618	a continuar
-7.11892	a debatir
-8.48301	a decir
-7.12144	a defraudar
-6.41238	a discutir
-6.0097	a elegir
-7.44855	a ello
-5.38329	a esa
-6.47288	a esas
-5.27272	a ese
-5.97211	a esos
-5.96387	a estar
-6.51845	a estas
-4.76598	a este
-6.02343	a esto
-8.72258	a estos
-5.71379	a europa
-7.14097	a examinar
-16.3049	a explicar
-7.11039	a fines
-19.8871	a firmeza
-8.58765	a goycochea
-13.9956	a gusto
-6.35651	a hablar
-5.97134	a hacer
-5.72413	a ir
-8.79346	a japón
-8.58765	a jerusalén
-8.58765	a juan
-17.3192	a juicio
-2.54101	a la
-5.74795	a largo
-5.48417	a las
-3.5527	a los
-14.3902	a marcos
-11.6546	a mejorar
-5.52902	a menudo
-4.62718	a mi
-6.06333	a méxico
-6.12698	a nadie
-7.24747	a otra
-7.67215	a otro
-5.06877	a otros
-7.1419	a partidos
-8.93549	a países
-7.78933	a personas
-4.85434	a que
-7.11481	a quedar
-11.2006	a recibir
-7.16119	a reformas
-7.10655	a regir
-13.0746	a regresar
-5.71689	a reservas
-6.14648	a respetar
-8.58765	a retirarse
-8.58765	a reunir
-5.72613	a rusia
-7.10879	a santiago
-7.11636	a sentir
-5.09878	a ser
-7.12617	a serbia
-4.38212	a su
-11.2306	a sus
-10.871	a tasa
-8.58765	a tegucigalpa
-14.6948	a temas
-5.63811	a tener
-4.55099	a todos
-6.0095	a trabajar
-3.88735	a un
-5.31291	a una
-6.3906	a votación
-7.11995	a votar
-13.7602	a ya
-8.58765	abajo con
-8.58765	abandonada </s>
-0.655756	abandonado la
-8.58765	abarcan muy
-7.6064	abastecimiento el
-0.684259	abatir estructuras
-1.34816	abierta </s>
-0.764171	abiertas y
-1.83716	abierto a
-16.046	abierto del
-8.58765	abra está
-0.655371	abrigamos la
-1.83622	abril </s>
-2.80561	abrió un
-8.58765	abstracto sino
-8.58765	abundan los
-8.58765	aburrida señaló
-0.687466	acaba de
-8.58765	acaben los
-1.21179	acaso haya
-2.15465	acaso no
-8.58765	acatamiento sea
-0.669632	acceder a
-1.41132	acceso a
-0.946156	accidente </s>
-3.6327	acciones cayeron
-2.31596	acciones de
-3.50919	acciones subieron
-2.3972	acción se
-12.5209	acción son
-0.708894	acelerar el
-8.58765	acento francés
-1.47859	aceptable </s>
-0.726047	aceptar un
-0.639423	aceptarla </s>
-8.58765	acepto humildemente
-8.11901	aceptó esa
-0.674154	aceptó la
-0.693073	aclara que
-0.898416	aclararlo todo
-8.58765	acomete campaña
-0.691099	acontecimiento a
-8.58765	acopla a
-1.84318	acordaron continuar
-1.49034	acordó que
-8.58765	acortarán duración
-8.58765	acosta </s>
-1.09438	actitud de
-5.76187	actitud dijo
-1.67561	actividad </s>
-2.33814	actividad volátil
-2.96978	actividades en
-4.40757	actividades se
-8.58765	activo diferido
-8.58765	activos desde
-4.41831	acto la
-6.47171	actor de
-7.75305	actor más
-8.58765	actuaciones de
-2.58088	actual </s>
-3.5767	actual acuerdo
-8.58765	actual composición
-3.34961	actual dista
-4.28504	actual es
-18.4184	actualidad hay
-0.719231	actualizan constantemente
-0.66433	actualizar cada
-2.16794	actualmente la
-3.17717	actualmente objeto
-0.708227	actuando así
-16.2083	actuar </s>
-0.689183	actuaré conforme
-8.58765	acude a
-0.693857	acuerdan impulsar
-1.69655	acuerdo </s>
-4.8548	acuerdo como
-2.90663	acuerdo con
-2.14362	acuerdo de
-16.3404	acuerdo donde
-4.7381	acuerdo no
-3.91529	acuerdo que
-5.44433	acuerdo sobre
-0.724484	acusaciones </s>
-8.58765	acusados prestó
-1.81345	adelante </s>
-1.86132	adelante dijo
-0.692913	adelanto </s>
-3.30159	además por
-1.1272	adicionales </s>
-0.749182	adiós del
-8.58765	adjudica un
-0.717695	adjudicada a
-2.92399	adjunta copia
-1.42314	adjunta una
-8.58765	adjuntan los
-2.51754	adjunto copias
-8.58765	admite un
-18.1158	adoptado algunas
-0.79034	adoptará sus
-0.69673	adoptarán por
-0.745214	aducía </s>
-8.58765	advirtió </s>
-1.82742	aeropuerto </s>
-8.58765	aeropuertos fueron
-8.58765	afectados </s>
-0.711914	afiliación a
-2.16031	afirma benítez
-1.04977	afirma que
-1.40129	afirmativo tendríamos
-1.18294	afirmó </s>
-8.58765	afirmó tajante
-11.4513	agencia dijo
-0.707308	agente </s>
-2.81004	agradecemos por
-12.6061	agradecemos su
-1.8183	agradeceremos su
-0.743006	agradecerle a
-2.1223	agradezco de
-1.01548	agradezco su
-1.40851	agrava esta
-7.12348	agravó las
-0.895683	agregó </s>
-8.58765	agregó acosta
-9.13131	agregó por
-2.45386	agregó que
-0.698368	agresión contra
-8.58765	agrupación </s>
-0.681566	agrícola francés
-1.93309	agua agrava
-0.721979	aguarda regreso
-8.58765	aguarme el
-0.690771	aguas no
-8.58765	ahondar el
-3.43728	ahora </s>
-8.58765	ahora ahorra
-3.92409	ahora bien
-3.66531	ahora dijo
-4.2021	ahora en
-8.58765	ahora enfrenta
-3.85967	ahora es
-5.49994	ahora la
-8.39725	ahora los
-3.03642	ahora no
-4.19241	ahora que
-9.46556	ahora sobre
-4.24198	ahora solamente
-3.9768	ahora tenemos
-8.58765	ahorra </s>
-5.29925	ahí que
-0.705557	aislamiento fue
-8.58765	ajustará pues
-4.61242	al cierre
-13.8603	al contenido
-5.74486	al cuadro
-15.0634	al distinguido
-12.2959	al día
-8.58765	al estrellarse
-4.40577	al exterior
-8.58765	al festivo
-16.07	al fuego
-4.63431	al gobierno
-5.16325	al grupo
-5.02244	al hospital
-5.73135	al marcador
-5.74344	al marco
-4.61035	al menos
-5.53602	al mercado
-4.06267	al mismo
-4.04299	al parecer
-4.92744	al país
-5.56276	al problema
-5.93058	al párrafo
-18.7088	al recibir
-5.71341	al salir
-5.02421	al secretario
-13.2732	al sector
-5.11682	al siguiente
-5.69642	al tratado
-12.5241	al uso
-10.1467	al ver
-0.738908	albacora han
-0.744505	aldeas </s>
-8.58765	alegatos de
-2.80233	alemania </s>
-15.4945	alemán gana
-7.35603	alfonsín </s>
-10.6583	algo así
-2.85673	algo más
-3.18771	algo puede
-8.58765	algo tangible
-4.64159	alguna para
-2.94001	alguna razón
-2.8467	algunas condiciones
-3.46662	algunas cosas
-2.8328	algunas de
-9.02175	algunas diferencias
-10.4583	algunas medidas
-11.6114	algunas otras
-8.80631	alguno </s>
-0.682598	alguno de
-8.58765	algunos críticos
-8.58765	algunos especialistas
-7.37473	algunos esto
-5.03496	algunos países
-8.58765	algunos vendían
-0.727045	alimentaria continúa
-0.727417	alla del
-8.58765	allen al
-1.49099	allá de
-10.7638	allí cuando
-8.58765	alrededor de
-2.9928	alta mar
-9.32115	altibajos y
-13.8367	alto costo
-2.97791	alto organismo
-1.86398	alvaro lo
-1.69621	alza en
-1.12184	amable cooperación
-0.713552	amazónico </s>
-3.16437	ambas naves
-1.74619	ambas partes
-16.0808	ambas propuestas
-3.47007	ambos efectos
-3.52043	ambos equipos
-3.3212	ambos países
-8.58765	ambos reclamaron
-2.03004	amplia </s>
-1.98625	amplia gama
-1.44283	ampliado también
-8.58765	ampliamente imitado
-0.778455	ampliar esa
-2.89428	ampliarse en
-1.15659	ampliarse o
-0.841453	amplio </s>
-0.695177	amplitud de
-1.47352	américa latina
-0.701078	analfabetos del
-0.698333	analista </s>
-0.691191	analizado cuidadosamente
-8.58765	analogía ayudará
-2.54375	anexo diez
-18.7417	anexo figura
-3.64272	anexo tres
-2.75422	anexos al
-8.58765	anonadado </s>
-0.755547	anonimato </s>
-2.90226	ante el
-2.16613	ante la
-3.05925	ante una
-0.688385	antemano su
-1.99209	antenas solares
-0.706742	anterior </s>
-2.00381	anticipado su
-0.711078	anticipó qué
-8.58765	antología de
-0.735214	anual del
-0.741235	anunciado aún
-0.676514	anunciados </s>
-0.712945	anunciar medidas
-0.690889	análisis </s>
-0.688066	apagones eléctricos
-8.58765	aparecen las
-0.737431	aparentemente mantiene
-0.839306	apelables ante
-1.85531	apelación </s>
-8.58765	apelado </s>
-3.15525	apertura del
-2.33884	aplicación de
-8.58765	aplicar la
-8.58765	aportaciones adicionales
-3.67431	apoyo </s>
-15.1707	apoyo alguno
-4.48207	apoyo del
-8.48507	apoyo para
-2.54287	apoyo y
-8.58765	apremio expresado
-1.91319	aprobación </s>
-8.58765	aprobado por
-17.6083	aprobar reformas
-0.708603	aprobaron en
-1.74551	aprobó el
-3.71063	aprobó presupuesto
-0.690663	aproximadas de
-18.0365	aprueba pacto
-8.58765	apuntarán a
-8.58765	aquella época
-0.709425	aragón dijo
-0.724648	arbitraje </s>
-0.665442	aremisos a
-8.58765	argentina discutiéndolo
-2.32023	argentina que
-13.696	argentino </s>
-1.86757	argentino polemiza
-1.9764	arias dice
-1.19087	arias se
-13.4819	aristide ha
-1.10679	arma </s>
-1.97158	arma sónica
-0.743874	armamento será
-9.28095	armas agregó
-14.7255	armas nucleares
-0.693182	arrecian críticas
-2.69416	arreglo no
-8.58765	arrestado hasta
-2.19705	arroz norteamericano
-8.58765	arroz tailandés
-0.689123	arte y
-0.779026	artistas están
-1.83866	artículo catorce
-16.5559	artículo con
-11.0055	artículo doce
-3.56705	artículo segundo
-5.9534	artículo también
-8.58765	artículos de
-0.671312	asalariados han
-2.67586	asamblea </s>
-1.37001	asamblea general
-3.64214	asamblea ordinaria
-8.58765	ascenso el
-0.74404	asegurado </s>
-8.58765	asesinar y
-0.750932	aseveró </s>
-0.702782	asignación puede
-1.47608	asimismo lamentó
-11.4049	asimismo se
-8.58765	asisten a
-2.02075	asistencia y
-8.58765	asociado </s>
-8.58765	asombro en
-4.98064	aspecto del
-0.698107	aspectos </s>
-13.6463	aspin dijo
-20.1891	assad vaya
-1.50765	astronautas instalan
-0.768671	asumiría ministerio
-9.18495	asunto en
-12.494	asunto serio
-1.94646	asuntos mundiales
-4.73209	asuntos no
-3.82579	así cuáles
-13.8552	así explicó
-9.31318	así hasta
-7.37709	así las
-2.83794	así que
-15.6116	atacar a
-14.6842	ataque causó
-0.717384	ataúd </s>
-3.06031	atención </s>
-1.64829	atención de
-2.14849	atención médica
-0.771733	atender esa
-1.3622	atentado </s>
-2.3608	aterrizó con
-2.24208	aterrizó sin
-0.674419	atlanta dos
-0.77389	atraer aremisos
-0.708622	atraviesan un
-0.754585	atribuírlo a
-1.90571	atrás </s>
-0.699915	atuendo </s>
-0.726648	audaz </s>
-0.739563	audiencias sobre
-17.3646	aumenta cifra
-9.43219	aumenta la
-1.16386	aumentado la
-1.87006	aumentaron </s>
-8.58765	aumentos no
-4.84557	aumentó las
-0.72249	ausencia </s>
-6.17902	ausencia de
-0.698904	australiano </s>
-0.690887	autobús </s>
-0.690361	autoevaluaciones no
-9.72809	automóvil de
-8.58765	automóviles nuevos
-1.65509	autor afirma
-1.84546	autoridades de
-1.45073	autoridades no
-7.26425	avance del
-5.4277	avance este
-8.58765	avancen </s>
-0.712409	avances </s>
-2.65554	avanza cada
-1.54234	avanzado en
-0.743263	avaro y
-8.58765	avendaño </s>
-0.701689	avisaremos en
-2.63662	avión de
-2.67261	avión español
-2.852	avión hará
-2.50306	avión norteamericano
-8.58765	avión procedente
-4.20444	ayer en
-2.36507	ayuda a
-3.73667	ayuda y
-0.677153	ayudará a
-1.51585	aérea de
-0.751236	aéreos en
-1.10388	añadió </s>
-1.88767	añadió que
-8.58765	añadió ventura
-2.47855	año </s>
-1.97151	año el
-2.76203	año en
-1.13057	años </s>
-3.99635	años después
-7.82576	años es
-5.59348	años esta
-8.58765	años venideros
-4.81264	aún añadió
-5.24996	aún del
-4.62353	aún detenciones
-3.81793	aún en
-2.80124	aún más
-1.72823	aún no
-1.62308	baja </s>
-15.0256	baja a
-3.15646	bajaron más
-0.818253	baje expresó
-3.14218	bajo condición
-3.42502	bajo dijo
-8.06053	bajo la
-12.4547	bajo presión
-0.712721	bajos </s>
-5.29062	balladur </s>
-0.72423	bancario </s>
-2.13091	banco central
-16.1871	banco europeo
-3.03845	banco ha
-8.58765	bancolombia </s>
-12.8947	bancos estarán
-1.85706	basa el
-1.09469	basa en
-0.682856	basado en
-2.18784	base intelectual
-3.55387	base se
-2.43464	bastante amplia
-2.31602	bastante corto
-2.18408	bastante preocupantes
-8.58765	basándose en
-1.73468	batalla </s>
-0.722239	batallones en
-8.58765	baviera </s>
-0.680885	beca fue
-8.58765	bena soares
-11.873	bendiga miguel
-1.8435	benítez </s>
-11.6957	berlín y
-8.58765	bernardin no
-8.58765	bernardo </s>
-0.786246	bielorrusia busca
-2.53509	bien </s>
-3.39898	bien como
-3.78939	bien conocida
-4.01046	bien desde
-4.11552	bien existe
-3.78549	bien informados
-5.13062	bien la
-6.13688	bien puede
-3.7591	bien ubicado
-0.741743	bienvenida </s>
-19.718	blancos nos
-8.58765	blum y
-1.42451	bogotá </s>
-1.29519	bogotá y
-0.693222	bola de
-0.775782	bomba </s>
-8.58765	bondes se
-8.58765	bonn está
-1.8452	bonos </s>
-0.773509	boquete en
-1.3526	borrador </s>
-8.58765	borrados </s>
-1.00078	bosnia </s>
-8.58765	bosques </s>
-1.83701	brasil </s>
-3.48875	brasil acuerdan
-3.59234	brasil aguarda
-1.83695	brasileño completó
-1.95212	brasileño declara
-2.71845	breve respiro
-20.7322	brevemente al
-1.92033	brevemente ante
-8.58765	bruselas </s>
-0.682447	buceador </s>
-2.33661	buen buceador
-2.45882	buen momento
-5.66573	bueno </s>
-6.79908	bueno para
-2.42718	busca a
-8.58765	busca proteger
-8.58765	buscamos la
-2.46891	buscar la
-8.58765	básicos </s>
-0.684813	bósforo </s>
-2.88153	cabe duda
-7.79366	cabo </s>
-1.88627	cabría decir
-8.58765	cachemira luego
-3.46732	cada cuatro
-3.72088	cada día
-4.15396	cada encuentro
-15.0812	cada organismo
-14.1314	cada producto
-4.15421	cada trimestre
-2.52636	cada uno
-2.53552	cada vez
-1.61851	cadena de
-9.56842	caer en
-8.58765	cafetería cierra
-1.07466	caja </s>
-8.82305	caldera es
-8.58765	caldera escogieron
-3.08961	caldera presentó
-0.701021	calefacción </s>
-28.1669	calidad cuesta
-0.728922	calidad de
-0.654579	camacho en
-1.12227	cambiado </s>
-1.82786	cambiado en
-18.0256	cambiado totalmente
-1.34558	cambio de
-8.2615	cambios al
-2.92992	cambios de
-8.58765	cambios gane
-3.99636	cambios se
-3.53255	cambios serán
-0.701374	cambió varias
-1.45904	campamento </s>
-1.48598	campamento controlado
-13.0075	campaña política
-0.707951	campeones ganando
-2.11609	campo los
-20.5109	campo moderado
-2.29523	campo y
-0.71888	canalizó a
-3.26272	canciller francés
-3.03993	canciller peruano
-8.58765	cancillería uri
-2.45199	candidato en
-2.19862	candidato para
-2.63291	candidatos podían
-1.97563	cantante se
-1.24503	cantidad de
-1.55191	capacidad de
-8.58765	capaz de
-3.16223	capital mínimo
-8.58765	captura </s>
-19.4436	capítulo tres
-8.58765	cara </s>
-1.85016	caracas bogotá
-0.758189	caravana pasa
-0.696749	carbón </s>
-7.49523	carbón a
-0.606712	cardona </s>
-0.720047	carece de
-0.849796	carga de
-0.900852	carga están
-8.58765	cargo aportaciones
-1.05716	cargo de
-8.58765	carlos elgueta
-1.8533	carlos lleras
-1.43987	carnaval </s>
-8.58765	caro </s>
-3.99603	carrera </s>
-3.36542	carrera por
-4.66856	carta de
-2.81693	carta describía
-2.70122	cartas para
-0.679819	carteles </s>
-11.5629	casa mis
-5.37502	casas </s>
-8.0331	casi cinco
-8.58765	casi perfecta
-1.86845	casi total
-0.700781	casino </s>
-2.3339	caso </s>
-3.60084	caso afirmativo
-15.3557	caso agregó
-2.64246	caso de
-7.12507	caso más
-4.00337	caso no
-3.95318	caso se
-7.94283	caso también
-17.5837	casos hemos
-9.82596	casos más
-3.23675	casos problemáticos
-2.00569	casos se
-0.69495	casó con
-8.58765	catedral está
-3.22962	catorce </s>
-14.9296	católica </s>
-2.75319	causa </s>
-1.50446	causa de
-1.64786	causa del
-1.66033	causas del
-1.73769	causas naturales
-8.58765	causó asombro
-2.69711	causó cierto
-2.53806	causó pánico
-8.58765	cavallo dice
-2.06871	cayeron en
-0.702902	cañoneos y
-0.717775	ceda </s>
-0.714012	cedería golán
-2.23304	celebración por
-0.773613	cenizas </s>
-6.73046	central </s>
-1.27701	centro de
-8.58765	centroamérica </s>
-1.55024	cerca de
-1.249	cerca del
-1.59827	cero indica
-5.14889	cero por
-8.58765	cerrados por
-0.727715	cerrar siempre
-8.58765	cerraron este
-0.821099	cerrará operaciones
-0.88498	cerveza todo
-8.58765	cesación del
-8.58765	cesar acude
-8.58765	cese al
-8.58765	cetáceos más
-1.26908	chiapas </s>
-8.77808	chiapas declaró
-1.53421	chile </s>
-19.6613	chileno </s>
-0.747606	chileno saliente
-13.4987	chileno vender
-5.25618	china </s>
-0.686472	chocó cerca
-0.744738	choferes </s>
-2.36583	choques continuaran
-16.8987	choques tuvieron
-0.775348	ciega y
-20.9316	cielo abierto
-1.53122	ciento </s>
-15.311	ciento dijo
-1.50784	ciento en
-0.692554	científicos han
-8.58765	científicos tratan
-8.58765	ciernen sobre
-12.2641	cierra los
-2.68138	cierre de
-6.2974	cierre en
-2.54674	cierto </s>
-2.55735	cierto revuelo
-7.30368	cifra de
-9.42388	cifra que
-3.04717	cifras aproximadas
-3.24376	cifras hacen
-14.5009	cifras sin
-7.94369	cifras son
-4.80765	cinco años
-12.1455	cinco dólares
-7.59232	cinco meses
-1.7991	ciudad de
-10.7534	ciudad del
-2.24183	civiles o
-0.765048	civilizados </s>
-2.37825	claro </s>
-2.31202	claro espaldarazo
-6.98088	clase el
-0.722902	clasificación de
-8.58765	claudio </s>
-0.764235	clausura del
-0.761218	clausuran locales
-0.710846	claves en
-8.58765	climáticos de
-7.16636	clinton a
-8.58765	clinton compara
-7.46885	clinton también
-0.759535	coalición de
-0.71386	coherencia </s>
-1.90198	colaboración debe
-0.672323	colaborar </s>
-8.58765	coleman </s>
-16.6334	colombia militares
-8.58765	colombo venezolano
-8.58765	colonos deben
-8.58765	colonos entren
-8.58765	colonos tomarían
-8.58765	columna aparecen
-1.4592	combates aéreos
-1.84576	combatir </s>
-8.58765	combustible nuclear
-8.58765	comedia la
-8.58765	comentado en
-8.36821	comentar </s>
-3.98049	comentario de
-1.25183	comentarios </s>
-2.04802	comentarios de
-3.99	comentarios del
-8.58765	comentó bernardo
-4.51917	comentó en
-0.993956	comenzar </s>
-10.4589	comenzar a
-1.49486	comenzará el
-0.707232	comenzarán a
-17.9214	comerciales </s>
-0.694151	comercializó </s>
-1.17091	comercio </s>
-8.58765	comercio colombo
-1.70165	comienza hoy
-1.00479	comienzo del
-0.749418	comisionista </s>
-2.13912	comisión </s>
-4.20468	comisión consideró
-4.42497	comisión decidió
-8.58765	comisión determinará
-3.5117	comisión se
-16.2617	comisión serán
-9.59244	comisión tal
-2.47697	comité </s>
-4.42707	comité adoptará
-4.75796	comité decidió
-13.8086	comité especial
-2.32567	comité se
-4.8359	comité tenía
-1.83181	comités han
-5.03302	como candidato
-5.39365	como causa
-5.07412	como lo
-4.50114	como no
-8.58765	como quieran
-5.04228	como sensato
-2.86755	como un
-3.63	como una
-13.9125	como ésta
-17.8615	como último
-8.58765	compara a
-0.733213	comparte esa
-0.702948	comparten la
-0.807057	compartieron esa
-0.741194	comparó con
-0.672009	compasión </s>
-0.743671	compatible </s>
-8.58765	compañía recurrió
-0.722781	compensatorias </s>
-0.700857	competitiva </s>
-1.11732	complace saber
-0.683968	complaciente </s>
-1.37054	complejo y
-8.58765	complejos </s>
-3.04562	completa normalidad
-8.58765	completan acuerdo
-0.887444	completo </s>
-2.75925	completo pero
-0.742221	completos de
-0.711662	completó reforma
-0.754269	complicadas en
-8.58765	composición de
-1.94949	compras compensatorias
-1.48961	comprende nuestra
-0.697847	comprendemos que
-8.58765	comprender su
-8.58765	comprenderse que
-8.58765	comprenderá el
-0.748018	comprendió lo
-0.695414	comprensión </s>
-0.712502	comprometido a
-0.692708	compromiso </s>
-15.5234	común tres
-5.03972	con actividad
-5.81936	con argentina
-11.3692	con china
-5.69931	con dificultades
-2.79592	con el
-4.76274	con ellos
-4.63842	con esa
-5.59959	con este
-4.47806	con esto
-4.29878	con galina
-12.6669	con grecia
-9.07653	con hechos
-3.01371	con la
-3.86174	con las
-4.93827	con los
-8.58765	con manada
-7.55096	con mi
-8.58765	con modestos
-5.05103	con mucha
-8.39029	con ninguna
-6.317	con nosotros
-5.73397	con posterioridad
-5.90692	con pérdida
-8.58765	con seriedad
-3.9705	con su
-6.58344	con todo
-4.5089	con todos
-4.50262	con un
-0.735375	concebido el
-8.58765	concepto abstracto
-2.25031	concepto amplio
-2.32644	concepto de
-0.736533	conciencia agregó
-10.3006	conclusiones del
-7.3778	conclusión es
-1.91274	conclusión opuesta
-2.1475	concluye la
-0.697361	concluídas </s>
-0.931955	concluído así
-1.56282	concreta </s>
-1.72178	concreta para
-1.41884	concretos </s>
-1.46823	concretos que
-8.58765	concuerda con
-0.742273	concéntrese en
-2.06833	condena en
-8.58765	condenatorio no
-1.77088	condiciones </s>
-2.96468	condiciones favorables
-2.5099	condición de
-1.43893	conductor de
-8.58765	condujo supuestamente
-0.737307	conexión </s>
-2.08795	conferencia de
-3.9828	conferencia el
-5.49116	conferencia para
-1.78136	confianza en
-8.58765	confidenciales </s>
-8.58765	confirmado independientemente
-1.45027	conflictos se
-0.752954	conforme a
-8.58765	confuso e
-8.58765	congelarían los
-1.03239	congreso </s>
-4.43366	conoce a
-8.58765	conocen las
-2.07636	conocer sus
-0.732286	conocerla </s>
-0.733367	conocida </s>
-9.381	conocido de
-11.7992	conocimiento del
-3.11911	consecuencia decidió
-2.26368	consecuencia no
-8.58765	consecutivos </s>
-8.58765	conseguir la
-2.52411	consejo </s>
-3.96216	consejo procedió
-8.58765	consejo tomará
-0.768206	consenso </s>
-4.28253	consenso internacional
-8.58765	conservación de
-8.76759	considera posible
-0.707293	considerablemente de
-4.37162	consideración de
-0.72533	consideró que
-8.58765	consignaciones adicionales
-7.3848	consiguiente esa
-10.4981	consiguiente les
-0.705296	consta de
-0.70876	constante </s>
-8.69449	constante dijo
-0.704479	constantemente </s>
-0.619251	constituirán la
-4.0993	constituye un
-0.808689	construcciones </s>
-8.58765	construir sobre
-5.10371	consulta </s>
-2.77165	consulta política
-0.787676	consumado de
-8.58765	consumo </s>
-8.58765	contactado para
-2.21506	contacto tan
-0.736931	contaduría </s>
-8.58765	contemplaba una
-0.705673	contenido de
-0.699474	conteo de
-8.58765	contestaron a
-0.698518	contextos </s>
-1.91634	continuaban pendientes
-1.95745	continuación </s>
-14.2097	continuación defendió
-15.6008	continuación quisiera
-8.58765	continuado </s>
-1.60971	continuar con
-3.60407	continuar el
-14.3196	continuar esta
-2.23265	continuar y
-0.700511	continuaran hoy
-0.792427	continuaremos actuando
-0.729634	continuarán negociando
-2.1094	continúa </s>
-2.82161	continúa diezmada
-5.43944	continúa en
-2.95818	continúa investigación
-6.00739	continúa siendo
-0.771172	continúe </s>
-0.637842	continúen las
-3.65897	contra aldeas
-2.80569	contra de
-3.66253	contra homero
-4.76155	contra los
-8.58765	contradicciones entre
-4.99198	contrario existe
-1.09271	control </s>
-7.25084	control de
-0.799073	controlado por
-0.740509	convencidos de
-8.58765	convención radical
-2.3625	conveniente recibir
-1.5245	conversaciones </s>
-3.03854	conversaciones abiertas
-1.17317	conversaciones de
-1.41243	cooperación </s>
-1.80511	cooperación económica
-8.22447	cooperación en
-2.85398	cooperación técnica
-1.84715	cooperación y
-8.58765	coordinación </s>
-1.83198	copa </s>
-9.55277	copia del
-0.703766	copiar </s>
-0.748782	copias de
-8.58765	cordinar el
-30.7394	correa </s>
-0.708456	correa asumiría
-9.93235	correcta </s>
-0.708557	correcta dijo
-8.58765	correctas </s>
-0.698516	correcto </s>
-1.18578	corregirse en
-3.58357	correr este
-0.6401	correspondientes al
-19.1268	correspondientes son
-0.698475	correspondía al
-0.699301	corro </s>
-8.58765	corros </s>
-2.2453	corrupción </s>
-2.13779	corrupción en
-2.72117	corrupción nadie
-0.645603	cortar la
-2.85522	corte decidirá
-8.58765	corte prohibe
-1.64923	corte suprema
-8.58765	cortes como
-2.56743	corto expresó
-2.0528	cosa </s>
-3.06698	cosas complicadas
-3.07943	cosas positivas
-8.36125	cosas y
-1.38846	costa de
-23.3937	costo social
-0.686922	costosas </s>
-0.685236	cotización </s>
-8.58765	cotizó en
-8.58765	creado una
-0.706608	crean venganzas
-0.706183	creciente tendencia
-2.47613	crecimiento de
-1.97986	crecimiento económico
-0.695391	cree que
-0.763335	creen que
-0.697277	creo que
-8.58765	creíamos que
-0.723581	creó pues
-1.08764	crisis </s>
-11.7963	crisis y
-0.696499	cristal para
-1.17209	criterios concretos
-0.710398	critica la
-0.719047	criticará al
-0.696396	crucial </s>
-0.692804	crudo </s>
-8.58765	cruzada de
-8.58765	crédito </s>
-6.7039	críticas contra
-8.58765	críticos galardona
-8.58765	críticos opinan
-2.78208	cuadro en
-7.34363	cuadro ha
-6.47087	cuadro ocho
-2.61051	cuadro seis
-0.720684	cuadros se
-9.86136	cual será
-8.10401	cualquier caso
-13.4432	cualquier encuesta
-8.58765	cuando blum
-3.67534	cuando quieren
-4.51753	cuando se
-6.061	cuando uno
-2.15322	cuanto reanudemos
-0.740643	cuantos civiles
-8.58765	cuarenta horas
-8.58765	cuarta vez
-2.21629	cuatro años
-8.73621	cuatro grupos
-4.55338	cuatro personas
-7.79869	cuatro por
-3.57244	cuatro se
-16.0259	cuba tras
-8.72672	cubierta de
-3.42559	cuenta </s>
-2.65838	cuenta el
-6.87267	cuentas ni
-8.58765	cuesta cara
-0.722536	cuestionario </s>
-1.36991	cuestiones </s>
-6.21001	cuestiones se
-1.74822	cuestión </s>
-2.19817	cuestión de
-3.59062	cuestión es
-6.65124	cuestión fue
-2.86338	cuestión no
-8.00818	cuestión que
-4.89159	cuestión va
-2.21771	cuidadosamente su
-0.707915	cuidadosos </s>
-1.02289	cuidan de
-0.85963	culpable pero
-1.42126	culpables de
-0.70751	cultura del
-0.741148	cumplen </s>
-0.708871	cumplimiento significa
-2.07004	cumplir dicho
-0.716691	cumplirán períodos
-7.22472	curso otras
-0.2896	cursos de
-11.8642	cuál era
-0.727372	cuáles son
-1.02985	cuándo se
-8.58765	cuánta gente
-1.90909	cámara de
-0.683649	césar farias
-12.8108	cólera en
-5.07154	cómo se
-2.50204	daba lugar
-0.694208	dadi </s>
-17.6167	dado demasiado
-16.8376	dan detalles
-1.8189	dar a
-2.60328	dar pasos
-0.679132	dañados han
-2.51255	daños o
-6.80095	de acción
-5.58768	de acuerdo
-6.76957	de agua
-7.92684	de aguas
-7.88969	de américa
-7.89383	de anonimato
-6.29517	de antemano
-7.22586	de apagones
-7.22254	de aprobación
-6.48309	de atención
-7.21961	de atuendo
-7.91535	de autobús
-8.58765	de automóviles
-8.58765	de bancolombia
-8.58765	de bena
-7.94292	de bielorrusia
-7.92576	de bogotá
-8.58765	de bosques
-8.58765	de cachemira
-7.07623	de cada
-9.80854	de caldera
-8.58765	de captura
-7.19182	de carbón
-7.92518	de carga
-7.23443	de casos
-6.80683	de causas
-11.1187	de chiapas
-6.32861	de chile
-6.78776	de clinton
-7.94613	de colaboración
-7.90076	de colombia
-8.58765	de combustible
-6.54915	de comenzar
-7.9402	de compras
-7.89277	de confianza
-7.89412	de contaduría
-7.96182	de copiar
-17.3696	de correa
-7.90007	de corrupción
-7.22744	de costa
-7.8707	de crecimiento
-7.18226	de cristal
-8.58765	de crédito
-7.87486	de cuadro
-8.58765	de cuarenta
-6.81718	de cursos
-13.003	de cólera
-7.863	de daños
-8.58765	de defenderse
-8.58765	de definición
-8.58765	de depósitos
-7.94846	de derecha
-6.808	de derechos
-13.4051	de desarrollar
-7.89768	de desmantelar
-7.95012	de dichas
-7.50058	de dicho
-7.91183	de dificultades
-5.68259	de dos
-6.48727	de duda
-5.82091	de dólares
-6.78463	de dónde
-7.19649	de edad
-5.81077	de ellas
-7.25612	de ello
-5.69459	de ellos
-8.58765	de elías
-6.78265	de enero
-7.16673	de enseñanza
-7.9022	de entel
-7.2032	de error
-5.44624	de esa
-5.84905	de esas
-8.58765	de escapar
-5.951	de ese
-7.2258	de esos
-7.25953	de españa
-8.06029	de espera
-8.58765	de espuma
-4.76727	de esta
-5.2275	de estado
-8.14517	de estar
-6.85642	de estas
-5.25797	de este
-6.78106	de estos
-7.28758	de examen
-7.93827	de excelsior
-7.89822	de expresión
-7.93175	de extirpar
-12.9158	de extradición
-6.78174	de febrero
-7.22034	de financiera
-7.21141	de fines
-6.78531	de fondo
-7.21176	de frío
-7.9952	de fugitivo
-7.1617	de funciones
-12.8773	de georgia
-6.26466	de gobierno
-7.18369	de guerra
-9.39192	de hacer
-6.48116	de hacerlo
-5.98639	de hecho
-7.24923	de honduras
-6.30872	de hoy
-7.88656	de imagen
-7.22077	de importancia
-6.83295	de impuestos
-5.4302	de inmediato
-7.94491	de intención
-8.58765	de intensas
-8.58765	de intervencion
-6.80947	de interés
-7.94834	de israel
-8.58765	de janeiro
-8.58765	de jesús
-7.8825	de jubilaciones
-7.91992	de julio
-7.90465	de justificación
-2.96212	de la
-3.98463	de las
-7.89006	de leer
-8.58765	de lesiones
-6.85388	de llegar
-5.15396	de lo
-3.68465	de los
-13.5699	de madrid
-7.88484	de madurez
-7.21196	de magnitud
-7.92522	de manifestar
-6.50569	de mantenimiento
-7.93671	de marfil
-8.58765	de mayo
-13.6141	de mañana
-12.6518	de menores
-5.55937	de mi
-7.90049	de migrantes
-8.58765	de millonario
-6.75375	de momento
-7.90858	de monarquía
-12.0919	de moscú
-13.2963	de muerto
-11.4941	de muertos
-7.99641	de mí
-8.58765	de música
-6.07594	de negocios
-6.2497	de ninguna
-6.19008	de no
-7.947	de nueve
-7.18904	de palencia
-13.3056	de papel
-5.49184	de paz
-6.80394	de pensiones
-7.91515	de perlas
-6.50729	de personal
-5.97095	de período
-7.89589	de pie
-8.58765	de piezas
-8.58765	de poderes
-9.326	de por
-5.89894	de prensa
-7.20671	de preocupación
-10.3296	de primera
-6.80041	de privatizaciones
-6.3174	de problemas
-6.51732	de programas
-7.92106	de pronto
-13.3433	de página
-4.23199	de que
-7.96897	de queda
-8.58765	de racionamiento
-7.90784	de realizar
-8.58765	de reconstrucción
-6.8319	de recursos
-7.18772	de redacción
-14.3475	de reformas
-8.58765	de relator
-7.96362	de representantes
-7.17436	de reserva
-8.58765	de reses
-14.5032	de resolver
-6.75459	de respuesta
-13.2643	de rusia
-8.58765	de río
-6.25604	de salud
-6.53984	de sanciones
-7.24097	de santiago
-11.514	de semana
-6.43606	de ser
-13.3257	de servicio
-5.83553	de sesiones
-8.58765	de sevilla
-7.23498	de siempre
-6.11112	de siete
-7.23125	de sistema
-5.75335	de su
-7.9062	de sumario
-6.05522	de sus
-16.536	de sí
-8.00933	de tales
-8.04989	de tarde
-7.90886	de tasas
-13.023	de teatro
-7.2148	de telmex
-8.58765	de tiroteo
-6.81764	de toda
-8.58765	de torta
-6.3307	de trabajo
-7.91713	de tragedias
-15.1347	de transporte
-12.7795	de treinta
-7.10735	de tres
-4.68292	de un
-4.68711	de una
-6.08376	de uno
-5.79615	de vida
-8.58765	de visión
-7.26825	de votos
-6.79541	de víctimas
-8.58765	de zulema
-8.58765	de énfasis
-8.58765	de éxito
-0.702574	debajo de
-0.734782	debamos ponernos
-8.4311	debate sobre
-0.724378	debatir con
-0.652863	debatió la
-4.75587	debe ampliarse
-8.58765	debe comprenderse
-4.66104	debe corregirse
-4.02308	debe encontrarse
-4.68515	debe examinarse
-3.35535	debe haber
-8.58765	debe plantearse
-5.79405	debe por
-1.84889	debe ser
-9.55633	debe tener
-8.58765	debemos desarmar
-3.95072	debemos llegar
-8.58765	debemos reaccionar
-3.75144	debemos seguir
-17.3879	deben comenzar
-2.11236	deben ser
-2.52009	deber dar
-1.08415	deberá evitarse
-3.39459	debería haber
-1.4195	deberían actualizar
-8.58765	deberían desglosarse
-8.58765	deberían tenerse
-1.45226	debido al
-8.58765	debieran ser
-13.9865	debió haber
-2.36032	debo agradecerle
-1.45955	debían reclutarlas
-8.58765	decenal de
-0.782653	decepcionar a
-0.683891	decida otra
-0.668707	decide no
-8.58765	decide sucesión
-11.7137	decidir </s>
-1.39026	decidirá </s>
-1.5612	decidirá quien
-13.2256	decidirá quién
-2.37055	decidió acceder
-2.3437	decidió descartar
-1.70355	decidió entonces
-2.46457	decidió mantener
-3.18595	decir del
-8.58765	decir gobernar
-5.01776	decir sí
-3.62188	decir verdad
-1.76851	decisiones por
-2.0921	decisiones se
-10.4232	decisión </s>
-17.6777	decisión agravó
-3.18806	decisión concreta
-5.55027	decisión no
-7.05293	decisión que
-1.5288	declara guerra
-4.14338	declaraciones en
-1.14577	declaración </s>
-2.47587	declaración anterior
-5.50873	declaración por
-1.56284	declaró </s>
-3.77671	declaró culpable
-8.58765	declinó comentar
-2.44603	decreto respectivo
-0.687152	defenderemos con
-8.58765	defenderse sostuvo
-17.4412	defendió a
-2.01111	defendió fuertemente
-15.2652	defensa propia
-0.703207	definiciones correspondientes
-8.58765	definición </s>
-2.20804	definitivamente abierto
-12.0299	definitivamente expresó
-0.85415	definitoria comentó
-0.737171	defraudar </s>
-0.709133	degeneren </s>
-8.58765	dejaba caer
-2.75012	dejar el
-5.35828	dejar la
-0.712163	dejará el
-2.36295	dejó ciega
-4.07138	del accidente
-5.47708	del acuerdo
-6.48535	del alto
-13.9254	del arbitraje
-5.20421	del arreglo
-5.15222	del artículo
-12.346	del ataque
-5.49352	del atentado
-6.24557	del bósforo
-16.6492	del cabo
-6.24651	del campo
-6.23849	del carbón
-6.23899	del casino
-15.2739	del cero
-5.12385	del comercio
-4.45471	del comité
-6.21986	del control
-8.58765	del demandado
-5.21048	del desarrollo
-8.58765	del entendimiento
-5.55358	del equipo
-6.24331	del estero
-4.25327	del examen
-6.26785	del fin
-6.41279	del final
-15.3082	del fuego
-5.18618	del grupo
-8.58765	del horno
-6.56576	del informe
-6.2324	del interior
-9.14112	del juego
-5.16208	del mundo
-14.2326	del niño
-5.17647	del palacio
-6.27346	del parlamento
-5.10425	del país
-5.58778	del personal
-5.53652	del período
-9.09686	del plan
-4.45392	del presidente
-6.46746	del problema
-4.6332	del programa
-8.80661	del proyecto
-6.56603	del pueblo
-11.9016	del sistema
-4.4456	del tema
-16.3604	del tres
-6.25038	del tribunal
-5.19413	del uno
-10.3696	del viernes
-2.49698	delegaciones no
-7.61809	delegación es
-2.39972	delegación mantiene
-3.29318	delegación ofrece
-1.28938	delegados decir
-8.58765	demanda interna
-8.58765	demandado esta
-1.4768	demandante </s>
-17.791	demasiado señaló
-3.05052	demasiado vieja
-4.27204	democracia y
-8.58765	democráticamente </s>
-1.88683	demora continúe
-1.84693	demora intolerable
-2.15899	demás hagan
-2.15988	demás tripulantes
-8.58765	denunciarlo </s>
-0.731539	departamento en
-0.781065	departamentos no
-1.6043	depende de
-0.693947	deportiva de
-0.679821	deprimido </s>
-8.58765	depósitos en
-0.725099	derecha triunfa
-1.54992	derecho a
-5.26914	derecho dijo
-2.39541	derecho internacional
-0.921618	derechos humanos
-1.42994	derrame petrolero
-8.58765	derrocamiento </s>
-1.38967	desacuerdo </s>
-1.43216	desacuerdo con
-0.713751	desalentadora </s>
-14.8222	desarmados enfatizó
-8.58765	desarmar a
-8.58765	desarrollando armas
-16.1904	desarrollar una
-1.12074	desarrollo </s>
-11.6403	desarrollo ahora
-3.67	desarrollo social
-2.31426	desarrollo y
-0.834475	descarrilar el
-1.05749	descartado el
-0.725247	descartar esta
-1.79784	desconoce el
-0.746751	describen dichos
-11.7457	describen más
-2.09506	describir como
-0.723471	describió el
-0.727123	describía la
-8.58765	descubrir el
-13.9231	desde abril
-1.35025	desde entonces
-2.67836	desde luego
-5.93038	desde su
-2.789	desea dominar
-2.47848	desea saber
-0.749577	desempeña una
-0.747532	deseo a
-8.58765	deseo referirme
-0.625153	desfigurada </s>
-0.704515	desgarramiento por
-8.58765	desglosarse </s>
-8.58765	desgraciadamente en
-8.58765	designar un
-0.734387	desmantelar los
-8.58765	desparición de
-1.91772	desplazarán batallones
-0.659462	despojado de
-1.81209	después </s>
-1.83959	después de
-4.09628	después en
-6.9623	después que
-1.10662	destacó </s>
-1.95263	destacó sin
-0.714045	destino de
-0.66605	destruídos </s>
-21.5375	desée continuar
-0.705212	detalle de
-2.03025	detalles </s>
-16.8934	detalles durante
-2.2775	detalles sobre
-1.55966	detenciones en
-1.39267	detenido </s>
-1.75877	detenido en
-8.58765	determinación de
-2.231	determinado para
-0.707628	determinan por
-0.730375	determinarse de
-8.58765	determinará el
-0.687025	detrimento de
-0.703798	detuvo brevemente
-2.32416	deuda </s>
-3.69114	deuda no
-18.1581	diario habla
-8.58765	diarrea </s>
-9.69117	dice el
-3.78933	dice la
-1.10453	dice que
-2.26672	dicen que
-1.97534	dichas cartas
-3.09573	dicho </s>
-3.09168	dicho compromiso
-3.3026	dicho sistema
-15.9036	dichos cambios
-1.46999	dichos factores
-8.58765	dieciséis se
-8.58765	dieciséis zonas
-3.12606	diez </s>
-0.746852	diezmada </s>
-1.22034	diferencias </s>
-13.4373	diferencias comerciales
-6.10961	diferencias de
-1.07406	diferentes </s>
-17.1313	diferentes pruebas
-8.58765	diferido </s>
-1.20507	dificultades </s>
-2.20109	difícil </s>
-3.11772	difícil de
-4.50941	difícil la
-8.58765	difícil operar
-8.27993	difícil ser
-8.02154	difícil ver
-0.824754	difíciles y
-0.703514	dije que
-13.5882	dijeron a
-1.90973	dijo </s>
-4.1468	dijo a
-8.58765	dijo allen
-5.41571	dijo camacho
-6.92772	dijo con
-5.41209	dijo corro
-6.10489	dijo cuantos
-6.12781	dijo dadi
-15.2831	dijo después
-8.58765	dijo edmundo
-3.3762	dijo el
-5.41342	dijo fernández
-6.0965	dijo henríquez
-8.58765	dijo horacio
-6.10788	dijo marcos
-3.69457	dijo no
-5.38881	dijo porque
-6.18432	dijo posteriormente
-2.56531	dijo que
-5.41584	dijo ramos
-8.58765	dijo reyes
-6.10675	dijo rojo
-5.96835	dijo todo
-4.02757	dijo un
-1.01189	dinero </s>
-10.7228	dinero por
-3.67637	dinero se
-6.7912	dio con
-8.58765	dios te
-11.2261	diplomática dijo
-1.29537	diplomático </s>
-1.47451	diplomáticos creen
-1.35395	diplomáticos extranjeros
-8.58765	diputado claudio
-1.53091	dirección correcta
-5.623	director de
-16.2663	director puede
-1.43	directorio de
-1.50679	directrices o
-0.709455	dirige principalmente
-20.1196	dirigentes son
-8.58765	dirigió a
-7.25493	dirigía a
-8.58765	disculpen </s>
-1.99178	discutir por
-8.58765	discutiremos los
-1.8289	discutirlo </s>
-8.58765	discutiéndolo afirmó
-0.906955	diseño es
-2.30119	disminución en
-0.691389	disparos </s>
-8.58765	dispensado </s>
-7.00869	dispone a
-23.6675	disponible únicamente
-1.51628	disposición era
-0.713821	dispuestos a
-7.25389	disputa es
-0.748409	disputa podría
-1.73368	dista de
-18.3476	distinguido representante
-0.688629	distintos </s>
-8.58765	distraído por
-0.695713	distribuirá próximamente
-8.58765	disturbios estallaron
-8.58765	divergencias entre
-0.729019	diversidad en
-0.700499	diversión </s>
-2.34922	diversos contextos
-13.0751	diversos problemas
-0.68396	divida </s>
-0.674563	divididas </s>
-0.78532	dividido en
-8.58765	división entre
-8.58765	divulgado el
-0.676649	divulgara su
-7.30016	diálogo </s>
-2.65434	doce </s>
-8.58765	doctrina católica
-2.16555	documento </s>
-4.87817	documento para
-2.36229	documento se
-0.676573	dolorosa </s>
-0.671158	dominar el
-8.58765	dominaron </s>
-2.47165	domingo a
-8.58765	domingos </s>
-0.813029	dominicano aprobó
-11.4958	donde sólo
-5.1045	dos </s>
-3.72051	dos años
-12.9815	dos casos
-14.8477	dos estados
-4.50463	dos hijas
-8.58765	dos horarios
-4.59166	dos horas
-5.25167	dos informes
-8.58765	dos iniciativas
-8.58765	dos notas
-12.2822	dos objetivos
-4.49671	dos observaciones
-10.8828	dos pasajeros
-10.5035	dos países
-4.21089	dos pilotos
-6.08634	dos por
-5.32886	dos protocolos
-17.6114	dos soldados
-5.24495	dos tercios
-5.24123	dos tramos
-5.51375	dos valores
-8.58765	dosis </s>
-1.34949	doy la
-1.8498	doy las
-8.58765	drogas </s>
-4.33916	duda </s>
-1.3095	duda de
-3.68526	duda en
-1.75469	duda sabe
-0.71545	dudamos que
-5.86196	duración de
-5.04709	durante años
-8.30478	durante cinco
-2.55367	durante el
-8.58765	duraron alrededor
-0.728006	durarán un
-8.58765	dá cierre
-8.58765	dándose ahora
-0.700241	dé una
-0.711154	débil con
-2.27391	día </s>
-3.76716	día a
-15.2863	día completo
-3.69368	día el
-5.09156	día es
-8.58765	día mayormente
-3.56038	día más
-13.2089	día terrible
-1.52367	días </s>
-12.2032	días es
-6.57355	días se
-4.8917	dólar por
-14.896	dólar registra
-4.41655	dólar se
-10.2606	dólar sigue
-1.72474	dólar y
-0.96397	dólares </s>
-14.0349	dólares la
-1.91735	dónde se
-3.07324	dónde vienen
-1.98235	dónde vive
-2.94313	e ilusiones
-8.58765	e inquieto
-0.739272	echó atrás
-18.6204	economía aseveró
-3.89239	economía más
-8.58765	economía venezolana
-0.680571	económica internacional
-8.58765	económicamente sería
-3.0666	económico no
-11.1749	económicos </s>
-9.719	edad </s>
-1.98644	edición normal
-2.72297	edificio </s>
-1.18611	edificio del
-8.58765	edmundo garcía
-8.58765	educación sexual
-8.58765	educadores </s>
-8.58765	efectivamente </s>
-1.96989	efectos </s>
-6.18503	efectos se
-5.05414	efectuará el
-6.40787	efectuó el
-2.02336	ejecución en
-8.58765	ejecutan y
-2.61834	ejército </s>
-2.00576	ejército no
-0.725891	ejércitos no
-8.58765	el abra
-8.58765	el acatamiento
-12.3755	el acceso
-15.1598	el activo
-6.25654	el acto
-15.096	el actor
-6.11825	el actual
-6.58991	el aeropuerto
-7.01391	el aislamiento
-6.24525	el anexo
-13.1497	el análisis
-7.75757	el apoyo
-8.58765	el apremio
-7.65189	el armamento
-6.92977	el arroz
-6.04212	el artículo
-7.06193	el asunto
-7.62667	el australiano
-16.6857	el automóvil
-6.47419	el autor
-10.5747	el avance
-6.56156	el avión
-5.1984	el banco
-7.62071	el campamento
-6.50873	el campo
-6.11452	el canciller
-7.02019	el capital
-7.68718	el capítulo
-6.56299	el cargo
-7.0164	el carnaval
-5.65934	el caso
-6.57435	el centro
-8.58765	el cese
-6.54118	el cierre
-12.6886	el comercio
-6.58589	el comienzo
-7.63142	el comisionista
-4.42641	el comité
-6.55268	el concepto
-5.96252	el congreso
-4.94111	el consejo
-12.701	el consenso
-6.987	el contrario
-7.63929	el control
-6.00935	el crecimiento
-6.91387	el cuadro
-7.67771	el cuestionario
-5.59223	el de
-6.97162	el decreto
-6.96887	el demandante
-7.63689	el departamento
-8.58765	el derrocamiento
-6.26263	el desarrollo
-7.66359	el destino
-7.61349	el detalle
-5.6132	el dinero
-6.24141	el diplomático
-13.0441	el diputado
-6.94395	el director
