
\data\
ngram 1=2756
ngram 2=11602

\1-grams:
-0.891866	</s>
-99	<s>	-1.10864
-1.697506	a	-0.9242266
-4.575295	abajo	-0.4732504
-4.575295	abandonada	-0.4157951
-4.274345	abandonado	-0.7596155
-4.575295	abarcan	-0.4744784
-4.09828	abastecimiento	-0.6149903
-4.274345	abatir	-0.7764213
-3.876452	abierta	-0.810105
-4.274345	abiertas	-0.7719306
-3.797276	abierto	-0.7024611
-4.575295	abra	-0.4741659
-4.274345	abrigamos	-0.7596155
-3.730333	abril	-0.7705696
-3.730333	abrió	-0.5830007
-4.575295	abstracto	-0.475322
-4.575295	abundan	-0.4688547
-4.575295	aburrida	-0.474964
-3.973354	acaba	-1.057382
-4.575295	acaben	-0.4688547
-3.876452	acaso	-0.8617736
-4.575295	acatamiento	-0.4751719
-4.274345	acceder	-0.7676405
-4.09828	acceso	-0.6423719
-3.575438	accidente	-1.10298
-3.296691	acciones	-0.69907
-3.672344	acción	-0.5785749
-4.274345	acelerar	-0.7607779
-4.575295	acento	-0.4752989
-3.876452	aceptable	-0.810105
-3.973354	aceptar	-1.07233
-4.274345	aceptarla	-0.7168251
-4.575295	acepto	-0.4754029
-3.973354	aceptó	-0.7583057
-3.973354	aclara	-1.06801
-4.274345	aclararlo	-0.7758552
-4.575295	acomete	-0.4753798
-4.274345	acontecimiento	-0.7676405
-4.575295	acopla	-0.4666106
-3.973354	acordaron	-0.7735257
-4.09828	acordó	-0.7669804
-4.575295	acortarán	-0.4753913
-4.575295	acosta	-0.4157951
-3.876452	actitud	-0.4719754
-3.730333	actividad	-0.7143152
-3.461498	actividades	-0.6131588
-4.274345	activo	-0.4157819
-4.575295	activos	-0.4751142
-3.496259	acto	-0.7941386
-3.797276	actor	-0.6915815
-4.575295	actuaciones	-0.4553215
-3.320172	actual	-0.659446
-3.973354	actualidad	-0.7146081
-4.274345	actualizan	-0.7763982
-4.274345	actualizar	-0.7759939
-3.534046	actualmente	-0.6829648
-4.274345	actuando	-0.7758784
-3.973354	actuar	-0.5393544
-4.274345	actuaré	-0.7764213
-4.575295	acude	-0.4666106
-4.274345	acuerdan	-0.7764213
-2.86788	acuerdo	-0.9029492
-3.797276	acusaciones	-1.193946
-4.274345	acusados	-0.4157819
-3.621193	adelante	-0.8888319
-4.274345	adelanto	-0.7168251
-3.461498	además	-0.6587389
-3.730333	adicionales	-0.9460873
-4.274345	adiós	-0.7728279
-4.575295	adjudica	-0.4702704
-4.274345	adjudicada	-0.7676405
-3.575438	adjunta	-0.7913451
-4.575295	adjuntan	-0.4688547
-3.797276	adjunto	-0.6724416
-4.575295	admite	-0.4702704
-4.09828	adoptado	-0.4752643
-4.274345	adoptará	-0.775809
-4.09828	adoptarán	-0.9485698
-4.274345	aducía	-0.7168251
-4.575295	advirtió	-0.4157951
-3.876452	aeropuerto	-0.8123027
-4.575295	aeropuertos	-0.4748253
-4.575295	afectados	-0.4157951
-4.09828	afiliación	-0.9437318
-3.730333	afirma	-1.009971
-4.09828	afirmativo	-0.6426783
-3.274415	afirmó	-0.9878843
-4.274345	agencia	-0.4121649
-3.730333	agente	-1.260893
-3.730333	agradecemos	-0.81645
-4.09828	agradeceremos	-0.6394385
-4.274345	agradecerle	-0.7676405
-3.730333	agradezco	-0.9967216
-4.09828	agrava	-0.63309
-4.274345	agravó	-0.4544865
-2.558419	agregó	-1.806779
-4.274345	agresión	-0.7761788
-4.575295	agrupación	-0.4157951
-4.09828	agrícola	-0.9524202
-3.973354	agua	-0.7167853
-4.274345	aguarda	-0.776352
-4.575295	aguarme	-0.4597479
-4.274345	aguas	-0.7651953
-4.575295	ahondar	-0.4597479
-2.672362	ahora	-0.5825844
-4.575295	ahorra	-0.4157951
-3.730333	ahí	-0.542784
-4.09828	aislamiento	-0.950708
-4.575295	ajustará	-0.475195
-2.315381	al	-0.8034628
-4.274345	albacora	-0.7752538
-4.274345	aldeas	-0.7168251
-4.575295	alegatos	-0.4553215
-3.621193	alemania	-0.6039604
-3.797276	alemán	-0.7164542
-4.274345	alfonsín	-0.4106132
-3.177507	algo	-0.7869277
-3.575438	alguna	-0.6304202
-3.461498	algunas	-0.6301293
-4.09828	alguno	-0.5687568
-3.084087	algunos	-0.636
-4.274345	alimentaria	-0.7762943
-4.274345	alla	-0.7728279
-4.575295	allen	-0.4733084
-3.621193	allá	-1.056122
-3.672344	allí	-0.7022008
-4.575295	alrededor	-0.4553215
-3.575438	alta	-0.7757397
-3.876452	altibajos	-0.8085532
-3.534046	alto	-0.6538912
-3.973354	alvaro	-0.7704234
-3.621193	alza	-0.620829
-3.973354	amable	-0.7761211
-4.274345	amazónico	-0.7168251
-3.429314	ambas	-0.8173751
-3.296691	ambos	-0.7163581
-3.575438	amplia	-0.8078021
-3.876452	ampliado	-0.6739546
-4.274345	ampliamente	-0.4744205
-4.274345	ampliar	-0.7751843
-3.876452	ampliarse	-0.8608122
-3.621193	amplio	-1.064856
-4.274345	amplitud	-0.7563515
-4.09828	américa	-0.6513441
-4.274345	analfabetos	-0.7728279
-4.274345	analista	-0.7168251
-4.274345	analizado	-0.7763982
-4.575295	analogía	-0.4753913
-3.672344	anexo	-0.6186818
-3.876452	anexos	-0.5057911
-4.575295	anonadado	-0.4157951
-4.274345	anonimato	-0.7168251
-3.233024	ante	-0.9285857
-3.797276	antemano	-1.251019
-3.973354	antenas	-0.7746978
-3.973354	anterior	-1.017855
-3.973354	anticipado	-0.713902
-4.274345	anticipó	-0.7759362
-4.575295	antología	-0.4553215
-4.274345	anual	-0.7728279
-4.274345	anunciado	-0.7758206
-4.274345	anunciados	-0.7168251
-4.274345	anunciar	-0.7762481
-4.09828	análisis	-0.8929164
-4.09828	apagones	-0.9525011
-4.575295	aparecen	-0.4714718
-4.274345	aparentemente	-0.7763405
-4.274345	apelables	-0.7761903
-3.973354	apelación	-0.5263971
-4.575295	apelado	-0.4157951
-3.973354	apertura	-0.5877351
-3.797276	aplicación	-0.7522823
-4.575295	aplicar	-0.4585856
-4.575295	aportaciones	-0.4753336
-3.344995	apoyo	-0.5290647
-4.575295	apremio	-0.4754029
-3.672344	aprobación	-0.7121119
-4.575295	aprobado	-0.4714485
-4.274345	aprobar	-0.4728094
-4.274345	aprobaron	-0.7644601
-3.344995	aprobó	-0.7614983
-4.274345	aproximadas	-0.7563515
-4.274345	aprueba	-0.4751488
-4.575295	apuntarán	-0.4666106
-4.575295	aquella	-0.4753682
-4.274345	aragón	-0.7732816
-4.274345	arbitraje	-0.7168251
-4.274345	aremisos	-0.7676405
-3.730333	argentina	-0.6875985
-3.876452	argentino	-0.6238406
-3.876452	arias	-0.8627682
-3.876452	aristide	-0.6729668
-3.876452	arma	-0.8137087
-4.274345	armamento	-0.7758668
-3.371324	armas	-0.9446086
-4.274345	arrecian	-0.7763636
-3.797276	arreglo	-0.6305171
-4.575295	arrestado	-0.474964
-3.797276	arroz	-0.6375644
-4.274345	arte	-0.7719306
-4.274345	artistas	-0.7760171
-3.429314	artículo	-0.6797666
-4.575295	artículos	-0.4553215
-4.274345	asalariados	-0.7752538
-3.296691	asamblea	-0.8863416
-4.575295	ascenso	-0.4597479
-4.09828	asegurado	-0.8929164
-4.575295	asesinar	-0.4709007
-3.973354	aseveró	-1.017855
-4.09828	asignación	-0.9518657
-3.973354	asimismo	-0.5728343
-4.575295	asisten	-0.4666106
-3.672344	asistencia	-0.7678173
-4.575295	asociado	-0.4157951
-4.575295	asombro	-0.4634302
-3.797276	aspecto	-0.5365023
-4.09828	aspectos	-0.8929164
-4.09828	aspin	-0.6370105
-4.274345	assad	-0.4157686
-4.09828	astronautas	-0.6478659
-4.274345	asumiría	-0.7763867
-3.461498	asunto	-0.6312342
-3.876452	asuntos	-0.6859074
-2.885254	así	-0.7523177
-4.274345	atacar	-0.4656672
-3.621193	ataque	-0.764294
-4.274345	ataúd	-0.7168251
-3.371324	atención	-0.7216055
-4.274345	atender	-0.7751843
-4.09828	atentado	-0.5687568
-3.797276	aterrizó	-0.7612085
-4.274345	atlanta	-0.7751611
-4.274345	atraer	-0.7764213
-4.274345	atraviesan	-0.7713003
-4.274345	atribuírlo	-0.7676405
-3.973354	atrás	-0.6974639
-4.09828	atuendo	-0.8929164
-4.274345	audaz	-0.7168251
-4.274345	audiencias	-0.7754621
-3.973354	aumenta	-0.5807797
-3.973354	aumentado	-0.747151
-3.973354	aumentaron	-0.7092917
-4.575295	aumentos	-0.4641653
-3.730333	aumentó	-0.6215655
-4.09828	ausencia	-0.5687568
-4.09828	australiano	-0.8929164
-4.274345	autobús	-0.7168251
-4.274345	autoevaluaciones	-0.7651953
-4.274345	automóvil	-0.4553215
-4.575295	automóviles	-0.4752643
-3.797276	autor	-0.8136425
-3.672344	autoridades	-0.8049864
-3.672344	avance	-0.6135657
-4.575295	avancen	-0.4157951
-4.274345	avances	-0.7168251
-3.973354	avanza	-0.7714755
-4.09828	avanzado	-0.6389634
-4.274345	avaro	-0.7719306
-4.575295	avendaño	-0.4157951
-4.274345	avisaremos	-0.7644601
-3.534046	avión	-0.6768679
-3.534046	ayer	-0.6170862
-3.253227	ayuda	-0.8092723
-4.274345	ayudará	-0.7676405
-4.09828	aérea	-0.7563515
-3.973354	aéreos	-1.06549
-3.320172	añadió	-1.183059
-3.12829	año	-0.6546946
-2.962666	años	-0.9671931
-2.843057	aún	-1.002588
-3.730333	baja	-0.5251746
-3.672344	bajaron	-0.7608258
-4.274345	baje	-0.7762597
-3.429314	bajo	-0.5159925
-3.973354	bajos	-1.017855
-3.876452	balladur	-0.6218815
-4.09828	bancario	-0.8929164
-3.296691	banco	-0.7248561
-4.575295	bancolombia	-0.4157951
-3.621193	bancos	-0.6340765
-3.876452	basa	-0.8452573
-4.09828	basado	-0.9405515
-3.534046	base	-0.8812596
-3.730333	bastante	-0.7164972
-4.575295	basándose	-0.4634302
-3.730333	batalla	-0.697464
-4.274345	batallones	-0.7644601
-4.575295	baviera	-0.4157951
-4.274345	beca	-0.7746167
-4.575295	bena	-0.4754029
-4.274345	bendiga	-0.4664928
-3.973354	benítez	-0.7167853
-4.09828	berlín	-0.5867045
-4.575295	bernardin	-0.4641653
-4.575295	bernardo	-0.4157951
-4.274345	bielorrusia	-0.7763751
-3.098327	bien	-0.7635703
-4.274345	bienvenida	-0.7168251
-4.09828	blancos	-0.5912901
-4.575295	blum	-0.4709007
-3.973354	bogotá	-0.7116432
-4.09828	bola	-0.9324428
-4.274345	bomba	-0.7168251
-4.575295	bondes	-0.4651592
-4.575295	bonn	-0.4741659
-3.973354	bonos	-0.7168251
-4.274345	boquete	-0.7644601
-4.09828	borrador	-0.5687568
-4.575295	borrados	-0.4157951
-3.621193	bosnia	-1.068955
-4.575295	bosques	-0.4157951
-3.296691	brasil	-0.7633572
-3.876452	brasileño	-0.7763866
-3.672344	breve	-0.705013
-3.876452	brevemente	-0.6945884
-4.274345	bruselas	-0.7168251
-4.274345	buceador	-0.7168251
-3.730333	buen	-0.7178286
-3.876452	bueno	-0.4065877
-3.797276	busca	-0.6408721
-4.575295	buscamos	-0.4585856
-3.876452	buscar	-0.7596155
-4.575295	básicos	-0.4157951
-4.274345	bósforo	-0.7168251
-3.730333	cabe	-0.6511708
-3.672344	cabo	-0.5828413
-3.973354	cabría	-0.6512748
-4.575295	cachemira	-0.4752527
-2.984385	cada	-0.7912041
-4.09828	cadena	-0.7563515
-3.876452	caer	-0.54224
-4.575295	cafetería	-0.4753798
-3.973354	caja	-0.6936955
-3.461498	caldera	-0.6091664
-4.274345	calefacción	-0.7168251
-4.09828	calidad	-0.6313765
-4.09828	camacho	-0.9405515
-3.621193	cambiado	-0.8790311
-3.461498	cambio	-0.7458971
-3.253227	cambios	-0.5493028
-4.09828	cambió	-0.952351
-3.973354	campamento	-0.7167985
-4.09828	campaña	-0.412672
-4.09828	campeones	-0.952478
-3.730333	campo	-0.5896231
-4.274345	canalizó	-0.7676405
-3.496259	canciller	-0.6355358
-3.973354	cancillería	-0.4754029
-3.797276	candidato	-0.6827083
-3.730333	candidatos	-0.6560166
-3.672344	cantante	-0.6662845
-3.797276	cantidad	-0.9306619
-3.973354	capacidad	-0.9324428
-4.575295	capaz	-0.4553215
-3.575438	capital	-0.7940416
-4.575295	captura	-0.4157951
-3.973354	capítulo	-0.4728326
-4.575295	cara	-0.4157951
-3.973354	caracas	-0.776352
-4.274345	caravana	-0.7763982
-3.876452	carbón	-0.8036206
-4.274345	cardona	-0.7168251
-3.973354	carece	-1.057382
-4.09828	carga	-0.6309652
-3.730333	cargo	-0.8068632
-3.876452	carlos	-0.6971246
-4.09828	carnaval	-0.5854698
-4.575295	caro	-0.4157951
-3.797276	carrera	-0.5824219
-3.575438	carta	-0.8186063
-3.876452	cartas	-0.6729302
-4.274345	carteles	-0.7168251
-3.575438	casa	-0.6897813
-4.09828	casas	-0.4115369
-3.496259	casi	-0.620073
-4.274345	casino	-0.7168251
-2.941981	caso	-0.6761781
-3.344995	casos	-0.6929109
-4.09828	casó	-0.9503717
-4.575295	catedral	-0.4741659
-3.621193	catorce	-0.6353262
-4.274345	católica	-0.4136978
-3.320172	causa	-1.166437
-3.575438	causas	-0.9344425
-3.621193	causó	-0.8272735
-4.575295	cavallo	-0.4750911
-3.973354	cayeron	-0.7634504
-4.09828	cañoneos	-0.9480219
-4.274345	ceda	-0.7168251
-4.274345	cedería	-0.7764213
-3.973354	celebración	-0.7688286
-4.274345	cenizas	-0.7168251
-3.496259	central	-0.705784
-3.730333	centro	-1.154291
-4.575295	centroamérica	-0.4157951
-3.496259	cerca	-1.229684
-3.973354	cero	-0.5961075
-4.575295	cerrados	-0.4714485
-4.274345	cerrar	-0.7762943
-4.575295	cerraron	-0.4738996
-4.274345	cerrará	-0.7763751
-4.274345	cerveza	-0.7758552
-4.575295	cesación	-0.4717979
-4.274345	cesar	-0.47224
-4.575295	cese	-0.4733084
-4.575295	cetáceos	-0.4736678
-3.672344	chiapas	-0.8296522
-3.274415	chile	-0.9047706
-3.973354	chileno	-0.5406014
-3.621193	china	-0.6245918
-4.09828	chocó	-0.9523972
-4.274345	choferes	-0.7168251
-3.730333	choques	-0.6562965
-4.274345	ciega	-0.7719306
-4.274345	cielo	-0.4157156
-3.371324	ciento	-0.9762227
-4.09828	científicos	-0.650292
-4.575295	ciernen	-0.4744321
-4.09828	cierra	-0.6433963
-3.621193	cierre	-0.6746238
-3.672344	cierto	-0.6449068
-3.672344	cifra	-0.5677376
-3.429314	cifras	-0.6505049
-3.461498	cinco	-0.5746345
-3.399352	ciudad	-0.6296102
-3.876452	civiles	-0.8131124
-4.274345	civilizados	-0.7168251
-3.496259	claro	-0.7830225
-4.274345	clase	-0.4596043
-4.09828	clasificación	-0.9324428
-4.575295	claudio	-0.4157951
-3.973354	clausura	-1.073858
-4.274345	clausuran	-0.7764097
-4.274345	claves	-0.7644601
-4.575295	climáticos	-0.4553215
-3.160474	clinton	-0.7981217
-4.274345	coalición	-0.7563515
-4.274345	coherencia	-0.7168251
-3.973354	colaboración	-0.7745124
-4.274345	colaborar	-0.7168251
-4.575295	coleman	-0.4157951
-3.496259	colombia	-0.8352666
-4.575295	colombo	-0.4753798
-4.09828	colonos	-0.4752297
-4.274345	columna	-0.4754029
-3.876452	combates	-0.8136822
-3.973354	combatir	-0.6974639
-4.575295	combustible	-0.4753798
-4.575295	comedia	-0.4585856
-4.575295	comentado	-0.4634302
-4.09828	comentar	-0.5725253
-4.09828	comentario	-0.4547408
-3.429314	comentarios	-0.9322975
-3.399352	comentó	-0.6709601
-3.797276	comenzar	-0.6868827
-4.09828	comenzará	-0.6267086
-4.09828	comenzarán	-0.9437318
-4.274345	comerciales	-0.4154904
-4.274345	comercializó	-0.7168251
-3.672344	comercio	-0.6910617
-4.09828	comienza	-0.6339924
-3.876452	comienzo	-0.8095838
-4.274345	comisionista	-0.7168251
-2.973389	comisión	-0.7979478
-2.912692	comité	-0.8844501
-3.973354	comités	-0.7751959
-2.688961	como	-0.637775
-4.575295	compara	-0.4666106
-4.274345	comparte	-0.7751843
-4.09828	comparten	-0.9357069
-4.274345	compartieron	-0.7751843
-4.274345	comparó	-0.7742804
-4.274345	compasión	-0.7168251
-4.274345	compatible	-0.7168251
-4.09828	compañía	-0.6514249
-4.274345	compensatorias	-0.7168251
-4.274345	competitiva	-0.7168251
-3.973354	complace	-0.7668507
-4.274345	complaciente	-0.7168251
-4.09828	complejo	-0.5867045
-4.575295	complejos	-0.4157951
-3.575438	completa	-0.6828634
-4.575295	completan	-0.4748253
-3.672344	completo	-1.015838
-4.274345	completos	-0.7563515
-4.274345	completó	-0.7763405
-4.274345	complicadas	-0.7644601
-4.575295	composición	-0.4553215
-3.973354	compras	-0.7764213
-4.09828	comprende	-0.6355999
-4.09828	comprendemos	-0.9430717
-4.575295	comprender	-0.4728674
-4.575295	comprenderse	-0.4659504
-4.575295	comprenderá	-0.4597479
-4.274345	comprendió	-0.773607
-4.274345	comprensión	-0.7168251
-4.274345	comprometido	-0.7676405
-3.973354	compromiso	-1.017855
-3.621193	común	-0.8922007
-2.303611	con	-0.8864921
-4.274345	concebido	-0.7607779
-3.730333	concepto	-0.6355638
-4.274345	conciencia	-0.7752422
-4.274345	conclusiones	-0.4622539
-3.876452	conclusión	-0.6312004
-3.973354	concluye	-0.6183797
-4.274345	concluídas	-0.7168251
-3.797276	concluído	-0.9362824
-3.973354	concreta	-0.7140353
-3.797276	concretos	-0.8820422
-4.575295	concuerda	-0.4732504
-4.274345	concéntrese	-0.7644601
-3.876452	condena	-0.7437915
-4.575295	condenatorio	-0.4641653
-3.534046	condiciones	-0.6405573
-3.876452	condición	-0.6724049
-4.09828	conductor	-0.6276243
-4.575295	condujo	-0.4754029
-4.274345	conexión	-0.7168251
-3.371324	conferencia	-0.6101557
-3.876452	confianza	-0.6235398
-4.575295	confidenciales	-0.4157951
-3.876452	confirmado	-0.4903848
-4.09828	conflictos	-0.629729
-4.274345	conforme	-0.7676405
-4.575295	confuso	-0.4752874
-4.575295	congelarían	-0.4688547
-3.399352	congreso	-1.098714
-3.730333	conoce	-0.5842855
-4.575295	conocen	-0.4714718
-3.973354	conocer	-0.7692396
-4.274345	conocerla	-0.7168251
-3.973354	conocida	-1.017855
-4.274345	conocido	-0.3926655
-3.973354	conocimiento	-0.471728
-3.534046	consecuencia	-0.7719809
-4.575295	consecutivos	-0.4157951
-4.575295	conseguir	-0.4585856
-3.160474	consejo	-0.737421
-3.274415	consenso	-1.415504
-4.575295	conservación	-0.4553215
-4.274345	considera	-0.474247
-4.274345	considerablemente	-0.7563515
-3.876452	consideración	-0.4806579
-4.09828	consideró	-0.9430717
-4.575295	consignaciones	-0.4753336
-3.621193	consiguiente	-0.5803816
-3.876452	consta	-1.154291
-3.730333	constante	-0.956233
-3.973354	constantemente	-1.017855
-4.09828	constituirán	-0.9357069
-3.797276	constituye	-0.6263417
-4.274345	construcciones	-0.7168251
-4.575295	construir	-0.4744321
-3.672344	consulta	-0.7157511
-4.274345	consumado	-0.7563515
-4.575295	consumo	-0.4157951
-4.575295	contactado	-0.4729835
-3.876452	contacto	-0.6143047
-4.274345	contaduría	-0.7168251
-4.575295	contemplaba	-0.4718328
-4.274345	contenido	-0.7563515
-4.274345	conteo	-0.7563515
-4.575295	contestaron	-0.4666106
-4.274345	contextos	-0.7168251
-3.973354	continuaban	-0.7724435
-3.320172	continuación	-0.8508961
-4.575295	continuado	-0.4157951
-3.730333	continuar	-0.5957174
-4.274345	continuaran	-0.7757859
-4.274345	continuaremos	-0.7764213
-4.274345	continuarán	-0.7763867
-3.461498	continúa	-0.6302956
-4.274345	continúe	-0.7168251
-4.274345	continúen	-0.7725018
-3.213719	contra	-0.8319612
-4.575295	contradicciones	-0.4752066
-3.575438	contrario	-0.5917424
-3.876452	control	-0.6130594
-4.274345	controlado	-0.7724785
-4.274345	convencidos	-0.7563515
-3.797276	convención	-0.566797
-3.797276	conveniente	-0.6419591
-3.496259	conversaciones	-0.9569091
-3.496259	cooperación	-0.7767144
-4.575295	coordinación	-0.4157951
-3.973354	copa	-0.7116432
-3.797276	copia	-0.9286542
-4.274345	copiar	-0.7168251
-4.274345	copias	-0.7563515
-4.575295	cordinar	-0.4597479
-4.09828	correa	-0.5918599
-4.09828	correcta	-0.5882562
-4.575295	correctas	-0.4157951
-4.09828	correcto	-0.8929164
-4.274345	corregirse	-0.7644601
-3.973354	correr	-0.7150869
-4.09828	correspondientes	-0.6482266
-4.274345	correspondía	-0.7743384
-4.09828	corro	-0.8929164
-4.575295	corros	-0.4157951
-3.730333	corrupción	-0.6440856
-4.274345	cortar	-0.7596155
-3.575438	corte	-0.7477927
-4.575295	cortes	-0.4745246
-3.797276	corto	-0.7163216
-3.496259	cosa	-0.8797279
-3.461498	cosas	-0.5087394
-3.876452	costa	-0.7563515
-3.876452	costo	-0.4770936
-4.274345	costosas	-0.7168251
-4.274345	cotización	-0.7168251
-4.575295	cotizó	-0.4634302
-4.575295	creado	-0.4718328
-4.09828	crean	-0.9525011
-4.274345	creciente	-0.7763289
-3.672344	crecimiento	-0.6924087
-3.876452	cree	-1.16492
-4.274345	creen	-0.7669804
-3.233024	creo	-1.808373
-4.575295	creíamos	-0.4659504
-4.274345	creó	-0.776225
-3.876452	crisis	-0.7116432
-4.09828	cristal	-0.9501048
-3.973354	criterios	-0.7661183
-4.274345	critica	-0.7596155
-4.274345	criticará	-0.7743384
-4.274345	crucial	-0.7168251
-3.876452	crudo	-1.114765
-4.575295	cruzada	-0.4553215
-4.575295	crédito	-0.4157951
-3.730333	críticas	-0.6309994
-4.274345	críticos	-0.4753913
-3.672344	cuadro	-0.5750913
-4.274345	cuadros	-0.7661892
-4.274345	cual	-0.4692412
-3.429314	cualquier	-0.6490167
-3.253227	cuando	-0.6647415
-3.876452	cuanto	-0.6946465
-4.274345	cuantos	-0.7763867
-4.575295	cuarenta	-0.475322
-4.575295	cuarta	-0.4750679
-3.084087	cuatro	-0.6607452
-3.621193	cuba	-0.6524949
-4.274345	cubierta	-0.4511669
-3.429314	cuenta	-0.6536359
-4.09828	cuentas	-0.4016637
-4.09828	cuesta	-0.4754029
-4.274345	cuestionario	-0.7168251
-3.621193	cuestiones	-0.749087
-2.984385	cuestión	-0.9329879
-3.973354	cuidadosamente	-0.713902
-4.274345	cuidadosos	-0.7168251
-4.274345	cuidan	-0.7563515
-4.274345	culpable	-0.7746862
-4.09828	culpables	-0.5687568
-4.274345	cultura	-0.7728279
-4.274345	cumplen	-0.7168251
-4.274345	cumplimiento	-0.7762943
-3.973354	cumplir	-0.7166529
-4.274345	cumplirán	-0.7763867
-4.274345	curso	-0.4750795
-4.09828	cursos	-0.9324428
-3.672344	cuál	-0.5729941
-3.797276	cuáles	-1.252398
-3.876452	cuándo	-0.8606458
-4.575295	cuánta	-0.4752297
-3.973354	cámara	-0.7563515
-4.274345	césar	-0.7764213
-4.09828	cólera	-0.5781105
-3.575438	cómo	-0.7652546
-3.973354	daba	-0.7593514
-4.274345	dadi	-0.7168251
-3.876452	dado	-0.6513441
-4.274345	dan	-0.4595205
-3.672344	dar	-0.7501169
-4.09828	dañados	-0.9513451
-3.344995	daños	-0.7690331
-1.344749	de	-0.8721341
-4.274345	debajo	-0.7563515
-4.274345	debamos	-0.7764213
-3.296691	debate	-0.8167186
-4.274345	debatir	-0.7742804
-4.274345	debatió	-0.7596155
-2.77611	debe	-0.9458899
-3.213719	debemos	-0.7131565
-3.429314	deben	-0.7751033
-3.876452	deber	-0.6365168
-3.973354	deberá	-0.9525011
-3.575438	debería	-0.6958295
-3.876452	deberían	-0.6003069
-3.876452	debido	-0.8711905
-4.575295	debieran	-0.4743395
-4.09828	debió	-0.6501994
-3.797276	debo	-0.7764213
-4.09828	debían	-0.6504077
-4.575295	decenal	-0.4553215
-4.274345	decepcionar	-0.7676405
-4.274345	decida	-0.7761672
-4.09828	decide	-0.6402447
-3.730333	decidir	-0.6369447
-3.876452	decidirá	-0.6374982
-3.621193	decidió	-0.8271927
-3.344995	decir	-0.6582717
-3.371324	decisiones	-1.062143
-3.399352	decisión	-0.5811438
-4.09828	declara	-0.650986
-3.621193	declaraciones	-0.6211035
-3.429314	declaración	-0.9450334
-3.195235	declaró	-0.9553278
-4.575295	declinó	-0.4753798
-3.797276	decreto	-0.6375777
-4.274345	defenderemos	-0.7742804
-4.575295	defenderse	-0.4753336
-3.876452	defendió	-0.6426547
-4.09828	defensa	-0.6313644
-4.274345	definiciones	-0.7764097
-4.575295	definición	-0.4157951
-3.876452	definitivamente	-0.6918621
-4.274345	definitoria	-0.7762712
-4.274345	defraudar	-0.7168251
-4.274345	degeneren	-0.7168251
-4.575295	dejaba	-0.4753567
-3.575438	dejar	-0.6314691
-4.274345	dejará	-0.7607779
-3.797276	dejó	-0.6778588
-2.081298	del	-0.8594198
-3.797276	delegaciones	-0.7650768
-3.461498	delegación	-0.7127768
-4.274345	delegados	-0.7762481
-3.575438	demanda	-0.5728436
-4.575295	demandado	-0.473888
-4.09828	demandante	-0.5781105
-3.534046	demasiado	-0.671272
-3.621193	democracia	-0.5758419
-4.575295	democráticamente	-0.4157951
-3.876452	demora	-0.6971015
-3.797276	demás	-0.6971246
-4.575295	denunciarlo	-0.4157951
-4.274345	departamento	-0.7644601
-4.274345	departamentos	-0.7651953
-3.730333	depende	-0.8193755
-4.274345	deportiva	-0.7563515
-4.274345	deprimido	-0.7168251
-4.575295	depósitos	-0.4634302
-4.274345	derecha	-0.7764213
-3.195235	derecho	-1.119131
-3.461498	derechos	-1.268102
-4.09828	derrame	-0.6313644
-4.575295	derrocamiento	-0.4157951
-3.973354	desacuerdo	-0.7143418
-4.274345	desalentadora	-0.7168251
-4.274345	desarmados	-0.4157554
-4.575295	desarmar	-0.4666106
-4.575295	desarrollando	-0.4752297
-4.09828	desarrollar	-0.647796
-3.213719	desarrollo	-0.9927668
-4.274345	descarrilar	-0.7607779
-4.274345	descartado	-0.7607779
-4.274345	descartar	-0.774918
-3.973354	desconoce	-0.7566657
-4.09828	describen	-0.6497128
-3.973354	describir	-0.7699549
-4.09828	describió	-0.9368692
-4.274345	describía	-0.7596155
-4.575295	descubrir	-0.4597479
-3.160474	desde	-1.019303
-3.320172	desea	-0.8418698
-4.09828	desempeña	-0.948954
-4.09828	deseo	-0.6426901
-4.274345	desfigurada	-0.7168251
-4.274345	desgarramiento	-0.7724785
-4.575295	desglosarse	-0.4157951
-4.575295	desgraciadamente	-0.4634302
-4.575295	designar	-0.4702704
-4.274345	desmantelar	-0.7698846
-4.575295	desparición	-0.4553215
-3.973354	desplazarán	-0.7763289
-4.09828	despojado	-0.9324428
-3.177507	después	-0.7400044
-3.876452	destacó	-0.8125949
-4.274345	destino	-0.7563515
-4.274345	destruídos	-0.7168251
-4.09828	desée	-0.4753336
-4.274345	detalle	-0.7563515
-3.296691	detalles	-0.8591266
-4.09828	detenciones	-0.6289759
-3.575438	detenido	-0.9246929
-4.575295	determinación	-0.4553215
-4.09828	determinado	-0.6395571
-4.274345	determinan	-0.7724785
-4.274345	determinarse	-0.7563515
-4.575295	determinará	-0.4597479
-4.274345	detrimento	-0.7563515
-4.274345	detuvo	-0.7763867
-3.496259	deuda	-0.6451498
-3.797276	diario	-0.4024427
-4.575295	diarrea	-0.4157951
-3.12829	dice	-1.000202
-3.876452	dicen	-0.6744171
-3.973354	dichas	-0.6512863
-3.461498	dicho	-0.5784384
-3.973354	dichos	-0.6512401
-4.274345	dieciséis	-0.465112
-3.496259	diez	-0.7669302
-4.274345	diezmada	-0.7168251
-3.621193	diferencias	-0.6146109
-3.621193	diferentes	-0.8790995
-4.575295	diferido	-0.4157951
-3.429314	dificultades	-1.012633
-3.12829	difícil	-0.6301152
-4.274345	difíciles	-0.7719306
-4.09828	dije	-0.9430717
-3.876452	dijeron	-0.6719524
-2.13929	dijo	-1.023959
-3.253227	dinero	-1.083985
-3.461498	dio	-0.761077
-3.730333	dios	-0.5561191
-4.274345	diplomática	-0.4121649
-3.672344	diplomático	-0.8928899
-3.973354	diplomáticos	-0.7763982
-4.274345	diputado	-0.4754029
-4.09828	dirección	-0.6458825
-3.797276	director	-0.751855
-4.09828	directorio	-0.6276243
-3.876452	directrices	-0.8571252
-4.274345	dirige	-0.7763982
-4.274345	dirigentes	-0.4742469
-4.575295	dirigió	-0.4666106
-4.09828	dirigía	-0.4635132
-4.575295	disculpen	-0.4157951
-3.876452	discutir	-0.7720239
-4.575295	discutiremos	-0.4688547
-3.973354	discutirlo	-0.7165071
-4.575295	discutiéndolo	-0.4751835
-4.274345	diseño	-0.7708563
-4.09828	disminución	-0.6188528
-4.09828	disparos	-0.8929164
-4.575295	dispensado	-0.4157951
-4.09828	dispone	-0.6221876
-4.09828	disponible	-0.6490284
-4.09828	disposición	-0.6474
-3.672344	dispuestos	-1.369701
-4.09828	disputa	-0.6455199
-4.09828	dista	-0.6308442
-4.09828	distinguido	-0.4753105
-4.274345	distintos	-0.7168251
-4.575295	distraído	-0.4714485
-4.274345	distribuirá	-0.7763982
-4.575295	disturbios	-0.4753798
-4.575295	divergencias	-0.4752066
-4.274345	diversidad	-0.7644601
-3.973354	diversión	-1.017855
-3.730333	diversos	-0.6208492
-4.09828	divida	-0.8929164
-4.274345	divididas	-0.7168251
-4.274345	dividido	-0.7644601
-4.575295	división	-0.4752066
-4.575295	divulgado	-0.4597479
-4.09828	divulgara	-0.9499887
-3.973354	diálogo	-0.5918202
-3.730333	doce	-0.6571215
-4.575295	doctrina	-0.4753913
-3.672344	documento	-0.702105
-4.274345	dolorosa	-0.7168251
-4.09828	dominar	-0.9368692
-4.575295	dominaron	-0.4157951
-3.730333	domingo	-0.768997
-4.575295	domingos	-0.4157951
-4.274345	dominicano	-0.7762481
-4.09828	donde	-0.4739459
-2.530129	dos	-0.6236066
-4.575295	dosis	-0.4157951
-3.621193	doy	-0.9278486
-4.575295	drogas	-0.4157951
-3.496259	duda	-0.7541261
-4.274345	dudamos	-0.7669804
-4.274345	duración	-0.451533
-3.399352	durante	-0.7399541
-4.575295	duraron	-0.4754029
-4.274345	durarán	-0.7713003
-4.575295	dá	-0.4753105
-4.575295	dándose	-0.47449
-4.274345	dé	-0.7728627
-4.274345	débil	-0.7742804
-3.12829	día	-0.561499
-3.253227	días	-0.9189664
-3.320172	dólar	-0.6223036
-3.399352	dólares	-0.9400725
-3.461498	dónde	-0.9418075
-3.534046	e	-0.6790493
-4.274345	echó	-0.7763982
-3.534046	economía	-0.544723
-4.09828	económica	-0.9522817
-4.575295	económicamente	-0.4750448
-3.730333	económico	-0.644291
-4.09828	económicos	-0.5867045
-3.973354	edad	-0.7030492
-3.973354	edición	-0.7661064
-3.621193	edificio	-0.7562627
-4.575295	edmundo	-0.4754029
-3.797276	educación	-0.540164
-4.575295	educadores	-0.4157951
-4.575295	efectivamente	-0.4157951
-3.797276	efectos	-0.7050402
-3.973354	efectuará	-0.5709115
-4.274345	efectuó	-0.4560342
-3.876452	ejecución	-0.621854
-4.575295	ejecutan	-0.4709007
-3.320172	ejército	-0.9036008
-4.274345	ejércitos	-0.7651953
-1.450623	el	-0.9739406
-3.496259	elecciones	-0.8421031
-3.672344	elección	-0.7102472
-4.575295	electores	-0.4553215
-4.09828	electos	-0.5918732
-3.973354	elegir	-1.077324
-4.09828	elemento	-0.6514595
-4.575295	elgueta	-0.4157951
-4.09828	eligen	-0.6469687
-4.09828	elijen	-0.9525011
-3.621193	ella	-0.7160842
-3.429314	ellas	-0.7117102
-2.804599	ello	-0.7902234
-2.9522	ellos	-0.6642551
-4.274345	eléctrica	-0.7168251
-4.09828	eléctricos	-0.8929164
-4.575295	elías	-0.4157951
-2.804599	embargo	-0.6281277
-4.274345	emigrar	-0.7719306
-4.274345	emiten	-0.7764213
-3.973354	emotivo	-0.7764213
-4.575295	empates	-0.4744205
-3.876452	empezado	-0.8485573
-4.274345	empleadores	-0.4641535
-4.575295	empleará	-0.4585856
-3.575438	empresa	-0.520333
-3.730333	empresarios	-0.7166926
-3.973354	empresas	-0.7761672
-4.575295	empuja	-0.4729835
-1.565153	en	-0.9974701
-4.274345	encarado	-0.7168251
-4.274345	encomendada	-0.7743384
-4.274345	encontraban	-0.7644601
-3.797276	encontrar	-0.6762626
-3.876452	encontrarse	-0.8612991
-3.672344	encuentra	-0.6391771
-3.876452	encuentran	-0.6394028
-3.876452	encuentro	-0.591648
-3.973354	encuesta	-0.7038959
-4.575295	energía	-0.4754029
-3.730333	enero	-1.193946
-4.09828	enfatizó	-0.8929164
-3.496259	enfoque	-0.6113825
-4.575295	enfrenta	-0.4728674
-4.09828	enmienda	-0.5891366
-3.797276	enmiendas	-0.7025568
-4.09828	enseñanza	-0.5918599
-4.575295	ensucian	-0.4688547
-4.274345	entel	-0.7763867
-4.09828	entender	-0.6330419
-4.274345	entendimiento	-0.4040103
-3.274415	entonces	-0.7104187
-3.320172	entre	-0.5750955
-4.09828	entrega	-0.6375472
-4.09828	entregar	-0.6317512
-3.621193	entregó	-0.7821509
-4.575295	entren	-0.4666106
-4.575295	entrenador	-0.4157951
-4.575295	envases	-0.4553215
-4.274345	envíamos	-0.7607779
-3.730333	envío	-0.8124275
-4.274345	epicentro	-0.7168251
-4.575295	epidemia	-0.4553215
-3.534046	equipo	-0.6138825
-3.730333	equipos	-0.5716002
-2.9522	era	-0.6466996
-4.274345	eramos	-0.7763174
-3.575438	error	-0.4470609
-1.893308	es	-1.015319
-2.538025	esa	-0.8153247
-2.819576	esas	-0.7547864
-4.575295	esbozan	-0.4666106
-3.973354	escalas	-0.7644246
-4.274345	escapa	-0.7676405
-4.575295	escapar	-0.4157951
-4.09828	escasez	-0.9324428
-4.575295	escaso	-0.4753567
-4.274345	escasos	-0.4156627
-4.575295	escogieron	-0.4597479
-4.09828	escojo	-0.9357069
-4.274345	escritor	-0.7763867
-4.575295	escritora	-0.4659504
-3.973354	escuché	-0.6354442
-4.274345	escépticos	-0.7168251
-2.694638	ese	-0.6642104
-3.672344	esencial	-0.5659826
-3.672344	esfera	-0.8282611
-3.973354	esfuerzos	-0.9357069
-2.885254	eso	-0.6508066
-3.11305	esos	-0.7578963
-4.09828	espacial	-0.5918069
-4.09828	espaldarazo	-0.9324428
-3.876452	españa	-0.6323279
-3.973354	español	-0.7742108
-3.973354	especial	-0.5269032
-4.575295	especialistas	-0.4751488
-4.09828	especie	-0.5817719
-4.09828	especificó	-0.650905
-4.575295	espectáculo	-0.4742122
-4.274345	especulación	-0.7763405
-4.575295	especuló	-0.4157951
-4.274345	específicos	-0.7168251
-3.371324	espera	-1.049168
-3.973354	esperaba	-0.3807437
-3.730333	esperamos	-0.7063376
-4.09828	esperan	-0.648831
-3.496259	esperanza	-1.170817
-4.575295	esperanzado	-0.4733084
-3.496259	esperar	-1.006342
-4.274345	esperarse	-0.7168251
-3.429314	espero	-1.122596
-3.876452	esposa	-0.6309719
-4.575295	espuma	-0.4157951
-2.454878	esta	-0.7725074
-3.371324	estaba	-0.7635931
-3.399352	estaban	-0.6472785
-4.09828	establece	-0.7713003
-4.575295	establecieron	-0.4750564
-4.274345	establezca	-0.7761557
-4.575295	estación	-0.4754029
-4.274345	estadio	-0.7168251
-3.04397	estado	-0.762617
-3.274415	estados	-0.9315835
-3.797276	estadounidense	-0.7164939
-4.274345	estallado	-0.7168251
-4.09828	estallaron	-0.6474816
-2.922237	estamos	-0.8214518
-3.371324	estar	-0.723659
-3.730333	estará	-0.776098
-3.797276	estarán	-0.5873353
-3.195235	estas	-0.7129397
-4.274345	estatal	-0.7168251
-2.458181	este	-0.8670503
-4.274345	estero	-0.7168251
-4.575295	estimadas	-0.4157951
-2.584226	esto	-0.780471
-4.274345	estonia	-0.7764097
-2.962666	estos	-0.6884312
-3.973354	estrecho	-0.5365157
-4.575295	estrellarse	-0.4752874
-3.973354	estructura	-1.017855
-4.274345	estructuras	-0.7764213
-3.973354	estudia	-1.017855
-4.09828	estudian	-0.9493729
-3.672344	estudio	-0.5859676
-4.274345	estudios	-0.7740135
-3.534046	estuvo	-0.8002878
-2.542028	está	-0.7475105
-3.007247	están	-0.7103331
-3.973354	esté	-0.4754029
-4.575295	eurodólares	-0.4157951
-3.296691	europa	-0.9904236
-4.274345	europeo	-0.3926655
-4.575295	evaluaciones	-0.4157951
-3.876452	evidente	-1.16492
-3.876452	evidentemente	-0.5435001
-4.575295	evitado	-0.4157951
-4.09828	evitarse	-0.9357069
-4.575295	evitó	-0.4659504
-4.274345	evoluciona	-0.7763982
-3.429314	ex	-0.5416101
-4.575295	exacerba	-0.4747906
-4.575295	exacerbar	-0.4753105
-3.399352	examen	-0.8527099
-4.575295	examinadas	-0.4718328
-4.274345	examinan	-0.4747559
-4.09828	examinar	-0.6354082
-4.274345	examinarse	-0.7596155
-4.274345	excelsior	-0.7168251
-3.973354	excepción	-0.7740135
-4.274345	exceso	-0.7764213
-4.575295	excluyó	-0.4717979
-4.274345	exhiben	-0.7764097
-3.534046	exige	-0.7551286
-4.274345	exigen	-0.776225
-4.09828	exigió	-0.9430717
-3.461498	existe	-0.597528
-4.09828	existían	-0.6511477
-4.274345	exitosa	-0.7763059
-4.09828	expectativas	-0.3781233
-3.672344	experiencia	-0.4586599
-4.09828	explica	-0.5738662
-4.09828	explicar	-0.6503151
-3.496259	explicó	-1.138138
-3.672344	explosión	-0.7028304
-4.575295	expresado	-0.4714485
-4.575295	expresados	-0.4634302
-4.274345	expresión	-0.7763867
-3.371324	expresó	-0.9933265
-3.797276	exterior	-0.8791406
-4.274345	extirpar	-0.7607779
-4.09828	extradición	-0.5877351
-4.274345	extranjeros	-0.7168251
-4.274345	extremadamente	-0.776098
-4.575295	fabrica	-0.4634302
-4.575295	fachada	-0.4752989
-4.274345	facilidades	-0.7644601
-3.797276	factor	-0.7555771
-4.274345	factores	-0.7168251
-4.09828	fallecido	-0.9485698
-4.09828	fallo	-0.4116305
-3.320172	falta	-1.107675
-4.274345	fama	-0.4154507
-4.09828	familia	-0.5905203
-4.575295	familiares	-0.4666106
-4.274345	farias	-0.7168251
-3.730333	favor	-0.8697867
-4.274345	favorables	-0.7168251
-4.274345	favorece	-0.7743384
-4.575295	favorecido	-0.4553215
-4.575295	favoritos	-0.4729835
-3.672344	febrero	-0.8258229
-3.177507	fecha	-0.8070288
-4.274345	fecsa	-0.7764097
-3.797276	federal	-0.6294497
-4.274345	fenosa	-0.776352
-3.973354	fenómeno	-0.7059509
-4.575295	fernando	-0.4753451
-4.09828	fernández	-0.8929164
-4.274345	festival	-0.7168251
-4.575295	festivo	-0.4634302
-3.534046	figura	-0.6967075
-4.09828	fijan	-0.6357914
-3.973354	filipinas	-0.5856072
-4.09828	filme	-0.6496084
-4.274345	filosófico	-0.7168251
-3.534046	fin	-0.9462624
-3.621193	final	-0.6985564
-4.09828	finalidad	-0.8929164
-3.973354	financiera	-0.5174925
-4.09828	financieras	-0.5912105
-3.973354	finanzas	-1.017855
-3.797276	fines	-0.7562547
-4.274345	finlandia	-0.7761903
-4.274345	firmado	-0.7724785
-4.09828	firmantes	-0.950708
-4.274345	firmaremos	-0.7761903
-3.876452	firmeza	-0.5917937
-4.274345	flagrante	-0.7764213
-4.274345	flor	-0.7746862
-4.09828	flujo	-0.9524664
-3.534046	fondo	-0.6993819
-3.797276	fondos	-1.057382
-3.11305	forma	-0.7523656
-3.876452	formación	-0.6143606
-4.274345	forman	-0.7760055
-3.973354	formato	-0.7563152
-4.274345	formularon	-0.7763405
-4.575295	forzosamente	-0.4659504
-4.09828	fracasa	-0.6509628
-4.575295	fracasado	-0.4157951
-4.274345	francas	-0.7168251
-3.876452	francfort	-0.8085533
-4.09828	francia	-0.6402329
-3.575438	francés	-0.7644408
-4.575295	franja	-0.4751257
-4.575295	frecuencia	-0.4553215
-4.274345	frecuente	-0.7168251
-4.575295	frenado	-0.4742122
-3.672344	frente	-1.066521
-3.797276	frío	-0.9521084
-2.376795	fue	-0.7646357
-3.973354	fuego	-0.3883142
-3.797276	fuente	-0.7561942
-3.621193	fuera	-1.104746
-4.09828	fueran	-0.4754029
-2.86788	fueron	-0.7717906
-3.672344	fuerte	-0.5792677
-3.973354	fuertemente	-0.7554074
-3.973354	fuertes	-0.7762366
-3.461498	fuerza	-0.6366748
-3.496259	fuerzas	-0.7418208
-4.274345	fugitivo	-0.7764097
-4.274345	fumaba	-0.7764213
-3.797276	funcionario	-0.7660828
-3.797276	funcionarios	-0.5687568
-4.09828	funciones	-0.8929164
-3.399352	futuro	-0.869689
-3.876452	fábrica	-0.6301051
-3.973354	físico	-0.7030492
-4.575295	fórmula	-0.4553215
-4.575295	galardona	-0.4585856
-4.274345	galería	-0.7563515
-4.09828	galina	-0.9503717
-3.973354	gama	-0.6936955
-3.876452	gana	-0.6919672
-4.575295	ganado	-0.4157951
-3.876452	ganando	-0.8581187
-3.973354	ganar	-0.5830921
-4.274345	gane	-0.4157156
-4.575295	garcía	-0.4157951
-3.730333	gas	-0.4767197
-3.730333	gastos	-0.6488947
-2.984385	general	-0.743614
-4.09828	generales	-0.5917407
-4.09828	generar	-0.4753682
-3.371324	gente	-0.4786354
-4.274345	georgia	-0.4136978
-4.274345	germán	-0.7764097
-4.274345	gestos	-0.7607779
-4.575295	gigantes	-0.4722516
-3.973354	ginebra	-1.017855
-3.876452	global	-0.8485329
-4.575295	gobernar	-0.4597479
-4.575295	gobierna	-0.4751257
-2.827263	gobierno	-0.6615005
-3.876452	gobiernos	-1.114765
-4.575295	goles	-0.4754029
-3.876452	golfo	-1.174327
-4.274345	golpeados	-0.7745124
-4.274345	golpizas	-0.7651953
-4.274345	golán	-0.7676405
-4.274345	gonzález	-0.7732816
-4.575295	goycochea	-0.4157951
-3.797276	gracias	-0.5603995
-3.973354	graciela	-0.7167324
-3.007247	gran	-0.8068477
-4.274345	grato	-0.7763867
-4.274345	grecia	-0.7168251
-4.575295	grito	-0.4730183
-3.084087	grupo	-0.8168085
-3.973354	grupos	-0.388286
-4.09828	guayaquil	-0.6476796
-4.274345	gubernamental	-0.7168251
-3.213719	guerra	-0.7193215
-4.575295	guerrillero	-0.4157951
-4.575295	guerrilleros	-0.4754029
-3.797276	gusta	-0.9368453
-4.09828	gusto	-0.6386544
-2.259482	ha	-1.00825
-4.274345	habanos	-0.7759593
-3.274415	haber	-0.6475921
-3.575438	habido	-0.6469336
-4.575295	habitual	-0.4634302
-4.09828	habla	-0.4427615
-3.730333	hablando	-0.8184718
-3.534046	hablar	-0.7903798
-4.09828	habló	-0.6425369
-3.534046	habrá	-0.5877514
-3.461498	habría	-0.7970572
-2.962666	había	-0.6884252
-3.070298	hace	-0.7685078
-3.496259	hacen	-0.6881456
-2.851175	hacer	-0.8527458
-3.296691	hacerlo	-0.9611871
-3.730333	hacia	-0.6984804
-3.575438	haciendo	-0.6784137
-3.973354	hagan	-0.6483313
-4.575295	hago	-0.4698263
-2.562615	han	-0.8745934
-3.621193	hará	-0.7108961
-4.09828	harán	-0.6377141
-2.984385	hasta	-1.083207
-2.352736	hay	-0.8475407
-3.12829	haya	-0.7889221
-3.070298	he	-0.7546192
-3.04397	hecho	-0.5987154
-3.496259	hechos	-0.7782207
-3.019147	hemos	-0.8097264
-4.274345	henríquez	-0.7168251
-4.274345	herida	-0.7746167
-3.575438	heridas	-0.7790855
-3.575438	heridos	-0.7896128
-3.730333	hice	-0.7754043
-3.730333	hicimos	-0.8198388
-4.575295	hidroeléctrica	-0.4157951
-3.730333	hija	-0.6300241
-4.09828	hijas	-0.8929164
-3.973354	hijo	-0.7165999
-3.973354	hijos	-0.5921732
-3.876452	historia	-0.6144444
-4.09828	histórico	-0.8929164
-3.177507	hizo	-0.5704427
-3.797276	hogar	-0.8612635
-3.344995	hombre	-0.7278993
-4.274345	homero	-0.7168251
-4.09828	homicidio	-0.8929164
-3.534046	honduras	-0.8752963
-4.09828	honor	-0.6297897
-3.797276	hora	-0.8697867
-4.575295	horacio	-0.4157951
-4.575295	horarios	-0.4157951
-3.672344	horas	-1.017524
-4.575295	horno	-0.4157951
-4.09828	hornos	-0.9525011
-3.876452	horrible	-0.8690623
-4.274345	horriblemente	-0.7764213
-3.534046	hospital	-0.6455432
-2.819576	hoy	-0.6243817
-3.461498	hubiera	-0.7249233
-4.09828	hubieran	-0.952478
-2.894209	hubo	-0.7850066
-3.973354	huelga	-0.6314007
-3.973354	humanidad	-0.7752769
-3.534046	humanos	-0.9568672
-4.575295	humildemente	-0.4597479
-4.575295	huída	-0.4157951
-4.09828	iberdrola	-0.6366284
-3.672344	idea	-0.6412323
-4.09828	ideas	-0.9480219
-3.876452	identidad	-0.7906055
-4.575295	identifican	-0.4634302
-3.973354	ido	-0.7764213
-4.274345	idénticos	-0.7168251
-4.274345	ignoraba	-0.7644601
-4.274345	ignorado	-0.7724785
-3.876452	igual	-0.6767348
-4.575295	igualdad	-0.4751604
-3.973354	igualmente	-0.7675227
-4.274345	ilaria	-0.7759593
-4.09828	ilusiones	-0.5894697
-4.274345	imagen	-0.3926655
-4.575295	imaginación	-0.4157951
-4.575295	imitado	-0.4157951
-3.973354	impidió	-0.7579805
-4.575295	implantara	-0.4585856
-3.876452	importa	-0.570856
-4.274345	importaba	-0.7168251
-3.575438	importancia	-0.8827748
-3.12829	importante	-0.8477823
-3.672344	importantes	-1.004079
-4.575295	impositivas	-0.4157951
-4.09828	improvisados	-0.8929164
-3.575438	impuestos	-0.7986314
-4.274345	impulsar	-0.7763751
-3.973354	impuso	-0.7581371
-4.09828	inaceptable	-0.407574
-4.575295	inaplicable	-0.4752066
-4.274345	incautaron	-0.7698846
-3.973354	incendio	-0.5269442
-4.274345	incentivo	-0.7168251
-4.274345	incentivos	-0.7740135
-4.575295	inciertas	-0.4157951
-3.672344	incluso	-0.7690518
-3.730333	incluye	-0.6850272
-4.274345	incursiones	-0.7761788
-4.575295	indebido	-0.4553215
-4.274345	independencia	-0.7563515
-4.575295	independientemente	-0.4157951
-3.672344	indica	-0.8478724
-3.621193	indican	-0.688357
-4.09828	indicios	-0.6303839
-3.320172	indicó	-0.9592229
-4.09828	indios	-0.6304809
-4.575295	indique	-0.4597479
-4.575295	indispensable	-0.4157951
-4.274345	inductivo	-0.7168251
-3.672344	industria	-0.6721482
-4.274345	industrializados	-0.7760171
-4.575295	inevitable	-0.4659504
-3.621193	inflación	-0.616777
-3.973354	influencia	-0.7754158
-3.098327	información	-0.8126553
-4.09828	informado	-0.9430717
-4.274345	informados	-0.7719306
-3.098327	informe	-0.6960436
-3.253227	informes	-0.7425327
-3.144084	informó	-1.175305
-4.274345	inglaterra	-0.7168251
-3.876452	inglés	-0.8085532
-3.797276	inicia	-0.6311467
-4.274345	inician	-0.4752759
-3.575438	iniciativa	-0.6105296
-4.274345	iniciativas	-0.7168251
-3.429314	inmediato	-0.7134795
-3.973354	inmediatos	-0.5164155
-4.575295	inquieto	-0.4157951
-4.575295	inscriben	-0.4752874
-4.274345	insiste	-0.7644601
-4.575295	insistió	-0.4157951
-4.274345	inspectores	-0.7763982
-4.09828	insta	-0.9437318
-4.274345	instalaciones	-0.7563515
-4.274345	instalan	-0.776352
-4.575295	institucionaliza	-0.4585856
-4.274345	integra	-0.7607779
-4.09828	intelectual	-0.8929164
-3.876452	intención	-0.6242232
-4.575295	intensas	-0.4752989
-4.575295	intentaran	-0.4753336
-3.797276	intento	-1.233473
-4.575295	interbancaria	-0.4157951
-3.876452	interesados	-1.1624
-3.973354	interior	-0.6936955
-4.575295	interna	-0.4157951
-3.233024	internacional	-1.007396
-4.09828	internacionales	-0.8929164
-4.575295	intervencion	-0.472577
-4.274345	interventor	-0.7644601
-3.429314	interés	-0.8489857
-4.274345	intolerable	-0.7708563
-4.274345	inutilizables	-0.7168251
-4.274345	inventado	-0.7713003
-4.575295	inversiones	-0.4753798
-4.575295	inversionistas	-0.4754029
-3.876452	investigaciones	-0.7030492
-3.672344	investigación	-0.6881576
-4.274345	invierno	-0.7168251
-3.876452	ir	-1.068671
-4.575295	irreal	-0.4157951
-4.09828	irregular	-0.6372968
-4.274345	irrelevante	-0.47224
-4.274345	irá	-0.7676405
-4.09828	irán	-0.9523278
-4.575295	iría	-0.4157951
-3.575438	israel	-0.7792193
-4.274345	israelíes	-0.7168251
-3.876452	italia	-0.6309988
-4.575295	itinerario	-0.4748368
-4.575295	jaime	-0.4754029
-4.575295	janeiro	-0.4157951
-4.274345	japoneses	-0.7761788
-3.797276	japonés	-0.7030082
-3.534046	japón	-0.6663937
-4.575295	jerusalén	-0.4732504
-4.274345	jerárquicas	-0.7759939
-4.575295	jesús	-0.4157951
-4.575295	juan	-0.4753567
-4.274345	jubilaciones	-0.7168251
-3.672344	juega	-0.9399934
-3.496259	juego	-0.8479984
-3.797276	jueves	-0.7027758
-4.274345	jugado	-0.7644601
-3.621193	jugar	-0.7528189
-4.09828	jugará	-0.9368692
-4.09828	juicio	-0.4116439
-4.274345	juicios	-0.7754621
-3.973354	julio	-0.7067106
-3.973354	junio	-0.713195
-3.621193	junta	-0.8375724
-3.797276	jurado	-0.8896599
-4.274345	jurista	-0.7563515
-4.09828	justa	-0.6469337
-3.621193	justicia	-0.7034454
-3.973354	justifica	-0.7732583
-3.973354	justificación	-0.7627004
-4.274345	justificadas	-0.7168251
-3.621193	juventud	-0.6494576
-1.420117	la	-1.000989
-3.496259	labor	-0.809517
-4.274345	lacalle	-0.7764097
-4.274345	ladra	-0.7596155
-4.274345	lamenta	-0.473146
-4.575295	lamentaba	-0.4728674
-4.575295	lamentablemente	-0.4634302
-4.274345	lamentó	-0.7596155
-4.274345	lanzarse	-0.776225
-3.797276	largo	-0.9321766
-2.043974	las	-0.9081455
-4.274345	latina	-0.4713204
-2.86788	le	-0.8289867
-4.09828	leer	-0.6340765
-4.575295	legal	-0.4157951
-4.274345	legalizar	-0.7596155
-4.274345	lejos	-0.7644601
-4.575295	lengua	-0.4754029
-3.973354	lento	-0.7116432
-4.09828	lentos	-0.8929164
-3.213719	les	-0.5992667
-4.09828	lesionadas	-0.8929164
-3.876452	lesionados	-0.8085532
-4.575295	lesiones	-0.4752066
-4.274345	lesión	-0.7651953
-4.274345	levantando	-0.7607779
-3.973354	leve	-0.5783336
-3.534046	ley	-0.6646645
-4.575295	liberal	-0.4698263
-4.575295	liberarían	-0.4666106
-3.575438	libertad	-0.7927371
-3.876452	libre	-0.6209605
-4.575295	lienzo	-0.4641653
-3.973354	liga	-0.5990351
-4.575295	ligera	-0.4157951
-3.730333	ligeramente	-0.7642722
-4.575295	limitado	-0.4157951
-4.09828	limitados	-0.8929164
-4.575295	limitan	-0.4597479
-4.575295	linares	-0.4752758
-4.09828	liquidar	-0.9523856
-3.575438	lista	-0.8186063
-4.09828	listas	-0.620666
-4.274345	llamarse	-0.7764213
-4.274345	llameante	-0.7764097
-4.575295	llamó	-0.4666106
-3.621193	llega	-0.6053671
-3.496259	llegado	-0.9072178
-3.344995	llegar	-1.39388
-3.973354	llegue	-0.7067106
-3.575438	llegó	-1.163431
-4.274345	lleras	-0.7563515
-4.274345	llevaría	-0.7676405
-4.575295	llevé	-0.4666106
-4.575295	llevó	-0.4666106
-2.186287	lo	-1.041443
-3.973354	local	-0.5353777
-4.09828	locales	-0.6196237
-4.274345	localizó	-0.7607779
-3.876452	logrado	-0.5058987
-4.09828	lograr	-0.6305051
-3.973354	logros	-0.7639971
-4.274345	logísticamente	-0.7762597
-3.973354	londres	-0.7067106
-1.824174	los	-0.8963214
-3.672344	lucha	-0.5776181
-3.429314	luego	-0.710822
-3.233024	lugar	-0.8002366
-4.575295	lugares	-0.4754029
-3.429314	lunes	-1.101836
-3.730333	líder	-0.5687568
-3.797276	líderes	-0.7563515
-4.274345	límite	-0.4552611
-4.09828	línea	-0.6313765
-4.575295	lógicamente	-0.4753567
-4.274345	madrazo	-0.7651953
-3.797276	madrid	-0.5341022
-4.274345	madurez	-0.7732816
-4.274345	maestra	-0.7719306
-3.876452	magnitud	-1.017855
-3.797276	mal	-0.636198
-3.973354	mala	-1.017855
-4.274345	malas	-0.7763174
-4.575295	malo	-0.4157951
-4.575295	manada	-0.4553215
-3.621193	mandato	-0.6092139
-4.575295	mandela	-0.4754029
-3.672344	manera	-0.7442641
-4.274345	manifestar	-0.7757281
-4.09828	maniobra	-0.8929164
-4.09828	maniobras	-0.6312798
-4.274345	mantendrán	-0.7168251
-3.534046	mantener	-0.9166601
-4.274345	manteniendo	-0.7738974
-4.09828	mantenimiento	-0.6314007
-3.621193	mantiene	-0.6815469
-4.274345	mantuvieron	-0.7764213
-3.876452	mantuvo	-0.8593006
-4.274345	mapuche	-0.7168251
-4.274345	mar	-0.7168251
-4.09828	marcador	-0.9519466
-4.274345	marchaba	-0.7644601
-3.730333	marco	-0.5684494
-4.09828	marcos	-0.8929164
-4.274345	marfil	-0.7168251
-3.973354	margen	-0.756279
-4.274345	marismas	-0.7651953
-3.730333	martes	-0.9469339
-3.672344	marzo	-0.6273842
-4.575295	masiva	-0.4157951
-4.09828	matar	-0.6409668
-3.672344	materia	-1.039739
-4.09828	material	-0.5810122
-4.575295	materialize	-0.4634302
-4.575295	mayo	-0.4157951
-3.12829	mayor	-0.8475908
-4.09828	mayores	-0.651321
-4.575295	mayormente	-0.4753451
-3.399352	mayoría	-1.300395
-3.344995	mañana	-0.9182384
-2.742942	me	-0.8565735
-4.575295	mecanismos	-0.4753798
-3.797276	media	-0.7561822
-4.09828	medianoche	-0.5877351
-3.797276	mediante	-0.754267
-4.274345	medicina	-0.7168251
-3.534046	medida	-0.6309732
-3.344995	medidas	-0.5741868
-3.797276	medio	-0.7417208
-4.575295	mediocampo	-0.4157951
-3.672344	medios	-0.6934161
-3.233024	mejor	-0.6093817
-3.973354	mejorado	-0.7168119
-4.274345	mejoramiento	-0.7763867
-3.973354	mejoran	-0.5805744
-3.730333	mejorar	-0.6929948
-3.534046	mejores	-0.6787719
-4.274345	memorando	-0.7747442
-4.09828	menciona	-0.9519697
-4.09828	mencionado	-0.5817719
-4.09828	mencionar	-0.6454262
-3.461498	menem	-0.5879254
-4.09828	menores	-0.5687568
-3.233024	menos	-0.7291031
-4.09828	mensuales	-0.8929164
-3.973354	menudo	-0.7571728
-4.09828	mera	-0.6509975
-2.931997	mercado	-0.7409788
-4.09828	mercados	-0.5918334
-4.575295	mercosur	-0.4730183
-4.575295	mercouri	-0.4754029
-3.876452	mesa	-1.114765
-3.344995	meses	-1.342464
-4.575295	meta	-0.4157951
-2.783059	mi	-0.7606068
-3.876452	miedo	-0.8929164
-3.973354	miembro	-0.7728162
-3.399352	miembros	-1.091608
-3.730333	mientras	-0.8167447
-4.274345	migrantes	-0.7168251
-3.575438	miguel	-0.6160311
-4.575295	miguelito	-0.4752874
-3.973354	mil	-0.7762481
-3.534046	militar	-0.8737906
-3.797276	militares	-0.6145003
-4.575295	millonario	-0.4651592
-3.399352	millones	-1.329136
-4.575295	milán	-0.4751719
-4.575295	mina	-0.4553215
-4.274345	mineros	-0.7764213
-4.274345	ministerial	-0.7168251
-3.876452	ministerio	-0.8697031
-3.274415	ministro	-0.9000912
-4.274345	ministros	-0.4157686
-4.274345	minucioso	-0.7763982
-4.575295	minuto	-0.4717979
-4.575295	mir	-0.4157951
-3.797276	mis	-0.4738416
-4.274345	misericordia	-0.7651953
-3.621193	misma	-0.8926779
-3.730333	mismas	-0.651321
-2.903352	mismo	-0.6980349
-4.09828	mitad	-0.5687568
-3.876452	miércoles	-0.6724172
-3.730333	moción	-0.8066497
-4.09828	modelo	-0.6221876
-4.274345	modelos	-0.7563515
-3.876452	moderado	-0.9469476
-4.274345	modernos	-0.7651953
-4.575295	modestos	-0.4753451
-4.575295	modificó	-0.4754029
-4.575295	molesta	-0.4738996
-3.019147	momento	-0.644387
-4.09828	momentos	-0.4651592
-4.274345	monarquía	-0.7168251
-4.575295	monografías	-0.4751835
-4.575295	monopolio	-0.4157951
-4.09828	monselas	-0.9524087
-4.274345	montenegro	-0.7168251
-4.575295	morirá	-0.4751719
-3.730333	moscú	-0.4973133
-3.973354	mostró	-0.771277
-3.534046	motivo	-0.8312014
-4.274345	moverlo	-0.7762597
-3.672344	mucha	-0.5401043
-4.274345	muchacha	-0.7764213
-3.534046	muchas	-0.8231047
-2.903352	mucho	-0.8118588
-3.04397	muchos	-0.6458429
-3.876452	muere	-0.683102
-4.274345	mueren	-0.4753451
-3.973354	muerte	-0.7158042
-4.274345	muerto	-0.4156229
-3.876452	muertos	-0.7030492
-4.09828	muestra	-0.6385117
-4.09828	muestras	-0.6497476
-3.672344	mujer	-0.6172052
-3.429314	mujeres	-0.8085275
-4.575295	multas	-0.4157951
-3.973354	mundiales	-1.017855
-3.213719	mundo	-0.7939908
-3.575438	murieron	-0.8269478
-3.730333	murió	-0.6329012
-4.274345	murmura	-0.7168251
-4.575295	musulmanes	-0.4754029
-2.666966	muy	-0.6871703
-2.396476	más	-0.638146
-4.274345	mástil	-0.7754505
-3.876452	médica	-1.114765
-3.797276	médicos	-0.8137219
-3.496259	méxico	-0.7387736
-3.496259	mí	-0.6399942
-3.461498	mínimo	-0.8937595
-4.274345	múltiples	-0.7752769
-4.575295	música	-0.4553215
-4.575295	nacido	-0.4753336
-4.09828	nacional	-0.5687568
-4.274345	nacionalidades	-0.7168251
-3.534046	naciones	-1.156039
-3.797276	nación	-0.7032542
-3.056935	nada	-0.671167
-3.070298	nadie	-0.7327104
-3.797276	naturales	-1.193946
-3.876452	nave	-0.6869372
-4.274345	naves	-0.7661892
-4.09828	necesaria	-0.6276608
-3.575438	necesario	-0.7676066
-3.876452	necesidad	-0.6144584
-4.09828	necesidades	-0.4752874
-3.730333	necesitamos	-0.8369135
-3.672344	necesitan	-0.6329093
-4.575295	necesitarían	-0.4750217
-3.797276	negaron	-0.6830662
-4.274345	negativamente	-0.7644601
-3.797276	negativo	-0.8927575
-3.575438	negociaciones	-1.017829
-3.876452	negociando	-0.8112519
-4.274345	negocio	-0.4150397
-3.672344	negocios	-0.8380401
-4.575295	negra	-0.4157951
-3.534046	negó	-0.8073525
-3.973354	neta	-1.075044
-3.160474	ni	-0.6453981
-3.575438	niega	-1.009782
-4.09828	niegan	-0.6330419
-3.11305	ninguna	-0.7327431
-3.672344	ninguno	-1.358411
-3.233024	ningún	-0.6249471
-3.621193	nivel	-0.7606143
-3.797276	niveles	-0.5648989
-3.973354	niño	-0.6936955
-3.429314	niños	-0.9087325
-1.592278	no	-0.9992183
-3.461498	noche	-0.6131874
-4.575295	nombrado	-0.4752643
-4.274345	nombraron	-0.7764213
-3.730333	nombre	-0.5456936
-4.274345	nominal	-0.7747442
-4.274345	norcoreanas	-0.7764213
-3.730333	normal	-0.7568126
-4.274345	normalidad	-0.7168251
-3.973354	normas	-0.4753682
-3.797276	norte	-0.470952
-3.876452	norteamericano	-0.8136557
-2.922237	nos	-0.670752
-3.233024	nosotros	-1.003628
-3.496259	nota	-0.6310499
-3.876452	notable	-0.8136954
-4.274345	notas	-0.3926655
-3.876452	noticia	-0.6101348
-4.09828	noticias	-0.6468986
-4.274345	novecientos	-0.7764213
-4.274345	novedad	-0.7644601
-4.274345	novedades	-0.4040103
-4.09828	noviembre	-0.5882562
-4.09828	nuclear	-0.5905469
-3.973354	nucleares	-1.017855
-4.575295	nueces	-0.4709007
-3.274415	nuestra	-0.6751962
-3.876452	nuestras	-0.776225
-3.144084	nuestro	-0.7827199
-3.797276	nuestros	-0.6971131
-3.575438	nueva	-0.5992551
-3.730333	nuevamente	-0.7825916
-3.672344	nuevas	-0.6000529
-3.730333	nueve	-0.7135069
-2.885254	nuevo	-0.6681699
-3.461498	nuevos	-0.6645492
-4.575295	numerosas	-0.4753913
-4.274345	numerosos	-0.7764097
-3.177507	nunca	-0.7097992
-2.903352	o	-0.7608221
-3.399352	objetivo	-0.5709023
-3.797276	objetivos	-0.5619723
-3.575438	objeto	-0.9741555
-4.09828	obra	-0.5687568
-4.274345	obras	-0.7563515
-3.797276	observaciones	-0.6830209
-3.496259	obstante	-0.6295064
-4.274345	ocasiones	-0.4147743
-4.575295	ocasión	-0.4748946
-4.575295	occidental	-0.4717979
-4.274345	occidente	-0.7762365
-3.320172	ocho	-0.6288663
-3.973354	ocupa	-0.739929
-4.575295	ocupaban	-0.4553215
-4.274345	ocupados	-0.7644601
-4.09828	ocurre	-0.6390585
-4.274345	ocurrir	-0.7168251
-4.274345	ocurrirá	-0.7742804
-4.575295	oeste	-0.4157951
-4.575295	ofendido	-0.4709007
-3.876452	oferta	-0.9324428
-3.534046	oficial	-0.8073307
-3.730333	oficiales	-0.6938752
-3.399352	oficina	-0.8039924
-3.876452	ofrece	-0.6769284
-4.274345	ofrecer	-0.7713003
-4.09828	ofrecimiento	-0.5817719
-4.274345	ofreció	-0.7755546
-4.274345	olvidar	-0.7738974
-4.274345	omar	-0.7764213
-4.09828	omisión	-0.5915155
-4.575295	onza	-0.4747559
-3.797276	opciones	-0.71108
-3.672344	opción	-0.5972717
-3.797276	operaciones	-0.7364117
-3.797276	operación	-0.6002607
-4.575295	operar	-0.4157951
-4.575295	opinan	-0.4659504
-3.730333	opiniones	-0.7605165
-3.429314	opinión	-0.856139
-4.274345	opinó	-0.7669804
-3.973354	oposición	-0.7164939
-4.09828	opositores	-0.6395096
-4.575295	optativo	-0.4157951
-3.797276	optimista	-0.7070358
-3.730333	optimistas	-0.646272
-4.274345	opuesta	-0.7168251
-3.973354	orador	-0.6311951
-4.575295	oradores	-0.4651592
-4.575295	orcas	-0.4753798
-3.730333	orden	-0.7604327
-4.274345	ordinaria	-0.7661892
-4.09828	organismo	-0.6406237
-4.274345	organismos	-0.4553215
-4.09828	organizar	-0.6463383
-4.575295	orientado	-0.4753336
-3.876452	oriental	-0.8019503
-3.461498	oro	-0.690598
-4.274345	oscar	-0.4056806
-3.195235	otra	-0.7352608
-3.11305	otras	-0.7366083
-3.056935	otro	-0.7507248
-2.790121	otros	-0.7588018
-4.274345	pacificadores	-0.7764213
-3.496259	pacto	-0.7810945
-3.496259	padre	-0.5833548
-3.876452	pagado	-0.8572929
-4.575295	pagan	-0.4714485
-4.09828	pagar	-0.6435609
-3.876452	pago	-0.631304
-3.461498	palabra	-0.7927499
-3.672344	palabras	-0.6466398
-3.973354	palacio	-0.7030492
-4.575295	palacios	-0.4698263
-4.09828	palencia	-0.8929164
-4.575295	palti	-0.4754029
-4.09828	pan	-0.9422805
-4.575295	papa	-0.4753913
-3.730333	papel	-0.5847704
-4.09828	papeles	-0.6511939
-4.575295	par	-0.4553215
-2.253233	para	-0.9752024
-4.274345	paradero	-0.7563515
-4.575295	paraliza	-0.4754029
-4.274345	parciales	-0.7168251
-4.575295	parcialmente	-0.4585856
-3.177507	parece	-0.76276
-3.730333	parecer	-0.6127117
-3.621193	parlamento	-0.5679879
-4.274345	parra	-0.7764097
-2.995666	parte	-0.8846406
-3.213719	partes	-0.8245015
-4.09828	participó	-0.6234085
-3.797276	particular	-0.7061138
-4.575295	partidaria	-0.4717979
-4.274345	partidario	-0.7759015
-4.575295	partidas	-0.4659504
-3.534046	partido	-0.7677127
-3.876452	partidos	-0.631304
-3.876452	parís	-0.8085532
-3.973354	pasa	-0.5890967
-3.253227	pasado	-0.8151361
-3.730333	pasajeros	-0.8348228
-3.621193	pasar	-0.751129
-3.797276	paso	-0.5648285
-4.09828	pasos	-0.6385593
-4.575295	passarella	-0.4754029
-3.575438	pasó	-0.6958549
-4.575295	patrullada	-0.4754029
-4.09828	paulo	-0.5918599
-2.859447	paz	-0.8199851
-3.12829	país	-0.6354481
-2.941981	países	-0.7329829
-4.575295	peleara	-0.4732504
-4.575295	peligros	-0.4553215
-4.274345	peligroso	-0.7764213
-4.09828	pelota	-0.9512872
-4.274345	película	-0.4422884
-3.876452	pendientes	-0.6143047
-4.09828	pensaba	-0.8929164
-3.876452	pensado	-0.8610616
-4.575295	pensar	-0.4634302
-3.973354	pensiones	-1.017855
-3.797276	peor	-0.6469686
-3.797276	pequeña	-0.6469453
-4.09828	pequeño	-0.6490052
-4.575295	pequeños	-0.4157951
-4.274345	percibe	-0.7728627
-4.274345	perdemos	-0.7596155
-4.09828	perder	-0.7759708
-3.730333	perdido	-0.6953264
-4.575295	perdía	-0.4752758
-3.876452	peres	-0.9480219
-4.575295	perfecta	-0.4157951
-3.973354	perfectamemnte	-1.074637
-4.274345	pericial	-0.7563515
-3.534046	periodistas	-0.8783196
-4.575295	periódicos	-0.4753913
-4.274345	perlas	-0.7168251
-4.575295	permitan	-0.4659504
-4.09828	permitido	-0.6513672
-4.274345	permitirse	-0.7764097
-4.274345	permitirá	-0.4642127
-2.393609	pero	-0.8425447
-4.274345	perro	-0.7764213
-4.575295	persigue	-0.4741312
-3.429314	persona	-0.7878313
-3.399352	personal	-0.5839508
-3.12829	personas	-0.8097695
-4.274345	perspicacia	-0.7168251
-4.575295	pertenecían	-0.4733084
-4.274345	pertinente	-0.7719306
-4.09828	perturbación	-0.9489192
-4.274345	peruano	-0.7644601
-4.274345	peruanos	-0.7168251
-3.399352	período	-0.9991235
-3.876452	períodos	-1.154291
-3.371324	perú	-0.7494664
-4.575295	pesa	-0.4718328
-4.274345	pesca	-0.7563515
-3.672344	pese	-1.369701
-3.621193	peseta	-0.691675
-3.730333	petición	-0.9597704
-4.274345	petrolera	-0.7644601
-3.973354	petrolero	-0.7644601
-3.797276	petróleo	-0.8928501
-4.575295	piano	-0.4157951
-4.575295	pido	-0.4659504
-4.09828	pie	-0.5687568
-3.876452	piensa	-0.8478724
-3.730333	pienso	-0.8292419
-4.575295	piezas	-0.4754029
-3.973354	pilotos	-0.776352
-3.429314	plan	-0.7895876
-4.575295	planas	-0.4651592
-4.274345	planeaba	-0.7763982
-4.274345	planeta	-0.7168251
-4.575295	planos	-0.4753682
-4.274345	plantas	-0.7168251
-4.575295	plantearon	-0.4597479
-4.575295	plantearse	-0.4597479
-4.575295	plata	-0.4651592
-4.575295	plaza	-0.4651592
-3.233024	plazo	-0.9335232
-3.797276	pleno	-0.7761326
-4.575295	plácido	-0.4157951
-3.973354	población	-0.7516229
-3.320172	poco	-0.698432
-3.672344	pocos	-0.6307231
-4.09828	podamos	-0.6502341
-3.296691	podemos	-0.7416313
-3.672344	poder	-1.016569
-4.575295	poderes	-0.474964
-4.274345	poderoso	-0.7764213
-3.973354	podrá	-0.7758321
-3.876452	podrán	-0.4743395
-3.04397	podría	-0.9175971
-3.973354	podríamos	-0.7762135
-4.274345	podían	-0.7763059
-4.09828	polariza	-0.9357069
-4.274345	polemiza	-0.7742804
-4.274345	policial	-0.7752422
-3.007247	policía	-0.7601952
-3.177507	política	-0.6077633
-3.496259	político	-0.8765769
-3.621193	políticos	-0.7530383
-4.274345	pondría	-0.7676405
-4.274345	poner	-0.7644601
-4.274345	ponernos	-0.7676405
-3.876452	popular	-0.6372331
-2.041427	por	-1.046124
-3.461498	porque	-0.8944607
-4.09828	porqué	-0.8929164
-4.575295	portero	-0.4754029
-4.09828	posibilidades	-0.5687568
-3.274415	posible	-0.6804857
-3.461498	posiciones	-0.9380245
-3.461498	posición	-0.5858167
-4.274345	positivas	-0.7168251
-4.09828	positivo	-0.6456134
-4.274345	posterioridad	-0.7168251
-3.797276	posteriormente	-0.7603229
-4.274345	potestad	-0.7764213
-4.575295	practique	-0.4597479
-4.575295	precaución	-0.4754029
-4.575295	precedente	-0.4157951
-3.534046	precio	-0.6394977
-3.177507	precios	-0.8512694
-3.575438	preciso	-0.5996484
-4.274345	precisos	-0.7168251
-4.09828	preguntas	-0.6464902
-3.621193	preguntó	-0.8870639
-3.973354	premio	-0.5877351
-3.213719	prensa	-0.9597767
-3.730333	preocupación	-0.7806087
-3.797276	preocupado	-0.7059509
-4.274345	preocupantes	-0.7168251
-4.09828	preparado	-0.6489703
-4.09828	preparan	-0.651448
-3.973354	presencia	-0.764199
-3.575438	presenta	-0.6722583
-3.730333	presentación	-0.7562628
-4.09828	presentaron	-0.9524087
-3.496259	presente	-0.5404114
-4.09828	presentó	-0.6507547
-3.797276	presidencial	-0.8791406
-3.973354	presidenciales	-0.7030492
-2.941981	presidente	-0.7532179
-3.876452	presión	-0.50696
-4.575295	presos	-0.4753451
-4.575295	prestó	-0.4752527
-4.09828	presupuesto	-0.7754505
-4.575295	pretendemos	-0.4754029
-4.274345	preveo	-0.7761095
-3.213719	primer	-0.950789
-3.371324	primera	-0.7325817
-4.575295	primeras	-0.4754029
-3.973354	primero	-0.4435199
-3.575438	principal	-0.7672619
-3.973354	principalmente	-0.7636169
-3.621193	principio	-0.7407929
-4.09828	principios	-0.5781105
-4.09828	prioridad	-0.6393316
-3.672344	privada	-0.6721506
-3.973354	privatizaciones	-0.7167059
-3.730333	probable	-1.009959
-4.09828	probablemente	-0.6412387
-3.056935	problema	-0.8327035
-3.253227	problemas	-0.8192184
-4.274345	problemáticos	-0.7168251
-4.575295	proceda	-0.4666106
-4.575295	procedente	-0.4553215
-3.797276	procedimiento	-0.6384165
-3.973354	procedió	-1.068671
-3.177507	proceso	-0.7793069
-3.973354	procesos	-0.5844712
-4.274345	proclama	-0.7764213
-4.274345	procupación	-0.7168251
-3.534046	producción	-0.5405985
-3.534046	producido	-0.7240771
-4.575295	produciría	-0.4754029
-3.973354	producto	-0.7162686
-4.09828	productos	-0.4157951
-4.274345	produzcan	-0.776225
-3.160474	programa	-0.735147
-4.575295	programado	-0.4753682
-3.399352	programas	-0.7380099
-3.973354	progresan	-1.017855
-3.730333	progreso	-0.6437978
-4.575295	prohibe	-0.4666106
-4.575295	prometido	-0.4754029
-4.575295	promoverá	-0.4585856
-3.672344	pronta	-1.072657
-3.730333	pronto	-0.6561233
-4.575295	propaganda	-0.4553215
-3.973354	propia	-0.4152253
-3.730333	propio	-0.7054703
-3.876452	proporciona	-0.8681287
-4.09828	proporcionó	-0.6328611
-3.274415	propuesta	-0.825111
-3.730333	propuestas	-0.6337157
-3.797276	propuesto	-0.8928369
-4.274345	propuestos	-0.7763982
-4.575295	propuso	-0.4659504
-3.876452	propósito	-0.7906055
-4.274345	prorroga	-0.7168251
-4.575295	proscribir	-0.4714718
-3.973354	prostitución	-1.017855
-4.575295	proteger	-0.4753798
-4.575295	protocolo	-0.4754029
-4.09828	protocolos	-0.5917937
-4.274345	provincia	-0.471763
-4.575295	provisional	-0.4157951
-4.274345	provocaría	-0.7596155
-4.274345	proyectaba	-0.7763636
-3.399352	proyecto	-0.7434926
-3.461498	proyectos	-0.7100713
-4.575295	prudente	-0.4634302
-4.09828	pruebas	-0.6372968
-3.973354	práctica	-0.7167191
-4.09828	prácticamente	-0.6514711
-4.09828	próxima	-0.9521546
-3.973354	próximamente	-1.017855
-4.09828	próximo	-0.4154772
-3.797276	próximos	-1.253323
-4.274345	publicación	-0.4630859
-3.973354	publicado	-0.7644127
-4.575295	publicarían	-0.4750795
-3.575438	pudo	-0.7751496
-3.213719	pueblo	-0.8631144
-3.575438	pueda	-0.7737929
-2.812023	puede	-0.7620685
-3.253227	pueden	-0.7380899
-3.344995	puedo	-0.6883062
-3.730333	puerta	-0.5829629
-4.575295	puertorriqueñas	-0.4157951
-3.296691	pues	-0.7117371
-3.730333	puesto	-0.6008809
-4.274345	pulpo	-0.7168251
-3.371324	punto	-0.5484402
-3.973354	página	-0.7166795
-4.274345	pánico	-0.7644601
-3.160474	párrafo	-0.6744623
-3.534046	pérdida	-0.7338014
-3.876452	pérsico	-0.8116379
-4.274345	pública	-0.7764097
-3.973354	públicas	-0.5918466
-3.797276	público	-0.8909655
-4.575295	públicos	-0.4753798
-1.666432	que	-0.8343242
-3.213719	queda	-0.8865268
-3.973354	quedado	-0.7754042
-4.274345	quedar	-0.4739112
-4.274345	quedaron	-0.4634065
-4.575295	quedarse	-0.4751835
-3.461498	quedó	-0.6221381
-3.672344	queremos	-0.6695863
-3.672344	quería	-0.6654924
-4.09828	queríamos	-0.952351
-3.973354	querían	-0.7667916
-3.797276	quien	-0.5972019
-3.797276	quienes	-0.6412387
-4.575295	quieran	-0.4736562
-3.730333	quiere	-0.6175882
-3.672344	quieren	-0.8731467
-3.534046	quiero	-0.5389269
-4.575295	quinta	-0.4749524
-4.274345	quise	-0.7764213
-3.973354	quisiera	-0.5298189
-4.09828	quiso	-0.6508819
-4.09828	quito	-0.8929164
-4.274345	quitó	-0.7764213
-4.575295	quizo	-0.4659504
-3.876452	quién	-0.6964081
-2.931997	qué	-0.7367421
-4.274345	quédense	-0.7742804
-4.575295	racionamiento	-0.4753451
-4.575295	racismo	-0.4157951
-4.575295	radical	-0.4753913
-3.973354	radio	-0.5886418
-3.797276	ramos	-0.8134702
-3.797276	rara	-0.7123128
-4.274345	razon	-0.7763289
-3.371324	razones	-0.6739959
-3.672344	razón	-0.5889073
-4.274345	raíz	-0.7763982
-4.575295	reaccionar	-0.4157951
-3.621193	reacción	-0.565631
-4.09828	realista	-0.5867045
-4.09828	realiza	-0.6345208
-4.274345	realizada	-0.7644601
-3.973354	realizado	-0.5361277
-4.575295	realizan	-0.4634302
-4.09828	realizar	-0.6278559
-3.876452	realizó	-0.8440611
-3.730333	realmente	-0.7070729
-4.575295	reanudada	-0.4585856
-4.274345	reanudemos	-0.7596155
-3.575438	rebeldes	-0.7784559
-4.575295	recae	-0.47449
-4.274345	recalcan	-0.7725018
-4.09828	rechazada	-0.5873339
-3.973354	rechazado	-0.5991741
-4.575295	rechazaron	-0.4747559
-4.09828	reciben	-0.6514711
-3.399352	recibido	-0.9694477
-3.730333	recibir	-0.69068
-3.496259	recibió	-0.6511117
-4.575295	recién	-0.4754029
-4.274345	reclamaba	-0.7762712
-4.575295	reclamaron	-0.4585856
-4.274345	reclutarlas	-0.7168251
-4.575295	recogió	-0.4666106
-3.575438	recomendación	-0.7758899
-4.575295	reconstrucción	-0.4709007
-4.274345	recorren	-0.7757859
-4.575295	recrudece	-0.4754029
-4.09828	recuperado	-0.9357069
-4.575295	recurrió	-0.4666106
-4.274345	recurso	-0.7746862
-3.534046	recursos	-0.7167059
-3.973354	red	-0.7456046
-3.973354	redacción	-0.7167985
-4.274345	reduccion	-0.7563515
-4.274345	reduce	-0.7738974
-3.973354	reducida	-0.7067106
-3.973354	reducido	-0.7695798
-4.09828	reducir	-0.6436667
-4.575295	reelegidos	-0.4157951
-3.797276	referencia	-0.7041686
-4.575295	referidas	-0.4666106
-4.575295	referirme	-0.4753567
-4.575295	referirán	-0.4666106
-4.575295	referían	-0.4666106
-3.876452	refiere	-0.8624014
-4.575295	refinerías	-0.4651592
-4.575295	refirió	-0.4733084
-3.621193	reforma	-0.7758552
-3.876452	reformas	-0.5084202
-4.09828	refugiados	-0.650801
-4.274345	regir	-0.4597479
-4.274345	registra	-0.4753567
-4.575295	registrada	-0.4157951
-3.973354	registro	-0.7038958
-4.274345	registrándose	-0.7168251
-3.461498	región	-0.7087433
-4.274345	regla	-0.7168251
-4.274345	reglamentaciones	-0.4157819
-4.09828	regresar	-0.4151722
-3.672344	regreso	-0.7279373
-3.730333	regresó	-0.6740155
-4.09828	regular	-0.8929164
-4.575295	rehabilitar	-0.4738996
-4.09828	rehusado	-0.4754029
-4.09828	rehusó	-0.6513441
-4.575295	reinar	-0.4585856
-4.575295	reitera	-0.4659504
-3.797276	relaciones	-0.8112518
-3.797276	relación	-0.6398062
-3.730333	relativamente	-0.7180944
-4.575295	relativas	-0.4666106
-4.575295	relator	-0.4157951
-4.274345	relató	-0.4702704
-4.274345	relevancia	-0.7676405
-4.274345	religiosa	-0.7168251
-4.575295	remedios	-0.4742122
-4.274345	remitida	-0.7743384
-4.274345	remuneración	-0.7708563
-4.274345	rendimos	-0.7761903
-4.09828	renovarse	-0.8929164
-3.399352	renuncia	-0.8072647
-4.575295	reordenados	-0.4709007
-4.274345	reparaciones	-0.7762135
-4.274345	repercutió	-0.7764213
-3.876452	repetir	-0.6871498
-4.09828	repetirse	-0.591131
-4.274345	reportó	-0.7596155
-4.575295	represalias	-0.4157951
-3.621193	representante	-0.8773431
-3.730333	representantes	-0.7734908
-3.973354	representar	-0.7639853
-4.274345	reprogramación	-0.7563515
-4.09828	repuesto	-0.9507892
-4.575295	requerido	-0.4157951
-4.575295	requerirán	-0.4754029
-3.797276	requiere	-0.7693101
-4.575295	requirimientos	-0.4553215
-4.09828	resa	-0.9513335
-3.672344	reserva	-0.694961
-4.575295	reservado	-0.4157951
-3.534046	reservas	-0.8331698
-4.575295	reses	-0.4157951
-4.575295	resistencia	-0.4753567
-3.575438	resolución	-1.112348
-4.09828	resolver	-0.6501414
-4.575295	respalden	-0.4732504
-4.09828	respaldo	-0.8929164
-4.274345	respectivo	-0.7758668
-3.144084	respecto	-0.9376598
-4.274345	respetando	-0.4506173
-3.973354	respetar	-0.7754158
-4.274345	respiro	-0.7168251
-3.973354	responder	-0.5305244
-4.575295	responderemos	-0.4666106
-3.797276	respondió	-0.7389485
-4.274345	responsabilizado	-0.7758206
-3.160474	respuesta	-0.8124169
-4.575295	restableció	-0.4714485
-3.973354	restantes	-0.5399651
-4.09828	restaurados	-0.8929164
-3.429314	resto	-0.8117723
-3.973354	restos	-0.7165601
-4.575295	restricción	-0.4748368
-4.274345	resueltos	-0.4601786
-4.274345	resulta	-0.776121
-3.672344	resultado	-0.750264
-3.177507	resultados	-0.7886318
-3.672344	resultaron	-0.619007
-4.274345	retenían	-0.7676405
-3.534046	retirada	-0.6932274
-4.09828	retirado	-0.5913299
-4.274345	retirar	-0.7713003
-4.575295	retirarse	-0.4688547
-4.09828	reuniones	-0.4082078
-4.575295	reunir	-0.4597479
-3.973354	reunirán	-0.7642584
-3.056935	reunión	-0.9228402
-4.274345	reuní	-0.7742804
-4.274345	revelado	-0.7168251
-4.274345	revelados	-0.7168251
-4.274345	revelar	-0.773607
-4.575295	reveses	-0.4157951
-4.274345	revisando	-0.7761788
-4.274345	revisarse	-0.7754621
-4.09828	revisó	-0.9357069
-4.274345	revuelo	-0.7644601
-3.797276	rey	-0.6223357
-4.575295	reyes	-0.4157951
-3.575438	reúne	-0.7655269
-4.274345	riendo	-0.7761441
-3.621193	riesgo	-0.6081586
-4.09828	rio	-0.9525011
-4.09828	ritmo	-0.9324428
-4.575295	riñón	-0.4157951
-4.575295	robando	-0.4597479
-4.274345	rojo	-0.7168251
-4.575295	rompieron	-0.4754029
-4.274345	ronda	-0.7746167
-4.575295	ruanda	-0.4157951
-4.274345	rubro	-0.4641653
-3.973354	rumbo	-0.7676405
-4.575295	rumores	-0.4553215
-3.797276	rusa	-0.5897314
-3.371324	rusia	-0.7489932
-4.274345	rusos	-0.7763405
-4.09828	ruta	-0.5918069
-4.575295	rutinariamente	-0.4157951
-3.797276	rápidamente	-0.9286909
-4.09828	régimen	-0.591648
-4.575295	río	-0.4553215
-4.575295	ríos	-0.4753682
-3.344995	sabe	-0.7673865
-3.575438	sabemos	-0.7634028
-3.534046	saber	-0.6835192
-4.274345	sabotaje	-0.7168251
-3.973354	sabía	-0.7464342
-4.274345	sabían	-0.7669804
-3.973354	sacado	-0.7639496
-4.575295	sal	-0.4709007
-3.973354	sala	-0.6936955
-4.274345	salario	-0.7762943
-4.575295	saldar	-0.4753798
-4.274345	saliente	-0.7168251
-4.274345	salieron	-0.4543896
-3.371324	salir	-0.8390058
-3.621193	salud	-0.6422445
-4.575295	salva	-0.4157951
-3.876452	salvador	-1.114765
-4.575295	salvar	-0.4752066
-4.09828	salvo	-0.6419119
-4.575295	sana	-0.4709007
-3.575438	sanciones	-0.6055784
-4.575295	sangre	-0.4553215
-3.730333	santiago	-0.7614236
-4.09828	saqueadas	-0.9485698
-3.876452	sarajevo	-0.5392615
-4.274345	satisfactoria	-0.7168251
-3.973354	satisfactorio	-0.7059509
-4.09828	saínz	-0.9422805
-1.631959	se	-0.9256834
-3.253227	sea	-0.615212
-4.09828	secciones	-0.8929164
-3.973354	sección	-0.7661656
-4.274345	secretaria	-0.7563515
-3.461498	secretario	-1.267763
-3.797276	sector	-0.6348142
-3.730333	sectores	-0.6451802
-3.496259	seguir	-0.6392642
-4.274345	seguirá	-0.7763289
-3.672344	segunda	-0.7757975
-3.575438	segundo	-0.7159502
-3.621193	seguridad	-0.7562627
-3.797276	seguro	-0.6898659
-4.09828	seguía	-0.6234085
-3.534046	según	-0.7803664
-3.195235	seis	-0.6577446
-4.575295	sela	-0.4752989
-4.274345	seleccionó	-0.7168251
-3.534046	semana	-0.7602556
-4.575295	semanales	-0.4553215
-3.797276	senado	-0.5903741
-4.274345	sencilla	-0.7168251
-4.575295	sencillísima	-0.4157951
-4.274345	sensato	-0.7168251
-4.274345	sentencias	-0.7752769
-4.274345	sentir	-0.7596155
-4.274345	separación	-0.4435324
-3.973354	separado	-1.017855
-4.09828	separatista	-0.6313523
-4.09828	septiembre	-0.5882562
-2.606969	ser	-0.6622433
-4.274345	serbia	-0.7719306
-4.274345	serie	-0.4494302
-4.575295	seriedad	-0.4634302
-3.973354	serio	-0.5391418
-4.274345	servicio	-0.4752759
-3.730333	servicios	-0.8080919
-2.87648	será	-0.7470811
-3.274415	serán	-0.6512401
-3.070298	sería	-0.7892647
-3.429314	sesiones	-0.8965165
-3.461498	sesión	-0.8022903
-4.274345	setenta	-0.7719306
-4.274345	severos	-0.7762019
-4.575295	sevilla	-0.4157951
-4.575295	sexual	-0.4157951
-4.575295	señalo	-0.4666106
-2.984385	señaló	-0.9717566
-4.274345	señor	-0.4713787
-4.575295	señora	-0.4753682
-2.58868	si	-0.8904331
-2.755907	sido	-0.7290071
-3.461498	siempre	-0.7511423
-3.296691	siendo	-0.6582014
-4.274345	siente	-0.7764213
-3.797276	siento	-0.5358426
-3.296691	siete	-0.9717643
-3.461498	significa	-0.8611684
-4.274345	significar	-0.7168251
-4.575295	significativamente	-0.4157951
-4.575295	significativas	-0.4157951
-3.195235	sigue	-0.7778343
-3.621193	siguen	-0.7060527
-3.534046	siguiente	-0.842335
-4.575295	siguieron	-0.4733084
-3.797276	siguió	-0.6920724
-4.274345	silla	-0.7764213
-4.575295	silvio	-0.4754029
-3.730333	similar	-0.6448521
-3.973354	similares	-0.8929164
-4.274345	simple	-0.4157819
-2.640953	sin	-1.262244
-4.575295	sindicales	-0.4157951
-3.672344	sino	-0.6993377
-4.575295	sintieron	-0.4634302
-3.730333	sintió	-0.9524664
-4.274345	sinónimo	-0.7563515
-4.09828	siquiera	-0.6507201
-3.621193	siria	-0.7676067
-3.672344	sistema	-0.7482034
-2.851175	situación	-0.7552198
-4.575295	situada	-0.4634302
-4.575295	soares	-0.4157951
-4.274345	soberanía	-0.4146681
-2.646033	sobre	-0.8813638
-4.575295	sobrevaluados	-0.4742122
-4.09828	social	-0.5854698
-3.534046	solamente	-0.6122065
-3.973354	solares	-0.7050402
-4.575295	soldado	-0.4553215
-3.730333	soldados	-0.5553049
-3.973354	solicita	-0.7109189
-4.575295	solicitadas	-0.4553215
-4.274345	solicitado	-0.4049209
-3.621193	solicitud	-1.045878
-4.575295	solicitó	-0.4702704
-4.274345	solucionar	-0.7755662
-3.233024	solución	-0.7712522
-4.09828	sometido	-0.9437318
-3.797276	somos	-0.6181055
-2.57113	son	-0.7404658
-4.575295	sorprende	-0.4157951
-4.575295	sorprendido	-0.4754029
-3.730333	sostuvo	-1.114765
-3.253227	soy	-0.9271637
-2.23303	su	-0.7564417
-3.876452	subasta	-0.8532494
-4.575295	subastan	-0.4666106
-4.575295	subcontrata	-0.4754029
-3.797276	sube	-0.5833442
-4.274345	subieron	-0.7644601
-4.575295	subprograma	-0.4741312
-4.575295	subsiguiente	-0.4753451
-4.274345	subtema	-0.4650765
-3.973354	sucede	-0.6486567
-4.274345	suceden	-0.7762943
-3.730333	suceder	-0.7629684
-3.876452	sucederá	-1.114765
-3.876452	sucedió	-0.6873506
-4.575295	sucesión	-0.4553215
-4.274345	sudamericanos	-0.7752538
-4.09828	sudáfrica	-0.7764213
-4.09828	suecia	-0.8929164
-4.274345	sueldos	-0.7661892
-4.09828	suelen	-0.6512979
-3.797276	suficiente	-0.5380906
-4.274345	sugerida	-0.7724785
-4.274345	sugerirse	-0.7762827
-4.274345	sugirió	-0.4585496
-4.575295	suma	-0.4157951
-3.797276	sumamente	-0.7763289
-3.973354	sumario	-1.017855
-4.575295	suministro	-0.4157951
-4.575295	suministros	-0.4553215
-4.575295	supervisan	-0.4688547
-4.274345	supimos	-0.4732852
-3.973354	suprema	-0.5781105
-4.09828	suprimir	-0.6183797
-4.575295	supuestamente	-0.4597479
-3.672344	supuesto	-0.7372715
-2.835088	sus	-0.7423278
-4.274345	sustanciales	-0.7168251
-4.575295	sábados	-0.4709007
-3.973354	sé	-0.5746506
-3.371324	sí	-0.7678088
-3.04397	sólo	-0.7539678
-4.274345	sónica	-0.7168251
-4.575295	tailandés	-0.4157951
-4.575295	tajante	-0.4157951
-3.213719	tal	-0.8246898
-4.575295	talavera	-0.4722516
-3.534046	tales	-0.7068596
-2.408135	también	-0.6971862
-3.320172	tampoco	-0.8440205
-3.399352	tan	-0.775809
-4.575295	tangible	-0.4157951
-3.11305	tanto	-0.643927
-3.496259	tarde	-0.9204052
-3.296691	tarea	-0.7779211
-3.973354	tarifas	-0.7651479
-3.797276	tasa	-0.4716791
-3.973354	tasas	-0.7563394
-4.575295	te	-0.4753913
-4.09828	teatro	-0.4116439
-4.274345	tecnicismos	-0.7168251
-4.575295	teconología	-0.4157951
-4.575295	tegucigalpa	-0.4666106
-4.09828	televisión	-0.5918599
-3.973354	telmex	-0.3877354
-3.04397	tema	-0.7854127
-3.496259	temas	-0.5821783
-4.274345	teme	-0.7759939
-4.575295	temer	-0.4659504
-4.575295	temor	-0.4741659
-4.09828	templos	-0.9525011
-3.876452	temporada	-0.7651598
-3.575438	tendencia	-0.8311933
-3.876452	tendrán	-0.8466834
-4.274345	tendríamos	-0.7762827
-3.070298	tenemos	-0.8102659
-3.274415	tener	-0.780134
-4.575295	tenerse	-0.4634302
-3.575438	tenido	-0.754188
-4.274345	tensa	-0.3926655
-3.253227	tenía	-0.7501536
-3.973354	teníamos	-0.5950455
-3.575438	tenían	-0.8923672
-4.575295	teoría	-0.4730183
-3.730333	tercer	-0.5710065
-3.876452	tercera	-0.6510437
-4.274345	tercios	-0.7563515
-3.496259	terreno	-0.8668861
-3.973354	terrible	-0.537077
-3.973354	territorios	-0.7166926
-4.274345	terror	-0.7168251
-4.575295	tesobonos	-0.4709007
-3.575438	testigo	-0.6967157
-3.876452	testigos	-0.5912105
-3.399352	texto	-0.8548978
-4.575295	textos	-0.4753913
-4.09828	tiburones	-0.5882562
-2.9522	tiempo	-0.7064909
-4.09828	tiempos	-0.6483196
-2.851175	tiene	-0.7382581
-3.195235	tienen	-0.6762027
-3.672344	tierras	-0.7445375
-3.461498	tipo	-1.205579
-3.672344	tipos	-0.9367336
-4.274345	tirar	-0.7607779
-4.575295	tiroteo	-0.4157951
-3.461498	toda	-0.872622
-3.213719	todas	-1.033829
-3.160474	todavía	-1.087016
-2.86788	todo	-0.7321438
-2.7973	todos	-1.154887
-3.672344	toma	-0.5310677
-4.09828	tomaba	-0.6305051
-3.973354	tomar	-0.6477262
-4.575295	tomará	-0.4752297
-4.575295	tomaría	-0.4753451
-4.575295	tomarían	-0.4754029
-4.575295	tomáramos	-0.4666106
-4.274345	tomó	-0.4597479
-4.09828	tono	-0.5918334
-4.274345	toque	-0.7563515
-4.274345	tormenta	-0.3926655
-4.575295	torta	-0.4157951
-3.274415	total	-0.9562719
-3.876452	totalidad	-0.6328638
-3.672344	totalmente	-0.6245372
-4.575295	toyota	-0.4753913
-4.274345	trabajadores	-0.7651953
-4.274345	trabajan	-0.7644601
-3.973354	trabajar	-0.769744
-3.461498	trabajo	-0.5901016
-4.575295	trabajó	-0.4737142
-4.274345	tragedias	-0.7644601
-4.274345	tramos	-0.7758552
-3.797276	tranquilo	-0.7129278
-4.575295	transitorio	-0.4634302
-4.575295	transitorios	-0.4157951
-3.730333	transporte	-0.654227
-3.797276	tras	-0.5885469
-4.274345	trascendental	-0.7168251
-3.213719	trata	-1.020954
-4.575295	trataban	-0.4553215
-3.575438	tratado	-0.7411326
-4.274345	tratan	-0.7563515
-4.274345	trataremos	-0.7563515
-3.797276	trece	-0.628404
-3.876452	treinta	-0.5567058
-3.019147	tres	-0.5927776
-3.429314	tribunal	-0.6053671
-3.973354	tribunales	-0.7168251
-4.274345	trimestre	-0.7168251
-4.575295	triple	-0.4666106
-3.797276	tripulantes	-0.6266474
-4.575295	triste	-0.4744205
-4.274345	triunfa	-0.7644601
-3.876452	tropas	-0.8929164
-4.575295	trozos	-0.4553215
-4.274345	turcos	-0.7168251
-4.274345	tuvieron	-0.4751604
-4.09828	tuvimos	-0.6383808
-3.797276	tuvo	-0.6918037
-3.621193	técnica	-0.7525309
-3.876452	técnicos	-0.8092094
-3.797276	término	-0.5175204
-3.797276	términos	-0.9286543
-3.730333	título	-0.7046591
-4.274345	ubicado	-0.7752422
-4.575295	ultimo	-0.4754029
-1.929049	un	-0.8642771
-2.085495	una	-0.7775264
-3.876452	unidad	-0.4891144
-3.621193	unidas	-0.8136425
-3.461498	unidos	-0.849785
-3.973354	uniforme	-1.017855
-2.9522	uno	-0.7583851
-3.461498	unos	-0.8015536
-3.973354	unánime	-1.017855
-4.274345	urge	-0.4748946
-3.973354	urgente	-0.7059509
-4.575295	uri	-0.4754029
-3.876452	uruguay	-0.6185181
-4.575295	usen	-0.4748715
-3.672344	uso	-0.8194975
-3.973354	ustedes	-0.6974639
-4.274345	utilizar	-0.7676405
-3.160474	va	-1.039661
-4.09828	vacuna	-0.4157951
-4.274345	valiente	-0.7669804
-4.575295	valiosa	-0.4157951
-4.575295	valle	-0.4553215
-3.876452	valores	-0.6503267
-3.973354	van	-1.068671
-4.575295	vaqueros	-0.4752412
-4.274345	variada	-0.7168251
-4.274345	variado	-0.4157554
-4.09828	variados	-0.5867045
-4.09828	variantes	-0.5918599
-3.371324	varias	-0.8173636
-3.371324	varios	-0.7551408
-4.274345	varían	-0.7764213
-4.274345	vasto	-0.47224
-4.274345	vaticano	-0.7764213
-4.274345	vaya	-0.4648282
-3.534046	veces	-0.6337158
-4.274345	veintisiete	-0.7762019
-4.274345	velásquez	-0.7651953
-3.973354	vemos	-0.5846029
-4.575295	venados	-0.4742469
-4.575295	vence	-0.4597479
-3.672344	vender	-0.5334294
-4.575295	vendido	-0.4157951
-4.575295	vendían	-0.4754029
-4.575295	venezolana	-0.4157951
-4.09828	venezolano	-0.5918599
-4.09828	venezolanos	-0.651448
-3.575438	venezuela	-0.6989843
-4.09828	venganzas	-0.8929164
-4.575295	vengarse	-0.4157951
-4.575295	venideros	-0.4157951
-3.797276	venta	-0.752197
-4.274345	ventaja	-0.7168251
-4.575295	ventanas	-0.4553215
-4.575295	ventura	-0.4157951
-3.797276	veo	-0.5489256
-3.429314	ver	-0.6524684
-3.399352	verdad	-0.7079681
-3.973354	veremos	-0.7753232
-3.973354	vergüenza	-0.7760517
-4.274345	verificación	-0.7168251
-3.098327	vez	-0.7429257
-3.973354	viajar	-0.7654913
-4.09828	viajará	-0.9437318
-3.973354	viaje	-0.7471263
-4.274345	viajo	-0.7607779
-4.274345	vicepresidentes	-0.4651001
-3.730333	victoria	-0.6406354
-3.144084	vida	-1.10741
-3.876452	vieja	-0.6370211
-4.274345	viejos	-0.4651238
-3.973354	vienen	-0.7067106
-3.575438	viernes	-0.7998361
-4.575295	vincular	-0.4585856
-3.973354	vino	-0.4665988
-3.621193	violencia	-0.7463816
-3.797276	virus	-0.5850261
-4.274345	visas	-0.7764213
-3.672344	visita	-0.8415518
-4.575295	visión	-0.4752643
-3.730333	visto	-0.531266
-3.973354	vive	-1.077382
-4.274345	vivimos	-0.7757859
-4.575295	vladimir	-0.4753336
-3.672344	vocero	-0.9947255
-4.575295	volcar	-0.4752527
-3.534046	volumen	-0.6410542
-3.876452	voluntad	-0.6721359
-3.797276	volver	-0.9415826
-3.973354	volverán	-1.068671
-3.876452	volvió	-0.8620698
-4.274345	volátil	-0.7168251
-3.621193	votación	-0.5265558
-4.09828	votantes	-0.95175
-3.973354	votar	-0.7714872
-4.575295	votaron	-0.4634302
-3.672344	voto	-0.6741858
-3.730333	votos	-0.7791658
-3.797276	voy	-1.068671
-4.274345	véanse	-0.7725018
-4.274345	véase	-0.7644601
-3.876452	vía	-0.4552127
-3.253227	víctimas	-0.9880452
-1.985503	y	-0.629974
-2.9522	ya	-0.6846303
-2.995666	yo	-0.7767206
-4.575295	yodización	-0.4553215
-3.876452	yugoslavia	-0.8109854
-4.575295	yáñez	-0.4752874
-3.496259	zona	-0.6826772
-3.973354	zonas	-0.6936955
-4.575295	zulema	-0.4157951
-4.274345	zulú	-0.7764213
-4.274345	árbitro	-0.7759939
-3.296691	él	-0.7244889
-4.575295	énfasis	-0.4732504
-3.973354	época	-0.6936955
-4.575295	ése	-0.4698263
-3.730333	ésta	-0.8226812
-4.575295	éxito	-0.4157951
-4.09828	éxitos	-0.5867045
-4.274345	índice	-0.7563515
-4.575295	óptimo	-0.4157951
-3.973354	órdenes	-0.7162685
-4.09828	órgano	-0.7168251
-3.399352	última	-0.6302264
-3.534046	último	-0.5564001
-3.534046	últimos	-0.8161137
-3.876452	única	-0.5123077
-3.973354	únicamente	-0.503062
-3.876452	único	-0.6266611
-4.09828	útiles	-0.8929164

\2-grams:
-2.083518	<s> a
-3.426267	<s> abrigamos
-2.978889	<s> acaso
-3.824721	<s> acepto
-3.222019	<s> aclara
-3.824721	<s> acortarán
-3.426267	<s> actividades
-3.824721	<s> actor
-2.763242	<s> actualmente
-3.426267	<s> actuaré
-3.824721	<s> acuerdo
-2.545157	<s> además
-3.083658	<s> adjunto
-3.824721	<s> admite
-3.222019	<s> agradecemos
-3.824721	<s> agradeceremos
-3.824721	<s> agradezco
-2.545157	<s> agregó
-2.120591	<s> ahora
-3.824721	<s> ahí
-2.400652	<s> al
-2.894547	<s> alemania
-3.426267	<s> alemán
-2.978889	<s> algunas
-2.452834	<s> algunos
-3.824721	<s> allí
-3.083658	<s> alvaro
-2.619799	<s> ambas
-2.512153	<s> ambos
-3.824721	<s> américa
-3.426267	<s> anexos
-3.426267	<s> ante
-3.426267	<s> aparentemente
-3.426267	<s> aragón
-3.426267	<s> argentina
-3.426267	<s> arias
-3.222019	<s> aristide
-3.222019	<s> asimismo
-3.222019	<s> aspin
-3.426267	<s> astronautas
-2.400652	<s> así
-3.426267	<s> aumenta
-3.824721	<s> aumentó
-3.824721	<s> automóvil
-3.426267	<s> avisaremos
-3.426267	<s> avión
-3.824721	<s> ayer
-3.824721	<s> ayudará
-2.978889	<s> añadió
-2.452834	<s> aún
-3.426267	<s> balladur
-3.824721	<s> basándose
-3.426267	<s> benítez
-3.824721	<s> bernardin
-3.824721	<s> bonn
-2.709988	<s> brasil
-3.426267	<s> cabe
-3.426267	<s> cabría
-2.823951	<s> cada
-2.709988	<s> caldera
-3.222019	<s> canciller
-3.426267	<s> cancillería
-3.426267	<s> cantante
-3.426267	<s> carlos
-3.824721	<s> cavallo
-3.426267	<s> cerca
-3.426267	<s> cerrará
-3.426267	<s> cesar
-3.083658	<s> chile
-3.083658	<s> china
-3.083658	<s> clausura
-3.426267	<s> clausuran
-2.512153	<s> clinton
-2.894547	<s> colombia
-3.824721	<s> comienza
-3.426267	<s> comisión
-3.426267	<s> comité
-2.978889	<s> como
-3.824721	<s> completa
-3.824721	<s> completan
-3.222019	<s> comprendemos
-2.481482	<s> con
-3.824721	<s> concluye
-3.426267	<s> conferencia
-3.426267	<s> consulta
-3.426267	<s> continuaremos
-2.978889	<s> continúa
-3.824721	<s> convención
-3.222019	<s> corte
-2.894547	<s> creo
-3.824721	<s> críticos
-3.824721	<s> cualquier
-3.222019	<s> cuando
-3.426267	<s> cuatro
-3.426267	<s> cuba
-3.824721	<s> cuáles
-3.083658	<s> cómo
-2.273661	<s> de
-2.619799	<s> debe
-2.619799	<s> debemos
-3.824721	<s> deben
-3.222019	<s> deberá
-3.426267	<s> debo
-3.222019	<s> decidió
-3.222019	<s> desarrollo
-2.662556	<s> desde
-3.824721	<s> desea
-3.222019	<s> deseo
-3.824721	<s> desgraciadamente
-3.426267	<s> desplazarán
-3.426267	<s> después
-3.426267	<s> destacó
-3.083658	<s> dice
-3.824721	<s> dicen
-3.222019	<s> dicho
-3.824721	<s> dichos
-3.824721	<s> dije
-2.662556	<s> dijo
-3.824721	<s> dios
-3.824721	<s> discutiremos
-3.824721	<s> doce
-2.662556	<s> dos
-2.763242	<s> doy
-2.978889	<s> durante
-3.824721	<s> días
-3.824721	<s> económicamente
-0.9345647	<s> el
-3.426267	<s> elecciones
-3.222019	<s> ella
-2.312008	<s> ello
-2.709988	<s> ellos
-3.083658	<s> emotivo
-3.426267	<s> empresa
-3.824721	<s> empresas
-1.484418	<s> en
-3.426267	<s> entonces
-3.426267	<s> entre
-3.426267	<s> envíamos
-3.222019	<s> era
-1.508949	<s> es
-2.083518	<s> esa
-2.332531	<s> esas
-3.222019	<s> escojo
-3.426267	<s> escritor
-3.083658	<s> escuché
-2.42596	<s> ese
-2.354072	<s> eso
-2.763242	<s> esos
-3.426267	<s> españa
-3.824721	<s> espera
-2.823951	<s> esperamos
-3.824721	<s> esperar
-2.512153	<s> espero
-2.049363	<s> esta
-3.083658	<s> estaba
-2.978889	<s> estaban
-3.426267	<s> estados
-2.238427	<s> estamos
-3.824721	<s> estarán
-2.709988	<s> estas
-2.038549	<s> este
-1.997803	<s> esto
-3.426267	<s> estonia
-2.354072	<s> estos
-2.978889	<s> está
-3.824721	<s> están
-3.222019	<s> evidentemente
-3.426267	<s> ex
-3.426267	<s> exhiben
-3.426267	<s> existe
-3.824721	<s> existían
-3.426267	<s> explosión
-3.426267	<s> favor
-3.824721	<s> fecha
-3.426267	<s> fecsa
-3.824721	<s> figura
-3.222019	<s> fijan
-3.222019	<s> filipinas
-3.426267	<s> finlandia
-3.824721	<s> fracasa
-3.426267	<s> francia
-3.083658	<s> frente
-2.175524	<s> fue
-2.978889	<s> fueron
-3.083658	<s> fuerte
-3.222019	<s> fuertes
-3.824721	<s> fuerza
-3.426267	<s> funcionarios
-3.824721	<s> general
-3.426267	<s> germán
-2.763242	<s> gobierno
-3.426267	<s> gonzález
-3.426267	<s> gracias
-3.426267	<s> graciela
-3.824721	<s> gran
-3.824721	<s> grupo
-3.824721	<s> guerra
-2.823951	<s> ha
-3.824721	<s> habla
-3.824721	<s> habló
-3.824721	<s> habrá
-2.978889	<s> habría
-3.083658	<s> había
-2.894547	<s> hace
-3.426267	<s> hacer
-3.426267	<s> haciendo
-2.978889	<s> han
-2.354072	<s> hasta
-1.988187	<s> hay
-2.619799	<s> he
-2.42596	<s> hemos
-3.824721	<s> heridos
-3.824721	<s> hija
-3.426267	<s> honduras
-2.894547	<s> hoy
-2.763242	<s> hubo
-3.824721	<s> huelga
-3.824721	<s> iberdrola
-3.426267	<s> igual
-3.426267	<s> ilaria
-3.083658	<s> incluso
-3.426267	<s> incluye
-3.426267	<s> indican
-3.222019	<s> indicó
-3.824721	<s> indique
-3.824721	<s> industria
-3.426267	<s> inician
-3.824721	<s> inversionistas
-3.824721	<s> israel
-3.426267	<s> italia
-3.824721	<s> jaime
-3.222019	<s> japón
-3.824721	<s> justicia
-1.027987	<s> la
-3.426267	<s> lacalle
-3.824721	<s> lamentablemente
-1.63214	<s> las
-2.376738	<s> le
-3.222019	<s> les
-3.426267	<s> llameante
-3.222019	<s> llega
-3.824721	<s> llegó
-3.824721	<s> llevé
-1.978779	<s> lo
-3.824721	<s> lograr
-1.425929	<s> los
-2.894547	<s> luego
-3.222019	<s> líder
-3.824721	<s> lógicamente
-3.426267	<s> madrazo
-3.824721	<s> mandela
-3.426267	<s> marchaba
-2.312008	<s> me
-3.824721	<s> media
-3.824721	<s> mejoran
-3.222019	<s> menem
-3.824721	<s> mercouri
-2.709988	<s> mi
-3.083658	<s> mientras
-2.978889	<s> miguel
-3.824721	<s> militares
-3.426267	<s> millones
-3.824721	<s> milán
-3.426267	<s> mineros
-3.222019	<s> ministro
-3.824721	<s> ministros
-3.426267	<s> momentos
-3.222019	<s> monselas
-3.824721	<s> morirá
-3.824721	<s> muchas
-3.083658	<s> mucho
-2.545157	<s> muchos
-3.824721	<s> muere
-3.824721	<s> mueren
-3.426267	<s> muy
-2.823951	<s> más
-3.824721	<s> médicos
-3.824721	<s> méxico
-3.083658	<s> nada
-2.452834	<s> nadie
-3.824721	<s> nave
-2.978889	<s> necesitamos
-3.083658	<s> ni
-3.426267	<s> niegan
-3.222019	<s> ninguna
-2.763242	<s> ninguno
-2.894547	<s> ningún
-1.105365	<s> no
-3.426267	<s> nombraron
-2.481482	<s> nos
-2.709988	<s> nosotros
-2.709988	<s> nuestra
-3.083658	<s> nuestro
-3.083658	<s> nuestros
-3.222019	<s> nuevamente
-3.426267	<s> nuevo
-2.823951	<s> nunca
-3.426267	<s> o
-3.426267	<s> occidente
-2.978889	<s> ocho
-3.824721	<s> operaciones
-3.426267	<s> opositores
-3.824721	<s> otra
-2.894547	<s> otras
-2.894547	<s> otro
-2.580876	<s> otros
-3.824721	<s> palacios
-2.400652	<s> para
-3.824721	<s> parece
-3.222019	<s> parlamento
-3.426267	<s> parra
-3.426267	<s> partidos
-3.824721	<s> passarella
-3.824721	<s> pequeño
-2.978889	<s> peres
-3.824721	<s> permitirá
-1.595984	<s> pero
-3.426267	<s> perú
-2.978889	<s> pese
-2.894547	<s> peseta
-3.222019	<s> pienso
-3.426267	<s> planeaba
-3.824721	<s> plantearon
-3.824721	<s> poco
-3.426267	<s> podemos
-3.824721	<s> podrá
-3.824721	<s> podrán
-3.824721	<s> podría
-3.426267	<s> podríamos
-3.824721	<s> policía
-1.817408	<s> por
-3.824721	<s> porque
-3.426267	<s> posteriormente
-3.426267	<s> precio
-3.426267	<s> precios
-3.426267	<s> preguntó
-3.426267	<s> prensa
-3.824721	<s> preparan
-2.894547	<s> presidente
-3.824721	<s> primero
-3.426267	<s> provocaría
-3.222019	<s> puede
-3.083658	<s> pueden
-3.426267	<s> puedo
-2.894547	<s> que
-3.824721	<s> queda
-3.426267	<s> queremos
-3.824721	<s> quería
-3.222019	<s> queríamos
-3.824721	<s> quienes
-3.824721	<s> quiere
-3.824721	<s> quisiera
-2.512153	<s> qué
-3.426267	<s> quédense
-3.824721	<s> realiza
-3.824721	<s> realmente
-3.824721	<s> reanudada
-3.824721	<s> rebeldes
-3.426267	<s> reciben
-3.824721	<s> recrudece
-3.824721	<s> reitera
-3.222019	<s> renuncia
-3.222019	<s> resa
-3.222019	<s> respecto
-3.824721	<s> responderemos
-3.426267	<s> respondió
-3.824721	<s> retirada
-3.426267	<s> rey
-3.426267	<s> rusia
-3.824721	<s> ríos
-3.083658	<s> sabemos
-3.824721	<s> salieron
-3.426267	<s> sarajevo
-3.222019	<s> saínz
-1.354046	<s> se
-3.426267	<s> sea
-2.709988	<s> según
-3.824721	<s> sela
-3.426267	<s> senado
-3.426267	<s> separatista
-3.824721	<s> ser
-3.426267	<s> será
-3.426267	<s> serán
-2.545157	<s> sería
-2.060452	<s> si
-3.426267	<s> siempre
-3.824721	<s> siento
-3.222019	<s> siete
-3.824721	<s> sigue
-3.824721	<s> silvio
-1.934575	<s> sin
-2.763242	<s> siria
-2.978889	<s> sobre
-3.083658	<s> somos
-2.894547	<s> son
-2.709988	<s> soy
-2.238427	<s> su
-3.426267	<s> sube
-2.580876	<s> sus
-3.426267	<s> sé
-3.426267	<s> sí
-2.894547	<s> sólo
-2.662556	<s> tal
-1.850747	<s> también
-2.662556	<s> tampoco
-3.824721	<s> telmex
-3.222019	<s> tendrán
-2.545157	<s> tenemos
-3.824721	<s> tercer
-3.426267	<s> testigos
-3.222019	<s> tiene
-3.824721	<s> tienen
-3.083658	<s> toda
-2.619799	<s> todas
-2.481482	<s> todavía
-2.452834	<s> todo
-2.662556	<s> todos
-3.824721	<s> toyota
-3.426267	<s> trataremos
-3.426267	<s> treinta
-3.426267	<s> tres
-3.222019	<s> tuvimos
-3.824721	<s> título
-2.238427	<s> un
-2.452834	<s> una
-3.083658	<s> uno
-3.426267	<s> unos
-3.824721	<s> urge
-3.824721	<s> uruguay
-3.824721	<s> va
-3.824721	<s> valores
-3.824721	<s> van
-3.426267	<s> varias
-2.978889	<s> varios
-3.426267	<s> velásquez
-3.222019	<s> vemos
-3.824721	<s> venezolanos
-2.978889	<s> venezuela
-3.824721	<s> veo
-3.426267	<s> vienen
-3.824721	<s> visita
-3.824721	<s> volvió
-3.426267	<s> véanse
-3.426267	<s> véase
-2.376738	<s> y
-2.894547	<s> ya
-2.481482	<s> yo
-3.426267	<s> yugoslavia
-2.586704	a aceptar
-2.586704	a actuar
-2.985158	a alemania
-2.985158	a algunos
-2.985158	a alta
-2.985158	a aprobar
-2.586704	a asamblea
-2.586704	a atlanta
-2.586704	a brasil
-2.586704	a buen
-2.985158	a buscar
-1.984388	a cabo
-2.985158	a cada
-2.985158	a cadena
-2.586704	a caer
-2.382456	a cambio
-2.985158	a cambios
-2.985158	a cargo
-2.985158	a casi
-2.985158	a catorce
-2.985158	a causa
-2.244095	a chile
-2.985158	a cielo
-2.985158	a cifras
-2.985158	a cinco
-2.586704	a colaborar
-2.985158	a coleman
-2.586704	a combatir
-2.985158	a comentar
-2.586704	a conocer
-2.586704	a consulta
-1.561089	a continuación
-2.985158	a continuar
-2.382456	a costa
-2.586704	a cualquier
-2.586704	a cuatro
-2.985158	a culpables
-2.985158	a dar
-2.985158	a de
-2.586704	a debatir
-2.586704	a decidir
-2.586704	a decir
-2.586704	a defraudar
-2.586704	a dejar
-2.586704	a diez
-2.586704	a dificultades
-2.382456	a discutir
-2.586704	a discutirlo
-2.139326	a dos
-2.244095	a elegir
-2.586704	a ello
-2.985158	a empresarios
-2.586704	a encontrar
-1.870425	a esa
-2.382456	a esas
-1.822993	a ese
-2.382456	a eso
-2.244095	a esos
-2.586704	a español
-2.139326	a esta
-2.244095	a estar
-2.244095	a estas
-1.67259	a este
-2.244095	a esto
-2.586704	a estos
-2.054984	a europa
-2.244095	a ex
-2.586704	a examinar
-2.985158	a explicar
-2.586704	a fin
-2.586704	a fines
-2.985158	a firmeza
-2.985158	a funcionarios
-2.586704	a gobierno
-2.985158	a goycochea
-2.985158	a gran
-2.985158	a gusto
-2.382456	a hablar
-2.244095	a hacer
-2.382456	a ir
-2.985158	a israel
-2.985158	a japón
-2.985158	a jerusalén
-2.985158	a juan
-2.985158	a juicio
-2.985158	a junio
-0.7487788	a la
-2.139326	a largo
-1.923679	a las
-2.586704	a lo
-1.188436	a los
-2.985158	a maniobras
-2.985158	a marcos
-2.244095	a media
-2.985158	a mejorar
-2.244095	a menudo
-1.67259	a mi
-2.382456	a moscú
-2.985158	a mucha
-2.586704	a más
-2.244095	a méxico
-2.586704	a mí
-2.244095	a nadie
-2.586704	a nivel
-2.985158	a no
-2.244095	a nosotros
-2.586704	a nuestra
-2.382456	a nuestro
-2.586704	a nueve
-2.985158	a ocurrir
-2.586704	a otra
-2.382456	a otro
-1.870425	a otros
-2.586704	a palabras
-2.586704	a partidos
-2.985158	a paso
-2.586704	a países
-2.586704	a personas
-2.985158	a policía
-2.586704	a político
-2.586704	a preguntas
-2.985158	a prensa
-2.985158	a programa
-1.923679	a que
-2.586704	a quedar
-2.985158	a quien
-2.985158	a quito
-2.985158	a recibir
-2.586704	a reformas
-2.586704	a regir
-2.985158	a regresar
-2.586704	a repetirse
-2.382456	a reservas
-2.244095	a respetar
-2.985158	a retirarse
-2.985158	a reunir
-2.139326	a rusia
-2.985158	a salir
-2.985158	a salvo
-2.586704	a santiago
-2.382456	a seguir
-2.586704	a sentir
-1.923679	a ser
-2.586704	a serbia
-1.472445	a su
-2.985158	a suceder
-2.586704	a suecia
-2.586704	a sus
-2.985158	a sí
-2.586704	a tal
-2.382456	a tales
-2.985158	a tasa
-2.985158	a tegucigalpa
-2.985158	a temas
-2.139326	a tener
-2.586704	a territorios
-2.586704	a todas
-1.705594	a todos
-2.244095	a trabajar
-2.586704	a tribunal
-1.321563	a un
-1.984388	a una
-2.985158	a uno
-2.586704	a vender
-2.586704	a viajar
-2.382456	a votación
-2.586704	a votar
-2.985158	a ya
-0.1769472	abajo con
-0.1769472	abandonada </s>
-0.07952342	abandonado la
-0.1769472	abarcan muy
-0.2556147	abastecimiento de
-0.6540685	abastecimiento el
-0.07952342	abatir estructuras
-0.2732151	abierta </s>
-0.4774634	abierta dijo
-0.07952342	abiertas y
-0.5566447	abierto </s>
-0.3523963	abierto a
-0.9550985	abierto del
-0.1769472	abra está
-0.07952342	abrigamos la
-0.4193431	abril </s>
-0.6235915	abril agregó
-0.6235915	abril se
-0.6235915	abrió a
-1.022045	abrió irregular
-1.022045	abrió la
-1.022045	abrió los
-0.6235915	abrió un
-0.1769472	abstracto sino
-0.1769472	abundan los
-0.1769472	aburrida señaló
-0.03794406	acaba de
-0.1769472	acaben los
-0.2732151	acaso haya
-0.4774634	acaso no
-0.1769472	acatamiento sea
-0.07952342	acceder a
-0.2556147	acceso a
-0.6540685	acceso mayor
-0.1154678	accidente </s>
-0.7784934	accidente se
-0.5498274	acciones bajaron
-0.8924368	acciones cayeron
-0.8924368	acciones de
-1.290891	acciones en
-1.290891	acciones se
-1.290891	acciones son
-0.8924368	acciones subieron
-0.5566447	acción </s>
-0.9550985	acción militar
-0.5566447	acción se
-0.9550985	acción son
-0.07952342	acelerar el
-0.1769472	acento francés
-0.2732151	aceptable </s>
-0.4774634	aceptable dijo
-0.03794406	aceptar un
-0.07952342	aceptarla </s>
-0.1769472	acepto humildemente
-0.7790072	aceptó esa
-0.1763051	aceptó la
-0.03794406	aclara que
-0.07952342	aclararlo todo
-0.1769472	acomete campaña
-0.07952342	acontecimiento a
-0.1769472	acopla a
-0.3805534	acordaron continuar
-0.3805534	acordaron lo
-0.07952342	acordó que
-0.1769472	acortarán duración
-0.1769472	acosta </s>
-0.8759172	actitud </s>
-0.4774634	actitud de
-0.8759172	actitud dijo
-0.8759172	actitud no
-0.3523963	actividad </s>
-0.9550985	actividad con
-0.5566447	actividad volátil
-0.6156378	actividades </s>
-0.8198861	actividades de
-0.8198861	actividades en
-1.21834	actividades fueron
-0.8198861	actividades no
-1.21834	actividades se
-0.4779772	activo </s>
-0.4779772	activo diferido
-0.1769472	activos desde
-0.5742451	acto </s>
-0.7784934	acto la
-0.5742451	acto político
-0.7784934	acto único
-0.2140353	actor </s>
-0.9550985	actor de
-0.9550985	actor más
-0.1769472	actuaciones de
-0.8295176	actual </s>
-1.033766	actual acuerdo
-1.43222	actual composición
-1.033766	actual debate
-1.43222	actual debería
-1.033766	actual dijo
-1.033766	actual dista
-1.033766	actual es
-1.43222	actual posición
-1.033766	actual proyecto
-0.1763051	actualidad </s>
-0.7790072	actualidad hay
-0.07952342	actualizan constantemente
-0.07952342	actualizar cada
-0.8198861	actualmente el
-1.21834	actualmente en
-1.21834	actualmente hay
-0.6156378	actualmente la
-0.8198861	actualmente los
-0.8198861	actualmente objeto
-0.07952342	actuando así
-0.7790072	actuar </s>
-0.3805534	actuar ahora
-0.7790072	actuar declaró
-0.07952342	actuaré conforme
-0.1769472	acude a
-0.07952342	acuerdan impulsar
-0.4409433	acuerdo </s>
-1.441251	acuerdo aceptable
-1.441251	acuerdo como
-1.098642	acuerdo con
-0.9938732	acuerdo de
-1.441251	acuerdo dijo
-1.839705	acuerdo donde
-1.839705	acuerdo entre
-1.441251	acuerdo final
-1.237003	acuerdo no
-1.441251	acuerdo para
-1.441251	acuerdo que
-1.237003	acuerdo sobre
-0.02492419	acusaciones </s>
-0.4779772	acusados </s>
-0.4779772	acusados prestó
-0.3901266	adelante </s>
-0.5284876	adelante dijo
-0.7327359	adelante sólo
-0.07952342	adelanto </s>
-0.8576747	además ahora
-1.256128	además al
-0.5150653	además de
-1.256128	además deberían
-1.256128	además no
-0.8576747	además por
-1.256128	además se
-0.09187099	adicionales </s>
-1.022045	adicionales en
-0.07952342	adiós del
-0.1769472	adjudica un
-0.07952342	adjudicada a
-0.7784934	adjunta </s>
-0.7784934	adjunta copia
-1.176947	adjunta el
-0.3311154	adjunta una
-0.1769472	adjuntan los
-0.4774634	adjunto a
-0.4774634	adjunto copias
-0.8759172	adjunto el
-0.1769472	admite un
-0.1769472	adoptado algunas
-0.07952342	adoptará sus
-0.05136635	adoptarán por
-0.07952342	aducía </s>
-0.1769472	advirtió </s>
-0.2732151	aeropuerto </s>
-0.4774634	aeropuerto está
-0.1769472	aeropuertos fueron
-0.1769472	afectados </s>
-0.05136635	afiliación a
-0.6235915	afirma benítez
-0.1762134	afirma que
-0.6540685	afirmativo a
-0.2556147	afirmativo tendríamos
-0.1984127	afirmó </s>
-0.8752751	afirmó el
-1.079523	afirmó que
-1.477977	afirmó tajante
-1.477977	afirmó uno
-0.4779772	agencia </s>
-0.4779772	agencia dijo
-0.02127482	agente </s>
-0.2809821	agradecemos de
-0.6235915	agradecemos por
-1.022045	agradecemos su
-0.6540685	agradeceremos que
-0.2556147	agradeceremos su
-0.07952342	agradecerle a
-0.6235915	agradezco de
-0.1762134	agradezco su
-0.2556147	agrava esta
-0.6540685	agrava la
-0.4779772	agravó la
-0.4779772	agravó las
-0.09656233	agregó </s>
-2.185547	agregó acosta
-2.185547	agregó por
-0.7614778	agregó que
-0.07952342	agresión contra
-0.1769472	agrupación </s>
-0.05136635	agrícola francés
-0.3805534	agua </s>
-0.3805534	agua agrava
-0.07952342	aguarda regreso
-0.1769472	aguarme el
-0.07952342	aguas no
-0.1769472	ahondar el
-1.182374	ahora </s>
-2.028206	ahora ahorra
-2.028206	ahora al
-1.629752	ahora aún
-1.287142	ahora bien
-1.629752	ahora cuál
-2.028206	ahora de
-1.629752	ahora decidir
-1.425503	ahora dijo
-2.028206	ahora el
-1.425503	ahora en
-2.028206	ahora enfrenta
-1.182374	ahora es
-2.028206	ahora esta
-2.028206	ahora estamos
-2.028206	ahora están
-2.028206	ahora ha
-2.028206	ahora hacia
-2.028206	ahora hemos
-1.425503	ahora la
-1.629752	ahora las
-2.028206	ahora los
-2.028206	ahora muchos
-0.9667261	ahora no
-1.629752	ahora o
-1.629752	ahora podemos
-2.028206	ahora puede
-1.629752	ahora que
-2.028206	ahora sobre
-1.425503	ahora solamente
-1.629752	ahora soy
-1.287142	ahora tenemos
-1.629752	ahora un
-0.1769472	ahorra </s>
-0.8759172	ahí en
-0.8759172	ahí es
-0.4774634	ahí fue
-0.8759172	ahí que
-0.05136635	aislamiento fue
-0.1769472	ajustará pues
-1.95747	al alza
-2.355924	al anexo
-2.355924	al arbitraje
-2.355924	al artículo
-1.614861	al ataque
-2.355924	al banco
-2.355924	al caer
-1.614861	al cierre
-1.510092	al comité
-1.95747	al congreso
-1.95747	al consejo
-1.95747	al consenso
-2.355924	al contenido
-1.95747	al cuadro
-1.95747	al decir
-1.614861	al derecho
-2.355924	al distinguido
-2.355924	al día
-2.355924	al edificio
-1.95747	al ejército
-2.355924	al envío
-2.355924	al estrellarse
-2.355924	al ex
-1.510092	al exterior
-2.355924	al festivo
-1.95747	al final
-2.355924	al fuego
-1.614861	al gobierno
-1.95747	al gran
-1.614861	al grupo
-1.753222	al hospital
-1.95747	al jurado
-2.355924	al leer
-1.95747	al llegar
-1.753222	al marcador
-1.95747	al marco
-1.614861	al menos
-1.95747	al mercado
-2.355924	al ministro
-1.42575	al mismo
-2.355924	al muerto
-2.355924	al otro
-1.355154	al parecer
-1.753222	al país
-2.355924	al perú
-1.95747	al poder
-2.355924	al político
-2.355924	al presente
-1.95747	al principio
-1.753222	al problema
