
\data\
ngram 1=2756
ngram 2=11602

\1-grams:
-53.310211	</s>	0
-63.707413	<s>	0
-24.701206	a	0
-21.980762	abajo	0
-23.217943	abandonada	0
-32.840321	abandonado	0
-16.996119	abarcan	0
-45.348274	abastecimiento	0
-21.236485	abatir	0
-19.772406	abierta	0
-24.452765	abiertas	0
-17.455400	abierto	0
-25.574518	abra	0
-24.548174	abrigamos	0
-23.938850	abril	0
-27.150099	abrió	0
-16.159187	abstracto	0
-22.940794	abundan	0
-16.977587	aburrida	0
-40.840057	acaba	0
-26.373085	acaben	0
-25.052824	acaso	0
-20.336538	acatamiento	0
-23.837791	acceder	0
-23.230642	acceso	0
-22.340330	accidente	0
-27.122681	acciones	0
-23.869993	acción	0
-29.600260	acelerar	0
-22.673971	acento	0
-19.980579	aceptable	0
-20.270433	aceptar	0
-17.042356	aceptarla	0
-21.479755	acepto	0
-27.369514	aceptó	0
-23.566591	aclara	0
-17.966942	aclararlo	0
-26.489893	acomete	0
-26.735420	acontecimiento	0
-20.175171	acopla	0
-23.315845	acordaron	0
-23.569963	acordó	0
-28.989246	acortarán	0
-16.524710	acosta	0
-31.452148	actitud	0
-27.851442	actividad	0
-24.296535	actividades	0
-34.689899	activo	0
-21.287222	activos	0
-27.645405	acto	0
-20.304504	actor	0
-24.110165	actuaciones	0
-19.777903	actual	0
-32.322495	actualidad	0
-38.626026	actualizan	0
-38.191322	actualizar	0
-20.538105	actualmente	0
-29.303440	actuando	0
-21.187614	actuar	0
-28.201998	actuaré	0
-22.970442	acude	0
-25.349611	acuerdan	0
-29.521551	acuerdo	0
-23.714262	acusaciones	0
-24.003334	acusados	0
-28.374632	adelante	0
-30.145216	adelanto	0
-18.078186	además	0
-26.481136	adicionales	0
-27.858498	adiós	0
-23.290316	adjudica	0
-26.821077	adjudicada	0
-26.307089	adjunta	0
-28.145975	adjuntan	0
-22.230999	adjunto	0
-25.604202	admite	0
-22.887068	adoptado	0
-26.915657	adoptará	0
-18.702597	adoptarán	0
-26.397614	aducía	0
-24.472443	advirtió	0
-22.047409	aeropuerto	0
-27.067501	aeropuertos	0
-17.994247	afectados	0
-28.098566	afiliación	0
-28.220877	afirma	0
-25.264681	afirmativo	0
-20.034845	afirmó	0
-26.779436	agencia	0
-24.658911	agente	0
-26.790945	agradecemos	0
-23.012646	agradeceremos	0
-44.651939	agradecerle	0
-24.690054	agradezco	0
-24.439922	agrava	0
-26.266804	agravó	0
-21.884142	agregó	0
-26.550190	agresión	0
-25.356825	agrupación	0
-23.035692	agrícola	0
-37.699089	agua	0
-18.081188	aguarda	0
-33.409996	aguarme	0
-34.476448	aguas	0
-26.777956	ahondar	0
-23.846684	ahora	0
-23.755184	ahorra	0
-20.147655	ahí	0
-27.493158	aislamiento	0
-20.630571	ajustará	0
-27.523081	al	0
-29.216528	albacora	0
-22.486723	aldeas	0
-26.800056	alegatos	0
-22.796938	alemania	0
-20.585306	alemán	0
-29.835629	alfonsín	0
-24.675478	algo	0
-23.925394	alguna	0
-20.149332	algunas	0
-14.890785	alguno	0
-27.221291	algunos	0
-28.193493	alimentaria	0
-27.288122	alla	0
-21.571377	allen	0
-22.933998	allá	0
-18.562487	allí	0
-20.480289	alrededor	0
-36.099491	alta	0
-25.301659	altibajos	0
-22.632015	alto	0
-23.258852	alvaro	0
-25.471964	alza	0
-22.003910	amable	0
-19.102861	amazónico	0
-28.163635	ambas	0
-23.966799	ambos	0
-23.601076	amplia	0
-27.512423	ampliado	0
-28.958107	ampliamente	0
-27.146065	ampliar	0
-31.864746	ampliarse	0
-27.917234	amplio	0
-31.890131	amplitud	0
-32.420311	américa	0
-19.184589	analfabetos	0
-23.610752	analista	0
-27.948767	analizado	0
-19.049408	analogía	0
-36.426952	anexo	0
-19.420805	anexos	0
-22.908054	anonadado	0
-33.376648	anonimato	0
-23.421585	ante	0
-24.407925	antemano	0
-35.403065	antenas	0
-20.804909	anterior	0
-18.516365	anticipado	0
-22.569874	anticipó	0
-42.920006	antología	0
-25.488207	anual	0
-29.342863	anunciado	0
-25.821526	anunciados	0
-38.869305	anunciar	0
-23.900627	análisis	0
-48.184784	apagones	0
-26.635818	aparecen	0
-24.423191	aparentemente	0
-26.980206	apelables	0
-23.964909	apelación	0
-17.661781	apelado	0
-21.474401	apertura	0
-30.634056	aplicación	0
-20.975908	aplicar	0
-23.871075	aportaciones	0
-19.405668	apoyo	0
-37.065296	apremio	0
-27.259878	aprobación	0
-22.517393	aprobado	0
-20.903334	aprobar	0
-42.520351	aprobaron	0
-22.444052	aprobó	0
-21.670292	aproximadas	0
-20.039305	aprueba	0
-22.047846	apuntarán	0
-22.833881	aquella	0
-30.361774	aragón	0
-18.690521	arbitraje	0
-34.217667	aremisos	0
-27.779051	argentina	0
-26.135124	argentino	0
-27.935713	arias	0
-16.215950	aristide	0
-42.628841	arma	0
-29.315802	armamento	0
-18.569632	armas	0
-21.959137	arrecian	0
-29.252907	arreglo	0
-12.912520	arrestado	0
-20.016817	arroz	0
-17.854223	arte	0
-30.925201	artistas	0
-23.837393	artículo	0
-16.876989	artículos	0
-26.430882	asalariados	0
-25.669407	asamblea	0
-26.636412	ascenso	0
-24.557865	asegurado	0
-38.504322	asesinar	0
-19.915344	aseveró	0
-32.396515	asignación	0
-22.257034	asimismo	0
-30.818453	asisten	0
-28.454117	asistencia	0
-25.257128	asociado	0
-19.263077	asombro	0
-37.511635	aspecto	0
-18.123817	aspectos	0
-21.003628	aspin	0
-16.807234	assad	0
-24.889290	astronautas	0
-24.052540	asumiría	0
-24.842495	asunto	0
-30.747480	asuntos	0
-22.586332	así	0
-16.752607	atacar	0
-21.108149	ataque	0
-22.488199	ataúd	0
-28.648399	atención	0
-24.446733	atender	0
-30.024784	atentado	0
-38.351643	aterrizó	0
-24.550364	atlanta	0
-22.983789	atraer	0
-18.914120	atraviesan	0
-27.395226	atribuírlo	0
-25.186857	atrás	0
-32.495850	atuendo	0
-33.595989	audaz	0
-26.088226	audiencias	0
-22.797943	aumenta	0
-30.262726	aumentado	0
-22.330841	aumentaron	0
-31.822365	aumentos	0
-34.298550	aumentó	0
-17.653809	ausencia	0
-38.457355	australiano	0
-27.211241	autobús	0
-28.073776	autoevaluaciones	0
-21.885254	automóvil	0
-23.086592	automóviles	0
-22.299580	autor	0
-24.682058	autoridades	0
-25.737026	avance	0
-22.205637	avancen	0
-18.332838	avances	0
-33.384064	avanza	0
-28.532383	avanzado	0
-25.594332	avaro	0
-19.761599	avendaño	0
-19.691839	avisaremos	0
-31.599695	avión	0
-24.509163	ayer	0
-26.049719	ayuda	0
-23.184591	ayudará	0
-25.827486	aérea	0
-23.564156	aéreos	0
-20.412792	añadió	0
-8.439191	año	0
-22.448875	años	0
-25.432722	aún	0
-22.709000	baja	0
-26.613216	bajaron	0
-32.339939	baje	0
-23.769442	bajo	0
-22.521046	bajos	0
-22.493279	balladur	0
-17.367231	bancario	0
-22.910305	banco	0
-27.284349	bancolombia	0
-32.914425	bancos	0
-33.375164	basa	0
-25.406055	basado	0
-27.384968	base	0
-32.436253	bastante	0
-25.530245	basándose	0
-18.736303	batalla	0
-30.798355	batallones	0
-26.661346	baviera	0
-19.851381	beca	0
-37.866539	bena	0
-26.498894	bendiga	0
-17.328159	benítez	0
-25.045553	berlín	0
-13.756329	bernardin	0
-20.446543	bernardo	0
-34.664570	bielorrusia	0
-29.359602	bien	0
-27.674578	bienvenida	0
-31.394846	blancos	0
-16.773766	blum	0
-28.153549	bogotá	0
-33.683250	bola	0
-30.012819	bomba	0
-22.720673	bondes	0
-26.220482	bonn	0
-30.599947	bonos	0
-25.693329	boquete	0
-24.348993	borrador	0
-15.912699	borrados	0
-18.042395	bosnia	0
-18.347818	bosques	0
-24.383589	brasil	0
-14.811154	brasileño	0
-25.189856	breve	0
-20.695555	brevemente	0
-25.572437	bruselas	0
-28.439116	buceador	0
-30.413502	buen	0
-19.315180	bueno	0
-23.176109	busca	0
-26.214437	buscamos	0
-36.385212	buscar	0
-17.400774	básicos	0
-24.191013	bósforo	0
-17.647945	cabe	0
-25.597538	cabo	0
-21.417356	cabría	0
-22.897139	cachemira	0
-26.660131	cada	0
-39.045345	cadena	0
-27.418554	caer	0
-23.088787	cafetería	0
-32.622112	caja	0
-22.355471	caldera	0
-27.055405	calefacción	0
-27.738190	calidad	0
-26.850891	camacho	0
-22.798319	cambiado	0
-18.707554	cambio	0
-26.906822	cambios	0
-35.178650	cambió	0
-20.835426	campamento	0
-20.223755	campaña	0
-31.504597	campeones	0
-28.431965	campo	0
-30.997189	canalizó	0
-28.465860	canciller	0
-14.662568	cancillería	0
-27.170767	candidato	0
-24.134714	candidatos	0
-33.145489	cantante	0
-26.414442	cantidad	0
-37.439316	capacidad	0
-21.515930	capaz	0
-19.860476	capital	0
-18.398571	captura	0
-21.666943	capítulo	0
-21.019754	cara	0
-35.944141	caracas	0
-33.368015	caravana	0
-25.912973	carbón	0
-21.760330	cardona	0
-30.623369	carece	0
-26.197634	carga	0
-28.718044	cargo	0
-28.501450	carlos	0
-17.761736	carnaval	0
-24.251886	caro	0
-28.761801	carrera	0
-19.324396	carta	0
-27.577452	cartas	0
-25.806810	carteles	0
-24.755497	casa	0
-24.380934	casas	0
-30.164467	casi	0
-16.663866	casino	0
-30.726284	caso	0
-17.097994	casos	0
-45.301479	casó	0
-32.932053	catedral	0
-23.947725	catorce	0
-20.618990	católica	0
-22.135353	causa	0
-40.491646	causas	0
-31.953447	causó	0
-23.752699	cavallo	0
-17.674929	cayeron	0
-45.795868	cañoneos	0
-24.135326	ceda	0
-18.324314	cedería	0
-20.012102	celebración	0
-28.395437	cenizas	0
-29.327421	central	0
-34.768211	centro	0
-17.864300	centroamérica	0
-31.894104	cerca	0
-13.500410	cero	0
-21.698013	cerrados	0
-24.640005	cerrar	0
-23.842722	cerraron	0
-26.856491	cerrará	0
-24.804230	cerveza	0
-24.243603	cesación	0
-19.464184	cesar	0
-24.426771	cese	0
-28.815208	cetáceos	0
-22.522104	chiapas	0
-23.791973	chile	0
-33.815472	chileno	0
-23.010334	china	0
-18.771072	chocó	0
-25.408487	choferes	0
-28.699541	choques	0
-29.464607	ciega	0
-12.454967	cielo	0
-28.480280	ciento	0
-31.035583	científicos	0
-31.814545	ciernen	0
-20.649889	cierra	0
-22.100866	cierre	0
-21.517040	cierto	0
-26.717085	cifra	0
-19.042913	cifras	0
-19.730309	cinco	0
-22.591475	ciudad	0
-22.033577	civiles	0
-23.059639	civilizados	0
-23.305330	claro	0
-22.967049	clase	0
-34.141373	clasificación	0
-26.093449	claudio	0
-23.339216	clausura	0
-31.533072	clausuran	0
-29.032337	claves	0
-24.487522	climáticos	0
-22.616009	clinton	0
-31.885849	coalición	0
-19.553207	coherencia	0
-24.722315	colaboración	0
-18.931936	colaborar	0
-27.365643	coleman	0
-26.282431	colombia	0
-21.256159	colombo	0
-23.834597	colonos	0
-23.300909	columna	0
-38.201431	combates	0
-18.606962	combatir	0
-29.391317	combustible	0
-30.092739	comedia	0
-25.208179	comentado	0
-19.983891	comentar	0
-24.649475	comentario	0
-18.777813	comentarios	0
-35.223408	comentó	0
-23.732206	comenzar	0
-21.093016	comenzará	0
-28.470665	comenzarán	0
-20.687281	comerciales	0
-34.367348	comercializó	0
-25.442881	comercio	0
-22.040981	comienza	0
-20.766834	comienzo	0
-19.929398	comisionista	0
-29.016455	comisión	0
-24.662394	comité	0
-34.086880	comités	0
-29.760935	como	0
-24.823246	compara	0
-28.424681	comparte	0
-40.973560	comparten	0
-22.950396	compartieron	0
-35.936958	comparó	0
-22.172466	compasión	0
-26.859854	compatible	0
-20.349066	compañía	0
-29.206820	compensatorias	0
-16.536825	competitiva	0
-28.644232	complace	0
-21.474016	complaciente	0
-29.630800	complejo	0
-13.461624	complejos	0
-28.208231	completa	0
-14.235278	completan	0
-18.362864	completo	0
-18.676706	completos	0
-22.629025	completó	0
-24.710173	complicadas	0
-20.198488	composición	0
-40.784431	compras	0
-21.136332	comprende	0
-24.024275	comprendemos	0
-24.294739	comprender	0
-27.100313	comprenderse	0
-35.743786	comprenderá	0
-24.785526	comprendió	0
-14.552024	comprensión	0
-29.286509	comprometido	0
-11.287737	compromiso	0
-22.633234	común	0
-25.693419	con	0
-20.359118	concebido	0
-27.514709	concepto	0
-25.538544	conciencia	0
-25.624649	conclusiones	0
-42.805542	conclusión	0
-35.306046	concluye	0
-15.513890	concluídas	0
-30.427294	concluído	0
-13.287788	concreta	0
-25.535948	concretos	0
-27.419832	concuerda	0
-33.599743	concéntrese	0
-22.798414	condena	0
-16.230568	condenatorio	0
-25.948250	condiciones	0
-29.567030	condición	0
-41.608768	conductor	0
-24.174768	condujo	0
-29.805519	conexión	0
-20.535446	conferencia	0
-24.826895	confianza	0
-22.859194	confidenciales	0
-28.851402	confirmado	0
-29.988089	conflictos	0
-40.734367	conforme	0
-21.321262	confuso	0
-31.129757	congelarían	0
-23.572590	congreso	0
-21.711414	conoce	0
-22.532108	conocen	0
-27.742134	conocer	0
-19.849058	conocerla	0
-28.845921	conocida	0
-25.124332	conocido	0
-27.513151	conocimiento	0
-31.350639	consecuencia	0
-21.412216	consecutivos	0
-17.650896	conseguir	0
-26.933819	consejo	0
-28.264959	consenso	0
-33.436195	conservación	0
-21.410501	considera	0
-23.751341	considerablemente	0
-16.641701	consideración	0
-24.933115	consideró	0
-18.173708	consignaciones	0
-35.993313	consiguiente	0
-24.550169	consta	0
-16.796185	constante	0
-24.804218	constantemente	0
-26.321848	constituirán	0
-32.960239	constituye	0
-29.670313	construcciones	0
-23.656075	construir	0
-29.138239	consulta	0
-24.280279	consumado	0
-19.450897	consumo	0
-23.122992	contactado	0
-35.205482	contacto	0
-34.403717	contaduría	0
-21.148466	contemplaba	0
-23.600121	contenido	0
-26.373423	conteo	0
-20.021631	contestaron	0
-26.048681	contextos	0
-36.764351	continuaban	0
-33.578587	continuación	0
-30.723839	continuado	0
-24.770071	continuar	0
-26.546766	continuaran	0
-17.983509	continuaremos	0
-31.457079	continuarán	0
-18.847927	continúa	0
-42.496624	continúe	0
-35.020851	continúen	0
-25.081966	contra	0
-21.316513	contradicciones	0
-18.048294	contrario	0
-24.976274	control	0
-20.189558	controlado	0
-37.809906	convencidos	0
-22.928358	convención	0
-19.249807	conveniente	0
-25.451200	conversaciones	0
-20.154209	cooperación	0
-16.051653	coordinación	0
-31.841471	copa	0
-22.776611	copia	0
-27.019794	copiar	0
-43.737450	copias	0
-30.546871	cordinar	0
-21.397888	correa	0
-37.106812	correcta	0
-21.388887	correctas	0
-19.154625	correcto	0
-35.306389	corregirse	0
-44.593243	correr	0
-25.362804	correspondientes	0
-23.126751	correspondía	0
-27.706575	corro	0
-25.394630	corros	0
-22.423145	corrupción	0
-22.529942	cortar	0
-33.441616	corte	0
-22.677366	cortes	0
-26.906094	corto	0
-24.015953	cosa	0
-22.444071	cosas	0
-38.398678	costa	0
-25.994829	costo	0
-16.910465	costosas	0
-21.268625	cotización	0
-31.064156	cotizó	0
-22.729376	creado	0
-45.413708	crean	0
-23.990093	creciente	0
-26.576878	crecimiento	0
-28.455931	cree	0
-30.345083	creen	0
-28.906248	creo	0
-24.699444	creíamos	0
-31.148773	creó	0
-21.514805	crisis	0
-32.203827	cristal	0
-27.563395	criterios	0
-32.949551	critica	0
-22.239679	criticará	0
-21.138691	crucial	0
-13.262197	crudo	0
-28.241070	cruzada	0
-20.235567	crédito	0
-27.926638	críticas	0
-19.759676	críticos	0
-21.678011	cuadro	0
-34.263474	cuadros	0
-23.408873	cual	0
-21.120731	cualquier	0
-17.171955	cuando	0
-32.529324	cuanto	0
-20.608965	cuantos	0
-21.130949	cuarenta	0
-21.018925	cuarta	0
-24.331621	cuatro	0
-22.502275	cuba	0
-33.428387	cubierta	0
-38.685432	cuenta	0
-24.546799	cuentas	0
-24.342749	cuesta	0
-27.240980	cuestionario	0
-27.013496	cuestiones	0
-28.383379	cuestión	0
-28.038620	cuidadosamente	0
-15.722456	cuidadosos	0
-39.894428	cuidan	0
-24.947786	culpable	0
-22.246441	culpables	0
-23.888752	cultura	0
-30.745506	cumplen	0
-19.558384	cumplimiento	0
-24.180071	cumplir	0
-17.411085	cumplirán	0
-21.917610	curso	0
-34.500633	cursos	0
-28.921804	cuál	0
-22.429533	cuáles	0
-23.478466	cuándo	0
-27.789843	cuánta	0
-28.505121	cámara	0
-26.346409	césar	0
-24.411758	cólera	0
-27.608725	cómo	0
-27.851118	daba	0
-23.939482	dadi	0
-25.755625	dado	0
-21.751575	dan	0
-20.931282	dar	0
-27.933876	dañados	0
-25.941494	daños	0
-19.588781	de	0
-31.989477	debajo	0
-22.569332	debamos	0
-30.913532	debate	0
-27.135674	debatir	0
-32.446720	debatió	0
-22.524033	debe	0
-30.837694	debemos	0
-27.736122	deben	0
-17.768406	deber	0
-23.381994	deberá	0
-19.827599	debería	0
-34.059784	deberían	0
-28.713470	debido	0
-27.111681	debieran	0
-26.245159	debió	0
-27.058052	debo	0
-34.453651	debían	0
-17.131447	decenal	0
-33.409351	decepcionar	0
-16.125854	decida	0
-39.345242	decide	0
-29.321680	decidir	0
-22.399408	decidirá	0
-21.290314	decidió	0
-18.244778	decir	0
-21.074884	decisiones	0
-25.801140	decisión	0
-22.750198	declara	0
-30.524700	declaraciones	0
-20.102335	declaración	0
-28.321926	declaró	0
-20.543036	declinó	0
-24.569328	decreto	0
-29.306746	defenderemos	0
-23.179995	defenderse	0
-22.098804	defendió	0
-23.874300	defensa	0
-34.874348	definiciones	0
-20.193558	definición	0
-19.886650	definitivamente	0
-20.402761	definitoria	0
-24.200819	defraudar	0
-32.720856	degeneren	0
-36.005840	dejaba	0
-31.492867	dejar	0
-20.213352	dejará	0
-27.584545	dejó	0
-22.479729	del	0
-36.517296	delegaciones	0
-27.294245	delegación	0
-21.788357	delegados	0
-24.849808	demanda	0
-21.544613	demandado	0
-22.910694	demandante	0
-23.187223	demasiado	0
-33.101536	democracia	0
-15.311275	democráticamente	0
-33.678711	demora	0
-16.531843	demás	0
-31.245405	denunciarlo	0
-31.582886	departamento	0
-31.713411	departamentos	0
-27.208685	depende	0
-40.216949	deportiva	0
-23.843618	deprimido	0
-38.927780	depósitos	0
-38.350582	derecha	0
-21.795965	derecho	0
-37.579571	derechos	0
-24.639236	derrame	0
-19.382679	derrocamiento	0
-23.957582	desacuerdo	0
-25.215612	desalentadora	0
-20.902203	desarmados	0
-27.513767	desarmar	0
-14.352856	desarrollando	0
-25.129307	desarrollar	0
-24.021061	desarrollo	0
-22.803814	descarrilar	0
-41.452347	descartado	0
-32.126858	descartar	0
-35.403328	desconoce	0
-32.844067	describen	0
-27.603792	describir	0
-32.397915	describió	0
-23.873590	describía	0
-25.035074	descubrir	0
-38.023758	desde	0
-27.634804	desea	0
-33.954540	desempeña	0
-23.257654	deseo	0
-22.264677	desfigurada	0
-33.399822	desgarramiento	0
-23.169348	desglosarse	0
-16.592865	desgraciadamente	0
-18.546040	designar	0
-34.554577	desmantelar	0
-29.386835	desparición	0
-24.081690	desplazarán	0
-32.197174	despojado	0
-22.476406	después	0
-19.299849	destacó	0
-23.263512	destino	0
-19.168139	destruídos	0
-35.952000	desée	0
-27.350025	detalle	0
-25.398699	detalles	0
-29.195826	detenciones	0
-24.609903	detenido	0
-32.383492	determinación	0
-18.199104	determinado	0
-35.499413	determinan	0
-30.929049	determinarse	0
-13.309632	determinará	0
-36.185799	detrimento	0
-25.321381	detuvo	0
-28.237335	deuda	0
-27.970201	diario	0
-19.213293	diarrea	0
-25.334122	dice	0
-30.661259	dicen	0
-27.135517	dichas	0
-20.230215	dicho	0
-32.378960	dichos	0
-24.526100	dieciséis	0
-28.589968	diez	0
-18.256128	diezmada	0
-22.873354	diferencias	0
-21.311409	diferentes	0
-25.130606	diferido	0
-26.170792	dificultades	0
-27.354715	difícil	0
-32.413044	difíciles	0
-24.590897	dije	0
-25.347433	dijeron	0
-28.109583	dijo	0
-18.186848	dinero	0
-27.400522	dio	0
-25.269457	dios	0
-16.611479	diplomática	0
-22.714060	diplomático	0
-32.020859	diplomáticos	0
-33.883553	diputado	0
-24.176245	dirección	0
-26.183474	director	0
-29.172579	directorio	0
-29.997784	directrices	0
-30.312607	dirige	0
-23.687553	dirigentes	0
-32.927212	dirigió	0
-19.585461	dirigía	0
-14.640176	disculpen	0
-38.492355	discutir	0
-19.881239	discutiremos	0
-29.336670	discutirlo	0
-14.676696	discutiéndolo	0
-34.711079	diseño	0
-29.207506	disminución	0
-26.075333	disparos	0
-28.132927	dispensado	0
-27.438099	dispone	0
-17.428926	disponible	0
-19.116770	disposición	0
-21.975231	dispuestos	0
-25.968472	disputa	0
-22.380499	dista	0
-13.125793	distinguido	0
-23.046762	distintos	0
-20.636127	distraído	0
-41.379597	distribuirá	0
-24.787971	disturbios	0
-18.736919	divergencias	0
-25.861195	diversidad	0
-19.739958	diversión	0
-29.516657	diversos	0
-23.480371	divida	0
-17.516880	divididas	0
-23.558836	dividido	0
-36.006222	división	0
-18.160063	divulgado	0
-36.915051	divulgara	0
-20.297184	diálogo	0
-23.033134	doce	0
-33.737892	doctrina	0
-25.531141	documento	0
-18.338247	dolorosa	0
-24.842464	dominar	0
-22.102726	dominaron	0
-24.577806	domingo	0
-19.215258	domingos	0
-24.620823	dominicano	0
-29.513092	donde	0
-22.213076	dos	0
-16.542360	dosis	0
-21.308285	doy	0
-13.570763	drogas	0
-31.464697	duda	0
-31.522406	dudamos	0
-33.094090	duración	0
-17.717257	durante	0
-18.466152	duraron	0
-23.793100	durarán	0
-21.441597	dá	0
-20.025328	dándose	0
-27.932386	dé	0
-35.927238	débil	0
-24.419395	día	0
-25.815718	días	0
-28.558924	dólar	0
-30.663546	dólares	0
-34.840675	dónde	0
-18.438025	e	0
-36.944172	echó	0
-21.931494	economía	0
-23.612200	económica	0
-20.461786	económicamente	0
-28.688519	económico	0
-16.064915	económicos	0
-19.562473	edad	0
-33.348660	edición	0
-26.324091	edificio	0
-33.998123	edmundo	0
-24.922878	educación	0
-19.534748	educadores	0
-18.016712	efectivamente	0
-23.812899	efectos	0
-29.817240	efectuará	0
-21.213804	efectuó	0
-24.132935	ejecución	0
-24.172298	ejecutan	0
-33.387516	ejército	0
-34.186005	ejércitos	0
-22.941721	el	0
-24.688793	elecciones	0
-23.024195	elección	0
-23.026531	electores	0
-24.517134	electos	0
-27.168285	elegir	0
-27.875727	elemento	0
-14.265076	elgueta	0
-34.909763	eligen	0
-43.668037	elijen	0
-27.970715	ella	0
-25.150316	ellas	0
-23.062683	ello	0
-26.081226	ellos	0
-31.920897	eléctrica	0
-34.572758	eléctricos	0
-18.221226	elías	0
-41.041233	embargo	0
-28.692066	emigrar	0
-21.550131	emiten	0
-23.529766	emotivo	0
-17.921919	empates	0
-26.667400	empezado	0
-18.132761	empleadores	0
-20.705473	empleará	0
-24.156029	empresa	0
-23.347569	empresarios	0
-22.500732	empresas	0
-23.772123	empuja	0
-22.518188	en	0
-13.054570	encarado	0
-23.591877	encomendada	0
-28.396744	encontraban	0
-21.782572	encontrar	0
-21.985899	encontrarse	0
-26.754030	encuentra	0
-25.028858	encuentran	0
-23.881021	encuentro	0
-24.341810	encuesta	0
-22.380369	energía	0
-22.951849	enero	0
-18.151476	enfatizó	0
-25.993792	enfoque	0
-20.591019	enfrenta	0
-24.595934	enmienda	0
-29.833008	enmiendas	0
-38.750961	enseñanza	0
-40.665779	ensucian	0
-35.340168	entel	0
-20.353527	entender	0
-19.054792	entendimiento	0
-44.825577	entonces	0
-25.231958	entre	0
-20.823845	entrega	0
-22.505926	entregar	0
-34.402969	entregó	0
-21.052118	entren	0
-21.793125	entrenador	0
-27.810472	envases	0
-23.396957	envíamos	0
-21.111744	envío	0
-23.175356	epicentro	0
-41.417542	epidemia	0
-26.849323	equipo	0
-23.529186	equipos	0
-26.253254	era	0
-30.389620	eramos	0
-26.231627	error	0
-24.123018	es	0
-24.832666	esa	0
-24.032318	esas	0
-21.701490	esbozan	0
-36.360477	escalas	0
-35.338444	escapa	0
-19.594631	escapar	0
-26.025867	escasez	0
-16.541107	escaso	0
-23.801458	escasos	0
-19.703756	escogieron	0
-27.307842	escojo	0
-18.547482	escritor	0
-21.564802	escritora	0
-21.253044	escuché	0
-19.906076	escépticos	0
-25.668648	ese	0
-12.031722	esencial	0
-22.588142	esfera	0
-26.967232	esfuerzos	0
-21.062260	eso	0
-25.214258	esos	0
-18.843861	espacial	0
-41.820232	espaldarazo	0
-25.323511	españa	0
-31.867792	español	0
-21.998713	especial	0
-30.390493	especialistas	0
-16.928608	especie	0
-19.496300	especificó	0
-26.775885	espectáculo	0
-18.453890	especulación	0
-25.428545	especuló	0
-21.463840	específicos	0
-29.068506	espera	0
-23.509525	esperaba	0
-24.694691	esperamos	0
-28.475979	esperan	0
-22.348751	esperanza	0
-18.520483	esperanzado	0
-25.334026	esperar	0
-27.551422	esperarse	0
-21.253897	espero	0
-27.679327	esposa	0
-26.357861	espuma	0
-24.526884	esta	0
-28.724545	estaba	0
-37.618954	estaban	0
-24.073057	establece	0
-28.231941	establecieron	0
-28.523695	establezca	0
-36.888638	estación	0
-21.627024	estadio	0
-25.728001	estado	0
-34.038784	estados	0
-23.150986	estadounidense	0
-25.920019	estallado	0
-33.807846	estallaron	0
-24.395092	estamos	0
-29.242304	estar	0
-34.068523	estará	0
-20.016582	estarán	0
-23.695776	estas	0
-22.529781	estatal	0
-26.036713	este	0
-24.782007	estero	0
-19.645876	estimadas	0
-23.606022	esto	0
-27.437273	estonia	0
-19.804775	estos	0
-33.698784	estrecho	0
-23.399467	estrellarse	0
-25.738338	estructura	0
-14.273382	estructuras	0
-17.782692	estudia	0
-26.682076	estudian	0
-17.323151	estudio	0
-30.669827	estudios	0
-27.902569	estuvo	0
-22.175444	está	0
-32.242695	están	0
-35.386982	esté	0
-20.044287	eurodólares	0
-23.647266	europa	0
-22.682079	europeo	0
-19.506084	evaluaciones	0
-26.109169	evidente	0
-14.982515	evidentemente	0
-16.448397	evitado	0
-43.758984	evitarse	0
-22.551140	evitó	0
-30.446945	evoluciona	0
-28.700880	ex	0
-20.948383	exacerba	0
-20.102772	exacerbar	0
-24.462435	examen	0
-34.972092	examinadas	0
-17.860023	examinan	0
-34.338100	examinar	0
-27.258886	examinarse	0
-27.839859	excelsior	0
-19.231110	excepción	0
-23.168673	exceso	0
-36.831635	excluyó	0
-22.139336	exhiben	0
-24.380062	exige	0
-34.713135	exigen	0
-31.121298	exigió	0
-23.162010	existe	0
-15.555386	existían	0
-19.941530	exitosa	0
-21.970793	expectativas	0
-21.322210	experiencia	0
-30.958012	explica	0
-22.209589	explicar	0
-34.289505	explicó	0
-27.004103	explosión	0
-22.814219	expresado	0
-36.833725	expresados	0
-36.949829	expresión	0
-21.057283	expresó	0
-19.811745	exterior	0
-36.451702	extirpar	0
-28.174864	extradición	0
-28.027018	extranjeros	0
-22.178053	extremadamente	0
-30.875404	fabrica	0
-33.939369	fachada	0
-39.363956	facilidades	0
-29.409004	factor	0
-15.006120	factores	0
-31.596693	fallecido	0
-20.318462	fallo	0
-21.942595	falta	0
-15.385882	fama	0
-19.376429	familia	0
-29.908527	familiares	0
-14.688942	farias	0
-27.818558	favor	0
-23.094910	favorables	0
-25.401562	favorece	0
-20.151434	favorecido	0
-23.822090	favoritos	0
-20.866623	febrero	0
-21.191586	fecha	0
-18.730207	fecsa	0
-17.433743	federal	0
-26.547302	fenosa	0
-23.472330	fenómeno	0
-25.379488	fernando	0
-27.574940	fernández	0
-23.040188	festival	0
-25.925606	festivo	0
-23.636084	figura	0
-21.353340	fijan	0
-22.862764	filipinas	0
-22.478956	filme	0
-17.790216	filosófico	0
-23.773756	fin	0
-34.138344	final	0
-21.884924	finalidad	0
-26.801102	financiera	0
-23.594154	financieras	0
-25.974247	finanzas	0
-31.010242	fines	0
-27.524281	finlandia	0
-23.774694	firmado	0
-32.166370	firmantes	0
-30.352283	firmaremos	0
-33.392902	firmeza	0
-19.004902	flagrante	0
-27.281126	flor	0
-23.366467	flujo	0
-16.357271	fondo	0
-30.936590	fondos	0
-26.372561	forma	0
-25.079899	formación	0
-25.250561	forman	0
-26.900328	formato	0
-31.021196	formularon	0
-24.430532	forzosamente	0
-22.896954	fracasa	0
-20.446667	fracasado	0
-21.191038	francas	0
-25.687498	francfort	0
-22.021538	francia	0
-26.435221	francés	0
-18.302141	franja	0
-16.138268	frecuencia	0
-25.981892	frecuente	0
-20.824764	frenado	0
-22.704613	frente	0
-38.277058	frío	0
-23.878265	fue	0
-22.599445	fuego	0
-39.713551	fuente	0
-24.814548	fuera	0
-36.930191	fueran	0
-23.687860	fueron	0
-33.276123	fuerte	0
-27.424328	fuertemente	0
-27.383821	fuertes	0
-27.222992	fuerza	0
-19.993710	fuerzas	0
-21.835695	fugitivo	0
-22.738974	fumaba	0
-24.448488	funcionario	0
-29.116488	funcionarios	0
-22.758240	funciones	0
-25.802629	futuro	0
-35.304829	fábrica	0
-25.889954	físico	0
-25.404676	fórmula	0
-32.535141	galardona	0
-28.743010	galería	0
-43.286907	galina	0
-44.111427	gama	0
-24.216478	gana	0
-18.363003	ganado	0
-33.282639	ganando	0
-25.235834	ganar	0
-9.522745	gane	0
-14.821412	garcía	0
-22.397480	gas	0
-27.778490	gastos	0
-25.742868	general	0
-28.051241	generales	0
-19.337963	generar	0
-18.131250	gente	0
-20.568932	georgia	0
-11.248965	germán	0
-35.368248	gestos	0
-22.239178	gigantes	0
-24.651089	ginebra	0
-32.612427	global	0
-18.948032	gobernar	0
-14.161427	gobierna	0
-27.968952	gobierno	0
-23.392759	gobiernos	0
-33.730045	goles	0
-41.531261	golfo	0
-25.270065	golpeados	0
-36.057682	golpizas	0
-19.923569	golán	0
-26.826204	gonzález	0
-28.283859	goycochea	0
-30.496115	gracias	0
-23.998262	graciela	0
-31.010786	gran	0
-17.099642	grato	0
-19.392616	grecia	0
-24.275064	grito	0
-22.671932	grupo	0
-20.005690	grupos	0
-23.776848	guayaquil	0
-25.429663	gubernamental	0
-19.529961	guerra	0
-15.999576	guerrillero	0
-21.284664	guerrilleros	0
-31.495827	gusta	0
-29.681385	gusto	0
-35.346973	ha	0
-21.811222	habanos	0
-21.521101	haber	0
-34.216709	habido	0
-28.145535	habitual	0
-15.963247	habla	0
-21.201336	hablando	0
-28.398512	hablar	0
-22.216078	habló	0
-29.657742	habrá	0
-22.815161	habría	0
-24.274801	había	0
-24.577887	hace	0
-37.485096	hacen	0
-26.708246	hacer	0
-23.126024	hacerlo	0
-18.049919	hacia	0
-26.456043	haciendo	0
-20.797510	hagan	0
-17.169874	hago	0
-27.125410	han	0
-25.614325	hará	0
-23.111012	harán	0
-22.938889	hasta	0
-29.350920	hay	0
-25.123623	haya	0
-26.665516	he	0
-26.630192	hecho	0
-22.176392	hechos	0
-28.726015	hemos	0
-30.355446	henríquez	0
-27.783653	herida	0
-16.719397	heridas	0
-14.572577	heridos	0
-34.562275	hice	0
-46.437801	hicimos	0
-18.453058	hidroeléctrica	0
-26.270708	hija	0
-36.338989	hijas	0
-26.717026	hijo	0
-23.399612	hijos	0
-33.496445	historia	0
-21.569574	histórico	0
-28.539871	hizo	0
-26.617678	hogar	0
-23.912399	hombre	0
-24.460062	homero	0
-20.488409	homicidio	0
-25.310127	honduras	0
-27.819956	honor	0
-24.357471	hora	0
-22.270071	horacio	0
-22.089014	horarios	0
-20.847805	horas	0
-22.751837	horno	0
-48.698013	hornos	0
-24.274099	horrible	0
-34.743015	horriblemente	0
-31.777821	hospital	0
-17.031721	hoy	0
-24.865715	hubiera	0
-20.182539	hubieran	0
-25.115856	hubo	0
-31.683243	huelga	0
-36.704777	humanidad	0
-32.509968	humanos	0
-31.683477	humildemente	0
-22.600594	huída	0
-33.938396	iberdrola	0
-25.935070	idea	0
-27.988989	ideas	0
-22.807650	identidad	0
-25.859907	identifican	0
-24.877909	ido	0
-20.299730	idénticos	0
-41.913479	ignoraba	0
-18.864105	ignorado	0
-18.743263	igual	0
-25.066521	igualdad	0
-23.461889	igualmente	0
-22.484440	ilaria	0
-16.011999	ilusiones	0
-24.056591	imagen	0
-23.494244	imaginación	0
-27.612158	imitado	0
-22.478577	impidió	0
-24.311213	implantara	0
-21.499025	importa	0
-22.824459	importaba	0
-22.254072	importancia	0
-12.074690	importante	0
-17.861105	importantes	0
-20.295042	impositivas	0
-30.384825	improvisados	0
-24.079882	impuestos	0
-16.170200	impulsar	0
-30.920845	impuso	0
-22.135283	inaceptable	0
-19.334822	inaplicable	0
-37.625298	incautaron	0
-21.572121	incendio	0
-21.080412	incentivo	0
-27.004791	incentivos	0
-24.171953	inciertas	0
-31.149952	incluso	0
-29.771957	incluye	0
-28.059938	incursiones	0
-24.200987	indebido	0
-34.357605	independencia	0
-12.094775	independientemente	0
-39.241364	indica	0
-18.165777	indican	0
-25.243071	indicios	0
-23.684481	indicó	0
-29.951921	indios	0
-14.505731	indique	0
-15.478456	indispensable	0
-16.478544	inductivo	0
-33.526104	industria	0
-24.479614	industrializados	0
-27.250887	inevitable	0
-20.221373	inflación	0
-24.127815	influencia	0
-24.394335	información	0
-27.495766	informado	0
-30.159698	informados	0
-24.520554	informe	0
-21.763668	informes	0
-24.034746	informó	0
-27.352179	inglaterra	0
-20.552444	inglés	0
-36.746239	inicia	0
-14.159250	inician	0
-26.488811	iniciativa	0
-21.226496	iniciativas	0
-25.418154	inmediato	0
-9.953054	inmediatos	0
-21.511053	inquieto	0
-17.676392	inscriben	0
-24.653238	insiste	0
-23.018648	insistió	0
-14.515018	inspectores	0
-36.843472	insta	0
-26.406881	instalaciones	0
-22.833031	instalan	0
-23.061176	institucionaliza	0
-27.244499	integra	0
-31.020819	intelectual	0
-18.339996	intención	0
-23.116735	intensas	0
-36.895267	intentaran	0
-33.401436	intento	0
-17.115665	interbancaria	0
-26.252647	interesados	0
-21.871500	interior	0
-17.939747	interna	0
-26.070910	internacional	0
-25.244333	internacionales	0
-27.408554	intervencion	0
-47.889065	interventor	0
-29.880339	interés	0
-23.329260	intolerable	0
-29.478466	inutilizables	0
-23.579432	inventado	0
-17.681780	inversiones	0
-17.601517	inversionistas	0
-22.902981	investigaciones	0
-23.094496	investigación	0
-19.135996	invierno	0
-28.430573	ir	0
-21.262638	irreal	0
-23.779299	irregular	0
-31.797701	irrelevante	0
-42.108719	irá	0
-30.480953	irán	0
-20.667564	iría	0
-20.818462	israel	0
-24.038206	israelíes	0
-22.561361	italia	0
-32.951935	itinerario	0
-33.116814	jaime	0
-29.343081	janeiro	0
-32.278023	japoneses	0
-19.878418	japonés	0
-29.130400	japón	0
-20.280355	jerusalén	0
-19.130136	jerárquicas	0
-20.739347	jesús	0
-18.445122	juan	0
-27.747257	jubilaciones	0
-35.816238	juega	0
-27.624334	juego	0
-20.803015	jueves	0
-33.348770	jugado	0
-28.090736	jugar	0
-33.332951	jugará	0
-31.915651	juicio	0
-19.891743	juicios	0
-25.242985	julio	0
-23.435720	junio	0
-29.086647	junta	0
-26.715313	jurado	0
-25.309507	jurista	0
-28.034058	justa	0
-24.641953	justicia	0
-25.004864	justifica	0
-27.308495	justificación	0
-25.178896	justificadas	0
-30.580807	juventud	0
-23.257133	la	0
-25.035503	labor	0
-20.839586	lacalle	0
-23.205328	ladra	0
-23.759979	lamenta	0
-25.446997	lamentaba	0
-29.796619	lamentablemente	0
-33.231850	lamentó	0
-24.249437	lanzarse	0
-30.723915	largo	0
-30.019373	las	0
-25.684589	latina	0
-24.586414	le	0
-33.536594	leer	0
-18.497393	legal	0
-29.536469	legalizar	0
-27.837261	lejos	0
-26.371481	lengua	0
-35.576210	lento	0
-19.301584	lentos	0
-26.583828	les	0
-24.359642	lesionadas	0
-26.262785	lesionados	0
-23.795288	lesiones	0
-33.433788	lesión	0
-30.851316	levantando	0
-29.799622	leve	0
-22.836496	ley	0
-27.202026	liberal	0
-28.608459	liberarían	0
-29.816231	libertad	0
-32.173000	libre	0
-25.994736	lienzo	0
-34.282429	liga	0
-17.443810	ligera	0
-24.321629	ligeramente	0
-21.231949	limitado	0
-25.906750	limitados	0
-34.601513	limitan	0
-22.492464	linares	0
-24.738525	liquidar	0
-26.329033	lista	0
-28.127935	listas	0
-18.841990	llamarse	0
-18.890377	llameante	0
-24.984983	llamó	0
-24.470482	llega	0
-34.483067	llegado	0
-27.704950	llegar	0
-25.868320	llegue	0
-20.066137	llegó	0
-31.188951	lleras	0
-28.697964	llevaría	0
-22.482815	llevé	0
-33.807861	llevó	0
-22.711979	lo	0
-19.978884	local	0
-48.961021	locales	0
-42.402599	localizó	0
-22.812160	logrado	0
-23.871872	lograr	0
-40.831211	logros	0
-27.061279	logísticamente	0
-22.133163	londres	0
-25.966272	los	0
-23.773891	lucha	0
-25.123217	luego	0
-21.645540	lugar	0
-20.357510	lugares	0
-20.683840	lunes	0
-30.297100	líder	0
-34.040051	líderes	0
-26.378176	límite	0
-30.699959	línea	0
-15.943276	lógicamente	0
-26.212605	madrazo	0
-29.939322	madrid	0
-32.492661	madurez	0
-36.863750	maestra	0
-29.713135	magnitud	0
-27.852255	mal	0
-22.492056	mala	0
-33.813103	malas	0
-18.654488	malo	0
-36.364220	manada	0
-21.667858	mandato	0
-16.089327	mandela	0
-25.533306	manera	0
-37.972351	manifestar	0
-21.712133	maniobra	0
-24.591768	maniobras	0
-37.652805	mantendrán	0
-35.057217	mantener	0
-22.437405	manteniendo	0
-28.088003	mantenimiento	0
-35.773617	mantiene	0
-41.631207	mantuvieron	0
-33.251820	mantuvo	0
-24.753920	mapuche	0
-27.929115	mar	0
-26.583046	marcador	0
-24.851690	marchaba	0
-17.429482	marco	0
-20.023565	marcos	0
-31.150585	marfil	0
-38.801704	margen	0
-31.749792	marismas	0
-20.219206	martes	0
-21.460384	marzo	0
-15.675205	masiva	0
-25.412132	matar	0
-28.871586	materia	0
-26.653664	material	0
-34.675251	materialize	0
-26.952353	mayo	0
-19.188461	mayor	0
-38.635368	mayores	0
-20.508722	mayormente	0
-30.787085	mayoría	0
-18.268856	mañana	0
-26.132408	me	0
-26.028046	mecanismos	0
-27.969503	media	0
-19.935736	medianoche	0
-33.596943	mediante	0
-29.456224	medicina	0
-22.801374	medida	0
-34.663353	medidas	0
-24.329000	medio	0
-22.606829	mediocampo	0
-19.942410	medios	0
-29.288860	mejor	0
-32.067310	mejorado	0
-33.727928	mejoramiento	0
-27.911285	mejoran	0
-34.498341	mejorar	0
-23.222584	mejores	0
-22.908911	memorando	0
-29.189560	menciona	0
-18.332111	mencionado	0
-24.142965	mencionar	0
-28.863039	menem	0
-20.417168	menores	0
-28.965446	menos	0
-21.834988	mensuales	0
-34.776443	menudo	0
-22.094149	mera	0
-28.375700	mercado	0
-35.994453	mercados	0
-22.903982	mercosur	0
-25.395100	mercouri	0
-23.061224	mesa	0
-20.537701	meses	0
-21.510408	meta	0
-22.540295	mi	0
-18.195559	miedo	0
-29.593971	miembro	0
-17.840385	miembros	0
-23.754133	mientras	0
-21.044796	migrantes	0
-23.745470	miguel	0
-18.431072	miguelito	0
-23.707933	mil	0
-19.848190	militar	0
-19.947866	militares	0
-30.703382	millonario	0
-27.943508	millones	0
-19.262466	milán	0
-16.598598	mina	0
-17.245417	mineros	0
-18.613781	ministerial	0
-33.834839	ministerio	0
-27.892460	ministro	0
-18.208450	ministros	0
-18.798372	minucioso	0
-21.533342	minuto	0
-28.802147	mir	0
-25.440596	mis	0
-35.991051	misericordia	0
-21.191307	misma	0
-21.032814	mismas	0
-28.111561	mismo	0
-19.679220	mitad	0
-26.894213	miércoles	0
-27.912704	moción	0
-20.341856	modelo	0
-32.056000	modelos	0
-29.600285	moderado	0
-22.771040	modernos	0
-26.892084	modestos	0
-21.999186	modificó	0
-25.827618	molesta	0
-20.508135	momento	0
-26.121365	momentos	0
-18.871740	monarquía	0
-19.090258	monografías	0
-24.192680	monopolio	0
-34.935257	monselas	0
-21.485380	montenegro	0
-21.553093	morirá	0
-21.378618	moscú	0
-25.256588	mostró	0
-33.183502	motivo	0
-25.937050	moverlo	0
-20.924688	mucha	0
-21.881596	muchacha	0
-29.051296	muchas	0
-24.081896	mucho	0
-23.819349	muchos	0
-23.764261	muere	0
-14.775593	mueren	0
-19.878408	muerte	0
-18.935965	muerto	0
-22.684643	muertos	0
-36.922421	muestra	0
-17.131435	muestras	0
-27.166647	mujer	0
-18.921297	mujeres	0
-15.186468	multas	0
-27.575336	mundiales	0
-30.708405	mundo	0
-23.795877	murieron	0
-24.346369	murió	0
-21.192410	murmura	0
-16.380724	musulmanes	0
-16.996393	muy	0
-23.846836	más	0
-19.053402	mástil	0
-30.906849	médica	0
-22.057177	médicos	0
-22.540394	méxico	0
-31.234442	mí	0
-22.729345	mínimo	0
-33.526974	múltiples	0
-31.671886	música	0
-19.087629	nacido	0
-22.619576	nacional	0
-17.175983	nacionalidades	0
-24.231459	naciones	0
-26.858028	nación	0
-21.312016	nada	0
-21.506136	nadie	0
-30.084843	naturales	0
-17.085951	nave	0
-31.488663	naves	0
-19.694082	necesaria	0
-20.837517	necesario	0
-26.515594	necesidad	0
-14.127783	necesidades	0
-19.101561	necesitamos	0
-28.461960	necesitan	0
-27.923294	necesitarían	0
-26.206879	negaron	0
-21.689909	negativamente	0
-19.478476	negativo	0
-24.348026	negociaciones	0
-26.985743	negociando	0
-18.000769	negocio	0
-28.241808	negocios	0
-18.421589	negra	0
-29.893126	negó	0
-28.323093	neta	0
-15.407928	ni	0
-23.455383	niega	0
-26.915043	niegan	0
-32.117638	ninguna	0
-33.728657	ninguno	0
-20.733238	ningún	0
-32.004528	nivel	0
-20.094093	niveles	0
-29.528307	niño	0
-23.265707	niños	0
-24.501045	no	0
-20.173178	noche	0
-15.325514	nombrado	0
-27.883841	nombraron	0
-17.095272	nombre	0
-38.295414	nominal	0
-14.983696	norcoreanas	0
-27.253317	normal	0
-21.930531	normalidad	0
-21.454165	normas	0
-25.080936	norte	0
-13.001717	norteamericano	0
-25.537899	nos	0
-28.767389	nosotros	0
-23.441767	nota	0
-27.899752	notable	0
-21.748180	notas	0
-25.426226	noticia	0
-24.688070	noticias	0
-23.554157	novecientos	0
-32.856815	novedad	0
-26.692726	novedades	0
-27.761690	noviembre	0
-25.293690	nuclear	0
-16.476313	nucleares	0
-24.600254	nueces	0
-21.266052	nuestra	0
-30.814322	nuestras	0
-27.306295	nuestro	0
-27.399803	nuestros	0
-20.411018	nueva	0
-24.027254	nuevamente	0
-23.776842	nuevas	0
-27.589712	nueve	0
-26.100004	nuevo	0
-25.349030	nuevos	0
-21.987679	numerosas	0
-14.597494	numerosos	0
-17.396175	nunca	0
-22.544827	o	0
-28.917540	objetivo	0
-25.823389	objetivos	0
-23.017036	objeto	0
-34.100094	obra	0
-22.600615	obras	0
-26.273415	observaciones	0
-29.368017	obstante	0
-22.760283	ocasiones	0
-25.724289	ocasión	0
-19.948490	occidental	0
-24.905382	occidente	0
-22.917782	ocho	0
-32.449150	ocupa	0
-24.390076	ocupaban	0
-23.222424	ocupados	0
-25.960011	ocurre	0
-22.601467	ocurrir	0
-21.010715	ocurrirá	0
-31.256701	oeste	0
-28.913992	ofendido	0
-23.857327	oferta	0
-25.306974	oficial	0
-24.017740	oficiales	0
-20.718964	oficina	0
-41.897507	ofrece	0
-31.627041	ofrecer	0
-18.419250	ofrecimiento	0
-29.886356	ofreció	0
-32.739704	olvidar	0
-22.964121	omar	0
-29.262562	omisión	0
-27.875313	onza	0
-20.905622	opciones	0
-29.177395	opción	0
-40.628067	operaciones	0
-24.115507	operación	0
-16.448643	operar	0
-20.650158	opinan	0
-26.164808	opiniones	0
-24.135914	opinión	0
-36.220150	opinó	0
-35.189896	oposición	0
-22.901571	opositores	0
-28.502039	optativo	0
-26.673826	optimista	0
-25.051971	optimistas	0
-39.516861	opuesta	0
-24.556993	orador	0
-27.460852	oradores	0
-17.382174	orcas	0
-23.895193	orden	0
-21.474091	ordinaria	0
-22.611319	organismo	0
-32.465740	organismos	0
-33.127106	organizar	0
-28.439026	orientado	0
-28.978306	oriental	0
-28.210308	oro	0
-26.003321	oscar	0
-25.342031	otra	0
-31.916029	otras	0
-26.236143	otro	0
-28.402929	otros	0
-14.112732	pacificadores	0
-26.316593	pacto	0
-26.117460	padre	0
-23.954483	pagado	0
-33.836555	pagan	0
-36.513451	pagar	0
-34.908482	pago	0
-28.872368	palabra	0
-28.939350	palabras	0
-32.731571	palacio	0
-20.502329	palacios	0
-29.835558	palencia	0
-13.521630	palti	0
-39.773449	pan	0
-17.623569	papa	0
-28.607054	papel	0
-24.523224	papeles	0
-24.213015	par	0
-25.725168	para	0
-34.785583	paradero	0
-18.188959	paraliza	0
-22.140430	parciales	0
-24.021515	parcialmente	0
-18.963346	parece	0
-31.255222	parecer	0
-26.000404	parlamento	0
-20.858252	parra	0
-23.929314	parte	0
-25.512421	partes	0
-30.410135	participó	0
-26.514290	particular	0
-20.388786	partidaria	0
-27.611931	partidario	0
-16.707741	partidas	0
-23.870054	partido	0
-41.917206	partidos	0
-23.923962	parís	0
-29.825708	pasa	0
-23.757990	pasado	0
-31.601484	pasajeros	0
-22.348980	pasar	0
-27.234844	paso	0
-32.606842	pasos	0
-27.108185	passarella	0
-26.442760	pasó	0
-28.083252	patrullada	0
-15.121553	paulo	0
-22.863014	paz	0
-29.317833	país	0
-24.363375	países	0
-24.372156	peleara	0
-21.359390	peligros	0
-25.044386	peligroso	0
-32.435005	pelota	0
-33.726997	película	0
-26.746786	pendientes	0
-27.303396	pensaba	0
-26.764360	pensado	0
-12.885102	pensar	0
-34.401997	pensiones	0
-23.333065	peor	0
-20.987280	pequeña	0
-18.035133	pequeño	0
-19.637247	pequeños	0
-21.825239	percibe	0
-29.118097	perdemos	0
-27.974178	perder	0
-33.141724	perdido	0
-18.769360	perdía	0
-17.869747	peres	0
-18.592625	perfecta	0
-17.222462	perfectamemnte	0
-26.467234	pericial	0
-30.724068	periodistas	0
-25.314468	periódicos	0
-33.451588	perlas	0
-30.201349	permitan	0
-18.696938	permitido	0
-19.521114	permitirse	0
-24.392988	permitirá	0
-21.291817	pero	0
-28.371975	perro	0
-28.068600	persigue	0
-23.115257	persona	0
-26.679127	personal	0
-27.475552	personas	0
-24.075106	perspicacia	0
-22.205246	pertenecían	0
-32.151653	pertinente	0
-33.506977	perturbación	0
-26.312992	peruano	0
-21.147861	peruanos	0
-25.680510	período	0
-21.936777	períodos	0
-21.652338	perú	0
-23.106400	pesa	0
-39.061878	pesca	0
-28.486477	pese	0
-26.511702	peseta	0
-18.871733	petición	0
-24.765564	petrolera	0
-33.830856	petrolero	0
-25.166573	petróleo	0
-18.636215	piano	0
-19.655899	pido	0
-32.672459	pie	0
-27.476866	piensa	0
-16.044487	pienso	0
-40.234116	piezas	0
-34.127018	pilotos	0
-22.478765	plan	0
-24.180325	planas	0
-29.451853	planeaba	0
-26.870420	planeta	0
-19.499683	planos	0
-19.520121	plantas	0
-22.719458	plantearon	0
-19.815056	plantearse	0
-32.090431	plata	0
-24.037043	plaza	0
-25.631632	plazo	0
-18.383970	pleno	0
-18.084637	plácido	0
-36.083477	población	0
-24.261829	poco	0
-20.148069	pocos	0
-14.745182	podamos	0
-21.414085	podemos	0
-28.127180	poder	0
-28.661947	poderes	0
-39.362637	poderoso	0
-30.100389	podrá	0
-22.227486	podrán	0
-29.293135	podría	0
-15.963436	podríamos	0
-18.584948	podían	0
-35.271408	polariza	0
-25.966898	polemiza	0
-14.001595	policial	0
-35.793476	policía	0
-17.528292	política	0
-22.735981	político	0
-29.104784	políticos	0
-24.628098	pondría	0
-30.514376	poner	0
-20.451456	ponernos	0
-22.815426	popular	0
-28.650473	por	0
-25.361115	porque	0
-18.140018	porqué	0
-24.762093	portero	0
-22.915707	posibilidades	0
-22.642290	posible	0
-17.863302	posiciones	0
-22.000179	posición	0
-24.739159	positivas	0
-22.424534	positivo	0
-25.769527	posterioridad	0
-24.335060	posteriormente	0
-18.706003	potestad	0
-28.606356	practique	0
-21.880619	precaución	0
-16.374500	precedente	0
-24.196096	precio	0
-23.698214	precios	0
-28.234797	preciso	0
-30.035887	precisos	0
-28.096025	preguntas	0
-20.026039	preguntó	0
-22.833176	premio	0
-22.181585	prensa	0
-22.811922	preocupación	0
-31.140413	preocupado	0
-24.155294	preocupantes	0
-19.493507	preparado	0
-43.124813	preparan	0
-25.120569	presencia	0
-36.454414	presenta	0
-30.640743	presentación	0
-36.982922	presentaron	0
-15.171154	presente	0
-24.850595	presentó	0
-20.159382	presidencial	0
-24.882872	presidenciales	0
-22.710934	presidente	0
-20.249321	presión	0
-24.154993	presos	0
-19.572908	prestó	0
-30.763567	presupuesto	0
-18.008410	pretendemos	0
-17.913031	preveo	0
-21.417118	primer	0
-19.320141	primera	0
-22.519777	primeras	0
-20.662676	primero	0
-33.743832	principal	0
-26.136209	principalmente	0
-26.280903	principio	0
-28.719969	principios	0
-18.391228	prioridad	0
-26.337616	privada	0
-25.952080	privatizaciones	0
-23.314335	probable	0
-35.503006	probablemente	0
-24.888271	problema	0
-25.055454	problemas	0
-18.085234	problemáticos	0
-24.566286	proceda	0
-26.741405	procedente	0
-21.478558	procedimiento	0
-22.546173	procedió	0
-24.945286	proceso	0
-21.437395	procesos	0
-19.242907	proclama	0
-20.163637	procupación	0
-15.209215	producción	0
-31.708153	producido	0
-15.740385	produciría	0
-24.258202	producto	0
-27.195835	productos	0
-25.851105	produzcan	0
-28.439873	programa	0
-24.710022	programado	0
-20.630083	programas	0
-23.031481	progresan	0
-21.986013	progreso	0
-29.882751	prohibe	0
-34.279015	prometido	0
-33.426826	promoverá	0
-35.838120	pronta	0
-25.161037	pronto	0
-24.893372	propaganda	0
-24.669579	propia	0
-31.308638	propio	0
-22.148275	proporciona	0
-27.252117	proporcionó	0
-37.325497	propuesta	0
-29.819193	propuestas	0
-19.250614	propuesto	0
-20.796610	propuestos	0
-21.014999	propuso	0
-29.910332	propósito	0
-32.780846	prorroga	0
-18.408064	proscribir	0
-18.481251	prostitución	0
-19.900137	proteger	0
-38.786781	protocolo	0
-35.313744	protocolos	0
-25.496574	provincia	0
-15.797697	provisional	0
-23.879183	provocaría	0
-37.600315	proyectaba	0
-28.402246	proyecto	0
-26.838942	proyectos	0
-19.522610	prudente	0
-25.778908	pruebas	0
-20.179623	práctica	0
-41.116806	prácticamente	0
-20.820869	próxima	0
-24.507837	próximamente	0
-22.337027	próximo	0
-33.893215	próximos	0
-18.354780	publicación	0
-28.253441	publicado	0
-30.523455	publicarían	0
-27.314449	pudo	0
-34.144707	pueblo	0
-34.067364	pueda	0
-24.456236	puede	0
-23.844772	pueden	0
-26.256708	puedo	0
-7.909372	puerta	0
-20.580887	puertorriqueñas	0
-27.979946	pues	0
-24.342205	puesto	0
-31.975739	pulpo	0
-29.881433	punto	0
-24.280602	página	0
-19.613329	pánico	0
-18.774647	párrafo	0
-25.964073	pérdida	0
-31.083883	pérsico	0
-21.864603	pública	0
-22.542631	públicas	0
-28.618711	público	0
-18.015491	públicos	0
-20.586149	que	0
-27.290905	queda	0
-31.124134	quedado	0
-27.326696	quedar	0
-29.041180	quedaron	0
-23.525639	quedarse	0
-27.010130	quedó	0
-18.321856	queremos	0
-36.798473	quería	0
-16.637905	queríamos	0
-24.776808	querían	0
-27.938469	quien	0
-31.399174	quienes	0
-29.973814	quieran	0
-22.074926	quiere	0
-21.185152	quieren	0
-22.028517	quiero	0
-18.483589	quinta	0
-47.137730	quise	0
-21.588068	quisiera	0
-30.749414	quiso	0
-18.165688	quito	0
-21.492916	quitó	0
-25.036673	quizo	0
-24.291044	quién	0
-21.547792	qué	0
-36.851128	quédense	0
-20.950937	racionamiento	0
-22.363028	racismo	0
-14.255518	radical	0
-20.612717	radio	0
-26.978676	ramos	0
-20.435749	rara	0
-18.327185	razon	0
-28.490791	razones	0
-28.705833	razón	0
-41.248436	raíz	0
-17.391279	reaccionar	0
-16.585726	reacción	0
-17.559010	realista	0
-20.677097	realiza	0
-30.013126	realizada	0
-13.688400	realizado	0
-31.239574	realizan	0
-37.263344	realizar	0
-39.302422	realizó	0
-27.136570	realmente	0
-22.168091	reanudada	0
-23.054544	reanudemos	0
-18.719172	rebeldes	0
-21.374765	recae	0
-33.053658	recalcan	0
-21.955967	rechazada	0
-28.053137	rechazado	0
-19.759396	rechazaron	0
-17.952671	reciben	0
-23.250093	recibido	0
-25.370302	recibir	0
-33.973270	recibió	0
-18.563009	recién	0
-35.242275	reclamaba	0
-32.416206	reclamaron	0
-21.604010	reclutarlas	0
-36.184551	recogió	0
-23.563477	recomendación	0
-28.270233	reconstrucción	0
-20.263309	recorren	0
-24.321154	recrudece	0
-43.391701	recuperado	0
-22.449356	recurrió	0
-27.815079	recurso	0
-38.011333	recursos	0
-32.841873	red	0
-28.112818	redacción	0
-29.558605	reduccion	0
-34.445007	reduce	0
-29.742008	reducida	0
-21.205805	reducido	0
-28.773218	reducir	0
-10.927931	reelegidos	0
-22.821289	referencia	0
-20.254095	referidas	0
-14.132127	referirme	0
-26.683205	referirán	0
-20.389500	referían	0
-21.281260	refiere	0
-27.710878	refinerías	0
-19.344677	refirió	0
-29.481350	reforma	0
-22.600437	reformas	0
-23.640963	refugiados	0
-21.673933	regir	0
-19.656345	registra	0
-20.895630	registrada	0
-28.046473	registro	0
-21.258585	registrándose	0
-21.061039	región	0
-18.427212	regla	0
-21.766531	reglamentaciones	0
-16.868074	regresar	0
-26.657206	regreso	0
-30.351892	regresó	0
-35.676891	regular	0
-25.637854	rehabilitar	0
-16.721781	rehusado	0
-24.193489	rehusó	0
-27.601757	reinar	0
-24.034121	reitera	0
-25.318169	relaciones	0
-18.297123	relación	0
-25.335865	relativamente	0
-22.674223	relativas	0
-19.275791	relator	0
-28.451487	relató	0
-18.459709	relevancia	0
-26.767845	religiosa	0
-25.343904	remedios	0
-30.944065	remitida	0
-27.220156	remuneración	0
-32.666553	rendimos	0
-14.470626	renovarse	0
-28.552982	renuncia	0
-20.844139	reordenados	0
-25.774313	reparaciones	0
-17.337446	repercutió	0
-28.615961	repetir	0
-12.447069	repetirse	0
-29.699192	reportó	0
-20.516073	represalias	0
-21.544510	representante	0
-32.250229	representantes	0
-41.615913	representar	0
-32.320114	reprogramación	0
-40.211395	repuesto	0
-16.250633	requerido	0
-20.831118	requerirán	0
-28.404623	requiere	0
-19.512161	requirimientos	0
-27.917324	resa	0
-26.431976	reserva	0
-16.732580	reservado	0
-17.863708	reservas	0
-18.494232	reses	0
-22.258371	resistencia	0
-18.911247	resolución	0
-27.205713	resolver	0
-23.484764	respalden	0
-20.835648	respaldo	0
-28.435890	respectivo	0
-26.295973	respecto	0
-28.122253	respetando	0
-32.589695	respetar	0
-17.397308	respiro	0
-25.242666	responder	0
-25.289154	responderemos	0
-28.636295	respondió	0
-24.117247	responsabilizado	0
-26.731068	respuesta	0
-33.720013	restableció	0
-25.999655	restantes	0
-13.349925	restaurados	0
-29.070288	resto	0
-21.089943	restos	0
-20.883556	restricción	0
-26.179501	resueltos	0
-18.206551	resulta	0
-30.611919	resultado	0
-25.567160	resultados	0
-23.852945	resultaron	0
-32.844574	retenían	0
-18.295355	retirada	0
-27.221310	retirado	0
-31.804781	retirar	0
-26.915266	retirarse	0
-20.049417	reuniones	0
-24.318647	reunir	0
-20.138807	reunirán	0
-18.676064	reunión	0
-30.698595	reuní	0
-21.480906	revelado	0
-20.346235	revelados	0
-26.153097	revelar	0
-13.484754	reveses	0
-24.131111	revisando	0
-27.847073	revisarse	0
-33.582268	revisó	0
-22.307270	revuelo	0
-27.712818	rey	0
-14.649142	reyes	0
-28.161905	reúne	0
-34.129364	riendo	0
-19.112570	riesgo	0
-41.835144	rio	0
-19.418262	ritmo	0
-19.247217	riñón	0
-34.441326	robando	0
-23.591082	rojo	0
-22.106092	rompieron	0
-27.108583	ronda	0
-23.175560	ruanda	0
-25.474920	rubro	0
-25.755445	rumbo	0
-22.936548	rumores	0
-22.670073	rusa	0
-16.614819	rusia	0
-17.658672	rusos	0
-24.965574	ruta	0
-19.594149	rutinariamente	0
-32.922405	rápidamente	0
-16.152300	régimen	0
-37.421295	río	0
-9.774151	ríos	0
-23.348034	sabe	0
-21.422325	sabemos	0
-21.891838	saber	0
-26.720766	sabotaje	0
-31.787323	sabía	0
-33.326794	sabían	0
-33.521309	sacado	0
-19.862461	sal	0
-26.778709	sala	0
-25.046375	salario	0
-11.923966	saldar	0
-26.933828	saliente	0
-21.690941	salieron	0
-22.382942	salir	0
-27.208042	salud	0
-19.258459	salva	0
-25.352753	salvador	0
-26.909306	salvar	0
-24.667007	salvo	0
-30.857893	sana	0
-35.278362	sanciones	0
-26.439602	sangre	0
-29.631002	santiago	0
-25.756870	saqueadas	0
-22.732004	sarajevo	0
-18.384846	satisfactoria	0
-26.521339	satisfactorio	0
-30.073978	saínz	0
-31.128183	se	0
-19.634089	sea	0
-18.034779	secciones	0
-29.534861	sección	0
-30.056454	secretaria	0
-26.547369	secretario	0
-19.518179	sector	0
-29.378981	sectores	0
-25.373631	seguir	0
-28.628973	seguirá	0
-28.490438	segunda	0
-16.295200	segundo	0
-20.162483	seguridad	0
-20.508013	seguro	0
-27.327034	seguía	0
-25.243059	según	0
-18.623278	seis	0
-11.719102	sela	0
-26.050930	seleccionó	0
-28.210125	semana	0
-17.293587	semanales	0
-33.889481	senado	0
-19.722818	sencilla	0
-15.768135	sencillísima	0
-27.887085	sensato	0
-35.532261	sentencias	0
-19.093336	sentir	0
-24.806736	separación	0
-16.923784	separado	0
-27.555820	separatista	0
-30.989378	septiembre	0
-28.638180	ser	0
-39.724224	serbia	0
-28.085531	serie	0
-25.856256	seriedad	0
-17.780764	serio	0
-28.433813	servicio	0
-29.371271	servicios	0
-26.564878	será	0
-22.250584	serán	0
-28.821905	sería	0
-26.396322	sesiones	0
-27.891113	sesión	0
-24.933043	setenta	0
-26.878700	severos	0
-13.159419	sevilla	0
-12.701173	sexual	0
-28.926069	señalo	0
-20.434019	señaló	0
-29.372704	señor	0
-31.014647	señora	0
-25.139071	si	0
-35.802624	sido	0
-25.250687	siempre	0
-28.549408	siendo	0
-34.049191	siente	0
-26.924545	siento	0
-19.287359	siete	0
-32.403339	significa	0
-32.374279	significar	0
-13.765763	significativamente	0
-20.436367	significativas	0
-27.159124	sigue	0
-19.664881	siguen	0
-21.697830	siguiente	0
-16.291798	siguieron	0
-32.026745	siguió	0
-38.508904	silla	0
-19.918730	silvio	0
-22.672272	similar	0
-18.758650	similares	0
-17.269285	simple	0
-42.099373	sin	0
-13.218461	sindicales	0
-26.914793	sino	0
-22.210207	sintieron	0
-26.821878	sintió	0
-35.386902	sinónimo	0
-23.404837	siquiera	0
-23.088074	siria	0
-24.502439	sistema	0
-24.877623	situación	0
-25.961050	situada	0
-23.022945	soares	0
-21.773613	soberanía	0
-24.004381	sobre	0
-29.388197	sobrevaluados	0
-22.657627	social	0
-27.844673	solamente	0
-31.765308	solares	0
-19.591885	soldado	0
-27.759829	soldados	0
-29.605064	solicita	0
-17.092699	solicitadas	0
-30.051073	solicitado	0
-23.646008	solicitud	0
-21.003658	solicitó	0
-24.177816	solucionar	0
-23.366693	solución	0
-30.969482	sometido	0
-13.719904	somos	0
-32.253872	son	0
-29.817251	sorprende	0
-20.008411	sorprendido	0
-16.486364	sostuvo	0
-26.585344	soy	0
-28.790501	su	0
-25.404732	subasta	0
-23.768188	subastan	0
-16.424372	subcontrata	0
-21.686516	sube	0
-25.392359	subieron	0
-22.537727	subprograma	0
-26.297304	subsiguiente	0
-27.298229	subtema	0
-32.674515	sucede	0
-26.153320	suceden	0
-26.188183	suceder	0
-25.414459	sucederá	0
-24.214325	sucedió	0
-26.485422	sucesión	0
-28.164560	sudamericanos	0
-39.817036	sudáfrica	0
-24.327330	suecia	0
-34.056511	sueldos	0
-21.857147	suelen	0
-22.232565	suficiente	0
-30.827051	sugerida	0
-26.656855	sugerirse	0
-28.998400	sugirió	0
-23.370281	suma	0
-28.662773	sumamente	0
-23.122066	sumario	0
-25.214954	suministro	0
-24.014446	suministros	0
-22.504702	supervisan	0
-20.095610	supimos	0
-30.810408	suprema	0
-22.863361	suprimir	0
-25.296486	supuestamente	0
-31.609837	supuesto	0
-26.687063	sus	0
-30.264372	sustanciales	0
-29.307899	sábados	0
-18.744917	sé	0
-27.006113	sí	0
-31.055489	sólo	0
-22.424978	sónica	0
-16.616438	tailandés	0
-16.918322	tajante	0
-29.160923	tal	0
-16.505447	talavera	0
-25.566004	tales	0
-24.269375	también	0
-17.077551	tampoco	0
-24.810310	tan	0
-15.105747	tangible	0
-28.481039	tanto	0
-25.887026	tarde	0
-22.852238	tarea	0
-38.477058	tarifas	0
-24.818102	tasa	0
-24.708609	tasas	0
-14.755115	te	0
-25.444231	teatro	0
-32.905449	tecnicismos	0
-24.091187	teconología	0
-27.032934	tegucigalpa	0
-36.347691	televisión	0
-24.013544	telmex	0
-22.093969	tema	0
-20.912676	temas	0
-26.111973	teme	0
-35.648205	temer	0
-17.577799	temor	0
-23.353580	templos	0
-37.977745	temporada	0
-22.531326	tendencia	0
-26.680134	tendrán	0
-17.379738	tendríamos	0
-22.977161	tenemos	0
-28.022591	tener	0
-27.983648	tenerse	0
-29.826775	tenido	0
-18.484737	tensa	0
-28.512529	tenía	0
-24.728821	teníamos	0
-24.178539	tenían	0
-20.986656	teoría	0
-23.993275	tercer	0
-16.954729	tercera	0
-37.390800	tercios	0
-19.671165	terreno	0
-16.108767	terrible	0
-26.525015	territorios	0
-23.177809	terror	0
-29.147888	tesobonos	0
-21.327984	testigo	0
-20.017422	testigos	0
-23.757446	texto	0
-24.917347	textos	0
-25.255960	tiburones	0
-26.500097	tiempo	0
-29.049486	tiempos	0
-27.204750	tiene	0
-26.372055	tienen	0
-29.639843	tierras	0
-24.011036	tipo	0
-17.185946	tipos	0
-21.340559	tirar	0
-14.132098	tiroteo	0
-21.318213	toda	0
-21.492807	todas	0
-19.886635	todavía	0
-19.349924	todo	0
-23.890799	todos	0
-23.043570	toma	0
-21.668814	tomaba	0
-31.534378	tomar	0
-19.201578	tomará	0
-13.805071	tomaría	0
-24.465553	tomarían	0
-27.631102	tomáramos	0
-34.682209	tomó	0
-14.883821	tono	0
-32.315826	toque	0
-23.758469	tormenta	0
-23.650518	torta	0
-27.028688	total	0
-29.684961	totalidad	0
-23.327375	totalmente	0
-24.680162	toyota	0
-32.433140	trabajadores	0
-20.575842	trabajan	0
-20.025484	trabajar	0
-20.623938	trabajo	0
-36.179203	trabajó	0
-25.982409	tragedias	0
-35.705070	tramos	0
-23.722464	tranquilo	0
-33.965881	transitorio	0
-28.583176	transitorios	0
-23.780540	transporte	0
-33.208553	tras	0
-18.189522	trascendental	0
-32.977528	trata	0
-36.180416	trataban	0
-24.375814	tratado	0
-22.155815	tratan	0
-33.780338	trataremos	0
-28.064697	trece	0
-20.152189	treinta	0
-19.534271	tres	0
-33.222744	tribunal	0
-22.257006	tribunales	0
-13.436106	trimestre	0
-31.940147	triple	0
-25.334482	tripulantes	0
-22.784735	triste	0
-32.351120	triunfa	0
-33.816727	tropas	0
-35.828590	trozos	0
-21.514103	turcos	0
-24.624090	tuvieron	0
-18.569807	tuvimos	0
-15.581204	tuvo	0
-25.362965	técnica	0
-21.989273	técnicos	0
-26.871187	término	0
-36.373024	términos	0
-29.313028	título	0
-29.350006	ubicado	0
-20.737034	ultimo	0
-27.600164	un	0
-25.755188	una	0
-21.554514	unidad	0
-27.496515	unidas	0
-34.350533	unidos	0
-19.359016	uniforme	0
-11.467773	uno	0
-21.401716	unos	0
-17.178246	unánime	0
-15.743615	urge	0
-29.647490	urgente	0
-15.235015	uri	0
-19.278076	uruguay	0
-25.926577	usen	0
-25.740154	uso	0
-41.883785	ustedes	0
-27.437943	utilizar	0
-28.712746	va	0
-17.064205	vacuna	0
-21.048727	valiente	0
-19.394266	valiosa	0
-24.312061	valle	0
-23.244057	valores	0
-21.598955	van	0
-16.253580	vaqueros	0
-11.613489	variada	0
-30.124617	variado	0
-40.170029	variados	0
-14.694820	variantes	0
-20.227192	varias	0
-23.074291	varios	0
-28.767731	varían	0
-15.796266	vasto	0
-33.691933	vaticano	0
-14.607381	vaya	0
-35.034256	veces	0
-29.254875	veintisiete	0
-18.961971	velásquez	0
-28.262083	vemos	0
-26.906191	venados	0
-22.033430	vence	0
-33.586628	vender	0
-23.702793	vendido	0
-15.028520	vendían	0
-14.451899	venezolana	0
-22.526241	venezolano	0
-17.363287	venezolanos	0
-29.611460	venezuela	0
-29.473171	venganzas	0
-21.837858	vengarse	0
-25.469276	venideros	0
-22.277328	venta	0
-27.148073	ventaja	0
-27.437721	ventanas	0
-17.833822	ventura	0
-31.939909	veo	0
-23.579952	ver	0
-28.249035	verdad	0
-25.064655	veremos	0
-23.188597	vergüenza	0
-32.020023	verificación	0
-24.545761	vez	0
-34.288269	viajar	0
-35.744919	viajará	0
-22.952993	viaje	0
-38.287109	viajo	0
-30.250782	vicepresidentes	0
-27.863289	victoria	0
-20.605843	vida	0
-21.423874	vieja	0
-17.961319	viejos	0
-22.775543	vienen	0
-26.306606	viernes	0
-22.851868	vincular	0
-33.540752	vino	0
-20.754354	violencia	0
-21.826162	virus	0
-18.801729	visas	0
-24.413664	visita	0
-22.639744	visión	0
-22.901854	visto	0
-24.497377	vive	0
-25.041002	vivimos	0
-15.228514	vladimir	0
-29.871542	vocero	0
-20.436899	volcar	0
-23.728134	volumen	0
-28.487198	voluntad	0
-19.701654	volver	0
-25.925352	volverán	0
-22.317142	volvió	0
-19.902922	volátil	0
-27.810642	votación	0
-33.647694	votantes	0
-19.975378	votar	0
-26.003521	votaron	0
-24.096775	voto	0
-25.954063	votos	0
-37.006439	voy	0
-19.958536	véanse	0
-27.224871	véase	0
-31.676453	vía	0
-25.369581	víctimas	0
-26.737385	y	0
-21.376568	ya	0
-24.182632	yo	0
-29.955135	yodización	0
-20.895464	yugoslavia	0
-28.157240	yáñez	0
-21.725168	zona	0
-17.889431	zonas	0
-24.738676	zulema	0
-18.927982	zulú	0
-29.319563	árbitro	0
-21.282709	él	0
-28.220341	énfasis	0
-33.476070	época	0
-16.475054	ése	0
-25.684677	ésta	0
-19.818939	éxito	0
-30.997742	éxitos	0
-33.268101	índice	0
-17.905798	óptimo	0
-25.925104	órdenes	0
-17.118349	órgano	0
-15.351240	última	0
-19.616022	último	0
-22.874603	últimos	0
-16.137135	única	0
-26.534801	únicamente	0
-21.057703	único	0
-21.851696	útiles	0

\2-grams:
-35.659344	<s> a
-33.947403	<s> abrigamos
-32.756413	<s> acaso
-35.997936	<s> acepto
-33.237671	<s> aclara
-36.531204	<s> acortarán
-28.749109	<s> actividades
-32.905624	<s> actor
-34.916187	<s> actualmente
-35.475029	<s> actuaré
-34.269981	<s> acuerdo
-31.281054	<s> además
-36.130581	<s> adjunto
-35.939152	<s> admite
-27.015703	<s> agradecemos
-32.432930	<s> agradeceremos
-26.492384	<s> agradezco
-25.938034	<s> agregó
-33.122910	<s> ahora
-36.331856	<s> ahí
-36.747261	<s> al
-31.046595	<s> alemania
-32.440247	<s> alemán
-32.737076	<s> algunas
-29.360008	<s> algunos
-29.940813	<s> allí
-29.987209	<s> alvaro
-32.744274	<s> ambas
-35.519241	<s> ambos
-35.395309	<s> américa
-32.693390	<s> anexos
-37.015869	<s> ante
-34.996708	<s> aparentemente
-32.084518	<s> aragón
-35.716183	<s> argentina
-33.603985	<s> arias
-34.842819	<s> aristide
-36.632988	<s> asimismo
-33.572868	<s> aspin
-31.686220	<s> astronautas
-32.868011	<s> así
-34.357059	<s> aumenta
-35.694229	<s> aumentó
-38.265461	<s> automóvil
-32.403343	<s> avisaremos
-29.161404	<s> avión
-32.507648	<s> ayer
-34.429493	<s> ayudará
-30.381458	<s> añadió
-33.850960	<s> aún
-32.582714	<s> balladur
-33.449577	<s> basándose
-35.134773	<s> benítez
-33.291908	<s> bernardin
-33.337955	<s> bonn
-31.909584	<s> brasil
-33.903572	<s> cabe
-34.526375	<s> cabría
-34.468948	<s> cada
-33.364521	<s> caldera
-30.334120	<s> canciller
-32.149269	<s> cancillería
-35.409363	<s> cantante
-38.353493	<s> carlos
-32.571880	<s> cavallo
-32.157494	<s> cerca
-37.973801	<s> cerrará
-30.239071	<s> cesar
-32.355728	<s> chile
-36.518219	<s> china
-34.787045	<s> clausura
-34.555351	<s> clausuran
-31.131653	<s> clinton
-33.329777	<s> colombia
-39.000591	<s> comienza
-30.431143	<s> comisión
-29.664043	<s> comité
-35.078674	<s> como
-35.492241	<s> completa
-31.017189	<s> completan
-33.294132	<s> comprendemos
-34.411983	<s> con
-36.601799	<s> concluye
-31.106527	<s> conferencia
-42.974724	<s> consulta
-34.565952	<s> continuaremos
-31.459690	<s> continúa
-31.657175	<s> convención
-35.111385	<s> corte
-27.896070	<s> creo
-32.807404	<s> críticos
-40.268513	<s> cualquier
-36.080914	<s> cuando
-37.677647	<s> cuatro
-33.861355	<s> cuba
-38.725918	<s> cuáles
-33.289810	<s> cómo
-36.460739	<s> de
-33.364017	<s> debe
-32.814602	<s> debemos
-37.866463	<s> deben
-37.735111	<s> deberá
-36.778446	<s> debo
-40.563457	<s> decidió
-32.307877	<s> desarrollo
-38.133484	<s> desde
-34.728550	<s> desea
-32.781395	<s> deseo
-32.974232	<s> desgraciadamente
-32.027794	<s> desplazarán
-33.577938	<s> después
-30.564468	<s> destacó
-30.814550	<s> dice
-34.298618	<s> dicen
-37.808151	<s> dicho
-39.920288	<s> dichos
-39.250565	<s> dije
-31.226158	<s> dijo
-34.788776	<s> dios
-33.917793	<s> discutiremos
-34.739933	<s> doce
-35.105064	<s> dos
-36.118877	<s> doy
-36.879086	<s> durante
-35.366093	<s> días
-33.124218	<s> económicamente
-31.562544	<s> el
-36.443199	<s> elecciones
-37.436008	<s> ella
-30.804958	<s> ello
-34.680595	<s> ellos
-33.936157	<s> emotivo
-30.683254	<s> empresa
-28.882143	<s> empresas
-33.677383	<s> en
-31.992250	<s> entonces
-32.764206	<s> entre
-32.689381	<s> envíamos
-38.051125	<s> era
-31.374884	<s> es
-36.266281	<s> esa
-34.190479	<s> esas
-31.215897	<s> escojo
-32.910458	<s> escritor
-32.511482	<s> escuché
-34.736389	<s> ese
-31.938059	<s> eso
-40.255093	<s> esos
-33.143654	<s> españa
-30.995773	<s> espera
-32.207954	<s> esperamos
-35.820610	<s> esperar
-31.944044	<s> espero
-34.796177	<s> esta
-36.542557	<s> estaba
-37.421425	<s> estaban
-40.182251	<s> estados
-30.333597	<s> estamos
-35.579346	<s> estarán
-35.133816	<s> estas
-33.069794	<s> este
-31.503443	<s> esto
-35.083233	<s> estonia
-36.193230	<s> estos
-33.726192	<s> está
-37.757019	<s> están
-34.093838	<s> evidentemente
-38.497143	<s> ex
-34.846493	<s> exhiben
-35.668919	<s> existe
-40.448730	<s> existían
-32.003971	<s> explosión
-34.902905	<s> favor
-34.725067	<s> fecha
-37.342030	<s> fecsa
-37.255432	<s> figura
-32.123840	<s> fijan
-35.032497	<s> filipinas
-32.735115	<s> finlandia
-32.137909	<s> fracasa
-36.489132	<s> francia
-34.710438	<s> frente
-33.038513	<s> fue
-40.466621	<s> fueron
-35.798725	<s> fuerte
-39.964348	<s> fuertes
-38.271351	<s> fuerza
-28.830166	<s> funcionarios
-34.532867	<s> general
-36.553719	<s> germán
-29.819471	<s> gobierno
-32.101631	<s> gonzález
-33.755501	<s> gracias
-32.400635	<s> graciela
-38.399170	<s> gran
-31.803438	<s> grupo
-33.067417	<s> guerra
-35.435066	<s> ha
-35.994343	<s> habla
-34.854286	<s> habló
-30.089777	<s> habrá
-35.668381	<s> habría
-34.261723	<s> había
-34.877342	<s> hace
-37.492702	<s> hacer
-36.006195	<s> haciendo
-38.050430	<s> han
-33.219131	<s> hasta
-29.359440	<s> hay
-28.788576	<s> he
-31.251360	<s> hemos
-34.695015	<s> heridos
-34.228207	<s> hija
-30.822397	<s> honduras
-33.109314	<s> hoy
-32.379234	<s> hubo
-34.784004	<s> huelga
-32.540245	<s> iberdrola
-37.895081	<s> igual
-34.514603	<s> ilaria
-37.606720	<s> incluso
-36.644413	<s> incluye
-35.940342	<s> indican
-34.760876	<s> indicó
-34.759254	<s> indique
-41.654343	<s> industria
-33.224285	<s> inician
-33.259228	<s> inversionistas
-32.290085	<s> israel
-34.621140	<s> italia
-33.682953	<s> jaime
-34.124336	<s> japón
-33.683559	<s> justicia
-32.040073	<s> la
-30.770853	<s> lacalle
-34.138699	<s> lamentablemente
-33.908104	<s> las
-33.269840	<s> le
-33.752609	<s> les
-34.762150	<s> llameante
-31.588037	<s> llega
-31.403955	<s> llegó
-33.153336	<s> llevé
-32.126377	<s> lo
-37.350655	<s> lograr
-33.211163	<s> los
-27.724911	<s> luego
-34.296352	<s> líder
-30.091467	<s> lógicamente
-31.943430	<s> madrazo
-33.840637	<s> mandela
-32.694626	<s> marchaba
-31.344831	<s> me
-39.134182	<s> media
-35.986599	<s> mejoran
-31.461515	<s> menem
-35.593933	<s> mercouri
-32.442841	<s> mi
-33.830780	<s> mientras
-32.150448	<s> miguel
-34.141472	<s> militares
-37.735855	<s> millones
-35.618839	<s> milán
-36.540085	<s> mineros
-32.320576	<s> ministro
-31.765047	<s> ministros
-28.326876	<s> momentos
-36.480003	<s> monselas
-32.433155	<s> morirá
-36.809063	<s> muchas
-35.718887	<s> mucho
-33.289711	<s> muchos
-33.947170	<s> muere
-38.296417	<s> mueren
-36.908695	<s> muy
-34.498245	<s> más
-36.540562	<s> médicos
-34.328354	<s> méxico
-39.096504	<s> nada
-30.553480	<s> nadie
-28.912647	<s> nave
-32.708672	<s> necesitamos
-37.603821	<s> ni
-36.725327	<s> niegan
-36.573387	<s> ninguna
-34.083599	<s> ninguno
-36.861286	<s> ningún
-32.681721	<s> no
-36.473873	<s> nombraron
-34.907341	<s> nos
-28.998808	<s> nosotros
-36.876171	<s> nuestra
-38.340477	<s> nuestro
-41.538109	<s> nuestros
-32.464321	<s> nuevamente
-35.757416	<s> nuevo
-33.642666	<s> nunca
-39.900379	<s> o
-35.642498	<s> occidente
-35.570923	<s> ocho
-29.659008	<s> operaciones
-32.023705	<s> opositores
-39.440903	<s> otra
-37.372494	<s> otras
-32.454105	<s> otro
-32.704437	<s> otros
-35.372719	<s> palacios
-35.733768	<s> para
-32.452038	<s> parece
-34.904007	<s> parlamento
-39.838863	<s> parra
-38.470024	<s> partidos
-34.998947	<s> passarella
-36.495728	<s> pequeño
-36.184128	<s> peres
-39.585823	<s> permitirá
-31.389509	<s> pero
-30.360571	<s> perú
-34.671909	<s> pese
-27.954250	<s> peseta
-38.149612	<s> pienso
-32.654823	<s> planeaba
-35.060513	<s> plantearon
-32.351368	<s> poco
-33.531540	<s> podemos
-33.085831	<s> podrá
-38.954132	<s> podrán
-37.599411	<s> podría
-36.652699	<s> podríamos
-30.981157	<s> policía
-35.611931	<s> por
-37.774364	<s> porque
-32.619331	<s> posteriormente
-35.197628	<s> precio
-29.154968	<s> precios
-30.793854	<s> preguntó
-32.599384	<s> prensa
-41.011265	<s> preparan
-31.636805	<s> presidente
-36.660255	<s> primero
-35.650269	<s> provocaría
-33.660717	<s> puede
-33.264462	<s> pueden
-30.623194	<s> puedo
-34.535408	<s> que
-31.370178	<s> queda
-33.552605	<s> queremos
-41.985233	<s> quería
-37.426250	<s> queríamos
-39.354382	<s> quienes
-33.706905	<s> quiere
-35.021481	<s> quisiera
-30.622437	<s> qué
-37.153187	<s> quédense
-34.900738	<s> realiza
-28.094454	<s> realmente
-32.655190	<s> reanudada
-33.827106	<s> rebeldes
-38.082115	<s> reciben
-36.336079	<s> recrudece
-34.069000	<s> reitera
-34.579399	<s> renuncia
-25.354116	<s> resa
-34.382584	<s> respecto
-33.692986	<s> responderemos
-28.056343	<s> respondió
-35.862793	<s> retirada
-32.113495	<s> rey
-34.760426	<s> rusia
-31.986444	<s> ríos
-33.466541	<s> sabemos
-33.046787	<s> salieron
-31.678782	<s> sarajevo
-34.667973	<s> saínz
-30.420189	<s> se
-38.540939	<s> sea
-32.819569	<s> según
-34.091160	<s> sela
-37.914192	<s> senado
-34.512737	<s> separatista
-39.597015	<s> ser
-36.975586	<s> será
-37.451145	<s> serán
-33.530510	<s> sería
-33.131432	<s> si
-30.239443	<s> siempre
-28.911354	<s> siento
-32.242928	<s> siete
-33.541492	<s> sigue
-33.317051	<s> silvio
-30.073503	<s> sin
-30.717455	<s> siria
-36.702309	<s> sobre
-34.511795	<s> somos
-37.761761	<s> son
-33.524490	<s> soy
-35.600655	<s> su
-33.839127	<s> sube
-38.907955	<s> sus
-36.740139	<s> sé
-37.914837	<s> sí
-33.119553	<s> sólo
-31.091093	<s> tal
-30.791407	<s> también
-34.556400	<s> tampoco
-34.260136	<s> telmex
-34.778423	<s> tendrán
-31.622808	<s> tenemos
-27.117441	<s> tercer
-31.872713	<s> testigos
-32.351192	<s> tiene
-40.198586	<s> tienen
-35.099308	<s> toda
-33.038101	<s> todas
-33.736755	<s> todavía
-32.229511	<s> todo
-32.936562	<s> todos
-36.527649	<s> toyota
-35.230114	<s> trataremos
-37.022129	<s> treinta
-36.924644	<s> tres
-34.124138	<s> tuvimos
-33.802109	<s> título
-34.019630	<s> un
-35.500637	<s> una
-31.601881	<s> uno
-34.653015	<s> unos
-33.744373	<s> urge
-33.527821	<s> uruguay
-33.093365	<s> va
-35.358982	<s> valores
-38.688824	<s> van
-39.008308	<s> varias
-34.376297	<s> varios
-34.728928	<s> velásquez
-32.915485	<s> vemos
-36.829586	<s> venezolanos
-32.033302	<s> venezuela
-32.327625	<s> veo
-31.537956	<s> vienen
-33.948505	<s> visita
-33.612179	<s> volvió
-38.023632	<s> véanse
-32.642292	<s> véase
-35.463444	<s> y
-36.242214	<s> ya
-36.448856	<s> yo
-32.804329	<s> yugoslavia
-7.243618	a aceptar
-7.117810	a actuar
-9.408511	a alemania
-12.950921	a algunos
-11.859247	a alta
-10.044511	a aprobar
-12.821622	a asamblea
-7.673136	a atlanta
-11.077412	a brasil
-12.491405	a buen
-9.560581	a buscar
-7.467515	a cabo
-12.276519	a cada
-10.911299	a cadena
-11.138043	a caer
-8.522382	a cambio
-10.183752	a cambios
-13.013938	a cargo
-11.822881	a casi
-10.668325	a catorce
-11.617733	a causa
-12.163711	a chile
-7.784173	a cielo
-10.188293	a cifras
-5.835228	a cinco
-8.090461	a colaborar
-8.187362	a coleman
-7.714666	a combatir
-8.246657	a comentar
-7.152789	a conocer
-8.992990	a consulta
-1.544493	a continuación
-10.276930	a continuar
-8.437006	a costa
-10.315305	a cualquier
-11.851653	a cuatro
-5.779066	a culpables
-10.613499	a dar
-15.216009	a de
-9.252571	a debatir
-10.615641	a decidir
-10.872071	a decir
-8.716102	a defraudar
-7.469069	a dejar
-10.738977	a diez
-9.541451	a dificultades
-7.980043	a discutir
-11.758976	a discutirlo
-11.335540	a dos
-9.713140	a elegir
-11.329164	a ello
-10.165874	a empresarios
-7.115025	a encontrar
-11.029813	a esa
-10.571751	a esas
-10.414936	a ese
-7.939887	a eso
-11.615272	a esos
-9.396712	a español
-12.825439	a esta
-10.827458	a estar
-10.128168	a estas
-8.725052	a este
-9.411542	a esto
-9.271593	a estos
-3.236475	a europa
-13.472719	a ex
-9.617924	a examinar
-9.792313	a explicar
-6.426404	a fin
-7.133304	a fines
-9.226473	a firmeza
-12.572680	a funcionarios
-15.178662	a gobierno
-3.259683	a goycochea
-11.400285	a gran
-5.895652	a gusto
-9.772018	a hablar
-11.706814	a hacer
-3.966774	a ir
-8.442604	a israel
-5.846491	a japón
-8.915519	a jerusalén
-9.672453	a juan
-9.787539	a juicio
-8.226723	a junio
-9.546132	a la
-3.814188	a largo
-11.538843	a las
-10.342219	a lo
-10.071665	a los
-9.136463	a maniobras
-12.402634	a marcos
-8.637322	a media
-11.021334	a mejorar
-3.756691	a menudo
-5.864738	a mi
-6.156025	a moscú
-13.234300	a mucha
-11.033339	a más
-7.407711	a méxico
-8.148008	a mí
-10.470378	a nadie
-10.748500	a nivel
-12.817034	a no
-9.187309	a nosotros
-10.712075	a nuestra
-12.940146	a nuestro
-13.502944	a nueve
-9.841815	a ocurrir
-7.920321	a otra
-6.937611	a otro
-8.902426	a otros
-11.105733	a palabras
-11.415661	a partidos
-7.912592	a paso
-13.424027	a países
-2.353881	a personas
-8.847968	a policía
-13.149961	a político
-6.152587	a preguntas
-4.234126	a prensa
-13.449657	a programa
-14.766259	a que
-8.697432	a quedar
-11.726016	a quien
-9.081224	a quito
-15.954358	a recibir
-6.578541	a reformas
-5.466230	a regir
-7.547256	a regresar
-8.300803	a repetirse
-2.456421	a reservas
-8.158949	a respetar
-9.468010	a retirarse
-10.806782	a reunir
-8.379229	a rusia
-5.861635	a salir
-10.120625	a salvo
-11.374363	a santiago
-9.729686	a seguir
-10.099153	a sentir
-8.691170	a ser
-10.438795	a serbia
-11.055843	a su
-11.121273	a suceder
-9.628257	a suecia
-13.833943	a sus
-13.395289	a sí
-10.656425	a tal
-9.927829	a tales
-14.197134	a tasa
-6.221898	a tegucigalpa
-10.833293	a temas
-11.142015	a tener
-13.367578	a territorios
-14.599009	a todas
-8.756767	a todos
-7.778323	a trabajar
-11.754648	a tribunal
-9.127111	a un
-10.861619	a una
-5.631508	a uno
-12.646405	a vender
-3.925665	a viajar
-10.020941	a votación
-6.077711	a votar
-15.652062	a ya
-13.446015	abajo con
-22.827116	abandonada </s>
-17.404325	abandonado la
-5.598207	abarcan muy
-21.558113	abastecimiento de
-13.535974	abastecimiento el
-2.198293	abatir estructuras
-15.016671	abierta </s>
-10.251981	abierta dijo
-9.744884	abiertas y
-18.728180	abierto </s>
-0.101673	abierto a
-9.174467	abierto del
-2.392241	abra está
-4.977232	abrigamos la
-13.615284	abril </s>
-0.295892	abril agregó
-2.811404	abril se
-14.302908	abrió a
-5.794002	abrió irregular
-11.836560	abrió la
-11.855844	abrió los
-12.459408	abrió un
-4.369252	abstracto sino
-12.700918	abundan los
-4.985818	aburrida señaló
-18.269669	acaba de
-7.994788	acaben los
0.000000	acaso haya
-10.065802	acaso no
-8.700319	acatamiento sea
-2.613544	acceder a
-0.920608	acceso a
-5.454023	acceso mayor
-12.970029	accidente </s>
-14.084800	accidente se
-6.187850	acciones bajaron
-2.532955	acciones cayeron
-12.786283	acciones de
-11.312110	acciones en
-15.258896	acciones se
-21.202925	acciones son
-5.307629	acciones subieron
-27.906834	acción </s>
-12.089952	acción militar
-16.153725	acción se
-19.544811	acción son
-13.732026	acelerar el
-0.000762	acento francés
-6.427611	aceptable </s>
-5.359631	aceptable dijo
-4.140979	aceptar un
-14.321365	aceptarla </s>
-0.000002	acepto humildemente
-5.932197	aceptó esa
-7.523402	aceptó la
-2.736673	aclara que
-0.192300	aclararlo todo
-10.048456	acomete campaña
-0.315683	acontecimiento a
-0.325143	acopla a
-4.368256	acordaron continuar
-0.036245	acordaron lo
-6.041819	acordó que
-0.000002	acortarán duración
-11.112237	acosta </s>
-21.483767	actitud </s>
-12.081077	actitud de
-19.566973	actitud dijo
-17.292099	actitud no
-19.380245	actividad </s>
-16.711023	actividad con
-0.000485	actividad volátil
-18.338055	actividades </s>
-14.958135	actividades de
-17.122871	actividades en
-13.402225	actividades fueron
-18.840511	actividades no
-16.284321	actividades se
-19.482592	activo </s>
0.000000	activo diferido
-4.967697	activos desde
-14.775806	acto </s>
-19.268557	acto la
-3.490248	acto político
-0.000141	acto único
-12.845375	actor </s>
-5.235118	actor de
-11.568187	actor más
-5.218953	actuaciones de
-16.953508	actual </s>
-10.971287	actual acuerdo
-0.007780	actual composición
-1.779248	actual debate
-13.637449	actual debería
-10.487656	actual dijo
-4.848438	actual dista
-12.434819	actual es
-18.806896	actual posición
-9.248855	actual proyecto
-17.108734	actualidad </s>
-13.885153	actualidad hay
-0.632860	actualizan constantemente
-15.727020	actualizar cada
-9.793950	actualmente el
-13.519980	actualmente en
-5.541776	actualmente hay
-17.442659	actualmente la
-14.196713	actualmente los
-1.758157	actualmente objeto
-15.302987	actuando así
-10.335940	actuar </s>
-3.876348	actuar ahora
-0.000308	actuar declaró
0.000000	actuaré conforme
-3.427831	acude a
-0.000164	acuerdan impulsar
-17.828869	acuerdo </s>
-12.559832	acuerdo aceptable
-11.945717	acuerdo como
-11.810666	acuerdo con
-7.439534	acuerdo de
-13.417036	acuerdo dijo
-11.075557	acuerdo donde
-9.102560	acuerdo entre
-14.035756	acuerdo final
-16.009058	acuerdo no
-13.944590	acuerdo para
-14.501159	acuerdo que
-11.143201	acuerdo sobre
-10.584180	acusaciones </s>
-14.271971	acusados </s>
-0.000002	acusados prestó
-23.370514	adelante </s>
-20.582846	adelante dijo
-10.511006	adelante sólo
-11.172929	adelanto </s>
-6.985389	además ahora
-9.080309	además al
-4.903583	además de
-7.055587	además deberían
-7.142992	además no
-0.818015	además por
-9.853897	además se
-23.918066	adicionales </s>
-23.083557	adicionales en
-7.441168	adiós del
-1.627807	adjudica un
-0.000762	adjudicada a
-14.100100	adjunta </s>
-0.004760	adjunta copia
-15.382855	adjunta el
-7.634735	adjunta una
-10.570487	adjuntan los
-2.652544	adjunto a
-3.654126	adjunto copias
-7.203770	adjunto el
0.000000	admite un
-7.059163	adoptado algunas
-4.414325	adoptará sus
-1.820956	adoptarán por
-9.715806	aducía </s>
-22.360067	advirtió </s>
-8.594632	aeropuerto </s>
-3.298054	aeropuerto está
-6.298512	aeropuertos fueron
-9.996580	afectados </s>
-4.447280	afiliación a
-2.945802	afirma benítez
-9.272777	afirma que
-2.653718	afirmativo a
-0.129895	afirmativo tendríamos
-17.689362	afirmó </s>
-13.301786	afirmó el
-15.225745	afirmó que
-2.411404	afirmó tajante
-10.470574	afirmó uno
-12.239361	agencia </s>
-7.355487	agencia dijo
-11.909373	agente </s>
-9.405491	agradecemos de
-4.056973	agradecemos por
-6.762384	agradecemos su
-3.252088	agradeceremos que
-1.618202	agradeceremos su
-15.033684	agradecerle a
-12.176978	agradezco de
-2.221216	agradezco su
-6.499801	agrava esta
-7.479819	agrava la
-19.424702	agravó la
-12.549563	agravó las
-16.839855	agregó </s>
-5.709876	agregó acosta
-12.529020	agregó por
-1.757040	agregó que
-3.415067	agresión contra
-12.807224	agrupación </s>
-4.370116	agrícola francés
-23.212294	agua </s>
-10.873556	agua agrava
-1.704773	aguarda regreso
-11.956784	aguarme el
-1.453716	aguas no
-11.016233	ahondar el
-20.055641	ahora </s>
-2.524691	ahora ahorra
-14.625319	ahora al
-13.708305	ahora aún
-8.894416	ahora bien
-14.133188	ahora cuál
-18.477432	ahora de
-8.231607	ahora decidir
-16.553082	ahora dijo
-14.345132	ahora el
-15.272411	ahora en
-5.013876	ahora enfrenta
-12.030676	ahora es
-17.370268	ahora esta
-12.469914	ahora estamos
-9.735671	ahora están
-16.708752	ahora ha
-8.216145	ahora hacia
-6.628203	ahora hemos
-13.323600	ahora la
-13.598936	ahora las
-16.277052	ahora los
-12.269680	ahora muchos
-15.824699	ahora no
-14.284268	ahora o
-9.852760	ahora podemos
-13.855687	ahora puede
-14.712831	ahora que
-12.064024	ahora sobre
-13.363364	ahora solamente
-9.057000	ahora soy
-9.777484	ahora tenemos
-15.359012	ahora un
-10.956803	ahorra </s>
-5.706071	ahí en
-3.298716	ahí es
-0.131150	ahí fue
-6.725505	ahí que
-4.515475	aislamiento fue
-4.194678	ajustará pues
-7.335750	al alza
-4.653157	al anexo
-8.462908	al arbitraje
-10.082796	al artículo
-6.607151	al ataque
-15.559271	al banco
-12.269258	al caer
-3.209474	al cierre
-7.091581	al comité
-14.216888	al congreso
-9.942523	al consejo
-12.586629	al consenso
-8.282150	al contenido
-12.092400	al cuadro
-14.003567	al decir
-8.484941	al derecho
-8.244748	al distinguido
-6.505033	al día
-7.124525	al edificio
-8.918822	al ejército
-14.356575	al envío
-7.940115	al estrellarse
-13.591177	al ex
-6.453023	al exterior
-11.262363	al festivo
-5.846992	al final
-10.970364	al fuego
-12.600293	al gobierno
-19.082569	al gran
-12.060765	al grupo
-8.666460	al hospital
-6.945652	al jurado
-7.524570	al leer
-6.579168	al llegar
-9.387783	al marcador
-7.704604	al marco
-9.194071	al menos
-12.086054	al mercado
-14.893058	al ministro
-8.187288	al mismo
-6.944268	al muerto
-11.157603	al otro
-0.432202	al parecer
-7.268303	al país
-10.570448	al perú
-11.691970	al poder
-11.691411	al político
-11.557512	al presente
-11.765294	al principio
-10.925441	al problema
-12.549113	al pueblo
-11.893677	al párrafo
-6.714366	al público
-11.711439	al recibir
-11.234316	al representante
-5.131497	al respecto
-8.476189	al resultado
-8.649064	al salir
-8.195325	al secretario
-14.272973	al sector
-9.655342	al seis
-9.544238	al senado
-16.827879	al señor
-11.092304	al siguiente
-8.840162	al tratado
-10.787153	al uso
-10.674108	al ver
-11.962479	al voto
-14.125637	al último
-16.820654	albacora han
-15.072777	aldeas </s>
-9.723977	alegatos de
-14.354377	alemania </s>
-3.989464	alemania a
-0.595367	alemania dice
-4.755848	alemania negó
-8.581177	alemania y
-9.185349	alemán </s>
-2.085808	alemán gana
-5.788820	alemán trata
-15.152571	alfonsín </s>
-8.828508	alfonsín y
-15.190731	algo así
-6.320520	algo como
-8.424223	algo de
-15.527313	algo muy
-9.200293	algo más
-10.849312	algo puede
-11.769895	algo que
-2.896487	algo rara
-6.221886	algo tangible
-15.421939	alguna </s>
-12.426639	alguna dijo
-6.499573	alguna esperanza
-10.969501	alguna para
-8.910668	alguna parte
-0.623072	alguna razón
-10.636660	algunas actividades
-6.777048	algunas condiciones
-10.431127	algunas cosas
-10.278928	algunas de
-14.045638	algunas diferencias
-20.057730	algunas dificultades
-9.246634	algunas medidas
-5.523093	algunas otras
-8.909328	alguno </s>
-0.991856	alguno de
-26.497271	algunos </s>
-5.320395	algunos choques
-9.497557	algunos críticos
-10.332780	algunos de
-18.405066	algunos eso
-6.075426	algunos especialistas
-18.769085	algunos esto
-4.969755	algunos papeles
-10.986931	algunos países
-7.512674	algunos representantes
-13.769979	algunos son
-13.134577	algunos testigos
-9.595813	algunos vendían
-9.760492	alimentaria continúa
-5.223003	alla del
0.000000	allen al
-7.000945	allá agregó
-11.081221	allá de
-11.495432	allí </s>
-17.189613	allí con
-12.385486	allí cuando
-11.573920	allí se
-7.713309	alrededor de
0.000000	alta mar
-11.767665	alta tasa
-10.633334	alta tiene
-21.147682	altibajos </s>
-11.724175	altibajos y
-18.096626	alto </s>
-5.566371	alto costo
-13.462315	alto de
-8.984082	alto ese
-7.820751	alto organismo
-11.414864	alto todos
-0.000033	alvaro dijo
-4.114819	alvaro lo
-17.009085	alza </s>
-10.506667	alza contra
-11.723147	alza de
-0.001991	alza en
-7.536388	amable atención
-0.000630	amable cooperación
-12.644527	amazónico </s>
-4.131258	ambas cartas
-3.872322	ambas naves
-5.982571	ambas partes
-10.940193	ambas propuestas
-0.000109	ambas reuniones
-3.724176	ambos efectos
-7.799478	ambos equipos
-8.045097	ambos negaron
-9.608686	ambos países
-4.350083	ambos reclamaron
-10.092362	ambos sectores
-10.243578	ambos son
-6.996439	ambos tenían
-14.446119	amplia </s>
-10.003921	amplia gama
-14.143596	amplia paz
-10.351855	amplia y
-11.464781	ampliado la
-13.380877	ampliado también
-6.590215	ampliado y
0.000000	ampliamente imitado
-12.567513	ampliamente sobre
-1.731563	ampliar esa
-3.104466	ampliarse en
-17.159252	ampliarse o
-19.109928	amplio </s>
-21.701908	amplio del
-11.797889	amplitud de
-6.595036	américa central
-0.000043	américa latina
-2.972257	analfabetos del
-7.939605	analista </s>
-2.814740	analizado cuidadosamente
-9.624646	analogía ayudará
-10.356395	anexo adjunto
-3.405939	anexo al
-1.826617	anexo diez
-8.429317	anexo figura
-5.949341	anexo tres
-12.242852	anexos </s>
-0.478008	anexos al
-3.673503	anexos del
-5.708672	anexos seis
-6.612536	anonadado </s>
-12.265013	anonimato </s>
-13.294865	ante el
-13.867089	ante la
-11.661202	ante sus
-11.613996	ante sí
-5.067333	ante todo
-9.021766	ante un
-9.926430	ante una
-7.919562	antemano su
-5.222072	antenas solares
-11.834912	antenas también
-12.696693	anterior </s>
-26.491337	anticipado </s>
-3.732344	anticipado su
-0.371027	anticipó qué
-18.664099	antología de
-3.081701	anual del
-11.252876	anunciado aún
-16.662382	anunciados </s>
0.000000	anunciar medidas
-9.224996	análisis </s>
0.000000	apagones eléctricos
-8.128617	aparecen las
0.000000	aparentemente mantiene
-5.397730	apelables ante
-18.799280	apelación </s>
-9.854921	apelación en
-12.904535	apelación había
-6.665610	apelado </s>
-14.273715	apertura </s>
-9.605404	apertura del
-17.470764	aplicación contra
-18.941401	aplicación de
-17.111654	aplicación del
-0.011599	aplicar la
0.000000	aportaciones adicionales
-14.311920	apoyo </s>
-8.873468	apoyo a
-2.767992	apoyo alguno
-1.049387	apoyo comentó
-4.342800	apoyo completo
-8.003029	apoyo de
-9.769670	apoyo del
-5.608732	apoyo en
-10.159126	apoyo para
-9.838313	apoyo y
-5.956892	apremio expresado
-14.522646	aprobación </s>
-11.834911	aprobación del
-7.840469	aprobación general
-0.671463	aprobación necesaria
-3.168194	aprobado por
-5.922103	aprobar reformas
-3.231879	aprobar su
-13.516136	aprobaron en
-7.154714	aprobó el
-8.727081	aprobó esta
-6.659475	aprobó este
-11.839610	aprobó la
-10.947767	aprobó las
-2.754650	aprobó ninguna
-7.599313	aprobó presupuesto
-8.427301	aprobó proyectos
-6.373828	aproximadas de
-8.944645	aprueba ley
-7.274554	aprueba pacto
-0.470643	apuntarán a
-0.845001	aquella época
-1.971750	aragón dijo
-12.324752	arbitraje </s>
-18.350006	aremisos a
-7.115941	argentina discutiéndolo
-12.452966	argentina espera
-16.354382	argentina que
-17.276392	argentino </s>
-10.072900	argentino en
-6.917151	argentino polemiza
-6.808352	arias dice
-16.020945	arias se
-0.273546	aristide ha
-1.369495	aristide no
-7.053148	aristide se
-21.585657	arma </s>
0.000000	arma sónica
-13.464302	armamento será
-11.656619	armas </s>
-8.991915	armas agregó
-10.331329	armas en
-2.182549	armas nucleares
-5.413844	arrecian críticas
-17.164455	arreglo a
-12.143108	arreglo amplio
-12.901793	arreglo así
-17.263355	arreglo no
-1.940517	arrestado hasta
-9.758898	arroz </s>
-3.135569	arroz norteamericano
-3.053810	arroz tailandés
-2.848431	arte y
-14.708324	artistas están
-17.384148	artículo </s>
-2.836234	artículo catorce
-8.599384	artículo con
-1.857067	artículo doce
-4.533907	artículo segundo
-9.116959	artículo también
-7.814902	artículo trece
-6.904283	artículos de
-6.845727	asalariados han
-8.074906	asamblea </s>
-10.684523	asamblea del
-1.327964	asamblea general
-13.105650	asamblea no
-3.039432	asamblea ordinaria
-12.441627	asamblea se
-10.811933	ascenso el
-3.505151	asegurado </s>
-13.346489	asesinar y
-13.423955	aseveró </s>
-11.274806	asignación puede
-7.408881	asimismo la
-0.017687	asimismo lamentó
-11.837194	asimismo se
-4.687469	asisten a
-14.560565	asistencia por
-13.305294	asistencia técnica
-3.324843	asistencia y
-17.634277	asociado </s>
-6.905814	asombro en
-27.528879	aspecto </s>
-13.704005	aspecto del
-7.115515	aspecto negativo
-5.898437	aspectos </s>
-0.509433	aspin dijo
-1.809511	aspin no
-16.216597	assad </s>
-2.873140	assad vaya
-9.898481	astronautas del
-0.104569	astronautas instalan
-9.503560	asumiría ministerio
-18.847364	asunto </s>
-5.706546	asunto al
-7.266146	asunto de
-11.493642	asunto en
-14.266715	asunto requiere
-18.079988	asunto se
-0.115810	asunto serio
-8.030475	asuntos civiles
-0.000383	asuntos mundiales
-13.086552	asuntos no
-22.249434	así </s>
-7.046292	así con
-9.955542	así cuáles
-17.062981	así el
-11.357512	así es
-3.996320	así explicó
-8.430467	así figura
-18.449104	así hasta
-17.779762	así las
-12.590398	así lo
-13.300179	así mi
-3.100960	así pues
-6.988105	así que
-10.670094	así quedó
-6.169640	así sea
-9.246043	así sería
-15.914376	así sigue
-6.497545	así ya
-5.031937	atacar a
-4.523194	atacar ahora
-15.893040	ataque </s>
-1.380285	ataque al
-6.452899	ataque causó
-16.495584	ataque sin
-11.901971	ataúd </s>
-15.855108	atención </s>
-16.407572	atención a
-14.313332	atención de
-15.447463	atención del
-15.423640	atención este
0.000000	atención médica
-16.563084	atención se
-6.044191	atender esa
-16.171661	atentado </s>
-3.190061	atentado de
-15.788234	aterrizó con
-16.828035	aterrizó en
-12.285357	aterrizó sin
-2.939018	atlanta dos
-1.037308	atraer aremisos
-3.661380	atraviesan un
-4.175089	atribuírlo a
-33.150116	atrás </s>
-6.335740	atrás la
-8.683311	atuendo </s>
-15.882524	audaz </s>
-10.541280	audiencias sobre
-8.362977	aumenta cifra
-11.660851	aumenta la
-9.762246	aumenta su
-17.082012	aumentado en
-10.435686	aumentado la
-2.168293	aumentaron </s>
-7.843781	aumentaron los
-12.443077	aumentos no
-31.797913	aumentó </s>
-19.169689	aumentó el
-17.837717	aumentó en
-13.151514	aumentó las
-4.391227	ausencia </s>
-0.126856	ausencia de
-27.970411	australiano </s>
-7.915780	autobús </s>
-6.772798	autoevaluaciones no
-2.009537	automóvil de
-0.601931	automóviles nuevos
-12.197501	autor </s>
-0.077360	autor afirma
-17.485424	autoridades </s>
-14.674650	autoridades de
-10.336497	autoridades no
-23.709789	avance </s>
-4.887451	avance del
-15.765308	avance este
-14.848823	avance importante
-5.373693	avance moderado
-12.139979	avancen </s>
-8.104133	avances </s>
-9.382771	avanza cada
-9.045594	avanza y
-1.941666	avanzado en
-12.546926	avanzado mucho
-0.023636	avaro y
-9.693235	avendaño </s>
-5.738227	avisaremos en
0.000000	avión aterrizó
-12.741312	avión de
-11.454128	avión español
-13.804220	avión hará
-17.303675	avión norteamericano
-8.149721	avión procedente
-14.994364	ayer </s>
-5.695967	ayer a
-2.995105	ayer dijo
-12.409626	ayer en
-11.792075	ayer la
-9.050818	ayer se
-20.615520	ayuda </s>
-4.574359	ayuda a
-7.244715	ayuda al
-10.843251	ayuda de
-16.190207	ayuda en
-13.521004	ayuda por
-13.739586	ayuda y
-3.464696	ayudará a
-17.353960	aérea de
-1.398195	aéreos en
-16.934816	añadió </s>
-0.065460	añadió que
-2.717018	añadió ventura
-14.271908	año </s>
-5.145064	año después
-6.246143	año el
-6.665253	año en
-8.940922	año era
-11.032386	año ha
-1.772858	año hará
-2.939924	año internacional
-6.545403	año negativo
-9.630037	año nos
-1.154073	año nuevo
-3.741517	año pasado
-14.233651	año también
-4.437882	año y
-16.285639	años </s>
-8.594668	años cuando
-12.104609	años de
-6.440653	años después
-13.752726	años dijo
-12.687191	años es
-16.698120	años esta
-15.581819	años que
-21.272587	años se
-0.677946	años venideros
-24.124191	aún </s>
-13.032660	aún así
-15.519830	aún añadió
-18.857708	aún del
-11.264836	aún detenciones
-12.359560	aún en
-13.301661	aún estamos
-16.462326	aún los
-5.938785	aún más
-12.567482	aún ni
-10.049979	aún no
-12.637568	baja </s>
-11.087516	baja a
-11.152788	baja en
-0.000010	baja leve
-9.218966	baja se
-13.328774	bajaron en
-11.644933	bajaron más
-4.403557	bajaron nueve
-13.562139	bajaron también
-12.426759	baje expresó
-20.709623	bajo </s>
-9.816270	bajo condición
-2.447158	bajo control
-13.630942	bajo dijo
-10.865374	bajo en
-20.169382	bajo la
-16.430035	bajo palabra
-13.323053	bajo presión
-14.691686	bajos </s>
-14.980738	balladur </s>
-8.564075	balladur ha
-9.589681	balladur no
-7.459413	bancario </s>
-18.269602	banco </s>
-0.138707	banco central
-9.728204	banco de
-5.302961	banco europeo
-12.449092	banco ha
-7.877609	banco nación
-10.225392	banco no
-8.845016	banco para
-15.515077	bancolombia </s>
-20.444773	bancos estarán
-12.646826	bancos ha
-21.834049	bancos se
-14.026613	bancos y
-8.719268	basa el
-10.287671	basa en
-5.001658	basado en
-11.136944	base de
0.000000	base intelectual
-11.708900	base para
-18.043678	base se
-0.005250	bastante amplia
-14.899022	bastante corto
-15.807720	bastante más
-1.920636	bastante preocupantes
-0.000002	basándose en
-14.482616	batalla </s>
-6.538909	batalla la
-3.273791	batallones en
-12.905828	baviera </s>
-3.101273	beca fue
0.000000	bena soares
-13.168588	bendiga a
-18.569002	bendiga miguel
-13.470934	benítez </s>
-6.789847	benítez insta
-12.248873	berlín </s>
-5.094758	berlín y
-0.003727	bernardin no
-11.060183	bernardo </s>
0.000000	bielorrusia busca
-18.549976	bien </s>
-18.456783	bien cabe
-14.372448	bien como
-1.098962	bien conocida
-18.924070	bien desde
-10.914298	bien dijo
-14.978388	bien existe
-9.644956	bien informados
-17.103840	bien la
-17.467377	bien puede
-5.720464	bien ubicado
-16.030130	bienvenida </s>
-18.804644	blancos </s>
-9.562907	blancos nos
-5.404604	blum y
-16.403774	bogotá </s>
-7.320782	bogotá y
-0.007680	bola de
-12.999582	bomba </s>
-3.161118	bondes se
0.000000	bonn está
-12.825941	bonos </s>
-1.410234	boquete en
-18.125206	borrador </s>
-2.969365	borrador de
-9.082007	borrados </s>
-3.107863	bosnia </s>
-2.702421	bosnia continuaban
-13.442535	bosques </s>
-19.891680	brasil </s>
-11.854412	brasil acuerdan
-5.606193	brasil aguarda
-10.138593	brasil más
-12.986948	brasil no
-10.843019	brasil y
-4.626055	brasileño completó
-0.623304	brasileño declara
-19.611652	breve </s>
-0.000109	breve respiro
-16.586657	breve se
-14.103579	brevemente al
-12.322529	brevemente ante
-4.059629	brevemente nuestro
-6.844037	bruselas </s>
-22.593086	buceador </s>
-0.007309	buen buceador
-10.293156	buen comienzo
-11.145669	buen fin
-9.842087	buen momento
-25.151644	bueno </s>
-10.044598	bueno o
-2.389309	bueno para
-13.070448	bueno y
-8.606862	bueno ya
-11.240190	busca a
-8.181209	busca mejorar
-4.674836	busca proteger
-12.788347	busca también
-2.484680	buscamos la
-12.780814	buscar la
-10.639421	básicos </s>
-12.706854	bósforo </s>
-4.104480	cabe decir
-0.000658	cabe duda
-24.533901	cabo </s>
-4.953413	cabo actividades
-11.009697	cabo su
-7.448293	cabo un
-2.048514	cabría decir
-5.348708	cabría organizar
-4.312438	cachemira luego
-0.032370	cada activo
-6.080239	cada asunto
-7.581556	cada caso
-8.049194	cada cuatro
-14.257902	cada dos
-10.309710	cada día
-1.707997	cada encuentro
-10.566642	cada estado
-4.664814	cada miembro
-6.903909	cada organismo
-8.964745	cada parte
-1.335186	cada producto
-12.404929	cada tipo
-10.485425	cada tres
-8.701414	cada trimestre
-17.229942	cada una
-4.737296	cada uno
-5.098699	cada vez
-9.200367	cadena de
-16.096159	caer en
-11.196202	caer la
-8.037785	caer ningún
-10.890913	caer uno
-7.539873	cafetería cierra
-21.792404	caja </s>
-8.737252	caja de
-13.870236	caldera es
-3.701675	caldera escogieron
-12.468625	caldera los
-3.516022	caldera presentó
-10.721468	caldera toma
-5.794628	calefacción </s>
-3.462895	calidad cuesta
-5.552003	calidad de
-2.575048	camacho en
-11.053619	cambiado </s>
-8.712255	cambiado en
-6.796597	cambiado totalmente
-20.043123	cambio </s>
-0.548430	cambio de
-3.672829	cambio en
-8.056831	cambio que
-7.090204	cambio yo
-26.519869	cambios </s>
-13.734152	cambios a
-10.039090	cambios al
-8.391654	cambios de
-11.211661	cambios en
-12.676494	cambios gane
-8.956973	cambios importantes
-13.413494	cambios no
-9.968203	cambios políticos
-20.877218	cambios se
-7.137333	cambios serán
-2.531500	cambió varias
-14.027715	campamento </s>
-0.319705	campamento controlado
-12.594722	campaña </s>
-4.053236	campaña para
-14.597535	campaña política
-8.949454	campeones ganando
-8.658451	campo de
-12.650404	campo económico
-7.032655	campo los
-7.801681	campo moderado
-4.994884	campo y
-10.120184	canalizó a
-13.143564	canciller </s>
-8.478427	canciller de
-0.946742	canciller francés
-4.930251	canciller peruano
-3.412354	cancillería uri
-7.742828	candidato en
-3.456478	candidato para
-0.001685	candidato presidencial
-24.687315	candidatos </s>
-7.930049	candidatos esa
-5.920377	candidatos podían
-16.736118	candidatos son
-22.925028	cantante </s>
-11.448969	cantante de
-11.307033	cantante en
-9.335708	cantante se
-9.416921	cantidad de
-1.267302	cantidad también
-18.639801	capacidad de
-2.672467	capaz de
-12.444358	capital </s>
-3.096863	capital el
-11.931950	capital está
-7.688254	capital mínimo
-8.298480	captura </s>
-7.301288	capítulo con
-4.447932	capítulo tres
-12.992978	cara </s>
-12.771948	caracas aumenta
-14.220163	caracas bogotá
0.000000	caravana pasa
-9.253963	carbón </s>
-8.629812	carbón a
-22.396429	cardona </s>
-9.706802	carece de
-5.185610	carga de
-10.087160	carga están
-5.118614	cargo aportaciones
-8.596837	cargo de
-7.601661	cargo el
-9.892106	carlos elgueta
-15.601175	carlos llega
0.000000	carlos lleras
-10.533770	carnaval </s>
-4.387586	carnaval es
-10.867930	caro </s>
-20.630711	carrera </s>
-12.432689	carrera fue
-10.850163	carrera ha
-16.013998	carrera por
-15.413280	carta </s>
-12.567203	carta de
-3.636648	carta describía
-15.507007	cartas no
-11.694712	cartas para
-13.020838	cartas se
-8.999716	carteles </s>
-13.564009	casa </s>
-8.176979	casa de
-5.404887	casa dijo
-7.753433	casa mis
-21.971615	casas </s>
-7.378343	casas del
-8.899479	casas resultaron
-12.598786	casi cinco
-14.843470	casi cuatro
-8.535698	casi perfecta
-14.879251	casi todos
-1.683893	casi total
-21.577412	casi un
-20.293032	casi una
-0.169421	casino </s>
-18.208916	caso </s>
-13.368630	caso a
-7.677403	caso afirmativo
-17.420868	caso agregó
-7.438077	caso comentó
-10.652281	caso contrario
-9.290564	caso de
-11.687408	caso del
-9.611061	caso el
-11.886225	caso es
-19.276752	caso la
-17.296860	caso más
-17.194426	caso no
-8.273375	caso preguntó
-17.819799	caso se
-14.441590	caso también
-15.512748	casos </s>
-5.443385	casos de
-5.420682	casos hemos
-7.128315	casos más
-0.778486	casos problemáticos
-7.551532	casos que
-7.407158	casos se
-1.551727	casos similares
-14.826412	casó con
-8.662530	catedral está
-20.175747	catorce </s>
-11.420292	catorce de
-2.595079	catorce días
-10.447562	catorce requiere
-15.546496	católica </s>
-12.130143	católica fue
-10.387887	causa </s>
-7.553072	causa de
-8.326705	causa del
-27.989525	causas </s>
-22.888336	causas del
0.000000	causas naturales
-12.224992	causó asombro
-16.348978	causó cierto
-6.938327	causó daños
-7.631853	causó pánico
0.000000	cavallo dice
-5.336430	cayeron en
-1.930271	cayeron sobre
-15.365139	cañoneos y
-21.281662	ceda </s>
-0.300128	cedería golán
-2.010436	celebración del
-6.522603	celebración por
-18.685411	cenizas </s>
-21.030169	central </s>
-14.180348	central a
-9.314302	central de
-15.231781	central del
-15.320862	central no
-9.577734	centro de
-5.111164	centroamérica </s>
-1.097394	cerca de
-3.746699	cerca del
-2.589790	cero indica
-8.829211	cero por
-0.074724	cero punto
-7.934305	cerrados por
-6.260652	cerrar siempre
-4.261221	cerraron este
-0.009229	cerrará operaciones
-4.091506	cerveza todo
-3.328932	cesación del
-1.364563	cesar acude
-0.019360	cesar dijo
-0.145369	cese al
-14.508060	cetáceos más
-8.149449	chiapas </s>
-0.609651	chiapas declaró
-10.362929	chiapas se
-16.304831	chile </s>
-6.521609	chile a
-1.531303	chile película
-6.272045	chile tiene
-5.676492	chile y
-25.534386	chileno </s>
0.000000	chileno saliente
-18.705580	chileno vender
-16.245560	china </s>
-4.999340	china llega
-6.855726	china no
-0.667580	chocó cerca
-12.101906	choferes </s>
-21.998690	choques </s>
-8.615913	choques con
-3.921498	choques continuaran
-10.356716	choques tuvieron
-11.981317	ciega y
-9.365593	cielo </s>
-5.568827	cielo abierto
-15.109758	ciento </s>
-14.895802	ciento de
-10.952056	ciento dijo
-9.107349	ciento en
-12.020072	científicos han
-12.985888	científicos tratan
-13.776473	ciernen sobre
-10.243044	cierra esta
-10.253063	cierra los
-19.380110	cierre </s>
-8.907921	cierre de
-6.164025	cierre del
-8.974804	cierre en
-16.088366	cierto </s>
-3.945457	cierto en
-0.413417	cierto nivel
-5.222587	cierto revuelo
-13.498069	cifra de
-7.900108	cifra para
-10.420402	cifra que
-4.382095	cifras aproximadas
-8.187070	cifras de
-8.978798	cifras hacen
-15.058447	cifras han
-11.645930	cifras no
-8.557432	cifras oficiales
-8.357540	cifras sin
-8.057894	cifras son
-0.338242	cinco a
-14.952698	cinco años
-5.478100	cinco candidatos
-12.155416	cinco comités
-13.219203	cinco dólares
-14.726497	cinco meses
-6.576182	cinco veces
-16.381676	ciudad </s>
-9.488090	ciudad de
-12.984579	ciudad del
-5.574759	ciudad en
-13.790114	ciudad es
-9.457022	ciudad nueva
-12.326292	civiles </s>
-9.146079	civiles o
-11.110039	civilizados </s>
-20.491560	claro </s>
-9.393967	claro cuando
-0.850965	claro espaldarazo
-16.559078	claro este
-4.849276	claro que
-7.714731	clase diez
-9.935982	clase el
-11.016793	clasificación de
-11.127056	claudio </s>
-2.769737	clausura del
0.000000	clausuran locales
-0.510673	claves en
-3.754542	climáticos de
-18.179028	clinton </s>
-12.154475	clinton a
-4.260522	clinton compara
-13.507648	clinton lo
-10.765385	clinton negó
-14.417175	clinton se
-18.097664	clinton también
-7.322289	coalición de
-7.237933	coherencia </s>
-4.868084	colaboración agregó
-9.794389	colaboración debe
-5.348423	colaborar </s>
-11.871475	coleman </s>
-16.101059	colombia </s>
-13.045187	colombia es
-8.288194	colombia militares
0.000000	colombo venezolano
-11.030876	colonos deben
-4.714123	colonos entren
-1.597062	colonos tomarían
-4.120470	columna aparecen
-31.207884	combates </s>
-11.728624	combates aéreos
-7.024120	combatir </s>
-9.367933	combatir la
-12.264165	combustible nuclear
0.000000	comedia la
-13.954496	comentado en
-11.164691	comentar </s>
-7.156232	comentar la
-17.292383	comentario de
-15.004067	comentario inmediato
-18.518806	comentario sólo
-17.557781	comentarios </s>
-4.984791	comentarios de
-9.331122	comentarios del
-5.195103	comentarios inmediatos
-27.988108	comentó </s>
-8.825826	comentó bernardo
-25.710436	comentó el
-23.868866	comentó en
-14.400723	comentó otro
