
\data\
ngram 1=2756
ngram 2=11602

\1-grams:
-8.765998	</s>	0
-9.285977	<s>	0
-2.813537	a	0
-4.176118	abajo	0
-4.453524	abandonada	0
-3.697541	abandonado	0
-3.214912	abarcan	0
-3.550055	abastecimiento	0
-2.848796	abatir	0
-4.053106	abierta	0
-3.856851	abiertas	0
-3.751950	abierto	0
-3.999600	abra	0
-4.070386	abrigamos	0
-4.381275	abril	0
-3.894542	abrió	0
-3.905805	abstracto	0
-4.092040	abundan	0
-3.236995	aburrida	0
-4.346026	acaba	0
-4.392058	acaben	0
-3.547290	acaso	0
-3.873810	acatamiento	0
-3.785314	acceder	0
-4.034135	acceso	0
-3.817741	accidente	0
-4.037862	acciones	0
-3.798766	acción	0
-4.394213	acelerar	0
-3.818904	acento	0
-4.455631	aceptable	0
-3.578701	aceptar	0
-4.213168	aceptarla	0
-4.227258	acepto	0
-3.836444	aceptó	0
-3.976802	aclara	0
-4.084570	aclararlo	0
-3.699488	acomete	0
-4.328596	acontecimiento	0
-3.725236	acopla	0
-3.704517	acordaron	0
-3.837890	acordó	0
-3.846138	acortarán	0
-3.880591	acosta	0
-4.364286	actitud	0
-3.164215	actividad	0
-3.775628	actividades	0
-4.498666	activo	0
-4.301343	activos	0
-3.199668	acto	0
-4.089919	actor	0
-3.654352	actuaciones	0
-3.717620	actual	0
-4.399200	actualidad	0
-3.962139	actualizan	0
-4.155149	actualizar	0
-3.874467	actualmente	0
-3.952140	actuando	0
-3.962972	actuar	0
-3.805064	actuaré	0
-3.681890	acude	0
-4.242335	acuerdan	0
-3.381125	acuerdo	0
-3.750235	acusaciones	0
-3.442294	acusados	0
-3.525726	adelante	0
-3.744144	adelanto	0
-4.037274	además	0
-4.259964	adicionales	0
-3.930108	adiós	0
-4.057408	adjudica	0
-4.102603	adjudicada	0
-4.287985	adjunta	0
-3.513888	adjuntan	0
-4.647159	adjunto	0
-3.437354	admite	0
-3.770471	adoptado	0
-3.633432	adoptará	0
-3.756056	adoptarán	0
-3.604518	aducía	0
-3.608828	advirtió	0
-4.235988	aeropuerto	0
-4.166477	aeropuertos	0
-4.922148	afectados	0
-3.845732	afiliación	0
-2.907582	afirma	0
-3.547870	afirmativo	0
-3.438739	afirmó	0
-4.006332	agencia	0
-3.361421	agente	0
-4.265604	agradecemos	0
-3.880394	agradeceremos	0
-4.106167	agradecerle	0
-3.396600	agradezco	0
-3.872189	agrava	0
-4.279995	agravó	0
-3.311980	agregó	0
-3.700562	agresión	0
-4.697864	agrupación	0
-3.411448	agrícola	0
-4.425901	agua	0
-4.107755	aguarda	0
-4.147088	aguarme	0
-3.787048	aguas	0
-3.936988	ahondar	0
-3.053778	ahora	0
-3.545127	ahorra	0
-3.645862	ahí	0
-4.014429	aislamiento	0
-3.958926	ajustará	0
-2.890836	al	0
-3.887024	albacora	0
-4.580776	aldeas	0
-3.643406	alegatos	0
-3.821731	alemania	0
-3.730386	alemán	0
-4.183095	alfonsín	0
-3.404249	algo	0
-3.568526	alguna	0
-3.715312	algunas	0
-4.520917	alguno	0
-3.454926	algunos	0
-4.303627	alimentaria	0
-2.812225	alla	0
-3.996441	allen	0
-4.107856	allá	0
-3.563630	allí	0
-4.254982	alrededor	0
-3.956543	alta	0
-4.029086	altibajos	0
-3.163154	alto	0
-3.965009	alvaro	0
-3.932009	alza	0
-3.416601	amable	0
-3.694139	amazónico	0
-3.528473	ambas	0
-3.917677	ambos	0
-3.611330	amplia	0
-3.768933	ampliado	0
-3.625740	ampliamente	0
-3.929306	ampliar	0
-3.293987	ampliarse	0
-3.447048	amplio	0
-4.179725	amplitud	0
-4.018349	américa	0
-3.905335	analfabetos	0
-3.446280	analista	0
-3.574669	analizado	0
-3.837448	analogía	0
-3.465837	anexo	0
-4.237805	anexos	0
-3.855277	anonadado	0
-3.716266	anonimato	0
-3.587991	ante	0
-4.324379	antemano	0
-3.622628	antenas	0
-3.536758	anterior	0
-3.813953	anticipado	0
-3.802441	anticipó	0
-4.073955	antología	0
-3.821422	anual	0
-3.889035	anunciado	0
-3.812370	anunciados	0
-4.051197	anunciar	0
-3.933206	análisis	0
-3.639057	apagones	0
-3.638404	aparecen	0
-3.905680	aparentemente	0
-4.061974	apelables	0
-4.210851	apelación	0
-4.135653	apelado	0
-3.701203	apertura	0
-4.153529	aplicación	0
-4.065896	aplicar	0
-3.435432	aportaciones	0
-3.333915	apoyo	0
-3.826618	apremio	0
-3.859606	aprobación	0
-4.323207	aprobado	0
-3.994559	aprobar	0
-3.492756	aprobaron	0
-3.392751	aprobó	0
-3.885085	aproximadas	0
-4.223622	aprueba	0
-4.241100	apuntarán	0
-3.540792	aquella	0
-3.851000	aragón	0
-3.945778	arbitraje	0
-3.343067	aremisos	0
-4.108332	argentina	0
-4.175697	argentino	0
-4.211333	arias	0
-3.746332	aristide	0
-3.279011	arma	0
-4.420045	armamento	0
-3.317947	armas	0
-4.452818	arrecian	0
-3.841946	arreglo	0
-4.047230	arrestado	0
-3.747365	arroz	0
-3.790453	arte	0
-4.334390	artistas	0
-3.925837	artículo	0
-3.850671	artículos	0
-3.905923	asalariados	0
-3.896562	asamblea	0
-3.666281	ascenso	0
-3.680754	asegurado	0
-4.146741	asesinar	0
-3.965135	aseveró	0
-4.157861	asignación	0
-3.860903	asimismo	0
-3.359439	asisten	0
-3.749496	asistencia	0
-3.857755	asociado	0
-4.201730	asombro	0
-4.302829	aspecto	0
-3.510588	aspectos	0
-4.152836	aspin	0
-3.819735	assad	0
-3.705334	astronautas	0
-3.743393	asumiría	0
-3.720794	asunto	0
-4.306591	asuntos	0
-2.970075	así	0
-3.836322	atacar	0
-3.375527	ataque	0
-3.070144	ataúd	0
-3.680681	atención	0
-4.001785	atender	0
-4.351040	atentado	0
-3.930233	aterrizó	0
-3.852114	atlanta	0
-3.948499	atraer	0
-3.197694	atraviesan	0
-4.236695	atribuírlo	0
-4.520628	atrás	0
-3.630604	atuendo	0
-3.940013	audaz	0
-4.354043	audiencias	0
-3.666281	aumenta	0
-3.718133	aumentado	0
-4.070871	aumentaron	0
-3.765109	aumentos	0
-3.686755	aumentó	0
-3.317799	ausencia	0
-3.517112	australiano	0
-3.692428	autobús	0
-3.747904	autoevaluaciones	0
-3.654293	automóvil	0
-3.452003	automóviles	0
-3.552119	autor	0
-4.292733	autoridades	0
-4.093120	avance	0
-3.801645	avancen	0
-4.444818	avances	0
-4.201083	avanza	0
-3.800230	avanzado	0
-3.682258	avaro	0
-4.215386	avendaño	0
-3.986860	avisaremos	0
-3.934702	avión	0
-3.368574	ayer	0
-3.519529	ayuda	0
-4.106791	ayudará	0
-3.985147	aérea	0
-3.682501	aéreos	0
-3.173532	añadió	0
-3.625293	año	0
-3.099318	años	0
-3.961963	aún	0
-3.939128	baja	0
-3.610241	bajaron	0
-4.300189	baje	0
-3.898726	bajo	0
-4.213553	bajos	0
-3.652391	balladur	0
-3.452673	bancario	0
-3.322282	banco	0
-3.511499	bancolombia	0
-3.909248	bancos	0
-3.942032	basa	0
-3.904094	basado	0
-3.531173	base	0
-4.259003	bastante	0
-4.312693	basándose	0
-3.957617	batalla	0
-4.214094	batallones	0
-3.696699	baviera	0
-3.603875	beca	0
-4.039975	bena	0
-3.704422	bendiga	0
-3.762716	benítez	0
-4.502482	berlín	0
-3.624290	bernardin	0
-4.184546	bernardo	0
-3.933516	bielorrusia	0
-3.005188	bien	0
-3.848490	bienvenida	0
-3.683078	blancos	0
-4.073289	blum	0
-3.594724	bogotá	0
-4.457393	bola	0
-4.974183	bomba	0
-4.476596	bondes	0
-4.217872	bonn	0
-3.709309	bonos	0
-4.409113	boquete	0
-4.583177	borrador	0
-3.989885	borrados	0
-3.241595	bosnia	0
-4.417083	bosques	0
-3.697508	brasil	0
-3.615247	brasileño	0
-3.791057	breve	0
-3.837494	brevemente	0
-4.120229	bruselas	0
-3.898811	buceador	0
-3.646526	buen	0
-4.125192	bueno	0
-4.053505	busca	0
-4.038801	buscamos	0
-3.479771	buscar	0
-4.231678	básicos	0
-3.744599	bósforo	0
-3.803788	cabe	0
-4.067143	cabo	0
-4.090046	cabría	0
-3.658798	cachemira	0
-3.300429	cada	0
-3.641788	cadena	0
-4.214097	caer	0
-4.375987	cafetería	0
-4.036651	caja	0
-3.327237	caldera	0
-3.573737	calefacción	0
-3.987110	calidad	0
-3.965877	camacho	0
-3.696130	cambiado	0
-4.130075	cambio	0
-4.103741	cambios	0
-4.166453	cambió	0
-3.789167	campamento	0
-4.261651	campaña	0
-4.235271	campeones	0
-3.686740	campo	0
-3.590920	canalizó	0
-3.701844	canciller	0
-3.566671	cancillería	0
-4.277434	candidato	0
-3.806559	candidatos	0
-3.635061	cantante	0
-4.068363	cantidad	0
-4.025698	capacidad	0
-3.590006	capaz	0
-3.489095	capital	0
-3.757238	captura	0
-4.009704	capítulo	0
-4.157257	cara	0
-4.401734	caracas	0
-4.130580	caravana	0
-4.048470	carbón	0
-4.502328	cardona	0
-3.794897	carece	0
-3.753605	carga	0
-4.097445	cargo	0
-3.727515	carlos	0
-3.935616	carnaval	0
-4.353326	caro	0
-4.056126	carrera	0
-3.585604	carta	0
-4.255792	cartas	0
-4.031867	carteles	0
-3.795352	casa	0
-3.495068	casas	0
-3.864585	casi	0
-3.446145	casino	0
-3.175709	caso	0
-3.052117	casos	0
-3.542508	casó	0
-3.773271	catedral	0
-4.066837	catorce	0
-3.302079	católica	0
-3.483922	causa	0
-3.630266	causas	0
-3.439833	causó	0
-4.079475	cavallo	0
-3.528164	cayeron	0
-3.881914	cañoneos	0
-3.874755	ceda	0
-3.866298	cedería	0
-3.782319	celebración	0
-3.836391	cenizas	0
-3.993897	central	0
-4.046535	centro	0
-3.730868	centroamérica	0
-3.466916	cerca	0
-3.997579	cero	0
-4.293172	cerrados	0
-3.376356	cerrar	0
-4.557675	cerraron	0
-4.212587	cerrará	0
-3.559572	cerveza	0
-4.250844	cesación	0
-3.622643	cesar	0
-3.821923	cese	0
-3.812633	cetáceos	0
-3.596908	chiapas	0
-3.435411	chile	0
-4.096837	chileno	0
-3.822533	china	0
-3.652273	chocó	0
-3.734301	choferes	0
-4.173039	choques	0
-4.127407	ciega	0
-4.414075	cielo	0
-3.436678	ciento	0
-3.386808	científicos	0
-4.413124	ciernen	0
-3.792500	cierra	0
-3.461859	cierre	0
-3.878283	cierto	0
-3.585614	cifra	0
-3.286680	cifras	0
-3.461043	cinco	0
-3.761000	ciudad	0
-3.843036	civiles	0
-3.783353	civilizados	0
-3.855839	claro	0
-3.766664	clase	0
-4.107907	clasificación	0
-3.804172	claudio	0
-4.501377	clausura	0
-4.373537	clausuran	0
-4.145204	claves	0
-4.181046	climáticos	0
-4.018698	clinton	0
-4.101974	coalición	0
-4.237010	coherencia	0
-3.365930	colaboración	0
-3.981354	colaborar	0
-4.116958	coleman	0
-3.384617	colombia	0
-3.579983	colombo	0
-3.507440	colonos	0
-3.995585	columna	0
-3.248883	combates	0
-3.428651	combatir	0
-3.364213	combustible	0
-4.333664	comedia	0
-3.783086	comentado	0
-4.279166	comentar	0
-3.764037	comentario	0
-4.064380	comentarios	0
-3.339334	comentó	0
-3.400063	comenzar	0
-3.932021	comenzará	0
-3.609984	comenzarán	0
-3.662623	comerciales	0
-3.540131	comercializó	0
-3.432278	comercio	0
-3.961624	comienza	0
-4.252349	comienzo	0
-3.825250	comisionista	0
-3.866781	comisión	0
-3.022567	comité	0
-3.557813	comités	0
-3.058177	como	0
-4.157662	compara	0
-3.523486	comparte	0
-3.781775	comparten	0
-4.378299	compartieron	0
-4.853213	comparó	0
-4.031820	compasión	0
-4.007204	compatible	0
-3.770611	compañía	0
-3.565348	compensatorias	0
-4.453269	competitiva	0
-4.128464	complace	0
-3.236868	complaciente	0
-4.160127	complejo	0
-3.363086	complejos	0
-3.716662	completa	0
-3.812065	completan	0
-4.401497	completo	0
-4.234518	completos	0
-4.111888	completó	0
-3.891862	complicadas	0
-3.860245	composición	0
-3.946585	compras	0
-3.640195	comprende	0
-3.988594	comprendemos	0
-3.716267	comprender	0
-3.986768	comprenderse	0
-3.875255	comprenderá	0
-3.704304	comprendió	0
-4.062223	comprensión	0
-3.842261	comprometido	0
-3.923802	compromiso	0
-4.068431	común	0
-3.363576	con	0
-4.075154	concebido	0
-3.553573	concepto	0
-4.269486	conciencia	0
-4.077599	conclusiones	0
-4.036662	conclusión	0
-3.841615	concluye	0
-4.360939	concluídas	0
-4.169592	concluído	0
-3.612464	concreta	0
-3.769185	concretos	0
-3.110997	concuerda	0
-4.300495	concéntrese	0
-3.707482	condena	0
-4.013284	condenatorio	0
-3.584774	condiciones	0
-3.873626	condición	0
-3.947125	conductor	0
-4.442010	condujo	0
-3.274990	conexión	0
-3.671887	conferencia	0
-3.987149	confianza	0
-3.536454	confidenciales	0
-3.942140	confirmado	0
-4.141957	conflictos	0
-3.841153	conforme	0
-3.731067	confuso	0
-3.972041	congelarían	0
-3.437372	congreso	0
-3.904032	conoce	0
-3.790206	conocen	0
-3.988519	conocer	0
-4.311652	conocerla	0
-3.732946	conocida	0
-3.475373	conocido	0
-3.785749	conocimiento	0
-3.407415	consecuencia	0
-4.013979	consecutivos	0
-4.042714	conseguir	0
-3.760011	consejo	0
-3.726540	consenso	0
-4.091273	conservación	0
-3.743382	considera	0
-3.653237	considerablemente	0
-3.860842	consideración	0
-3.839005	consideró	0
-3.212276	consignaciones	0
-4.105463	consiguiente	0
-3.066184	consta	0
-3.435632	constante	0
-4.622509	constantemente	0
-4.231149	constituirán	0
-4.150982	constituye	0
-3.819207	construcciones	0
-3.718521	construir	0
-3.864532	consulta	0
-3.594226	consumado	0
-4.356218	consumo	0
-3.965075	contactado	0
-3.476831	contacto	0
-4.192606	contaduría	0
-4.083910	contemplaba	0
-3.707113	contenido	0
-4.736970	conteo	0
-3.647924	contestaron	0
-4.301005	contextos	0
-3.305418	continuaban	0
-3.973608	continuación	0
-4.090356	continuado	0
-3.765258	continuar	0
-3.833420	continuaran	0
-3.919021	continuaremos	0
-3.476748	continuarán	0
-4.140908	continúa	0
-4.107417	continúe	0
-4.531018	continúen	0
-3.889551	contra	0
-3.981836	contradicciones	0
-3.775569	contrario	0
-3.482838	control	0
-3.613112	controlado	0
-4.061296	convencidos	0
-3.552272	convención	0
-4.150986	conveniente	0
-3.868004	conversaciones	0
-3.546691	cooperación	0
-3.870724	coordinación	0
-4.350887	copa	0
-4.959582	copia	0
-4.190344	copiar	0
-4.133296	copias	0
-4.008151	cordinar	0
-3.615807	correa	0
-3.807914	correcta	0
-3.844889	correctas	0
-3.234634	correcto	0
-4.084682	corregirse	0
-3.388300	correr	0
-3.822075	correspondientes	0
-3.891872	correspondía	0
-4.214054	corro	0
-3.850108	corros	0
-3.645799	corrupción	0
-4.439831	cortar	0
-3.823874	corte	0
-3.915952	cortes	0
-3.651651	corto	0
-3.445253	cosa	0
-4.440591	cosas	0
-2.948192	costa	0
-4.152502	costo	0
-4.331956	costosas	0
-4.405623	cotización	0
-3.688932	cotizó	0
-4.144110	creado	0
-3.884857	crean	0
-4.033001	creciente	0
-4.471865	crecimiento	0
-4.178914	cree	0
-4.203284	creen	0
-3.556010	creo	0
-3.566581	creíamos	0
-3.996833	creó	0
-3.879749	crisis	0
-4.504766	cristal	0
-4.276960	criterios	0
-3.845819	critica	0
-3.730571	criticará	0
-4.256149	crucial	0
-3.704115	crudo	0
-3.810166	cruzada	0
-4.101213	crédito	0
-4.155062	críticas	0
-3.901424	críticos	0
-3.634480	cuadro	0
-4.533783	cuadros	0
-3.902921	cual	0
-3.603052	cualquier	0
-3.725928	cuando	0
-4.173776	cuanto	0
-4.009692	cuantos	0
-3.537216	cuarenta	0
-4.101226	cuarta	0
-3.456924	cuatro	0
-4.049181	cuba	0
-3.817095	cubierta	0
-3.437536	cuenta	0
-3.880954	cuentas	0
-3.938054	cuesta	0
-3.885008	cuestionario	0
-3.443432	cuestiones	0
-3.589123	cuestión	0
-4.036411	cuidadosamente	0
-3.707513	cuidadosos	0
-4.196117	cuidan	0
-4.455908	culpable	0
-3.675663	culpables	0
-3.349622	cultura	0
-4.025043	cumplen	0
-3.648911	cumplimiento	0
-3.260840	cumplir	0
-4.021776	cumplirán	0
-4.481841	curso	0
-3.531983	cursos	0
-3.353815	cuál	0
-4.341467	cuáles	0
-4.041204	cuándo	0
-3.565374	cuánta	0
-3.439982	cámara	0
-4.320003	césar	0
-4.043481	cólera	0
-3.850238	cómo	0
-4.426341	daba	0
-4.169461	dadi	0
-3.890234	dado	0
-3.943707	dan	0
-3.985548	dar	0
-3.998605	dañados	0
-3.584036	daños	0
-4.113441	de	0
-3.789476	debajo	0
-3.807183	debamos	0
-3.677500	debate	0
-4.190991	debatir	0
-4.089156	debatió	0
-3.030118	debe	0
-3.737810	debemos	0
-3.395843	deben	0
-3.792738	deber	0
-3.807159	deberá	0
-3.564322	debería	0
-3.827692	deberían	0
-4.088768	debido	0
-3.103250	debieran	0
-3.954558	debió	0
-3.876396	debo	0
-3.295727	debían	0
-4.135130	decenal	0
-4.710156	decepcionar	0
-3.853909	decida	0
-4.057685	decide	0
-3.992430	decidir	0
-4.109211	decidirá	0
-3.945597	decidió	0
-3.990572	decir	0
-4.136074	decisiones	0
-3.458104	decisión	0
-4.098680	declara	0
-3.323223	declaraciones	0
-3.802076	declaración	0
-4.088049	declaró	0
-3.631743	declinó	0
-4.064021	decreto	0
-3.210718	defenderemos	0
-4.002423	defenderse	0
-3.858755	defendió	0
-3.994051	defensa	0
-4.222996	definiciones	0
-4.129674	definición	0
-3.255708	definitivamente	0
-4.117804	definitoria	0
-4.501513	defraudar	0
-3.876945	degeneren	0
-3.959622	dejaba	0
-4.039893	dejar	0
-4.471627	dejará	0
-3.665645	dejó	0
-2.423685	del	0
-3.227100	delegaciones	0
-3.601482	delegación	0
-4.124688	delegados	0
-4.450491	demanda	0
-3.577417	demandado	0
-3.524419	demandante	0
-4.165536	demasiado	0
-3.242743	democracia	0
-4.507677	democráticamente	0
-4.028481	demora	0
-3.847515	demás	0
-3.954087	denunciarlo	0
-3.848499	departamento	0
-3.624716	departamentos	0
-3.759089	depende	0
-3.753644	deportiva	0
-3.844659	deprimido	0
-4.151819	depósitos	0
-4.124404	derecha	0
-3.179509	derecho	0
-3.171618	derechos	0
-4.060674	derrame	0
-3.726689	derrocamiento	0
-3.860609	desacuerdo	0
-4.232891	desalentadora	0
-3.424927	desarmados	0
-3.843832	desarmar	0
-3.840507	desarrollando	0
-3.646994	desarrollar	0
-3.995224	desarrollo	0
-3.962900	descarrilar	0
-5.189589	descartado	0
-3.785569	descartar	0
-4.489480	desconoce	0
-3.414067	describen	0
-3.880363	describir	0
-3.998411	describió	0
-4.534519	describía	0
-4.416559	descubrir	0
-3.218798	desde	0
-3.212949	desea	0
-4.656816	desempeña	0
-3.916143	deseo	0
-4.472498	desfigurada	0
-4.026259	desgarramiento	0
-4.011718	desglosarse	0
-3.862112	desgraciadamente	0
-3.442501	designar	0
-4.174656	desmantelar	0
-3.779746	desparición	0
-3.836202	desplazarán	0
-3.596405	despojado	0
-3.114075	después	0
-3.717821	destacó	0
-4.211987	destino	0
-3.925182	destruídos	0
-3.791978	desée	0
-3.177113	detalle	0
-3.665693	detalles	0
-3.647773	detenciones	0
-3.805848	detenido	0
-3.579465	determinación	0
-3.853132	determinado	0
-4.139410	determinan	0
-4.035105	determinarse	0
-3.447747	determinará	0
-3.933418	detrimento	0
-3.897609	detuvo	0
-3.647816	deuda	0
-3.731324	diario	0
-4.336487	diarrea	0
-4.000350	dice	0
-3.871818	dicen	0
-3.763698	dichas	0
-3.622692	dicho	0
-4.099626	dichos	0
-3.995111	dieciséis	0
-3.200735	diez	0
-3.671816	diezmada	0
-3.443655	diferencias	0
-4.818446	diferentes	0
-4.252064	diferido	0
-3.769885	dificultades	0
-4.004402	difícil	0
-4.221717	difíciles	0
-4.202460	dije	0
-3.257387	dijeron	0
-2.572071	dijo	0
-3.441957	dinero	0
-3.466196	dio	0
-3.900552	dios	0
-3.263361	diplomática	0
-3.989595	diplomático	0
-4.053330	diplomáticos	0
-3.744578	diputado	0
-4.583657	dirección	0
-3.822113	director	0
-4.062688	directorio	0
-3.824892	directrices	0
-3.905341	dirige	0
-4.142161	dirigentes	0
-4.264418	dirigió	0
-3.996691	dirigía	0
-3.823616	disculpen	0
-3.902970	discutir	0
-3.094501	discutiremos	0
-4.209148	discutirlo	0
-3.875834	discutiéndolo	0
-2.995794	diseño	0
-4.033487	disminución	0
-3.909974	disparos	0
-4.287719	dispensado	0
-4.476517	dispone	0
-3.901507	disponible	0
-3.504302	disposición	0
-4.152298	dispuestos	0
-3.503120	disputa	0
-4.107436	dista	0
-3.503914	distinguido	0
-4.195520	distintos	0
-3.994958	distraído	0
-3.873671	distribuirá	0
-4.251947	disturbios	0
-3.513796	divergencias	0
-3.707213	diversidad	0
-4.006458	diversión	0
-3.530682	diversos	0
-3.731677	divida	0
-3.612989	divididas	0
-3.806568	dividido	0
-4.690774	división	0
-3.881337	divulgado	0
-3.731734	divulgara	0
-3.704097	diálogo	0
-3.378106	doce	0
-3.231412	doctrina	0
-3.716700	documento	0
-3.398934	dolorosa	0
-3.727372	dominar	0
-4.168531	dominaron	0
-4.272595	domingo	0
-3.745711	domingos	0
-4.323391	dominicano	0
-4.356667	donde	0
-3.178103	dos	0
-3.749180	dosis	0
-3.749405	doy	0
-3.888714	drogas	0
-4.141575	duda	0
-3.707070	dudamos	0
-3.869586	duración	0
-3.739692	durante	0
-3.599331	duraron	0
-3.815620	durarán	0
-3.906003	dá	0
-4.231866	dándose	0
-3.316275	dé	0
-3.840254	débil	0
-2.997584	día	0
-3.544820	días	0
-3.629771	dólar	0
-4.208528	dólares	0
-3.680956	dónde	0
-3.767211	e	0
-3.999133	echó	0
-3.544874	economía	0
-4.222896	económica	0
-3.859264	económicamente	0
-4.306388	económico	0
-4.394946	económicos	0
-4.042402	edad	0
-4.112113	edición	0
-3.307415	edificio	0
-4.098414	edmundo	0
-3.853205	educación	0
-4.318216	educadores	0
-3.967718	efectivamente	0
-3.646292	efectos	0
-3.604594	efectuará	0
-3.756438	efectuó	0
-4.643784	ejecución	0
-4.071233	ejecutan	0
-3.276703	ejército	0
-4.269625	ejércitos	0
-2.424107	el	0
-3.079570	elecciones	0
-3.638178	elección	0
-3.556638	electores	0
-4.126410	electos	0
-4.143668	elegir	0
-3.678999	elemento	0
-4.051597	elgueta	0
-3.763667	eligen	0
-4.475387	elijen	0
-4.038919	ella	0
-3.755956	ellas	0
-3.174195	ello	0
-3.165998	ellos	0
-3.527350	eléctrica	0
-3.880083	eléctricos	0
-4.110212	elías	0
-3.493740	embargo	0
-4.748733	emigrar	0
-3.918192	emiten	0
-3.595128	emotivo	0
-3.827739	empates	0
-3.991997	empezado	0
-4.224015	empleadores	0
-4.134512	empleará	0
-3.664747	empresa	0
-3.964410	empresarios	0
-3.581019	empresas	0
-3.406724	empuja	0
-4.342003	en	0
-4.485760	encarado	0
-3.535393	encomendada	0
-4.154098	encontraban	0
-4.098683	encontrar	0
-3.878411	encontrarse	0
-3.077037	encuentra	0
-3.889870	encuentran	0
-3.503322	encuentro	0
-3.737698	encuesta	0
-4.063681	energía	0
-3.404424	enero	0
-3.932288	enfatizó	0
-3.631669	enfoque	0
-3.546018	enfrenta	0
-3.892832	enmienda	0
-3.939046	enmiendas	0
-4.147280	enseñanza	0
-3.814165	ensucian	0
-3.830736	entel	0
-3.457672	entender	0
-4.616129	entendimiento	0
-3.794652	entonces	0
-4.127007	entre	0
-3.935789	entrega	0
-3.890961	entregar	0
-2.789132	entregó	0
-4.426431	entren	0
-3.715354	entrenador	0
-3.689865	envases	0
-4.374928	envíamos	0
-3.800872	envío	0
-3.455771	epicentro	0
-4.158016	epidemia	0
-3.480237	equipo	0
-3.895719	equipos	0
-3.794754	era	0
-3.787114	eramos	0
-3.703368	error	0
-1.873806	es	0
-3.070907	esa	0
-3.761409	esas	0
-3.947875	esbozan	0
-3.330760	escalas	0
-4.560836	escapa	0
-3.248079	escapar	0
-4.367393	escasez	0
-3.963009	escaso	0
-3.789519	escasos	0
-3.889747	escogieron	0
-4.491755	escojo	0
-3.686813	escritor	0
-3.932655	escritora	0
-3.960800	escuché	0
-3.134368	escépticos	0
-3.195678	ese	0
-4.391689	esencial	0
-4.049071	esfera	0
-3.772231	esfuerzos	0
-3.361325	eso	0
-3.354908	esos	0
-4.217970	espacial	0
-3.631801	espaldarazo	0
-3.657589	españa	0
-3.822447	español	0
-3.971184	especial	0
-4.333675	especialistas	0
-3.881885	especie	0
-3.594372	especificó	0
-5.286950	espectáculo	0
-4.050381	especulación	0
-3.840185	especuló	0
-3.394602	específicos	0
-3.558356	espera	0
-4.243133	esperaba	0
-3.954203	esperamos	0
-4.172539	esperan	0
-3.662204	esperanza	0
-3.287781	esperanzado	0
-3.404173	esperar	0
-4.436021	esperarse	0
-3.781423	espero	0
-4.468729	esposa	0
-3.922836	espuma	0
-3.178077	esta	0
-3.103593	estaba	0
-3.888065	estaban	0
-4.025395	establece	0
-3.634789	establecieron	0
-4.085773	establezca	0
-4.547408	estación	0
-3.544311	estadio	0
-4.816388	estado	0
-3.514154	estados	0
-3.601139	estadounidense	0
-4.242194	estallado	0
-4.146868	estallaron	0
-3.533969	estamos	0
-3.537388	estar	0
-3.544164	estará	0
-4.072747	estarán	0
-3.502570	estas	0
-4.199762	estatal	0
-3.757761	este	0
-4.245316	estero	0
-3.528936	estimadas	0
-2.845525	esto	0
-4.154983	estonia	0
-2.846421	estos	0
-3.377215	estrecho	0
-3.838845	estrellarse	0
-3.965782	estructura	0
-4.490063	estructuras	0
-3.651327	estudia	0
-4.243859	estudian	0
-3.541248	estudio	0
-3.528259	estudios	0
-4.092117	estuvo	0
-2.959266	está	0
-3.292459	están	0
-3.743357	esté	0
-3.969283	eurodólares	0
-4.002850	europa	0
-4.043663	europeo	0
-3.010727	evaluaciones	0
-3.883726	evidente	0
-4.003528	evidentemente	0
-4.377793	evitado	0
-4.024850	evitarse	0
-4.384598	evitó	0
-4.363270	evoluciona	0
-4.050092	ex	0
-3.393064	exacerba	0
-3.731021	exacerbar	0
-4.288508	examen	0
-3.887506	examinadas	0
-3.901599	examinan	0
-3.452610	examinar	0
-3.715496	examinarse	0
-3.633985	excelsior	0
-3.687906	excepción	0
-3.752104	exceso	0
-4.486579	excluyó	0
-4.222480	exhiben	0
-3.282594	exige	0
-3.738199	exigen	0
-3.824553	exigió	0
-3.828328	existe	0
-4.446456	existían	0
-3.531562	exitosa	0
-4.017187	expectativas	0
-4.160569	experiencia	0
-3.392850	explica	0
-4.012711	explicar	0
-4.526909	explicó	0
-3.792073	explosión	0
-3.918659	expresado	0
-4.052366	expresados	0
-4.108423	expresión	0
-3.765111	expresó	0
-3.727141	exterior	0
-4.466965	extirpar	0
-4.209856	extradición	0
-4.100460	extranjeros	0
-3.239012	extremadamente	0
-3.503839	fabrica	0
-4.123793	fachada	0
-4.248741	facilidades	0
-3.966537	factor	0
-4.190723	factores	0
-4.027293	fallecido	0
-4.262965	fallo	0
-3.803733	falta	0
-3.590597	fama	0
-3.919593	familia	0
-3.471018	familiares	0
-4.266321	farias	0
-3.817038	favor	0
-4.533993	favorables	0
-4.150860	favorece	0
-3.347455	favorecido	0
-4.320887	favoritos	0
-3.739983	febrero	0
-3.421206	fecha	0
-4.138208	fecsa	0
-3.317792	federal	0
-3.816590	fenosa	0
-3.601457	fenómeno	0
-4.342752	fernando	0
-4.701052	fernández	0
-3.945470	festival	0
-3.623746	festivo	0
-3.603824	figura	0
-4.292283	fijan	0
-4.448977	filipinas	0
-3.373054	filme	0
-3.773274	filosófico	0
-3.492795	fin	0
-3.622891	final	0
-3.466985	finalidad	0
-4.132768	financiera	0
-3.835880	financieras	0
-3.462507	finanzas	0
-3.490881	fines	0
-3.991794	finlandia	0
-3.474272	firmado	0
-4.107753	firmantes	0
-3.868644	firmaremos	0
-3.703966	firmeza	0
-3.812964	flagrante	0
-3.759497	flor	0
-4.027267	flujo	0
-3.878777	fondo	0
-3.911372	fondos	0
-3.566543	forma	0
-3.733814	formación	0
-3.780801	forman	0
-4.058107	formato	0
-3.798811	formularon	0
-3.991375	forzosamente	0
-4.461158	fracasa	0
-3.503386	fracasado	0
-4.081777	francas	0
-3.426188	francfort	0
-3.729630	francia	0
-3.325904	francés	0
-4.682990	franja	0
-4.353574	frecuencia	0
-3.884849	frecuente	0
-3.769605	frenado	0
-3.436271	frente	0
-3.867249	frío	0
-2.564795	fue	0
-3.935514	fuego	0
-3.986666	fuente	0
-3.589386	fuera	0
-3.775000	fueran	0
-3.966996	fueron	0
-3.737508	fuerte	0
-3.603036	fuertemente	0
-3.543463	fuertes	0
-3.814643	fuerza	0
-4.514109	fuerzas	0
-3.457914	fugitivo	0
-3.919230	fumaba	0
-3.962665	funcionario	0
-4.281931	funcionarios	0
-3.405742	funciones	0
-3.606914	futuro	0
-4.535566	fábrica	0
-3.635013	físico	0
-3.896203	fórmula	0
-4.166308	galardona	0
-4.297354	galería	0
-3.330209	galina	0
-3.372826	gama	0
-3.982323	gana	0
-4.492576	ganado	0
-3.291237	ganando	0
-3.541152	ganar	0
-3.518351	gane	0
-4.235168	garcía	0
-4.244260	gas	0
-4.034518	gastos	0
-3.459679	general	0
-4.098891	generales	0
-3.815974	generar	0
-3.498453	gente	0
-3.547822	georgia	0
-4.026608	germán	0
-4.377546	gestos	0
-3.684361	gigantes	0
-4.196458	ginebra	0
-3.795307	global	0
-4.304800	gobernar	0
-3.286366	gobierna	0
-3.456708	gobierno	0
-4.079076	gobiernos	0
-4.306865	goles	0
-4.409467	golfo	0
-3.280619	golpeados	0
-3.753245	golpizas	0
-3.862117	golán	0
-3.563577	gonzález	0
-3.982241	goycochea	0
-3.380650	gracias	0
-3.948396	graciela	0
-3.547878	gran	0
-3.396836	grato	0
-4.000090	grecia	0
-3.761336	grito	0
-3.910040	grupo	0
-3.950018	grupos	0
-4.253850	guayaquil	0
-4.335295	gubernamental	0
-3.286275	guerra	0
-4.340887	guerrillero	0
-4.591014	guerrilleros	0
-3.053928	gusta	0
-4.163852	gusto	0
-4.001359	ha	0
-3.388194	habanos	0
-3.443736	haber	0
-3.275326	habido	0
-3.711967	habitual	0
-3.906686	habla	0
-3.812518	hablando	0
-3.645045	hablar	0
-3.508877	habló	0
-4.115721	habrá	0
-4.171247	habría	0
-3.523057	había	0
-3.446987	hace	0
-3.937821	hacen	0
-4.343637	hacer	0
-3.551541	hacerlo	0
-3.990760	hacia	0
-3.980195	haciendo	0
-3.782247	hagan	0
-3.595208	hago	0
-2.951697	han	0
-3.800358	hará	0
-4.313107	harán	0
-3.154158	hasta	0
-3.715539	hay	0
-3.110412	haya	0
-3.236911	he	0
-3.443460	hecho	0
-3.029664	hechos	0
-3.725339	hemos	0
-3.853939	henríquez	0
-4.151749	herida	0
-3.358890	heridas	0
-3.461876	heridos	0
-3.518737	hice	0
-3.029635	hicimos	0
-4.302183	hidroeléctrica	0
-4.140289	hija	0
-3.360752	hijas	0
-3.717907	hijo	0
-3.595871	hijos	0
-3.841027	historia	0
-3.680631	histórico	0
-3.530186	hizo	0
-3.611947	hogar	0
-3.398135	hombre	0
-4.137040	homero	0
-3.704068	homicidio	0
-4.232917	honduras	0
-3.528816	honor	0
-3.958409	hora	0
-4.371788	horacio	0
-4.069447	horarios	0
-3.890803	horas	0
-3.271986	horno	0
-4.359024	hornos	0
-3.979586	horrible	0
-3.443823	horriblemente	0
-3.435834	hospital	0
-3.291290	hoy	0
-3.740178	hubiera	0
-4.157369	hubieran	0
-3.140232	hubo	0
-3.711174	huelga	0
-4.066211	humanidad	0
-3.717650	humanos	0
-3.909911	humildemente	0
-3.678234	huída	0
-3.599527	iberdrola	0
-3.527767	idea	0
-3.612712	ideas	0
-3.952887	identidad	0
-4.058009	identifican	0
-3.399740	ido	0
-3.930657	idénticos	0
-4.313661	ignoraba	0
-3.320829	ignorado	0
-3.992859	igual	0
-4.262624	igualdad	0
-4.106653	igualmente	0
-3.689671	ilaria	0
-4.148964	ilusiones	0
-4.041869	imagen	0
-3.507259	imaginación	0
-3.286529	imitado	0
-4.117321	impidió	0
-4.507058	implantara	0
-3.829790	importa	0
-4.558381	importaba	0
-4.261494	importancia	0
-4.104288	importante	0
-3.733860	importantes	0
-4.206123	impositivas	0
-3.245226	improvisados	0
-3.365797	impuestos	0
-3.299436	impulsar	0
-3.917470	impuso	0
-3.659928	inaceptable	0
-4.091800	inaplicable	0
-3.959025	incautaron	0
-3.496313	incendio	0
-3.870474	incentivo	0
-4.529425	incentivos	0
-3.726542	inciertas	0
-3.604617	incluso	0
-3.661551	incluye	0
-4.302946	incursiones	0
-4.040577	indebido	0
-3.056950	independencia	0
-4.670973	independientemente	0
-3.445936	indica	0
-3.778357	indican	0
-3.632502	indicios	0
-4.116628	indicó	0
-3.620383	indios	0
-3.356534	indique	0
-4.319836	indispensable	0
-3.235280	inductivo	0
-3.539635	industria	0
-3.971675	industrializados	0
-4.160008	inevitable	0
-3.775140	inflación	0
-3.401145	influencia	0
-3.635894	información	0
-4.341098	informado	0
-3.988629	informados	0
-3.353941	informe	0
-3.277679	informes	0
-4.254094	informó	0
-3.950051	inglaterra	0
-4.276216	inglés	0
-3.180441	inicia	0
-3.754008	inician	0
-4.700491	iniciativa	0
-4.182237	iniciativas	0
-3.366144	inmediato	0
-3.578162	inmediatos	0
-3.617997	inquieto	0
-3.913124	inscriben	0
-3.528101	insiste	0
-3.368290	insistió	0
-4.070685	inspectores	0
-3.465967	insta	0
-4.874755	instalaciones	0
-3.658965	instalan	0
-4.171754	institucionaliza	0
-4.219777	integra	0
-4.261516	intelectual	0
-3.904521	intención	0
-3.753053	intensas	0
-4.080158	intentaran	0
-3.615162	intento	0
-3.784775	interbancaria	0
-3.768444	interesados	0
-3.834784	interior	0
-3.947544	interna	0
-3.658562	internacional	0
-3.930875	internacionales	0
-3.604879	intervencion	0
-3.954795	interventor	0
-3.104622	interés	0
-3.665012	intolerable	0
-3.532969	inutilizables	0
-3.865008	inventado	0
-3.880227	inversiones	0
-4.128845	inversionistas	0
-4.179836	investigaciones	0
-3.491144	investigación	0
-3.821775	invierno	0
-4.293892	ir	0
-3.431073	irreal	0
-3.851896	irregular	0
-3.893167	irrelevante	0
-4.338717	irá	0
-3.853746	irán	0
-4.287224	iría	0
-4.050074	israel	0
-3.290645	israelíes	0
-3.206663	italia	0
-3.967889	itinerario	0
-4.266950	jaime	0
-4.977916	janeiro	0
-3.748779	japoneses	0
-3.895503	japonés	0
-3.435930	japón	0
-3.563917	jerusalén	0
-3.858669	jerárquicas	0
-4.351102	jesús	0
-3.858876	juan	0
-4.070673	jubilaciones	0
-3.435159	juega	0
-3.204966	juego	0
-4.542109	jueves	0
-3.739803	jugado	0
-3.652666	jugar	0
-4.061387	jugará	0
-3.906018	juicio	0
-3.583220	juicios	0
-4.135982	julio	0
-4.729376	junio	0
-4.466410	junta	0
-4.061115	jurado	0
-4.119756	jurista	0
-3.846897	justa	0
-3.437554	justicia	0
-4.188187	justifica	0
-3.642923	justificación	0
-3.434644	justificadas	0
-3.769179	juventud	0
-3.413383	la	0
-3.785526	labor	0
-3.829686	lacalle	0
-3.923894	ladra	0
-3.981138	lamenta	0
-3.589644	lamentaba	0
-4.062196	lamentablemente	0
-4.065000	lamentó	0
-4.202889	lanzarse	0
-3.589994	largo	0
-3.075339	las	0
-3.537153	latina	0
-3.014053	le	0
-4.389902	leer	0
-3.717254	legal	0
-4.388496	legalizar	0
-3.955312	lejos	0
-4.391005	lengua	0
-3.474166	lento	0
-4.049521	lentos	0
-3.752478	les	0
-4.827085	lesionadas	0
-3.303068	lesionados	0
-3.943974	lesiones	0
-4.108405	lesión	0
-4.273474	levantando	0
-4.243382	leve	0
-3.562209	ley	0
-3.759989	liberal	0
-3.989228	liberarían	0
-3.783675	libertad	0
-3.362306	libre	0
-4.135845	lienzo	0
-4.132558	liga	0
-3.661619	ligera	0
-3.554927	ligeramente	0
-4.157951	limitado	0
-4.125610	limitados	0
-4.187651	limitan	0
-4.836062	linares	0
-3.602114	liquidar	0
-3.994878	lista	0
-3.717812	listas	0
-4.377615	llamarse	0
-3.672108	llameante	0
-3.254984	llamó	0
-3.802965	llega	0
-4.173099	llegado	0
-3.082614	llegar	0
-3.657494	llegue	0
-4.519259	llegó	0
-4.335749	lleras	0
-3.551245	llevaría	0
-3.803502	llevé	0
-3.369495	llevó	0
-2.292154	lo	0
-4.098754	local	0
-4.232701	locales	0
-4.021008	localizó	0
-4.181259	logrado	0
-3.606840	lograr	0
-4.090748	logros	0
-4.045161	logísticamente	0
-3.791005	londres	0
-2.712847	los	0
-4.256220	lucha	0
-3.661968	luego	0
-3.478464	lugar	0
-4.264782	lugares	0
-4.085531	lunes	0
-3.870255	líder	0
-4.510100	líderes	0
-3.941334	límite	0
-3.892781	línea	0
-4.389379	lógicamente	0
-3.169963	madrazo	0
-4.129785	madrid	0
-3.845460	madurez	0
-3.610849	maestra	0
-3.501794	magnitud	0
-3.793185	mal	0
-4.144607	mala	0
-3.628469	malas	0
-3.985167	malo	0
-3.763955	manada	0
-3.966817	mandato	0
-3.764158	mandela	0
-4.013833	manera	0
-4.043149	manifestar	0
-4.424520	maniobra	0
-4.252605	maniobras	0
-3.936374	mantendrán	0
-3.743926	mantener	0
-4.225942	manteniendo	0
-3.856424	mantenimiento	0
-3.644983	mantiene	0
-4.037373	mantuvieron	0
-3.798932	mantuvo	0
-3.670397	mapuche	0
-4.187809	mar	0
-3.910996	marcador	0
-3.955852	marchaba	0
-4.386823	marco	0
-4.801577	marcos	0
-4.277558	marfil	0
-3.746607	margen	0
-3.489136	marismas	0
-3.337153	martes	0
-3.699553	marzo	0
-4.663074	masiva	0
-3.686746	matar	0
-3.945127	materia	0
-3.834198	material	0
-3.590983	materialize	0
-3.997936	mayo	0
-3.647526	mayor	0
-3.773799	mayores	0
-3.908088	mayormente	0
-3.936021	mayoría	0
-2.794714	mañana	0
-3.044612	me	0
-3.762983	mecanismos	0
-3.695888	media	0
-3.739866	medianoche	0
-3.636084	mediante	0
-4.010628	medicina	0
-3.890380	medida	0
-3.820630	medidas	0
-3.751973	medio	0
-3.682260	mediocampo	0
-3.635734	medios	0
-3.834929	mejor	0
-3.170412	mejorado	0
-3.693254	mejoramiento	0
-3.205025	mejoran	0
-3.914591	mejorar	0
-4.129160	mejores	0
-4.364141	memorando	0
-3.830283	menciona	0
-3.927330	mencionado	0
-3.641653	mencionar	0
-3.491949	menem	0
-3.689673	menores	0
-3.201959	menos	0
-3.330046	mensuales	0
-3.993234	menudo	0
-3.977320	mera	0
-3.407886	mercado	0
-4.409612	mercados	0
-3.776301	mercosur	0
-4.146908	mercouri	0
-3.861387	mesa	0
-3.999472	meses	0
-3.283835	meta	0
-3.323365	mi	0
-3.690328	miedo	0
-4.315087	miembro	0
-3.571857	miembros	0
-3.532303	mientras	0
-4.103822	migrantes	0
-3.154631	miguel	0
-4.367149	miguelito	0
-4.236405	mil	0
-3.738869	militar	0
-3.749817	militares	0
-3.906993	millonario	0
-3.382896	millones	0
-4.297650	milán	0
-3.717517	mina	0
-4.514420	mineros	0
-3.505538	ministerial	0
-4.113233	ministerio	0
-4.060921	ministro	0
-3.956923	ministros	0
-3.817944	minucioso	0
-3.957568	minuto	0
-3.801950	mir	0
-3.807694	mis	0
-3.723998	misericordia	0
-3.629990	misma	0
-4.341200	mismas	0
-4.045172	mismo	0
-3.544360	mitad	0
-4.014822	miércoles	0
-3.287907	moción	0
-3.843253	modelo	0
-3.699299	modelos	0
-3.927832	moderado	0
-3.571165	modernos	0
-3.987498	modestos	0
-4.281447	modificó	0
-3.686400	molesta	0
-3.724227	momento	0
-3.874971	momentos	0
-4.107632	monarquía	0
-4.099792	monografías	0
-4.311393	monopolio	0
-3.430271	monselas	0
-3.436458	montenegro	0
-4.117615	morirá	0
-3.609228	moscú	0
-4.084204	mostró	0
-3.312901	motivo	0
-3.446142	moverlo	0
-4.029879	mucha	0
-4.923146	muchacha	0
-3.507424	muchas	0
-3.131780	mucho	0
-3.471133	muchos	0
-4.316074	muere	0
-4.112135	mueren	0
-4.114615	muerte	0
-4.258698	muerto	0
-4.268249	muertos	0
-3.669884	muestra	0
-4.209796	muestras	0
-3.743504	mujer	0
-3.465107	mujeres	0
-3.430914	multas	0
-3.968721	mundiales	0
-3.361031	mundo	0
-3.153536	murieron	0
-4.197282	murió	0
-3.628749	murmura	0
-4.328585	musulmanes	0
-2.263544	muy	0
-3.833235	más	0
-4.103693	mástil	0
-4.431731	médica	0
-4.009904	médicos	0
-3.333953	méxico	0
-4.335211	mí	0
-3.447398	mínimo	0
-4.128142	múltiples	0
-3.553443	música	0
-4.183582	nacido	0
-3.852568	nacional	0
-3.859713	nacionalidades	0
-3.819122	naciones	0
-3.986171	nación	0
-2.911359	nada	0
-3.541539	nadie	0
-4.123119	naturales	0
-3.607655	nave	0
-4.268987	naves	0
-3.735438	necesaria	0
-3.805024	necesario	0
-3.985331	necesidad	0
-3.811599	necesidades	0
-3.938113	necesitamos	0
-2.956096	necesitan	0
-4.322878	necesitarían	0
-3.865979	negaron	0
-3.666139	negativamente	0
-3.765047	negativo	0
-3.635341	negociaciones	0
-4.001381	negociando	0
-4.353948	negocio	0
-3.761633	negocios	0
-3.964972	negra	0
-4.343892	negó	0
-4.012508	neta	0
-3.411924	ni	0
-4.024444	niega	0
-2.960692	niegan	0
-3.811384	ninguna	0
-4.031255	ninguno	0
-3.599207	ningún	0
-3.911558	nivel	0
-4.079709	niveles	0
-4.150489	niño	0
-3.901672	niños	0
-2.964482	no	0
-3.693810	noche	0
-4.071925	nombrado	0
-3.471457	nombraron	0
-4.408485	nombre	0
-4.120689	nominal	0
-4.195868	norcoreanas	0
-3.389135	normal	0
-3.285954	normalidad	0
-4.158056	normas	0
-4.258328	norte	0
-3.746363	norteamericano	0
-3.158489	nos	0
-3.225820	nosotros	0
-3.785799	nota	0
-3.313446	notable	0
-4.064877	notas	0
-4.347097	noticia	0
-4.649032	noticias	0
-3.777555	novecientos	0
-4.149521	novedad	0
-4.517108	novedades	0
-3.956998	noviembre	0
-4.084481	nuclear	0
-4.451224	nucleares	0
-4.364955	nueces	0
-3.292305	nuestra	0
-3.943713	nuestras	0
-4.437878	nuestro	0
-3.925681	nuestros	0
-4.202776	nueva	0
-4.093077	nuevamente	0
-3.892692	nuevas	0
-3.991400	nueve	0
-3.413576	nuevo	0
-4.187956	nuevos	0
-4.631648	numerosas	0
-3.993143	numerosos	0
-4.038183	nunca	0
-3.373055	o	0
-3.643265	objetivo	0
-3.874306	objetivos	0
-4.387814	objeto	0
-3.946792	obra	0
-4.108479	obras	0
-3.623164	observaciones	0
-3.275977	obstante	0
-3.543367	ocasiones	0
-4.199757	ocasión	0
-4.026811	occidental	0
-3.659533	occidente	0
-3.382216	ocho	0
-4.030376	ocupa	0
-3.426498	ocupaban	0
-3.440131	ocupados	0
-3.835888	ocurre	0
-3.873749	ocurrir	0
-3.878523	ocurrirá	0
-3.767050	oeste	0
-3.480459	ofendido	0
-4.357938	oferta	0
-2.782656	oficial	0
-3.746418	oficiales	0
-4.025387	oficina	0
-3.569623	ofrece	0
-4.154580	ofrecer	0
-4.188209	ofrecimiento	0
-4.073059	ofreció	0
-4.527845	olvidar	0
-3.643413	omar	0
-3.956949	omisión	0
-4.156559	onza	0
-3.742391	opciones	0
-3.409780	opción	0
-4.055298	operaciones	0
-3.421036	operación	0
-4.800704	operar	0
-3.930665	opinan	0
-3.711533	opiniones	0
-4.135059	opinión	0
-3.977540	opinó	0
-3.835685	oposición	0
-3.591537	opositores	0
-3.590091	optativo	0
-3.709143	optimista	0
-3.559325	optimistas	0
-3.614625	opuesta	0
-4.194206	orador	0
-3.387729	oradores	0
-3.836757	orcas	0
-4.097061	orden	0
-4.055925	ordinaria	0
-3.745234	organismo	0
-3.653230	organismos	0
-4.276670	organizar	0
-3.435994	orientado	0
-4.090959	oriental	0
-3.577724	oro	0
-3.883090	oscar	0
-3.304180	otra	0
-3.552063	otras	0
-3.058657	otro	0
-2.395357	otros	0
-4.175273	pacificadores	0
-3.927818	pacto	0
-3.559812	padre	0
-3.766264	pagado	0
-4.157444	pagan	0
-4.346529	pagar	0
-3.791177	pago	0
-3.413874	palabra	0
-3.937806	palabras	0
-3.621700	palacio	0
-4.647968	palacios	0
-4.108898	palencia	0
-4.141492	palti	0
-4.475770	pan	0
-3.466660	papa	0
-4.418675	papel	0
-3.740976	papeles	0
-3.836437	par	0
-2.914197	para	0
-3.490850	paradero	0
-3.561247	paraliza	0
-3.833501	parciales	0
-5.023203	parcialmente	0
-3.693171	parece	0
-3.455876	parecer	0
-3.032544	parlamento	0
-3.375714	parra	0
-3.293613	parte	0
-3.667256	partes	0
-3.734733	participó	0
-3.729014	particular	0
-4.016731	partidaria	0
-3.622901	partidario	0
-4.103426	partidas	0
-3.792276	partido	0
-3.754456	partidos	0
-4.022501	parís	0
-3.114795	pasa	0
-4.224158	pasado	0
-3.682127	pasajeros	0
-3.588736	pasar	0
-3.975918	paso	0
-3.878262	pasos	0
-4.415958	passarella	0
-3.842952	pasó	0
-4.230142	patrullada	0
-3.839773	paulo	0
-2.757451	paz	0
-2.607146	país	0
-2.786522	países	0
-4.218907	peleara	0
-4.495672	peligros	0
-3.320390	peligroso	0
-3.725779	pelota	0
-4.356898	película	0
-3.747365	pendientes	0
-4.472680	pensaba	0
-3.630605	pensado	0
-3.999244	pensar	0
-3.869203	pensiones	0
-3.876556	peor	0
-4.040631	pequeña	0
-3.403573	pequeño	0
-4.210399	pequeños	0
-3.947977	percibe	0
-3.851200	perdemos	0
-3.618704	perder	0
-3.526609	perdido	0
-4.002070	perdía	0
-3.617913	peres	0
-3.742099	perfecta	0
-3.032809	perfectamemnte	0
-3.686585	pericial	0
-3.595167	periodistas	0
-4.096786	periódicos	0
-4.014545	perlas	0
-3.450470	permitan	0
-4.560856	permitido	0
-3.649767	permitirse	0
-3.862924	permitirá	0
-3.312993	pero	0
-4.233811	perro	0
-4.172858	persigue	0
-4.150533	persona	0
-4.034447	personal	0
-3.093313	personas	0
-4.334917	perspicacia	0
-3.360370	pertenecían	0
-4.003373	pertinente	0
-3.805084	perturbación	0
-4.259251	peruano	0
-3.332218	peruanos	0
-3.843317	período	0
-4.358573	períodos	0
-4.199173	perú	0
-3.988097	pesa	0
-3.749038	pesca	0
-3.524052	pese	0
-3.476797	peseta	0
-3.713921	petición	0
-3.688076	petrolera	0
-3.737086	petrolero	0
-3.708143	petróleo	0
-3.856746	piano	0
-3.939399	pido	0
-4.698943	pie	0
-3.597033	piensa	0
-3.990701	pienso	0
-3.826775	piezas	0
-4.680839	pilotos	0
-3.685266	plan	0
-3.369597	planas	0
-3.494297	planeaba	0
-3.663105	planeta	0
-3.456307	planos	0
-4.493495	plantas	0
-4.093502	plantearon	0
-4.446504	plantearse	0
-4.007931	plata	0
-4.683182	plaza	0
-3.666773	plazo	0
-3.508001	pleno	0
-3.528077	plácido	0
-4.094042	población	0
-3.833071	poco	0
-3.786713	pocos	0
-4.320279	podamos	0
-2.631132	podemos	0
-3.948222	poder	0
-3.487411	poderes	0
-3.580774	poderoso	0
-3.913594	podrá	0
-3.471345	podrán	0
-3.782823	podría	0
-3.761667	podríamos	0
-3.902294	podían	0
-4.000381	polariza	0
-3.508464	polemiza	0
-4.056901	policial	0
-2.916364	policía	0
-3.821232	política	0
-4.054521	político	0
-3.769118	políticos	0
-3.801215	pondría	0
-4.106065	poner	0
-3.510728	ponernos	0
-4.258937	popular	0
-2.437779	por	0
-3.233628	porque	0
-4.331322	porqué	0
-3.972817	portero	0
-4.166894	posibilidades	0
-3.203444	posible	0
-3.384919	posiciones	0
-3.154063	posición	0
-4.061491	positivas	0
-3.114338	positivo	0
-3.293000	posterioridad	0
-4.989989	posteriormente	0
-3.918246	potestad	0
-3.519877	practique	0
-3.890816	precaución	0
-3.558659	precedente	0
-4.384969	precio	0
-3.752239	precios	0
-3.740183	preciso	0
-4.151207	precisos	0
-4.049255	preguntas	0
-4.409097	preguntó	0
-4.211092	premio	0
-3.541980	prensa	0
-4.166931	preocupación	0
-3.982505	preocupado	0
-3.899858	preocupantes	0
-3.337970	preparado	0
-3.944469	preparan	0
-3.778411	presencia	0
-3.847725	presenta	0
-3.156803	presentación	0
-3.979538	presentaron	0
-3.666211	presente	0
-3.662649	presentó	0
-3.686707	presidencial	0
-3.369046	presidenciales	0
-3.381838	presidente	0
-3.619149	presión	0
-3.986927	presos	0
-4.047918	prestó	0
-3.705448	presupuesto	0
-4.193826	pretendemos	0
-3.961393	preveo	0
-3.819466	primer	0
-3.803700	primera	0
-3.566412	primeras	0
-3.650943	primero	0
-3.221143	principal	0
-4.642015	principalmente	0
-4.086506	principio	0
-3.713208	principios	0
-3.854611	prioridad	0
-3.731740	privada	0
-3.424604	privatizaciones	0
-4.289251	probable	0
-3.758706	probablemente	0
-2.935084	problema	0
-3.142962	problemas	0
-3.566685	problemáticos	0
-3.745711	proceda	0
-3.906085	procedente	0
-3.470606	procedimiento	0
-3.606679	procedió	0
-4.141774	proceso	0
-4.551045	procesos	0
-4.365170	proclama	0
-4.299733	procupación	0
-4.102166	producción	0
-3.896747	producido	0
-3.568960	produciría	0
-3.832877	producto	0
-3.995000	productos	0
-3.651124	produzcan	0
-3.663210	programa	0
-3.724020	programado	0
-3.715338	programas	0
-3.772760	progresan	0
-4.208984	progreso	0
-3.884086	prohibe	0
-4.042526	prometido	0
-4.109093	promoverá	0
-3.302824	pronta	0
-3.684548	pronto	0
-3.949294	propaganda	0
-3.647382	propia	0
-4.191628	propio	0
-3.706250	proporciona	0
-4.070520	proporcionó	0
-3.764539	propuesta	0
-3.659147	propuestas	0
-4.069324	propuesto	0
-3.837560	propuestos	0
-3.557333	propuso	0
-3.488773	propósito	0
-3.454975	prorroga	0
-4.107290	proscribir	0
-3.628685	prostitución	0
-4.464570	proteger	0
-4.206476	protocolo	0
-4.362930	protocolos	0
-3.736359	provincia	0
-4.462139	provisional	0
-4.068918	provocaría	0
-2.855543	proyectaba	0
-3.401149	proyecto	0
-3.448597	proyectos	0
-4.234099	prudente	0
-3.871389	pruebas	0
-3.709884	práctica	0
-3.972006	prácticamente	0
-4.359347	próxima	0
-3.423597	próximamente	0
-4.187047	próximo	0
-3.732412	próximos	0
-4.172040	publicación	0
-3.600818	publicado	0
-4.286623	publicarían	0
-3.819872	pudo	0
-3.083128	pueblo	0
-3.764551	pueda	0
-3.662625	puede	0
-2.835416	pueden	0
-3.335983	puedo	0
-3.529405	puerta	0
-4.191822	puertorriqueñas	0
-3.225735	pues	0
-3.213028	puesto	0
-4.338723	pulpo	0
-4.063608	punto	0
-4.553398	página	0
-3.928020	pánico	0
-3.107373	párrafo	0
-2.934443	pérdida	0
-4.460432	pérsico	0
-3.770154	pública	0
-4.038056	públicas	0
-3.498433	público	0
-3.573931	públicos	0
-3.758090	que	0
-3.669755	queda	0
-3.734042	quedado	0
-4.074908	quedar	0
-3.568849	quedaron	0
-4.412765	quedarse	0
-3.641224	quedó	0
-4.033037	queremos	0
-3.939933	quería	0
-3.572139	queríamos	0
-4.012319	querían	0
-3.683906	quien	0
-3.209934	quienes	0
-3.856820	quieran	0
-3.056861	quiere	0
-3.956218	quieren	0
-3.533558	quiero	0
-3.246511	quinta	0
-4.111140	quise	0
-4.087516	quisiera	0
-3.766237	quiso	0
-3.293769	quito	0
-3.818939	quitó	0
-3.881060	quizo	0
-3.747301	quién	0
-3.587747	qué	0
-3.923189	quédense	0
-3.334281	racionamiento	0
-3.854343	racismo	0
-4.146002	radical	0
-4.461133	radio	0
-3.731513	ramos	0
-3.461824	rara	0
-3.756167	razon	0
-3.321429	razones	0
-3.210735	razón	0
-3.634291	raíz	0
-3.788916	reaccionar	0
-3.245973	reacción	0
-4.043642	realista	0
-4.011150	realiza	0
-4.117190	realizada	0
-3.865655	realizado	0
-4.800892	realizan	0
-3.677888	realizar	0
-3.788936	realizó	0
-3.844811	realmente	0
-4.061591	reanudada	0
-3.921894	reanudemos	0
-3.596427	rebeldes	0
-3.803509	recae	0
-3.251055	recalcan	0
-4.217334	rechazada	0
-3.653328	rechazado	0
-3.779884	rechazaron	0
-4.260043	reciben	0
-3.578088	recibido	0
-3.667471	recibir	0
-3.884883	recibió	0
-4.004647	recién	0
-4.399643	reclamaba	0
-4.455563	reclamaron	0
-3.833035	reclutarlas	0
-4.023151	recogió	0
-2.842517	recomendación	0
-3.943282	reconstrucción	0
-4.364865	recorren	0
-3.921636	recrudece	0
-4.039530	recuperado	0
-3.669619	recurrió	0
-3.520818	recurso	0
-3.611654	recursos	0
-3.928465	red	0
-3.702332	redacción	0
-3.348403	reduccion	0
-4.133848	reduce	0
-3.952970	reducida	0
-3.731653	reducido	0
-3.888774	reducir	0
-4.049565	reelegidos	0
-3.520930	referencia	0
-3.476102	referidas	0
-4.866293	referirme	0
-4.134940	referirán	0
-4.086242	referían	0
-4.034931	refiere	0
-3.832309	refinerías	0
-4.503623	refirió	0
-4.270829	reforma	0
-3.296467	reformas	0
-3.364244	refugiados	0
-3.807560	regir	0
-4.455641	registra	0
-3.407194	registrada	0
-4.558989	registro	0
-4.094233	registrándose	0
-4.202692	región	0
-3.739653	regla	0
-4.350401	reglamentaciones	0
-4.084516	regresar	0
-3.567892	regreso	0
-4.057271	regresó	0
-3.769660	regular	0
-3.789174	rehabilitar	0
-4.077772	rehusado	0
-4.051382	rehusó	0
-3.572912	reinar	0
-3.942495	reitera	0
-3.775993	relaciones	0
-4.570848	relación	0
-4.038986	relativamente	0
-4.431000	relativas	0
-4.080469	relator	0
-4.062169	relató	0
-4.779342	relevancia	0
-4.087617	religiosa	0
-3.923640	remedios	0
-4.416055	remitida	0
-3.952819	remuneración	0
-4.039408	rendimos	0
-4.162151	renovarse	0
-3.552198	renuncia	0
-3.630362	reordenados	0
-4.023910	reparaciones	0
-3.873963	repercutió	0
-3.676402	repetir	0
-4.685231	repetirse	0
-3.244939	reportó	0
-4.324557	represalias	0
-3.679440	representante	0
-4.110845	representantes	0
-4.043335	representar	0
-4.123336	reprogramación	0
-3.966335	repuesto	0
-4.714177	requerido	0
-3.846823	requerirán	0
-4.220408	requiere	0
-3.927444	requirimientos	0
-3.732967	resa	0
-3.970303	reserva	0
-4.245710	reservado	0
-4.093583	reservas	0
-3.719533	reses	0
-3.861974	resistencia	0
-3.812108	resolución	0
-4.265084	resolver	0
-4.530310	respalden	0
-3.517047	respaldo	0
-3.671579	respectivo	0
-3.674987	respecto	0
-3.986848	respetando	0
-4.404059	respetar	0
-3.883596	respiro	0
-4.177735	responder	0
-3.815882	responderemos	0
-4.070323	respondió	0
-4.261405	responsabilizado	0
-2.936556	respuesta	0
-4.172281	restableció	0
-3.692812	restantes	0
-4.032357	restaurados	0
-3.521307	resto	0
-4.202940	restos	0
-3.880434	restricción	0
-4.730471	resueltos	0
-3.164966	resulta	0
-3.699657	resultado	0
-3.562805	resultados	0
-4.054826	resultaron	0
-3.661796	retenían	0
-3.589552	retirada	0
-4.248007	retirado	0
-4.126366	retirar	0
-3.672215	retirarse	0
-3.662398	reuniones	0
-4.301489	reunir	0
-4.340317	reunirán	0
-3.593308	reunión	0
-4.006047	reuní	0
-3.758595	revelado	0
-3.835051	revelados	0
-4.103102	revelar	0
-3.927305	reveses	0
-3.660946	revisando	0
-3.817486	revisarse	0
-4.648345	revisó	0
-3.768386	revuelo	0
-3.643386	rey	0
-5.568082	reyes	0
-4.340931	reúne	0
-3.676804	riendo	0
-4.061545	riesgo	0
-3.744749	rio	0
-4.101018	ritmo	0
-3.827365	riñón	0
-3.120957	robando	0
-3.799870	rojo	0
-3.903146	rompieron	0
-4.241737	ronda	0
-3.399569	ruanda	0
-4.177023	rubro	0
-4.171615	rumbo	0
-4.251959	rumores	0
-4.114928	rusa	0
-3.292414	rusia	0
-3.584711	rusos	0
-4.054760	ruta	0
-3.455662	rutinariamente	0
-4.199271	rápidamente	0
-3.647627	régimen	0
-3.771545	río	0
-4.302702	ríos	0
-3.567353	sabe	0
-3.386031	sabemos	0
-3.743936	saber	0
-4.267005	sabotaje	0
-3.949874	sabía	0
-3.696038	sabían	0
-3.627548	sacado	0
-4.212999	sal	0
-3.690237	sala	0
-3.264755	salario	0
-3.331969	saldar	0
-4.029164	saliente	0
-4.051036	salieron	0
-3.651283	salir	0
-3.523102	salud	0
-3.923580	salva	0
-3.200356	salvador	0
-3.966629	salvar	0
-3.596160	salvo	0
-3.756594	sana	0
-3.982151	sanciones	0
-3.146658	sangre	0
-3.627794	santiago	0
-4.273410	saqueadas	0
-3.811407	sarajevo	0
-3.264747	satisfactoria	0
-4.212085	satisfactorio	0
-3.718456	saínz	0
-3.510978	se	0
-3.412858	sea	0
-4.050519	secciones	0
-4.020806	sección	0
-4.305560	secretaria	0
-3.315040	secretario	0
-3.788230	sector	0
-3.440612	sectores	0
-3.639713	seguir	0
-3.585584	seguirá	0
-4.363957	segunda	0
-3.499089	segundo	0
-4.139916	seguridad	0
-3.845814	seguro	0
-3.406569	seguía	0
-4.020939	según	0
-3.632174	seis	0
-3.959324	sela	0
-4.225423	seleccionó	0
-3.565681	semana	0
-4.121161	semanales	0
-4.200810	senado	0
-3.584577	sencilla	0
-4.224320	sencillísima	0
-4.307837	sensato	0
-3.868021	sentencias	0
-3.869664	sentir	0
-3.924139	separación	0
-3.699497	separado	0
-3.678240	separatista	0
-3.799032	septiembre	0
-3.280551	ser	0
-3.666769	serbia	0
-4.243953	serie	0
-3.999122	seriedad	0
-3.763058	serio	0
-3.746204	servicio	0
-3.626318	servicios	0
-3.668264	será	0
-3.551962	serán	0
-3.998619	sería	0
-3.500957	sesiones	0
-3.806631	sesión	0
-4.306819	setenta	0
-4.862427	severos	0
-4.214725	sevilla	0
-3.628444	sexual	0
-4.048512	señalo	0
-3.011357	señaló	0
-3.908685	señor	0
-3.642941	señora	0
-3.673709	si	0
-3.342442	sido	0
-4.358463	siempre	0
-3.293655	siendo	0
-4.730118	siente	0
-4.324614	siento	0
-3.083762	siete	0
-4.015834	significa	0
-3.890612	significar	0
-3.357218	significativamente	0
-3.984240	significativas	0
-3.359322	sigue	0
-3.686494	siguen	0
-3.859983	siguiente	0
-3.846907	siguieron	0
-3.470325	siguió	0
-3.814848	silla	0
-3.544317	silvio	0
-3.265785	similar	0
-3.894598	similares	0
-3.856115	simple	0
-3.910370	sin	0
-3.905197	sindicales	0
-3.908797	sino	0
-3.770098	sintieron	0
-3.601575	sintió	0
-3.806462	sinónimo	0
-3.441546	siquiera	0
-3.131089	siria	0
-3.700412	sistema	0
-3.738044	situación	0
-4.833243	situada	0
-4.081865	soares	0
-3.945460	soberanía	0
-3.113847	sobre	0
-3.996669	sobrevaluados	0
-3.957927	social	0
-3.654968	solamente	0
-3.803313	solares	0
-4.032514	soldado	0
-3.745600	soldados	0
-4.283912	solicita	0
-3.758160	solicitadas	0
-4.186840	solicitado	0
-3.446655	solicitud	0
-4.420043	solicitó	0
-3.697751	solucionar	0
-4.184427	solución	0
-3.698818	sometido	0
-4.060739	somos	0
-2.730989	son	0
-4.186897	sorprende	0
-4.068335	sorprendido	0
-3.860178	sostuvo	0
-4.154693	soy	0
-1.827103	su	0
-4.160975	subasta	0
-3.413927	subastan	0
-4.055564	subcontrata	0
-3.782088	sube	0
-3.709033	subieron	0
-4.004028	subprograma	0
-3.254220	subsiguiente	0
-4.109250	subtema	0
-3.993398	sucede	0
-4.100609	suceden	0
-3.169096	suceder	0
-4.696976	sucederá	0
-4.365482	sucedió	0
-4.094502	sucesión	0
-3.849847	sudamericanos	0
-4.178912	sudáfrica	0
-3.617182	suecia	0
-4.580592	sueldos	0
-4.190228	suelen	0
-3.483200	suficiente	0
-4.346975	sugerida	0
-3.307934	sugerirse	0
-3.754983	sugirió	0
-4.056257	suma	0
-3.996082	sumamente	0
-4.092788	sumario	0
-3.653075	suministro	0
-4.118135	suministros	0
-4.058989	supervisan	0
-4.133123	supimos	0
-3.859573	suprema	0
-4.809048	suprimir	0
-3.918682	supuestamente	0
-3.099622	supuesto	0
-2.996514	sus	0
-3.866557	sustanciales	0
-4.168307	sábados	0
-3.771876	sé	0
-3.719920	sí	0
-3.556035	sólo	0
-4.306906	sónica	0
-4.194924	tailandés	0
-4.249738	tajante	0
-3.703642	tal	0
-4.213392	talavera	0
-3.566217	tales	0
-2.693321	también	0
-3.852053	tampoco	0
-3.504194	tan	0
-3.778081	tangible	0
-3.465291	tanto	0
-3.514047	tarde	0
-3.578815	tarea	0
-4.216477	tarifas	0
-3.888349	tasa	0
-4.004752	tasas	0
-3.764306	te	0
-4.799205	teatro	0
-3.749452	tecnicismos	0
-3.788832	teconología	0
-3.656091	tegucigalpa	0
-4.039323	televisión	0
-3.726260	telmex	0
-3.186657	tema	0
-3.235338	temas	0
-4.068376	teme	0
-3.785004	temer	0
-4.113767	temor	0
-4.132716	templos	0
-3.777230	temporada	0
-3.942915	tendencia	0
-3.697852	tendrán	0
-3.683028	tendríamos	0
-3.068212	tenemos	0
-3.505967	tener	0
-4.080698	tenerse	0
-4.111246	tenido	0
-3.964841	tensa	0
-3.875920	tenía	0
-3.558199	teníamos	0
-3.951591	tenían	0
-3.601279	teoría	0
-4.192989	tercer	0
-3.802230	tercera	0
-3.874417	tercios	0
-3.803168	terreno	0
-3.718796	terrible	0
-3.239177	territorios	0
-3.827944	terror	0
-4.454775	tesobonos	0
-3.600926	testigo	0
-4.048189	testigos	0
-3.509749	texto	0
-3.872860	textos	0
-4.025212	tiburones	0
-3.308963	tiempo	0
-4.545655	tiempos	0
-3.213367	tiene	0
-3.473004	tienen	0
-3.448514	tierras	0
-3.607596	tipo	0
-4.263721	tipos	0
-3.821134	tirar	0
-4.389970	tiroteo	0
-3.800819	toda	0
-3.501193	todas	0
-3.303229	todavía	0
-2.856938	todo	0
-3.115883	todos	0
-4.115409	toma	0
-3.638834	tomaba	0
-4.010311	tomar	0
-3.904698	tomará	0
-4.020934	tomaría	0
-3.661516	tomarían	0
-3.871599	tomáramos	0
-4.256892	tomó	0
-3.957320	tono	0
-3.639795	toque	0
-3.696604	tormenta	0
-4.166080	torta	0
-3.739006	total	0
-3.426492	totalidad	0
-4.126252	totalmente	0
-3.918489	toyota	0
-3.629425	trabajadores	0
-3.247100	trabajan	0
-4.105516	trabajar	0
-4.048506	trabajo	0
-3.422749	trabajó	0
-4.241626	tragedias	0
-3.852134	tramos	0
-4.510091	tranquilo	0
-3.784097	transitorio	0
-3.978549	transitorios	0
-4.268456	transporte	0
-3.762699	tras	0
-3.720665	trascendental	0
-3.291277	trata	0
-4.419130	trataban	0
-4.413509	tratado	0
-4.060598	tratan	0
-3.997172	trataremos	0
-4.201096	trece	0
-4.191544	treinta	0
-3.062200	tres	0
-3.861552	tribunal	0
-4.184671	tribunales	0
-4.624619	trimestre	0
-4.105319	triple	0
-4.668571	tripulantes	0
-4.104667	triste	0
-3.339339	triunfa	0
-4.057384	tropas	0
-3.945245	trozos	0
-4.010351	turcos	0
-4.243966	tuvieron	0
-3.962220	tuvimos	0
-4.220306	tuvo	0
-3.686386	técnica	0
-3.823064	técnicos	0
-4.007465	término	0
-4.420417	términos	0
-3.927956	título	0
-4.091301	ubicado	0
-4.201610	ultimo	0
-2.795685	un	0
-3.162417	una	0
-4.095743	unidad	0
-3.558920	unidas	0
-3.619616	unidos	0
-3.923653	uniforme	0
-2.897587	uno	0
-3.765085	unos	0
-4.387928	unánime	0
-4.080705	urge	0
-3.719598	urgente	0
-3.874492	uri	0
-3.706133	uruguay	0
-3.241019	usen	0
-3.867002	uso	0
-4.052678	ustedes	0
-3.933132	utilizar	0
-2.654685	va	0
-3.462013	vacuna	0
-4.352063	valiente	0
-3.745934	valiosa	0
-3.674603	valle	0
-4.320550	valores	0
-3.887302	van	0
-3.840164	vaqueros	0
-3.938321	variada	0
-4.202637	variado	0
-3.634262	variados	0
-4.121439	variantes	0
-4.212536	varias	0
-3.286965	varios	0
-3.791599	varían	0
-3.535389	vasto	0
-3.641585	vaticano	0
-3.696769	vaya	0
-3.249947	veces	0
-3.645181	veintisiete	0
-3.944460	velásquez	0
-4.103818	vemos	0
-4.170244	venados	0
-3.911564	vence	0
-3.425234	vender	0
-3.598743	vendido	0
-4.532960	vendían	0
-4.607950	venezolana	0
-3.886489	venezolano	0
-4.136615	venezolanos	0
-3.902810	venezuela	0
-3.960606	venganzas	0
-4.127795	vengarse	0
-3.733707	venideros	0
-4.287377	venta	0
-3.553239	ventaja	0
-3.910042	ventanas	0
-3.922051	ventura	0
-3.641840	veo	0
-3.966073	ver	0
-3.525718	verdad	0
-3.745736	veremos	0
-3.867256	vergüenza	0
-4.275419	verificación	0
-3.730993	vez	0
-4.194984	viajar	0
-4.389122	viajará	0
-3.811482	viaje	0
-3.771700	viajo	0
-4.068724	vicepresidentes	0
-3.795070	victoria	0
-3.823529	vida	0
-3.951120	vieja	0
-4.350947	viejos	0
-4.141248	vienen	0
-4.199711	viernes	0
-4.364404	vincular	0
-3.445952	vino	0
-4.218777	violencia	0
-4.122595	virus	0
-3.793276	visas	0
-3.884288	visita	0
-3.637685	visión	0
-3.761908	visto	0
-3.384376	vive	0
-4.009287	vivimos	0
-3.800414	vladimir	0
-3.735741	vocero	0
-3.989615	volcar	0
-3.362334	volumen	0
-3.885022	voluntad	0
-3.145087	volver	0
-4.034371	volverán	0
-3.798772	volvió	0
-3.730341	volátil	0
-3.794998	votación	0
-3.649100	votantes	0
-3.742034	votar	0
-4.308314	votaron	0
-4.304868	voto	0
-4.142165	votos	0
-3.903015	voy	0
-4.000579	véanse	0
-3.316195	véase	0
-4.205286	vía	0
-4.025663	víctimas	0
-4.055059	y	0
-3.583190	ya	0
-3.187704	yo	0
-4.418514	yodización	0
-3.988081	yugoslavia	0
-4.079268	yáñez	0
-3.681115	zona	0
-3.708195	zonas	0
-4.580442	zulema	0
-3.765291	zulú	0
-4.370403	árbitro	0
-3.610497	él	0
-4.364123	énfasis	0
-3.970896	época	0
-3.434486	ése	0
-4.039882	ésta	0
-4.115739	éxito	0
-3.663737	éxitos	0
-4.064253	índice	0
-4.160870	óptimo	0
-4.022524	órdenes	0
-3.719738	órgano	0
-3.703966	última	0
-3.402913	último	0
-3.233139	últimos	0
-3.764006	única	0
-3.719761	únicamente	0
-3.604917	único	0
-4.001609	útiles	0

\2-grams:
-3.652935	<s> a
-12.650399	<s> abrigamos
-10.938107	<s> acaso
-13.172099	<s> acepto
-11.090318	<s> aclara
-12.395586	<s> acortarán
-8.708977	<s> actividades
-10.392841	<s> actor
-9.744427	<s> actualmente
-11.937548	<s> actuaré
-6.858067	<s> acuerdo
-9.607359	<s> además
-10.633824	<s> adjunto
-12.998173	<s> admite
-9.960956	<s> agradecemos
-11.161439	<s> agradeceremos
-10.030203	<s> agradezco
-6.350258	<s> agregó
-6.951657	<s> ahora
-9.917985	<s> ahí
-5.184319	<s> al
-9.774778	<s> alemania
-10.359523	<s> alemán
-9.228511	<s> algunas
-7.812093	<s> algunos
-9.976051	<s> allí
-10.857346	<s> alvaro
-9.106105	<s> ambas
-8.182262	<s> ambos
-11.209297	<s> américa
-10.875464	<s> anexos
-7.987093	<s> ante
-11.491115	<s> aparentemente
-12.120029	<s> aragón
-9.465928	<s> argentina
-10.669497	<s> arias
-10.576917	<s> aristide
-10.449770	<s> asimismo
-11.634864	<s> aspin
-11.126116	<s> astronautas
-7.796275	<s> así
-11.632739	<s> aumenta
-10.231057	<s> aumentó
-11.697583	<s> automóvil
-11.776025	<s> avisaremos
-9.591137	<s> avión
-9.069605	<s> ayer
-12.102303	<s> ayudará
-8.703670	<s> añadió
-7.286219	<s> aún
-10.942550	<s> balladur
-13.490390	<s> basándose
-11.480565	<s> benítez
-12.259790	<s> bernardin
-12.921438	<s> bonn
-9.061906	<s> brasil
-9.788474	<s> cabe
-10.960716	<s> cabría
-7.240554	<s> cada
-9.251186	<s> caldera
-9.214328	<s> canciller
-10.921000	<s> cancillería
-9.903401	<s> cantante
-10.810726	<s> carlos
-12.475023	<s> cavallo
-9.638481	<s> cerca
-11.707728	<s> cerrará
-12.091337	<s> cesar
-8.593612	<s> chile
-10.084704	<s> china
-10.993755	<s> clausura
-11.086883	<s> clausuran
-8.584942	<s> clinton
-9.549765	<s> colombia
-11.159064	<s> comienza
-8.147315	<s> comisión
-8.160696	<s> comité
-6.495101	<s> como
-9.668153	<s> completa
-12.077778	<s> completan
-11.483382	<s> comprendemos
-5.343392	<s> con
-10.815486	<s> concluye
-8.763416	<s> conferencia
-10.208425	<s> consulta
-11.842408	<s> continuaremos
-9.465227	<s> continúa
-10.348246	<s> convención
-9.753866	<s> corte
-8.801887	<s> creo
-11.444657	<s> críticos
-8.663157	<s> cualquier
-7.956820	<s> cuando
-7.717884	<s> cuatro
-10.513551	<s> cuba
-10.725521	<s> cuáles
-9.648875	<s> cómo
-3.213368	<s> de
-6.727213	<s> debe
-8.445563	<s> debemos
-8.941917	<s> deben
-11.198862	<s> deberá
-10.452262	<s> debo
-10.200616	<s> decidió
-8.452060	<s> desarrollo
-7.893529	<s> desde
-9.107892	<s> desea
-12.070785	<s> deseo
-12.507003	<s> desgraciadamente
-11.144886	<s> desplazarán
-7.812828	<s> después
-10.573656	<s> destacó
-8.773499	<s> dice
-10.786685	<s> dicen
-9.278247	<s> dicho
-10.225614	<s> dichos
-11.295905	<s> dije
-5.413447	<s> dijo
-10.562433	<s> dios
-12.766575	<s> discutiremos
-10.188876	<s> doce
-6.615004	<s> dos
-10.089255	<s> doy
-8.706231	<s> durante
-8.691347	<s> días
-12.414278	<s> económicamente
-3.358450	<s> el
-9.260036	<s> elecciones
-9.843435	<s> ella
-7.773802	<s> ello
-7.893219	<s> ellos
-10.650785	<s> emotivo
-9.777067	<s> empresa
-10.375479	<s> empresas
-3.446308	<s> en
-8.876030	<s> entonces
-8.149956	<s> entre
-12.447776	<s> envíamos
-7.487146	<s> era
-5.181737	<s> es
-5.927984	<s> esa
-7.023598	<s> esas
-12.205012	<s> escojo
-12.045436	<s> escritor
-10.871724	<s> escuché
-7.130212	<s> ese
-7.453037	<s> eso
-7.274099	<s> esos
-10.787247	<s> españa
-9.352230	<s> espera
-10.231392	<s> esperamos
-9.226230	<s> esperar
-10.267993	<s> espero
-6.059612	<s> esta
-8.964107	<s> estaba
-8.987499	<s> estaban
-8.614283	<s> estados
-7.234999	<s> estamos
-10.112620	<s> estarán
-8.096354	<s> estas
-6.550881	<s> este
-6.590199	<s> esto
-11.467656	<s> estonia
-7.782420	<s> estos
-6.409092	<s> está
-7.439197	<s> están
-10.183178	<s> evidentemente
-8.518630	<s> ex
-11.781796	<s> exhiben
-9.297703	<s> existe
-10.901642	<s> existían
-10.820711	<s> explosión
-10.060380	<s> favor
-9.055352	<s> fecha
-12.304544	<s> fecsa
-9.538562	<s> figura
-11.430308	<s> fijan
-11.338532	<s> filipinas
-11.576466	<s> finlandia
-11.465754	<s> fracasa
-10.467071	<s> francia
-10.201326	<s> frente
-6.259514	<s> fue
-7.246952	<s> fueron
-10.163475	<s> fuerte
-11.058760	<s> fuertes
-9.429747	<s> fuerza
-9.888957	<s> funcionarios
-7.612101	<s> general
-11.041294	<s> germán
-7.338526	<s> gobierno
-11.306534	<s> gonzález
-10.558565	<s> gracias
-10.591657	<s> graciela
-7.684405	<s> gran
-8.376227	<s> grupo
-8.342056	<s> guerra
-5.551413	<s> ha
-11.675159	<s> habla
-11.694965	<s> habló
-9.126871	<s> habrá
-8.812829	<s> habría
-7.694401	<s> había
-7.516932	<s> hace
-7.125660	<s> hacer
-10.080136	<s> haciendo
-6.128127	<s> han
-8.009906	<s> hasta
-5.994719	<s> hay
-8.380299	<s> he
-7.773424	<s> hemos
-9.464275	<s> heridos
-10.221013	<s> hija
-9.360301	<s> honduras
-6.983459	<s> hoy
-7.194028	<s> hubo
-11.396313	<s> huelga
-11.685009	<s> iberdrola
-10.618827	<s> igual
-12.538960	<s> ilaria
-10.159130	<s> incluso
-10.112490	<s> incluye
-9.729452	<s> indican
-9.149566	<s> indicó
-12.613242	<s> indique
-9.569621	<s> industria
-11.485327	<s> inician
-12.598839	<s> inversionistas
-9.372649	<s> israel
-10.954295	<s> italia
-12.870087	<s> jaime
-9.634155	<s> japón
-9.528546	<s> justicia
-3.201550	<s> la
-13.120954	<s> lacalle
-12.442077	<s> lamentablemente
-4.515451	<s> las
-7.169234	<s> le
-8.535296	<s> les
-11.552251	<s> llameante
-9.168494	<s> llega
-9.717416	<s> llegó
-13.155048	<s> llevé
-5.644357	<s> lo
-11.260015	<s> lograr
-3.543716	<s> los
-9.572019	<s> luego
-10.119162	<s> líder
-12.620661	<s> lógicamente
-12.411082	<s> madrazo
-12.679520	<s> mandela
-12.042009	<s> marchaba
-6.786863	<s> me
-10.318882	<s> media
-10.685015	<s> mejoran
-9.141141	<s> menem
-13.439317	<s> mercouri
-7.177583	<s> mi
-10.044309	<s> mientras
-9.910769	<s> miguel
-9.911297	<s> militares
-8.859554	<s> millones
-12.592038	<s> milán
-11.292674	<s> mineros
-8.698473	<s> ministro
-11.716079	<s> ministros
-10.644444	<s> momentos
-12.312637	<s> monselas
-13.123579	<s> morirá
-9.494320	<s> muchas
-7.070824	<s> mucho
-8.243384	<s> muchos
-10.043501	<s> muere
-12.193022	<s> mueren
-6.200076	<s> muy
-5.816732	<s> más
-10.325223	<s> médicos
-9.053170	<s> méxico
-7.763509	<s> nada
-7.858688	<s> nadie
-11.001551	<s> nave
-9.684989	<s> necesitamos
-8.115205	<s> ni
-11.597637	<s> niegan
-7.722035	<s> ninguna
-9.988974	<s> ninguno
-8.447458	<s> ningún
-4.011478	<s> no
-12.053699	<s> nombraron
-7.550934	<s> nos
-8.424225	<s> nosotros
-8.366031	<s> nuestra
-7.553076	<s> nuestro
-9.734875	<s> nuestros
-9.685402	<s> nuevamente
-7.623815	<s> nuevo
-8.731986	<s> nunca
-7.376040	<s> o
-12.237706	<s> occidente
-8.702993	<s> ocho
-10.064469	<s> operaciones
-11.368885	<s> opositores
-8.433107	<s> otra
-7.928658	<s> otras
-8.632400	<s> otro
-6.762802	<s> otros
-12.986629	<s> palacios
-5.010137	<s> para
-8.140442	<s> parece
-10.138624	<s> parlamento
-12.098903	<s> parra
-11.147783	<s> partidos
-12.359808	<s> passarella
-10.732316	<s> pequeño
-11.164399	<s> peres
-11.709005	<s> permitirá
-6.155433	<s> pero
-8.697870	<s> perú
-10.150821	<s> pese
-9.962600	<s> peseta
-10.357825	<s> pienso
-11.638667	<s> planeaba
-12.056795	<s> plantearon
-8.938968	<s> poco
-8.278693	<s> podemos
-11.144453	<s> podrá
-10.812872	<s> podrán
-7.302117	<s> podría
-11.037784	<s> podríamos
-8.277473	<s> policía
-4.634267	<s> por
-9.305182	<s> porque
-10.547876	<s> posteriormente
-9.646032	<s> precio
-7.692349	<s> precios
-9.812678	<s> preguntó
-9.282243	<s> prensa
-11.316826	<s> preparan
-7.444915	<s> presidente
-10.672978	<s> primero
-11.674477	<s> provocaría
-7.420336	<s> puede
-8.303390	<s> pueden
-9.344446	<s> puedo
-4.208989	<s> que
-8.492665	<s> queda
-9.396490	<s> queremos
-9.689020	<s> quería
-10.506889	<s> queríamos
-10.324203	<s> quienes
-9.744553	<s> quiere
-11.104767	<s> quisiera
-8.074231	<s> qué
-12.872717	<s> quédense
-10.893954	<s> realiza
-10.197757	<s> realmente
-13.419393	<s> reanudada
-9.191881	<s> rebeldes
-10.755507	<s> reciben
-13.234050	<s> recrudece
-13.100017	<s> reitera
-9.343711	<s> renuncia
-11.772931	<s> resa
-8.387465	<s> respecto
-12.652870	<s> responderemos
-10.588332	<s> respondió
-9.145580	<s> retirada
-10.514020	<s> rey
-8.204444	<s> rusia
-12.539171	<s> ríos
-9.514703	<s> sabemos
-12.276962	<s> salieron
-10.059840	<s> sarajevo
-11.618721	<s> saínz
-3.565098	<s> se
-8.748909	<s> sea
-9.275006	<s> según
-13.258736	<s> sela
-10.113213	<s> senado
-11.368537	<s> separatista
-6.237342	<s> ser
-7.650245	<s> será
-8.120993	<s> serán
-8.225171	<s> sería
-6.886980	<s> si
-8.966778	<s> siempre
-10.596695	<s> siento
-8.651098	<s> siete
-8.552037	<s> sigue
-13.150354	<s> silvio
-6.890561	<s> sin
-10.373358	<s> siria
-6.630128	<s> sobre
-10.511777	<s> somos
-5.896167	<s> son
-8.826646	<s> soy
-5.203085	<s> su
-9.604049	<s> sube
-6.714180	<s> sus
-11.561524	<s> sé
-8.759298	<s> sí
-8.264463	<s> sólo
-8.729719	<s> tal
-6.174483	<s> también
-8.629166	<s> tampoco
-11.051635	<s> telmex
-10.219340	<s> tendrán
-8.056760	<s> tenemos
-10.025018	<s> tercer
-10.640141	<s> testigos
-6.885592	<s> tiene
-7.862684	<s> tienen
-9.676813	<s> toda
-8.474051	<s> todas
-8.240789	<s> todavía
-7.290441	<s> todo
-7.287525	<s> todos
-12.801992	<s> toyota
-11.706217	<s> trataremos
-10.573504	<s> treinta
-8.401423	<s> tres
-11.433614	<s> tuvimos
-10.666180	<s> título
-4.080014	<s> un
-4.795051	<s> una
-7.776810	<s> uno
-8.818180	<s> unos
-11.868778	<s> urge
-10.777288	<s> uruguay
-8.407092	<s> va
-10.411243	<s> valores
-11.682425	<s> van
-8.743225	<s> varias
-8.825856	<s> varios
-13.005667	<s> velásquez
-10.677250	<s> vemos
-10.918144	<s> venezolanos
-9.025372	<s> venezuela
-10.268603	<s> veo
-11.011793	<s> vienen
-10.512793	<s> visita
-10.579677	<s> volvió
-11.649486	<s> véanse
-12.491091	<s> véase
-4.587224	<s> y
-7.520175	<s> ya
-7.482624	<s> yo
-10.340673	<s> yugoslavia
-4.409206	a aceptar
-4.402120	a actuar
-3.468173	a alemania
-3.832358	a algunos
-4.528698	a alta
-4.807500	a aprobar
-4.044317	a asamblea
-5.021961	a atlanta
-4.664947	a brasil
-3.816380	a buen
-4.523545	a buscar
-3.259291	a cabo
-4.245378	a cada
-5.007580	a cadena
-4.342073	a caer
-4.165302	a cambio
-3.915222	a cambios
-4.574209	a cargo
-4.242986	a casi
-4.418577	a catorce
-3.924135	a causa
-3.399626	a chile
-4.445717	a cielo
-4.413380	a cifras
-4.035887	a cinco
-3.618596	a colaborar
-3.951664	a coleman
-4.257390	a combatir
-4.809669	a comentar
-4.393230	a conocer
-4.822397	a consulta
-2.159298	a continuación
-4.523852	a continuar
-4.499572	a costa
-3.613747	a cualquier
-3.297635	a cuatro
-4.392278	a culpables
-4.005548	a dar
-2.447763	a de
-4.686599	a debatir
-4.613467	a decidir
-4.163291	a decir
-4.065668	a defraudar
-4.208629	a dejar
-4.476717	a diez
-4.153633	a dificultades
-3.908885	a discutir
-4.609948	a discutirlo
-3.242733	a dos
-3.821999	a elegir
-3.068793	a ello
-4.007446	a empresarios
-4.108635	a encontrar
-3.586417	a esa
-3.889897	a esas
-3.435283	a ese
-3.597079	a eso
-3.952302	a esos
-4.334904	a español
-3.230169	a esta
-3.858846	a estar
-3.558737	a estas
-3.037201	a este
-3.245220	a esto
-3.712619	a estos
-3.980758	a europa
-3.789104	a ex
-4.581364	a examinar
-4.409883	a explicar
-3.902627	a fin
-4.346610	a fines
-4.656691	a firmeza
-4.085579	a funcionarios
-3.762916	a gobierno
-5.063356	a goycochea
-3.935411	a gran
-4.779259	a gusto
-4.000738	a hablar
-3.266217	a hacer
-3.307423	a ir
-3.741211	a israel
-4.406991	a japón
-4.036469	a jerusalén
-5.321936	a juan
-4.095823	a juicio
-4.340064	a junio
-2.132117	a la
-3.126095	a largo
-3.489309	a las
-2.481421	a lo
-3.460269	a los
-5.715767	a maniobras
-4.573909	a marcos
-4.418859	a media
-4.779993	a mejorar
-3.554154	a menudo
-3.372321	a mi
-4.227509	a moscú
-3.844027	a mucha
-3.967599	a más
-4.262866	a méxico
-4.443309	a mí
-3.476810	a nadie
-4.380768	a nivel
-2.602505	a no
-3.421768	a nosotros
-4.093897	a nuestra
-4.266531	a nuestro
-4.167046	a nueve
-4.235022	a ocurrir
-4.528531	a otra
-3.532388	a otro
-3.768645	a otros
-4.318067	a palabras
-3.877970	a partidos
-4.647302	a paso
-3.580382	a países
-3.335301	a personas
-3.080448	a policía
-4.009296	a político
-3.360231	a preguntas
-3.680234	a prensa
-4.393036	a programa
-2.654592	a que
-4.013612	a quedar
-4.635872	a quien
-4.614342	a quito
-4.117774	a recibir
-4.089042	a reformas
-4.199717	a regir
-4.467213	a regresar
-4.289270	a repetirse
-3.841572	a reservas
-3.213247	a respetar
-5.372788	a retirarse
-4.713764	a reunir
-3.374075	a rusia
-4.253896	a salir
-4.597311	a salvo
-4.340179	a santiago
-4.293831	a seguir
-4.433536	a sentir
-3.291590	a ser
-4.832656	a serbia
-3.049741	a su
-4.785844	a suceder
-4.508714	a suecia
-3.643219	a sus
-4.403288	a sí
-4.003097	a tal
-4.052265	a tales
-4.653747	a tasa
-4.011886	a tegucigalpa
-4.228576	a temas
-3.617392	a tener
-3.994851	a territorios
-3.368288	a todas
-2.762959	a todos
-4.459024	a trabajar
-4.151610	a tribunal
-2.458909	a un
-3.894731	a una
-3.636035	a uno
-3.458143	a vender
-3.128057	a viajar
-4.307393	a votación
-3.990788	a votar
-3.940627	a ya
-3.040174	abajo con
-2.278952	abandonada </s>
-4.432083	abandonado la
-4.702984	abarcan muy
-4.099015	abastecimiento de
-3.798310	abastecimiento el
-3.111222	abatir estructuras
-1.698494	abierta </s>
-2.383607	abierta dijo
-3.326207	abiertas y
-0.573380	abierto </s>
-2.845083	abierto a
-3.089467	abierto del
-3.928163	abra está
-3.336865	abrigamos la
-4.466811	abril </s>
-3.320508	abril agregó
-3.200694	abril se
-3.920506	abrió a
-3.544404	abrió irregular
-3.699946	abrió la
-3.380572	abrió los
-4.247720	abrió un
-3.301884	abstracto sino
-3.515850	abundan los
-4.603881	aburrida señaló
-3.826736	acaba de
-3.167031	acaben los
-3.154658	acaso haya
-3.097813	acaso no
-4.199979	acatamiento sea
-3.018002	acceder a
-2.914248	acceso a
-2.887737	acceso mayor
-2.526893	accidente </s>
-2.229789	accidente se
-3.866664	acciones bajaron
-3.349552	acciones cayeron
-3.803379	acciones de
-3.796962	acciones en
-3.902695	acciones se
-3.719275	acciones son
-2.719664	acciones subieron
-3.231318	acción </s>
-3.625051	acción militar
-3.054807	acción se
-4.411162	acción son
-2.483448	acelerar el
-3.726433	acento francés
-2.724285	aceptable </s>
-3.200768	aceptable dijo
-3.194206	aceptar un
-3.647976	aceptarla </s>
-3.124421	acepto humildemente
-4.139397	aceptó esa
-4.287860	aceptó la
-4.390518	aclara que
-3.847987	aclararlo todo
-3.664472	acomete campaña
-3.955076	acontecimiento a
-3.722553	acopla a
-3.120485	acordaron continuar
-4.128376	acordaron lo
-4.690007	acordó que
-3.494653	acortarán duración
-3.132242	acosta </s>
-1.223752	actitud </s>
-2.150582	actitud de
-2.784563	actitud dijo
-2.183802	actitud no
-2.426982	actividad </s>
-3.069786	actividad con
-2.460362	actividad volátil
-3.270360	actividades </s>
-3.649571	actividades de
-4.527865	actividades en
-3.973550	actividades fueron
-3.550263	actividades no
-3.387511	actividades se
-3.731842	activo </s>
-3.574933	activo diferido
-4.510014	activos desde
-3.854193	acto </s>
-3.923158	acto la
-4.012684	acto político
-3.300815	acto único
-2.186759	actor </s>
-3.626907	actor de
-3.125951	actor más
-4.705168	actuaciones de
-1.983456	actual </s>
-3.386307	actual acuerdo
-3.712348	actual composición
-3.743664	actual debate
-3.224994	actual debería
-3.330170	actual dijo
-3.658377	actual dista
-2.890571	actual es
-3.383162	actual posición
-3.540769	actual proyecto
-4.430484	actualidad </s>
-3.699064	actualidad hay
-3.307901	actualizan constantemente
-3.116046	actualizar cada
-4.137200	actualmente el
-3.946154	actualmente en
-3.753444	actualmente hay
-3.852432	actualmente la
-4.229021	actualmente los
-3.679095	actualmente objeto
-3.479013	actuando así
-2.571440	actuar </s>
-2.859110	actuar ahora
-3.397214	actuar declaró
-3.009213	actuaré conforme
-2.960512	acude a
-3.501592	acuerdan impulsar
-1.676977	acuerdo </s>
-3.686947	acuerdo aceptable
-3.033591	acuerdo como
-2.655364	acuerdo con
-2.037919	acuerdo de
-2.072121	acuerdo dijo
-3.747388	acuerdo donde
-3.610049	acuerdo entre
-3.282470	acuerdo final
-1.604227	acuerdo no
-2.670965	acuerdo para
-2.458701	acuerdo que
-2.613643	acuerdo sobre
-6.144483	acusaciones </s>
-2.489788	acusados </s>
-3.459746	acusados prestó
-2.848025	adelante </s>
-2.863728	adelante dijo
-3.682888	adelante sólo
-3.542741	adelanto </s>
-3.178466	además ahora
-3.545809	además al
-3.818494	además de
-3.620511	además deberían
-2.967095	además no
-3.380365	además por
-3.136902	además se
-3.082656	adicionales </s>
-2.759696	adicionales en
-3.711795	adiós del
-2.708385	adjudica un
-3.336520	adjudicada a
-1.848670	adjunta </s>
-2.945654	adjunta copia
-3.173861	adjunta el
-3.974771	adjunta una
-4.094371	adjuntan los
-3.709706	adjunto a
-3.861733	adjunto copias
-4.170065	adjunto el
-4.163335	admite un
-3.000300	adoptado algunas
-3.491717	adoptará sus
-3.262505	adoptarán por
-3.804135	aducía </s>
-3.428342	advirtió </s>
-4.485713	aeropuerto </s>
-3.757759	aeropuerto está
-3.507011	aeropuertos fueron
-1.546018	afectados </s>
-3.084303	afiliación a
-3.702958	afirma benítez
-3.372231	afirma que
-3.800420	afirmativo a
-3.461801	afirmativo tendríamos
-3.123851	afirmó </s>
-2.870806	afirmó el
-3.178885	afirmó que
-3.363868	afirmó tajante
-4.100938	afirmó uno
-4.831110	agencia </s>
-4.999941	agencia dijo
-2.012583	agente </s>
-4.404614	agradecemos de
-4.063987	agradecemos por
-3.751743	agradecemos su
-3.059582	agradeceremos que
-3.102750	agradeceremos su
-3.873790	agradecerle a
-2.403191	agradezco de
-2.741754	agradezco su
-3.086501	agrava esta
-2.965963	agrava la
-2.653800	agravó la
-3.280118	agravó las
-2.034887	agregó </s>
-3.168605	agregó acosta
-2.159758	agregó por
-2.704807	agregó que
-3.453757	agresión contra
-3.508405	agrupación </s>
-3.433134	agrícola francés
-3.219013	agua </s>
-3.295527	agua agrava
-3.437502	aguarda regreso
-3.606813	aguarme el
-3.535860	aguas no
-3.811773	ahondar el
-1.443125	ahora </s>
-3.128514	ahora ahorra
-2.808317	ahora al
-2.943031	ahora aún
-3.294072	ahora bien
-4.024091	ahora cuál
-2.056254	ahora de
-2.927839	ahora decidir
-2.631738	ahora dijo
-2.350625	ahora el
-2.470302	ahora en
-3.826879	ahora enfrenta
-2.497957	ahora es
-2.948080	ahora esta
-3.151134	ahora estamos
-2.771060	ahora están
-3.441530	ahora ha
-3.994162	ahora hacia
-3.209192	ahora hemos
-1.780803	ahora la
-2.647910	ahora las
-2.410698	ahora los
-3.329648	ahora muchos
-2.438191	ahora no
-3.305512	ahora o
-3.300138	ahora podemos
-3.394534	ahora puede
-2.337100	ahora que
-3.096802	ahora sobre
-3.321144	ahora solamente
-2.975504	ahora soy
-2.638778	ahora tenemos
-2.160378	ahora un
-2.212995	ahorra </s>
-3.272439	ahí en
-2.872007	ahí es
-3.676540	ahí fue
-3.804667	ahí que
-4.257027	aislamiento fue
-3.372061	ajustará pues
-3.838467	al alza
-2.760576	al anexo
-3.912125	al arbitraje
-3.088480	al artículo
-3.047996	al ataque
-2.863365	al banco
-3.648095	al caer
-3.092179	al cierre
-2.820808	al comité
-3.155274	al congreso
-3.228452	al consejo
-2.614162	al consenso
-3.807279	al contenido
-3.448479	al cuadro
-3.558389	al decir
-3.124503	al derecho
-3.808412	al distinguido
-3.295458	al día
-3.774630	al edificio
-3.253908	al ejército
-4.037334	al envío
-4.474876	al estrellarse
-3.877747	al ex
-2.942754	al exterior
-4.047692	al festivo
-4.036442	al final
-4.006348	al fuego
-2.674637	al gobierno
-3.011995	al gran
-2.598948	al grupo
-3.344925	al hospital
-3.611253	al jurado
-3.818117	al leer
-2.981130	al llegar
-3.396089	al marcador
-3.200509	al marco
-3.217246	al menos
-3.313451	al mercado
-3.330516	al ministro
-3.066676	al mismo
-4.337019	al muerto
-2.973041	al otro
-2.398058	al parecer
-2.698071	al país
-3.149386	al perú
-3.910345	al poder
-3.324660	al político
-3.506703	al presente
-3.553812	al principio
-3.333692	al problema
-3.387125	al pueblo
-2.970707	al párrafo
-3.414080	al público
-3.629851	al recibir
-3.107023	al representante
-3.129287	al respecto
-3.902582	al resultado
-2.486107	al salir
-2.571302	al secretario
-3.758882	al sector
-2.928840	al seis
-3.237460	al senado
-3.788396	al señor
-3.557513	al siguiente
-3.655004	al tratado
-3.722384	al uso
-3.560681	al ver
-3.854813	al voto
-3.078591	al último
-3.105219	albacora han
-1.756989	aldeas </s>
-3.607832	alegatos de
-3.736467	alemania </s>
-3.387872	alemania a
-3.714014	alemania dice
-3.666860	alemania negó
-3.357696	alemania y
-2.673498	alemán </s>
-3.649321	alemán gana
-3.534231	alemán trata
-2.331708	alfonsín </s>
-3.392323	alfonsín y
-3.428230	algo así
-2.631040	algo como
-1.941259	algo de
-3.134358	algo muy
-3.112929	algo más
-2.952212	algo puede
-2.741224	algo que
-3.105595	algo rara
-3.747159	algo tangible
-2.714041	alguna </s>
-3.623384	alguna dijo
-3.721712	alguna esperanza
-3.135285	alguna para
-2.852560	alguna parte
-4.183087	alguna razón
-3.115126	algunas actividades
-3.561318	algunas condiciones
-3.299611	algunas cosas
-2.527983	algunas de
-3.652091	algunas diferencias
-3.468086	algunas dificultades
-2.800913	algunas medidas
-3.287810	algunas otras
-4.215488	alguno </s>
-3.847054	alguno de
-2.500674	algunos </s>
-3.249643	algunos choques
-4.046733	algunos críticos
-2.801894	algunos de
-3.090609	algunos eso
-3.955136	algunos especialistas
-3.106636	algunos esto
-3.315185	algunos papeles
-3.691192	algunos países
-3.331968	algunos representantes
-2.828459	algunos son
-3.172646	algunos testigos
-3.766538	algunos vendían
-3.578614	alimentaria continúa
-3.890908	alla del
-3.318232	allen al
-3.950366	allá agregó
-4.206719	allá de
-2.751763	allí </s>
-3.470582	allí con
-3.541510	allí cuando
-3.384585	allí se
-2.542286	alrededor de
-3.452477	alta mar
-3.236083	alta tasa
-3.552955	alta tiene
-4.680513	altibajos </s>
-4.335654	altibajos y
-0.258638	alto </s>
-3.856856	alto costo
-1.767112	alto de
-2.897176	alto ese
-3.592136	alto organismo
-2.577417	alto todos
-4.288588	alvaro dijo
-4.332600	alvaro lo
-2.199059	alza </s>
-4.143516	alza contra
-3.308176	alza de
-3.422790	alza en
-3.413302	amable atención
-2.640032	amable cooperación
-3.168308	amazónico </s>
-3.212292	ambas cartas
-3.085213	ambas naves
-2.974648	ambas partes
-3.888195	ambas propuestas
-3.774669	ambas reuniones
-3.315755	ambos efectos
-3.430214	ambos equipos
-3.724467	ambos negaron
-3.716752	ambos países
-4.097744	ambos reclamaron
-3.424113	ambos sectores
-3.045728	ambos son
-3.806490	ambos tenían
-1.932438	amplia </s>
-3.270908	amplia gama
-2.909941	amplia paz
-2.720746	amplia y
-1.924024	ampliado la
-3.178909	ampliado también
-2.883075	ampliado y
-3.313862	ampliamente imitado
-4.145536	ampliamente sobre
-3.210782	ampliar esa
-4.689447	ampliarse en
-4.126615	ampliarse o
-2.065758	amplio </s>
-2.456244	amplio del
-2.183735	amplitud de
-3.516207	américa central
-2.822984	américa latina
-3.543378	analfabetos del
-1.276419	analista </s>
-3.446147	analizado cuidadosamente
-3.899032	analogía ayudará
-4.220597	anexo adjunto
-4.083527	anexo al
-3.455489	anexo diez
-2.947265	anexo figura
-3.618750	anexo tres
-4.587348	anexos </s>
-3.868359	anexos al
-3.382288	anexos del
-3.159904	anexos seis
-5.127559	anonadado </s>
-2.908458	anonimato </s>
-2.810862	ante el
-2.408105	ante la
-3.389453	ante sus
-3.318620	ante sí
-3.244209	ante todo
-2.989637	ante un
-3.295737	ante una
-3.106159	antemano su
-3.476680	antenas solares
-3.479502	antenas también
-4.873501	anterior </s>
-5.030499	anticipado </s>
-4.037141	anticipado su
-3.375584	anticipó qué
-3.696121	antología de
-3.477948	anual del
-4.103675	anunciado aún
-1.638084	anunciados </s>
-3.376206	anunciar medidas
-2.970368	análisis </s>
-2.841364	apagones eléctricos
-3.693677	aparecen las
-3.378541	aparentemente mantiene
-3.508201	apelables ante
-3.700117	apelación </s>
-4.088650	apelación en
-3.871213	apelación había
-4.011919	apelado </s>
-3.029445	apertura </s>
-3.087399	apertura del
-3.647673	aplicación contra
-4.343606	aplicación de
-4.524755	aplicación del
-3.457123	aplicar la
-3.402902	aportaciones adicionales
-1.521557	apoyo </s>
-2.244359	apoyo a
-3.612938	apoyo alguno
-3.966067	apoyo comentó
-3.077864	apoyo completo
-1.511778	apoyo de
-2.467152	apoyo del
-1.947391	apoyo en
-2.417504	apoyo para
-2.437901	apoyo y
-3.047985	apremio expresado
-2.209532	aprobación </s>
-2.936953	aprobación del
-3.070565	aprobación general
-2.890471	aprobación necesaria
-2.936951	aprobado por
-3.418212	aprobar reformas
-4.183755	aprobar su
-3.353675	aprobaron en
-2.979497	aprobó el
-3.604980	aprobó esta
-3.299266	aprobó este
-2.641895	aprobó la
-3.133148	aprobó las
-2.713390	aprobó ninguna
-2.843362	aprobó presupuesto
-3.368090	aprobó proyectos
-3.905150	aproximadas de
-3.246311	aprueba ley
-3.321655	aprueba pacto
-4.911069	apuntarán a
-3.349856	aquella época
-3.922680	aragón dijo
-3.131351	arbitraje </s>
-3.865000	aremisos a
-3.460948	argentina discutiéndolo
-3.292566	argentina espera
-3.747145	argentina que
-3.219554	argentino </s>
-3.298057	argentino en
-3.084348	argentino polemiza
-3.551182	arias dice
-3.417145	arias se
-3.002647	aristide ha
-2.251383	aristide no
-2.341772	aristide se
-3.286047	arma </s>
-2.696981	arma sónica
-4.068573	armamento será
-2.221576	armas </s>
-3.537541	armas agregó
-3.155706	armas en
-2.881607	armas nucleares
-3.410106	arrecian críticas
-3.048317	arreglo a
-3.400612	arreglo amplio
-3.546557	arreglo así
-3.236552	arreglo no
-3.559707	arrestado hasta
-5.290522	arroz </s>
-3.902558	arroz norteamericano
-3.485455	arroz tailandés
-3.471157	arte y
-3.206767	artistas están
-1.837515	artículo </s>
-3.305353	artículo catorce
-2.701227	artículo con
-3.507368	artículo doce
-3.206288	artículo segundo
-3.129908	artículo también
-3.190626	artículo trece
-4.643835	artículos de
-4.076209	asalariados han
-2.632656	asamblea </s>
-2.724192	asamblea del
-2.346026	asamblea general
-2.558585	asamblea no
-3.668368	asamblea ordinaria
-2.339337	asamblea se
-4.352491	ascenso el
-2.232884	asegurado </s>
-4.456376	asesinar y
-4.102664	aseveró </s>
-4.176744	asignación puede
-3.145438	asimismo la
-2.955643	asimismo lamentó
-3.622392	asimismo se
-3.934100	asisten a
-3.901644	asistencia por
-3.469347	asistencia técnica
-3.810092	asistencia y
-3.085355	asociado </s>
-3.582620	asombro en
-4.614866	aspecto </s>
-4.106755	aspecto del
-3.203683	aspecto negativo
-3.539929	aspectos </s>
-3.073310	aspin dijo
-3.115798	aspin no
-3.861704	assad </s>
-3.479348	assad vaya
-3.320574	astronautas del
-2.797688	astronautas instalan
-3.519218	asumiría ministerio
-3.798142	asunto </s>
-3.693076	asunto al
-3.323205	asunto de
-3.279946	asunto en
-3.278309	asunto requiere
-3.285775	asunto se
-3.923547	asunto serio
-3.065692	asuntos civiles
-3.686499	asuntos mundiales
-2.862661	asuntos no
-2.482218	así </s>
-3.536184	así con
-3.142318	así cuáles
-2.106506	así el
-2.506236	así es
-3.227089	así explicó
-2.781625	así figura
-3.036414	así hasta
-2.737436	así las
-2.857673	así lo
-3.206568	así mi
-3.301523	así pues
-2.619079	así que
-3.125057	así quedó
-3.087355	así sea
-3.399675	así sería
-3.562659	así sigue
-3.679410	así ya
-4.124312	atacar a
-4.077399	atacar ahora
-4.000250	ataque </s>
-3.871862	ataque al
-3.393888	ataque causó
-4.070545	ataque sin
-3.853804	ataúd </s>
-1.128361	atención </s>
-2.136152	atención a
-2.126799	atención de
-2.959985	atención del
-3.005963	atención este
-2.443885	atención médica
-2.272054	atención se
-3.351123	atender esa
-3.705583	atentado </s>
-3.887731	atentado de
-3.547333	aterrizó con
-2.901752	aterrizó en
-3.027164	aterrizó sin
-2.689309	atlanta dos
-3.296025	atraer aremisos
-3.525216	atraviesan un
-2.955714	atribuírlo a
-4.002579	atrás </s>
-3.616073	atrás la
-2.147964	atuendo </s>
-3.469664	audaz </s>
-3.056948	audiencias sobre
-3.301583	aumenta cifra
-3.271107	aumenta la
-3.097445	aumenta su
-3.502986	aumentado en
-3.540454	aumentado la
-3.228832	aumentaron </s>
-3.782734	aumentaron los
-2.987774	aumentos no
-3.844818	aumentó </s>
-3.762429	aumentó el
-3.707512	aumentó en
-3.837448	aumentó las
-5.710565	ausencia </s>
-3.649662	ausencia de
-3.434403	australiano </s>
-4.065986	autobús </s>
-3.371579	autoevaluaciones no
-2.798220	automóvil de
-3.945431	automóviles nuevos
-3.490667	autor </s>
-3.038281	autor afirma
-3.332331	autoridades </s>
-3.037219	autoridades de
-3.353397	autoridades no
-3.957692	avance </s>
-3.434635	avance del
-3.562858	avance este
-3.505454	avance importante
-3.314003	avance moderado
-2.590780	avancen </s>
-3.269082	avances </s>
-3.249136	avanza cada
-4.037126	avanza y
-3.280053	avanzado en
-3.478833	avanzado mucho
-3.593431	avaro y
-0.690703	avendaño </s>
-2.385950	avisaremos en
-2.600819	avión aterrizó
-3.085657	avión de
-3.145913	avión español
-3.290847	avión hará
-3.095604	avión norteamericano
-3.243670	avión procedente
-2.830463	ayer </s>
-2.604730	ayer a
-2.178783	ayer dijo
-2.279055	ayer en
-2.481780	ayer la
-2.738509	ayer se
-3.434993	ayuda </s>
-3.395748	ayuda a
-3.575805	ayuda al
-2.917588	ayuda de
-3.482213	ayuda en
-3.539195	ayuda por
-2.903421	ayuda y
-4.611281	ayudará a
-4.021887	aérea de
-4.360680	aéreos en
-1.279385	añadió </s>
-2.412863	añadió que
-3.445917	añadió ventura
-1.406193	año </s>
-3.798126	año después
-2.599309	año el
-2.514194	año en
-3.371484	año era
-2.879674	año ha
-3.442701	año hará
-3.051133	año internacional
-3.492738	año negativo
-2.340116	año nos
-3.159981	año nuevo
-3.317152	año pasado
-2.821314	año también
-2.572051	año y
-2.408073	años </s>
-3.316932	años cuando
-3.086666	años de
-3.526521	años después
-2.748639	años dijo
-2.573382	años es
-3.350986	años esta
-3.556035	años que
-2.313311	años se
-3.439429	años venideros
-1.138961	aún </s>
-4.028137	aún así
-3.670754	aún añadió
-3.671734	aún del
-4.117825	aún detenciones
-3.418273	aún en
-4.460195	aún estamos
-3.609309	aún los
-3.342976	aún más
-4.497496	aún ni
-3.012816	aún no
-1.650492	baja </s>
-2.197211	baja a
-2.242871	baja en
-3.444127	baja leve
-2.483401	baja se
-3.214047	bajaron en
-3.846379	bajaron más
-3.561300	bajaron nueve
-3.334727	bajaron también
-3.280255	baje expresó
-1.904138	bajo </s>
-2.686590	bajo condición
-3.210775	bajo control
-2.837390	bajo dijo
-2.664840	bajo en
-3.155025	bajo la
-3.522159	bajo palabra
-3.781466	bajo presión
-4.349527	bajos </s>
-4.596569	balladur </s>
-3.566428	balladur ha
-3.677976	balladur no
-3.272259	bancario </s>
-0.986653	banco </s>
-3.226516	banco central
-1.999926	banco de
-3.387269	banco europeo
-2.792172	banco ha
-3.855643	banco nación
-2.862364	banco no
-2.689836	banco para
-6.243435	bancolombia </s>
-3.816344	bancos estarán
-3.485700	bancos ha
-3.704834	bancos se
-4.064334	bancos y
-2.641487	basa el
-3.167077	basa en
-3.421394	basado en
-3.315958	base de
-2.539945	base intelectual
-3.629308	base para
-3.706822	base se
-3.410761	bastante amplia
-3.129493	bastante corto
-3.341571	bastante más
-3.801082	bastante preocupantes
-2.601100	basándose en
-2.082703	batalla </s>
-2.652532	batalla la
-3.366806	batallones en
-3.318331	baviera </s>
-2.991088	beca fue
-3.358209	bena soares
-5.359561	bendiga a
-3.560809	bendiga miguel
-4.776176	benítez </s>
-3.017337	benítez insta
-4.438674	berlín </s>
-4.016521	berlín y
-2.729680	bernardin no
-3.125084	bernardo </s>
-3.180578	bielorrusia busca
-2.251908	bien </s>
-3.653457	bien cabe
-2.537005	bien como
-3.444493	bien conocida
-3.615455	bien desde
-2.528928	bien dijo
-3.258123	bien existe
-3.192707	bien informados
-2.551641	bien la
-2.684072	bien puede
-3.187902	bien ubicado
-3.651109	bienvenida </s>
-3.274152	blancos </s>
-3.796381	blancos nos
-3.762377	blum y
-3.912308	bogotá </s>
-4.127289	bogotá y
-2.435836	bola de
-3.183476	bomba </s>
-2.844953	bondes se
-4.167149	bonn está
-3.722498	bonos </s>
-2.651486	boquete en
-2.598456	borrador </s>
-2.158787	borrador de
-4.733349	borrados </s>
-1.405247	bosnia </s>
-3.533240	bosnia continuaban
-2.578260	bosques </s>
-3.262908	brasil </s>
-3.108395	brasil acuerdan
-3.541749	brasil aguarda
-3.186689	brasil más
-3.376172	brasil no
-3.412618	brasil y
-3.949561	brasileño completó
-3.609674	brasileño declara
-2.930662	breve </s>
-3.025851	breve respiro
-2.878228	breve se
-3.185577	brevemente al
-3.044458	brevemente ante
-3.699699	brevemente nuestro
-4.681147	bruselas </s>
-3.937786	buceador </s>
-3.809835	buen buceador
-3.969754	buen comienzo
-3.492283	buen fin
-2.906425	buen momento
-3.040264	bueno </s>
-3.409640	bueno o
-3.889740	bueno para
-3.366620	bueno y
-3.731789	bueno ya
-2.745320	busca a
-3.348418	busca mejorar
-3.176434	busca proteger
-3.025247	busca también
-3.157451	buscamos la
-3.020424	buscar la
-2.417931	básicos </s>
-2.231492	bósforo </s>
-3.720695	cabe decir
-3.911849	cabe duda
-2.894872	cabo </s>
-3.789782	cabo actividades
-3.506366	cabo su
-3.684368	cabo un
-3.953603	cabría decir
-3.543021	cabría organizar
-3.714366	cachemira luego
-3.187721	cada activo
-3.815434	cada asunto
-3.164978	cada caso
-3.356835	cada cuatro
-3.018036	cada dos
-3.231789	cada día
-3.361796	cada encuentro
-3.369892	cada estado
-3.222885	cada miembro
-2.653669	cada organismo
-2.896319	cada parte
-3.834750	cada producto
-4.217482	cada tipo
-3.376634	cada tres
-2.677267	cada trimestre
-2.964651	cada una
-2.946690	cada uno
-3.188309	cada vez
-3.800030	cadena de
-3.145458	caer en
-2.887217	caer la
-3.616459	caer ningún
-3.455859	caer uno
-3.989376	cafetería cierra
-3.524206	caja </s>
-2.885387	caja de
-2.875990	caldera es
-3.639621	caldera escogieron
-2.940608	caldera los
-3.500747	caldera presentó
-3.221715	caldera toma
-5.048919	calefacción </s>
-3.517130	calidad cuesta
-5.049133	calidad de
-4.752070	camacho en
-2.544062	cambiado </s>
-3.240671	cambiado en
-3.933574	cambiado totalmente
-1.362156	cambio </s>
-2.505922	cambio de
-2.325670	cambio en
-3.009193	cambio que
-3.129322	cambio yo
-3.978740	cambios </s>
-3.357749	cambios a
-3.161700	cambios al
-3.701500	cambios de
-2.884175	cambios en
-3.194826	cambios gane
-3.667638	cambios importantes
-3.566887	cambios no
-3.240456	cambios políticos
-3.026223	cambios se
-3.777694	cambios serán
-3.334166	cambió varias
-3.824736	campamento </s>
-3.462672	campamento controlado
-1.818687	campaña </s>
-2.824880	campaña para
-3.515005	campaña política
-2.670946	campeones ganando
-3.718839	campo de
-3.771879	campo económico
-3.894797	campo los
-3.511699	campo moderado
-3.005387	campo y
-4.198010	canalizó a
-3.590452	canciller </s>
-3.439393	canciller de
-3.570872	canciller francés
-2.842984	canciller peruano
-3.079296	cancillería uri
-2.908028	candidato en
-2.943071	candidato para
-3.252837	candidato presidencial
-2.215019	candidatos </s>
-3.285448	candidatos esa
-3.363513	candidatos podían
-3.753554	candidatos son
-3.780103	cantante </s>
-3.392629	cantante de
-3.661696	cantante en
-4.127535	cantante se
-2.742061	cantidad de
-3.064115	cantidad también
-1.963142	capacidad de
-4.713660	capaz de
-2.626948	capital </s>
-2.455086	capital el
-2.988192	capital está
-3.137532	capital mínimo
-1.634644	captura </s>
-3.273404	capítulo con
-3.200907	capítulo tres
-2.894740	cara </s>
-3.516523	caracas aumenta
-2.916826	caracas bogotá
-3.702075	caravana pasa
-4.196449	carbón </s>
-3.786476	carbón a
-4.203391	cardona </s>
-3.306703	carece de
-4.465606	carga de
-4.137525	carga están
-3.924347	cargo aportaciones
-4.267690	cargo de
-3.863785	cargo el
-4.134798	carlos elgueta
-3.209287	carlos llega
-3.233357	carlos lleras
-3.822512	carnaval </s>
-3.608300	carnaval es
-4.407839	caro </s>
-2.791743	carrera </s>
-2.977029	carrera fue
-3.383327	carrera ha
-3.269850	carrera por
-4.244790	carta </s>
-3.274766	carta de
-3.075712	carta describía
-3.287769	cartas no
-3.307340	cartas para
-3.092901	cartas se
-3.369849	carteles </s>
-4.481249	casa </s>
-3.541680	casa de
-3.776469	casa dijo
-3.347939	casa mis
-4.554462	casas </s>
-3.173579	casas del
-3.184378	casas resultaron
-3.862528	casi cinco
-4.123134	casi cuatro
-4.019955	casi perfecta
-3.615007	casi todos
-2.498105	casi total
-2.911424	casi un
-3.588584	casi una
-4.163441	casino </s>
-1.459886	caso </s>
-3.043217	caso a
-2.881544	caso afirmativo
-2.777681	caso agregó
-3.984810	caso comentó
-2.689621	caso contrario
-2.852275	caso de
-2.688177	caso del
-2.727465	caso el
-3.006398	caso es
-2.609639	caso la
-3.247745	caso más
-3.312151	caso no
-3.203254	caso preguntó
-2.691561	caso se
-3.261622	caso también
-4.368139	casos </s>
-2.902902	casos de
-3.208996	casos hemos
-3.118064	casos más
-2.645641	casos problemáticos
-2.324251	casos que
-3.120755	casos se
-4.173655	casos similares
-3.606181	casó con
-3.603136	catedral está
-2.978203	catorce </s>
-3.316744	catorce de
-4.052100	catorce días
-3.330225	catorce requiere
-2.388915	católica </s>
-3.997145	católica fue
-1.993443	causa </s>
-2.367598	causa de
-3.114501	causa del
-3.343613	causas </s>
-2.493304	causas del
-2.862660	causas naturales
-3.357344	causó asombro
-3.283446	causó cierto
-2.789506	causó daños
-2.776350	causó pánico
-3.856164	cavallo dice
-2.860690	cayeron en
-3.760672	cayeron sobre
-2.990551	cañoneos y
-4.140796	ceda </s>
-2.813709	cedería golán
-3.840366	celebración del
-4.366482	celebración por
-3.745854	cenizas </s>
-4.745860	central </s>
-3.689020	central a
-3.649534	central de
-3.390889	central del
-3.777243	central no
-2.541116	centro de
-2.543047	centroamérica </s>
-1.230991	cerca de
-1.726295	cerca del
-3.956280	cero indica
-3.125606	cero por
-3.664753	cero punto
-2.923547	cerrados por
-3.486527	cerrar siempre
-3.604779	cerraron este
-3.171681	cerrará operaciones
-3.440828	cerveza todo
-3.474197	cesación del
-2.919276	cesar acude
-3.520591	cesar dijo
-4.330890	cese al
-3.439693	cetáceos más
-1.492207	chiapas </s>
-3.713617	chiapas declaró
-1.992178	chiapas se
-3.244968	chile </s>
-2.980071	chile a
-3.331088	chile película
-3.412512	chile tiene
-3.390327	chile y
-2.705721	chileno </s>
-3.846043	chileno saliente
-3.671970	chileno vender
-3.473755	china </s>
-3.792919	china llega
-3.873907	china no
-3.049539	chocó cerca
-2.314104	choferes </s>
-3.453373	choques </s>
-3.824797	choques con
-3.100350	choques continuaran
-3.458396	choques tuvieron
-2.364702	ciega y
-3.143845	cielo </s>
-3.484920	cielo abierto
-1.367678	ciento </s>
-2.957252	ciento de
-2.642326	ciento dijo
-2.522287	ciento en
-3.595044	científicos han
-3.264890	científicos tratan
-2.469979	ciernen sobre
-3.241431	cierra esta
-2.906718	cierra los
-2.015582	cierre </s>
-2.277851	cierre de
-2.400475	cierre del
-2.839794	cierre en
-2.569385	cierto </s>
-2.963621	cierto en
-3.487369	cierto nivel
-3.007620	cierto revuelo
-1.798825	cifra de
-2.691827	cifra para
-2.352391	cifra que
-3.336007	cifras aproximadas
-3.944880	cifras de
-3.501597	cifras hacen
-3.645066	cifras han
-3.567366	cifras no
-2.968674	cifras oficiales
-3.938422	cifras sin
-4.129348	cifras son
-2.868194	cinco a
-3.184570	cinco años
-3.544066	cinco candidatos
-3.000124	cinco comités
-4.117788	cinco dólares
-3.542497	cinco meses
-3.843597	cinco veces
-2.618507	ciudad </s>
-3.311402	ciudad de
-3.186697	ciudad del
-3.087394	ciudad en
-2.571949	ciudad es
-3.492831	ciudad nueva
-2.621672	civiles </s>
-3.536943	civiles o
-4.422405	civilizados </s>
-2.984187	claro </s>
-3.930768	claro cuando
-2.805779	claro espaldarazo
-3.577180	claro este
-3.760932	claro que
-3.915581	clase diez
-3.186151	clase el
-2.450786	clasificación de
-2.502596	claudio </s>
-3.194266	clausura del
-2.932865	clausuran locales
-3.274318	claves en
-3.994288	climáticos de
-2.779603	clinton </s>
-3.342285	clinton a
-3.223700	clinton compara
-3.306458	clinton lo
-3.780622	clinton negó
-3.811065	clinton se
-3.919215	clinton también
-4.578451	coalición de
-4.161778	coherencia </s>
-2.994380	colaboración agregó
-3.239250	colaboración debe
-3.590001	colaborar </s>
-1.906803	coleman </s>
-1.401795	colombia </s>
-2.984324	colombia es
-3.330192	colombia militares
-3.611228	colombo venezolano
-3.962896	colonos deben
-3.130500	colonos entren
-3.038960	colonos tomarían
-3.437166	columna aparecen
-2.329689	combates </s>
-3.280811	combates aéreos
-3.715286	combatir </s>
-3.792333	combatir la
-3.412638	combustible nuclear
-4.117135	comedia la
-3.638479	comentado en
-2.353684	comentar </s>
-2.563692	comentar la
-2.699582	comentario de
-4.054650	comentario inmediato
-3.850243	comentario sólo
-1.669518	comentarios </s>
-2.210265	comentarios de
-3.053571	comentarios del
-3.318068	comentarios inmediatos
-3.282588	comentó </s>
-3.973704	comentó bernardo
-2.701798	comentó el
-2.948846	comentó en
-3.765129	comentó otro
-3.281480	comentó que
-3.308676	comentó sobre
-3.778581	comenzar </s>
-3.637121	comenzar a
-3.178292	comenzar la
-3.492222	comenzará a
-4.039386	comenzará el
-2.827617	comenzarán a
-2.524541	comerciales </s>
-3.292042	comerciales contra
-3.196772	comercializó </s>
-4.924253	comercio </s>
-3.049278	comercio colombo
-4.386562	comercio con
-4.049798	comercio de
-3.169450	comienza hoy
-2.764419	comienza la
-3.105651	comienzo </s>
-3.435331	comienzo del
-3.572813	comisionista </s>
-2.423795	comisión </s>
-4.106122	comisión aprobó
-3.092719	comisión consideró
-3.760762	comisión decidió
-3.557944	comisión desea
-3.294799	comisión determinará
-3.814614	comisión ha
-4.019964	comisión no
-3.704343	comisión se
-3.865138	comisión serán
-3.975683	comisión tal
-3.847831	comisión tiene
-2.328019	comité </s>
-2.064826	comité a
-3.676596	comité adoptará
-2.737493	comité aprobó
-3.382122	comité continúa
-3.219429	comité decidió
-2.142903	comité del
-4.218945	comité especial
-3.329176	comité está
-2.253045	comité ha
-1.672019	comité se
-3.002948	comité tenía
-3.545369	comités han
-3.409703	comités técnicos
-4.265846	como anexos
-3.884941	como candidato
-3.294719	como causa
-3.922308	como consecuencia
-1.978974	como de
-3.497436	como decir
-1.801621	como el
-3.318478	como ello
-2.493660	como en
-2.536465	como es
-2.620506	como esto
-3.317312	como está
-2.879243	como lo
-2.388576	como no
-3.047124	como nosotros
-2.181187	como para
-3.469058	como parece
-2.398110	como primer
-2.470629	como que
-3.581828	como quería
-3.937890	como quieran
-2.623977	como se
-3.360067	como sensato
-3.660574	como siempre
-3.139565	como tales
-2.125707	como un
-2.518255	como una
-3.724618	como ésta
-3.427219	como órgano
-3.390751	como último
-4.048338	compara a
-4.461207	comparte esa
-3.960989	comparten la
-4.053726	compartieron esa
-2.952177	comparó con
-3.763799	compasión </s>
-2.154214	compatible </s>
-3.198159	compañía estadounidense
-3.520561	compañía recurrió
-2.665950	compensatorias </s>
-3.599520	competitiva </s>
-3.082556	complace que
-2.345340	complace saber
-2.386789	complaciente </s>
-3.715704	complejo </s>
-4.137959	complejo y
-4.341520	complejos </s>
-3.624898	completa </s>
-2.591022	completa en
-2.906018	completa la
-3.427265	completa normalidad
-3.511244	completa retirada
-3.528794	completan acuerdo
-4.741628	completo </s>
-4.040104	completo pero
-2.098629	completos de
-3.515677	completó reforma
-4.005837	complicadas en
-5.640775	composición de
-3.801932	compras compensatorias
-3.630279	comprende el
-3.912732	comprende nuestra
-2.696196	comprendemos que
-3.831695	comprender su
-4.029661	comprenderse que
-3.453397	comprenderá el
-4.236863	comprendió lo
-3.503433	comprensión </s>
-4.139611	comprometido a
-3.315559	compromiso </s>
-4.392688	común </s>
-3.433089	común entre
-3.703261	común tres
-3.653315	con actividad
-3.131146	con acuerdo
-3.401179	con alza
-4.038960	con aprobación
-3.648769	con argentina
-3.767515	con arreglo
-3.865608	con china
-3.395367	con colombia
-3.611700	con comentarios
-4.135776	con daños
-3.385419	con delegación
-3.540555	con dificultades
-2.279147	con el
-3.234473	con ellos
-3.316815	con esa
-2.802952	con esta
-3.092648	con este
-2.948071	con esto
-3.404500	con fines
-2.571706	con galina
-4.096220	con grecia
-3.947191	con hechos
-3.403722	con israel
-2.109252	con la
-2.429249	con las
-3.894907	con leve
-2.893905	con los
-3.606902	con manada
-3.311727	con mi
-3.905703	con modestos
-3.338038	con mucha
-3.699194	con mucho
-3.058891	con más
-3.336739	con ninguna
-3.658639	con nosotros
-3.893348	con nuestra
-3.736164	con otras
-3.761757	con pocos
