\data\
ngram 1=0
ngram 2=6812

\1-grams:

\2-grams:
0.0000	</s> <s>
-15.5911	<s> a
-36.3784	<s> abrigamos
-33.1491	<s> acaso
-38.1943	<s> acepto
-34.8919	<s> aclara
-34.7683	<s> acortarán
-32.4990	<s> actor
-31.5356	<s> actualmente
-34.0288	<s> actuaré
-32.1367	<s> además
-35.1557	<s> adjunto
-39.2439	<s> admite
-29.1339	<s> agradecemos
-27.8587	<s> agradezco
-25.0892	<s> agregó
-29.8116	<s> ahora
-19.8357	<s> al
-28.7260	<s> algunas
-31.9058	<s> algunos
-35.1900	<s> alvaro
-27.2933	<s> ambas
-21.0106	<s> ambos
-29.7385	<s> anexos
-30.9285	<s> aparentemente
-37.2846	<s> aragón
-36.0083	<s> arias
-32.6772	<s> aristide
-31.3587	<s> asimismo
-35.4762	<s> aspin
-30.0015	<s> astronautas
-30.6003	<s> así
-37.3579	<s> aumenta
-35.1743	<s> avisaremos
-29.9435	<s> avión
-29.3317	<s> añadió
-31.0555	<s> aún
-39.4065	<s> basándose
-34.7254	<s> bernardin
-41.4172	<s> bonn
-31.7274	<s> brasil
-23.0143	<s> cada
-29.4674	<s> caldera
-29.4900	<s> carlos
-34.9758	<s> cavallo
-33.0723	<s> cerrará
-32.1706	<s> cesar
-38.1874	<s> clausura
-27.3607	<s> clausuran
-30.2414	<s> clinton
-20.1381	<s> como
-33.3926	<s> completan
-37.8258	<s> comprendemos
-21.9658	<s> con
-31.7386	<s> continuaremos
-28.1344	<s> continúa
-32.4878	<s> convención
-32.4724	<s> corte
-34.0064	<s> creo
-33.9333	<s> críticos
-26.7259	<s> cuando
-26.5528	<s> cuatro
-30.8301	<s> cuáles
-34.0162	<s> cómo
-13.0569	<s> de
-24.9957	<s> debe
-27.3590	<s> debemos
-30.9190	<s> deberá
-34.0739	<s> debo
-28.4878	<s> decidió
-30.4367	<s> desarrollo
-29.3147	<s> desde
-39.0314	<s> deseo
-33.6194	<s> desgraciadamente
-34.1513	<s> destacó
-30.0015	<s> dice
-31.8371	<s> dichos
-35.9681	<s> dije
-22.6695	<s> dijo
-34.3461	<s> dios
-38.7377	<s> discutiremos
-22.4418	<s> dos
-36.4820	<s> doy
-27.1925	<s> durante
-36.5967	<s> económicamente
-26.3112	<s> el
-29.9974	<s> elecciones
-33.5722	<s> ello
-30.9183	<s> ellos
-30.4930	<s> emotivo
-17.0893	<s> en
-43.2425	<s> envíamos
-24.7144	<s> era
-27.7092	<s> es
-24.2793	<s> esa
-25.3769	<s> esas
-40.7340	<s> escojo
-32.3972	<s> escritor
-37.5244	<s> escuché
-27.5773	<s> ese
-28.4459	<s> eso
-23.9770	<s> esos
-31.8721	<s> esperamos
-29.9957	<s> esperar
-37.1155	<s> espero
-24.7771	<s> esta
-30.2468	<s> estaban
-23.9170	<s> estamos
-25.4355	<s> estas
-28.7779	<s> este
-28.6090	<s> esto
-30.0446	<s> estonia
-30.5295	<s> estos
-23.7448	<s> está
-28.5540	<s> evidentemente
-27.1563	<s> ex
-34.4743	<s> exhiben
-31.0832	<s> favor
-35.5963	<s> fecsa
-32.0851	<s> figura
-35.4334	<s> fijan
-35.0645	<s> filipinas
-32.3298	<s> finlandia
-35.6469	<s> fracasa
-31.8690	<s> francia
-30.0194	<s> frente
-25.9462	<s> fue
-38.2544	<s> fuertes
-26.7438	<s> germán
-29.1141	<s> gobierno
-32.3945	<s> gonzález
-34.0395	<s> gracias
-27.4850	<s> graciela
-22.5073	<s> ha
-25.4131	<s> hacer
-31.7210	<s> haciendo
-27.5565	<s> hasta
-29.8100	<s> hay
-31.3355	<s> he
-26.7958	<s> hemos
-29.6964	<s> hoy
-27.3487	<s> hubo
-35.4418	<s> huelga
-34.7332	<s> iberdrola
-30.4315	<s> igual
-37.1624	<s> ilaria
-31.3236	<s> indican
-31.0919	<s> indicó
-33.5225	<s> indique
-31.7432	<s> inician
-33.6580	<s> inversionistas
-33.4205	<s> italia
-36.4383	<s> jaime
-30.4417	<s> japón
-27.6364	<s> justicia
-23.9835	<s> la
-41.5490	<s> lacalle
-34.5968	<s> lamentablemente
-19.0616	<s> las
-25.8586	<s> le
-27.2816	<s> les
-32.5234	<s> llameante
-26.8627	<s> llega
-32.5871	<s> llegó
-36.1975	<s> llevé
-29.0493	<s> lo
-18.8608	<s> los
-34.5960	<s> luego
-31.5384	<s> lógicamente
-40.9770	<s> madrazo
-31.8235	<s> mandela
-35.1054	<s> marchaba
-28.7039	<s> me
-32.7334	<s> media
-38.5362	<s> mercouri
-27.7676	<s> mi
-32.7076	<s> mientras
-31.9032	<s> miguel
-31.0921	<s> milán
-33.5974	<s> mineros
-30.3585	<s> ministro
-38.0101	<s> ministros
-40.2896	<s> monselas
-39.9846	<s> morirá
-25.2310	<s> mucho
-31.3466	<s> muchos
-32.4398	<s> muere
-30.6372	<s> mueren
-23.5655	<s> muy
-23.0080	<s> más
-27.6191	<s> méxico
-29.7741	<s> nadie
-34.5559	<s> nave
-28.6341	<s> necesitamos
-31.1982	<s> ni
-28.4882	<s> ninguna
-33.9646	<s> ninguno
-29.0562	<s> ningún
-29.7505	<s> no
-33.4777	<s> nombraron
-26.1057	<s> nos
-29.0382	<s> nosotros
-25.3030	<s> nuestro
-32.4605	<s> nuestros
-27.3483	<s> nuevamente
-28.7353	<s> nunca
-35.1276	<s> occidente
-28.2734	<s> ocho
-27.1874	<s> operaciones
-27.7124	<s> otras
-25.5180	<s> otros
-39.0279	<s> palacios
-21.4756	<s> para
-26.9394	<s> parece
-34.4832	<s> parra
-35.5671	<s> passarella
-33.8755	<s> pequeño
-38.6351	<s> peres
-32.5398	<s> permitirá
-31.2207	<s> pero
-33.8327	<s> pese
-33.4796	<s> peseta
-28.9403	<s> planeaba
-31.8986	<s> plantearon
-30.1298	<s> podríamos
-20.7911	<s> por
-31.0711	<s> preguntó
-32.8307	<s> prensa
-34.1532	<s> preparan
-24.3280	<s> presidente
-33.3487	<s> provocaría
-25.6688	<s> pueden
-32.5494	<s> puedo
-22.7052	<s> que
-32.4252	<s> quería
-30.1352	<s> queríamos
-24.2606	<s> quienes
-30.2443	<s> quiere
-32.7255	<s> qué
-36.4705	<s> quédense
-35.4209	<s> realiza
-41.1574	<s> reanudada
-31.3559	<s> reciben
-42.0941	<s> recrudece
-37.0255	<s> reitera
-32.5464	<s> renuncia
-38.8318	<s> resa
-33.2422	<s> responderemos
-28.9437	<s> retirada
-34.6955	<s> rey
-26.7065	<s> rusia
-36.5007	<s> ríos
-36.3988	<s> salieron
-28.8252	<s> sarajevo
-36.6167	<s> saínz
-26.3401	<s> se
-26.7701	<s> según
-38.7276	<s> sela
-29.9363	<s> senado
-26.3793	<s> será
-29.1102	<s> sería
-29.8483	<s> si
-35.7909	<s> siento
-29.4057	<s> siete
-29.5462	<s> sigue
-40.9056	<s> silvio
-29.0032	<s> sin
-35.8895	<s> siria
-23.5390	<s> sobre
-22.8299	<s> son
-29.1347	<s> soy
-20.2410	<s> su
-29.8005	<s> sube
-21.6826	<s> sus
-35.8963	<s> sé
-30.6917	<s> sólo
-31.4505	<s> tal
-27.8515	<s> también
-27.7476	<s> tampoco
-24.8916	<s> tenemos
-30.6010	<s> todas
-31.9277	<s> todavía
-28.5830	<s> todo
-28.6903	<s> todos
-35.2900	<s> toyota
-33.1372	<s> trataremos
-32.2043	<s> treinta
-28.8904	<s> tres
-36.4558	<s> tuvimos
-21.7653	<s> un
-23.8918	<s> una
-28.5675	<s> unos
-30.3489	<s> urge
-30.7114	<s> uruguay
-31.5647	<s> valores
-35.9399	<s> van
-26.5944	<s> varios
-40.9675	<s> velásquez
-33.8322	<s> venezolanos
-25.1491	<s> venezuela
-33.5350	<s> véanse
-36.3090	<s> véase
-18.1113	<s> y
-27.8483	<s> ya
-28.8824	<s> yo
-32.2655	<s> yugoslavia
-13.2450	a actuar
-17.2661	a algunos
-20.1710	a alta
-17.2234	a aprobar
-14.6187	a atlanta
-13.3225	a cambio
-20.7014	a cargo
-11.4284	a chile
-17.6815	a cielo
-18.9735	a cifras
-14.5103	a cinco
-6.0625	a colaborar
-10.1646	a coleman
-19.0421	a combatir
-14.6741	a consulta
-1.8093	a continuación
-19.5463	a continuar
-14.8577	a debatir
-12.9764	a decir
-15.4607	a defraudar
-17.4061	a discutir
-8.2984	a elegir
-12.6728	a ello
-15.6737	a esa
-14.4356	a esas
-13.7282	a ese
-15.3299	a esos
-15.8106	a estar
-13.1330	a estas
-11.9201	a este
-13.8870	a esto
-12.3959	a estos
-11.8071	a europa
-13.4498	a examinar
-18.3726	a explicar
-14.9734	a fines
-20.2612	a firmeza
-13.5787	a goycochea
-16.6973	a gusto
-12.3858	a hablar
-16.9518	a hacer
-7.4607	a ir
-15.8080	a japón
-11.8052	a jerusalén
-18.1253	a juan
-16.3662	a juicio
-7.7424	a la
-7.5602	a largo
-17.3152	a las
-13.0101	a los
-13.1777	a marcos
-19.0912	a mejorar
-7.6199	a menudo
-9.0560	a mi
-14.8729	a méxico
-13.5917	a nadie
-19.7112	a otra
-13.5716	a otro
-12.8475	a otros
-13.7884	a partidos
-14.1204	a países
-15.1696	a personas
-14.8655	a que
-16.5919	a quedar
-17.5924	a recibir
-17.3691	a reformas
-12.8260	a regir
-16.9332	a regresar
-10.1961	a reservas
-8.2203	a respetar
-13.6970	a retirarse
-18.5503	a reunir
-10.2935	a rusia
-20.0907	a santiago
-11.1744	a sentir
-17.8934	a ser
-10.8834	a serbia
-9.1871	a su
-17.2180	a sus
-17.8727	a tasa
-10.7507	a tegucigalpa
-14.3173	a temas
-14.3401	a tener
-14.0698	a todos
-9.8418	a trabajar
-11.1861	a un
-17.2887	a una
-14.4149	a votación
-14.2552	a votar
-18.4691	a ya
-8.4692	abajo con
-5.8471	abandonada </s>
-7.7599	abandonado la
-13.0496	abarcan muy
-7.3488	abastecimiento el
-1.9274	abatir estructuras
-0.8846	abierta </s>
-10.6642	abiertas y
-10.3108	abierto a
-9.6047	abierto del
-6.6913	abra está
-10.7801	abrigamos la
-7.1073	abril </s>
-14.2911	abrió un
-7.9460	abstracto sino
-10.5446	abundan los
-12.2562	aburrida señaló
-7.8577	acaba de
-6.2497	acaben los
-7.2830	acaso haya
-8.0134	acaso no
-9.7432	acatamiento sea
-7.1585	acceder a
-9.4361	acceso a
-5.2229	accidente </s>
-4.1016	acciones cayeron
-10.3580	acciones de
-5.4558	acciones subieron
-5.9856	acción se
-11.7336	acción son
-8.2263	acelerar el
-7.9103	acento francés
-9.3509	aceptable </s>
-9.1483	aceptar un
-11.4565	aceptarla </s>
-4.8741	acepto humildemente
-7.6142	aceptó esa
-3.1904	aceptó la
-9.4929	aclara que
-7.3608	aclararlo todo
-7.9372	acomete campaña
-8.9618	acontecimiento a
-9.2136	acopla a
-9.3650	acordaron continuar
-7.2414	acordó que
-4.3699	acortarán duración
-2.7448	acosta </s>
-8.3378	actitud de
-9.6978	actitud dijo
-1.6829	actividad </s>
-3.6906	actividad volátil
-9.2921	actividades en
-11.2353	actividades se
-6.1619	activo diferido
-6.0461	activos desde
-9.9110	acto la
-9.1628	actor de
-8.4825	actor más
-12.9994	actuaciones de
-7.6392	actual </s>
-9.4248	actual acuerdo
-4.5108	actual composición
-8.1566	actual dista
-8.4460	actual es
-9.7042	actualidad hay
-3.3509	actualizan constantemente
-9.1013	actualizar cada
-8.1849	actualmente la
-10.2979	actualmente objeto
-7.3664	actuando así
-5.0208	actuar </s>
-4.1072	actuaré conforme
-7.1525	acude a
-5.1103	acuerdan impulsar
-2.2302	acuerdo </s>
-11.4691	acuerdo como
-9.0326	acuerdo con
-7.3471	acuerdo de
-11.7287	acuerdo donde
-7.2624	acuerdo no
-8.4856	acuerdo que
-7.8068	acuerdo sobre
-0.5831	acusaciones </s>
-4.8574	acusados prestó
-3.2388	adelante </s>
-9.2095	adelante dijo
-7.6969	adelanto </s>
-7.5006	además por
-0.0020	adicionales </s>
-12.4210	adiós del
-14.2120	adjudica un
-9.2801	adjudicada a
-4.1776	adjunta copia
-8.8418	adjunta una
-3.9388	adjuntan los
-2.3657	adjunto copias
-9.3763	admite un
-12.4087	adoptado algunas
-12.2724	adoptará sus
-7.6804	adoptarán por
-8.3370	aducía </s>
-2.8941	advirtió </s>
-10.7071	aeropuerto </s>
-10.5755	aeropuertos fueron
-8.5291	afectados </s>
-8.1003	afiliación a
-5.8826	afirma benítez
-7.7825	afirma que
-3.5794	afirmativo tendríamos
-5.6455	afirmó </s>
-5.7286	afirmó tajante
-10.5111	agencia dijo
-11.5898	agente </s>
-11.9818	agradecemos por
-9.9893	agradecemos su
-10.6323	agradeceremos su
-10.5741	agradecerle a
-13.2682	agradezco de
-8.1531	agradezco su
-6.4122	agrava esta
-8.4443	agravó las
-1.0114	agregó </s>
-11.8713	agregó acosta
-15.2995	agregó por
-10.0486	agregó que
-8.0840	agresión contra
-4.0478	agrupación </s>
-7.1364	agrícola francés
-4.2042	agua agrava
-6.3877	aguarda regreso
-6.0880	aguarme el
-2.0167	aguas no
-6.5893	ahondar el
-1.8563	ahora </s>
-9.8577	ahora ahorra
-8.2334	ahora bien
-7.5532	ahora dijo
-12.0362	ahora en
-9.9108	ahora enfrenta
-11.4636	ahora es
-7.9993	ahora la
-8.7136	ahora los
-10.1614	ahora no
-10.0518	ahora que
-12.5168	ahora sobre
-10.2193	ahora solamente
-5.0518	ahora tenemos
-10.9655	ahorra </s>
-5.9468	ahí que
-7.7839	aislamiento fue
-8.7398	ajustará pues
-10.2187	al cierre
-12.5719	al contenido
-12.6275	al cuadro
-13.3988	al distinguido
-13.7122	al día
-15.3711	al estrellarse
-7.3129	al exterior
-11.9099	al festivo
-13.5389	al fuego
-11.4669	al gobierno
-9.1489	al grupo
-7.8320	al hospital
-8.5526	al marcador
-12.7271	al marco
-11.6865	al menos
-13.5290	al mercado
-11.2438	al mismo
-4.3377	al parecer
-9.8980	al país
-11.5897	al problema
-13.7264	al párrafo
-9.9248	al recibir
-11.4687	al salir
-10.5991	al secretario
-13.4810	al sector
-11.9700	al siguiente
-12.5719	al tratado
-14.4194	al uso
-14.1208	al ver
-8.4193	albacora han
-17.5644	aldeas </s>
-7.5892	alegatos de
-5.3089	alemania </s>
-4.5202	alemán gana
-6.4797	alfonsín </s>
-5.2984	algo así
-7.3335	algo más
-5.6722	algo puede
-6.9857	algo tangible
-9.3395	alguna para
-6.0570	alguna razón
-5.7486	algunas condiciones
-6.7077	algunas cosas
-5.3718	algunas de
-6.9446	algunas diferencias
-5.2899	algunas medidas
-9.4039	algunas otras
-17.6251	alguno </s>
-8.7528	alguno de
-9.8646	algunos críticos
-8.4224	algunos especialistas
-12.1607	algunos esto
-10.3188	algunos países
-8.2124	algunos vendían
-13.1318	alimentaria continúa
-9.4132	alla del
-8.4145	allen al
-7.5698	allá de
-9.7180	allí cuando
-5.3470	alrededor de
-3.4900	alta mar
-7.0001	altibajos y
-6.5244	alto costo
-3.5553	alto organismo
-12.8103	alvaro lo
-10.9512	alza en
-9.8112	amable cooperación
-12.0908	amazónico </s>
-7.5917	ambas naves
-7.8431	ambas partes
-9.9719	ambas propuestas
-20.4205	ambos efectos
-20.6161	ambos equipos
-20.1572	ambos países
-16.5597	ambos reclamaron
-9.4730	amplia </s>
-9.2020	amplia gama
-8.1437	ampliado también
-4.0493	ampliamente imitado
-8.3164	ampliar esa
-6.6888	ampliarse en
-8.4775	ampliarse o
-4.9542	amplio </s>
-10.5909	amplitud de
-1.5783	américa latina
-10.2850	analfabetos del
-4.9294	analista </s>
-10.8082	analizado cuidadosamente
-5.8540	analogía ayudará
-7.5723	anexo diez
-2.4678	anexo figura
-7.7924	anexo tres
-6.7006	anexos al
-10.1868	anonadado </s>
-10.1461	anonimato </s>
-6.9467	ante el
-6.4348	ante la
-5.8047	ante una
-8.0456	antemano su
-3.3926	antenas solares
-0.3548	anterior </s>
-8.5652	anticipado su
-6.4254	anticipó qué
-6.5799	antología de
-6.9238	anual del
-7.3936	anunciado aún
-2.7793	anunciados </s>
-7.5468	anunciar medidas
-2.0679	análisis </s>
-7.6359	apagones eléctricos
-8.9173	aparecen las
-6.3465	aparentemente mantiene
-8.2225	apelables ante
-0.0089	apelación </s>
-5.3657	apelado </s>
-11.1450	apertura del
-4.8247	aplicación de
-6.0568	aplicar la
-7.5738	aportaciones adicionales
-8.4149	apoyo </s>
-10.0358	apoyo alguno
-11.0913	apoyo del
-7.0922	apoyo para
-9.1185	apoyo y
-7.4878	apremio expresado
-7.4042	aprobación </s>
-7.2568	aprobado por
-7.9201	aprobar reformas
-9.5487	aprobaron en
-4.4769	aprobó el
-5.4554	aprobó presupuesto
-13.0839	aproximadas de
-8.2426	aprueba pacto
-12.1982	apuntarán a
-6.2587	aquella época
-9.8299	aragón dijo
-5.1283	arbitraje </s>
-4.9516	aremisos a
-9.6766	argentina discutiéndolo
-6.7188	argentina que
-9.3824	argentino </s>
-5.1843	argentino polemiza
-8.4472	arias dice
-5.0982	arias se
-10.1408	aristide ha
-2.3879	arma </s>
-3.4563	arma sónica
-11.2272	armamento será
-8.4327	armas agregó
-7.8642	armas nucleares
-6.8363	arrecian críticas
-8.8495	arreglo no
-6.3697	arrestado hasta
-9.4789	arroz norteamericano
-7.7380	arroz tailandés
-6.5876	arte y
-5.7372	artistas están
-1.8445	artículo catorce
-9.6367	artículo con
-8.3787	artículo doce
-5.8270	artículo segundo
-10.5246	artículo también
-12.8889	artículos de
-9.1961	asalariados han
-6.6939	asamblea </s>
-3.3691	asamblea general
-1.9767	asamblea ordinaria
-9.3209	ascenso el
-4.3668	asegurado </s>
-9.5536	asesinar y
-9.9902	aseveró </s>
-6.0076	asignación puede
-0.3970	asimismo lamentó
-9.0205	asimismo se
-9.5131	asisten a
-6.3850	asistencia y
-5.0162	asociado </s>
-7.2393	asombro en
-13.2853	aspecto del
-16.3717	aspectos </s>
-11.6523	aspin dijo
-8.7594	assad vaya
-1.7956	astronautas instalan
-3.1307	asumiría ministerio
-7.8137	asunto en
-8.0098	asunto serio
-5.2771	asuntos mundiales
-7.6746	asuntos no
-8.4329	así cuáles
-9.3233	así explicó
-6.9637	así hasta
-8.2174	así las
-3.7318	así que
-6.7167	atacar a
-9.5652	ataque causó
-3.6157	ataúd </s>
-5.8063	atención </s>
-7.0271	atención de
-5.2055	atención médica
-7.8178	atender esa
-5.4884	atentado </s>
-10.0939	aterrizó con
-5.4644	aterrizó sin
-10.0930	atlanta dos
-2.4878	atraer aremisos
-11.8344	atraviesan un
-7.4437	atribuírlo a
-9.5109	atrás </s>
-4.1703	atuendo </s>
-12.0405	audaz </s>
-6.9230	audiencias sobre
-13.5049	aumenta cifra
-12.8015	aumenta la
-6.8295	aumentado la
-7.5938	aumentaron </s>
-3.9492	aumentos no
-12.2477	aumentó las
-3.9810	ausencia </s>
-6.5524	ausencia de
-18.1857	australiano </s>
-15.8735	autobús </s>
-13.8580	autoevaluaciones no
-6.3369	automóvil de
-7.9476	automóviles nuevos
-3.2977	autor afirma
-6.7290	autoridades de
-7.5494	autoridades no
-9.9059	avance del
-7.7713	avance este
-10.0871	avancen </s>
-9.0812	avances </s>
-9.9106	avanza cada
-8.2702	avanzado en
-8.3126	avaro y
-12.3090	avendaño </s>
-10.2374	avisaremos en
-10.3191	avión de
-5.9841	avión español
-8.5784	avión hará
-6.2801	avión norteamericano
-7.1899	avión procedente
-11.1870	ayer en
-11.0592	ayuda a
-11.7693	ayuda y
-10.2672	ayudará a
-9.4271	aérea de
-9.0869	aéreos en
-4.6843	añadió </s>
-7.7054	añadió que
-5.3733	añadió ventura
-4.9813	año </s>
-5.3291	año el
-7.8362	año en
-8.3050	años </s>
-6.8888	años después
-8.8068	años es
-9.7162	años esta
-6.3390	años venideros
-5.3468	aún añadió
-7.7177	aún del
-4.8648	aún detenciones
-8.3597	aún en
-5.7242	aún más
-3.1654	aún no
-9.1356	baja </s>
-8.9326	baja a
-12.1061	bajaron más
-8.3833	baje expresó
-8.0801	bajo condición
-7.8857	bajo dijo
-7.4128	bajo la
-11.8565	bajo presión
-11.4969	bajos </s>
-2.2266	balladur </s>
-5.6420	bancario </s>
-4.4576	banco central
-7.7802	banco europeo
-8.3831	banco ha
-15.8884	bancolombia </s>
-9.1575	bancos estarán
-3.4805	basa el
-3.2480	basa en
-0.7692	basado en
-3.9746	base intelectual
-7.8478	base se
-7.5993	bastante amplia
-5.5123	bastante corto
-3.2014	bastante preocupantes
-15.1122	basándose en
-12.2204	batalla </s>
-11.4044	batallones en
-9.5171	baviera </s>
-10.2702	beca fue
-6.1479	bena soares
-8.9181	bendiga miguel
-11.1203	benítez </s>
-6.5897	berlín y
-10.5282	bernardin no
-22.5554	bernardo </s>
-7.8870	bielorrusia busca
-6.3719	bien </s>
-12.0487	bien como
-7.1897	bien conocida
-9.2589	bien desde
-12.0086	bien existe
-3.6871	bien informados
-10.2541	bien la
-10.0735	bien puede
-8.4280	bien ubicado
-9.6267	bienvenida </s>
-10.4435	blancos nos
-4.6411	blum y
-5.9578	bogotá </s>
-8.6187	bogotá y
-4.4175	bola de
-8.2012	bomba </s>
-6.5006	bondes se
-7.8533	bonn está
-1.8881	bonos </s>
-2.8619	boquete en
-15.4124	borrador </s>
-1.5616	borrados </s>
-6.6779	bosnia </s>
-1.6754	bosques </s>
-0.0200	brasil </s>
-5.7183	brasil acuerdan
-12.5252	brasil aguarda
-4.7332	brasileño completó
-8.2160	brasileño declara
-4.0381	breve respiro
-8.5399	brevemente al
-7.6625	brevemente ante
-4.9857	bruselas </s>
-7.9511	buceador </s>
-6.8355	buen buceador
-9.0261	buen momento
-5.2735	bueno </s>
-6.6761	bueno para
-4.4294	busca a
-9.1555	busca proteger
-8.3246	buscamos la
-11.9986	buscar la
-4.3267	básicos </s>
-6.1168	bósforo </s>
-7.9696	cabe duda
-15.2996	cabo </s>
-8.4071	cabría decir
-8.8976	cachemira luego
-8.4702	cada cuatro
-7.2639	cada día
-7.2358	cada encuentro
-7.6917	cada organismo
-10.0611	cada producto
-3.7523	cada trimestre
-6.5468	cada uno
-2.9280	cada vez
-6.5562	cadena de
-2.7933	caer en
-9.6187	cafetería cierra
-8.3835	caja </s>
-8.6552	caldera es
-8.0895	caldera escogieron
-9.1156	caldera presentó
-0.0099	calefacción </s>
-14.0528	calidad cuesta
-15.5293	calidad de
-11.2972	camacho en
-13.0075	cambiado </s>
-8.6203	cambiado en
-8.0516	cambiado totalmente
-9.5986	cambio de
-8.9686	cambios al
-8.5777	cambios de
-3.9788	cambios gane
-7.1741	cambios se
-9.3495	cambios serán
-8.3143	cambió varias
-0.4925	campamento </s>
-5.6084	campamento controlado
-11.1623	campaña política
-4.1166	campeones ganando
-9.2664	campo los
-6.4717	campo moderado
-6.9162	campo y
-6.1173	canalizó a
-15.0668	canciller francés
-11.5540	canciller peruano
-6.8560	cancillería uri
-7.5843	candidato en
-9.2409	candidato para
-2.7640	candidatos podían
-6.4776	cantante se
-9.2231	cantidad de
-14.2743	capacidad de
-8.8600	capaz de
-9.1430	capital mínimo
-14.1008	captura </s>
-7.7025	capítulo tres
-8.4498	cara </s>
-5.7604	caracas bogotá
-6.1543	caravana pasa
-22.1213	carbón </s>
-15.7519	carbón a
-8.3789	cardona </s>
-4.3236	carece de
-6.2874	carga de
-5.9971	carga están
-3.9968	cargo aportaciones
-4.4824	cargo de
-7.5370	carlos elgueta
-6.5001	carlos lleras
-5.0922	carnaval </s>
-10.4943	caro </s>
-3.2611	carrera </s>
-9.9912	carrera por
-10.2448	carta de
-0.4342	carta describía
-9.7032	cartas para
-4.9398	carteles </s>
-10.6188	casa mis
-5.4112	casas </s>
-9.6533	casi cinco
-5.3952	casi perfecta
-7.1146	casi total
-9.9306	casino </s>
-9.8911	caso </s>
-0.8617	caso afirmativo
-12.2017	caso agregó
-8.8787	caso de
-6.4472	caso más
-5.2069	caso no
-8.4460	caso se
-6.5219	caso también
-6.8173	casos hemos
-5.4434	casos más
-4.4340	casos problemáticos
-4.6048	casos se
-5.4174	casó con
-10.3909	catedral está
-6.1582	catorce </s>
-12.5559	católica </s>
-3.0323	causa </s>
-7.0259	causa de
-6.2383	causa del
-5.1515	causas del
-8.4681	causas naturales
-4.7387	causó asombro
-7.6535	causó cierto
-6.4347	causó pánico
-7.2093	cavallo dice
-7.2307	cayeron en
-11.8929	cañoneos y
-10.5375	ceda </s>
-5.4177	cedería golán
-11.9244	celebración por
-10.4856	cenizas </s>
-0.7789	central </s>
-12.3127	centro de
-6.4958	centroamérica </s>
-1.4306	cerca de
-3.9249	cerca del
-5.6269	cero indica
-4.7793	cero por
-10.6187	cerrados por
-7.4950	cerrar siempre
-8.2125	cerraron este
-6.0235	cerrará operaciones
-10.7780	cerveza todo
-6.4801	cesación del
-4.5008	cesar acude
-11.7958	cese al
-8.3863	cetáceos más
-6.0640	chiapas </s>
-8.8907	chiapas declaró
-5.2622	chile </s>
-4.2786	chileno </s>
-4.4616	chileno saliente
-10.3564	chileno vender
-4.4107	china </s>
-8.6288	chocó cerca
-0.3180	choferes </s>
-2.1042	choques continuaran
-8.7389	choques tuvieron
-11.7756	ciega y
-10.6265	cielo abierto
-17.6945	ciento </s>
-7.5846	ciento dijo
-1.7303	ciento en
-8.6976	científicos han
-8.2720	científicos tratan
-10.3128	ciernen sobre
-7.7409	cierra los
-2.9917	cierre de
-2.7727	cierre en
-4.7300	cierto </s>
-1.9633	cierto revuelo
-3.8710	cifra de
-6.6361	cifra que
-4.5240	cifras aproximadas
-7.9502	cifras hacen
-5.8158	cifras sin
-8.4082	cifras son
-11.7221	cinco años
-13.4382	cinco dólares
-11.2878	cinco meses
-4.0538	ciudad de
-5.9592	ciudad del
-7.2493	civiles o
-0.2940	civilizados </s>
-0.2168	claro </s>
-5.5301	claro espaldarazo
-10.8252	clase el
-7.2922	clasificación de
-9.3901	claudio </s>
-8.1262	clausura del
-4.1316	clausuran locales
-9.0563	claves en
-8.2890	climáticos de
-10.5562	clinton a
-7.7146	clinton compara
-10.3532	clinton también
-10.0401	coalición de
-9.5673	coherencia </s>
-7.6597	colaboración debe
-10.8552	colaborar </s>
-15.8066	coleman </s>
-8.1110	colombia militares
-6.8048	colombo venezolano
-9.7195	colonos deben
-4.1114	colonos entren
-5.2350	colonos tomarían
-8.2223	columna aparecen
-7.2905	combates aéreos
-2.2748	combatir </s>
-9.1921	combustible nuclear
-9.7245	comedia la
-9.0323	comentado en
-10.3909	comentar </s>
-7.3107	comentario de
-3.2347	comentarios </s>
-6.2273	comentarios de
-4.3562	comentarios del
-14.0537	comentó bernardo
-15.9691	comentó en
-8.1504	comenzar </s>
-11.6801	comenzar a
-10.4124	comenzará el
-6.6561	comenzarán a
-0.6814	comerciales </s>
-2.0976	comercializó </s>
-9.2706	comercio </s>
-6.7701	comercio colombo
-7.1448	comienza hoy
-9.9640	comienzo del
-1.3194	comisionista </s>
-3.0626	comisión </s>
-7.2715	comisión consideró
-10.9976	comisión decidió
-8.1415	comisión determinará
-9.7072	comisión se
-11.0248	comisión serán
-7.8514	comisión tal
-1.6671	comité </s>
-8.3346	comité adoptará
-8.5948	comité decidió
-9.2186	comité especial
-6.8612	comité se
-13.1559	comité tenía
-9.6063	comités han
-12.7972	como candidato
-12.5773	como causa
-14.8071	como lo
-10.1442	como no
-11.3644	como quieran
-9.3622	como sensato
-13.6193	como un
-13.1315	como una
-14.7155	como ésta
-13.5066	como último
-10.2846	compara a
-4.0842	comparte esa
-8.1200	comparten la
-6.1583	compartieron esa
-6.2810	comparó con
-13.7247	compasión </s>
-7.8848	compatible </s>
-4.1048	compañía recurrió
-11.4667	compensatorias </s>
-12.4076	competitiva </s>
-7.4535	complace saber
-17.6875	complaciente </s>
-7.2498	complejo y
-7.7253	complejos </s>
-3.9443	completa normalidad
-6.1581	completan acuerdo
-11.2583	completo </s>
-6.4160	completo pero
-13.3611	completos de
-5.1444	completó reforma
-8.5478	complicadas en
-9.7711	composición de
-4.6283	compras compensatorias
-9.8574	comprende nuestra
-11.3558	comprendemos que
-5.8996	comprender su
-9.5277	comprenderse que
-10.0438	comprenderá el
-6.9200	comprendió lo
-6.2232	comprensión </s>
-8.8553	comprometido a
-2.9760	compromiso </s>
-12.0873	común tres
-12.3728	con actividad
-15.6920	con argentina
-14.4855	con china
-16.1338	con dificultades
-12.9537	con el
-16.4724	con ellos
-18.9028	con esa
-16.4321	con este
-17.0660	con esto
-1.3021	con galina
-15.1640	con grecia
-18.8793	con hechos
-14.4333	con la
-18.8874	con las
-17.6067	con los
-11.9141	con manada
-17.9817	con mi
-15.8103	con modestos
-17.9610	con mucha
-19.5211	con ninguna
-20.2182	con nosotros
-8.9153	con posterioridad
-16.1616	con pérdida
-15.2396	con seriedad
-14.7910	con su
-14.5204	con todo
-17.4584	con todos
-17.8399	con un
-11.5542	concebido el
-6.0987	concepto abstracto
-7.7654	concepto amplio
-8.9647	concepto de
-8.2597	conciencia agregó
-10.8457	conclusiones del
-11.2516	conclusión es
-0.5088	conclusión opuesta
-4.7536	concluye la
-7.4196	concluídas </s>
-4.2565	concluído así
-13.1082	concreta </s>
-10.4936	concreta para
-7.0418	concretos </s>
-3.7568	concretos que
-7.1677	concuerda con
-11.8753	concéntrese en
-5.5193	condena en
-10.6015	condenatorio no
-4.0603	condiciones </s>
-5.9946	condiciones favorables
-6.4082	condición de
-9.1355	conductor de
-3.6710	condujo supuestamente
-8.1486	conexión </s>
-10.3214	conferencia de
-7.8508	conferencia el
-11.2009	conferencia para
-6.0679	confianza en
-5.0564	confidenciales </s>
-4.2303	confirmado independientemente
-9.2098	conflictos se
-10.2879	conforme a
-7.6722	confuso e
-4.8988	congelarían los
-4.0183	congreso </s>
-6.5397	conoce a
-7.0105	conocen las
-8.7953	conocer sus
-7.6111	conocerla </s>
-3.7635	conocida </s>
-9.1009	conocido de
-6.8516	conocimiento del
-9.2004	consecuencia decidió
-4.8778	consecuencia no
-4.0368	consecutivos </s>
-5.3286	conseguir la
-2.8859	consejo </s>
-12.7197	consejo procedió
-5.4712	consejo tomará
-0.0174	consenso </s>
-14.9024	consenso internacional
-7.3392	conservación de
-10.5829	considera posible
-8.1611	considerablemente de
-7.8896	consideración de
-7.0137	consideró que
-7.5496	consignaciones adicionales
-12.4778	consiguiente esa
-13.6873	consiguiente les
-10.1331	consta de
-6.3119	constante </s>
-8.4558	constante dijo
-2.4335	constantemente </s>
-6.3312	constituirán la
-9.3914	constituye un
-5.8508	construcciones </s>
-7.3436	construir sobre
-14.2887	consulta </s>
-9.8431	consulta política
-10.4198	consumado de
-10.3017	consumo </s>
-7.7034	contactado para
-9.0600	contacto tan
-6.6268	contaduría </s>
-4.5739	contemplaba una
-7.2195	contenido de
-15.6687	conteo de
-11.1506	contestaron a
-9.4094	contextos </s>
-7.0407	continuaban pendientes
-4.6797	continuación </s>
-9.1720	continuación defendió
-6.4135	continuación quisiera
-0.4745	continuado </s>
-13.0363	continuar con
-5.2019	continuar el
-13.6670	continuar esta
-11.5357	continuar y
-6.3860	continuaran hoy
-2.0990	continuaremos actuando
-6.8974	continuarán negociando
-0.2277	continúa </s>
-5.5853	continúa diezmada
-10.4536	continúa en
-9.2981	continúa investigación
-13.2402	continúa siendo
-5.7675	continúe </s>
-8.0688	continúen las
-6.0611	contra aldeas
-11.6009	contra de
-5.1460	contra homero
-9.1432	contra los
-10.3268	contradicciones entre
-10.2352	contrario existe
-5.9809	control </s>
-6.3783	control de
-7.0668	controlado por
-4.6359	convencidos de
-6.1238	convención radical
-6.1159	conveniente recibir
-4.7735	conversaciones </s>
-6.9882	conversaciones abiertas
-8.4145	conversaciones de
-5.2313	cooperación </s>
-6.1310	cooperación económica
-9.5934	cooperación en
-7.6385	cooperación técnica
-12.0866	cooperación y
-16.0210	coordinación </s>
-3.8864	copa </s>
-7.5057	copia del
-8.2320	copiar </s>
-19.1220	copias de
-5.8636	cordinar el
-6.8569	correa </s>
-1.7382	correa asumiría
-3.7519	correcta </s>
-7.4411	correcta dijo
-22.2117	correctas </s>
-9.8580	correcto </s>
-6.7233	corregirse en
-12.2041	correr este
-8.2241	correspondientes al
-8.8822	correspondientes son
-14.0621	correspondía al
-8.5903	corro </s>
-6.8901	corros </s>
-2.9463	corrupción </s>
-12.0814	corrupción en
-7.9281	corrupción nadie
-5.6767	cortar la
-7.7086	corte decidirá
-7.6933	corte prohibe
-1.9579	corte suprema
-11.3628	cortes como
-8.2472	corto expresó
-2.7709	cosa </s>
-3.0229	cosas complicadas
-1.2382	cosas positivas
-9.6493	cosas y
-13.2561	costa de
-6.5699	costo social
-9.6215	costosas </s>
-2.8800	cotización </s>
-11.9093	cotizó en
-7.9192	creado una
-3.7902	crean venganzas
-7.3807	creciente tendencia
-13.0735	crecimiento de
-4.4470	crecimiento económico
-6.4905	cree que
-6.0560	creen que
-6.0871	creo que
-5.6088	creíamos que
-9.2270	creó pues
-3.8061	crisis </s>
-10.8865	crisis y
-4.9350	cristal para
-3.4794	criterios concretos
-6.6808	critica la
-9.2818	criticará al
-3.1565	crucial </s>
-3.5008	crudo </s>
-12.1371	cruzada de
-0.2488	crédito </s>
-13.1047	críticas contra
-4.0479	críticos galardona
-5.5226	críticos opinan
-1.3867	cuadro en
-5.7653	cuadro ha
-6.5786	cuadro ocho
-4.7317	cuadro seis
-11.2178	cuadros se
-8.2807	cual será
-10.1309	cualquier caso
-12.0717	cualquier encuesta
-7.6345	cuando blum
-8.7298	cuando quieren
-7.5973	cuando se
-9.3982	cuando uno
-6.8183	cuanto reanudemos
-8.3669	cuantos civiles
-10.3949	cuarenta horas
-10.8009	cuarta vez
-7.0142	cuatro años
-11.9848	cuatro grupos
-10.0680	cuatro personas
-11.1113	cuatro por
-8.8076	cuatro se
-4.8082	cuba tras
-9.3377	cubierta de
-9.8055	cuenta </s>
-8.9902	cuenta el
-5.7940	cuentas ni
-7.9493	cuesta cara
-3.9268	cuestionario </s>
-2.3243	cuestiones </s>
-8.7875	cuestiones se
-5.5916	cuestión </s>
-4.9636	cuestión de
-2.9019	cuestión es
-7.6264	cuestión fue
-3.6673	cuestión no
-5.5166	cuestión que
-7.8015	cuestión va
-14.3857	cuidadosamente su
-4.1047	cuidadosos </s>
-9.4816	cuidan de
-7.0742	culpable pero
-6.4214	culpables de
-8.9642	cultura del
-8.7773	cumplen </s>
-7.4954	cumplimiento significa
-9.0645	cumplir dicho
-5.1221	cumplirán períodos
-8.3772	curso otras
-5.8067	cursos de
-9.7302	cuál era
-10.1160	cuáles son
-8.9174	cuándo se
-7.0117	cuánta gente
-4.8863	cámara de
-0.8005	césar farias
-7.7876	cólera en
-7.9317	cómo se
-11.0787	daba lugar
-11.1257	dadi </s>
-11.1679	dado demasiado
-6.5822	dan detalles
-4.6448	dar a
-5.7242	dar pasos
-10.6606	dañados han
-4.6140	daños o
-18.7491	de acción
-15.5840	de acuerdo
-9.0533	de agua
-5.9565	de aguas
-12.9607	de américa
-12.4712	de anonimato
-12.8119	de antemano
-20.6235	de apagones
-11.5568	de aprobación
-16.4228	de atención
-11.9102	de atuendo
-19.0700	de autobús
-20.6342	de automóviles
-14.3987	de bancolombia
-19.5777	de bena
-4.6838	de bielorrusia
-22.3227	de bogotá
-19.2905	de bosques
-13.4474	de cachemira
-18.5268	de cada
-15.0607	de caldera
-12.6782	de captura
-16.0941	de carbón
-15.3848	de carga
-13.7623	de casos
-16.7222	de causas
-15.4717	de chiapas
-11.2936	de chile
-18.8839	de clinton
-21.1782	de colaboración
-13.5837	de colombia
-16.3779	de combustible
-9.4201	de comenzar
-9.7523	de compras
-15.9720	de confianza
-10.1160	de contaduría
-17.8468	de copiar
-15.0873	de correa
-20.8215	de corrupción
-16.0455	de costa
-14.4120	de crecimiento
-19.9934	de cristal
-13.0349	de crédito
-16.9330	de cuadro
-13.4443	de cuarenta
-8.3005	de cursos
-17.1441	de cólera
-12.0532	de daños
-20.5469	de defenderse
-15.8218	de definición
-8.0613	de depósitos
-16.2249	de derecha
-12.3030	de derechos
-18.5588	de desarrollar
-17.9644	de desmantelar
-17.2943	de dichas
-19.5196	de dicho
-19.4778	de dificultades
-16.0068	de dos
-14.0290	de duda
-7.9462	de dólares
-20.1922	de dónde
-8.7667	de edad
-10.3196	de ellas
-17.3808	de ello
-10.1623	de ellos
-18.7562	de elías
-10.2931	de enero
-19.5608	de enseñanza
-12.1175	de entel
-18.8361	de error
-19.9182	de esa
-16.9929	de esas
-18.0946	de escapar
-12.2995	de ese
-19.9617	de esos
-14.6013	de españa
-19.6796	de espera
-18.7971	de espuma
-14.7747	de esta
-10.8070	de estado
-20.0836	de estar
-17.9122	de estas
-15.9503	de este
-16.6355	de estos
-20.1638	de examen
-8.4182	de excelsior
-10.8782	de expresión
-18.2800	de extirpar
-21.4800	de extradición
-18.1839	de febrero
-19.5285	de financiera
-14.3134	de fines
-17.7996	de fondo
-15.5043	de frío
-16.0477	de fugitivo
-11.6820	de funciones
-16.2878	de georgia
-15.6420	de gobierno
-13.7048	de guerra
-19.7286	de hacer
-19.3139	de hacerlo
-10.7835	de hecho
-22.1470	de honduras
-16.3784	de hoy
-11.8940	de imagen
-14.7334	de importancia
-16.4631	de impuestos
-8.6402	de inmediato
-12.2436	de intención
-17.3394	de intensas
-18.1438	de intervencion
-16.1375	de interés
-14.7608	de israel
-9.9279	de janeiro
-21.2561	de jesús
-19.0341	de jubilaciones
-18.1698	de julio
-17.1675	de justificación
-6.9738	de la
-12.8939	de las
-15.3075	de leer
-20.6827	de lesiones
-23.1267	de llegar
-14.9956	de lo
-11.6227	de los
-17.8949	de madrid
-19.8669	de madurez
-13.5357	de magnitud
-10.4842	de manifestar
-10.8864	de mantenimiento
-1.6465	de marfil
-16.9773	de mayo
-21.3564	de mañana
-12.4589	de menores
-15.6060	de mi
-12.8114	de migrantes
-18.7158	de millonario
-17.8473	de momento
-9.9018	de monarquía
-17.1852	de moscú
-16.7296	de muerto
-20.1123	de muertos
-20.0507	de mí
-16.5835	de música
-10.4651	de negocios
-20.1146	de ninguna
-11.9882	de no
-17.9389	de nueve
-11.9923	de palencia
-10.8885	de papel
-11.8814	de paz
-18.1813	de pensiones
-16.3210	de perlas
-14.6251	de personal
-10.7455	de período
-14.3533	de pie
-13.6878	de piezas
-14.2316	de poderes
-20.3381	de por
-12.4601	de prensa
-19.1445	de preocupación
-19.5546	de primera
-11.9705	de privatizaciones
-16.2128	de problemas
-14.1701	de programas
-17.2766	de pronto
-15.7051	de página
-19.5116	de que
-18.4766	de queda
-19.1093	de racionamiento
-16.7487	de realizar
-13.1338	de reconstrucción
-17.5091	de recursos
-13.5927	de redacción
-20.0908	de reformas
-19.6504	de relator
-17.9156	de representantes
-17.0206	de reserva
-16.1604	de reses
-19.5955	de resolver
-22.9240	de respuesta
-19.0594	de rusia
-8.5318	de río
-8.1550	de salud
-11.9807	de sanciones
-10.2144	de santiago
-18.5290	de semana
-22.5108	de ser
-21.2853	de servicio
-7.3819	de sesiones
-19.7116	de sevilla
-14.6540	de siempre
-14.0837	de siete
-10.8329	de sistema
-20.0814	de su
-22.4207	de sumario
-17.0770	de sus
-20.0761	de sí
-22.2219	de tales
-20.2585	de tarde
-14.9219	de tasas
-22.2653	de teatro
-11.1054	de telmex
-11.5122	de tiroteo
-15.7326	de toda
-11.8202	de torta
-12.9305	de trabajo
-12.1937	de tragedias
-19.0019	de transporte
-14.8303	de treinta
-15.6981	de tres
-14.5691	de un
-8.9401	de una
-17.2514	de uno
-14.0982	de vida
-18.3686	de visión
-14.5904	de votos
-14.0872	de víctimas
-14.8910	de zulema
-18.4064	de énfasis
-15.6407	de éxito
-2.0790	debajo de
-0.7468	debamos ponernos
-7.1312	debate sobre
-8.0876	debatir con
-9.8008	debatió la
-9.1171	debe ampliarse
-13.6791	debe comprenderse
-6.4323	debe corregirse
-11.6979	debe encontrarse
-14.8363	debe examinarse
-8.3886	debe haber
-17.7781	debe plantearse
-11.2650	debe por
-9.0094	debe ser
-14.0873	debe tener
-10.8111	debemos desarmar
-8.2202	debemos llegar
-8.3969	debemos reaccionar
-8.2506	debemos seguir
-8.3978	deben comenzar
-7.7420	deben ser
-5.7090	deber dar
-6.9945	deberá evitarse
-10.3589	debería haber
-6.2471	deberían actualizar
-9.5890	deberían desglosarse
-9.8707	deberían tenerse
-8.9832	debido al
-8.2193	debieran ser
-8.6358	debió haber
-7.3594	debo agradecerle
-4.6631	debían reclutarlas
-7.7747	decenal de
-9.9685	decepcionar a
-9.7497	decida otra
-6.7597	decide no
-5.8153	decide sucesión
-0.0998	decidir </s>
-5.4596	decidirá </s>
-5.6428	decidirá quien
-8.4737	decidirá quién
-5.7690	decidió acceder
-5.8051	decidió descartar
-9.0905	decidió entonces
-7.1556	decidió mantener
-6.4553	decir del
-8.5516	decir gobernar
-6.1066	decir sí
-7.9119	decir verdad
-7.9287	decisiones por
-3.8557	decisiones se
-8.3726	decisión </s>
-9.7722	decisión agravó
-9.7574	decisión concreta
-7.1351	decisión no
-7.9657	decisión que
-8.3610	declara guerra
-7.9330	declaraciones en
-6.7119	declaración </s>
-8.9634	declaración anterior
-13.2873	declaración por
-1.0732	declaró </s>
-1.9460	declaró culpable
-6.2546	declinó comentar
-4.3035	decreto respectivo
-11.4076	defenderemos con
-8.7990	defenderse sostuvo
-10.7177	defendió a
-8.8018	defendió fuertemente
-11.6742	defensa propia
-3.4485	definiciones correspondientes
-3.0729	definición </s>
-7.7963	definitivamente abierto
-9.5342	definitivamente expresó
-9.1677	definitoria comentó
-9.0897	defraudar </s>
-0.2867	degeneren </s>
-6.5981	dejaba caer
-6.1248	dejar el
-4.9683	dejar la
-7.0789	dejará el
-5.1797	dejó ciega
-2.2298	del accidente
-16.1584	del acuerdo
-16.0605	del alto
-12.6224	del arbitraje
-13.2435	del arreglo
-11.8020	del artículo
-17.4689	del ataque
-9.3805	del atentado
-9.9179	del bósforo
-12.1675	del cabo
-15.2286	del campo
-13.3666	del carbón
-15.4855	del casino
-17.9960	del cero
-11.6062	del comercio
-9.6010	del comité
-15.3467	del control
-15.1301	del demandado
-16.2872	del desarrollo
-16.3308	del entendimiento
-10.3583	del equipo
-10.0493	del estero
-8.7857	del examen
-13.4513	del fin
-18.2190	del final
-15.9365	del fuego
-13.1253	del grupo
-16.2175	del horno
-17.8055	del informe
-17.7533	del interior
-22.2919	del juego
-9.2161	del mundo
-18.7726	del niño
-8.2576	del palacio
-12.4137	del parlamento
-15.5211	del país
-16.5440	del personal
-10.9721	del período
-15.6911	del plan
-13.0386	del presidente
-13.0605	del problema
-10.1089	del programa
-15.1497	del proyecto
-19.4251	del pueblo
-17.8989	del sistema
-13.3026	del tema
-19.1466	del tres
-16.5660	del tribunal
-11.7293	del uno
-15.6596	del viernes
-4.1167	delegaciones no
-10.4644	delegación es
-11.2663	delegación mantiene
-9.2128	delegación ofrece
-8.9425	delegados decir
-4.1515	demanda interna
-7.2070	demandado esta
-9.6697	demandante </s>
-10.4235	demasiado señaló
-9.5849	demasiado vieja
-8.1701	democracia y
-3.4756	democráticamente </s>
-3.4497	demora continúe
-4.2450	demora intolerable
-6.8655	demás hagan
-8.2965	demás tripulantes
-6.6497	denunciarlo </s>
-6.8415	departamento en
-7.1012	departamentos no
-9.6694	depende de
-5.4111	deportiva de
-9.9504	deprimido </s>
-10.2452	depósitos en
-2.3587	derecha triunfa
-5.5313	derecho a
-5.3935	derecho dijo
-5.1873	derecho internacional
-0.0135	derechos humanos
-6.7442	derrame petrolero
-13.1092	derrocamiento </s>
-0.3892	desacuerdo </s>
-6.4844	desacuerdo con
-3.1881	desalentadora </s>
-10.4817	desarmados enfatizó
-7.6241	desarmar a
-6.3606	desarrollando armas
-14.3734	desarrollar una
-5.2299	desarrollo </s>
-8.1630	desarrollo ahora
-8.9915	desarrollo social
-6.3356	desarrollo y
-8.8346	descarrilar el
-10.0935	descartado el
-9.8331	descartar esta
-6.1736	desconoce el
-4.8947	describen dichos
-10.0354	describen más
-6.6680	describir como
-12.3650	describió el
-7.3092	describía la
-8.9470	descubrir el
-15.2386	desde abril
-0.0556	desde entonces
-10.2629	desde luego
-16.8838	desde su
-4.2394	desea dominar
-8.0805	desea saber
-9.0173	desempeña una
-6.7578	deseo a
-6.3489	deseo referirme
-13.9533	desfigurada </s>
-8.7150	desgarramiento por
-3.7114	desglosarse </s>
-11.2863	desgraciadamente en
-5.2952	designar un
-12.8365	desmantelar los
-7.8059	desparición de
-1.3785	desplazarán batallones
-6.7872	despojado de
-0.4533	después </s>
-12.9393	después de
-12.2324	después en
-13.0909	después que
-1.3510	destacó </s>
-5.6709	destacó sin
-6.2417	destino de
-6.6405	destruídos </s>
-11.9352	desée continuar
-5.3373	detalle de
-0.9944	detalles </s>
-8.3598	detalles durante
-5.9020	detalles sobre
-7.5464	detenciones en
-5.5029	detenido </s>
-8.6271	detenido en
-6.1606	determinación de
-5.5805	determinado para
-10.7577	determinan por
-9.1792	determinarse de
-5.1206	determinará el
-5.4819	detrimento de
-9.3614	detuvo brevemente
-4.8959	deuda </s>
-6.5052	deuda no
-11.5307	diario habla
-6.1420	diarrea </s>
-9.4161	dice el
-11.2537	dice la
-9.1842	dice que
-12.9631	dicen que
-9.9347	dichas cartas
-7.2260	dicho </s>
-6.9305	dicho compromiso
-6.1146	dicho sistema
-13.4518	dichos cambios
-8.7411	dichos factores
-7.4744	dieciséis se
-6.6334	dieciséis zonas
-10.0568	diez </s>
-0.0682	diezmada </s>
-5.9599	diferencias </s>
-8.0431	diferencias comerciales
-10.9382	diferencias de
-1.0620	diferentes </s>
-10.9137	diferentes pruebas
-15.6598	diferido </s>
-0.0012	dificultades </s>
-3.7851	difícil </s>
-4.6196	difícil de
-4.9903	difícil la
-8.2003	difícil operar
-6.2497	difícil ser
-12.0593	difícil ver
-13.1808	difíciles y
-9.4835	dije que
-2.6553	dijeron a
-6.8413	dijo </s>
-17.6378	dijo a
-16.9121	dijo allen
-10.8304	dijo camacho
-16.2516	dijo con
-2.3492	dijo corro
-16.4165	dijo cuantos
-17.3482	dijo dadi
-21.6334	dijo después
-18.6517	dijo edmundo
-12.9888	dijo el
-9.7485	dijo fernández
-10.8663	dijo henríquez
-16.3793	dijo horacio
-17.4714	dijo marcos
-11.1709	dijo no
-10.8593	dijo porque
-15.5859	dijo posteriormente
-8.8518	dijo que
-12.9692	dijo ramos
-12.9860	dijo reyes
-12.5987	dijo rojo
-17.9738	dijo todo
-11.8679	dijo un
-0.1183	dinero </s>
-8.7958	dinero por
-6.6285	dinero se
-12.0677	dio con
-4.8796	dios te
-8.9005	diplomática dijo
-0.1775	diplomático </s>
-4.2851	diplomáticos creen
-2.3110	diplomáticos extranjeros
-5.9698	diputado claudio
-4.1811	dirección correcta
-4.8003	director de
-6.6354	director puede
-11.1701	directorio de
-9.0201	directrices o
-3.3853	dirige principalmente
-7.5168	dirigentes son
-6.6164	dirigió a
-4.0886	dirigía a
-1.3299	disculpen </s>
-9.1030	discutir por
-12.2007	discutiremos los
-11.4020	discutirlo </s>
-8.3376	discutiéndolo afirmó
-5.6351	diseño es
-7.4484	disminución en
-8.7768	disparos </s>
-5.9304	dispensado </s>
-9.8160	dispone a
-10.2778	disponible únicamente
-11.0038	disposición era
-7.2029	dispuestos a
-10.4434	disputa es
-6.4799	disputa podría
-11.4009	dista de
-9.5851	distinguido representante
-16.5660	distintos </s>
-9.2439	distraído por
-4.2749	distribuirá próximamente
-5.0006	disturbios estallaron
-7.2288	divergencias entre
-8.6534	diversidad en
-6.3207	diversión </s>
-1.2666	diversos contextos
-8.4532	diversos problemas
-10.4478	divida </s>
-7.8191	divididas </s>
-11.9811	dividido en
-9.4050	división entre
-6.1006	divulgado el
-6.5585	divulgara su
-7.9888	diálogo </s>
-1.9022	doce </s>
-6.4318	doctrina católica
-6.7074	documento </s>
-6.8571	documento para
-8.4325	documento se
-11.2409	dolorosa </s>
-7.9191	dominar el
-7.3673	dominaron </s>
-3.7357	domingo a
-6.1397	domingos </s>
-11.3770	dominicano aprobó
-8.9417	donde sólo
-6.7740	dos </s>
-7.4970	dos años
-8.2522	dos casos
-13.1710	dos estados
-10.3935	dos hijas
-8.5739	dos horarios
-7.7492	dos horas
-10.3526	dos informes
-11.9321	dos iniciativas
-11.9028	dos notas
-13.4707	dos objetivos
-12.3408	dos observaciones
-3.7265	dos pasajeros
-12.3376	dos países
-4.2226	dos pilotos
-8.9003	dos por
-10.9879	dos protocolos
-13.6414	dos soldados
-9.8482	dos tercios
-4.6260	dos tramos
-11.6466	dos valores
-7.4972	dosis </s>
-4.5427	doy la
-10.2237	doy las
-5.9656	drogas </s>
-11.6437	duda </s>
-4.0925	duda de
-4.2196	duda en
-7.1300	duda sabe
-10.6291	dudamos que
-8.0654	duración de
-3.7217	durante años
-10.1375	durante cinco
-3.6797	durante el
-2.9737	duraron alrededor
-4.9521	durarán un
-9.2977	dá cierre
-10.1245	dándose ahora
-4.3532	dé una
-8.3269	débil con
-10.9986	día </s>
-7.8972	día a
-10.4814	día completo
-4.8805	día el
-8.2965	día es
-7.3160	día mayormente
-6.8606	día más
-11.3975	día terrible
-5.2811	días </s>
-7.0644	días es
-8.5060	días se
-11.1915	dólar por
-5.7883	dólar registra
-13.1589	dólar se
-12.3371	dólar sigue
-8.7289	dólar y
-9.7428	dólares </s>
-5.5434	dólares la
-6.8697	dónde se
-5.0717	dónde vienen
-2.7505	dónde vive
-7.3434	e ilusiones
-9.5783	e inquieto
-5.9437	echó atrás
-10.0914	economía aseveró
-11.3145	economía más
-4.6683	economía venezolana
-7.3396	económica internacional
-6.3541	económicamente sería
-7.9062	económico no
-1.2880	económicos </s>
-7.9600	edad </s>
-8.9173	edición normal
-7.9066	edificio </s>
-7.8512	edificio del
-5.5079	edmundo garcía
-4.5804	educación sexual
-1.7172	educadores </s>
-11.5236	efectivamente </s>
-2.5354	efectos </s>
-6.9741	efectos se
-5.2563	efectuará el
-4.9921	efectuó el
-7.9490	ejecución en
-10.1395	ejecutan y
-0.1395	ejército </s>
-7.1293	ejército no
-14.3605	ejércitos no
-16.4386	el abra
-15.8796	el acatamiento
-18.8540	el acceso
-19.2041	el activo
-14.7025	el acto
-14.0312	el actor
-7.4252	el actual
-11.9018	el aeropuerto
-7.6166	el aislamiento
-7.4486	el anexo
-11.8985	el análisis
-18.2777	el apoyo
-9.0015	el apremio
-7.5210	el armamento
-11.1792	el arroz
-10.4409	el artículo
-14.2049	el asunto
-12.4560	el australiano
-19.5226	el automóvil
-11.9979	el autor
-17.2817	el avance
-16.6941	el avión
-7.0132	el banco
-9.1410	el campamento
-6.9865	el campo
-15.3085	el canciller
-20.6323	el capital
-16.1807	el capítulo
-9.8973	el cargo
-10.4799	el carnaval
-16.9112	el caso
-10.5867	el centro
-17.8352	el cese
-10.6224	el cierre
-22.8004	el comercio
-12.9648	el comienzo
-11.8132	el comisionista
-3.9680	el comité
-13.0706	el concepto
-16.6183	el congreso
-7.2958	el consejo
-18.4788	el consenso
-16.8017	el contrario
-17.0372	el control
-9.0346	el crecimiento
-11.5189	el cuadro
-8.1451	el cuestionario
-10.3002	el de
-18.0410	el decreto
-8.0317	el demandante
-18.5156	el departamento
-16.0394	el derrocamiento
-11.3255	el desarrollo
-13.2294	el destino
-1.9317	el detalle
-9.5552	el dinero
-11.2060	el diplomático
-14.7065	el diputado
-13.0329	el director
-16.0739	el directorio
-12.7483	el diálogo
-9.3931	el domingo
-6.5267	el dólar
-12.6208	el edificio
-8.9528	el ejército
-13.9060	el envío
-13.9345	el epicentro
-12.0179	el equipo
-12.5727	el espectáculo
-9.6541	el estadio
-12.7840	el estado
-12.2294	el este
-19.7843	el factor
-16.5326	el fallo
-9.1135	el festival
-16.3136	el fin
-5.3905	el formato
-12.1083	el funcionario
-5.7131	el futuro
-18.1969	el ganado
-12.0113	el gas
-11.0489	el gobierno
-18.5641	el golfo
-14.5788	el grito
-6.2856	el grupo
-16.6386	el hecho
-7.6330	el hogar
-4.3766	el hombre
-11.1849	el homicidio
-6.5693	el honor
-15.1726	el hospital
-17.1048	el incendio
-11.2650	el informe
-6.7048	el jueves
-18.3401	el jurado
-12.1079	el lienzo
-9.1712	el lunes
-20.8881	el mal
-11.7553	el marco
-12.0430	el martes
-14.9869	el mayor
-11.6007	el mediocampo
-4.2921	el memorando
-2.5583	el mercado
-16.4408	el mercosur
-16.3094	el ministerio
-17.1720	el mismo
-4.8881	el miércoles
-8.7358	el momento
-15.6026	el monopolio
-8.2414	el mundo
-17.3094	el mástil
-14.8781	el negocio
-15.6021	el norte
-18.7231	el nuevo
-16.9573	el nunca
-6.6243	el objetivo
-11.8243	el ocho
-8.6529	el oeste
-12.5697	el orador
-18.2800	el orden
-9.3633	el oro
-14.6166	el pacto
-9.6341	el pago
-9.0330	el pan
-17.7609	el papa
-14.9335	el paradero
-14.5584	el parlamento
-13.8341	el partido
-5.6563	el pasado
-12.0356	el país
-5.7676	el perro
-12.8925	el período
-13.0162	el perú
-14.2354	el piano
-14.7992	el plan
-13.4979	el planeta
-6.6729	el plazo
-18.9835	el pleno
-9.4582	el poder
-10.1292	el por
-16.6839	el portero
-12.8538	el precio
-9.0793	el presidente
-15.0432	el primer
-5.0308	el primero
-9.4613	el principal
-15.9504	el principio
-18.8655	el probablemente
-9.7299	el proceso
-13.3978	el programa
-7.2236	el propio
-13.6680	el propósito
-10.1833	el proyecto
-17.2482	el próximo
-11.3530	el pueblo
-6.9881	el párrafo
-15.3532	el quiere
-10.6591	el racismo
-12.4021	el recién
-8.6620	el resto
-11.7754	el resultado
-8.5909	el riesgo
-12.9420	el sabotaje
-13.8131	el salvador
-12.4710	el secretario
-4.6424	el senado
-16.6372	el suministro
-6.7728	el tema
-11.0048	el tercer
-14.4841	el terror
-10.1475	el testigo
-3.9672	el texto
-11.9625	el tiempo
-3.3694	el toque
-15.7798	el tratado
-12.6469	el tribunal
-16.6827	el título
-17.9173	el ultimo
-15.7884	el vaticano
-8.5477	el venezolano
-11.0231	el vocero
-15.0288	el volumen
-4.9779	el árbitro
-13.1070	el índice
-13.4353	el último
-1.8375	elecciones </s>
-4.9749	elecciones generales
-12.9061	elección es
-12.5607	electores de
-2.8590	electos </s>
-5.7913	electos democráticamente
-6.2688	elegir dónde
-0.6402	elemento partidario
-1.1140	elgueta </s>
-8.8599	eligen por
-4.4488	elijen porqué
-5.5147	ella menciona
-8.9946	ellas </s>
-4.6118	ellas dijo
-5.7984	ellas llevaría
-0.2739	ello </s>
-10.3764	ello debemos
-11.2339	ello es
-8.8293	ello evitó
-13.2471	ello exige
-11.8020	ello no
-12.7456	ello que
-11.2426	ello se
-14.4915	ello siguió
-0.8595	ellos </s>
-7.4676	ellos avancen
-4.5585	ellos cuidan
-7.5752	ellos dieciséis
-8.5441	ellos entender
-10.4831	ellos hubiera
-9.9097	ellos la
-9.5778	ellos los
-7.3241	ellos no
-7.6135	ellos sabían
-9.1389	ellos se
-6.2935	eléctrica </s>
-8.0577	eléctricos </s>
-12.5177	elías </s>
-20.8628	embargo aún
-23.4911	embargo en
-23.2146	embargo era
-25.3759	embargo esa
-26.4507	embargo ha
-26.7179	embargo habría
-19.3759	embargo la
-22.8125	embargo los
-21.1057	embargo no
-22.3069	embargo que
-8.2627	emigrar y
-1.9864	emiten juicios
-2.7101	emotivo adiós
-9.0588	empates sin
-10.7223	empezado a
-6.1890	empleadores pertenecían
-15.4851	empleará la
-7.4960	empresa es
-5.1783	empresarios arrecian
-12.9391	empresas tienen
-7.9445	empuja para
-20.7994	en albacora
-16.8037	en alemania
-20.1050	en algunas
-13.9109	en alza
-14.4778	en ambas
-12.4380	en aquella
-16.0193	en ascenso
-11.3884	en baviera
-9.5632	en berlín
-16.7044	en borrador
-11.3745	en bosnia
-16.4183	en brasil
-15.0974	en bruselas
-17.9014	en caracas
-2.5172	en caso
-11.2790	en chiapas
-15.7776	en chile
-7.5069	en ciudad
-12.9701	en completa
-14.1052	en conferencia
-7.2491	en conocerla
-9.5327	en consecuencia
-17.3415	en contra
-18.9156	en crisis
-19.3381	en cualquier
-14.2404	en cuanto
-5.6429	en cuba
-14.6851	en cuenta
-16.5076	en cuestión
-11.9653	en curso
-17.3600	en defensa
-13.4988	en desacuerdo
-12.8123	en desarrollo
-15.9856	en detrimento
-18.2416	en dos
-18.3444	en día
-6.3922	en el
-13.9724	en ellas
-18.6464	en entregar
-15.2499	en esa
-11.3670	en ese
-18.7474	en eso
-16.7404	en esta
-8.9018	en estado
-15.3193	en estados
-8.9064	en este
-16.4001	en esto
-13.6846	en estos
-12.6229	en estrecho
-19.3837	en eurodólares
-7.0004	en europa
-16.5215	en ex
-12.3914	en favor
-12.1949	en forma
-7.4686	en francfort
-19.0423	en general
-9.9136	en ginebra
-6.4944	en guayaquil
-23.8903	en hechos
-13.4417	en honduras
-5.2225	en hornos
-13.9298	en inglaterra
-18.5790	en inglés
-13.2688	en italia
-19.5335	en junio
-6.4358	en la
-14.1832	en las
-15.9959	en linares
-16.3709	en lo
-10.5767	en londres
-12.6844	en los
-12.2095	en malas
-7.6718	en marzo
-6.6394	en mercados
-15.2135	en mil
-15.9443	en millones
-14.9354	en ningún
-13.9631	en no
-10.9684	en novedades
-9.3497	en noviembre
-20.7112	en nuestro
-16.7503	en numerosas
-8.4310	en ocasiones
-17.9973	en otros
-15.0312	en particular
-0.7254	en parís
-9.7167	en perú
-13.0025	en pie
-15.7881	en primer
-10.6560	en provincia
-15.9904	en proyecto
-18.9018	en que
-11.2431	en relación
-17.9990	en respuesta
-16.2236	en resultados
-14.0912	en riesgo
-15.5698	en rio
-15.9415	en ruanda
-12.9596	en ruta
-20.4552	en santiago
-15.7596	en sarajevo
-15.8710	en segundo
-14.5650	en seis
-12.7669	en siete
-13.2575	en su
-16.9473	en suecia
-13.8781	en tal
-13.0384	en terreno
-20.4544	en todas
-11.0589	en todo
-13.0433	en todos
-13.4966	en tono
-16.9348	en tres
-16.3202	en término
-12.4155	en un
-13.4145	en uno
-12.1291	en uruguay
-16.9516	en vez
-9.2866	en visita
-12.6532	encarado </s>
-15.8860	encomendada al
-11.7793	encontraban en
-5.1077	encontrar un
-4.9027	encontrarse rápidamente
-8.3828	encuentra detenido
-9.6262	encuentra en
-10.5456	encuentran alguna
-10.6672	encuentran en
-3.0278	encuentro </s>
-11.3015	encuesta </s>
-6.5509	encuesta no
-5.0394	energía hidroeléctrica
-6.1146	enero </s>
-2.8708	enfatizó </s>
-6.0333	enfoque inductivo
-4.5147	enfoque nuevo
-6.7236	enfoque recae
-11.6421	enfrenta su
-8.2037	enmienda ha
-9.2988	enmiendas al
-3.6969	enmiendas se
-7.8111	enseñanza religiosa
-11.0867	ensucian los
-8.6996	entel consta
-9.0861	entender que
-7.7524	entendimiento </s>
-10.5321	entendimiento se
-2.9446	entonces </s>
-13.0062	entonces mantener
-11.0470	entonces sus
-9.2270	entre el
-11.1936	entre las
-8.9929	entre soldados
-12.6635	entre él
-10.8405	entrega se
-12.8265	entregar las
-7.8813	entregó a
-10.8291	entregó su
-11.7987	entren a
-1.5997	entrenador </s>
-8.2933	envases de
-6.5160	envíamos el
-4.9569	envío se
-3.5455	epicentro </s>
-9.9148	epidemia de
-7.9922	equipo a
-5.5668	equipo de
-10.3662	equipo dijo
-8.7838	equipo no
-2.7236	equipos en
-6.7104	equipos se
-6.1928	equipos venezolanos
-9.2556	era algo
-8.7765	era correcto
-5.8957	era el
-6.3007	era inevitable
-8.6875	era la
-7.1333	era lo
-9.8856	era muy
-7.1518	era pertinente
-11.2558	era posible
-10.9026	era su
-9.1322	era un
-10.6835	era una
-7.2038	era vincular
-6.4728	eramos periodistas
-2.8324	error </s>
-9.7055	error del
-15.8682	es actualmente
-15.2488	es anunciar
-14.9333	es así
-20.9569	es bastante
-16.8654	es bien
-16.3560	es bueno
-18.1620	es casi
-11.9895	es como
-11.7087	es compatible
-10.8151	es complejo
-15.1679	es conseguir
-18.5701	es correcta
-13.3563	es de
-12.0439	es el
-9.1412	es esencial
-12.7499	es evidente
-10.8035	es histórico
-19.9795	es hora
-16.1585	es horrible
-0.2378	es importante
-14.0696	es inaceptable
-16.6657	es indispensable
-14.0459	es irreal
-13.8105	es irrelevante
-11.0067	es la
-14.4683	es limitado
-13.1083	es lo
-18.3799	es mi
-12.0032	es muy
-10.2734	es necesario
-17.5569	es notable
-11.5679	es nuevo
-15.9805	es otro
-11.1444	es para
-15.5259	es partidaria
-19.2680	es patrullada
-12.3955	es por
-12.5240	es posible
-7.3714	es preciso
-9.7431	es probable
-9.5521	es que
-20.0384	es realista
-14.4573	es regresar
-17.4891	es responder
-17.0726	es sencillísima
-10.0301	es sinónimo
-17.4829	es solamente
-17.2100	es también
-15.9459	es tan
-15.1588	es tarea
-13.8784	es todo
-11.2668	es un
-6.9876	es una
-11.6571	es uniforme
-14.6705	es uno
-14.3248	es vasto
-9.3044	es ésta
-6.5699	esa base
-5.9322	esa creciente
-8.4778	esa dosis
-9.2459	esa es
-7.0313	esa esfera
-9.0223	esa finalidad
-7.3769	esa forma
-11.2687	esa gente
-12.1061	esa labor
-9.3124	esa meta
-9.4581	esa no
-12.6755	esa opción
-9.9030	esa opinión
-7.5927	esa petición
-7.4528	esa potestad
-11.5515	esa preocupación
-10.3211	esa procupación
-10.6950	esa propuesta
-13.8043	esa recomendación
-8.9618	esa regla
-10.8447	esa solicitud
-11.9190	esas acusaciones
-10.6844	esas autoridades
-14.2763	esas cifras
-13.2796	esas conclusiones
-10.7108	esas cuestiones
-16.1690	esas decisiones
-8.7157	esas enmiendas
-9.5731	esas listas
-16.2610	esas opciones
-12.0187	esas reservas
-14.2069	esas reuniones
-15.9840	esas son
-12.2591	esbozan a
-9.4448	escalas en
-4.8658	escalas mensuales
-11.0526	escapa a
-3.8282	escapar </s>
-8.8181	escasez de
-8.0034	escaso debido
-4.5679	escasos </s>
-6.9174	escogieron el
-8.6673	escojo la
-5.7100	escritor argentino
-2.8761	escritora que
-13.5326	escuché en
-3.6109	escépticos </s>
-10.2521	ese avión
-10.7896	ese consejo
-9.7502	ese debe
-10.2779	ese entendimiento
-7.0860	ese es
-7.7843	ese intento
-7.2265	ese material
-6.8025	ese plazo
-6.9899	ese problema
-7.9270	ese procedimiento
-6.8760	ese punto
-10.1616	ese respecto
-10.9269	ese sistema
-9.7651	ese supuesto
-5.8548	ese tipo
-3.0976	ese órgano
-9.1117	esencial </s>
-8.8443	esencial para
-6.3986	esencial se
-0.2179	esfera </s>
-8.9856	esfera era
-12.3622	esfuerzos la
-10.5373	eso en
-12.0885	eso está
-7.5865	eso explica
-5.1131	eso favorece
-10.1180	eso mismo
-9.3690	eso no
-7.7988	eso repercutió
-11.0335	esos esfuerzos
-18.3781	esos funcionarios
-7.4693	esos logros
-15.3285	esos objetivos
-15.3537	esos presos
-15.0236	esos sectores
-12.9014	espacial rusa
-16.3103	espaldarazo de
-9.1935	españa </s>
-9.3279	español aterrizó
-1.7123	especial </s>
-9.6169	especialistas les
-13.1919	especie </s>
-8.1765	especificó cuál
-3.2625	espectáculo agregó
-6.4807	especulación causó
-14.3099	especuló </s>
-6.2240	específicos </s>
-6.3615	espera para
-6.1184	esperaba la
-2.6689	esperamos acelerar
-4.2316	esperamos aclararlo
-7.2662	esperan cambios
-6.3908	esperan para
-7.9757	esperanza </s>
-3.1327	esperanza de
-9.9009	esperanzado al
-7.2184	esperar </s>
-7.3976	esperar mucho
-5.0975	esperar que
-3.7216	esperarse </s>
-7.5542	espero jugar
-6.4540	espero que
-3.5940	esposa </s>
-6.0974	espuma </s>
-12.4158	esta actividad
-7.9024	esta clase
-4.8613	esta conclusión
-11.2006	esta consulta
-11.8816	esta demora
-13.2132	esta enmienda
-14.8888	esta era
-11.1276	esta es
-6.7053	esta esfera
-8.7689	esta especie
-5.3635	esta estructura
-13.5406	esta política
-13.5990	esta propuesta
-12.4495	esta práctica
-9.4048	esta semana
-10.1566	esta separación
-13.5026	esta será
-8.5756	esta situación
-9.4801	esta solución
-6.3652	esta suma
-12.4960	esta teconología
-10.3734	esta teoría
-11.3977	esta zona
-7.7207	estaba riendo
-7.1845	estaban convencidos
-10.9969	estaban muy
-6.3284	estaban robando
-11.7193	establece un
-8.2732	establecieron cuatro
-2.4486	establezca precios
-5.1830	estación mir
-9.3274	estadio </s>
-5.6023	estado </s>
-8.2427	estado a
-8.4509	estado de
-6.6819	estado físico
-11.1864	estado hablando
-9.5208	estado norteamericano
-14.1903	estados contestaron
-0.1172	estados unidos
-10.8439	estados votaron
-6.9419	estadounidense </s>
-5.3422	estallado </s>
-9.4375	estallaron por
-11.0908	estamos cerca
-11.3628	estamos de
-4.8743	estamos dispuestos
-9.5497	estamos en
-5.3557	estamos hablando
-7.7996	estamos muy
-11.7108	estamos respetando
-6.7807	estamos revisando
-6.4763	estar con
-8.8236	estar dándose
-6.2449	estar en
-7.2367	estar igual
-5.7296	estar seguro
-5.6127	estará bien
-7.8324	estarán muy
-10.9958	estas actividades
-8.4868	estas autoevaluaciones
-6.8820	estas cuestiones
-9.2988	estas elecciones
-10.2242	estas medidas
-6.7503	estatal </s>
-13.5924	este abastecimiento
-9.1102	este aspecto
-7.8203	este año
-4.7529	este caso
-8.2534	este documento
-11.0796	este edificio
-13.3430	este era
-6.5822	este es
-8.6183	este fin
-10.6423	este fue
-6.2414	este informe
-6.2223	este invierno
-4.9163	este momento
-10.0037	este nombre
-13.6791	este particular
-5.9578	este proceso
-8.9857	este producto
-5.6113	este respecto
-11.2164	este rubro
-7.8963	este subtema
-8.0068	este también
-4.5164	este tema
-5.3980	este tipo
-10.2202	este virus
-11.6321	este y
-16.5131	estero </s>
-0.1810	estimadas </s>
-3.6250	esto </s>
-6.0694	esto aseveró
-8.7518	esto concluye
-7.9388	esto es
-11.8628	esto está
-7.0594	esto exacerba
-6.0968	esto no
-5.9393	esto parece
-11.5517	esto podría
-8.1986	esto pueda
-5.6834	esto puede
-13.5531	esto se
-10.8860	esto va
-4.8870	estonia decide
-12.3916	estos asuntos
-5.0856	estos días
-12.5618	estos efectos
-8.7150	estos estados
-5.8518	estos estudios
-15.8256	estos niveles
-11.1271	estos problemas
-11.8990	estos procesos
-10.3761	estos serán
-14.0297	estrecho del
-8.2123	estrellarse avión
-12.6145	estructura </s>
-11.2790	estructuras jerárquicas
-13.6457	estudia </s>
-7.2785	estudian dijo
-7.0625	estudio constante
-9.7675	estudios para
-9.5818	estuvo en
-9.0703	estuvo evidentemente
-10.5977	está abierto
-8.6075	está ahora
-4.4840	está asegurado
-14.5181	está basado
-7.1736	está bien
-6.8924	está completo
-14.1196	está cubierta
-9.9795	está definitivamente
-11.4500	está disponible
-5.6267	está dividido
-9.0865	está en
-11.4191	está hoy
-8.0024	está levantando
-11.1567	está muy
-11.9740	está más
-12.0954	está orientado
-11.1080	está sana
-10.8862	está seguro
-11.1257	está situada
-9.9873	está sumamente
-9.0889	está tranquilo
-12.5631	están de
-15.3595	están dispuestos
-6.8956	están divididas
-3.9760	están ocupados
-6.6458	esté desarrollando
-0.6480	eurodólares </s>
-6.5939	europa </s>
-3.7207	europa oriental
-5.0720	europeo de
-7.6187	evaluaciones </s>
-6.8280	evidente que
-12.7744	evidentemente la
-8.3788	evidentemente mejor
-12.1620	evidentemente no
-0.2614	evitado </s>
-8.3794	evitarse la
-6.9550	evitó que
-9.2801	evoluciona constantemente
-8.0373	ex guerrilleros
-11.4363	ex reserva
-7.2617	ex yugoslavia
-10.2322	exacerba aún
-10.3331	exacerbar diferencias
-1.7284	examen </s>
-6.7957	examen amplio
-5.9030	examinadas una
-9.7018	examinan esas
-5.8491	examinar el
-5.9942	examinarse la
-10.0209	excelsior </s>
-10.5406	excepción para
-4.9070	exceso policial
-12.1199	excluyó del
-5.3830	exhiben muestra
-11.4051	exige atención
-9.0009	exige tiempo
-8.7066	exige voluntad
-10.3924	exigen debate
-9.5966	exigió que
-0.9706	existe </s>
-6.6060	existe diversidad
-4.3669	existe el
-5.8805	existían programas
-8.1174	exitosa explicó
-6.9747	expectativas en
-3.3490	experiencia </s>
-2.7725	explica el
-5.9704	explicar esto
-1.3255	explicó </s>
-5.9521	explicó el
-9.8159	explosión </s>
-6.1507	explosión abrió
-7.2153	explosión causó
-8.9111	expresado por
-6.1523	expresados en
-2.0810	expresión libre
-8.4485	expresó </s>
-10.5123	expresó un
-10.9739	exterior </s>
-4.4617	extirpar el
-1.0394	extradición </s>
-5.9849	extranjeros </s>
-6.4025	extremadamente bien
-8.3915	fabrica en
-7.5245	fachada principal
-10.4594	facilidades en
-9.3133	factor internacional
-7.6080	factor tiempo
-9.9405	factores </s>
-10.5716	fallecido por
-2.0374	fallo condenatorio
-4.4618	falta de
-9.1458	falta mucho
-12.0687	fama </s>
-9.8376	familia han
-6.7462	familiares a
-11.1374	farias </s>
-7.6739	favor de
-7.6621	favorables </s>
-12.2762	favorece al
-11.4106	favorecido de
-9.6292	favoritos para
-8.3832	febrero fue
-9.8982	fecha concreta
-6.3107	fecha de
-6.5209	fecha no
-7.6169	fecsa iberdrola
-6.3675	federal aumentó
-11.6153	federal se
-3.3208	fenosa bajaron
-10.6357	fenómeno que
-5.6628	fernando rey
-12.2784	fernández </s>
-13.1475	festival </s>
-4.8663	festivo en
-6.6490	figura en
-7.9163	figura la
-9.0879	figura también
-6.5318	figura una
-12.8701	fijan el
-9.3942	fijan tasas
-6.8258	filipinas en
-4.9620	filme alemán
-8.2868	filosófico </s>
-8.2300	fin </s>
-2.1188	fin de
-4.6388	final </s>
-6.2303	final dijo
-1.6945	finalidad </s>
-5.8546	financiera privada
-7.5271	financieras fueron
-13.5012	finanzas </s>
-10.8477	fines de
-4.2736	fines múltiples
-12.7039	finlandia ante
-6.8206	firmado por
-9.4122	firmantes fue
-9.8278	firmaremos ningún
-7.6194	firmeza marco
-2.8492	flagrante agresión
-9.5197	flor pero
-3.0134	flujo negativo
-11.1992	fondo agregó
-5.8300	fondo de
-6.1706	fondo que
-8.3277	fondos de
-7.0129	forma </s>
-3.9460	forma competitiva
-6.3669	forma fue
-10.5754	forma masiva
-8.0958	forma parte
-11.3695	formación de
-5.2371	forman parte
-11.4356	formato de
-7.0934	formularon declaraciones
-5.9002	forzosamente que
-7.5762	fracasa formación
-4.7984	fracasado </s>
-6.2770	francas </s>
-2.4860	francfort </s>
-11.9223	francia no
-1.8777	francia reclamaba
-0.3169	francés </s>
-7.3278	francés está
-9.3627	franja política
-8.9333	frecuencia de
-1.7436	frecuente </s>
-10.2045	frenado agregó
-7.2349	frente al
-7.4647	frío después
-7.3397	frío explicó
-10.8643	fue adjudicada
-18.1772	fue allí
-11.5093	fue aprobado
-10.2405	fue basado
-9.6997	fue casi
-11.1796	fue del
-8.3610	fue desalentadora
-9.8926	fue detenido
-4.5444	fue el
-13.0583	fue firmado
-11.6564	fue hace
-10.6599	fue irregular
-4.0505	fue la
-9.7700	fue leve
-10.3576	fue muy
-12.8098	fue posible
-12.3094	fue realizada
-11.7382	fue realmente
-10.2324	fue rechazada
-8.9024	fue remitida
-6.6675	fue revelado
-6.7195	fue sacado
-8.2523	fue un
-9.6458	fue una
-9.1957	fue unánime
-9.5981	fuego </s>
-7.2510	fuego de
-12.3828	fuego pero
-4.9929	fuente irá
-6.9440	fuente oficial
-3.3204	fuera de
-4.9362	fueran complejos
-11.7999	fueron anunciados
-12.5986	fueron cerrados
-12.9030	fueron destruídos
-16.0970	fueron estimadas
-11.1418	fueron golpeados
-15.1928	fueron hechos
-16.6258	fueron por
-9.9568	fueron revelados
-10.6947	fueron saqueadas
-5.4480	fuerte especuló
-12.7089	fuertemente a
-1.6908	fuertes cañoneos
-8.1830	fuerza como
-2.6824	fuerzas </s>
-6.0476	fugitivo paulo
-0.5609	fumaba habanos
-6.4417	funcionario estadounidense
-5.1073	funcionario habló
-3.9447	funcionario se
-10.7513	funcionarios </s>
-14.1042	funciones </s>
-6.2016	futuro </s>
-1.4421	futuro agrícola
-5.8044	futuro legal
-11.0224	fábrica está
-6.7410	físico en
-9.8909	fórmula de
-10.5396	galardona la
-12.5071	galería de
-6.0966	galina con
-2.6659	gama de
-11.0011	gana un
-5.8277	ganado </s>
-7.2143	ganando dijo
-9.2388	ganar el
-2.7647	gane </s>
-8.9029	gane quien
-11.1152	garcía </s>
-3.7757	gas </s>
-7.7209	gas pero
-5.7537	gastos figura
-6.3077	gastos por
-1.7837	general </s>
-12.5768	general aceptó
-13.6933	general efectuará
-11.4494	general no
-12.8916	general será
-14.3083	general su
-6.4082	generales habrá
-6.2875	generar energía
-9.5162	generar expectativas
-12.7034	gente </s>
-7.4291	gente carece
-5.0093	gente criticará
-8.8587	gente llegue
-10.8713	gente no
-13.2656	georgia </s>
-5.0712	germán correa
-7.9722	gestos el
-7.9886	gigantes dijo
-3.8684	ginebra </s>
-7.9085	global de
-9.3224	gobernar el
-5.5480	gobierna después
-0.5845	gobierno </s>
-9.6164	gobierno brasileño
-7.6309	gobierno de
-8.2243	gobierno está
-6.0811	gobierno federal
-5.2010	gobierno insiste
-9.6514	gobierno que
-8.4911	gobierno se
-7.9452	gobierno transitorio
-13.5770	gobiernos </s>
-11.4186	goles consecutivos
-0.3975	golfo pérsico
-10.7434	golpeados hay
-7.9968	golpizas no
-6.8786	golán a
-10.2733	gonzález dijo
-3.2810	goycochea </s>
-11.1269	gracias a
-5.1371	gracias señor
-9.8941	graciela regresó
-7.4779	gran avance
-7.9119	gran cantidad
-6.9222	gran noticia
-6.1654	gran paso
-9.8277	gran reserva
-10.3586	gran resistencia
-8.2970	gran voto
-6.0815	grato deber
-4.1873	grecia </s>
-9.6632	grito ha
-1.1039	grupo </s>
-9.7625	grupo de
-7.5790	grupo es
-7.9463	grupo ha
-5.9432	grupo presenta
-13.2028	grupos de
-10.2229	guayaquil dijo
-10.9744	gubernamental </s>
-2.8995	guerra </s>
-10.7073	guerra a
-12.8473	guerra se
-16.7171	guerrillero </s>
-7.8742	guerrilleros inscriben
-8.5248	gusta el
-4.1119	gusta tirar
-14.3080	gusto a
-11.8072	ha abandonado
-8.8443	ha ampliado
-12.3403	ha analizado
-11.7161	ha anunciado
-18.2441	ha aumentado
-10.1556	ha cambiado
-14.3259	ha comprometido
-11.3808	ha concebido
-15.5927	ha continuado
-13.3666	ha creado
-13.1712	ha despojado
-16.8515	ha dicho
-16.1126	ha dispensado
-12.1758	ha ido
-10.3871	ha informado
-11.9685	ha llegado
-8.0680	ha logrado
-9.9774	ha mejorado
-12.3443	ha permitido
-15.7062	ha puesto
-11.8033	ha quedado
-7.1268	ha recibido
-11.5793	ha recuperado
-14.6294	ha rehusado
-8.1444	ha responsabilizado
-0.0770	ha sido
-14.5602	ha solicitado
-8.0474	habanos era
-8.7255	haber evitado
-6.4782	haber golpizas
-8.9125	haber habido
-6.0620	haber una
-10.2921	habido otros
-12.3293	habitual en
-5.8249	habla de
-8.0526	habla en
-6.6861	hablando de
-8.6003	hablando sobre
-9.2383	hablar de
-6.9956	habló bajo
-8.1490	habrá mañana
-6.7448	habrá más
-13.3270	habría necesidades
-13.0955	habría producido
-7.6796	habría que
-7.8872	había muchas
-8.4175	había otra
-8.9747	había práctica
-4.5856	había que
-7.8309	había tiempo
-12.0510	hace cargo
-7.5458	hace casi
-11.6740	hace en
-9.8489	hace falta
-6.6923	hacen cual
-8.5459	hacen envases
-3.7657	hacen los
-5.1537	hacen que
-7.5530	hacer algo
-5.9208	hacer comentarios
-10.6295	hacer dos
-7.0375	hacer en
-7.7946	hacer más
-5.8119	hacer para
-6.8136	hacer señaló
-10.7110	hacer un
-3.0294	hacerlo </s>
-4.7028	hacia adelante
-5.8062	hacia el
-8.2820	haciendo en
-3.6136	haciendo gestos
-8.5519	hagan lo
-9.8674	hago es
-11.9795	han adoptado
-2.2968	han dado
-5.6767	han de
-5.3328	han descartado
-6.7781	han fallecido
-10.7682	han frenado
-5.2213	han hecho
-6.6190	han inventado
-7.7574	han mejorado
-9.6362	han perdido
-12.8882	han preparado
-10.3593	han prometido
-12.4458	han propuesto
-6.3887	han rechazado
-5.6057	han reducido
-3.4673	han sido
-8.5071	han tenido
-12.3487	han variado
-5.7900	hará escalas
-5.2058	hará pleno
-8.2363	harán pero
-6.4916	hasta ahora
-6.0237	hasta el
-3.2671	hasta la
-8.6525	hasta que
-13.5376	hay acuerdo
-10.5131	hay algunas
-11.0001	hay bola
-8.8793	hay contradicciones
-16.1920	hay dieciséis
-8.5184	hay directrices
-9.0364	hay divergencias
-10.9728	hay dos
-11.0936	hay en
-10.2961	hay esperanza
-9.9270	hay excepción
-10.1217	hay exceso
-12.0863	hay libertad
-15.7189	hay mucha
-11.4248	hay mucho
-11.6686	hay más
-13.0139	hay nada
-13.1183	hay noticia
-12.7511	hay noticias
-14.0862	hay otras
-16.5399	hay papeles
-6.3670	hay que
-12.7613	hay quienes
-13.3122	hay reacción
-13.0793	hay separación
-12.4124	hay un
-14.2787	hay una
-10.8318	haya cambiado
-10.0698	haya cerveza
-15.5800	haya corrupción
-10.6427	haya llegado
-11.3124	haya pasado
-6.2574	he de
-7.9958	he empezado
-4.4686	he jugado
-1.4700	he repuesto
-9.4526	hecho </s>
-10.5183	hecho consumado
-6.3400	hecho dijo
-2.6042	hecho es
-7.9099	hecho siguió
-8.6348	hecho varían
-0.3170	hechos </s>
-9.4609	hechos económicos
-9.3324	hechos indican
-11.7053	hechos por
-11.4037	hemos avanzado
-5.9730	hemos concluído
-12.6243	hemos estado
-12.0181	hemos fracasado
-11.5359	hemos logrado
-11.3183	hemos mencionado
-13.1346	hemos pensado
-10.2188	hemos preparado
-7.9226	hemos visto
-10.3017	henríquez </s>
-8.2331	herida fue
-3.0680	heridas </s>
-0.0465	heridos </s>
-7.9550	hice hoy
-7.3118	hice nada
-4.6638	hicimos hay
-4.8693	hicimos y
-13.4063	hidroeléctrica </s>
-5.0735	hija </s>
-10.6273	hijas </s>
-2.4486	hijo </s>
-6.3040	hijo sabe
-8.8758	hijos y
-6.3805	historia de
-9.2940	histórico </s>
-9.6486	hizo los
-12.4495	hizo muy
-11.7621	hizo más
-6.4315	hizo operaciones
-6.6933	hogar en
-9.8196	hombre </s>
-5.5667	hombre avaro
-0.1419	homero </s>
-14.5198	homicidio </s>
-6.8771	honduras </s>
-5.9457	honor que
-4.4342	hora de
-7.4364	horacio </s>
-3.1556	horarios </s>
-4.9792	horas </s>
-15.2447	horno </s>
-3.0650	hornos improvisados
-8.6025	horrible dijo
-7.3762	horrible si
-3.4786	horriblemente desfigurada
-9.6802	hospital </s>
-7.6495	hospital pero
-0.1047	hoy </s>
-7.1316	hoy agregó
-8.6951	hoy algo
-5.9133	hoy día
-11.2579	hoy en
-8.1750	hoy es
-9.4854	hoy fue
-6.7287	hoy la
-9.8868	hoy miguelito
-9.6547	hoy reunión
-13.1701	hoy sería
-4.5588	hubiera estallado
-7.3750	hubiera personas
-9.0752	hubiera un
-2.8391	hubieran pagado
-8.0338	hubo comentarios
-9.6520	hubo conversaciones
-8.4264	hubo diálogo
-7.0369	hubo heridos
-4.1240	hubo indicios
-5.3678	hubo informes
-10.4130	hubo ningún
-10.3523	hubo testigos
-11.8370	hubo éxitos
-8.4965	huelga paraliza
-7.7729	humanidad o
-14.8939	humanos </s>
-13.7164	humanos proporciona
-10.7524	humildemente el
-9.5212	huída </s>
-7.1621	iberdrola se
-4.1751	iberdrola y
-5.7502	idea del
-3.0166	idea dijo
-5.6881	idea se
-11.3093	ideas y
-10.4732	identidad </s>
-11.2799	identifican en
-0.4365	ido extremadamente
-0.2589	idénticos </s>
-5.7408	ignoraba en
-7.8433	ignorado por
-11.9361	igual de
-9.7623	igual información
-9.9669	igualdad ante
-7.5419	igualmente amplia
-7.9934	ilaria era
-6.9463	ilusiones </s>
-5.2726	imagen </s>
-8.8130	imaginación </s>
-4.5330	imitado </s>
-3.1604	impidió que
-7.4951	implantara la
-4.6268	importa cuánta
-8.6677	importa equipos
-7.0870	importa menos
-8.8268	importaba </s>
-2.3306	importancia </s>
-3.7580	importancia trascendental
-5.1194	importante </s>
-8.9845	importante factor
-6.6659	importante que
-3.8134	importantes </s>
-1.8218	impositivas </s>
-1.5868	improvisados </s>
-10.6310	impuestos fue
-5.8264	impulsar relaciones
-6.3312	impuso el
-1.3393	inaceptable </s>
-7.6504	inaceptable dijo
-7.7787	inaceptable por
-6.1976	inaplicable añadió
-5.5681	incautaron los
-7.2649	incendio produciría
-12.5093	incentivo </s>
-11.3671	incentivos para
-11.8628	inciertas </s>
-0.7674	incluso renovarse
-9.0374	incluye comentó
-12.6908	incursiones contra
-11.0356	indebido de
-6.9356	independencia de
-16.6896	independientemente </s>
-8.0060	indica que
-5.5386	indican a
-9.6918	indican que
-7.1327	indicios sobre
-3.8569	indicó cuándo
-12.5394	indicó nos
-7.5855	indicó que
-9.8027	indios de
-7.8010	indique el
-14.0413	indispensable </s>
-4.4695	inductivo </s>
-7.9989	industria del
-6.3228	industria son
-6.3412	industrializados están
-8.0673	inevitable que
-9.9078	inflación de
-2.2256	influencia igualmente
-11.1795	influencia sobre
-6.9042	información en
-8.9642	información para
-3.9733	información reportó
-9.1504	informado que
-13.2473	informados y
-6.1923	informe anual
-7.0726	informe es
-7.2952	informe está
-9.8087	informe insta
-2.6418	informe pericial
-6.9581	informe se
-6.7583	informes a
-5.1042	informes de
-9.1507	informes han
-3.6625	informes inmediatos
-9.0324	informes médicos
-6.2046	informes pendientes
-3.6523	informó de
-5.8615	informó dos
-7.9103	informó que
-8.6519	informó sobre
-0.6836	inglaterra </s>
-2.0147	inglés </s>
-8.1886	inglés y
-8.3851	inicia conferencia
-12.7037	inicia hoy
-7.4519	inician investigación
-4.5738	iniciativa </s>
-4.4440	iniciativas </s>
-7.6125	inmediato </s>
-8.9339	inmediato si
-12.6332	inmediatos de
-8.7301	inmediatos sobre
-5.3849	inquieto </s>
-12.1707	inscriben partido
-12.4556	insiste en
-11.0882	insistió </s>
-7.0369	inspectores nucleares
-16.9005	insta a
-9.9644	instalaciones de
-8.1188	instalan nuevas
-14.2653	institucionaliza la
-6.4853	integra el
-20.1336	intelectual </s>
-10.9281	intención con
-9.8560	intensas negociaciones
-7.6358	intentaran nuevamente
-3.2365	intento de
-8.5996	interbancaria </s>
-12.4801	interesados en
-3.1356	interior </s>
-6.3516	interna </s>
-10.8110	internacional </s>
-15.3699	internacional en
-11.4444	internacional no
-1.8570	internacionales </s>
-7.8466	intervencion lo
-5.7499	interventor en
-8.2403	interés </s>
-7.2778	interés bancario
-8.1678	interés en
-6.2009	interés nominal
-10.4479	intolerable es
-4.8370	inutilizables </s>
-9.8475	inventado un
-6.7209	inversiones correspondientes
-7.1522	inversionistas pagan
-6.5777	investigaciones en
-12.7226	investigación </s>
-4.5877	investigación de
-10.1428	investigación sobre
-0.0001	invierno </s>
-8.2287	ir a
-12.4414	irreal </s>
-9.3282	irregular con
-6.6467	irrelevante advirtió
-6.3583	irá a
-7.8569	irán desea
-5.9475	iría </s>
-0.4670	israel </s>
-5.4803	israel cedería
-4.8881	israelíes </s>
-5.0356	italia </s>
-7.8007	italia es
-7.4021	itinerario será
-4.3588	jaime dirigió
-13.4524	janeiro </s>
-7.7580	japoneses les
-7.3206	japonés </s>
-5.6174	japón </s>
-8.0137	japón afirma
-14.3042	japón niega
-7.1114	jerusalén con
-9.8033	jerárquicas señaló
-11.1246	jesús </s>
-8.3326	juan carlos
-6.6540	jubilaciones </s>
-8.2189	juega o
-10.9161	juego es
-10.0457	jueves en
-8.8458	jugado en
-5.6581	jugar en
-5.3817	jugar tan
-8.6608	jugará el
-10.1817	juicio del
-4.9750	juicios sobre
-8.2859	julio </s>
-7.1323	junio </s>
-6.6652	junta </s>
-3.4117	junta constituirán
-8.0923	jurado lo
-11.7703	jurista de
-8.2336	justa y
-3.1777	justicia </s>
-7.5400	justicia se
-9.5008	justicia significa
-10.2420	justifica dijo
-6.6478	justifica poner
-8.9032	justificación no
-7.7032	justificadas </s>
-6.8990	juventud integra
-10.6579	la a
-18.3951	la acción
-13.8203	la actual
-6.0226	la actualidad
-17.8457	la agencia
-20.6492	la agrupación
-19.5506	la amplitud
-14.9066	la apelación
-13.5907	la apertura
-15.7371	la aplicación
-21.2022	la argentina
-10.9427	la asamblea
-14.3159	la atención
-12.1069	la ausencia
-13.7850	la ayuda
-16.5921	la batalla
-16.5295	la bienvenida
-13.4153	la cadena
-20.8206	la cafetería
-14.7816	la caja
-15.7436	la calidad
-11.3215	la cancillería
-17.4427	la cantante
-17.0387	la capacidad
-16.8848	la caravana
-14.9955	la carga
-9.5886	la carrera
-10.4805	la carta
-3.7021	la causa
-5.0477	la ciudad
-16.0060	la clasificación
-18.1913	la coalición
-10.4262	la coherencia
-11.6596	la comedia
-2.3721	la comisión
-15.1469	la compañía
-19.1470	la conclusión
-18.8426	la conexión
-16.1225	la conferencia
-17.7411	la cooperación
-15.3593	la copa
-20.0875	la corrupción
-13.4306	la corte
-17.6807	la crisis
-19.4112	la cuarta
-9.2401	la cuestión
-8.8255	la cámara
-8.2948	la de
-16.8100	la decisión
-15.3006	la declaración
-16.0398	la dejó
-19.5462	la delegación
-6.8764	la democracia
-12.3815	la demora
-18.9343	la desparición
-17.7049	la determinación
-1.8580	la deuda
-14.1765	la diarrea
-18.9457	la dirección
-16.6343	la disposición
-12.4522	la disputa
-17.3503	la diversión
-15.1745	la división
-15.7049	la doctrina
-8.4640	la economía
-14.9633	la edición
-13.9802	la educación
-12.5639	la empresa
-15.7401	la encuesta
-13.4749	la escasez
-6.3604	la escritora
-18.0238	la especulación
-17.5048	la esperanza
-13.5360	la estación
-16.1202	la ex
-6.3423	la explosión
-21.5097	la fachada
-16.0610	la falta
-13.6791	la fama
-14.9433	la familia
-10.0250	la fecha
-8.4723	la flor
-16.7242	la forma
-13.6014	la franja
-13.0929	la frecuencia
-9.0953	la fuente
-13.0673	la fuerza
-17.8550	la fábrica
-19.4077	la fórmula
-17.0212	la galería
-10.7068	la gente
-10.3487	la guerra
-13.2206	la herida
-13.0104	la hora
-18.1173	la huída
-8.3006	la idea
-8.3710	la industria
-8.6716	la inflación
-6.7394	la iniciativa
-4.4268	la junta
-6.5246	la juventud
-17.6219	la labor
-14.2984	la lengua
-13.1738	la lesión
-9.2241	la ley
-8.1793	la libertad
-13.6159	la liga
-10.5764	la ligera
-5.1468	la llevó
-10.0456	la lucha
-13.3281	la línea
-14.8095	la maniobra
-18.0841	la materia
-8.4222	la mayor
-6.7526	la mayoría
-16.3832	la medianoche
-21.3141	la medicina
-14.5689	la medida
-8.3947	la mesa
-16.5594	la misericordia
-9.6633	la misma
-11.4323	la mitad
-10.2376	la moción
-14.2783	la muerte
-12.6137	la mujer
-10.4850	la nación
-9.7075	la nave
-13.8210	la noche
-14.5037	la nota
-17.1429	la noticia
-9.9685	la nueva
-10.4101	la obra
-16.2665	la ocasión
-11.7647	la ofrece
-17.2021	la onza
-11.0701	la opción
-15.0036	la oposición
-12.9515	la orden
-4.6188	la palabra
-12.0048	la parte
-3.3364	la paz
-18.1991	la pelota
-16.2677	la película
-13.4780	la perturbación
-13.2181	la plata
-13.8610	la plaza
-18.7480	la población
-5.6248	la policía
-9.3245	la prensa
-14.9998	la presentación
-10.1802	la presente
-5.6896	la primera
-6.8119	la prioridad
-11.9846	la producción
-7.7726	la propuesta
-14.8015	la prostitución
-15.0875	la próxima
-13.7439	la puerta
-13.9955	la página
-10.9441	la pérdida
-17.1239	la que
-18.0870	la quinta
-12.5080	la radio
-17.5287	la razón
-7.3823	la raíz
-9.8984	la red
-15.4477	la reduccion
-5.4905	la reforma
-8.6442	la región
-14.6613	la remuneración
-12.4544	la reprogramación
-17.8199	la reserva
-7.9641	la resolución
-21.9338	la restricción
-7.0977	la reunión
-12.1610	la sal
-14.4883	la sección
-1.3734	la secretaria
-13.9554	la segunda
-11.4562	la semana
-12.4399	la serie
-11.0148	la señora
-12.6826	la silla
-8.0627	la situación
-20.5057	la soberanía
-8.8984	la solución
-15.7024	la subasta
-20.2414	la tarde
-12.4965	la tarea
-15.0522	la tasa
-15.3080	la televisión
-11.8335	la temporada
-14.9729	la tendencia
-14.1426	la tercera
-16.8061	la totalidad
-17.5472	la unidad
-14.1207	la venta
-10.5700	la verdad
-18.2023	la verificación
-11.3966	la vida
-11.2719	la violencia
-20.7731	la vía
-13.0423	la yodización
-13.7172	la zona
-14.7336	la época
-5.4708	la última
-10.5314	labor </s>
-7.5433	labor encomendada
-3.3020	lacalle viajará
-10.5222	ladra la
-8.4815	lamenta violencia
-8.8144	lamentaba su
-13.2942	lamentablemente en
-8.1031	lamentó la
-6.1956	lanzarse pues
-4.0465	largo plazo
-7.2797	las acciones
-14.9262	las actuaciones
-10.1483	las armas
-4.8127	las audiencias
-12.0385	las autoridades
-12.7060	las causas
-8.4450	las cifras
-10.5894	las construcciones
-10.5161	las conversaciones
-14.4749	las cortes
-9.5612	las definiciones
-15.6158	las del
-18.2443	las diferencias
-17.5376	las dos
-11.3865	las drogas
-12.6436	las empresas
-9.9228	las estudian
-11.9626	las evaluaciones
-15.5452	las facilidades
-11.1516	las finanzas
-14.7612	las gracias
-16.3219	las inversiones
-4.3304	las marismas
-5.3263	las mismas
-12.8536	las monografías
-14.9691	las muestras
-11.7201	las mujeres
-6.7052	las naciones
-13.7436	las necesidades
-13.2729	las necesitan
-8.1467	las negociaciones
-15.9581	las normas
-10.2212	las notas
-15.0555	las observaciones
-16.1724	las opiniones
-12.2189	las orcas
-12.5280	las otras
-13.1996	las palabras
-12.3891	las partes
-15.7428	las partidas
-14.7865	las podría
-13.4342	las preguntas
-14.5136	las primeras
-14.0609	las pruebas
-7.3631	las razones
-11.9225	las refinerías
-16.8975	las reglamentaciones
-16.5469	las relaciones
-12.9891	las reparaciones
-13.0064	las reuniones
-15.2477	las sanciones
-7.1891	las sentencias
-10.3398	las tarifas
-12.5797	las tasas
-13.8167	las triple
-7.0066	las tropas
-7.6809	las víctimas
-16.2825	las órdenes
-13.7143	latina las
-7.8697	le acaben
-3.0133	le agradecemos
-4.8545	le agradezco
-8.2945	le ha
-2.4293	le hubieran
-6.8790	le pondría
-8.7876	leer también
-13.0487	legal </s>
-9.8321	legalizar la
-6.2032	lejos en
-4.9659	lengua habitual
-7.3759	lento y
-2.7254	lentos </s>
-6.4562	les adjudica
-8.3851	les agradezco
-9.1944	les dijeron
-7.5875	les gusta
-9.1674	les haya
-4.9746	les molesta
-8.2375	les pido
-15.9927	lesionadas </s>
-12.6839	lesionados </s>
-6.4123	lesiones añadió
-11.2694	lesión no
-4.0710	levantando el
-8.7164	leve pero
-6.6682	ley </s>
-5.1870	ley justa
-6.3169	ley y
-8.0268	liberal es
-8.2079	liberarían a
-10.3558	libertad </s>
-11.3297	libertad para
-8.4336	libertad tendrán
-14.2958	libre </s>
-9.6289	libre es
-7.6190	lienzo no
-5.7007	liga decidirá
-7.3912	ligera </s>
-9.5519	ligeramente heridas
-10.2634	ligeramente la
-4.2617	limitado </s>
-4.2640	limitados </s>
-5.5259	limitan el
-8.1800	linares cerca
-6.0157	liquidar posiciones
-9.5544	lista de
-11.0042	listas se
-5.8702	llamarse pesca
-3.2256	llameante derrame
-10.0988	llamó a
-5.5597	llega canciller
-4.4832	llega la
-3.2858	llegado el
-7.3711	llegado la
-7.7267	llegado para
-3.3756	llegar a
-12.1415	llegue </s>
-3.9391	llegó a
-4.9877	llegó al
-6.5704	lleras de
-12.7218	llevaría a
-13.1479	llevé a
-12.5262	llevó a
-18.3737	lo aprobó
-13.8937	lo cierto
-14.3222	lo común
-13.0113	lo de
-12.7467	lo declaró
-12.9932	lo dominaron
-14.0893	lo esencial
-14.7141	lo general
-9.4442	lo hacen
-10.5424	lo han
-14.5012	lo harán
-10.9229	lo hice
-1.6146	lo hicimos
-18.0258	lo mejor
-4.2929	lo mismo
-14.8648	lo nuestro
-10.6566	lo peor
-8.8336	lo pronto
-12.6188	lo puede
-1.3662	lo que
-11.1049	lo seguirá
-15.0478	lo seguía
-14.7103	lo señalo
-12.1433	lo sintió
-12.3667	lo sucederá
-7.4327	lo tanto
-15.6984	lo tiene
-11.5596	lo único
-3.8844	local </s>
-8.7895	local y
-12.4364	locales de
-10.6455	localizó el
-9.1579	logrado </s>
-6.9828	logrado sólo
-7.1555	logrado un
-7.7330	lograr el
-15.1285	logros son
-6.9093	logísticamente varias
-7.6340	londres </s>
-9.9006	londres a
-9.0169	los acusados
-5.7998	los aeropuertos
-13.7674	los alegatos
-11.9708	los analfabetos
-14.8976	los artistas
-11.3918	los aspectos
-16.6803	los asuntos
-8.1260	los aumentos
-12.8097	los años
-13.6021	los bancos
-18.2367	los blancos
-4.3757	los bondes
-12.6474	los bonos
-10.9840	los cambios
-9.5082	los candidatos
-14.1513	los carteles
-7.4420	los casos
-14.7923	los cetáceos
-12.1923	los choferes
-15.8924	los choques
-10.8635	los colonos
-16.8966	los comités
-15.3012	los conflictos
-8.8074	los corros
-10.5409	los cuadros
-14.1356	los culpables
-14.8299	los delegados
-2.6048	los demás
-13.0607	los departamentos
-7.5347	los derechos
-17.1486	los detalles
-3.4615	los diplomáticos
-16.5534	los disparos
-13.5659	los disturbios
-11.8859	los dos
-20.4031	los efectos
-12.9099	los electores
-14.2749	los empleadores
-15.0081	los empresarios
-13.4089	los estados
-9.7945	los familiares
-6.6064	los favoritos
-16.9079	los fondos
-8.5120	los gastos
-14.7457	los gigantes
-11.5681	los gobiernos
-10.4227	los hechos
-14.3124	los hijos
-3.5023	los incentivos
-10.2741	los indios
-13.1896	los informes
-15.0320	los japoneses
-18.0800	los lugares
-13.5933	los líderes
-8.7438	los mayores
-18.8845	los mecanismos
-16.2474	los medios
-13.9152	los mejores
-12.1843	los miembros
-15.1307	los militares
-12.4141	los modelos
-15.3159	los musulmanes
-21.9490	los más
-6.8312	los niveles
-15.0369	los niños
-16.6542	los ocho
-17.3179	los organismos
-14.6513	los otros
-12.6797	los pasajeros
-11.3888	los países
-11.0528	los peligros
-8.5605	los periodistas
-13.5338	los periódicos
-14.5717	los planos
-9.8249	los principios
-9.8614	los problemas
-6.2884	los prorroga
-11.2369	los proyectos
-6.2848	los próximos
-16.7640	los que
-15.4387	los remedios
-14.0027	los requirimientos
-18.6560	los restos
-6.3823	los resultados
-10.8022	los rumores
-9.6086	los régimen
-18.9238	los soldados
-18.0998	los sueldos
-14.9196	los suministros
-16.8988	los sábados
-13.3984	los templos
-14.3539	los territorios
-7.5616	los tesobonos
-8.0642	los textos
-10.5170	los tiburones
-10.5786	los tiempos
-13.6117	los tipos
-11.4165	los trabajadores
-11.5530	los tribunales
-1.9758	los tripulantes
-6.5428	los turcos
-15.7900	los técnicos
-13.8354	los términos
-17.6130	los va
-12.9322	los vaqueros
-9.5173	los venados
-11.1029	los vicepresidentes
-7.7426	los votantes
-15.4508	los éxitos
-11.8002	los últimos
-5.4407	lucha en
-9.2938	luego de
-7.8975	luego ése
-6.5121	lugar a
-8.2262	lugar ayer
-7.6622	lugares públicos
-18.9250	lunes </s>
-9.2049	líder </s>
-8.7382	líderes de
-8.9963	límite global
-4.3597	línea aérea
-7.3716	lógicamente deberían
-6.3563	madrazo no
-10.8057	madrid está
-9.5042	madurez dijo
-5.4632	maestra y
-15.4975	magnitud </s>
-8.6713	mal gobierno
-4.5580	mala </s>
-10.1971	malas condiciones
-3.9148	malo </s>
-3.7464	manada de
-4.3423	mandato </s>
-5.2498	mandela acomete
-9.1741	manera de
-10.5000	manera está
-7.3289	manifestar mi
-5.5807	maniobra </s>
-9.2112	maniobras e
-13.9318	mantendrán </s>
-7.2208	mantener el
-5.9951	mantener su
-5.8381	manteniendo su
-4.5245	mantenimiento subprograma
-10.2894	mantiene en
-10.6464	mantiene la
-8.1075	mantiene su
-4.6122	mantuvieron escépticos
-13.5359	mantuvo un
-7.0512	mapuche </s>
-12.4226	mar </s>
-6.0879	marcador fueron
-8.5154	marchaba en
-0.6308	marco </s>
-4.2416	marco el
-7.8957	marco perdía
-6.6893	marcos </s>
-7.1363	marfil </s>
-6.0468	margen de
-6.1545	marismas no
-9.7386	martes </s>
-13.0863	marzo se
-11.6621	marzo y
-15.2274	masiva </s>
-7.6262	matar también
-8.7309	materia la
-0.0059	material </s>
-4.1077	materialize en
-10.3931	mayo </s>
-7.1995	mayor de
-4.4071	mayor importancia
-10.0243	mayor mina
-7.5518	mayor parte
-9.2629	mayor temor
-3.3988	mayores avances
-6.4739	mayormente tranquilo
-10.6432	mayoría de
-12.1459	mayoría simple
-3.2532	mañana </s>
-8.6673	mañana en
-8.5611	mañana por
-8.2314	me complace
-16.0829	me disculpen
-10.3295	me elijen
-14.0192	me empuja
-11.9212	me es
-13.1577	me gusta
-13.6178	me ha
-11.1570	me he
-14.2660	me iría
-10.6896	me parece
-7.8684	me reuní
-11.2559	me seleccionó
-5.3411	me siento
-5.2628	mecanismos fueran
-5.9808	media catedral
-5.3437	medianoche </s>
-8.8604	mediante un
-7.1866	medicina </s>
-5.1919	medida de
-0.1991	medidas </s>
-9.4979	medidas continuaban
-7.9057	medidas importantes
-9.3547	medidas para
-3.6995	medio se
-2.3440	mediocampo </s>
-10.6774	medios afirmó
-11.6981	medios de
-5.3379	mejor </s>
-7.7447	mejor estado
-5.6627	mejor que
-18.4070	mejorado </s>
-1.3887	mejorado significativamente
-5.1944	mejoramiento notable
-11.0830	mejoran el
-4.6214	mejorar la
-6.6245	mejorar su
-9.0036	mejores declaró
-5.4832	mejores equipos
-9.2124	memorando también
-7.7791	menciona eso
-2.0297	mencionado </s>
-5.9528	mencionado a
-5.3786	mencionar un
-7.9741	menem </s>
-7.3448	menem alfonsín
-3.2291	menem quitó
-5.3870	menores de
-8.0046	menos dos
-8.6248	menos gas
-13.3811	menos reformas
-10.9514	mensuales </s>
-8.6090	menudo se
-8.7997	mera cuestión
-0.6789	mercado </s>
-9.6371	mercado dijo
-11.4150	mercado esperaba
-9.9051	mercado está
-12.6548	mercado mantuvo
-10.8126	mercado tomaba
-14.3501	mercado volvió
-11.4030	mercado ésta
-6.3190	mercados mundiales
-10.3389	mercosur ha
-3.0097	mercouri trabajó
-10.1029	mesa </s>
-11.0626	meses </s>
-9.1658	meta </s>
-3.7751	mi conciencia
-5.8173	mi desacuerdo
-3.7949	mi grato
-11.5032	mi hija
-8.6788	mi hijo
-8.3747	mi nombre
-7.1664	mi padre
-9.7715	mi país
-8.4287	miedo </s>
-8.2514	miembro asociado
-8.2888	miembro del
-7.4486	miembros </s>
-6.6492	miembros cumplirán
-0.6182	miembros de
-9.6927	mientras el
-9.8684	mientras haya
-12.4838	mientras se
-7.7950	migrantes </s>
-6.3547	miguel dijo
-8.4850	miguel talavera
-8.8072	miguelito estuvo
-3.5201	mil novecientos
-0.3758	militar </s>
-8.2317	militares de
-6.9563	militares pesa
-9.5312	millonario se
-6.5561	millones de
-10.8630	milán tenía
-6.9106	mina de
-1.2605	mineros exigen
-10.4287	ministerial </s>
-12.9136	ministerio del
-3.0199	ministerio desempeña
-7.1454	ministro </s>
-5.1277	ministro de
-10.6282	ministro dice
-5.1866	ministros tratan
-4.3920	minucioso registro
-11.9554	minuto del
-8.1729	mir </s>
-5.7928	mis artículos
-9.3745	mis cosas
-9.4758	misericordia no
-8.0771	misma condena
-8.7813	misma posición
-10.8830	mismas deben
-7.1602	mismas instalaciones
-2.3829	mismo </s>
-8.1634	mismo agregó
-7.3345	mismo cabría
-10.5653	mismo nivel
-7.6910	mismo no
-6.9927	mismo ocurre
-4.0770	mismo ocurrirá
-10.7844	mismo que
-11.2183	mismo riesgo
-8.0435	mismo tiempo
-9.2161	mitad </s>
-11.5355	mitad de
-9.6096	miércoles de
-6.4873	miércoles dejará
-5.9914	moción no
-11.2285	modelo de
-4.2035	modelos de
-5.8883	moderado es
-7.3809	modernos no
-8.4582	modestos objetivos
-4.9035	modificó parcialmente
-8.5679	molesta este
-5.5198	momento </s>
-5.9415	momento de
-5.5991	momento el
-7.2455	momento expresó
-6.0913	momento la
-6.9675	momento no
-6.0320	momento que
-8.8284	momento tenemos
-11.9947	momentos se
-5.4472	monarquía </s>
-10.5155	monografías serán
-11.3514	monopolio </s>
-5.0355	monselas negó
-4.9254	montenegro </s>
-7.4764	morirá cuando
-9.0482	moscú se
-3.1465	mostró débil
-8.3019	motivo de
-6.1325	motivo justifica
-7.6351	moverlo expresó
-12.7190	mucha experiencia
-9.2920	mucha venta
-2.6202	muchacha valiente
-10.5796	muchas cosas
-3.3906	muchas ideas
-10.2151	mucho a
-6.1687	mucho agradeceremos
-8.7838	mucho más
-6.0059	mucho para
-2.1912	mucho queda
-9.4715	mucho tiempo
-5.2543	muchos asalariados
-10.8893	muchos científicos
-10.9061	muchos educadores
-7.2871	muchos niños
-8.4201	muere fernando
-7.4606	mueren trece
-8.7558	muerte como
-9.9888	muerto toda
-2.6858	muertos </s>
-8.6261	muertos en
-11.9802	muestra sobre
-5.3149	muestras solicitadas
-2.9065	mujer exigió
-5.9347	mujeres </s>
-5.5120	mujeres y
-1.0338	multas </s>
-2.8939	mundiales </s>
-7.0929	mundo </s>
-8.4616	mundo avanza
-5.8575	mundo de
-4.6919	mundo no
-8.4110	mundo será
-7.4411	mundo son
-0.0487	murieron </s>
-11.2683	murió poco
-10.8263	murmura </s>
-7.0670	musulmanes cerraron
-12.2430	muy activos
-14.3155	muy bien
-13.0493	muy buen
-4.7474	muy cuidadosos
-15.2909	muy difícil
-18.3282	muy diversos
-8.6449	muy dolorosa
-12.9162	muy francas
-5.4129	muy lejos
-14.0634	muy optimistas
-11.0501	muy peligroso
-18.0427	muy pocos
-14.5594	muy satisfactorio
-12.2984	muy severos
-16.9684	muy tranquilo
-8.0386	muy valiosa
-9.6986	muy variada
-10.9268	muy vendido
-0.7758	más </s>
-9.1218	más abierta
-11.6424	más adelante
-10.6897	más afectados
-9.0317	más alla
-6.6937	más allá
-10.4896	más aplicar
-10.2234	más bien
-13.2488	más comentado
-8.9559	más comentarios
-14.9382	más conocido
-5.9796	más de
-8.1382	más del
-11.4813	más demanda
-11.5767	más destacó
-10.6687	más detalles
-14.7525	más dinero
-8.2431	más diversos
-10.5200	más evidente
-9.9220	más fuerte
-6.5513	más la
-6.3343	más no
-11.4740	más pequeños
-9.6687	más rápidamente
-10.7372	más trabajo
-12.0185	más triste
-5.2333	mástil sin
-9.7541	médica </s>
-12.6009	médicos liberarían
-8.6521	méxico importa
-5.9794	méxico y
-8.9739	mí </s>
-9.8562	mí ha
-0.8861	mínimo </s>
-7.0773	mínimo a
-7.2470	mínimo de
-9.1232	múltiples son
-4.4824	música de
-8.5556	nacido murió
-4.0708	nacional </s>
-0.0034	nacionalidades </s>
-0.0131	naciones unidas
-11.3910	nación </s>
-7.2209	nación no
-8.8214	nada hasta
-4.4994	nada malo
-6.6348	nada murmura
-8.0322	nada más
-7.0072	nada nuevo
-2.2213	nada que
-8.9760	nadie afirmó
-9.9628	nadie hizo
-7.1877	nadie niega
-9.6658	nadie nos
-7.3570	nadie se
-8.0797	nadie tiene
-8.8859	nadie va
-0.0329	naturales </s>
-2.9329	nave chocó
-7.8155	nave espacial
-13.2294	naves se
-6.1264	necesaria una
-11.6662	necesario pues
-6.4709	necesario repetir
-6.9128	necesario responder
-0.7057	necesidad </s>
-7.1963	necesidades adicionales
-7.7642	necesidades financieras
-6.9305	necesidades relativas
-11.3939	necesitamos un
-6.5821	necesitan no
-9.3980	necesitarían muchos
-8.9327	negaron dijo
-8.5723	negativamente en
-1.6229	negativo </s>
-7.7862	negativo explicó
-5.2007	negociaciones </s>
-3.8139	negociaciones durarán
-2.2808	negociando </s>
-5.8100	negocio hoy
-2.2313	negocios constante
-10.2937	negra </s>
-6.8334	negó a
-3.2570	negó que
-5.6554	neta para
-14.6521	ni exacerbar
-11.0669	ni negativo
-5.1024	ni siquiera
-15.3216	niega que
-10.6504	niegan a
-8.0366	ninguna bomba
-6.1562	ninguna de
-7.3136	ninguna decisión
-6.3582	ninguna manera
-2.8279	ninguna presentación
-8.5329	ninguno de
-9.0705	ningún comentario
-8.9257	ningún documento
-10.0038	ningún miembro
-10.1342	ningún motivo
-11.0660	ningún nivel
-2.9777	nivel </s>
-7.8282	nivel gubernamental
-6.4018	niveles claves
-9.0848	niveles dijo
-10.4070	niño </s>
-2.7543	niños </s>
-7.2863	niños han
-16.4914	no aguarme
-8.3797	no anticipó
-14.0416	no asisten
-20.5249	no ayuda
-14.8501	no buscamos
-18.6559	no cabe
-14.5843	no carece
-13.7923	no compartieron
-16.5074	no comprende
-13.7682	no concuerda
-18.2322	no constituye
-5.4005	no creo
-13.9265	no de
-13.4514	no debería
-8.7580	no debían
-7.3145	no dijo
-11.7318	no dio
-7.3405	no dudamos
-5.6928	no empleará
-15.1696	no era
-13.2575	no es
-14.9570	no escapa
-10.4009	no especificó
-18.2982	no estamos
-17.0650	no estuvo
-14.4929	no está
-13.8537	no firmaremos
-12.2061	no forman
-9.5001	no formularon
-15.8505	no fue
-17.4062	no fueron
-9.3279	no ha
-16.1610	no habrá
-8.2080	no había
-13.8522	no hace
-17.8900	no han
-8.7781	no hay
-19.9051	no he
-11.1013	no hemos
-18.7276	no hice
-6.2840	no hubo
-14.1960	no impidió
-13.6123	no importa
-16.7795	no jugará
-6.3243	no justificadas
-16.8838	no las
-15.0756	no le
-11.1940	no legalizar
-14.6788	no les
-8.9756	no lo
-18.0662	no los
-10.0891	no me
-15.4976	no nos
-5.5687	no obstante
-12.1953	no parece
-13.5425	no pasa
-15.5754	no permitan
-13.3037	no pienso
-7.2084	no podemos
-17.1716	no podría
-16.9595	no por
-16.4431	no pretendemos
-16.5406	no preveo
-13.1442	no proporcionó
-8.2896	no pudo
-5.4118	no puede
-14.5080	no pueden
-9.3036	no puedo
-15.3940	no quedaron
-12.6252	no quería
-8.2970	no quiero
-14.0132	no quiso
-16.6848	no recibió
-12.6537	no reduce
-20.4972	no regresó
-8.9250	no sabemos
-13.2970	no sabía
-11.0349	no se
-14.5641	no sea
-10.2609	no ser
-4.2482	no si
-13.2523	no siente
-7.5750	no significa
-17.5027	no sindicales
-18.0525	no solicita
-13.8221	no son
-15.3087	no supimos
-14.6725	no sé
-15.0567	no sólo
-16.6013	no tener
-15.8190	no tenía
-13.9655	no teníamos
-14.3547	no tiene
-15.5258	no tienen
-12.1969	no todos
-11.8074	no veo
-12.8778	no volverán
-10.1800	noche </s>
-7.1619	noche anterior
-8.6480	nombrado secretario
-8.8888	nombraron interventor
-7.8765	nombre </s>
-9.8709	nombre dijo
-8.7335	nombre le
-8.2718	nombre vladimir
-9.1934	nominal también
-6.1026	norcoreanas inspectores
-7.6834	normal </s>
-6.3087	normal de
-4.0856	normalidad </s>
-8.0100	normas internacionales
-5.8123	normas referidas
-9.5258	norte argentino
-7.3880	norteamericano </s>
-7.0408	norteamericano aterrizó
-8.5277	nos defenderemos
-12.8008	nos estaban
-9.3737	nos hemos
-7.7829	nos la
-10.3928	nos rendimos
-6.8154	nos teme
-15.8135	nos toma
-5.1430	nosotros </s>
-9.1299	nosotros no
-7.5011	nosotros queremos
-9.5254	nosotros ya
-4.2002	nota </s>
-7.1166	nota en
-9.4018	nota pero
-2.0358	notable </s>
-13.0158	notas </s>
-3.9653	notas de
-10.6965	noticia </s>
-7.4445	noticia de
-7.4130	noticia del
-4.9340	noticias sobre
-0.1684	novecientos setenta
-15.5869	novedad en
-5.2847	novedades </s>
-1.5849	noviembre </s>
-10.8180	nuclear son
-18.1886	nucleares </s>
-8.4305	nueces y
-4.8691	nuestra posición
-7.2303	nuestra se
-9.3853	nuestras opciones
-12.0595	nuestro caso
-6.2033	nuestro diseño
-9.8928	nuestro no
-5.4187	nuestros científicos
-3.2266	nuestros ejércitos
-9.4654	nueva edad
-6.8566	nueva oferta
-5.9248	nueva reforma
-12.0127	nuevamente </s>
-6.5691	nuevamente nadie
-7.7479	nuevas antenas
-7.7905	nueve años
-7.1610	nuevo </s>
-8.3042	nuevo en
-10.0574	nuevo enfoque
-5.6481	nuevo entrenador
-8.0429	nuevo itinerario
-6.2101	nuevo líder
-8.8147	nuevo nombre
-11.6801	nuevo primer
-8.3742	nuevo tema
-9.1795	nuevo y
-6.6327	nuevos </s>
-6.3399	nuevos en
-5.0148	numerosas obras
-6.2382	numerosos variados
-8.0330	nunca dijo
-10.5934	nunca esta
-8.0682	nunca quizo
-12.4392	nunca se
-10.3839	nunca tuvo
-7.2492	o compasión
-7.0346	o criterios
-4.6862	o estudia
-7.7843	o filosófico
-5.0767	o incluso
-7.3245	o lesionados
-3.8373	o no
-9.2404	o rebeldes
-6.7936	objetivo en
-10.9263	objetivo era
-8.4540	objetivo es
-5.3208	objetivo no
-3.4859	objetivos </s>
-7.9139	objetivos básicos
-9.0832	objetivos es
-5.9590	objeto de
-6.2044	obra </s>
-7.8189	obra de
-6.9431	obras de
-5.3766	observaciones a
-3.4920	observaciones de
-10.2436	obstante el
-8.4370	ocasiones como
-7.5649	ocasión estamos
-10.3212	occidental del
-7.5655	occidente indicó
-0.7597	ocho </s>
-7.9921	ocho de
-4.0795	ocho pasajeros
-7.2326	ocho restantes
-8.7704	ocho se
-13.4096	ocupa de
-8.6681	ocupaban de
-10.0929	ocupados en
-13.4426	ocurre en
-6.3667	ocurrir </s>
-6.7701	ocurrirá con
-9.5179	oeste </s>
-12.2410	ofendido y
-7.0806	oferta de
-6.7960	oficial </s>
-9.5289	oficial no
-8.2353	oficiales se
-7.3021	oficina </s>
-9.0535	ofrece cumplir
-12.5932	ofrece no
-6.5066	ofrecer un
-2.4993	ofrecimiento </s>
-11.0183	ofrecimiento a
-8.4189	ofreció como
-5.6908	olvidar su
-1.7241	omar cardona
-7.5511	omisión importante
-10.7785	onza hoy
-0.4157	opciones </s>
-7.7842	opciones era
-7.5035	opciones y
-6.7535	opción existe
-6.9144	opción parece
-7.7212	operaciones al
-9.0215	operaciones de
-7.0202	operaciones la
-5.0039	operación cruzada
-6.5676	operación exitosa
-7.5008	operar </s>
-12.4255	opinan que
-8.6302	opiniones de
-0.3124	opinión </s>
-9.7454	opinó que
-19.5606	oposición </s>
-9.9936	opositores también
-0.0383	optativo </s>
-4.2890	optimista </s>
-10.0373	optimista por
-6.5876	optimistas </s>
-5.4411	opuesta </s>
-11.9928	orador desea
-9.6775	oradores se
-9.2408	orcas suelen
-1.4879	orden </s>
-9.1465	orden de
-7.9392	orden renuncia
-7.5682	ordinaria se
-6.1031	organismo se
-8.8140	organismo tiene
-9.0225	organismos de
-2.8739	organizar logísticamente
-5.7116	orientado hacia
-13.9289	oriental </s>
-9.7905	oro baja
-6.2244	oro en
-8.6323	oro tuvo
-10.3681	oscar </s>
-4.0669	otra cosa
-6.6747	otra manera
-4.3087	otra parte
-5.8037	otra situación
-6.3278	otras delegaciones
-11.7427	otras iniciativas
-11.0874	otras normas
-5.5113	otras opciones
-10.3307	otras partes
-6.8449	otras personas
-10.4426	otro </s>
-10.5926	otro año
-7.7421	otro problema
-0.0119	otros </s>
-9.4485	otros casos
-11.0608	otros dos
-11.7772	otros firmantes
-13.9479	otros oradores
-18.9615	otros trozos
-1.9520	pacificadores rusos
-6.1735	pacto </s>
-9.6800	pacto menem
-7.5179	pacto ya
-15.0313	padre sea
-12.1952	pagado por
-8.9814	pagan por
-5.6778	pagar por
-10.0379	pago final
-9.4996	palabra </s>
-8.4397	palabra al
-10.0052	palabras se
-9.1465	palacio en
-12.2334	palacios es
-6.3777	palencia </s>
-6.8261	palti declinó
-8.5973	pan se
-7.3928	papa lamenta
-2.5573	papel </s>
-8.3421	papel positivo
-6.3052	papeles sobrevaluados
-6.9035	par de
-13.5986	para algunos
-10.6858	para atender
-9.5011	para atraer
-11.9604	para cada
-15.2643	para comentar
-11.9355	para descubrir
-8.6470	para el
-7.0930	para ello
-10.9335	para emigrar
-15.6939	para ganar
-6.9726	para hacerlo
-10.1128	para la
-12.3233	para las
-10.9946	para los
-6.7438	para moverlo
-12.9947	para méxico
-8.5958	para mí
-13.3418	para nosotros
-13.9128	para primer
-12.3017	para que
-10.4610	para quedarse
-10.0716	para reducir
-12.8234	para siempre
-2.8889	para solucionar
